tree
version=v2
num_class=1
num_tree_per_iteration=1
label_index=0
max_feature_idx=8
objective=regression
feature_names=Column_0 Column_1 Column_2 Column_3 Column_4 Column_5 Column_6 Column_7 Column_8
feature_infos=[0:23] [0:6] [1:12] [0:2] none [0:1] [0:1] [0:1] [-9.5699996948242188:95.769996643066406]
tree_sizes=709 717 714 718 718 720 717 718 716 714 722 724 721 718

Tree=0
num_leaves=8
num_cat=0
split_feature=0 0 0 2 7 8 2
split_gain=224.844 66.7181 115.358 33.355 109.568 176.657 28.7245
threshold=5.5000000000000009 1.0000000180025095e-35 3.5000000000000004 11.500000000000002 0.17500000447034839 44.68499946594239 4.5000000000000009
decision_type=2 2 2 2 2 2 2
left_child=1 -1 -3 6 -5 -6 -2
right_child=3 2 -4 4 5 -7 -8
leaf_value=0.18176477852597797 0.16247903884953538 0.47905609653405185 0.22174195688286519 0.16377448682143672 0.19316750152849027 0.51241873783452574 0.15140599479445033
leaf_count=869 5491 26 716 926 87 35 8748
internal_value=0 0.356797 0.57703 -0.0359833 0.136195 1.02701 -0.0486557
internal_count=16898 1611 742 15287 1048 122 14239
shrinkage=1


Tree=1
num_leaves=8
num_cat=0
split_feature=0 1 0 1 2 7 2
split_gain=174.119 107.412 165.184 72.067 122.11 268.179 35.4406
threshold=5.5000000000000009 4.5000000000000009 1.5000000000000002 4.5000000000000009 11.500000000000002 0.46500000357627874 2.5000000000000004
decision_type=2 2 2 2 2 2 2
left_child=1 -1 -3 -2 -5 -6 -4
right_child=3 2 6 4 5 -7 -8
leaf_value=0.019899288559018975 -0.0090118759308221198 0.037392628969771136 0.32411199251810707 0.0035565777061837647 0.045886636169589295 0.42837881893947205 0.16996239292621612
leaf_count=1212 10918 267 27 4046 294 29 105
internal_value=0 0.313981 0.764012 -0.0316653 0.0768741 0.668567 1.67911
internal_count=16898 1611 399 15287 4369 323 132
shrinkage=0.12


Tree=2
num_leaves=8
num_cat=0
split_feature=1 2 7 8 2 8 8
split_gain=91.1079 104.131 244.899 160.138 36.3442 37.0356 27.6491
threshold=4.5000000000000009 11.500000000000002 0.12499999627470972 41.754999160766609 4.5000000000000009 54.024999618530281 29.545000076293949
decision_type=2 2 2 2 2 2 2
left_child=-1 4 6 -4 5 -2 -3
right_child=1 2 3 -5 -6 -7 -8
leaf_value=-0.0053883662857698786 0.015885493370221104 0.085713596241814738 0.14925882426000411 0.5847887553423643 0.00039063194593387524 0.06787410084634099 0.009604319732392853
leaf_count=12130 1509 105 31 20 2677 227 199
internal_value=0 0.118251 0.639295 2.66712 0.0763357 0.18903 0.299101
internal_count=16898 4768 355 51 4413 1736 304
shrinkage=0.12


Tree=3
num_leaves=8
num_cat=0
split_feature=0 1 0 1 2 8 8
split_gain=135.551 77.1701 128.528 40.651 73.0591 205.484 31.8746
threshold=5.5000000000000009 4.5000000000000009 1.5000000000000002 4.5000000000000009 11.500000000000002 44.68499946594239 33.174999237060554
decision_type=2 2 2 2 2 2 2
left_child=1 -1 -3 -2 -5 6 -6
right_child=3 2 -4 4 5 -7 -8
leaf_value=0.018157978485716451 -0.0072838467033076665 0.031113849342539069 0.17586578136140649 0.0020283761146159323 0.065046732205494201 0.34038146201302022 -0.014958018985661594
leaf_count=1212 10918 267 132 4046 157 34 132
internal_value=0 0.276894 0.658348 -0.028078 0.0534403 0.511116 0.23754
internal_count=16898 1611 399 15287 4369 323 289
shrinkage=0.12


Tree=4
num_leaves=8
num_cat=0
split_feature=1 2 7 1 2 8 8
split_gain=54.637 63.6933 183.687 138.964 27.8556 29.0074 20.3719
threshold=4.5000000000000009 11.500000000000002 0.12499999627470972 5.5000000000000009 4.5000000000000009 54.024999618530281 29.545000076293949
decision_type=2 2 2 2 2 2 2
left_child=-1 4 6 -4 5 -2 -3
right_child=1 2 3 -5 -6 -7 -8
leaf_value=-0.0041727505813722067 0.01287787956580016 0.067299348013741628 0.052078687315401821 0.45016240532909119 -0.00062246932371543505 0.058887943593941068 0.0019693311614606846
leaf_count=12130 1509 105 23 28 2677 227 199
internal_value=0 0.0915734 0.499077 2.25529 0.0587921 0.157451 0.20445
internal_count=16898 4768 355 51 4413 1736 304
shrinkage=0.12


Tree=5
num_leaves=8
num_cat=0
split_feature=0 8 1 0 1 1 2
split_gain=90.6754 81.6781 46.5156 35.3095 43.1299 24.7793 36.5467
threshold=5.5000000000000009 10.715000152587892 5.5000000000000009 1.5000000000000002 4.5000000000000009 4.5000000000000009 11.500000000000002
decision_type=2 2 2 2 2 2 2
left_child=1 -1 3 -3 -5 -2 -7
right_child=5 2 -4 4 -6 6 -8
leaf_value=0.2382656407356262 -0.0060161514192109428 -0.001479083907436317 0.091343079494006593 0.023683729516992779 0.10587820128016516 0.001575377401913038 0.043576669046042127
leaf_count=26 10953 710 134 587 109 4057 322
internal_value=0 0.227904 0.19823 0.144576 0.304634 -0.0247151 0.0388654
internal_count=16898 1566 1540 1406 696 15332 4379
shrinkage=0.12


Tree=6
num_leaves=8
num_cat=0
split_feature=0 8 0 2 8 2 2
split_gain=70.219 63.2515 20.5884 18.3032 40.0685 56.1075 71.1161
threshold=5.5000000000000009 10.715000152587892 1.5000000000000002 4.5000000000000009 61.545000076293952 3.5000000000000004 2.5000000000000004
decision_type=2 2 2 2 2 2 2
left_child=1 -1 -3 4 -2 6 -6
right_child=3 2 -4 -5 5 -7 -8
leaf_value=0.20967376264242024 0.0006000048666342906 0.0082338040555007125 0.036092623286267632 -0.0057245885149068629 -0.019132803626682446 0.018089003925738128 0.24691818549082825
leaf_count=26 5262 838 702 9801 23 207 39
internal_value=0 0.200556 0.174442 -0.0217493 0.0242443 0.400687 1.23518
internal_count=16898 1566 1540 15332 5531 269 62
shrinkage=0.12


Tree=7
num_leaves=8
num_cat=0
split_feature=0 1 8 2 0 1 1
split_gain=54.3776 53.6956 29.199 31.1315 22.7446 30.0495 19.1614
threshold=5.5000000000000009 5.5000000000000009 34.725000381469734 6.5000000000000009 1.5000000000000002 4.5000000000000009 4.5000000000000009
decision_type=2 2 2 2 2 2 2
left_child=1 4 -3 -4 -1 -6 -2
right_child=6 2 3 -5 5 -7 -8
leaf_value=-0.000789879800878745 -0.0049790844535932124 0.1994915902203527 0.12797440013018521 0.00029680278084494847 0.018850738193521548 0.086844254981827088 0.0044125294946023496
leaf_count=719 10953 29 55 55 597 111 4379
internal_value=0 0.176489 0.769795 0.534463 0.118697 0.245923 -0.0191394
internal_count=16898 1566 139 110 1427 708 15332
shrinkage=0.12


Tree=8
num_leaves=8
num_cat=0
split_feature=0 1 2 0 1 2 2
split_gain=42.11 41.5819 21.7113 17.6134 23.2703 15.6834 14.8823
threshold=5.5000000000000009 5.5000000000000009 2.5000000000000004 1.5000000000000002 4.5000000000000009 7.5000000000000009 4.5000000000000009
decision_type=2 2 2 2 2 2 2
left_child=1 3 -3 -1 5 6 -5
right_child=-2 2 -4 4 -6 -7 -8
leaf_value=-0.00069509438413903834 -0.0020211214739746688 0.17365681751021023 0.056939125340093266 0.010385887964958568 0.076422943378219726 -0.010207314525993124 0.057679033854178018
leaf_count=719 15332 29 110 223 111 206 168
internal_value=0 0.155311 0.677419 0.104453 0.216412 0.138239 0.255885
internal_count=16898 1566 139 1427 708 597 391
shrinkage=0.12


Tree=9
num_leaves=8
num_cat=0
split_feature=0 8 2 8 2 2 8
split_gain=32.61 45.8196 14.176 30.8967 43.5996 55.0286 11.4058
threshold=5.5000000000000009 10.715000152587892 4.5000000000000009 61.545000076293952 3.5000000000000004 2.5000000000000004 66.134998321533217
decision_type=2 2 2 2 2 2 2
left_child=1 -1 3 -2 5 -5 -6
right_child=2 -3 -4 4 6 -7 -8
leaf_value=0.17437450251900233 0.0010508351357592146 0.01373370030191999 -0.0045196931942143425 -0.016192840778309365 0.049718478807183199 0.21783905652853158 -0.0074409217085720089
leaf_count=26 5262 1540 9801 23 86 39 121
internal_value=0 0.136673 -0.0148216 0.0256557 0.356218 1.09184 0.135887
internal_count=16898 1566 15332 5531 269 62 207
shrinkage=0.12


Tree=10
num_leaves=8
num_cat=0
split_feature=0 1 2 0 1 2 2
split_gain=28.9212 27.3986 39.5895 14.7313 29.8587 13.4787 12.9015
threshold=5.5000000000000009 5.5000000000000009 2.5000000000000004 1.5000000000000002 4.5000000000000009 3.5000000000000004 6.5000000000000009
decision_type=2 2 2 2 2 2 2
left_child=1 3 -3 -1 -5 -2 -4
right_child=5 2 6 4 -6 -7 -8
leaf_value=-0.0014856017310975005 0.0043754580017191748 0.18088750172745097 0.076370910206437104 0.011383257620225701 0.075309934614342641 -0.0036200562164172712 -0.0058558644720765407
leaf_count=724 4174 33 50 591 128 11137 61
internal_value=0 0.129816 0.545754 0.0883091 0.189698 -0.012003 0.25986
internal_count=16898 1587 144 1443 719 15311 111
shrinkage=0.12


Tree=11
num_leaves=8
num_cat=0
split_feature=0 0 1 2 1 2 8
split_gain=22.3966 23.7092 83.9849 51.6088 12.681 11.905 22.2137
threshold=5.5000000000000009 1.5000000000000002 4.5000000000000009 2.5000000000000004 2.5000000000000004 4.5000000000000009 61.545000076293952
decision_type=2 2 2 2 2 2 2
left_child=1 -1 -3 -4 -2 6 -6
right_child=4 2 3 -5 5 -7 -8
leaf_value=0.00020590838526263918 -0.0052775848822816749 0.010017267323387456 0.25339130151271816 0.075296637514762788 0.0051856069641919873 -0.001621934011807154 0.049769486862070417
leaf_count=859 6520 591 30 107 3015 5606 170
internal_value=0 0.114238 0.247009 0.952462 -0.0105627 0.0142218 0.063044
internal_count=16898 1587 728 137 15311 8791 3185
shrinkage=0.12


Tree=12
num_leaves=8
num_cat=0
split_feature=8 1 2 8 8 2 1
split_gain=15.8872 11.3284 10.8762 18.1239 37.0206 25.5088 22.0581
threshold=6.1949999332427987 2.5000000000000004 4.5000000000000009 60.674999237060554 65.645000457763686 3.5000000000000004 4.5000000000000009
decision_type=2 2 2 2 2 2 2
left_child=-1 -2 3 -3 5 -5 -7
right_child=1 2 -4 4 -6 6 -8
leaf_value=0.055229478764533997 -0.0037259959425152687 0.0058001972669141323 -0.00048151608589347032 0.1857471926808357 -0.012093110440865806 -0.022594161168221504 0.11019592939421187
leaf_count=75 7194 3307 6126 30 92 31 43
internal_value=0 -0.00102809 0.0214018 0.0658462 0.361303 0.770066 0.45473
internal_count=16898 16823 9629 3503 196 104 74
shrinkage=0.12


Tree=13
num_leaves=8
num_cat=0
split_feature=2 8 2 8 1 8 1
split_gain=12.3412 36.6706 36.6743 17.2598 15.4145 11.3114 10.7286
threshold=3.5000000000000004 61.545000076293952 2.5000000000000004 10.715000152587892 5.5000000000000009 44.444999694824226 3.5000000000000004
decision_type=2 2 2 2 2 2 2
left_child=1 3 -3 4 -1 -5 -7
right_child=-2 2 -4 5 -6 6 -8
leaf_value=0.027233369833341348 -0.0018867013379767381 -0.018982884236004041 0.1750043724477291 0.00034951063616366529 0.13672794759273527 0.0044502672162549245 0.033748408486089801
leaf_count=81 12261 23 36 3731 24 435 307
internal_value=0 0.0448415 0.828185 0.0347459 0.435506 0.0253384 0.138102
internal_count=16898 4637 59 4578 105 4473 742
shrinkage=0.12


end of trees

feature importances:
Column_2=29
Column_1=23
Column_8=22
Column_0=20
Column_7=4

parameters:
[boosting: gbdt]
[objective: regression]
[metric: rmse]
[tree_learner: serial]
[device_type: cpu]
[data: ]
[valid: ]
[num_iterations: 100]
[learning_rate: 0.12]
[num_leaves: 8]
[num_threads: 0]
[max_depth: -1]
[min_data_in_leaf: 20]
[min_sum_hessian_in_leaf: 0.001]
[bagging_fraction: 0.8]
[bagging_freq: 5]
[bagging_seed: 3]
[feature_fraction: 0.9]
[feature_fraction_seed: 2]
[early_stopping_round: 0]
[max_delta_step: 0]
[lambda_l1: 0]
[lambda_l2: 0]
[min_gain_to_split: 0]
[drop_rate: 0.1]
[max_drop: 50]
[skip_drop: 0.5]
[xgboost_dart_mode: 0]
[uniform_drop: 0]
[drop_seed: 4]
[top_rate: 0.2]
[other_rate: 0.1]
[min_data_per_group: 100]
[max_cat_threshold: 32]
[cat_l2: 10]
[cat_smooth: 10]
[max_cat_to_onehot: 4]
[top_k: 20]
[monotone_constraints: ]
[feature_contri: ]
[forcedsplits_filename: ]
[refit_decay_rate: 0.9]
[verbosity: 0]
[max_bin: 255]
[min_data_in_bin: 3]
[bin_construct_sample_cnt: 200000]
[histogram_pool_size: -1]
[data_random_seed: 1]
[output_model: LightGBM_model.txt]
[snapshot_freq: -1]
[input_model: ]
[output_result: LightGBM_predict_result.txt]
[initscore_filename: ]
[valid_data_initscores: ]
[pre_partition: 0]
[enable_bundle: 1]
[max_conflict_rate: 0]
[is_enable_sparse: 1]
[sparse_threshold: 0.8]
[use_missing: 1]
[zero_as_missing: 0]
[two_round: 0]
[save_binary: 0]
[enable_load_from_binary_file: 1]
[header: 0]
[label_column: ]
[weight_column: ]
[group_column: ]
[ignore_column: ]
[categorical_feature: ]
[predict_raw_score: 0]
[predict_leaf_index: 0]
[predict_contrib: 0]
[num_iteration_predict: -1]
[pred_early_stop: 0]
[pred_early_stop_freq: 10]
[pred_early_stop_margin: 10]
[convert_model_language: ]
[convert_model: gbdt_prediction.cpp]
[num_class: 1]
[is_unbalance: 0]
[scale_pos_weight: 1]
[sigmoid: 1]
[boost_from_average: 1]
[reg_sqrt: 0]
[alpha: 0.9]
[fair_c: 1]
[poisson_max_delta_step: 0.7]
[tweedie_variance_power: 1.5]
[max_position: 20]
[label_gain: ]
[metric_freq: 1]
[is_provide_training_metric: 0]
[eval_at: ]
[num_machines: 1]
[local_listen_port: 12400]
[time_out: 120]
[machine_list_filename: ]
[machines: ]
[gpu_platform_id: -1]
[gpu_device_id: -1]
[gpu_use_dp: 0]

end of parameters

pandas_categorical:null
