tree
version=v2
num_class=1
num_tree_per_iteration=1
label_index=0
max_feature_idx=7
objective=regression
feature_names=Column_0 Column_1 Column_2 Column_3 Column_4 Column_5 Column_6 Column_7
feature_infos=[0:23] [0:6] [1:12] [0:2] [0:1] [0:1] [0:1] [-9.5699996948242188:95.769996643066406]
tree_sizes=3016 3088 3104 3091 3102 3094 3100 3119 3095 3105 3122 3111 3100 3120 3117 3119 3129 3123 3124 3111 3113 3104 3113 3134 3121 3105 3107 3126 3129 3131

Tree=0
num_leaves=40
num_cat=0
split_feature=0 2 0 0 1 1 1 2 0 0 1 1 7 2 7 7 1 2 2 1 2 7 1 0 2 7 7 1 7 7 1 0 0 2 2 2 7 0 7
split_gain=13737.1 2624.56 2445.97 3816.22 2227.47 1225.61 1181.38 1113.13 851.85 1079.04 2701.63 1147.09 1787.51 859.707 835.88 886.032 770.109 553.737 530.544 519.388 423.705 464.186 361.01 392.784 481.38 401.613 346.728 336.013 1343.69 323.136 304.931 380.722 901.007 432.283 249.74 509.34 241.865 234.855 228.507
threshold=5.5000000000000009 10.500000000000002 1.0000000180025095e-35 3.5000000000000004 1.0000000180025095e-35 4.5000000000000009 1.5000000000000002 4.5000000000000009 1.0000000180025095e-35 3.5000000000000004 1.0000000180025095e-35 5.5000000000000009 31.375000000000004 2.5000000000000004 33.204999923706062 39.745000839233406 4.5000000000000009 2.5000000000000004 10.500000000000002 1.5000000000000002 4.5000000000000009 54.065000534057624 5.5000000000000009 1.0000000180025095e-35 5.5000000000000009 70.295001983642592 30.935000419616703 4.5000000000000009 41.835000991821296 17.880000114440922 1.0000000180025095e-35 3.5000000000000004 1.0000000180025095e-35 7.5000000000000009 2.5000000000000004 3.5000000000000004 31.154999732971195 9.5000000000000018 39.104999542236335
decision_type=2 2 2 2 2 2 2 2 2 2 2 2 2 2 2 2 2 2 2 2 2 2 2 2 2 2 2 2 2 2 2 2 2 2 2 2 2 2 2
left_child=1 7 -3 4 -4 -2 -6 8 -1 10 13 17 -13 -10 -8 -16 -5 -12 20 -19 21 -7 30 -24 -25 -26 29 -11 -29 -20 31 32 -9 -34 -23 -36 -21 -31 -14
right_child=5 2 3 16 6 18 14 22 9 27 11 12 38 -15 15 -17 -18 19 26 36 -22 34 23 24 25 -27 -28 28 -30 37 -32 -33 33 -35 35 -37 -38 -39 -40
leaf_value=1.2764407211929076 1.1967047782708904 1.2670869793769985 2.1786516159723939 1.2694170702725427 1.2696039863804292 1.2261913828525191 1.502847233578521 1.2404259041029155 1.9730655319257504 1.2770113938430261 1.2603392810853573 1.9323312689424683 1.4856909448328404 1.5429373254329701 1.9861665001267503 1.607937319217057 1.5396039899992826 1.5862706543385299 1.197103986943362 1.50960399293694 1.205830402146078 1.1840225916484306 1.2398671439928282 1.570715097944094 1.2913244169974796 1.5334135150576655 1.2460517979897952 1.2921621279876139 1.7300585340836951 1.2693600852716058 1.251240677514611 1.227728986454935 1.3788347600204136 1.6267914896959375 1.4686949013776167 1.2807095152421626 1.3177561627424461 1.4156280855989873 1.2546039884665916
leaf_count=392 13652 147 21 107 20 1682 37 73 26 270 136 22 23 21 32 30 35 30 36 20 2756 43 76 27 93 21 594 86 22 41 1112 80 39 32 44 199 92 83 20
internal_value=0 1.93786 4.23624 5.96022 9.66508 -0.318283 7.98945 1.57443 2.31557 2.9278 4.09475 3.12047 6.90244 11.2049 9.40563 11.6503 2.30753 2.2362 0.0812992 3.61739 -0.0430321 0.311376 1.02083 2.21715 3.2049 2.30568 0.860266 1.72381 3.21455 2.16686 0.82652 1.89097 2.8627 5.39908 1.48915 1.88224 2.62758 2.93259 3.15146
internal_count=22272 3142 429 282 140 19130 119 2713 1160 768 390 343 65 47 99 62 142 278 5478 142 4724 1968 1553 217 141 114 754 378 108 160 1336 224 144 71 286 243 112 124 43
shrinkage=1


Tree=1
num_leaves=40
num_cat=0
split_feature=0 2 0 0 1 1 1 7 2 0 0 1 1 7 2 1 7 2 2 7 1 7 1 0 2 7 7 7 1 7 7 7 1 7 1 0 7 0 7
split_gain=12397.8 2368.67 2207.49 3444.14 2010.29 1106.12 1076.34 1068.67 1004.6 768.795 973.831 2438.22 1035.25 1613.23 775.886 695.023 542.609 478.816 382.394 423.452 376.194 355.541 325.812 354.488 434.446 362.456 317.817 312.922 303.252 1212.68 300.677 291.63 290.891 287.611 236.786 226.474 216.415 211.956 206.228
threshold=5.5000000000000009 10.500000000000002 1.0000000180025095e-35 3.5000000000000004 1.0000000180025095e-35 4.5000000000000009 2.5000000000000004 37.194999694824226 4.5000000000000009 1.0000000180025095e-35 3.5000000000000004 1.0000000180025095e-35 5.5000000000000009 31.375000000000004 2.5000000000000004 4.5000000000000009 40.424999237060554 10.500000000000002 4.5000000000000009 59.954999923706062 2.5000000000000004 66.134998321533217 5.5000000000000009 1.0000000180025095e-35 5.5000000000000009 70.295001983642592 45.055000305175788 30.935000419616703 4.5000000000000009 41.835000991821296 77.115001678466811 17.880000114440922 4.5000000000000009 63.495000839233406 1.5000000000000002 12.500000000000002 52.475000381469734 9.5000000000000018 39.104999542236335
decision_type=2 2 2 2 2 2 2 2 2 2 2 2 2 2 2 2 2 2 2 2 2 2 2 2 2 2 2 2 2 2 2 2 2 2 2 2 2 2 2
left_child=1 8 -3 4 -4 35 34 32 9 36 11 14 16 -14 -11 -5 -13 18 19 -7 -18 33 30 -24 -25 -26 -22 31 -12 -30 -10 -19 -8 -21 -6 -2 -1 -33 -15
right_child=5 2 3 15 6 17 7 -9 22 10 28 12 13 38 -16 -17 20 27 -20 21 26 -23 23 24 25 -27 -28 -29 29 -31 -32 37 -34 -35 -36 -37 -38 -39 -40
leaf_value=0.042514052785953549 -0.030785115927273191 0.044128644060926377 0.91011505173075768 0.046342230497676634 0.04651980221271515 0.0084961096961935299 0.44726520186221158 0.71533279346842926 0.035369131420892902 0.71480825089204769 0.053556837770673965 0.060254176951868021 0.67611068390648477 0.2518024073994678 0.30618646258399607 0.30301979954753605 0.35809706444370337 -0.022355198942952688 -0.01406510675701763 0.090366075507232135 0.29454282045364383 0.00087385321104968029 0.018269802355452589 0.33257535232437985 0.067154209299754075 0.29713884336607799 0.044686358996800013 0.024145221927200103 0.067950030225653976 0.4839516254311258 0.18387749203613826 0.046288092325373398 0.19914375132038481 0.28309288341552019 0.28982319951057439 -0.017582985858659486 0.18445382539568278 0.18524269109748934 0.032269799113273621
leaf_count=363 5327 147 21 107 20 1833 27 31 1301 26 270 194 22 23 21 35 29 36 2756 49 20 54 76 27 93 21 35 594 86 22 35 41 21 32 20 8325 29 83 20
internal_value=0 1.84097 4.02443 5.6622 9.18182 -0.302369 7.58998 9.73 1.4957 2.19979 2.78141 3.89001 2.96445 6.55732 10.6447 2.19216 2.12439 0.0772343 -0.0408805 0.295808 4.24755 2.00505 0.969791 2.10629 3.04465 2.1904 2.71087 0.817253 1.63762 3.05382 0.785194 2.05852 6.77424 3.3301 3.36343 -0.454689 1.06029 2.78596 2.99388
internal_count=22272 3142 429 282 140 19130 119 79 2713 1160 768 390 343 65 47 142 278 5478 4724 1968 84 135 1553 217 141 114 55 754 378 108 1336 160 48 81 40 13652 392 124 43
shrinkage=0.05


Tree=2
num_leaves=40
num_cat=0
split_feature=0 2 0 0 1 1 1 7 2 1 1 0 0 0 7 7 7 2 2 7 0 0 1 2 1 6 7 7 1 2 3 2 2 1 7 1 1 1 0
split_gain=11189 2137.72 1992.26 3108.33 1814.29 998.271 971.4 964.476 916.148 1069.47 1080.12 688.688 2102.21 686.721 681.348 620.47 932.702 432.131 345.111 391.667 335.806 534.712 736.418 434.866 368.803 429.327 282.412 263.197 262.529 251.275 227.202 304.463 335.589 225.251 571.103 338.513 217.676 213.7 204.393
threshold=5.5000000000000009 10.500000000000002 1.0000000180025095e-35 3.5000000000000004 1.0000000180025095e-35 4.5000000000000009 2.5000000000000004 37.194999694824226 3.5000000000000004 1.0000000180025095e-35 5.5000000000000009 1.5000000000000002 1.0000000180025095e-35 1.0000000180025095e-35 46.125000000000007 23.314999580383304 31.375000000000004 10.500000000000002 4.5000000000000009 54.065000534057624 1.0000000180025095e-35 3.5000000000000004 1.0000000180025095e-35 7.5000000000000009 4.5000000000000009 0.19500000029802325 30.935000419616703 17.880000114440922 4.5000000000000009 7.5000000000000009 1.0000000180025095e-35 2.5000000000000004 3.5000000000000004 1.5000000000000002 56.409999847412116 4.5000000000000009 5.5000000000000009 1.5000000000000002 12.500000000000002
decision_type=2 2 2 2 2 2 2 2 2 2 2 2 2 2 2 2 2 2 2 2 2 2 2 2 2 2 2 2 2 2 2 2 2 2 2 2 2 2 2
left_child=1 8 -3 4 -4 38 37 28 9 11 -11 12 -1 -12 -5 -15 -17 18 19 -7 -10 22 23 -22 -23 -26 27 -19 -8 33 31 -21 -33 34 -24 -35 -31 -6 -2
right_child=5 2 3 14 6 17 7 -9 20 10 13 -13 -14 15 -16 16 -18 26 -20 30 21 24 29 -25 25 -27 -28 -29 -30 36 -32 32 -34 35 -36 -37 -38 -39 -40
leaf_value=0.079998207172831973 -0.029245861147948051 0.041922212528939157 0.86460928065436227 0.057231948717186856 0.044193806946277621 0.0048530223434979231 0.42490193738291665 0.67956615258609099 0.021181992747357506 0.063628998956668709 0.057143028600271366 0.096701924604448417 0.61299144569280983 0.070096735520796344 0.35992101674730126 0.61040152082076438 0.2275766496614712 -0.02123743933108118 -0.01336185005162295 -0.036329032688639885 0.14589107011755306 0.0095984606264418026 0.37163503456115721 0.38384741917252541 0.067121193209638844 0.31336379293352368 0.022937960807321852 0.13233312471739708 0.18918656564894176 0.011450634602301136 -0.051198289053780689 0.23243742822246119 0.076927768012009012 0.040948225475527761 0.033669512271881107 0.15269545946141772 0.159854868876523 0.27533203780651094 -0.016703839195383204
leaf_count=37 5327 147 21 120 20 1682 27 31 621 617 43 44 37 22 22 26 41 36 2756 43 48 446 25 32 154 20 594 124 21 167 35 44 164 163 25 116 29 20 8325
internal_value=0 1.74892 3.82321 5.37909 8.72273 -0.287251 7.21048 9.2435 1.42092 2.26886 1.82802 5.06703 6.9299 4.4243 2.08255 6.00971 7.52271 0.0733726 -0.0388364 0.281017 1.02267 1.32635 1.99517 4.82147 0.673705 1.9085 0.77639 1.95559 6.43553 1.56449 1.36289 1.69572 2.19648 2.09847 4.05305 1.74819 0.668168 3.19526 -0.431955
internal_count=22272 3142 429 282 140 19130 119 79 2713 867 749 118 74 132 142 89 67 5478 4724 1968 1846 1225 605 80 620 174 754 160 48 525 286 251 208 329 50 279 196 40 13652
shrinkage=0.05


Tree=3
num_leaves=40
num_cat=0
split_feature=0 2 0 0 1 1 1 7 0 0 1 2 1 7 1 1 2 2 7 7 2 7 7 2 2 7 7 7 7 1 2 2 1 7 1 1 0 0 7
split_gain=10098.1 1929.29 1798.01 2805.27 1637.4 900.94 876.689 870.44 831.451 1021.03 2436.25 1304.52 1172.45 1650.65 622.61 444.997 389.999 382.682 1194.65 611.297 311.462 358.936 307.263 265.68 261.697 260.438 254.877 244.422 237.535 236.933 214.284 301.464 424.801 227.312 193.408 192.864 191.29 184.465 204.163
threshold=5.5000000000000009 10.500000000000002 1.0000000180025095e-35 3.5000000000000004 1.0000000180025095e-35 4.5000000000000009 2.5000000000000004 37.194999694824226 1.0000000180025095e-35 3.5000000000000004 1.0000000180025095e-35 2.5000000000000004 5.5000000000000009 31.375000000000004 4.5000000000000009 4.5000000000000009 10.500000000000002 5.5000000000000009 41.835000991821296 52.174999237060554 4.5000000000000009 59.954999923706062 66.134998321533217 7.5000000000000009 7.5000000000000009 63.495000839233406 30.935000419616703 33.204999923706062 17.880000114440922 4.5000000000000009 2.5000000000000004 4.5000000000000009 1.5000000000000002 31.154999732971195 3.5000000000000004 1.5000000000000002 9.5000000000000018 12.500000000000002 6.1599998474121103
decision_type=2 2 2 2 2 2 2 2 2 2 2 2 2 2 2 2 2 2 2 2 2 2 2 2 2 2 2 2 2 2 2 2 2 2 2 2 2 2 2
left_child=1 8 -3 4 -4 37 35 29 -1 10 11 -10 24 -14 -5 27 20 18 -17 -20 21 -7 25 -13 30 -23 28 -11 -18 -8 -12 32 -32 -34 -35 -6 -30 38 -2
right_child=5 2 3 14 6 16 7 -9 9 15 12 23 13 -15 -16 17 26 -19 19 -21 -22 22 -24 -25 -26 -27 -28 -29 36 -31 31 -33 33 34 -36 -37 -38 -39 -40
leaf_value=0.028628125858594134 0.096196613889752022 0.039826100943039879 0.82137880552382703 0.039041870442506316 0.041984122097492221 0.0075533401084869724 0.40365684253198131 0.6455878565388341 0.6494111439356437 0.085612967243077057 0.030539320168249746 0.18625605881214144 0.62283679355274557 0.1497903754085041 0.28198031901248866 0.053447519259696652 -0.020175569338930978 0.039839802404581494 0.54197835804273686 0.18511217683553696 -0.012693758784145854 0.08116864958892063 -0.00035427433473092539 0.36465505380183461 0.010878100098963984 0.26456523179076613 0.021791063700661514 0.011378116690712014 0.037357032226353164 0.17972724380947294 0.32751890897750857 0.06505639307462989 0.26843904092907905 0.0083633100986480729 0.15338919695387498 0.26156543493270873 0.16936390198856954 -0.01586864687157823 -0.028556395289715077
leaf_count=913 33 147 21 107 20 1833 27 31 26 142 136 60 22 114 35 88 36 118 24 24 2756 49 54 32 167 32 594 506 41 21 30 199 20 45 47 20 83 8325 5294
internal_value=0 1.66147 3.63205 5.11014 8.2866 -0.272888 6.84995 8.78132 1.34987 1.74414 2.49897 6.73373 1.85833 4.52625 1.97842 0.992661 0.0697039 2.11454 3.25788 7.27091 -0.0368946 0.266966 1.84063 4.96616 1.29491 3.07243 0.737571 0.552913 1.85782 6.11375 1.6721 2.09538 3.20845 2.31329 1.64905 3.0355 2.51433 -0.410357 -0.555671
internal_count=22272 3142 429 282 140 19130 119 79 2713 1800 898 118 780 136 142 902 5478 254 136 48 4724 1968 135 92 644 81 754 648 160 48 477 341 142 112 92 40 124 13652 5327
shrinkage=0.05


Tree=4
num_leaves=40
num_cat=0
split_feature=0 2 0 0 1 1 1 7 2 1 1 7 0 0 0 7 7 2 2 7 0 0 1 7 7 1 6 7 7 1 2 3 2 2 1 7 1 7 1
split_gain=9113.5 1741.19 1622.71 2531.76 1477.75 813.098 791.212 785.572 773.974 895.011 902.538 610.517 572.149 1725.02 564.32 571.829 799.569 351.974 281.095 330.425 275.421 441.682 587.105 400.254 797.213 293.435 378.174 230.026 214.375 213.832 205.887 201.176 269.531 301.789 193.977 492.096 290.061 191.151 452.711
threshold=5.5000000000000009 10.500000000000002 1.0000000180025095e-35 3.5000000000000004 1.0000000180025095e-35 4.5000000000000009 2.5000000000000004 37.194999694824226 3.5000000000000004 1.0000000180025095e-35 5.5000000000000009 46.125000000000007 1.5000000000000002 1.0000000180025095e-35 1.0000000180025095e-35 23.314999580383304 31.375000000000004 10.500000000000002 4.5000000000000009 54.065000534057624 1.0000000180025095e-35 3.5000000000000004 1.0000000180025095e-35 57.954999923706062 65.884998321533217 4.5000000000000009 0.17500000447034839 30.935000419616703 17.880000114440922 4.5000000000000009 7.5000000000000009 1.0000000180025095e-35 2.5000000000000004 3.5000000000000004 1.5000000000000002 56.409999847412116 4.5000000000000009 40.424999237060554 3.5000000000000004
decision_type=2 2 2 2 2 2 2 2 2 2 2 2 2 2 2 2 2 2 2 2 2 2 2 2 2 2 2 2 2 2 2 2 2 2 2 2 2 2 2
left_child=1 8 -3 4 -4 -2 -6 29 9 12 37 -5 13 -1 -12 -16 -17 18 19 -7 -10 22 23 -22 -25 -23 -27 28 -19 -8 34 32 -21 -34 35 -24 -36 -11 -39
right_child=5 2 3 11 6 17 7 -9 20 10 14 -13 -14 -15 15 16 -18 27 -20 31 21 25 30 24 -26 26 -28 -29 -30 -31 -32 -33 33 -35 36 -37 -38 38 -40
leaf_value=0.074566891708889527 -0.019491948386195283 0.037834797829997789 0.78030986846202899 0.04958397810036938 0.14418604388833045 0.0042327051054283213 0.38347400402029358 0.61330846048170518 0.01869148607943177 0.044573846827509138 0.052854471705680674 0.33610792972824793 0.088295224579897802 0.55738194037128141 0.052272925593636256 0.56297433791825413 0.2085227946410092 -0.019166790942351023 -0.012059070543536082 -0.035930414844390961 0.079165099188685417 0.0084247958700218555 0.34245150589942935 0.5485570043325424 0.13523959921939033 0.057671971969744745 0.283946200105406 0.020701508773396715 0.11943064533895063 0.17074087659517925 0.030166410936080679 -0.049933791543756212 0.21785798108374532 0.070387482107049079 0.035640512251415138 0.028733214378356936 0.13908187347496379 0.036024124497797953 0.24390061667492224
leaf_count=37 13652 147 21 120 40 1682 27 31 621 507 43 22 44 37 22 26 41 36 2756 43 32 446 25 20 28 153 21 594 124 21 196 35 44 164 163 25 116 67 43
internal_value=0 1.5784 3.45044 4.85463 7.87227 -0.259244 6.50746 8.34226 1.28238 2.06175 1.65847 1.8795 4.62154 6.31949 4.03174 5.46894 6.92142 0.0662187 -0.0350499 0.253618 0.916336 1.19135 1.79922 4.32278 6.1491 0.598198 1.69962 0.700692 1.76492 5.80807 1.41467 1.24732 1.5605 2.03166 1.89803 3.71185 1.57297 1.15074 2.3457
internal_count=22272 3142 429 282 140 19130 119 79 2713 867 749 142 118 74 132 89 67 5478 4724 1968 1846 1225 605 80 48 620 174 754 160 48 525 286 251 208 329 50 279 617 110
shrinkage=0.05


Tree=5
num_leaves=40
num_cat=0
split_feature=0 2 0 0 1 1 1 2 7 7 1 0 0 1 1 7 2 7 7 2 6 2 7 7 1 7 2 7 7 2 7 7 7 7 7 0 1 0 7
split_gain=8224.93 1571.42 1464.49 2284.91 1333.67 734.797 733.821 698.688 621.011 1021.55 557.741 511.744 687.122 1610.21 701.79 1222.35 558.888 445.632 339.391 317.656 270.566 253.688 304.349 265.375 242.021 273.127 257.941 262.935 235.824 216.72 649.753 207.599 199.192 193.474 181.225 172.64 166.649 166.479 184.257
threshold=5.5000000000000009 10.500000000000002 1.0000000180025095e-35 3.5000000000000004 1.0000000180025095e-35 1.5000000000000002 4.5000000000000009 4.5000000000000009 33.204999923706062 39.745000839233406 4.5000000000000009 1.0000000180025095e-35 3.5000000000000004 1.0000000180025095e-35 5.5000000000000009 31.375000000000004 2.5000000000000004 40.424999237060554 44.295000076293952 10.500000000000002 0.43500000238418585 4.5000000000000009 59.954999923706062 66.134998321533217 5.5000000000000009 77.115001678466811 5.5000000000000009 70.295001983642592 63.495000839233406 3.5000000000000004 41.835000991821296 30.935000419616703 52.475000381469734 17.880000114440922 39.104999542236335 9.5000000000000018 5.5000000000000009 12.500000000000002 6.1599998474121103
decision_type=2 2 2 2 2 2 2 2 2 2 2 2 2 2 2 2 2 2 2 2 2 2 2 2 2 2 2 2 2 2 2 2 2 2 2 2 2 2 2
left_child=1 7 -3 4 -4 -6 37 11 -7 -10 -5 32 13 16 17 -16 -13 -15 -19 21 29 22 -8 28 25 -9 -26 -28 -24 30 -14 33 -1 -21 -17 -35 -37 38 -2
right_child=6 2 3 10 5 8 19 24 9 -11 -12 12 20 14 15 34 -18 18 -20 31 -22 -23 23 -25 26 -27 27 -29 -30 -31 -32 -33 -34 35 -36 36 -38 -39 -40
leaf_value=0.033713830264475067 0.092361379143866634 0.035943056460545984 0.74129439904576255 0.03260223175459933 0.032675609588623047 0.20284305446453998 0.006710698084465741 0.027320449767801781 0.65820060763508081 0.25207558949788411 0.26253686921937125 0.58997356662383449 0.047538830733045621 0.046712513081729412 0.57399238652803686 0.2114865150788556 0.24316896682693845 0.32298161151080301 0.11159407436847686 -0.018208449665043088 0.19249387889316208 -0.011456116481382721 0.072794124963028103 -0.001357576416598426 0.20090398908388327 0.16886164686509542 0.033391077610953106 0.19382109800654074 0.24730942617752591 -0.020740681019010426 0.31095573821893108 0.019666433735728666 0.16988845318555834 0.029517649441230587 0.0056914842128753668 0.21846529592395478 0.075927106280987325 -0.014100614443197624 -0.026153976865982531
leaf_count=363 33 147 21 107 20 37 1833 1301 32 30 35 26 235 194 22 23 21 29 55 36 38 2756 49 54 41 35 145 31 32 79 26 594 29 41 20 46 37 8325 5294
internal_value=0 1.49948 3.27792 4.6119 7.47865 6.18208 -0.246282 1.21826 7.29897 9.23377 1.78553 1.80544 2.27997 3.21118 2.45902 5.41719 8.70037 1.76736 3.69146 0.0629078 1.31919 -0.0332974 0.240937 1.69 0.779669 0.62057 1.75919 1.23297 2.83477 1.03635 1.47559 0.665657 0.875759 1.67668 2.31536 2.26918 3.09848 -0.370347 -0.508396
internal_count=22272 3142 429 282 140 119 19130 2713 99 62 142 1160 768 390 343 65 47 278 84 5478 378 4724 1968 135 1553 1336 217 176 81 340 261 754 392 160 43 124 83 13652 5327
shrinkage=0.05


Tree=6
num_leaves=40
num_cat=0
split_feature=0 2 6 1 0 1 0 0 1 2 1 7 1 7 1 0 0 2 7 7 2 2 2 7 2 7 1 7 7 3 2 2 7 7 0 0 1 6 0
split_gain=7423 1418.21 1363.77 1565.37 1449.64 662.273 649.928 789.292 1873.19 946.173 908.683 1267.47 560.165 553.587 348.058 323.214 799.12 317.148 1060.38 547.781 286.685 262.856 228.953 278.711 211.148 210.752 192.822 189.843 187.358 178.13 238.724 271.4 175.432 174.61 168.705 466.018 538.724 165.339 155.807
threshold=5.5000000000000009 10.500000000000002 0.11499999836087228 5.5000000000000009 1.0000000180025095e-35 4.5000000000000009 1.0000000180025095e-35 3.5000000000000004 1.0000000180025095e-35 2.5000000000000004 5.5000000000000009 31.375000000000004 1.0000000180025095e-35 44.295000076293952 4.5000000000000009 3.5000000000000004 1.0000000180025095e-35 5.5000000000000009 41.835000991821296 52.174999237060554 10.500000000000002 7.5000000000000009 4.5000000000000009 54.065000534057624 7.5000000000000009 33.204999923706062 4.5000000000000009 21.185000419616703 30.935000419616703 1.0000000180025095e-35 2.5000000000000004 3.5000000000000004 59.73500061035157 17.880000114440922 3.5000000000000004 1.0000000180025095e-35 2.5000000000000004 0.99500000476837169 9.5000000000000018
decision_type=2 2 2 2 2 2 2 2 2 2 2 2 2 2 2 2 2 2 2 2 2 2 2 2 2 2 2 2 2 2 2 2 2 2 2 2 2 2 2
left_child=1 6 3 12 -5 -2 37 8 9 -8 24 -12 15 -4 25 16 -3 18 -16 -20 22 32 23 -7 27 -9 34 -10 33 30 -25 -32 -11 -22 35 -14 -37 -1 -35
right_child=5 2 13 4 -6 20 7 14 10 21 11 -13 26 -15 17 -17 -18 -19 19 -21 28 -23 -24 29 -26 -27 -28 -29 -30 -31 31 -33 -34 38 -36 36 -38 -39 -40
leaf_value=0.020240592353480281 -0.017591482999036293 0.088567675862993522 0.61218971028923996 0.061662912368774414 0.6149919172813153 0.0036855340978478425 0.56047489276299112 0.076641771533119851 -0.053782150980883417 0.23192000248852898 0.54529279687187893 0.13077374641832554 0.019906153550019137 0.25926314216852187 0.040799915688959042 0.058815999701619152 0.53018206126987932 0.031888976087004452 0.50186019452909636 0.16404205336778735 -0.017298025679257183 0.33460387252271179 -0.010883310060347979 -0.035434263216894732 0.0072055881965660054 0.007709333022298078 -0.028593970959385234 0.080409076027489201 0.018683112590802641 -0.048595634635005686 0.20424732508307156 0.064398627909945286 0.059386543929576874 0.028041765166491997 0.015347342535450654 0.057959719385419578 0.33160294205755803 0.16217936021941048 0.14717796145074338
leaf_count=892 13652 21 20 20 29 1682 26 142 28 34 22 114 74 25 88 20 20 118 24 24 36 32 2756 43 167 506 54 449 594 35 44 164 26 41 74 35 37 21 83
internal_value=0 1.42451 3.11403 2.50367 7.78287 -0.233968 1.15735 1.50593 2.16959 5.88288 1.60784 3.95657 1.73149 8.32239 0.845211 4.47209 6.07979 1.8374 2.87824 6.65902 0.0597624 4.37753 -0.0316325 0.22889 1.11184 0.456298 1.12136 1.45064 0.632375 1.14152 1.43622 1.87964 3.14311 1.59284 1.53697 2.1604 3.97164 0.470107 2.15572
internal_count=22272 3142 429 384 49 19130 2713 1800 898 118 780 136 335 45 902 61 41 254 136 48 5478 92 4724 1968 644 648 274 477 754 286 251 208 60 160 220 146 72 913 124
shrinkage=0.05


Tree=7
num_leaves=40
num_cat=0
split_feature=0 2 6 1 0 1 2 1 1 1 7 0 0 0 2 2 0 0 3 0 0 1 7 7 1 6 2 1 7 2 1 1 6 2 7 2 7 7 6
split_gain=6699.26 1279.93 1230.8 1412.75 1308.3 597.702 593.612 690.332 703.414 505.549 499.613 435.097 1273.25 423.17 539.753 507.312 291.701 721.206 267.171 226.371 350.15 473.007 383.677 725.363 224.426 323.085 197.761 174.022 169.091 161.211 521.978 262.874 245.887 160.328 414.968 171.426 250.538 177.213 275.497
threshold=5.5000000000000009 10.500000000000002 0.11499999836087228 5.5000000000000009 1.0000000180025095e-35 4.5000000000000009 3.5000000000000004 1.0000000180025095e-35 5.5000000000000009 1.0000000180025095e-35 44.295000076293952 1.5000000000000002 1.0000000180025095e-35 1.0000000180025095e-35 1.5000000000000002 2.5000000000000004 3.5000000000000004 1.0000000180025095e-35 1.0000000180025095e-35 1.0000000180025095e-35 3.5000000000000004 1.0000000180025095e-35 57.954999923706062 65.884998321533217 4.5000000000000009 0.17500000447034839 10.500000000000002 4.5000000000000009 30.935000419616703 4.5000000000000009 2.5000000000000004 5.5000000000000009 0.85500001907348644 4.5000000000000009 59.954999923706062 2.5000000000000004 38.004999160766609 44.774999618530281 0.2650000005960465
decision_type=2 2 2 2 2 2 2 2 2 2 2 2 2 2 2 2 2 2 2 2 2 2 2 2 2 2 2 2 2 2 2 2 2 2 2 2 2 2 2
left_child=1 6 3 9 -5 -2 7 11 -9 16 -4 12 -1 -10 -15 -16 17 -3 26 -8 21 22 -21 -24 -22 -26 33 -11 -28 30 -23 32 -31 34 35 -7 -37 38 -38
right_child=5 2 10 4 -6 18 19 8 13 27 -12 -13 -14 14 15 -17 -18 -19 -20 20 24 29 23 -25 25 -27 28 -29 -30 31 -32 -33 -34 -35 -36 36 37 -39 -40
leaf_value=0.068140824219665011 -0.016711909107418026 0.084139292013077516 0.58158021820825523 0.058579765558242805 0.5842423155389983 -0.0073534297855091498 0.014354012361855132 0.048980603929355479 0.047355683875638384 0.073006020201878116 0.2462999886274338 0.076995136792009533 0.48294220772143959 0.069953794248642467 0.48684846477376092 0.19039352829417877 0.055875198841094979 0.50367294728755951 -0.03079488487952646 0.057621391117572786 0.0062158792743233823 0.30599461992581689 0.51111482083797455 0.11686235368251802 0.047925802305632953 0.25707096230416071 0.07566010407172144 -0.027164273464155422 0.017748956831316356 0.021848567011039381 0.041941948479316274 0.13682875652128543 0.20216086000204087 -0.0066745868502643708 0.10815139781269763 -0.0082974073920451426 0.062582310827020662 0.020891325079625656 0.25358053332283381
leaf_count=37 13652 21 20 20 29 948 621 617 43 220 25 44 37 31 27 31 20 20 533 32 446 27 20 28 153 21 160 54 594 346 61 71 20 2293 108 355 187 279 21
internal_value=0 1.35328 2.95832 2.37849 7.39372 -0.222269 1.09948 1.78203 1.42785 1.64492 7.90627 4.03015 5.51083 3.52303 4.76757 6.56797 4.24849 5.7758 0.0567743 0.778912 1.02824 1.56946 3.83458 5.62268 0.50011 1.46335 0.129279 1.06529 0.600756 1.2243 2.45916 0.975637 0.634034 0.0444555 0.259436 0.144582 0.47295 0.938676 1.63732
internal_count=22272 3142 429 384 49 19130 2713 867 749 335 45 118 74 132 89 58 61 41 5478 1846 1225 605 80 48 620 174 4945 274 754 525 88 437 366 4191 1898 1790 842 487 208
shrinkage=0.05


Tree=8
num_leaves=40
num_cat=0
split_feature=0 0 2 0 1 0 1 2 1 7 1 7 7 1 7 1 2 7 7 2 3 2 7 2 2 2 7 7 7 7 7 7 7 7 0 7 2 7 2
split_gain=6046.08 1157.26 1699.66 1868.21 1027.68 651.504 1517.94 792.54 752.971 1132.61 622.978 546.619 920.388 539.426 529.992 279.75 271.542 970.395 492.189 247.879 241.122 183.656 179.792 178.48 177.748 226.179 382.205 460.888 429.688 173.87 163.12 154.085 152.604 157.585 150.248 166.292 144.696 374.509 154.712
threshold=5.5000000000000009 1.0000000180025095e-35 10.500000000000002 3.5000000000000004 1.0000000180025095e-35 3.5000000000000004 1.0000000180025095e-35 2.5000000000000004 5.5000000000000009 31.375000000000004 1.5000000000000002 36.585000991821296 43.754999160766609 4.5000000000000009 46.125000000000007 4.5000000000000009 5.5000000000000009 41.835000991821296 52.174999237060554 7.5000000000000009 1.0000000180025095e-35 7.5000000000000009 33.204999923706062 10.500000000000002 2.5000000000000004 4.5000000000000009 40.674999237060554 44.295000076293952 30.625000000000004 28.425000190734867 59.73500061035157 31.654999732971195 30.935000419616703 17.880000114440922 12.500000000000002 6.1599998474121103 4.5000000000000009 59.954999923706062 2.5000000000000004
decision_type=2 2 2 2 2 2 2 2 2 2 2 2 2 2 2 2 2 2 2 2 2 2 2 2 2 2 2 2 2 2 2 2 2 2 2 2 2 2 2
left_child=1 -1 5 4 -4 6 7 -3 21 -10 -6 29 -13 34 -5 22 17 -17 -19 30 23 24 31 36 -8 26 28 -28 -26 -12 -9 -7 33 -25 35 -2 37 38 -15
right_child=13 2 3 14 10 15 8 19 9 -11 11 12 -14 20 -16 16 -18 18 -20 -21 -22 -23 -24 32 25 -27 27 -29 -30 -31 -32 -33 -34 -35 -36 -37 -38 -39 -40
leaf_value=0.021753309362409812 0.089458478942061923 0.50908470520606408 0.6521561724799021 0.030923910091320672 0.018243030309677125 0.049231886381252865 0.017807957234189792 0.20860345937749922 0.50827696323394778 0.11642979044403896 0.10447000208355131 0.69463097027369913 0.24137188295523326 -0.0069857584100358099 0.2978843471966684 0.032027863948182626 0.027012028482000707 0.47161741455396017 0.151399582469215 0.30882920073345305 -0.02925514149467337 0.0052130225532783011 0.0066518464644730324 -0.02021613121032715 0.22367681273832343 0.051015604051513286 0.42261275947093968 0.13414118664132224 -0.026081783376068025 0.28851030414754691 0.04223413971754221 0.19895881429314613 0.016861509647132573 0.098613845304616032 -0.011680414724636365 -0.02313110917498061 -0.0063408591288616704 0.10274382824147191 0.022465112437261823
leaf_count=1060 33 26 21 120 20 122 136 34 22 114 21 21 24 948 22 88 118 24 24 32 533 167 506 36 26 199 20 45 51 33 26 20 594 124 8325 5294 2293 108 842
internal_value=0 1.28562 1.71865 4.00137 6.59358 1.36103 1.96399 5.30667 1.4583 3.59634 5.45542 6.48382 9.05786 -0.211156 1.44568 0.760745 1.65026 2.61336 6.23017 3.92894 0.0539356 1.00679 0.412077 0.122815 1.32277 1.70828 2.6724 4.45803 1.16505 4.33878 2.7302 1.4064 0.570718 1.43754 -0.317526 -0.448673 0.0422327 0.246464 0.137353
internal_count=22272 3142 2082 282 140 1800 898 118 780 136 119 99 45 19130 142 902 254 136 48 92 5478 644 648 4945 477 341 142 65 77 54 60 142 754 160 13652 5327 4191 1898 1790
shrinkage=0.05


Tree=9
num_leaves=40
num_cat=0
split_feature=0 2 6 1 0 2 1 1 1 7 1 7 7 7 7 7 2 3 7 7 1 0 1 6 0 1 2 7 7 1 7 2 6 0 0 0 1 7 7
split_gain=5456.59 1044.75 1099.37 1276.32 1136.45 503.218 575.135 587.088 486.832 450.963 420.343 416.249 647.951 371.25 512.333 526.462 274.304 217.613 209.274 197.613 163.444 161.706 237.11 360.987 207.294 309.648 763.976 381.007 633.027 325.116 206.957 161.078 146.114 141.224 140.247 367.647 472.87 137.725 142.221
threshold=5.5000000000000009 10.500000000000002 0.11499999836087228 5.5000000000000009 1.0000000180025095e-35 3.5000000000000004 1.0000000180025095e-35 5.5000000000000009 4.5000000000000009 44.295000076293952 1.0000000180025095e-35 23.314999580383304 29.464999198913578 39.104999542236335 35.23500061035157 22.535000801086429 11.500000000000002 1.0000000180025095e-35 77.115001678466811 29.175000190734867 4.5000000000000009 1.0000000180025095e-35 4.5000000000000009 0.37500000000000006 3.5000000000000004 1.5000000000000002 4.5000000000000009 67.045001983642592 57.954999923706062 1.0000000180025095e-35 73.194999694824233 10.500000000000002 0.97500002384185802 1.0000000180025095e-35 3.5000000000000004 1.0000000180025095e-35 2.5000000000000004 30.935000419616703 17.880000114440922
decision_type=2 2 2 2 2 2 2 2 2 2 2 2 2 2 2 2 2 2 2 2 2 2 2 2 2 2 2 2 2 2 2 2 2 2 2 2 2 2 2
left_child=1 5 3 10 -5 6 13 32 -2 -4 16 -9 -13 14 15 -1 -3 31 21 -17 34 -7 24 30 25 26 -23 28 -28 -30 -24 -10 -8 -14 35 -12 -37 38 -33
right_child=8 2 9 4 -6 18 7 11 17 -11 20 12 33 -15 -16 19 -18 -19 -20 -21 -22 22 23 -25 -26 -27 27 -29 29 -31 -32 37 -34 -35 -36 36 -38 -39 -40
leaf_value=-0.01047467790544033 -0.015082497146818528 0.089076128322631121 0.54435245029628276 0.054563108980655674 0.544487157566794 0.011356739423069393 0.039931010188756381 0.00029969210586240218 0.0020060551474797533 0.22581412938795983 0.014172878599650152 0.46461887210607533 0.058419336738257582 0.37994103945791724 -0.057186281308531761 0.39284415683150292 0.3013892557086616 -0.027792383852025135 0.15594204195908137 0.20101880795996765 -0.033063187201817827 0.37531888277634334 0.049461091334896595 0.23003368540001767 0.0051107432415738339 0.019825495891420269 -0.011641159264937691 -0.057370700958100235 0.37805070827404658 0.11779607757925988 0.20522109088690385 -0.019205325096845628 0.17732142612338067 0.19612972454096264 0.0079404465652800887 0.041126618044716977 0.2974996734309841 0.016018433673213227 0.093683153108483366
leaf_count=20 13652 32 20 20 29 603 597 31 4191 25 74 20 29 20 24 25 29 533 35 29 54 23 293 35 443 253 46 44 24 24 23 36 20 52 74 35 37 594 124
internal_value=0 1.22134 2.67144 2.12344 6.89036 0.992035 1.62047 1.29719 -0.200598 7.34773 1.42619 3.2113 4.19511 3.67246 2.87116 4.17329 3.80024 0.0512388 0.696882 5.79654 0.897656 0.650074 0.861194 1.55347 0.577661 1.08641 2.17054 1.28123 2.41805 4.95847 1.21596 0.116674 0.88769 2.93652 1.2803 1.84873 3.45748 0.542182 1.36566
internal_count=22272 3142 429 384 49 2713 867 749 19130 45 335 132 101 118 98 74 61 5478 1846 54 274 1811 1208 351 857 414 161 138 94 48 316 4945 617 81 220 146 72 754 160
shrinkage=0.05


Tree=10
num_leaves=40
num_cat=0
split_feature=0 0 2 6 1 0 1 0 1 2 1 7 1 2 1 2 7 7 3 2 7 7 7 2 7 0 7 7 7 3 2 7 7 2 7 2 6 7 7
split_gain=4924.57 983.272 1406.17 1683.51 1878.03 604.435 676.134 557.26 1292.42 700.944 641.812 998.793 439.366 240.068 228.284 234.973 883.033 442.156 196.395 162.014 166.108 148.707 147.152 145.373 141.019 135.598 150.079 135.033 276.572 135.008 130.588 341.622 309.362 163.9 246.344 154.163 305.219 128.203 124.297
threshold=5.5000000000000009 1.0000000180025095e-35 10.500000000000002 0.11499999836087228 5.5000000000000009 3.5000000000000004 1.0000000180025095e-35 3.5000000000000004 1.0000000180025095e-35 2.5000000000000004 5.5000000000000009 31.375000000000004 4.5000000000000009 7.5000000000000009 4.5000000000000009 5.5000000000000009 41.835000991821296 52.174999237060554 1.0000000180025095e-35 7.5000000000000009 21.185000419616703 59.73500061035157 33.204999923706062 10.500000000000002 31.654999732971195 12.500000000000002 6.1599998474121103 29.765000343322757 37.405000686645515 1.0000000180025095e-35 4.5000000000000009 63.194999694824226 65.665000915527358 2.5000000000000004 38.004999160766609 3.5000000000000004 0.17500000447034839 39.545000076293952 30.935000419616703
decision_type=2 2 2 2 2 2 2 2 2 2 2 2 2 2 2 2 2 2 2 2 2 2 2 2 2 2 2 2 2 2 2 2 2 2 2 2 2 2 2
left_child=1 -1 7 4 5 6 -4 8 9 -3 19 -12 25 21 22 16 -16 -18 23 20 -10 -11 24 30 -9 26 -2 -8 -29 -27 31 33 -33 -14 -35 36 37 -36 -25
right_child=12 2 3 -5 -6 -7 27 14 10 13 11 -13 18 -15 15 -17 17 -19 -20 -21 -22 -23 -24 38 -26 29 -28 28 -30 -31 -32 32 -34 34 35 -37 -38 -39 -40
leaf_value=0.018813008620175271 0.08573968229871809 0.47304240098366379 0.43611985206604004 0.52941020103471892 0.5172627990615779 0.0083917775249059221 0.21871968663257102 0.043003378784070255 -0.057899517512747224 0.18887527970706716 0.47340104038065134 0.10543011287063885 -0.0068840171349676032 0.28962276801466941 0.024825284376063132 0.022496684729042701 0.44318173469509931 0.13967589115103085 -0.026402766244244848 0.0030317544223305709 0.067623133155909315 0.030025774011245145 0.0055779757088587692 0.064869084241800018 0.1862414173781872 -0.0081545556074179952 -0.021220428684895595 -0.024318921927249795 0.18038765444900051 -0.02887438734245314 -0.0061241185147196675 0.23816229922156179 0.024032882178151929 -0.0091060944804003535 -0.033063811250030994 0.022958630098486848 0.25909246106942496 0.076922727047235948 0.01521751200560769
leaf_count=1060 33 26 20 31 29 113 23 122 28 34 22 114 950 32 88 118 24 24 533 167 449 26 506 160 20 7446 5294 33 33 879 2293 31 37 355 32 318 21 154 594
internal_value=0 1.16027 1.55943 3.63573 2.77706 1.78842 3.46848 1.23414 1.79179 4.87618 1.32517 3.2991 -0.190568 3.58051 0.678969 1.48251 2.37841 5.82858 0.0486769 0.90832 1.2051 2.40081 0.364003 0.11084 1.26356 -0.286567 -0.411157 2.28782 1.56069 -0.206845 0.038115 0.232135 2.43301 0.150354 0.4613 0.896375 1.56802 1.16001 0.515073
internal_count=22272 3142 2082 282 251 222 109 1800 898 118 780 136 19130 92 902 254 136 48 5478 644 477 60 648 4945 142 13652 5327 89 66 8325 4191 1898 68 1830 880 525 207 186 754
shrinkage=0.05


Tree=11
num_leaves=40
num_cat=0
split_feature=0 0 2 0 1 1 0 1 2 1 7 7 7 7 1 1 2 6 6 1 2 7 7 6 1 2 2 0 7 7 7 2 0 2 7 7 2 7 2
split_gain=4444.42 887.403 1269.07 1524.56 872.569 521.933 502.927 1166.41 632.602 579.236 901.411 481.384 529.839 445.426 441.055 396.527 216.661 210.811 269.5 226.196 267.39 879.593 184.346 152.478 218.567 190.644 143.509 143.45 135.239 134.208 133.444 257.412 175.973 130.432 185.53 121.804 157.605 353.582 642.291
threshold=5.5000000000000009 1.0000000180025095e-35 10.500000000000002 3.5000000000000004 1.0000000180025095e-35 1.5000000000000002 3.5000000000000004 1.0000000180025095e-35 2.5000000000000004 5.5000000000000009 31.375000000000004 28.425000190734867 39.745000839233406 46.125000000000007 3.5000000000000004 4.5000000000000009 7.5000000000000009 0.43500000238418585 0.9650000035762788 5.5000000000000009 5.5000000000000009 41.835000991821296 45.875000000000007 0.37500000000000006 2.5000000000000004 7.5000000000000009 2.5000000000000004 7.5000000000000009 21.185000419616703 59.73500061035157 41.585000991821296 3.5000000000000004 14.500000000000002 10.500000000000002 10.019999980926515 83.094997406005874 3.5000000000000004 62.774999618530281 2.5000000000000004
decision_type=2 2 2 2 2 2 2 2 2 2 2 2 2 2 2 2 2 2 2 2 2 2 2 2 2 2 2 2 2 2 2 2 2 2 2 2 2 2 2
left_child=1 -1 6 4 -4 -6 7 8 -3 23 -11 -7 14 -5 -13 33 29 19 -19 -8 21 -21 26 25 -25 28 -17 -24 -9 -10 -28 32 -32 34 -2 36 37 -36 -39
right_child=15 2 3 13 5 11 17 9 16 10 -12 12 -14 -15 -16 22 -18 18 -20 20 -22 -23 27 24 -26 -27 30 -29 -30 -31 31 -33 -34 -35 35 -37 -38 38 -40
leaf_value=0.017872357919618911 0.072150916950777175 0.44939027474476739 0.58692736909503029 0.019345144182443621 0.0043704587221145633 0.0719205779688699 0.014543457806298477 -0.056113805925404582 0.17943150252103807 0.44973096955906267 0.10015860578992911 0.28662459176519645 0.17678087055683137 0.26408238729292693 0.59001592387259005 -0.002286174092995058 0.27514163926243784 0.18304081441213688 -0.019410320013761521 0.030716868383543833 0.008488244922072799 0.43358887523412709 0.026637489826804618 0.0034780798852443694 0.19485414998756875 -0.012927415653278955 0.01565172278329113 -0.008138233382209056 0.059476407615481779 0.028524485230445863 0.049354390019462228 0.033312615266575023 0.24082524180412293 -0.0012756663894574471 -0.010737728959778724 0.003696249828942161 -0.021536894992140992 -0.030372256557306937 0.31835670902029328
leaf_count=1060 60 26 21 120 20 21 713 27 34 22 114 23 30 22 25 808 32 48 25 42 54 20 328 25 37 152 954 3092 403 26 21 247 28 1852 3605 736 7345 31 23
internal_value=0 1.10226 1.48146 3.45395 5.79563 4.74688 1.17243 1.7022 4.63237 1.25891 3.13414 5.68819 6.83236 1.14524 8.89282 -0.18104 3.40149 0.645021 2.27416 0.501562 1.7966 3.21351 0.046243 0.862904 2.35373 0.704088 0.282724 -0.0960604 1.04437 2.28077 0.495032 1.08161 3.17533 -0.272239 -0.310962 -0.319927 -0.346269 -0.176709 2.36321
internal_count=22272 3142 2082 282 140 119 1800 898 118 780 136 99 78 142 48 19130 92 902 73 829 116 62 5478 644 62 582 2058 3420 430 60 1250 296 49 13652 11800 11740 11004 3659 54
shrinkage=0.05


Tree=12
num_leaves=40
num_cat=0
split_feature=0 0 2 6 1 0 1 0 1 2 1 7 1 7 7 7 1 2 7 7 3 6 1 2 7 7 7 0 1 2 7 7 1 0 7 2 7 7 7
split_gain=4011.09 800.882 1145.34 1501.3 1677.56 465.3 538.619 453.892 1052.68 570.923 522.76 813.523 357.866 222.598 602.95 285.256 192.46 194.985 741.863 401.744 171.214 137.611 197.257 172.056 136.52 265.729 134.091 132.269 145.414 131.764 215.903 218.669 173.024 237.219 126.741 125.612 216.483 163.449 237.249
threshold=5.5000000000000009 1.0000000180025095e-35 10.500000000000002 0.11499999836087228 5.5000000000000009 3.5000000000000004 1.0000000180025095e-35 3.5000000000000004 1.0000000180025095e-35 2.5000000000000004 5.5000000000000009 31.375000000000004 4.5000000000000009 57.954999923706062 65.884998321533217 47.065000534057624 4.5000000000000009 5.5000000000000009 41.835000991821296 52.174999237060554 1.0000000180025095e-35 0.37500000000000006 2.5000000000000004 7.5000000000000009 29.765000343322757 37.405000686645515 33.204999923706062 6.5000000000000009 5.5000000000000009 11.500000000000002 30.935000419616703 17.880000114440922 5.5000000000000009 15.500000000000002 31.654999732971195 2.5000000000000004 30.625000000000004 36.585000991821296 55.395000457763679
decision_type=2 2 2 2 2 2 2 2 2 2 2 2 2 2 2 2 2 2 2 2 2 2 2 2 2 2 2 2 2 2 2 2 2 2 2 2 2 2 2
left_child=1 -1 7 4 5 6 -4 8 9 -3 21 -12 -2 15 -15 -11 26 18 -18 -20 27 23 -23 35 -8 -26 34 28 -14 -29 31 -31 33 -33 -9 -10 -37 -38 -39
right_child=12 2 3 -5 -6 -7 24 16 10 13 11 -13 20 14 -16 -17 17 -19 19 -21 -22 22 -24 -25 25 -27 -28 29 -30 30 -32 32 -34 -35 -36 36 37 38 -40
leaf_value=0.01697874031074945 -0.012931356290186142 0.42692077664228584 0.38496748626232152 0.49233512820736058 0.48116208602642196 0.0057054431960646031 0.2027152719705001 0.039987924847690787 0.0069134215150422201 0.20764729678630831 0.42724442590366718 0.095150676108243182 0.0016775663752729695 0.44571253538131717 0.086263688227960045 -0.046971638636155562 0.022087941403416071 0.020497642331204172 0.41110498495399955 0.12180120485524337 -0.024727990469365867 0.0033041768372058869 0.18511144196664966 -0.012281041670786709 -0.039069466879873567 0.16158455194848959 0.0041295686044652939 0.00042694092983411558 0.070518438704015252 -0.030083597125485542 0.0046812061954176788 0.094413740011496536 0.045317036072658592 0.30637584680860697 0.17578092925250532 0.20474486207732789 -0.070845661312341698 0.12247451247177393 0.025020192980766298
leaf_count=1060 13652 26 20 31 29 113 23 122 123 22 22 114 150 20 28 22 88 118 24 24 533 25 37 152 33 33 506 4244 157 32 264 33 43 22 20 26 24 107 150
internal_value=0 1.04714 1.40738 3.28125 2.47038 1.53599 3.01005 1.11381 1.61709 4.40075 1.19597 2.97743 -0.171988 3.23141 4.72068 1.60676 0.61277 1.35057 2.16669 5.32906 0.0439309 0.819759 2.23604 0.668883 1.95628 1.22515 0.323571 0.101972 0.737657 0.059895 0.613082 1.66798 2.40909 3.58397 1.18227 0.99215 1.33426 1.07883 1.31189
internal_count=22272 3142 2082 282 251 222 109 1800 898 118 780 136 19130 92 48 44 902 254 136 48 5478 644 62 582 89 66 648 4945 307 4638 394 130 98 55 142 430 307 281 257
shrinkage=0.05


Tree=13
num_leaves=40
num_cat=0
split_feature=0 0 2 6 1 0 7 0 1 2 1 7 1 7 7 7 6 6 1 7 7 7 2 7 2 2 2 6 1 2 0 0 2 0 7 7 1 2 7
split_gain=3620.01 722.796 1033.67 1354.92 1514 419.933 507.738 409.638 950.046 515.258 471.791 734.205 322.974 200.895 544.162 257.443 187.067 240.568 193.824 246.436 659.739 158.134 238.759 150.815 149.958 143.725 288.293 124.194 178.024 155.28 121.056 136.119 121.249 120.914 120.471 116.65 156.805 289.914 227.021
threshold=5.5000000000000009 1.0000000180025095e-35 10.500000000000002 0.11499999836087228 5.5000000000000009 3.5000000000000004 30.045000076293949 3.5000000000000004 1.0000000180025095e-35 2.5000000000000004 5.5000000000000009 31.375000000000004 4.5000000000000009 57.954999923706062 65.884998321533217 47.065000534057624 0.43500000238418585 0.9650000035762788 5.5000000000000009 55.645000457763679 48.305000305175788 51.104999542236335 4.5000000000000009 37.405000686645515 7.5000000000000009 2.5000000000000004 3.5000000000000004 0.37500000000000006 2.5000000000000004 7.5000000000000009 12.500000000000002 9.5000000000000018 10.500000000000002 7.5000000000000009 21.185000419616703 24.935000419616703 1.5000000000000002 4.5000000000000009 36.385000228881843
decision_type=2 2 2 2 2 2 2 2 2 2 2 2 2 2 2 2 2 2 2 2 2 2 2 2 2 2 2 2 2 2 2 2 2 2 2 2 2 2 2
left_child=1 -1 7 4 5 6 -4 8 9 -3 27 -12 30 15 -15 -11 18 -18 -9 20 -20 24 25 -8 -14 -23 -27 29 -29 34 31 33 -32 -2 -10 -36 37 38 -37
right_child=12 2 3 -5 -6 -7 23 16 10 13 11 -13 21 14 -16 -17 17 -19 19 -21 -22 22 -24 -25 -26 26 -28 28 -30 -31 32 -33 -34 -35 35 36 -38 -39 -40
leaf_value=0.016129803214714213 -0.021270033191203287 0.40557471284499536 0.31809514443079634 0.46771836915323811 0.45710397588795626 0.0054201694452657113 0.0082620753347873704 0.012597918028186951 -0.05511920717027452 0.1972649400884455 0.40588218732313674 0.090393143068802986 0.0028608265980825292 0.42342689514160159 0.081950501951255972 -0.044623064723881806 0.17134487871856741 -0.019930919617414476 0.038181060795881315 -0.0092520811822679305 0.36777245483615184 -0.032634684102875844 -0.01113648921993473 0.14644158658308862 0.028925341223566537 0.15273105209728458 0.024167609541881376 0.0031389657706022266 0.17585586639674936 -0.011666991885163283 -0.010906153420312559 -0.027435246359817506 0.006731187833180551 -0.0013720510256715907 0.16592376855286686 0.091374998291333526 0.031501341413279052 -0.0027398519217967988 0.31946619376540186
leaf_count=1060 1520 26 30 31 29 113 40 713 27 22 22 114 1709 20 28 22 48 25 49 45 22 70 2585 39 815 53 246 25 37 152 7198 2273 1127 1534 22 24 305 32 20
internal_value=0 0.994786 1.33702 3.11719 2.34686 1.45919 2.85955 1.05812 1.53623 4.18071 1.13617 2.82856 -0.163388 3.06984 4.48465 1.52642 0.582131 2.11679 0.446992 1.64578 2.80616 0.0417343 -0.115317 1.52955 0.225541 0.637157 0.939129 0.778771 2.12424 0.635439 -0.245696 -0.363415 -0.17037 -0.225509 0.942542 1.07955 0.950265 2.23543 3.90106
internal_count=22272 3142 2082 282 251 222 109 1800 898 118 780 136 19130 92 48 44 902 73 829 116 71 5478 2954 79 2524 369 299 644 62 582 13652 5327 8325 3054 430 403 381 76 44
shrinkage=0.05


Tree=14
num_leaves=40
num_cat=0
split_feature=0 0 0 2 1 1 6 1 2 1 7 7 1 7 1 1 2 1 7 7 7 3 7 0 1 6 6 1 2 2 7 7 7 1 7 7 0 7 3
split_gain=3267.06 652.323 945.573 1576.53 857.417 757.206 586.09 633.923 465.021 448.674 473.933 518.716 425.791 662.62 359.515 291.484 204.332 184.442 185.427 626.082 212.755 149.066 140.64 119.631 131.384 114.184 112.085 160.667 140.141 114.57 193.186 150.506 205.565 407.743 248.879 276.762 109.253 126.562 115.56
threshold=5.5000000000000009 1.0000000180025095e-35 3.5000000000000004 10.500000000000002 1.0000000180025095e-35 1.0000000180025095e-35 0.76499998569488536 3.5000000000000004 2.5000000000000004 1.5000000000000002 28.425000190734867 39.745000839233406 5.5000000000000009 31.375000000000004 3.5000000000000004 4.5000000000000009 7.5000000000000009 5.5000000000000009 55.645000457763679 48.305000305175788 29.765000343322757 1.0000000180025095e-35 59.73500061035157 6.5000000000000009 5.5000000000000009 0.99500000476837169 0.37500000000000006 2.5000000000000004 7.5000000000000009 2.5000000000000004 30.625000000000004 36.585000991821296 55.395000457763679 1.5000000000000002 42.774999618530281 50.034999847412116 12.500000000000002 6.1599998474121103 1.0000000180025095e-35
decision_type=2 2 2 2 2 2 2 2 2 2 2 2 2 2 2 2 2 2 2 2 2 2 2 2 2 2 2 2 2 2 2 2 2 2 2 2 2 2 2
left_child=1 25 3 4 8 -5 17 -8 -3 -7 -11 14 26 -14 -12 36 22 -4 19 20 -19 23 -10 24 -17 -1 28 -28 29 -6 -31 -32 33 -33 -35 -36 37 -2 -38
right_child=15 2 6 5 12 9 7 -9 16 10 11 -13 13 -15 -16 21 -18 18 -20 -21 -22 -23 -24 -25 -26 -27 27 -29 -30 30 31 32 -34 34 35 -37 38 -39 -40
leaf_value=0.012721076736504095 0.080352670947710675 0.38529598689996281 0.011972546264599435 0.53016976004555116 0.0039962567328437563 -0.011490747928619385 0.05489801160599056 0.38747914336297828 0.15834099922110054 0.037314315069289436 0.26418823612772901 0.14181864480177561 0.38558808348395607 0.085873485448067652 0.53810300755500795 0.0014540776995321117 0.24785151661344573 0.15284294342994692 -0.0023736973198092716 0.34938383102416992 -0.034966758991542619 -0.023140376120784775 0.0038602904631541328 0.0026894129651272129 0.066889754483464417 0.11881225498823018 0.0029820170700550082 0.16706307393473549 -0.011083642609025304 0.19150034527365978 -0.070701983322699877 0.30502371842210946 0.02245663356781006 0.1889111410688471 -0.074097998126556999 0.15569174110889436 -0.0060685459535118431 -0.01787067527338633 -0.025238018479493297
leaf_count=1034 33 26 849 21 123 20 38 23 34 21 23 30 22 114 25 150 32 25 49 22 38 533 26 4638 157 26 25 37 152 26 24 22 150 27 38 20 7446 5294 879
internal_value=0 0.945047 1.27016 1.94603 1.45942 5.06726 0.598186 3.60595 3.97168 4.09029 4.96304 6.09832 1.07936 2.68713 8.13704 -0.155219 2.91635 0.411539 1.50186 2.39501 0.791218 0.0396476 1.82799 0.0938051 0.698359 0.306466 0.739832 2.01803 0.603667 0.895415 1.22214 0.980846 1.20449 2.26341 1.27029 0.102797 -0.233411 -0.345244 -0.161851
internal_count=22272 3142 2082 1038 898 140 1044 61 118 119 99 78 780 136 48 19130 92 983 134 85 63 5478 60 4945 307 1060 644 62 582 430 307 281 257 107 85 58 13652 5327 8325
shrinkage=0.05


Tree=15
num_leaves=40
num_cat=0
split_feature=0 0 0 2 1 1 6 1 2 1 7 7 1 7 1 7 7 7 1 2 7 7 7 7 0 2 7 7 7 1 2 2 7 2 7 2 2 0 2
split_gain=2948.52 588.721 853.379 1422.81 773.819 683.378 528.946 572.116 419.681 404.929 466.206 786.476 384.277 598.014 263.064 190.557 492.991 234.817 166.459 174.074 597.041 142.725 151.268 140.903 107.455 107.085 160.241 108.617 157.783 222.818 504.745 139.321 318.839 579.643 106.218 104.894 229.432 170.265 103.891
threshold=5.5000000000000009 1.0000000180025095e-35 3.5000000000000004 10.500000000000002 1.0000000180025095e-35 1.0000000180025095e-35 0.76499998569488536 3.5000000000000004 2.5000000000000004 1.5000000000000002 36.585000991821296 43.754999160766609 5.5000000000000009 31.375000000000004 4.5000000000000009 57.954999923706062 65.884998321533217 47.065000534057624 5.5000000000000009 5.5000000000000009 41.835000991821296 44.774999618530281 41.585000991821296 28.425000190734867 7.5000000000000009 10.500000000000002 10.019999980926515 83.094997406005874 84.06000137329103 1.5000000000000002 7.5000000000000009 3.5000000000000004 62.774999618530281 2.5000000000000004 74.125000000000014 2.5000000000000004 3.5000000000000004 14.500000000000002 8.5000000000000018
decision_type=2 2 2 2 2 2 2 2 2 2 2 2 2 2 2 2 2 2 2 2 2 2 2 2 2 2 2 2 2 2 2 2 2 2 2 2 2 2 2
left_child=1 -1 3 4 8 -5 18 -8 -3 -7 23 -12 34 -14 25 17 -17 -10 -4 20 -20 22 -16 -11 -23 26 -2 31 29 -29 -31 32 -28 -34 38 -24 37 -37 -6
right_child=14 2 6 5 12 9 7 -9 15 10 11 -13 13 -15 21 16 -18 -19 19 -21 -22 24 35 -25 -26 -27 27 28 -30 30 -32 -33 33 -35 -36 36 -38 -39 -40
leaf_value=0.014557147574839446 0.068661805149943883 0.36603117860280554 0.011373918644373072 0.50366128172193259 0.048872585927969531 -0.010916212201118471 0.05215311271971778 0.36810518415725751 0.17887433970516378 0.03544859772636777 0.57806490773246411 0.15907491445541383 0.36630867069417783 0.081579808341829402 0.0068849425950376604 0.39702029883861545 0.071995888331106733 -0.052139856598593971 0.022997086956387476 0.017656843091400577 0.3495158609889803 0.022374751527122289 -0.0074057549344641819 0.2011251483902787 -0.0070502143424382852 9.0796799352694282e-05 -0.008337033907860265 -0.015393558227353627 -0.0046755746253315479 0.27087314374124011 -0.014600611443165691 -0.018472596746143474 -0.02703847287583255 0.30424705212530884 -0.052233586528084498 0.05251551397144795 0.03670900118350983 0.24656402262357566 -0.0073107963009756451
leaf_count=1060 60 26 849 21 513 20 38 23 22 21 21 24 22 114 1679 20 28 22 42 71 21 344 70 33 3164 1852 3605 54 620 30 32 7345 31 23 33 20 175 26 98
internal_value=0 0.897794 1.20666 1.84873 1.38645 4.8139 0.568277 3.42565 3.77309 3.88578 4.71489 7.09207 1.02539 2.55278 -0.147458 2.77053 4.14845 1.26734 0.390962 1.42677 2.63673 0.0376652 0.253061 2.73391 -0.0832951 -0.22174 -0.256827 -0.265158 0.106763 1.17719 2.47064 -0.290034 -0.130612 2.28129 0.702841 0.91867 1.25657 3.2439 0.797224
internal_count=22272 3142 2082 1038 898 140 1044 61 118 119 99 45 780 136 19130 92 48 44 983 134 63 5478 1970 54 3508 13652 11800 11740 736 116 62 11004 3659 54 644 291 221 46 611
shrinkage=0.05


Tree=16
num_leaves=40
num_cat=0
split_feature=0 0 2 6 1 1 0 7 5 1 6 2 2 1 1 0 2 7 7 1 7 7 3 6 1 7 7 2 7 6 0 1 2 7 7 1 0 5 0
split_gain=2661.04 531.321 779.912 1193.07 1350.41 368.656 420.814 542.487 350.962 362.439 413.141 382.336 975.664 334.313 268.431 1083.41 593.196 294.696 444.924 237.416 208.54 252.298 129.994 129.437 601.995 165.081 109.381 346.092 248.324 103.051 102.756 118.487 104.919 195.252 197.348 156.154 214.091 99.8551 101.112
threshold=5.5000000000000009 1.0000000180025095e-35 10.500000000000002 0.11499999836087228 5.5000000000000009 4.5000000000000009 3.5000000000000004 30.045000076293949 1.0000000180025095e-35 5.5000000000000009 0.16499999910593036 2.5000000000000004 1.5000000000000002 2.5000000000000004 1.0000000180025095e-35 1.5000000000000002 3.5000000000000004 57.954999923706062 65.884998321533217 4.5000000000000009 70.295001983642592 60.954999923706062 1.0000000180025095e-35 0.37500000000000006 4.5000000000000009 54.854999542236335 51.625000000000007 5.5000000000000009 43.034999847412116 0.99500000476837169 6.5000000000000009 5.5000000000000009 11.500000000000002 30.935000419616703 17.880000114440922 5.5000000000000009 15.500000000000002 1.0000000180025095e-35 12.500000000000002
decision_type=2 2 2 2 2 2 2 2 2 2 2 2 2 2 2 2 2 2 2 2 2 2 2 2 2 2 2 2 2 2 2 2 2 2 2 2 2 2 2
left_child=1 29 8 4 5 6 7 -4 9 14 11 12 -11 -9 15 16 -3 -18 -19 37 21 26 30 -16 25 -25 28 -28 -13 -1 31 -21 -32 34 -34 36 -36 38 -2
right_child=19 2 3 -5 -6 -7 -8 13 -10 10 -12 20 -14 -15 23 -17 17 18 -20 22 -22 -23 -24 24 -26 -27 27 -29 -30 -31 32 -33 33 -35 35 -37 -38 -39 -40
leaf_value=0.011357165438283372 -0.016560963399089169 0.36549315690994266 0.35438249890620893 0.42727225230586141 0.41936912824367661 -0.089885365093747782 0.010515310757971824 -0.00033326245666969394 0.24368428764018146 0.032691459854443869 -0.10421178716680278 0.12753928523688091 0.4708364081879457 0.23359809319178262 0.019059063917137395 -0.014332650778611213 0.0011641435325145722 0.37716928243637088 0.068396093643137396 0.00055359911794463799 0.23615741074085236 -0.047640913097481981 -0.021671530111071674 -0.044738946403734964 0.28647858913128194 0.090368834547698507 0.31802934959530832 0.061064887674231287 -0.076844996991364864 0.11214378387309039 0.00017209679356176656 0.062694741092669745 -0.030504405009560288 0.0024453643483645991 0.087768066516428281 0.041126196874782098 0.28913206227801064 0.019629156732582056 -0.0076553281949400184
leaf_count=1034 5235 35 26 31 29 36 94 42 22 27 23 42 24 24 1153 137 32 20 28 150 20 38 533 52 26 40 20 38 23 26 4244 157 32 264 33 43 22 269 8148
internal_value=0 0.852905 1.14632 2.69263 1.96977 1.13143 1.69836 3.21876 0.90407 0.854952 1.95835 2.35912 4.77755 1.69465 0.670207 1.61305 3.87617 2.37393 3.94103 -0.140085 1.67769 1.29937 0.035782 0.483271 1.48081 0.280071 1.99517 2.99347 1.10437 0.276586 0.0863563 0.646652 0.049269 0.542899 1.54608 2.25014 3.36627 -0.210653 -0.222779
internal_count=22272 3142 2082 282 251 222 186 92 1800 1778 255 232 51 66 1523 252 115 80 48 19130 181 161 5478 1271 118 92 123 58 65 1060 4945 307 4638 394 130 98 55 13652 13383
shrinkage=0.05


Tree=17
num_leaves=40
num_cat=0
split_feature=0 0 0 2 1 1 6 1 7 1 7 1 7 7 1 1 7 7 7 7 0 2 7 7 7 0 0 2 7 2 7 7 2 6 6 2 7 7 7
split_gain=2401.59 479.517 719.229 1185.13 633.445 619.239 455.917 502.061 361.851 353.438 588.93 318.998 525.334 285.561 252.703 214.268 163.077 147.799 121.788 139.141 102.003 96.8016 145.054 97.3926 142.613 206.978 601.296 123.493 287.899 523.18 94.8306 104.715 116.01 104.981 167.278 106.81 257.566 167.273 404.47
threshold=5.5000000000000009 1.0000000180025095e-35 3.5000000000000004 10.500000000000002 1.0000000180025095e-35 1.0000000180025095e-35 0.76499998569488536 3.5000000000000004 59.73500061035157 2.5000000000000004 37.194999694824226 5.5000000000000009 31.375000000000004 42.545000076293952 4.5000000000000009 4.5000000000000009 18.869999885559086 68.204998016357436 44.774999618530281 41.585000991821296 19.500000000000004 10.500000000000002 10.019999980926515 83.094997406005874 84.06000137329103 15.500000000000002 13.500000000000002 3.5000000000000004 62.774999618530281 2.5000000000000004 74.125000000000014 21.185000419616703 8.5000000000000018 0.56499999761581432 0.14500000327825549 2.5000000000000004 30.625000000000004 41.354999542236335 44.295000076293952
decision_type=2 2 2 2 2 2 2 2 2 2 2 2 2 2 2 2 2 2 2 2 2 2 2 2 2 2 2 2 2 2 2 2 2 2 2 2 2 2 2
left_child=1 -1 3 5 -5 8 16 -8 13 -6 14 30 -13 -3 -11 21 -4 -10 19 -17 -21 22 -2 27 25 26 -25 28 -24 -30 31 -7 33 34 35 -33 -37 -38 -39
right_child=15 2 6 4 9 11 7 -9 17 10 -12 12 -14 -15 -16 18 -18 -19 -20 20 -22 -23 23 24 -26 -27 -28 -29 29 -31 -32 32 -34 -35 -36 36 37 38 -40
leaf_value=0.013137825482210831 0.06587075561285019 0.13618087602986231 0.1005694864690304 0.47240940275646398 0.053456314774230122 -0.058008481934666636 0.046189754132769614 0.34216627313391024 -0.027626052685081962 0.22733616608160512 0.40574397181551308 0.33995593894611709 0.073089751104513809 0.33269432226293971 -0.0039257963498433432 0.006116101595929793 0.011958537264506269 0.15641375929117204 -0.0038871722600392006 0.029436385703866492 0.10558307913166505 0.0006215249035873533 -0.0074600054914113678 -0.0020248743921651375 -0.0039814644034260943 -0.021676082875370525 0.30768634771835063 -0.016986638027863987 -0.025203235801910202 0.28953362547832989 -0.050574860428318838 0.0036284807481263819 -0.0086388016841849515 -0.027660914615560802 0.18095664152732263 0.22908767299218613 -0.037050022284189861 0.27246358611366966 0.048304953615544211
leaf_count=1060 60 36 55 21 40 28 38 23 24 27 31 22 114 38 21 1679 928 20 3508 237 54 1852 3605 42 620 49 25 7345 31 23 33 95 98 39 26 22 45 22 236
internal_value=0 0.81026 1.08901 1.67845 4.38465 1.25655 0.502948 3.15575 3.39155 3.49108 4.71739 0.933567 2.32519 4.74186 2.52318 -0.133081 0.338328 1.12057 0.0339929 0.232963 0.871334 -0.200121 -0.23348 -0.241407 0.110774 1.12845 2.27078 -0.264962 -0.114869 2.17703 0.639684 0.728864 0.81959 1.02011 1.15769 1.00531 1.27796 1.03808 1.34839
internal_count=22272 3142 2082 1038 140 898 1044 61 118 119 79 780 136 74 48 19130 983 44 5478 1970 291 13652 11800 11740 736 116 67 11004 3659 54 644 611 583 485 446 420 325 303 258
shrinkage=0.05


Tree=18
num_leaves=40
num_cat=0
split_feature=0 2 6 1 0 7 2 1 7 7 7 1 7 1 2 7 7 1 7 7 1 1 7 7 2 7 7 7 7 2 7 2 2 7 7 0 3 5 0
split_gain=2167.43 434.018 579.921 776.793 570.871 373.19 303.675 288.815 296.933 440.919 402.591 262.678 1051.4 225.053 223.062 214.033 205.764 202.143 398.495 536.082 193.377 143.427 140.327 281.402 115.9 114.041 309.527 156.305 223.215 104.35 208.086 130.599 283.698 93.3087 162.753 170.224 90.4591 89.1695 89.8119
threshold=5.5000000000000009 10.500000000000002 0.11499999836087228 5.5000000000000009 1.0000000180025095e-35 44.295000076293952 3.5000000000000004 1.0000000180025095e-35 39.104999542236335 35.954999923706062 22.535000801086429 4.5000000000000009 45.055000305175788 1.0000000180025095e-35 11.500000000000002 77.115001678466811 29.175000190734867 5.5000000000000009 23.314999580383304 29.464999198913578 4.5000000000000009 4.5000000000000009 42.774999618530281 40.424999237060554 10.500000000000002 22.535000801086429 29.765000343322757 33.204999923706062 37.614999771118171 4.5000000000000009 54.065000534057624 2.5000000000000004 3.5000000000000004 28.054999351501468 17.880000114440922 8.5000000000000018 1.0000000180025095e-35 1.0000000180025095e-35 12.500000000000002
decision_type=2 2 2 2 2 2 2 2 2 2 2 2 2 2 2 2 2 2 2 2 2 2 2 2 2 2 2 2 2 2 2 2 2 2 2 2 2 2 2
left_child=1 6 3 13 -5 -4 7 8 9 10 -1 22 17 14 -3 -8 -12 -13 -19 -20 37 25 23 -9 29 -15 -27 -28 -29 30 -22 -32 -33 34 -26 -36 -34 38 -2
right_child=20 2 5 4 -6 -7 15 11 -10 -11 16 12 -14 21 -16 -17 -18 18 19 -21 24 -23 -24 -25 33 26 27 28 -30 -31 31 32 36 -35 35 -37 -38 -39 -40
leaf_value=-0.045241753701120616 -0.015188712996947504 0.033956345077604054 0.41602248251438145 0.045756597481667993 0.39299108817659578 0.12625071328878404 0.017266632871245139 0.022591462619322586 0.30378542948514226 -0.11070033893698739 0.32296939355134968 0.0041173682863945545 0.38646538624396692 -0.059539640060177562 0.22541439456158671 0.14210066055878998 0.13152287186821923 -0.055791254245465806 0.37999925851821903 0.083977633370802954 0.00079887837335449624 -0.054232433824627495 -0.045188714837598981 0.18938154901757287 -0.022633028713365397 0.18240446936753063 -0.062701982543582016 0.14358555572788889 -0.0018508680164813997 -0.0075705357546092204 -0.033389009517985721 0.17603790177540346 0.051314349554297402 0.012743967333277588 0.0009758001736675701 0.16586510529120765 -0.037231197902666671 0.018996613944420197 -0.0067954680075209516
leaf_count=20 5235 32 20 20 29 25 1811 399 20 21 25 115 26 27 29 35 32 31 20 65 1682 54 66 27 36 36 42 41 74 2756 43 44 164 649 24 45 35 269 8148
internal_value=0 0.769747 1.70439 1.30638 5.02525 5.10076 0.621953 1.11014 2.56426 1.84764 2.95536 0.881053 1.70044 0.762425 2.49955 0.39267 4.30981 1.02186 1.95328 3.0726 -0.126427 0.375693 0.453042 0.663253 0.0322932 0.734141 1.00343 0.397014 1.00001 -0.0258183 0.150062 0.938629 1.22289 0.396377 1.27096 2.17025 0.71482 -0.190115 -0.201573
internal_count=22272 3142 429 384 49 45 2713 867 118 98 77 749 257 335 61 1846 57 231 116 85 19130 274 492 426 5478 220 193 157 115 4724 1968 286 243 754 105 69 199 13652 13383
shrinkage=0.05


Tree=19
num_leaves=40
num_cat=0
split_feature=0 0 0 2 1 1 6 7 6 1 7 7 2 1 7 2 2 7 7 7 7 1 0 6 6 7 2 7 7 2 7 6 7 1 2 7 7 1 7
split_gain=1956.11 428.832 645.071 1019.87 561.88 542.172 405.83 501.174 491.301 330.105 398.123 733.287 327.434 274.734 463.121 198.146 180.09 181.19 153.212 133.816 118.877 116.626 95.2544 92.0398 138.132 134.701 114.542 97.9981 108.038 91.2897 143.673 103.886 91.1781 117.21 242.154 176.276 157.745 91.4549 134.388
threshold=5.5000000000000009 1.0000000180025095e-35 3.5000000000000004 10.500000000000002 1.0000000180025095e-35 1.0000000180025095e-35 0.76499998569488536 58.995000839233406 0.9650000035762788 1.5000000000000002 36.585000991821296 43.754999160766609 2.5000000000000004 5.5000000000000009 31.375000000000004 7.5000000000000009 10.500000000000002 6.1599998474121103 18.869999885559086 28.425000190734867 59.73500061035157 4.5000000000000009 6.5000000000000009 0.37500000000000006 0.15500000119209292 60.215000152587898 8.5000000000000018 21.185000419616703 74.125000000000014 7.5000000000000009 51.354999542236335 0.24499999731779101 24.935000419616703 1.5000000000000002 4.5000000000000009 36.194999694824226 69.645000457763686 3.5000000000000004 43.034999847412116
decision_type=2 2 2 2 2 2 2 2 2 2 2 2 2 2 2 2 2 2 2 2 2 2 2 2 2 2 2 2 2 2 2 2 2 2 2 2 2 2 2
left_child=1 -1 3 5 -5 12 18 8 -8 -6 19 -12 -3 23 -15 20 17 -2 -4 -11 -14 -19 -23 24 26 -25 27 -7 32 -24 31 -31 -29 34 35 -34 37 -35 -39
right_child=16 2 6 4 9 13 7 -9 -10 10 11 -13 15 14 -16 -17 -18 21 -20 -21 -22 22 29 25 -26 -27 -28 28 -30 30 -32 -33 33 36 -36 -37 -38 38 -40
leaf_value=0.010674999211914837 0.081059713112680537 0.31464680943351531 0.095309635710648516 0.44162289968558721 -0.024181376695632934 -0.055304021912592427 0.22439309522509576 0.3523336200870108 -0.12187378183007241 0.0083281431879316057 0.52413777847375187 0.11956382207572461 0.12165131801191498 0.31758151596242734 0.067015170521642034 0.21417235345579685 0.0062106966491322609 -0.010900040803270561 0.0094206994735627787 0.1697842406504082 -0.020374824909063487 0.027478185223233434 0.00089431619470902292 0.036394926666149068 -0.10273185741333735 0.19405118823051454 -0.02672332732415781 0.14837542772293091 -0.048925493558247886 0.0090474158711731437 -0.021310979622180433 0.11815111048519611 0.084813501005587377 -0.012495575089226753 0.0093803440652242536 0.28777897447347639 0.12542035187545575 0.105152449543987 0.0056230655589769056
leaf_count=1060 57 26 55 21 20 27 20 20 21 21 21 24 34 22 114 32 2606 11765 928 33 26 266 3295 42 21 20 82 22 30 80 1031 30 23 136 41 20 38 56 86
internal_value=0 0.731259 0.994864 1.5531 4.06352 1.16172 0.43984 2.94268 0.940738 3.22194 3.97054 6.1673 3.15945 0.859495 2.15096 2.27389 -0.120105 -0.158637 0.284526 2.13992 1.20213 -0.164798 -0.0316773 0.586764 0.463374 1.74504 0.557631 0.744587 0.855136 -0.0665308 -0.310312 0.776059 0.98549 0.876479 1.9264 3.58432 0.597386 0.336167 0.897482
internal_count=22272 3142 2082 1038 140 898 1044 61 41 119 99 45 118 780 136 92 19130 16524 983 54 60 16467 4702 644 582 62 561 479 452 4436 1141 110 422 400 84 43 316 278 142
shrinkage=0.05


Tree=20
num_leaves=40
num_cat=0
split_feature=0 0 5 0 1 7 1 2 7 7 7 1 6 7 7 2 7 2 7 2 7 7 7 1 1 7 2 1 7 2 1 2 6 7 7 7 2 6 7
split_gain=1765.39 387.021 587.742 586.892 1043.39 1156.1 861.864 1223.45 802.501 1315.44 646.232 296.577 1256.48 247.559 169.571 162.531 163.524 156.791 526.884 135.867 243.108 253.76 255.252 464.604 1117.49 252.599 135.365 476.252 127.182 156.681 105.255 101.045 101.771 97.9296 215.578 124.527 118.443 87.142 86.3448
threshold=5.5000000000000009 1.0000000180025095e-35 1.0000000180025095e-35 3.5000000000000004 1.0000000180025095e-35 30.045000076293949 5.5000000000000009 9.5000000000000018 39.344999313354499 48.065000534057624 33.815000534057624 4.5000000000000009 0.51499998569488536 59.73500061035157 68.204998016357436 10.500000000000002 6.1599998474121103 3.5000000000000004 28.795000076293949 2.5000000000000004 29.464999198913578 33.204999923706062 42.774999618530281 4.5000000000000009 2.5000000000000004 25.425000190734867 4.5000000000000009 2.5000000000000004 68.634998321533217 6.5000000000000009 4.5000000000000009 2.5000000000000004 0.89499998092651378 51.625000000000007 55.645000457763679 43.034999847412116 7.5000000000000009 0.99500000476837169 83.094997406005874
decision_type=2 2 2 2 2 2 2 2 2 2 2 2 2 2 2 2 2 2 2 2 2 2 2 2 2 2 2 2 2 2 2 2 2 2 2 2 2 2 2
left_child=1 37 3 4 5 -3 19 10 -7 -10 -8 31 17 -11 -15 16 -2 18 -13 -6 25 -22 23 24 -23 -21 27 -24 29 -12 38 -5 -33 35 -35 -19 -36 -1 -18
right_child=15 2 -4 11 6 8 7 -9 9 13 28 12 -14 14 -16 -17 30 33 -20 20 21 22 26 -25 -26 -27 -28 -29 -30 -31 -32 32 -34 34 36 -37 -38 -39 -40
leaf_value=0.0078679475976546915 0.077006726110713519 0.55089749712496994 0.28822997951507573 0.041181015356515464 -0.017406052187658273 -0.099538198665336336 0.31705231093443359 0.47218504754396584 0.54733108065345071 0.23597851006881052 0.049158895002870726 -0.033646158874034882 0.44315876871347426 -0.052482384085655212 0.14284699410200119 0.0059001622827693605 -0.011461567637629747 0.017371730263843095 0.2316155741819077 0.042745916234950228 -0.11141926368077598 -0.0082493327950176453 0.29048547983169554 -0.077866592506567633 0.38946650479779099 0.2833438065648079 0.010956384454454696 -0.010950780934409092 0.14617107737632026 -0.11313287973403932 -0.0015046695316691106 -0.0024941604242597806 -0.092751116576519882 0.1636950690370913 -0.044196138465613655 -0.11535822818676632 0.070685207441046435 0.10054872342600273 0.0062263613675579274
leaf_count=1034 57 20 25 130 130 27 26 26 22 23 58 39 20 25 20 2606 11029 43 36 24 30 38 20 24 33 20 378 38 21 20 4702 583 33 26 57 30 37 26 736
internal_value=0 0.694696 0.945121 0.886546 1.42356 3.99184 1.02643 3.20243 2.79079 4.22526 1.90424 0.355247 1.2172 2.0507 0.686613 -0.1141 -0.150705 0.6466 1.87359 0.579391 0.778691 0.601164 0.761025 2.24634 3.53209 3.04217 0.43739 1.85986 0.73902 0.150912 -0.156558 0.0224839 -0.146587 0.169791 0.725374 -0.743497 0.0204623 0.202825 -0.207101
internal_count=22272 3142 2082 2057 1023 137 886 151 117 90 125 1034 288 68 45 19130 16524 268 75 735 605 561 531 95 71 44 436 58 99 78 16467 746 616 193 120 73 94 1060 11765
shrinkage=0.05


Tree=21
num_leaves=40
num_cat=0
split_feature=0 2 6 1 0 7 2 7 1 7 7 7 7 0 0 7 1 5 7 1 2 1 7 7 7 7 1 7 7 7 7 7 7 0 0 7 3 7 0
split_gain=1593.26 349.664 515.67 657.482 461.154 320.18 232.524 245.571 403.701 417.271 214.291 200.246 277.594 644.814 918.633 361.315 218.05 417.806 199.097 192.985 163.323 149.214 147.785 188.393 329.505 159.819 243.998 193.077 147.314 426.514 142.883 183.67 133.082 127.222 172.97 116.522 105.625 101.501 93.7372
threshold=5.5000000000000009 10.500000000000002 0.11499999836087228 5.5000000000000009 1.0000000180025095e-35 44.295000076293952 3.5000000000000004 40.424999237060554 4.5000000000000009 44.295000076293952 37.004999160766609 21.185000419616703 24.935000419616703 1.5000000000000002 1.0000000180025095e-35 26.73499965667725 5.5000000000000009 1.0000000180025095e-35 77.115001678466811 4.5000000000000009 2.5000000000000004 4.5000000000000009 45.875000000000007 22.535000801086429 30.045000076293949 33.204999923706062 3.5000000000000004 32.204999923706062 29.464999198913578 28.425000190734867 40.674999237060554 37.405000686645515 31.375000000000004 3.5000000000000004 1.0000000180025095e-35 27.634999275207523 1.0000000180025095e-35 32.204999923706062 1.0000000180025095e-35
decision_type=2 2 2 2 2 2 2 2 2 2 2 2 2 2 2 2 2 2 2 2 2 2 2 2 2 2 2 2 2 2 2 2 2 2 2 2 2 2 2
left_child=1 6 3 19 -5 -4 7 10 9 20 11 33 13 14 -13 -14 17 28 -8 22 -9 -2 23 -3 35 27 30 -26 29 -17 31 -27 -18 34 -1 -25 -23 38 -30
right_child=21 2 5 4 -6 -7 18 8 -10 -11 -12 12 15 -15 -16 16 32 -19 -20 -21 -22 36 -24 24 25 26 -28 -29 37 -31 -32 -33 -34 -35 -36 -37 -38 -39 -40
leaf_value=0.022038267426034239 -0.0082169980097344386 -0.060621712676116407 0.3841920165345073 0.042541621997952465 0.35462968226136837 0.11578859347105026 0.014050856015934497 0.076354413710534585 0.25500700597784348 -0.028854572968557479 -0.028798928809001909 0.043435463861182882 -0.1000291621606601 -0.064677270633789405 0.45983517376276162 -0.01182528194483547 0.23716236352920533 0.25355987250804901 0.13445046935762681 -0.05541363595812409 0.25708787216991186 0.0038308001727739649 -0.048339239103453502 0.12288709158698718 0.045186675505505675 0.063955572279899023 0.23136113878516926 -0.14558385497047788 0.038458589750986837 0.24010586708318443 0.15915778473019601 -0.11169653697447345 0.086119331057582585 0.049734167070269134 -0.12039889219479682 0.27438411631367426 -0.019596225971715984 0.034308356713989512 -0.07744983184801521
leaf_count=47 13652 28 20 20 29 25 1811 25 35 60 109 27 38 24 26 42 25 22 35 54 25 4945 35 30 36 46 21 21 26 28 20 22 35 66 39 22 533 115 53
internal_value=0 0.659961 1.49888 1.12356 4.54494 4.70158 0.527306 0.95449 2.14207 1.20087 0.715987 0.945716 1.2739 3.00681 4.95414 0.926421 1.24788 0.884277 0.326672 0.623121 3.33442 -0.108395 0.955844 1.22939 1.54302 0.854919 1.56447 -0.501944 0.535367 1.77894 0.833588 0.142539 2.98108 -0.0496452 -0.851107 3.73964 0.0310278 0.0866539 -0.786055
internal_count=22272 3142 429 384 49 45 2713 867 145 110 722 613 461 77 53 384 346 286 1846 335 50 19130 281 246 218 166 109 57 264 70 88 68 60 152 86 52 5478 194 79
shrinkage=0.05


Tree=22
num_leaves=40
num_cat=0
split_feature=0 0 0 2 1 7 7 6 7 6 2 7 7 7 7 7 2 7 6 6 1 7 7 7 2 1 7 7 1 7 7 7 3 1 7 7 6 7 2
split_gain=1437.92 349.026 516.573 844.436 482.33 442.856 1068.67 350.136 460.34 437.93 298.083 776.241 302.318 291.326 1040.69 164.146 145.77 147.22 142.28 203.452 183.922 217.159 328.96 275.95 208.6 176.244 298.481 168.209 165.831 143.042 135.877 103.532 98.7601 102.496 84.5446 84.4257 82.6331 1311.49 84.3087
threshold=5.5000000000000009 1.0000000180025095e-35 3.5000000000000004 10.500000000000002 1.0000000180025095e-35 21.185000419616703 24.935000419616703 0.76499998569488536 58.995000839233406 0.9650000035762788 1.5000000000000002 29.175000190734867 32.204999923706062 36.585000991821296 40.890001296997077 29.765000343322757 10.500000000000002 6.1599998474121103 0.55500000715255748 0.98500001430511486 1.0000000180025095e-35 57.954999923706062 66.764999389648452 46.604999542236335 4.5000000000000009 1.5000000000000002 42.774999618530281 36.385000228881843 5.5000000000000009 50.034999847412116 18.869999885559086 38.004999160766609 1.0000000180025095e-35 4.5000000000000009 33.424999237060554 14.500000000000002 0.044999999925494201 81.225002288818374 3.5000000000000004
decision_type=2 2 2 2 2 2 2 2 2 2 2 2 2 2 2 2 2 2 2 2 2 2 2 2 2 2 2 2 2 2 2 2 2 2 2 2 2 2 2
left_child=1 -1 3 5 -5 -3 -7 30 9 -9 12 -12 -8 15 -15 -6 17 -2 20 -20 21 23 -23 -13 25 -22 27 34 -26 -28 35 -14 33 36 -27 -4 -19 38 -38
right_child=16 2 7 4 13 6 10 8 -10 -11 11 18 31 14 -16 -17 -18 32 19 -21 24 22 -24 -25 28 26 29 -29 -30 -31 -32 -33 -34 -35 -36 -37 37 -39 -40
leaf_value=0.0079929911727437165 0.073334740899633946 -0.11437894908281475 0.040722609119755886 0.4033563208012354 0.16347797342709133 0.35105625549952191 -0.20704784176566382 0.20615674870088699 0.33130596887320279 -0.12076176944233122 0.31421928980520797 0.15541240125894548 0.104151243812521 0.48410730219405629 0.040210319046051275 0.0030198912362794619 0.0058417129884270275 -0.010445691986551819 -0.095350255721654648 0.097684235516048615 0.1995877387194798 0.34096848680859521 0.07253263604640961 -0.082344059905280251 0.0078209714958505042 0.11141654570897422 -0.085869678647981756 0.1909825391390107 0.094490922219825524 0.078332227042743147 0.006666306335356584 -0.056731051504611975 -0.019687414124431632 0.0007016191164838742 -0.019389470134462631 0.16949997358024121 0.0093930105658110562 0.39414298603577275 -0.012802447997293069
leaf_count=1060 57 39 35 21 28 30 22 20 20 21 28 26 20 23 31 37 2606 9091 39 21 29 21 25 23 337 30 36 44 66 21 928 20 1436 4169 21 20 745 21 1005
internal_value=0 0.626963 0.864778 1.36433 3.64866 1.00819 1.15783 0.368101 2.69287 0.774214 0.945645 1.11613 -1.16344 2.86893 4.58555 1.44281 -0.102975 -0.137642 0.920311 -0.555764 1.05075 2.34115 3.90159 0.876249 0.840833 1.73263 1.30161 2.38706 0.440301 -0.507485 0.223838 0.474202 -0.143195 -0.119258 1.1511 1.75101 -0.170417 0.0271975 -0.0670705
internal_count=22272 3142 2082 1038 140 898 859 1044 61 41 829 767 62 119 54 65 19130 16524 739 60 679 95 46 49 584 181 152 95 403 57 983 40 16467 15031 51 55 10862 1771 1750
shrinkage=0.05


Tree=23
num_leaves=40
num_cat=0
split_feature=0 0 5 0 1 7 7 7 1 2 7 6 7 7 7 2 7 7 2 7 7 7 7 7 7 1 1 7 7 7 6 2 2 3 1 0 0 0 7
split_gain=1297.72 314.996 486.027 471.901 887.609 1015.85 743.255 1173.04 717.739 1029.78 567.062 286.433 245.844 167.19 151.132 131.557 132.866 128.367 124.713 180.964 219.898 215.149 192.683 196.259 281.368 174.852 402.331 239.136 324.364 261.213 119.926 96.7663 96.9928 89.131 92.5029 80.6558 113.369 95.4417 78.7079
threshold=5.5000000000000009 1.0000000180025095e-35 1.0000000180025095e-35 3.5000000000000004 1.0000000180025095e-35 30.045000076293949 39.344999313354499 48.065000534057624 5.5000000000000009 9.5000000000000018 37.194999694824226 0.99500000476837169 59.73500061035157 68.204998016357436 68.634998321533217 10.500000000000002 6.1599998474121103 18.869999885559086 2.5000000000000004 29.464999198913578 33.204999923706062 25.425000190734867 47.514999389648445 50.315000534057624 52.475000381469734 4.5000000000000009 3.5000000000000004 44.014999389648445 36.795000076293952 40.674999237060554 0.37500000000000006 6.5000000000000009 4.5000000000000009 1.0000000180025095e-35 4.5000000000000009 12.500000000000002 9.5000000000000018 7.5000000000000009 50.854999542236335
decision_type=2 2 2 2 2 2 2 2 2 2 2 2 2 2 2 2 2 2 2 2 2 2 2 2 2 2 2 2 2 2 2 2 2 2 2 2 2 2 2
left_child=1 -1 3 4 5 -3 -7 -8 18 10 -10 17 -9 -14 31 16 -2 -5 -6 21 -21 -20 25 -24 -25 26 27 28 -22 -30 -26 32 -12 34 35 36 37 -18 -17
right_child=15 2 -4 11 8 6 7 12 9 -11 14 -13 13 -15 -16 38 33 -19 19 20 22 -23 23 24 30 -27 -28 -29 29 -31 -32 -33 -34 -35 -36 -37 -38 -39 -40
leaf_value=0.007593341724209066 0.069668002936400866 0.51023838672786948 0.26020959481596945 0.085537342064910468 -0.02065252471428651 -0.1054443654914697 0.51102186712351716 0.22396979539290718 0.25135843751745091 0.42976365570838637 -0.046905177659713304 0.18530974015593529 -0.063179597020149234 0.13077346891164782 0.13342782656351726 0.0089212190123145411 -0.015958052623068538 0.0062998166206491542 0.030039038571218653 -0.10603244841098786 0.17802620367570357 0.25208627909421921 -0.10094413126216216 0.19797769094055351 0.0029924808634698187 -0.017142624987496271 0.28703969669342044 0.20243994438129925 -0.15835442388499227 0.06835268090168635 0.10651098797398229 -0.11242871880531312 0.095741742984815081 -0.018703043436979188 0.00066653793421568358 -0.0044332489136475629 -0.02233110709928968 0.0031391536753116811 -0.01684525526754143
leaf_count=1060 57 20 25 54 130 27 22 23 36 26 26 24 25 20 21 2265 1304 956 24 30 22 20 34 22 287 36 25 23 27 24 31 20 22 1436 4169 6307 1938 1313 341
internal_value=0 0.595615 0.821539 0.768274 1.24981 3.61862 2.49278 3.87328 0.883529 2.86927 1.67826 0.291858 1.81979 0.460435 0.323639 -0.0978266 -0.130759 0.210726 0.475576 0.66652 0.513354 2.61939 0.662167 0.271877 0.500952 1.5919 2.16753 1.237 0.351088 -1.03337 0.261678 -0.400527 0.369493 -0.136035 -0.113295 -0.161896 -0.263294 -0.127532 0.110993
internal_count=22272 3142 2082 2057 1023 137 117 90 886 151 125 1034 68 45 89 19130 16524 1010 735 605 561 44 531 374 340 157 121 96 73 51 318 68 48 16467 15031 10862 4555 2617 2606
shrinkage=0.05


Tree=24
num_leaves=40
num_cat=0
split_feature=0 0 5 0 1 7 7 7 1 2 7 1 6 7 7 2 7 2 7 2 7 7 7 7 1 1 2 1 7 2 7 7 7 2 6 6 7 7 0
split_gain=1171.19 284.284 438.64 425.891 801.067 916.801 670.787 1058.67 647.759 929.376 511.919 260.599 1089.86 221.874 150.889 132.725 473.977 118.73 119.911 112.554 163.32 198.458 194.172 184.903 382.334 979.642 110.063 402.907 104.269 125.593 94.7654 195.057 108.958 107.101 92.4086 85.4464 1288.08 148.454 134.619
threshold=5.5000000000000009 1.0000000180025095e-35 1.0000000180025095e-35 3.5000000000000004 1.0000000180025095e-35 30.045000076293949 39.344999313354499 48.065000534057624 5.5000000000000009 9.5000000000000018 33.815000534057624 4.5000000000000009 0.51499998569488536 59.73500061035157 68.204998016357436 3.5000000000000004 28.795000076293949 10.500000000000002 6.1599998474121103 2.5000000000000004 29.464999198913578 33.204999923706062 25.425000190734867 42.774999618530281 4.5000000000000009 2.5000000000000004 4.5000000000000009 2.5000000000000004 68.634998321533217 6.5000000000000009 51.625000000000007 55.645000457763679 43.034999847412116 7.5000000000000009 0.89499998092651378 0.085000000894069686 81.965000152587905 32.995000839233406 9.5000000000000018
decision_type=2 2 2 2 2 2 2 2 2 2 2 2 2 2 2 2 2 2 2 2 2 2 2 2 2 2 2 2 2 2 2 2 2 2 2 2 2 2 2
left_child=1 -1 3 4 5 -3 -7 -8 19 10 -10 34 15 -9 -15 16 -13 18 -2 -6 22 -22 -21 24 25 -23 27 -25 29 -12 32 -32 -17 -33 -5 -20 37 38 -37
right_child=17 2 -4 11 8 6 7 13 9 -11 28 12 -14 14 -16 30 -18 -19 35 20 21 23 -24 26 -26 -27 -28 -29 -30 -31 31 33 -34 -35 -36 36 -38 -39 -40
leaf_value=0.0072136744667934075 0.066184602442540624 0.48472646299749611 0.24719911756366494 0.0024556803007850232 -0.019619898598354599 -0.10017213799335339 0.48547078906135122 0.21277131205019742 0.27716226967481467 0.40827546990834751 0.038494554367558713 -0.036627423209257617 0.41031250521540646 -0.060020616412162789 0.12423481196165086 0.011858707597089369 0.21496403269055817 0.0052721451089702441 -0.0079569778780082603 0.028537091488639518 -0.1007308268547058 -0.020097124106005618 0.23948196500539778 0.26346308588981632 -0.077864076693852757 0.35228093108444503 0.0078399645667227482 -0.013792059609764502 0.12675645039195108 -0.10680728435516358 0.15429305348258754 -0.043442793438831971 -0.11229673723379772 0.065800099195660766 -0.075664505753666178 0.15101326377345967 0.39210212748675122 -0.0043395639565860364 0.025330153233517196
leaf_count=1060 57 20 25 706 130 27 22 23 26 26 58 39 20 25 20 43 36 2606 14046 24 30 38 20 20 24 33 378 38 21 20 26 57 30 37 40 26 21 2256 118
internal_value=0 0.565834 0.780462 0.72986 1.18732 3.43769 2.36814 3.67962 0.839353 2.7258 1.59434 0.277265 1.08524 1.7288 0.437414 0.553824 1.68273 -0.0929353 -0.124221 0.451797 0.633194 0.487686 2.48842 0.629059 1.89323 3.0596 0.353609 1.63626 0.557257 0.0247535 0.11513 0.661664 -0.783282 -0.00885863 -0.0346614 -0.129233 0.0442742 -0.0239563 0.960459
internal_count=22272 3142 2082 2057 1023 137 117 90 886 151 125 1034 288 68 45 268 75 19130 16524 735 605 561 44 531 95 71 436 58 99 78 193 120 73 94 746 16467 2421 2400 144
shrinkage=0.05


Tree=25
num_leaves=40
num_cat=0
split_feature=0 2 6 1 0 7 2 7 1 7 7 7 7 7 0 0 7 1 5 1 2 7 7 7 1 7 7 0 0 0 1 7 2 7 7 1 0 7 1
split_gain=1057 268.325 450.524 521.798 342.611 265.326 173.382 227.263 374.287 373.657 183.791 182.707 163.378 231.89 544.461 729.277 327.806 164.384 324.38 160.099 135.451 129.055 334.606 120.48 116.205 112.679 493.969 105.581 162.515 99.0276 106.849 90.9121 84.7294 167.837 165.887 138.086 188.666 84.3254 134.395
threshold=5.5000000000000009 10.500000000000002 0.11499999836087228 5.5000000000000009 1.0000000180025095e-35 44.295000076293952 3.5000000000000004 40.424999237060554 4.5000000000000009 44.295000076293952 77.115001678466811 37.004999160766609 21.185000419616703 24.935000419616703 1.5000000000000002 1.0000000180025095e-35 26.73499965667725 5.5000000000000009 1.0000000180025095e-35 4.5000000000000009 2.5000000000000004 22.535000801086429 30.045000076293949 31.375000000000004 4.5000000000000009 29.175000190734867 28.425000190734867 3.5000000000000004 1.0000000180025095e-35 6.5000000000000009 5.5000000000000009 27.634999275207523 11.500000000000002 30.935000419616703 17.880000114440922 5.5000000000000009 15.500000000000002 45.875000000000007 2.5000000000000004
decision_type=2 2 2 2 2 2 2 2 2 2 2 2 2 2 2 2 2 2 2 2 2 2 2 2 2 2 2 2 2 2 2 2 2 2 2 2 2 2 2
left_child=1 6 3 19 -5 -4 7 11 9 20 -8 12 27 14 15 -14 -15 18 25 21 -9 -3 31 -19 -2 26 -18 28 -1 30 -26 -23 -31 34 -34 36 -36 38 -24
right_child=24 2 5 4 -6 -7 10 8 -10 -11 -12 -13 13 16 -16 -17 17 23 -20 -21 -22 22 37 -25 29 -27 -28 -29 -30 32 -32 -33 33 -35 35 -37 -38 -39 -40
leaf_value=0.019796355195502019 -0.0068829517355852498 -0.062912940872567033 0.34904069669544696 0.039274540226906546 0.30827617830243609 0.10470809137821198 0.010211082187510538 0.069973443575203423 0.2390469085957323 -0.032803692864254122 0.12589015313557217 -0.031609277519474337 0.040123691796152681 -0.10181143519125486 -0.064919803574836496 0.41113359859356519 -0.021050015885737683 0.21197395491600038 0.22157268775627018 -0.055059100135608954 0.23456431847810744 0.10665104291091364 0.0033054556116598461 0.068259676710835535 -0.00085024603207906101 0.0032615376785397527 0.27141508268700404 0.041259618955805447 -0.11826891571474381 -0.0017386103039367608 0.05816019352549201 0.2404678103471683 -0.029952174169011414 -0.0005146543128472387 0.0780321096860324 0.034040793559925502 0.26706158281727271 -0.049561211988329891 0.098052449728640023
leaf_count=47 13652 28 20 20 29 25 1811 25 35 60 35 109 27 38 24 26 42 25 22 54 25 30 109 35 150 200 22 66 39 4777 157 22 32 264 33 43 22 35 57
internal_value=0 0.537543 1.27243 0.921626 3.96959 4.26601 0.421336 0.790215 1.93267 1.0264 0.248087 0.560774 0.772899 1.06934 2.65318 4.44257 0.751747 1.05794 0.742233 0.475804 3.04538 0.778854 1.00431 2.56281 -0.0882885 0.434798 1.5897 -0.126174 -0.856293 0.0347503 0.586555 3.26532 0.0019899 0.447707 1.3778 2.0233 3.07288 0.419367 0.716781
internal_count=22272 3142 429 384 49 45 2713 867 145 110 1846 722 613 461 77 53 384 346 286 335 50 281 253 60 19130 264 64 152 86 5478 307 52 5171 394 130 98 55 201 166
shrinkage=0.05


Tree=26
num_leaves=40
num_cat=0
split_feature=0 0 2 6 1 1 0 7 1 7 2 7 7 7 7 7 0 7 0 1 4 0 7 7 1 7 2 6 7 7 7 2 1 7 7 0 1 7 7
split_gain=953.946 252.596 379.78 863.833 718.238 237.785 194.195 351.419 264.107 157.579 171.254 328.113 535.482 267.862 230.466 262.353 1021.02 319.005 225.218 224.06 310.312 245.191 185.445 141.59 111.493 157.468 170.946 396.969 248.048 295.983 145.645 120.856 104.875 101.692 90.9103 89.3724 96.4312 83.6745 77.9451
threshold=5.5000000000000009 1.0000000180025095e-35 10.500000000000002 0.11499999836087228 5.5000000000000009 4.5000000000000009 3.5000000000000004 30.045000076293949 2.5000000000000004 76.49499893188478 3.5000000000000004 40.424999237060554 45.604999542236335 37.004999160766609 21.185000419616703 24.935000419616703 1.5000000000000002 26.73499965667725 3.5000000000000004 5.5000000000000009 1.0000000180025095e-35 1.5000000000000002 29.175000190734867 32.204999923706062 4.5000000000000009 73.194999694824233 6.5000000000000009 0.37500000000000006 51.625000000000007 60.694999694824226 43.754999160766609 5.5000000000000009 4.5000000000000009 28.054999351501468 48.305000305175788 6.5000000000000009 5.5000000000000009 68.634998321533217 70.295001983642592
decision_type=2 2 2 2 2 2 2 2 2 2 2 2 2 2 2 2 2 2 2 2 2 2 2 2 2 2 2 2 2 2 2 2 2 2 2 2 2 2 2
left_child=1 -1 9 4 5 6 7 -4 -9 10 11 13 -13 14 18 16 -16 -17 -3 20 22 -21 33 -24 38 26 27 28 30 31 -26 -30 -2 -19 -14 36 -34 -28 -12
right_child=32 2 3 -5 -6 -7 -8 8 -10 -11 24 12 34 -15 15 17 -18 19 -20 21 -22 -23 23 -25 25 -27 37 -29 29 -31 -32 -33 35 -35 -36 -37 -38 -39 -40
leaf_value=0.0056646800825794069 -0.0065388045733515698 -0.11235546857500688 0.25837941904162737 0.33861055273202156 0.29286236927427095 -0.089345584561427438 0.00049961998345369996 -0.034257842493908751 0.1736646095911662 0.160191870006648 0.010629776871701082 0.26592775210738184 -0.061149609684944151 -0.059328801433245343 0.39057691830855151 -0.10491414164503417 -0.061673813623686638 0.039341501705348496 0.039196636787418165 0.2997066614031792 0.19948948677629233 0.055087878022875104 -0.075513609212178451 0.034806129076715674 0.028750556034426535 0.16500742966714113 -0.026060229433434352 0.25824864791787189 0.22538228127463111 -0.047123940013073108 -0.13009282659601282 0.079747767852885398 -0.00080773485203584038 0.18930675804615021 0.080643043237236839 9.4520575908129572e-05 0.055252184310726309 0.059461040512935541 -0.035956020843164592
leaf_count=1060 13652 39 26 31 29 36 94 42 24 22 750 42 20 69 26 30 24 26 66 20 28 21 52 66 31 23 126 23 29 27 27 28 150 20 26 5171 157 37 102
internal_value=0 0.510666 0.712978 1.79202 1.17693 0.565541 1.02085 2.05369 0.827006 0.543928 0.511016 0.959921 2.73698 0.63881 0.94013 1.3702 3.46993 0.971009 -0.341883 1.3662 0.913043 3.48828 0.387745 -0.276187 0.296452 0.770758 0.593392 1.31093 0.686681 1.78492 -0.903876 3.07685 -0.0838741 2.09088 0.379881 0.0330128 0.557227 -0.132949 0.101052
internal_count=22272 3142 2082 282 251 222 186 92 66 1800 1778 575 88 487 418 313 50 263 105 233 192 41 164 118 1203 351 328 165 142 84 58 57 19130 46 46 5478 307 163 852
shrinkage=0.05


Tree=27
num_leaves=40
num_cat=0
split_feature=0 0 0 2 7 7 7 7 1 6 7 6 7 6 1 2 6 7 1 6 7 7 1 7 7 7 3 1 2 7 7 0 0 0 7 7 6 7 0
split_gain=860.936 227.968 350.981 637.122 405.87 911.086 797.669 527.625 403.477 264.145 428.853 415.708 255.649 239.886 299.664 587.493 290.653 215.172 267.382 298.186 197.021 352.126 159.472 114.085 172.368 107.367 104.605 113.074 102.506 229.794 102.159 100.556 110.905 100.368 100.03 73.0491 70.4078 69.5058 69.1473
threshold=5.5000000000000009 1.0000000180025095e-35 3.5000000000000004 11.500000000000002 21.185000419616703 29.175000190734867 27.634999275207523 24.935000419616703 4.5000000000000009 0.76499998569488536 58.995000839233406 0.9650000035762788 31.935000419616703 0.55500000715255748 5.5000000000000009 8.5000000000000018 0.83499997854232799 31.935000419616703 1.0000000180025095e-35 0.17500000447034839 59.73500061035157 42.774999618530281 3.5000000000000004 37.194999694824226 55.645000457763679 18.869999885559086 1.0000000180025095e-35 4.5000000000000009 7.5000000000000009 37.805000305175788 68.204998016357436 12.500000000000002 9.5000000000000018 7.5000000000000009 48.305000305175788 14.500000000000002 0.99500000476837169 12.825000286102297 6.5000000000000009
decision_type=2 2 2 2 2 2 2 2 2 2 2 2 2 2 2 2 2 2 2 2 2 2 2 2 2 2 2 2 2 2 2 2 2 2 2 2 2 2 2
left_child=1 36 3 4 -3 6 7 -6 12 25 11 -11 -5 14 17 23 -15 -7 20 28 21 -19 -18 -16 -25 35 27 31 -20 -30 -22 32 33 -2 -31 -4 -1 -35 -29
right_child=26 2 9 8 5 13 -8 -9 -10 10 -12 -13 -14 16 15 -17 22 18 19 -21 30 -23 -24 24 -26 -27 -28 38 29 34 -32 -33 -34 37 -36 -37 -38 -39 -40
leaf_value=0.0033380442186361418 -0.013582759360651836 -0.1115516701899469 0.031449209025927953 0.17022124450831189 0.25024596613013383 -0.075622073831883352 0.48752193674445155 -0.057865262031555176 0.027627556522687276 0.18490571975708009 0.3041746629774571 -0.13361052347435839 0.41411741023713894 -0.19750264908956447 0.16207739931085838 0.35057518563487311 0.090174446702003475 0.009908661842346192 0.033737352140127651 0.19307150650024416 -0.037459828542626424 0.27290605408804758 -0.092098277807235729 -0.048452851000954124 0.1038112990739869 0.0031083496445529005 -0.01696251951233279 0.026468277228723133 0.14702749997377396 -0.10746683188847134 0.11705239474773409 -0.0016726094748873114 -0.019107956619475248 0.082601133507809468 -0.01239039023039919 0.15123622871935369 0.086645959231715947 0.0030947836484527527 0.0019660188991738282
leaf_count=1034 1520 40 35 21 33 44 20 24 21 20 20 21 22 23 23 22 30 20 310 25 23 35 20 34 41 928 1436 307 20 35 20 7446 2249 28 132 20 26 1506 4638
internal_value=0 0.485132 0.677329 1.0891 0.88827 1.02186 4.31683 2.4103 4.14544 0.267927 2.28714 0.435265 5.90011 0.725812 0.887253 2.34155 -1.00803 0.624429 0.776078 0.491534 2.29171 3.54541 0.345307 1.29319 0.695698 0.142625 -0.0796804 -0.0586143 0.322022 -0.262708 0.688126 -0.108401 -0.213638 -0.0895365 -0.646332 1.50016 0.107629 0.0909202 0.0697438
internal_count=22272 3142 2082 1038 974 934 77 57 64 1044 61 41 43 857 784 120 73 664 620 522 98 55 50 98 75 983 19130 17694 497 187 43 12749 5303 3054 167 55 1060 1534 4945
shrinkage=0.05


Tree=28
num_leaves=40
num_cat=0
split_feature=0 0 5 0 1 7 7 7 1 2 7 7 7 6 2 7 7 7 7 2 2 1 7 7 2 7 7 2 2 7 2 2 6 7 7 1 6 1 7
split_gain=776.995 205.741 335.249 323.546 706.733 779.546 567.803 912.798 495.692 736.646 423.694 245.818 301.328 237.59 104.94 109.916 193.575 167.625 154.197 414.017 236.96 204.106 151.174 104.107 102.315 105.824 83.1057 125.458 80.5955 397.177 690.244 77.0233 171.199 133.447 191.925 85.0069 71.2994 69.8256 68.6253
threshold=5.5000000000000009 1.0000000180025095e-35 1.0000000180025095e-35 3.5000000000000004 1.0000000180025095e-35 30.045000076293949 39.344999313354499 48.065000534057624 5.5000000000000009 9.5000000000000018 32.995000839233406 58.444999694824226 65.884998321533217 0.99500000476837169 2.5000000000000004 29.464999198913578 33.204999923706062 25.425000190734867 37.614999771118171 9.5000000000000018 4.5000000000000009 2.5000000000000004 43.754999160766609 18.869999885559086 10.500000000000002 6.1599998474121103 68.634998321533217 6.5000000000000009 3.5000000000000004 62.774999618530281 2.5000000000000004 9.5000000000000018 0.54500001668930065 50.315000534057624 55.395000457763679 4.5000000000000009 0.61500000953674328 3.5000000000000004 50.854999542236335
decision_type=2 2 2 2 2 2 2 2 2 2 2 2 2 2 2 2 2 2 2 2 2 2 2 2 2 2 2 2 2 2 2 2 2 2 2 2 2 2 2
left_child=1 -1 3 4 5 -3 -7 -8 14 10 -10 -9 -13 23 37 17 -17 -16 19 -18 21 -20 -23 -5 25 -2 27 -12 29 36 -31 32 33 -22 -35 -33 -27 -6 -26
right_child=24 2 -4 13 8 6 7 11 9 -11 26 12 -14 -15 15 16 18 -19 20 -21 31 22 -24 -25 38 28 -28 -29 -30 30 -32 35 -34 34 -36 -37 -38 -39 -40
leaf_value=0.0051123733143761474 0.062773385510796254 0.44405855342745781 0.21416853483021261 0.074085551914241585 -0.056533293834287825 -0.094830302673357514 0.44655080816962506 -0.071244736611843107 0.25955560103706693 0.35821402428241877 0.034638686404853569 0.28562333822250369 0.031516506363238606 0.16571854917953413 0.012371934426482767 -0.10417273302872976 -0.029004135046154261 0.20836722034960986 0.21133876121961157 0.26494066741155542 -0.11191616356372834 0.13910688226637632 -0.028948004171252251 0.002727264010154537 0.008571162408774936 -0.0035944275560636113 0.11062557839211964 -0.10966635882854461 -0.0078220876205942463 -0.030260138253907901 0.2842700907678315 -0.012575032616007157 0.14831882633946158 0.15869557133742743 0.0012448860928114609 -0.12964688420295717 0.018982316111969003 0.017316663065892562 -0.015488408840602111
leaf_count=1060 57 20 25 54 73 27 22 20 23 26 61 20 28 24 24 30 25 20 26 23 23 23 32 956 2265 4672 21 20 11347 37 33 69 22 21 247 20 378 57 341
internal_value=0 0.460876 0.643463 0.599224 0.997949 3.11166 2.12542 3.33203 0.671111 2.32134 1.31401 1.5206 2.74789 0.204741 0.332084 0.507239 0.387868 2.02921 0.527491 2.23689 0.357613 1.91801 0.82659 0.130849 -0.0756964 -0.104739 0.439759 -0.0198438 -0.109448 -0.00529907 2.36037 0.043205 0.276616 0.0732661 0.271649 -0.777666 -0.0380905 -0.483059 0.108458
internal_count=22272 3142 2082 2057 1023 137 117 90 886 151 125 68 48 1034 735 605 561 44 531 48 483 81 55 1010 19130 16524 102 81 16467 5120 70 402 313 291 268 89 5050 130 2606
shrinkage=0.05


Tree=29
num_leaves=40
num_cat=0
split_feature=0 2 6 1 7 7 7 2 7 7 1 1 2 7 0 7 7 1 7 7 7 7 7 7 2 7 6 1 2 7 7 0 2 6 7 7 0 7 1
split_gain=701.238 194.084 355.528 398.217 276.583 225.682 135.603 157.51 142.655 293.546 227.164 496.823 329.047 304.043 225.145 184.637 185.062 152.695 244.703 186.494 130.849 295.639 111.163 311.463 92.3395 95.5065 80.495 77.5544 134.986 225.345 116.524 102.302 92.3247 74.5835 1164.41 133.312 121.168 61.9343 73.1967
threshold=5.5000000000000009 10.500000000000002 0.11499999836087228 5.5000000000000009 37.004999160766609 44.295000076293952 77.115001678466811 4.5000000000000009 41.835000991821296 43.034999847412116 4.5000000000000009 1.5000000000000002 3.5000000000000004 55.155000686645515 1.0000000180025095e-35 36.795000076293952 36.385000228881843 1.0000000180025095e-35 22.535000801086429 29.175000190734867 22.535000801086429 25.425000190734867 28.425000190734867 30.355000495910648 10.500000000000002 6.1599998474121103 0.17500000447034839 5.5000000000000009 6.5000000000000009 70.295001983642592 60.954999923706062 3.5000000000000004 9.5000000000000018 0.085000000894069686 81.965000152587905 32.995000839233406 9.5000000000000018 50.854999542236335 5.5000000000000009
decision_type=2 2 2 2 2 2 2 2 2 2 2 2 2 2 2 2 2 2 2 2 2 2 2 2 2 2 2 2 2 2 2 2 2 2 2 2 2 2 2
left_child=1 6 3 20 -5 -4 7 8 15 -10 11 14 -12 -14 -11 16 17 18 -1 -20 -3 -22 -23 -24 25 -2 -19 -9 30 32 31 -29 -30 -27 35 36 -35 38 -26
right_child=24 2 5 4 -6 -7 -8 27 9 10 12 -13 13 -15 -16 -17 -18 26 19 -21 21 22 23 -25 37 33 -28 28 29 -31 -32 -33 -34 34 -36 -37 -38 -39 -40
leaf_value=-0.068366492837667478 0.059634717995006796 -0.070595802648647413 0.31129660777747636 0.072043474725094342 0.31373789489269255 0.085955660179257404 0.11473013375486647 0.00045634658232640525 0.19550932339259558 0.013063710210499941 0.23578709478024396 -0.050166434539339937 -0.085736876496901884 0.17357062101364137 0.20295629815475361 -0.023515576629971086 0.16809978857636454 0.02196725355524411 0.23321808852531292 0.066999329063627461 0.21477163635194302 -0.089536823073159091 0.20506882176480512 0.0082557192463987381 0.0044438658107868335 -0.0065957949611182114 -0.053436467855384473 0.073556768766471312 -0.059058928527409515 0.12551379676522881 -0.0017250361265959563 0.21531361609697344 0.048040309217241076 0.14401535385001737 0.37360553365378157 -0.0033144167148464426 0.024776682775009867 -0.014713987276569841 0.029985461139869763
leaf_count=20 57 37 20 29 20 25 35 1301 35 27 32 118 26 20 37 195 24 516 27 45 20 23 22 233 1937 14046 38 35 79 29 27 20 27 26 21 2256 118 341 328
internal_value=0 0.437832 1.06284 0.751206 3.41389 3.72214 0.339 0.313442 0.590873 1.19137 0.825377 0.213458 2.25319 0.54011 2.45691 0.386079 0.635327 0.534026 1.72707 2.58663 0.36174 0.581959 0.314802 0.504713 -0.0719115 -0.0995024 0.335903 0.101439 0.654886 0.0401975 1.66687 2.50209 -0.635579 -0.103975 0.0581284 -0.00674397 0.926118 0.103036 0.162852
internal_count=22272 3142 429 384 49 45 2713 2678 1160 295 260 182 78 46 64 865 670 646 92 72 335 298 278 255 19130 16524 554 1518 217 135 82 55 106 16467 2421 2400 144 2606 2265
shrinkage=0.05


end of trees

feature importances:
Column_7=445
Column_1=236
Column_2=208
Column_0=185
Column_6=69
Column_3=17
Column_5=9
Column_4=1

parameters:
[boosting: gbdt]
[objective: regression]
[metric: rmse]
[tree_learner: serial]
[device_type: cpu]
[data: ]
[valid: ]
[num_iterations: 100]
[learning_rate: 0.05]
[num_leaves: 40]
[num_threads: 0]
[max_depth: -1]
[min_data_in_leaf: 20]
[min_sum_hessian_in_leaf: 0.001]
[bagging_fraction: 1]
[bagging_freq: 0]
[bagging_seed: 3]
[feature_fraction: 1]
[feature_fraction_seed: 2]
[early_stopping_round: 0]
[max_delta_step: 0]
[lambda_l1: 0]
[lambda_l2: 0]
[min_gain_to_split: 0]
[drop_rate: 0.1]
[max_drop: 50]
[skip_drop: 0.5]
[xgboost_dart_mode: 0]
[uniform_drop: 0]
[drop_seed: 4]
[top_rate: 0.2]
[other_rate: 0.1]
[min_data_per_group: 100]
[max_cat_threshold: 32]
[cat_l2: 10]
[cat_smooth: 10]
[max_cat_to_onehot: 4]
[top_k: 20]
[monotone_constraints: ]
[feature_contri: ]
[forcedsplits_filename: ]
[refit_decay_rate: 0.9]
[verbosity: 1]
[max_bin: 255]
[min_data_in_bin: 3]
[bin_construct_sample_cnt: 200000]
[histogram_pool_size: -1]
[data_random_seed: 1]
[output_model: LightGBM_model.txt]
[snapshot_freq: -1]
[input_model: ]
[output_result: LightGBM_predict_result.txt]
[initscore_filename: ]
[valid_data_initscores: ]
[pre_partition: 0]
[enable_bundle: 1]
[max_conflict_rate: 0]
[is_enable_sparse: 1]
[sparse_threshold: 0.8]
[use_missing: 1]
[zero_as_missing: 0]
[two_round: 0]
[save_binary: 0]
[enable_load_from_binary_file: 1]
[header: 0]
[label_column: ]
[weight_column: ]
[group_column: ]
[ignore_column: ]
[categorical_feature: ]
[predict_raw_score: 0]
[predict_leaf_index: 0]
[predict_contrib: 0]
[num_iteration_predict: -1]
[pred_early_stop: 0]
[pred_early_stop_freq: 10]
[pred_early_stop_margin: 10]
[convert_model_language: ]
[convert_model: gbdt_prediction.cpp]
[num_class: 1]
[is_unbalance: 0]
[scale_pos_weight: 1]
[sigmoid: 1]
[boost_from_average: 1]
[reg_sqrt: 0]
[alpha: 0.9]
[fair_c: 1]
[poisson_max_delta_step: 0.7]
[tweedie_variance_power: 1.5]
[max_position: 20]
[label_gain: ]
[metric_freq: 1]
[is_provide_training_metric: 0]
[eval_at: ]
[num_machines: 1]
[local_listen_port: 12400]
[time_out: 120]
[machine_list_filename: ]
[machines: ]
[gpu_platform_id: -1]
[gpu_device_id: -1]
[gpu_use_dp: 0]

end of parameters

pandas_categorical:null
