tree
version=v2
num_class=1
num_tree_per_iteration=1
label_index=0
max_feature_idx=7
objective=regression
feature_names=Column_0 Column_1 Column_2 Column_3 Column_4 Column_5 Column_6 Column_7
feature_infos=[0:23] [0:6] [1:12] [0:2] [0:1] [0:1] [0:1] [-9.5699996948242188:95.769996643066406]
tree_sizes=3051 3130 3134 3129 3142 3119 3123 3106 3153 3131 3140 3145 3154 3133 3143 3140 3171 3170 3139 3144 3150 3152 3158 3181 3158 3178 3183

Tree=0
num_leaves=40
num_cat=0
split_feature=0 1 0 1 2 6 2 2 7 7 3 7 1 2 7 2 7 6 7 7 2 7 2 6 7 1 0 7 0 7 1 0 1 7 0 7 2 2 7
split_gain=2747.28 1530.35 2013.28 787.509 1519.06 2978.1 660.305 442.25 486.609 369.746 353.468 283.697 264.002 238.866 551.256 629.663 220.682 212.372 192.311 274.021 180.302 242.95 209.047 307.43 162.781 135.789 313.873 137.23 108.571 121.498 118.346 212.919 512.226 1233.66 111.563 104.219 88.829 87.4136 85.634
threshold=5.5000000000000009 4.5000000000000009 1.5000000000000002 4.5000000000000009 11.500000000000002 0.46500000357627874 2.5000000000000004 4.5000000000000009 61.545000076293952 13.034999847412111 1.0000000180025095e-35 33.174999237060554 5.5000000000000009 3.5000000000000004 61.545000076293952 2.5000000000000004 14.795000076293947 0.095000002533197417 66.134998321533217 63.895000457763679 2.5000000000000004 37.995000839233406 3.5000000000000004 0.17500000447034839 53.48500061035157 5.5000000000000009 18.500000000000004 29.545000076293949 12.500000000000002 72.024997711181655 2.5000000000000004 19.500000000000004 3.5000000000000004 75.444999694824233 10.500000000000002 13.034999847412111 6.5000000000000009 2.5000000000000004 45.704999923706062
decision_type=2 2 2 2 2 2 2 2 2 2 2 2 2 2 2 2 2 2 2 2 2 2 2 2 2 2 2 2 2 2 2 2 2 2 2 2 2 2 2
left_child=1 9 12 13 7 11 -4 8 20 -1 18 16 -3 14 38 -16 -6 36 19 -10 35 -22 23 24 -23 26 -18 -27 34 -30 -31 -32 33 -33 -15 -5 37 -14 -2
right_child=3 2 6 4 5 -7 -8 -9 10 -11 -12 -13 17 28 15 -17 25 -19 -20 -21 21 22 -24 -25 -26 27 -28 -29 29 30 31 32 -34 -35 -36 -37 -38 -39 -40
leaf_value=1.1745734678929913 0.94197110914778293 0.96290680483558777 1.4084135600783476 1.0135212123588664 0.91365680520276171 1.4740252300134269 1.1692140542193097 0.94003949302593404 1.0723464570958923 0.97674097963953899 0.92062232241485253 0.9637354567051134 0.99239754508613376 0.93150916375108717 0.91647162000184745 1.2398920985876223 1.061334219938 1.2016568062987065 1.0188981820752252 1.2958875652661646 0.94813567801184861 1.0028544099397776 0.97658172867721738 1.2266567969251667 1.139656801343361 1.1002282317337955 1.2849901362792786 0.96756589603920939 0.93193135371818669 0.93715359997340653 0.94777407922733414 1.332539160183206 0.93656246551538447 0.93535245728581007 0.91244851106716696 0.94491961129142321 0.98633422452551478 1.1025827284638634 0.9633204579393273
leaf_count=24 3118 160 37 59 25 38 131 3073 29 1485 29 178 27 2777 27 34 62 21 29 26 355 167 333 20 25 35 21 44 4043 1248 631 34 106 46 1061 898 62 54 553
internal_value=0 1.11486 2.64642 -0.116651 0.204946 2.07322 5.45565 0.0556466 0.425507 0.6155 2.44027 1.19609 1.18978 -0.244697 -0.0289624 2.95253 2.05624 2.08138 3.47946 4.57816 0.302907 0.624221 1.04355 1.81976 1.4311 2.48299 3.37619 1.54456 -0.325646 -0.242826 -0.0454805 0.250398 1.19067 3.10089 -0.45745 0.000730841 1.64529 2.33484 -0.078505
internal_count=21125 2001 492 19124 5446 403 168 5043 1970 1509 113 365 324 13678 3732 61 187 164 84 55 1857 900 545 212 192 162 83 79 9946 6108 2065 817 186 80 3838 957 143 81 3671
shrinkage=1


Tree=1
num_leaves=40
num_cat=0
split_feature=0 1 0 1 2 6 2 2 7 7 3 7 1 2 7 2 7 6 7 7 2 7 2 6 1 0 7 0 7 7 0 7 0 1 0 0 0 1 3
split_gain=2479.42 1381.14 1816.99 710.727 1370.95 2687.74 595.925 399.131 439.272 333.696 256.362 256.037 238.262 215.576 497.509 568.27 199.165 191.666 161.583 266.493 137.003 196.762 163.19 292.807 122.55 283.27 123.85 97.9854 109.652 115.036 100.686 94.3579 87.088 99.3303 95.3433 99.9095 83.8857 107.653 83.2857
threshold=5.5000000000000009 4.5000000000000009 1.5000000000000002 4.5000000000000009 11.500000000000002 0.46500000357627874 2.5000000000000004 4.5000000000000009 58.364999771118171 13.034999847412111 1.0000000180025095e-35 33.174999237060554 5.5000000000000009 3.5000000000000004 61.545000076293952 2.5000000000000004 14.795000076293947 0.095000002533197417 62.854999542236335 66.134998321533217 2.5000000000000004 37.995000839233406 3.5000000000000004 0.17500000447034839 5.5000000000000009 18.500000000000004 29.545000076293949 12.500000000000002 72.024997711181655 72.274997711181655 10.500000000000002 13.034999847412111 20.500000000000004 5.5000000000000009 16.500000000000004 12.500000000000002 6.5000000000000009 5.5000000000000009 1.0000000180025095e-35
decision_type=2 2 2 2 2 2 2 2 2 2 2 2 2 2 2 2 2 2 2 2 2 2 2 2 2 2 2 2 2 2 2 2 2 2 2 2 2 2 2
left_child=1 9 12 13 7 11 -4 8 20 -1 18 16 -3 14 -2 -16 -6 -14 -10 -20 31 -22 23 32 25 -18 -26 30 -29 -30 -15 -5 33 34 35 -23 37 -9 -11
right_child=3 2 6 4 5 -7 -8 36 10 38 -12 -13 17 27 15 -17 24 -19 19 -21 21 22 -24 -25 26 -27 -28 28 29 -31 -32 -33 -34 -35 -36 -37 -38 -39 -40
leaf_value=0.21418798885618651 -0.0037289857734486898 0.013104659932432698 0.43633607629988647 0.061188346906801909 -0.033682841166853904 0.49866717006815109 0.20909654618105816 -0.013113086563017635 0.071840172445831393 0.029182966008683864 -0.029105926910415292 0.01389187876281611 0.078151425645341513 -0.016723098775165993 -0.031008765377380232 0.27624068584512262 0.10661070632838435 0.23991716149307432 0.26536758624948564 0.066296473890542981 -0.00092791041647884208 0.061599180140876258 0.023882778293879359 0.26366715580224992 0.14356001555919648 0.31908382659866696 0.017530794936994259 -0.016322019745439342 0.095035767809798333 -0.0035931875543893117 -0.034830720260612923 -0.0041076218589922442 0.15574271501444112 0.0017766423955058249 0.0012024543291233756 0.18106793444293243 -0.010649318413730529 0.06535096647108303 -0.021511466852064398
leaf_count=24 3671 160 37 59 25 38 131 90 65 1399 32 178 143 2777 27 34 62 21 40 29 355 42 295 20 35 21 44 4043 30 2035 1061 889 22 65 27 30 2898 85 86
internal_value=0 1.05911 2.5141 -0.110818 0.194698 1.96956 5.18287 0.0528643 0.404232 0.584725 1.96091 1.13629 1.13029 -0.232462 -0.0275143 2.8049 1.95342 1.97731 2.5682 3.634 0.26099 0.551001 0.954581 1.63756 2.35884 3.20738 1.46733 -0.309363 -0.230684 -0.0432064 -0.434578 -0.000876864 1.24661 0.995994 1.6266 2.22756 -0.172386 0.49996 0.524943
internal_count=21125 2001 492 19124 5446 403 168 5043 1970 1509 166 365 324 13678 3732 61 187 164 134 69 1804 856 501 206 162 83 79 9946 6108 2065 3838 948 186 164 99 72 3073 175 1485
shrinkage=0.05


Tree=2
num_leaves=40
num_cat=0
split_feature=0 1 0 1 2 6 7 2 2 7 7 3 7 7 1 2 7 2 6 0 7 2 7 2 6 7 0 0 7 1 0 2 3 0 7 2 2 3 7
split_gain=2237.67 1246.48 1639.83 641.431 1237.28 2446.5 3406.81 537.822 360.215 397.61 301.161 288.084 242.093 265.84 215.032 194.558 449.002 512.864 172.978 164.944 147.691 147.311 198.069 172.414 249.683 148.064 130.477 88.4318 98.9607 106.887 191.819 479.907 1661.57 90.8691 84.974 80.1682 78.8908 78.8466 77.2847
threshold=5.5000000000000009 4.5000000000000009 1.5000000000000002 4.5000000000000009 11.500000000000002 0.17500000447034839 42.694999694824226 2.5000000000000004 4.5000000000000009 61.545000076293952 13.034999847412111 1.0000000180025095e-35 29.545000076293949 19.005000114440922 5.5000000000000009 3.5000000000000004 61.545000076293952 2.5000000000000004 0.095000002533197417 16.500000000000004 64.895000457763686 2.5000000000000004 37.995000839233406 3.5000000000000004 0.17500000447034839 53.48500061035157 11.500000000000002 12.500000000000002 72.024997711181655 2.5000000000000004 19.500000000000004 7.5000000000000009 1.0000000180025095e-35 10.500000000000002 13.034999847412111 6.5000000000000009 2.5000000000000004 1.0000000180025095e-35 45.704999923706062
decision_type=2 2 2 2 2 2 2 2 2 2 2 2 2 2 2 2 2 2 2 2 2 2 2 2 2 2 2 2 2 2 2 2 2 2 2 2 2 2 2
left_child=1 10 14 15 8 12 -7 -4 9 21 -1 19 13 -6 -3 16 38 -18 35 20 -11 34 -23 24 25 -24 -15 33 -29 -30 -31 -32 -33 -17 -5 36 -16 -25 -2
right_child=3 2 7 4 5 6 -8 -9 -10 11 -12 -13 -14 26 18 27 17 -19 -20 -21 -22 22 23 37 -26 -27 -28 28 29 30 31 32 -34 -35 -36 -37 -38 -39 -40
leaf_value=0.2034785930067301 -0.0065978023101115092 0.012449427021783777 0.4145192782621126 0.058128930262084738 -0.0076033083168235982 0.098134591478322236 0.90368758156629547 0.19864172301902117 -0.0081883227544161784 0.1312598284819852 0.02493476856600255 -0.025610302504280522 0.01446869219028395 0.084572467456261319 0.03721329031719102 -0.015886944040741945 -0.029458329026345854 0.26242865911301444 0.22792130141031175 0.080082294639003904 0.31044316861940469 -0.00088151442123131016 0.047857107295275494 0.033534850686417143 0.25048380032181744 0.17832925614714623 0.21359489799238915 -0.015505919076231426 -0.01125630409253809 -0.0011464776335470084 -0.016253347735048509 0.45137961085500389 -0.016343360570344061 -0.033089183056051165 -0.0038158514290085616 0.031453136769273589 0.141889222462972 -0.042127116944175216 0.013684079754309457
leaf_count=24 3118 160 37 59 37 35 21 131 3073 23 1485 29 231 36 27 2777 27 34 21 38 23 355 167 294 20 25 43 4043 1248 631 102 29 55 1061 898 62 54 39 553
internal_value=0 1.00616 2.38839 -0.105277 0.184963 1.87108 8.00434 4.92372 0.0502211 0.38402 0.555489 2.20524 0.881276 2.05998 1.07377 -0.220839 -0.0261385 2.66466 1.87844 3.1434 4.41703 0.273197 0.563631 0.942251 1.64717 1.29691 3.096 -0.293895 -0.21915 -0.0410461 0.240143 1.13261 2.90265 -0.412849 6.21171e-05 1.48488 2.13994 0.493471 -0.0708507
internal_count=21125 2001 492 19124 5446 403 56 168 5043 1970 1509 113 347 116 324 13678 3732 61 164 84 46 1857 900 545 212 192 79 9946 6108 2065 817 186 84 3838 957 143 81 333 3671
shrinkage=0.05


Tree=3
num_leaves=40
num_cat=0
split_feature=0 1 0 1 2 7 0 2 2 7 7 7 3 1 2 7 2 7 1 0 6 7 7 2 7 2 4 0 7 1 7 7 0 3 0 7 0 1 0
split_gain=2019.5 1124.95 1479.95 578.892 1116.65 2231.43 3412.98 485.384 325.094 360.616 274.72 271.797 209.907 194.066 175.588 405.224 462.86 165.827 169.297 259.862 156.113 131.371 242.465 111.186 160.557 155.435 135.633 80.1172 132.033 106 183.836 844.102 128.418 264.708 89.9872 76.8663 76.8487 82.4171 111.792
threshold=5.5000000000000009 4.5000000000000009 1.5000000000000002 4.5000000000000009 11.500000000000002 44.68499946594239 11.500000000000002 2.5000000000000004 4.5000000000000009 58.364999771118171 33.174999237060554 13.034999847412111 1.0000000180025095e-35 5.5000000000000009 3.5000000000000004 61.545000076293952 2.5000000000000004 19.005000114440922 5.5000000000000009 17.500000000000004 0.095000002533197417 62.854999542236335 66.134998321533217 2.5000000000000004 38.524999618530281 3.5000000000000004 1.0000000180025095e-35 15.500000000000002 71.58499908447267 2.5000000000000004 75.444999694824233 74.844997406005874 20.500000000000004 1.0000000180025095e-35 18.500000000000004 13.034999847412111 20.500000000000004 5.5000000000000009 16.500000000000004
decision_type=2 2 2 2 2 2 2 2 2 2 2 2 2 2 2 2 2 2 2 2 2 2 2 2 2 2 2 2 2 2 2 2 2 2 2 2 2 2 2
left_child=1 11 13 14 8 10 -7 -4 9 23 17 -1 21 -3 15 -2 -17 -6 19 -19 -15 -11 -23 35 -25 26 36 -16 34 -30 31 32 -31 -34 -29 -5 37 38 -26
right_child=3 2 7 4 5 6 -8 -9 -10 12 -12 -13 -14 20 27 16 -18 18 -20 -21 -22 22 -24 24 25 -27 -28 28 29 30 -32 -33 33 -35 -36 -37 -38 -39 -40
leaf_value=0.19330466327567897 -0.0033654099235423287 0.011826955494761933 0.3937933062782159 0.055222481186107057 -0.0072231441736221313 0.90769716870039707 0.038907968002156568 0.18870963759094705 -0.0077789053778969334 0.065230962880528889 -0.00014101388211735708 0.02368803013216466 -0.026292692637071013 0.070531661594872716 -0.017980802534423256 -0.027985411661642569 0.24930722507483818 0.10146705591016346 0.057097706765615541 0.29920317412664493 0.21652524002960752 0.244095998890698 0.054211442634977153 0.00063604621651760867 0.11701924758963288 0.02126263295361534 0.20286947818472983 -0.002244053305643914 -0.0072961439564169011 -0.013597237354046422 0.00091271790305292731 0.36041635291739588 0.1852461807926496 -0.02309594905424503 -0.020733325248855412 -0.0037114500320601382 0.15443485159249534 0.0045720010097803814 -0.0076647968441247941
leaf_count=24 3671 160 37 59 37 20 26 131 3073 65 167 1485 32 143 5517 27 34 54 75 24 21 40 29 381 64 289 20 967 853 95 372 21 30 31 2060 889 21 56 25
internal_value=0 0.955849 2.26897 -0.100013 0.175715 1.77753 8.33285 4.67754 0.0477101 0.364819 0.932864 0.527714 1.77526 1.02008 -0.209797 -0.0248316 2.53142 1.75528 2.2147 3.24618 1.78452 2.32477 3.28579 0.235034 0.496294 0.884171 1.59722 -0.2792 -0.179031 0.0746696 0.417412 1.25632 0.455086 1.58735 -0.296536 -0.00087242 1.30082 1.04188 1.63991
internal_count=21125 2001 492 19124 5446 403 46 168 5043 1970 357 1509 166 324 13678 3732 61 190 153 78 164 134 69 1804 856 475 186 9946 4429 1402 549 177 156 61 3027 948 166 145 89
shrinkage=0.05


Tree=4
num_leaves=40
num_cat=0
split_feature=0 1 0 1 2 6 7 2 2 7 7 7 7 1 3 2 2 2 7 2 6 7 0 0 0 7 7 1 0 2 7 2 0 1 3 0 0 7 7
split_gain=1822.6 1015.27 1335.65 522.45 1007.78 2157.7 2943.11 438.06 293.398 330.492 245.297 217.554 220.305 175.145 172.073 213.304 314.538 158.468 365.715 417.731 140.892 128.942 269.389 111.249 110.544 76.3452 78.4964 232.933 311.418 595.309 111.42 112.187 75.7069 97.1565 75.1653 74.2315 82.0094 81.4427 100.643
threshold=5.5000000000000009 4.5000000000000009 1.5000000000000002 4.5000000000000009 11.500000000000002 0.17500000447034839 42.694999694824226 2.5000000000000004 4.5000000000000009 54.024999618530281 13.034999847412111 29.545000076293949 19.005000114440922 5.5000000000000009 1.0000000180025095e-35 2.5000000000000004 3.5000000000000004 3.5000000000000004 61.545000076293952 2.5000000000000004 0.095000002533197417 62.854999542236335 16.500000000000004 11.500000000000002 18.500000000000004 10.715000152587892 45.704999923706062 3.5000000000000004 14.500000000000002 2.5000000000000004 46.725000381469734 2.5000000000000004 6.5000000000000009 5.5000000000000009 1.0000000180025095e-35 12.500000000000002 10.500000000000002 72.024997711181655 72.274997711181655
decision_type=2 2 2 2 2 2 2 2 2 2 2 2 2 2 2 2 2 2 2 2 2 2 2 2 2 2 2 2 2 2 2 2 2 2 2 2 2 2 2
left_child=1 10 13 17 8 11 -7 -4 9 -5 -1 12 -6 -3 15 -11 -17 18 25 -20 -15 24 -23 -14 -18 -2 -27 30 -29 -30 31 -28 33 -10 -12 36 -19 -37 -39
right_child=3 2 7 4 5 6 -8 -9 32 14 34 -13 23 20 -16 16 21 35 19 -21 -22 22 -24 -25 -26 26 27 28 29 -31 -32 -33 -34 -35 -36 37 -38 38 -40
leaf_value=0.18363943199316662 0.050509130954742437 0.011235606507225385 0.37410365310875149 0.0091323123329941046 -0.0068619873072649981 0.091653872302600317 0.84038131297344254 0.17927415116142681 -0.01165907021198008 -0.018468128108396764 0.025292678009066268 0.0099000280835863323 0.076133226686053809 0.067005079031199011 -0.027278445381671193 0.24036171403196127 0.0096095348760071725 -0.014193557110388031 -0.026586142071971186 0.23684186361839665 0.20569897393385569 0.25478782287010782 0.036549932822104426 0.19526998301058315 0.1298906908155634 -0.0073048728594145851 0.15626639983661117 -0.0011740781832486392 0.36514086184853856 0.017575921391003901 -0.011089023169213697 -0.00049550721049308776 -0.0093184905250095935 0.062881778331802182 -0.022867036409416175 -0.013964193503112302 -0.030535684187495405 0.0891531633962101 -0.0030995443355319543
leaf_count=24 65 160 37 1698 37 35 21 131 90 41 1399 231 36 143 40 36 72 2777 27 34 21 26 31 43 26 3053 21 56 22 28 401 25 2898 85 86 4043 1061 30 2035
internal_value=0 0.908057 2.15552 -0.0950126 0.166929 1.68865 7.44853 4.44366 0.0453245 0.346578 0.501329 0.759102 1.87647 0.96908 1.36995 1.70021 2.14446 -0.199307 -0.02359 2.40485 1.69529 1.52601 2.72194 2.8196 0.830417 -0.0639428 -0.0833044 0.263363 1.59613 3.41009 -0.0526842 1.42139 -0.147799 0.49093 0.450073 -0.26524 -0.374225 -0.196759 -0.0351862
internal_count=21125 2001 492 19124 5446 403 56 168 5043 1970 1509 347 116 324 272 232 191 13678 3732 61 164 155 57 79 98 3671 3606 553 106 50 447 46 3073 175 1485 9946 3838 6108 2065
shrinkage=0.05


Tree=5
num_leaves=40
num_cat=0
split_feature=0 1 0 1 2 6 2 2 7 7 7 3 1 7 2 7 2 6 7 0 2 7 2 6 7 7 0 7 2 7 7 2 7 2 7 7 1 0 2
split_gain=1644.9 916.278 1205.43 471.511 909.518 1965.79 395.349 264.791 298.978 226.918 210.964 172.461 158.068 146.303 143.018 330.058 377.002 127.155 110.029 267.236 96.9178 140.631 116.596 228.626 93.2208 155.883 92.4049 74.5423 72.3518 71.4591 129.533 71.1989 69.2681 68.9376 68.9016 70.843 210.222 281.055 537.267
threshold=5.5000000000000009 4.5000000000000009 1.5000000000000002 4.5000000000000009 11.500000000000002 0.46500000357627874 2.5000000000000004 4.5000000000000009 58.364999771118171 17.969999313354496 33.174999237060554 1.0000000180025095e-35 5.5000000000000009 14.795000076293947 3.5000000000000004 61.545000076293952 2.5000000000000004 0.095000002533197417 63.364999771118171 17.500000000000004 2.5000000000000004 37.995000839233406 3.5000000000000004 0.17500000447034839 31.884999275207523 27.384999275207523 11.500000000000002 39.524999618530281 6.5000000000000009 63.065000534057624 56.815000534057624 2.5000000000000004 13.034999847412111 4.5000000000000009 10.715000152587892 45.704999923706062 3.5000000000000004 14.500000000000002 2.5000000000000004
decision_type=2 2 2 2 2 2 2 2 2 2 2 2 2 2 2 2 2 2 2 2 2 2 2 2 2 2 2 2 2 2 2 2 2 2 2 2 2 2 2
left_child=1 9 12 14 7 10 -4 8 20 -1 13 18 -3 -6 15 34 -17 28 26 -20 32 -22 23 27 25 -15 -10 -23 31 30 -8 -14 -5 -16 -2 -36 -37 -38 -39
right_child=3 2 6 4 5 -7 29 -9 11 -11 -12 -13 17 24 33 16 -18 -19 19 -21 21 22 -24 -25 -26 -27 -28 -29 -30 -31 -32 -33 -34 -35 35 36 37 38 -40
leaf_value=0.1264462274284317 0.047983675530323622 0.010673827113932929 0.3553984648875288 0.052004743405317855 -0.030914276987314228 0.42245870181604439 0.15981201689909486 -0.0070204632062788631 -0.028574233576655391 0.02015015024457871 0.0056178789543971592 -0.023614135198295118 0.028475791160707122 0.13872640811358436 -0.023752498464033892 -0.025256833544483895 0.22499976631473093 0.19541402611704101 0.23210500631481412 0.021061506246527039 -0.0013258577127691726 -0.01434423364698887 0.019652995205152846 0.22930937118828298 0.18998976778239013 0.032343651204266487 0.098590451717376709 0.066640897768716151 0.023003642513386668 0.092336525457600752 0.29593501287427815 0.12791791966667884 -0.0039405800884063655 -0.011045342852731684 -0.0069396282656345844 -0.0025024991899195402 -0.001115374340276633 0.34688380685719578 0.016697125577567414
leaf_count=52 65 160 37 59 25 38 85 3073 20 1457 178 32 27 66 1216 27 34 21 40 24 355 35 295 20 24 72 50 151 62 24 22 54 889 8730 3053 447 56 22 28
internal_value=0 0.862654 2.04775 -0.090262 0.158583 1.60422 4.22148 0.0430583 0.329249 0.476262 0.891593 1.6135 0.920626 1.63332 -0.189342 -0.0224105 2.28461 1.61053 2.1116 3.05927 0.211075 0.454997 0.79619 1.37349 1.9808 1.66445 1.24515 1.02804 1.2731 3.40621 3.756 1.89541 -0.00917502 -0.251978 -0.0607456 -0.0791392 0.250195 1.51632 3.23959
internal_count=21125 2001 492 19124 5446 403 168 5043 1970 1509 365 166 324 187 13678 3732 61 164 134 64 1804 856 501 206 162 138 70 186 143 131 107 81 948 9946 3671 3606 553 106 50
shrinkage=0.05


Tree=6
num_leaves=40
num_cat=0
split_feature=0 1 0 1 2 7 0 2 2 7 7 7 3 2 2 1 7 2 7 2 6 7 0 0 7 7 0 2 2 2 6 7 2 7 0 1 0 7 1
split_gain=1484.52 826.941 1087.9 425.538 820.84 1839.56 3045.08 356.802 238.974 273.072 234.129 206.555 143.022 185.465 277.739 142.656 133.596 129.073 297.877 340.245 114.757 103.851 224.782 98.8177 95.9204 147.746 70.2452 131.949 143.838 147.807 69.1386 194.927 87.3391 83.7167 68.3255 87.6838 67.6984 109.898 95.8395
threshold=5.5000000000000009 4.5000000000000009 1.5000000000000002 4.5000000000000009 11.500000000000002 44.68499946594239 11.500000000000002 2.5000000000000004 4.5000000000000009 54.024999618530281 33.174999237060554 13.034999847412111 1.0000000180025095e-35 2.5000000000000004 3.5000000000000004 5.5000000000000009 32.135000228881843 3.5000000000000004 61.545000076293952 2.5000000000000004 0.095000002533197417 62.854999542236335 16.500000000000004 18.500000000000004 14.795000076293947 27.384999275207523 1.0000000180025095e-35 7.5000000000000009 5.5000000000000009 6.5000000000000009 0.24499999731779101 32.135000228881843 2.5000000000000004 36.805000305175788 6.5000000000000009 5.5000000000000009 15.500000000000002 71.58499908447267 2.5000000000000004
decision_type=2 2 2 2 2 2 2 2 2 2 2 2 2 2 2 2 2 2 2 2 2 2 2 2 2 2 2 2 2 2 2 2 2 2 2 2 2 2 2
left_child=1 11 15 17 8 10 -7 -4 9 30 16 -1 13 -11 -15 -3 24 18 -2 -20 -17 23 -23 -16 -6 -26 -13 28 -28 -30 -5 -32 -33 -34 35 -10 -19 -38 -39
right_child=3 2 7 4 5 6 -8 -9 34 12 -12 26 -14 14 21 20 -18 36 19 -21 -22 22 -24 -25 25 -27 27 -29 29 -31 31 32 33 -35 -36 -37 37 38 -40
leaf_value=0.16813514797637863 -0.0028854181674047514 0.010140136649133638 0.33762854200762676 0.0042152584762293463 -0.029368562310934068 0.83763206278905278 0.017003257114153642 0.16179492612092095 -0.010725092482235698 -0.019284275537583887 -0.005335466505703098 0.0094472237799055111 -0.02516648877412081 0.22302634827792645 0.0074762772406554885 0.060472083018793088 0.19475495048931668 -0.01566501237669457 -0.023993992584723015 0.21374978269724287 0.18564332709425974 0.23094448630626385 0.031592256455652175 0.12119908350018355 0.13179008585937096 0.030144324667083153 0.029705428990334889 0.0030232880026438182 0.14500052151771692 0.039928058848000957 0.17895632050931454 -0.0099672997062620911 0.001011562030762434 0.09722556264605374 -0.008501542576963405 0.06008871406316757 -0.012725185253388189 -0.0062797199126774089 0.020503053250290004
leaf_count=24 3671 160 37 1470 25 20 26 131 90 41 167 746 40 36 72 143 21 5517 27 34 21 26 31 26 66 78 339 266 65 69 21 115 40 52 2898 85 3027 853 549
internal_value=0 0.819521 1.94536 -0.0857489 0.150654 1.52401 7.47597 4.0104 0.0409054 0.312787 0.757088 0.452449 1.24302 1.54411 1.95836 0.874595 1.51632 -0.179874 -0.02129 2.17038 1.53 1.37721 2.4505 0.752953 1.22073 1.53464 0.405415 0.623935 0.940812 1.81792 0.163775 0.676143 0.381638 1.10787 -0.133389 0.473404 -0.23938 -0.1473 0.0841594
internal_count=21125 2001 492 19124 5446 403 46 168 5043 1970 357 1509 272 232 191 324 190 13678 3732 61 164 155 57 98 169 144 1485 739 473 134 1698 228 207 92 3073 175 9946 4429 1402
shrinkage=0.05


Tree=7
num_leaves=40
num_cat=0
split_feature=0 1 0 1 2 6 7 2 2 7 7 7 7 3 2 2 7 2 0 7 7 2 7 2 4 0 0 1 0 0 1 2 2 7 7 7 1 0 7
split_gain=1339.78 746.314 981.828 384.048 740.808 1754.88 2529.4 322.014 215.674 248.017 191.18 180.846 177.13 141.656 140.052 116.489 268.834 307.071 105.545 90.785 230.164 81.8877 123.003 120.285 107.389 79.8547 67.9312 78.8129 102.045 105.34 64.8673 96.3501 101.278 64.4918 116.904 63.7899 84.8548 66.0438 78.0532
threshold=5.5000000000000009 4.5000000000000009 1.5000000000000002 4.5000000000000009 11.500000000000002 0.17500000447034839 42.694999694824226 2.5000000000000004 4.5000000000000009 58.364999771118171 17.969999313354496 29.545000076293949 19.005000114440922 1.0000000180025095e-35 11.500000000000002 3.5000000000000004 61.545000076293952 2.5000000000000004 11.500000000000002 63.364999771118171 66.134998321533217 2.5000000000000004 38.524999618530281 3.5000000000000004 1.0000000180025095e-35 11.500000000000002 20.500000000000004 5.5000000000000009 16.500000000000004 12.500000000000002 5.5000000000000009 6.5000000000000009 2.5000000000000004 63.065000534057624 56.815000534057624 26.960000038146976 5.5000000000000009 19.500000000000004 22.045000076293949
decision_type=2 2 2 2 2 2 2 2 2 2 2 2 2 2 2 2 2 2 2 2 2 2 2 2 2 2 2 2 2 2 2 2 2 2 2 2 2 2 2
left_child=1 10 14 15 8 11 -7 -4 9 21 -1 12 -6 19 30 16 -2 -18 -14 25 -21 35 -23 24 26 -11 27 28 29 -24 -3 32 -32 34 -9 36 -5 38 -38
right_child=3 2 7 4 5 6 -8 33 -10 13 -12 -13 18 -15 -16 -17 17 -19 -20 20 -22 22 23 -25 -26 -27 -28 -29 -30 -31 31 -33 -34 -35 -36 -37 37 -39 -40
leaf_value=0.11569639117671893 -0.0027411467228631524 0.008856102319534969 0.32074711789955968 -0.0048028051091806735 -0.0088690576521125997 0.071822615446788932 0.76593327430032554 0.14373166924013811 -0.0063359681990881366 -0.027877299264073375 0.018129168887953125 0.004896289459328889 0.060534314935406057 -0.021175103913992646 0.1604648572433254 -0.011370526918144731 -0.022794291597825509 0.20306228942730847 0.17657663784054822 0.2252649032856737 0.034786514167127934 -0.00047659235187559308 0.051570058855656034 0.017475877610070689 0.17847857095301153 0.090336810469627382 0.13988475416387833 -0.0028065414633601906 -0.012757202088832856 0.18145947522587247 0.01465197801589966 0.0072149925895275612 0.12595135976870855 0.079629954819877946 0.27304851426319643 -0.0083036986292256403 0.0053309152984330737 0.13648139029741288 0.10854147974258432
leaf_count=52 3671 148 37 137 37 35 21 85 3073 20 1457 231 36 32 23 9946 27 34 43 35 29 381 37 289 20 50 21 56 25 27 31 62 60 24 22 703 62 20 26
internal_value=0 0.778545 1.84809 -0.0814615 0.143121 1.44781 6.64228 3.80988 0.0388601 0.297147 0.429827 0.609505 1.62825 1.46684 0.830865 -0.170881 -0.0202255 2.06186 2.47393 1.91826 2.77909 0.189515 0.413727 0.753224 1.38049 1.13123 1.11674 0.873297 1.45811 2.12734 0.649125 1.1057 1.76072 3.0741 3.4064 -0.012938 0.426468 1.0893 0.716499
internal_count=21125 2001 492 19124 5446 403 56 168 5043 1970 1509 347 116 166 324 13678 3732 61 79 134 64 1804 856 475 186 70 166 145 89 64 301 153 91 131 107 948 245 108 88
shrinkage=0.05


Tree=8
num_leaves=40
num_cat=0
split_feature=0 1 0 1 2 6 7 2 2 7 7 7 7 2 3 2 2 2 7 2 7 0 0 7 3 0 3 0 1 7 0 2 7 0 7 1 2 7 0
split_gain=1209.15 673.549 886.1 346.604 668.579 1583.78 2282.78 290.618 194.646 226.532 173.929 164.777 136.09 126.396 119.196 159.822 246.716 105.131 242.623 277.131 83.0673 198.409 88.3402 77.6707 65.5479 62.2806 76.7491 73.98 69.8918 100.026 508.649 1486.39 62.1837 64.8274 120.228 356.279 484.883 168.819 72.4218
threshold=5.5000000000000009 4.5000000000000009 1.5000000000000002 4.5000000000000009 11.500000000000002 0.17500000447034839 42.694999694824226 2.5000000000000004 4.5000000000000009 54.024999618530281 13.034999847412111 30.464999198913578 19.005000114440922 11.500000000000002 1.0000000180025095e-35 2.5000000000000004 3.5000000000000004 3.5000000000000004 61.545000076293952 2.5000000000000004 62.854999542236335 16.500000000000004 18.500000000000004 24.535000801086429 1.0000000180025095e-35 12.500000000000002 1.0000000180025095e-35 10.500000000000002 2.5000000000000004 72.024997711181655 19.500000000000004 7.5000000000000009 10.715000152587892 14.500000000000002 45.965000152587898 3.5000000000000004 2.5000000000000004 46.725000381469734 9.5000000000000018
decision_type=2 2 2 2 2 2 2 2 2 2 2 2 2 2 2 2 2 2 2 2 2 2 2 2 2 2 2 2 2 2 2 2 2 2 2 2 2 2 2
left_child=1 10 13 17 8 11 -7 -4 9 -5 -1 12 -6 -3 15 -11 -17 18 32 -20 22 -22 -18 -14 -12 27 28 -19 -27 -30 -31 -32 -2 38 -35 37 -37 -36 -34
right_child=3 2 7 4 5 6 -8 -9 -10 14 24 -13 23 -15 -16 16 20 25 19 -21 21 -23 -24 -25 -26 26 -28 -29 29 30 31 -33 33 34 35 36 -38 -39 -40
leaf_value=0.15394357169667883 0.04586581988976552 0.030833419540470027 0.30470976130785171 0.0073284456936381463 -0.0084256043103901109 0.068231495374015391 0.72763662907694071 0.14601992130962035 -0.006019169718919342 -0.019350096765087872 0.02086326411317467 0.0019541695783304616 0.17281215255116594 0.15244161421838015 -0.023235918693244456 0.20736282614784107 0.0056194402950091498 -0.011502502849784995 -0.021654578933009396 0.19290917322916146 0.21191757390132318 0.024625072622251127 0.11314439406761756 0.074639713903183511 -0.024110008537942589 -0.010058144767320486 -0.021281518561313047 -0.027024013730965059 -0.0057868919489865609 0.00013810660047553974 -0.0083674991736188541 0.42314007888580191 0.00083834160165286364 -0.002395386981816855 0.1301734381467104 0.32982095127755945 0.01614359771254905 -0.0072044136213525291 -0.019362773425178365
leaf_count=24 65 301 37 1698 37 35 21 131 3073 41 1399 215 29 23 40 36 72 2777 27 34 26 31 26 66 86 3146 885 1061 1410 574 64 29 810 1528 25 22 28 212 981
internal_value=0 0.739618 1.75569 -0.0773884 0.135965 1.37542 6.31017 3.61939 0.0369171 0.28229 0.408335 0.57903 1.45849 0.789322 1.12955 1.40442 1.78897 -0.162337 -0.0192142 1.95877 1.24124 2.20113 0.682929 2.09216 0.365175 -0.21604 -0.153313 -0.315867 -0.107171 0.0351979 0.354267 2.52377 -0.0520818 -0.0695557 0.0636356 0.657497 3.08323 0.145738 -0.204532
internal_count=21125 2001 492 19124 5446 403 56 168 5043 1970 1509 347 132 324 272 232 191 13678 3732 61 155 57 98 95 1485 9946 6108 3838 5223 2077 667 93 3671 3606 1815 287 50 237 1791
shrinkage=0.05


Tree=9
num_leaves=40
num_cat=0
split_feature=0 1 0 1 2 6 2 2 7 7 7 7 7 1 7 6 2 7 2 2 7 2 4 7 7 3 0 1 2 7 7 2 0 7 0 0 7 7 1
split_gain=1091.26 607.878 799.705 312.81 603.393 1431.35 262.282 175.668 205.902 183.539 185.249 173.127 160.818 120.481 117.725 103.745 94.8809 218.967 250.111 84.8298 119.453 123.957 90.6479 76.2325 115.158 62.835 61.6637 79.1346 61.3612 60.8712 60.8529 59.8335 59.6712 59.5859 58.4519 58.3803 58.2039 105.506 56.6371
threshold=5.5000000000000009 4.5000000000000009 1.5000000000000002 4.5000000000000009 11.500000000000002 0.46500000357627874 2.5000000000000004 4.5000000000000009 61.545000076293952 66.134998321533217 64.674999237060561 33.174999237060554 17.969999313354496 5.5000000000000009 31.884999275207523 0.095000002533197417 3.5000000000000004 61.545000076293952 2.5000000000000004 2.5000000000000004 38.524999618530281 3.5000000000000004 1.0000000180025095e-35 14.795000076293947 27.384999275207523 1.0000000180025095e-35 6.5000000000000009 5.5000000000000009 6.5000000000000009 13.034999847412111 53.48500061035157 4.5000000000000009 18.500000000000004 41.534999847412116 10.500000000000002 16.500000000000004 63.065000534057624 56.815000534057624 3.5000000000000004
decision_type=2 2 2 2 2 2 2 2 2 2 2 2 2 2 2 2 2 2 2 2 2 2 2 2 2 2 2 2 2 2 2 2 2 2 2 2 2 2 2
left_child=1 12 13 16 7 11 -4 8 19 10 -10 14 -1 -3 23 28 17 38 -19 29 -21 22 30 -6 34 -23 27 -9 33 35 -22 -18 -26 -15 -25 -5 37 -8 -2
right_child=3 2 6 4 5 -7 36 26 9 -11 -12 -13 -14 15 -16 -17 31 18 -20 20 21 25 -24 24 32 -27 -28 -29 -30 -31 -32 -33 -34 -35 -36 -37 -38 -39 -40
leaf_value=0.10579732490273625 -0.0055971131082179198 0.006624088762328029 0.28947427047265545 0.0099021429145658355 -0.027035400956869127 0.35737439060681747 0.12924409261521172 -0.0095710814164744491 0.077091324189262067 0.0086781090381098727 0.26197749868035319 -0.00036735481090759966 0.016312275110812974 0.04071007575406585 0.17191261785725753 0.17138282770202273 -0.020652923004174803 -0.020571848860493416 0.18326371347202974 -0.00081918469955289145 0.043957688897645397 0.025389836634147084 0.16868813544511796 0.068507215177470993 0.064837969265645376 -0.042236524915848027 -0.0074587088418909811 0.057702034974799435 0.014932498287770055 -0.0041744272178972355 0.1283389830738306 -0.0088145369490158394 -0.026765864400658756 0.12664273267513829 0.16261534997911165 0.1127551254901019 0.068347461024920148 0.25209509161385624 0.0098757187252067405
leaf_count=52 2930 160 37 37 25 38 85 90 42 51 20 178 1457 43 24 21 1216 27 34 381 147 288 20 33 40 39 2898 85 62 898 25 8730 32 38 33 22 24 22 741
internal_value=0 0.702637 1.6679 -0.073519 0.129167 1.30665 3.43842 0.0350713 0.268175 1.57876 2.73464 0.698558 0.387918 0.749856 1.37049 1.35217 -0.15422 -0.0182535 1.86083 0.188426 0.408821 0.720966 1.35875 1.06603 1.35711 0.346486 -0.114364 0.462089 1.04738 -0.0188431 1.12445 -0.205238 0.482503 1.62048 2.31123 0.965082 2.77438 3.09006 -0.0494777
internal_count=21125 2001 492 19124 5446 403 168 5043 1970 113 62 365 1509 324 187 164 13678 3732 61 1857 900 519 192 163 138 327 3073 175 143 957 172 9946 72 81 66 59 131 107 3671
shrinkage=0.05


Tree=10
num_leaves=40
num_cat=0
split_feature=0 1 0 1 2 7 0 2 7 2 7 7 2 7 3 0 0 2 7 7 1 0 1 7 7 2 1 2 1 7 7 0 7 6 7 2 7 7 0
split_gain=984.86 548.609 721.734 282.311 544.562 1406.18 2705.1 236.71 192.732 158.54 187.247 146.461 115.49 114.658 111.199 89.6704 120.421 104.345 249.199 386.856 263.117 94.085 83.0519 145.503 318.694 793.441 1945.15 74.7661 72.1656 136.263 111.299 67.5979 173.227 66.4197 201.118 66.7158 65.9695 109.858 61.0446
threshold=5.5000000000000009 4.5000000000000009 1.5000000000000002 4.5000000000000009 11.500000000000002 44.68499946594239 11.500000000000002 2.5000000000000004 33.174999237060554 4.5000000000000009 58.364999771118171 13.034999847412111 11.500000000000002 32.135000228881843 1.0000000180025095e-35 14.500000000000002 18.500000000000004 2.5000000000000004 46.495000839233406 52.645000457763679 2.5000000000000004 9.5000000000000018 2.5000000000000004 71.795001983642592 75.444999694824233 7.5000000000000009 3.5000000000000004 2.5000000000000004 5.5000000000000009 62.854999542236335 65.884998321533217 19.500000000000004 54.024999618530281 0.24499999731779101 32.135000228881843 2.5000000000000004 14.795000076293947 27.384999275207523 1.0000000180025095e-35
decision_type=2 2 2 2 2 2 2 2 2 2 2 2 2 2 2 2 2 2 2 2 2 2 2 2 2 2 2 2 2 2 2 2 2 2 2 2 2 2 2
left_child=1 11 12 15 9 8 -7 -4 13 10 31 -1 -3 36 28 21 17 18 -17 20 -20 -2 -18 27 25 -25 -27 -24 29 -12 -31 33 -33 -5 -35 -36 -6 -38 -13
right_child=3 2 7 4 5 6 -8 -9 -10 -11 14 38 -14 -15 -16 16 22 -19 19 -21 -22 -23 23 24 -26 26 -28 -29 -30 30 -32 32 -34 34 35 -37 37 -39 -40
leaf_value=0.14095652817438048 -0.0049021472011397532 0.027366330491942033 0.2750005499736683 -0.0018059018286269682 -0.025683630079030989 0.75943145081400876 -0.014030532137705729 0.13178297714650175 -0.010646410415807885 -0.0054323012748138553 0.042514366555858302 0.0063560225034567062 0.1436094361802806 0.17316856554576332 -0.020186949567869306 0.0079449126637957685 -0.015282731146357219 -0.00022258795664195478 0.099915142059326167 -0.0031201198399066926 0.33404318332672123 -0.016703227022178083 0.015864008232514503 -0.014396333757501382 -0.013075802966275 0.6276822606101633 -0.028196266196811426 -0.013706802614222325 0.038191986997734829 0.24529717303812504 0.085591297596693039 0.018143749614829754 0.16233951293609361 0.17954958824440836 -0.013470811846683611 0.0463873525161341 0.10978321740685991 0.022133844173871556 0.026631224772442987
leaf_count=24 3075 301 37 1182 25 20 26 131 167 3073 37 746 23 21 32 449 2275 2509 30 50 20 3747 273 65 154 20 26 985 53 24 20 391 22 20 106 83 66 78 739
internal_value=0 0.667505 1.58451 -0.069843 0.122708 1.24131 6.44515 3.2665 0.570792 0.0333177 0.254767 0.368523 0.712363 1.25964 1.27111 -0.146509 -0.0657419 0.0819562 0.476852 1.90446 3.87133 -0.227678 -0.184663 -0.00392934 0.669518 1.96122 5.13937 -0.145792 1.67107 2.26469 3.45407 0.161245 0.516498 0.0557679 0.575429 0.256322 0.985804 1.24613 0.328917
internal_count=21125 2001 492 19124 5446 403 46 168 357 5043 1970 1509 324 190 166 13678 6856 3058 549 100 50 6822 3798 1523 265 111 46 1258 134 81 44 1804 413 1391 209 189 169 144 1485
shrinkage=0.05


Tree=11
num_leaves=40
num_cat=0
split_feature=0 7 1 0 1 2 6 7 7 2 2 7 7 1 7 7 3 5 0 0 0 2 7 0 7 7 0 1 7 7 2 3 2 2 7 7 1 7 2
split_gain=888.836 525.871 409.258 490.677 254.786 491.467 1286.83 1963.4 227.635 390.403 143.083 168.991 138.73 125.267 110.859 109.325 100.358 85.1977 81.7762 101.265 83.5517 74.8051 81.9316 72.6967 148.389 130.173 94.4537 71.7093 136.169 298.693 762.263 1324.82 69.07 68.0468 247.86 349.137 237.463 63.0667 61.4559
threshold=5.5000000000000009 6.1949999332427987 4.5000000000000009 1.5000000000000002 4.5000000000000009 11.500000000000002 0.17500000447034839 42.694999694824226 31.595000267028812 3.5000000000000004 4.5000000000000009 58.364999771118171 30.464999198913578 5.5000000000000009 19.005000114440922 34.93499946594239 1.0000000180025095e-35 1.0000000180025095e-35 14.500000000000002 18.500000000000004 9.5000000000000018 6.5000000000000009 54.305000305175788 18.500000000000004 63.895000457763679 65.645000457763686 11.500000000000002 2.5000000000000004 72.024997711181655 75.444999694824233 7.5000000000000009 1.0000000180025095e-35 2.5000000000000004 2.5000000000000004 46.495000839233406 52.645000457763679 2.5000000000000004 24.535000801086429 2.5000000000000004
decision_type=2 2 2 2 2 2 2 2 2 2 2 2 2 2 2 2 2 2 2 2 2 2 2 2 2 2 2 2 2 2 2 2 2 2 2 2 2 2 2
left_child=1 -1 -3 13 17 10 12 -8 -5 -10 11 38 14 -4 -7 -15 23 18 20 33 -2 22 -17 24 26 -26 -13 -21 32 30 -30 -32 -29 34 -20 36 -36 -16 -6
right_child=4 2 3 8 5 6 7 -9 9 -11 -12 16 -14 15 37 21 -18 -19 19 27 -22 -23 -24 -25 25 -27 -28 28 29 -31 31 -33 -34 -35 35 -37 -38 -39 -40
leaf_value=0.28680811308324339 -0.0053127240374865881 0.016191094254833314 0.0012548088343648971 0.029849516439276774 -0.0011101711409771619 -0.010004686544070373 0.052042142610464782 0.66358157041526988 0.33954566926867874 0.12550865364546823 -0.0051606857821253202 -0.037468333471389045 -0.001702249264994333 0.14206820960555758 0.15347221581072645 0.030540576062219982 -0.019177601998671891 0.02100793786821294 0.0026042374267405319 -0.014783877148061897 -0.016544233320730583 0.0053720727337129189 0.14720521354013019 0.0043172546304189241 0.26279532343149187 0.088379703915637486 0.091415985809131114 0.014743178439162234 -0.015195394171372292 -0.012422013098930384 0.51818350601293472 -0.03110686597369966 -0.013741796476012267 -0.00017122956281460228 0.094919380421439811 -0.0029641147851943972 0.31734101794660097 0.065009351394308565 0.017370981885289998
leaf_count=20 3037 1496 158 37 948 37 35 21 27 101 3073 21 215 35 29 34 32 267 407 2237 3641 66 27 26 20 23 44 272 63 154 23 21 978 2478 30 50 20 66 856
internal_value=0 0.63413 0.58262 1.38089 -0.0663509 0.116573 1.17925 5.62739 2.78164 3.41314 0.0316518 0.242028 0.461392 0.658633 1.26835 1.27653 1.20755 -0.139183 -0.150319 -0.0725512 -0.228728 0.845272 1.64358 1.58752 1.94891 3.39006 0.995529 -0.181997 -0.013695 0.64327 1.92667 5.12044 -0.150869 0.0648698 0.398664 1.80924 3.67776 1.84028 0.153183
internal_count=21125 2001 1981 485 19124 5446 403 56 165 128 5043 1970 347 320 132 162 166 13678 13411 6733 6678 127 61 134 108 43 65 3748 1511 261 107 44 1250 2985 507 100 50 95 1804
shrinkage=0.05


Tree=12
num_leaves=40
num_cat=0
split_feature=0 1 7 1 2 7 1 2 0 1 7 2 7 2 2 2 7 7 2 2 7 5 0 0 1 2 7 0 7 7 7 0 3 0 6 3 7 2 7
split_gain=802.174 479.816 344.486 229.944 443.549 1175.77 2468.71 200.745 191.897 270.024 168.445 129.132 154.07 110.496 108.577 146.671 106.91 103.188 90.6192 267.281 78.5256 76.8909 75.126 97.7523 83.235 87.7836 319.08 389.4 87.3963 114.819 548.193 121.008 241.883 80.3058 66.9862 64.9906 60.2784 57.888 56.2578
threshold=5.5000000000000009 5.5000000000000009 34.725000381469734 4.5000000000000009 11.500000000000002 44.68499946594239 5.5000000000000009 4.5000000000000009 1.5000000000000002 4.5000000000000009 33.174999237060554 4.5000000000000009 54.024999618530281 7.5000000000000009 5.5000000000000009 6.5000000000000009 32.135000228881843 31.595000267028812 2.5000000000000004 3.5000000000000004 17.969999313354496 1.0000000180025095e-35 13.500000000000002 9.5000000000000018 2.5000000000000004 2.5000000000000004 51.264999389648445 16.500000000000004 72.024997711181655 75.444999694824233 74.844997406005874 20.500000000000004 1.0000000180025095e-35 19.500000000000004 0.61500000953674328 1.0000000180025095e-35 29.224999427795414 1.5000000000000002 63.065000534057624
decision_type=2 2 2 2 2 2 2 2 2 2 2 2 2 2 2 2 2 2 2 2 2 2 2 2 2 2 2 2 2 2 2 2 2 2 2 2 2 2 2
left_child=1 8 -3 21 11 10 -7 -4 -1 13 16 12 -5 14 20 -16 -6 -11 -14 -20 -10 22 23 37 33 26 36 -28 -27 30 31 -30 -33 -24 -22 -21 -26 -2 -19
right_child=3 2 7 4 5 6 -8 -9 9 17 -12 -13 18 -15 15 -17 -18 38 19 35 34 -23 24 -25 25 28 27 -29 29 -31 -32 32 -34 -35 -36 -37 -38 -39 -40
leaf_value=0.0064563534827902919 0.016321088567064615 0.23404548597145114 0.16873486368237317 0.0058999163692930769 0.044335841167078921 -0.041774762749671936 0.69359219145207174 0.031652593406033706 0.10792169644048921 0.024180928710848093 -0.011276277714592969 -0.0049026514936009414 -0.022070145915921144 0.00064977682404108908 0.13284414667349595 0.027803649840986031 0.1639554503063361 0.13756481366827317 0.18376533767829339 0.050146048126682163 0.011804774055366256 0.019957541086979575 -0.002658913139741276 -0.017860693878805442 0.031617975709659442 -0.0072322694077074749 0.31322867706418039 0.011564753593310067 -0.016228515771420104 0.0013255351358102093 0.25530616787296756 0.18393753850116179 -0.029731573937115847 -0.016369058824268971 0.090275565932194393 -0.021339227687567474 -0.0050764285147296157 -0.0072771480572494593 0.052065506515403592
leaf_count=920 287 42 37 1698 169 25 21 96 27 36 167 3073 41 268 65 68 21 97 36 155 291 267 2675 2919 186 1766 20 23 115 531 27 26 27 1778 30 40 281 2750 24
internal_value=0 0.602423 2.1842 -0.0630333 0.110744 1.12029 5.87872 1.39577 0.450829 0.777503 0.507153 0.0300692 0.229927 0.527557 0.814256 1.58278 1.15114 1.96992 0.928658 1.17183 0.520537 -0.132224 -0.142803 -0.226539 -0.0759047 0.0527869 0.430785 3.03747 -0.0245724 0.267506 0.923755 0.251589 1.50174 -0.162662 0.38277 0.709648 0.190769 -0.100942 2.41213
internal_count=21125 2001 175 19124 5446 403 46 133 1826 906 357 5043 1970 749 481 133 190 157 272 231 348 13678 13411 5956 7455 3002 510 43 2492 726 195 168 53 4453 321 195 467 3037 121
shrinkage=0.05


Tree=13
num_leaves=40
num_cat=0
split_feature=0 7 1 0 1 2 6 0 7 2 7 2 7 7 7 2 7 2 7 2 2 7 2 6 7 0 7 3 2 7 2 2 0 0 1 7 6 7 3
split_gain=723.962 466.389 329.439 421.173 207.524 400.303 1086.72 1764.31 193.042 346.621 121.765 116.542 143.121 138.683 149.311 107.036 100.05 71.1499 197.544 231.155 62.9584 103.003 95.3517 169.401 61.1976 58.774 143.225 57.6702 59.3323 57.3338 58.7615 86.5316 178.91 55.6515 71.419 55.5014 56.6087 55.1336 53.4433
threshold=5.5000000000000009 6.1949999332427987 4.5000000000000009 1.5000000000000002 4.5000000000000009 11.500000000000002 0.17500000447034839 12.500000000000002 31.595000267028812 3.5000000000000004 30.464999198913578 4.5000000000000009 61.545000076293952 66.134998321533217 64.674999237060561 11.500000000000002 19.005000114440922 3.5000000000000004 61.545000076293952 2.5000000000000004 2.5000000000000004 37.995000839233406 3.5000000000000004 0.17500000447034839 39.524999618530281 11.500000000000002 27.384999275207523 1.0000000180025095e-35 8.5000000000000018 22.744999885559086 5.5000000000000009 6.5000000000000009 3.5000000000000004 6.5000000000000009 5.5000000000000009 10.715000152587892 0.85500001907348644 13.034999847412111 1.0000000180025095e-35
decision_type=2 2 2 2 2 2 2 2 2 2 2 2 2 2 2 2 2 2 2 2 2 2 2 2 2 2 2 2 2 2 2 2 2 2 2 2 2 2 2
left_child=1 -1 27 15 17 11 10 -8 -5 -10 16 12 20 14 -14 -4 -7 18 35 -20 37 -22 23 24 -23 -18 -27 28 29 -3 -31 32 -32 34 -13 -2 -37 -6 -24
right_child=4 2 3 8 5 6 7 -9 9 -11 -12 33 13 -15 -16 -17 25 -19 19 -21 21 22 38 -25 -26 26 -28 -29 -30 30 31 -33 -34 -35 -36 36 -38 -39 -40
leaf_value=0.26885640442371372 0.043915175839972037 0.063128667836447799 0.02068529803877784 0.026297193423316285 0.04548932685185287 -0.0117212437495992 0.58166289528210957 0.014548347343225033 0.31510192906415024 0.11342324631860351 -0.0029784109564714653 -0.0083177464869287274 0.062248661120732629 0.0044809847485785389 0.22823484014719725 0.13497064608064566 0.0380700891216596 -0.0084896364214736651 -0.020376851492457923 0.17558201980941437 -0.0038678818499066044 -0.01725791648030281 0.021350694209539972 0.19543631717562676 0.05585666729291533 0.21034903700153032 0.048766879178583626 -0.025170297465871933 0.00026900472385542735 0.0099366471338087434 0.0010970646405921262 0.018778688059169421 0.12620193458520451 -0.0063109911168399068 0.055591716240434089 -0.0040561765835975963 0.026276937149673329 -0.0044071469862503572 -0.040941357497985553
leaf_count=20 65 83 298 37 59 37 24 32 27 101 215 90 42 51 20 22 39 9946 27 34 355 35 294 20 157 24 32 86 385 581 51 245 65 2898 85 3445 161 898 39
internal_value=0 0.572302 0.523793 1.24 -0.0598817 0.105207 1.06427 5.15195 2.53776 3.1193 0.404588 0.0285658 0.218431 1.31109 2.31585 0.570848 1.1606 -0.125613 -0.0078716 1.77692 0.151941 0.341811 0.614847 1.13908 0.85057 1.70393 2.36033 0.2916 0.340089 0.465809 0.395606 0.712457 1.42398 -0.0931504 0.45448 -0.037529 -0.0540374 -0.0266196 0.281105
internal_count=21125 2001 1981 485 19124 5446 403 56 165 128 347 5043 1970 113 62 320 132 13678 3732 61 1857 900 545 212 192 95 56 1496 1410 1025 942 361 116 3073 175 3671 3606 957 333
shrinkage=0.05


Tree=14
num_leaves=40
num_cat=0
split_feature=0 1 7 1 2 3 0 1 2 7 7 6 6 0 2 2 7 2 0 2 2 0 7 6 1 7 7 7 2 1 7 7 2 1 5 7 6 0 2
split_gain=653.376 424.872 303.333 189.434 177.559 173.49 156.841 209.992 143.202 670.373 426.924 130.733 280.231 112.313 96.0351 92.4661 92.159 91.0981 91.5106 88.5773 118.504 71.8821 63.1435 60.8411 56.0287 90.295 55.1826 55.1553 51.1016 412.268 1247.42 46.328 77.0506 45.5128 89.7078 45.9713 45.3152 72.1345 84.6093
threshold=5.5000000000000009 5.5000000000000009 34.725000381469734 2.5000000000000004 4.5000000000000009 1.0000000180025095e-35 1.5000000000000002 4.5000000000000009 11.500000000000002 50.245000839233406 54.565000534057624 0.90500000119209301 0.17500000447034839 13.500000000000002 2.5000000000000004 7.5000000000000009 30.464999198913578 8.5000000000000018 12.500000000000002 5.5000000000000009 6.5000000000000009 10.500000000000002 17.969999313354496 0.61500000953674328 4.5000000000000009 19.005000114440922 10.715000152587892 24.535000801086429 7.5000000000000009 3.5000000000000004 75.634998321533217 23.464999198913578 1.5000000000000002 3.5000000000000004 1.0000000180025095e-35 26.960000038146976 0.89499998092651378 15.500000000000002 3.5000000000000004
decision_type=2 2 2 2 2 2 2 2 2 2 2 2 2 2 2 2 2 2 2 2 2 2 2 2 2 2 2 2 2 2 2 2 2 2 2 2 2 2 2
left_child=1 6 -3 -2 -4 8 31 15 17 11 -11 12 16 -14 -9 19 24 18 21 22 -21 -5 -8 -24 -10 -26 -20 -27 33 30 -30 32 -1 34 35 -28 -35 -38 -39
right_child=3 2 4 5 -6 -7 7 14 9 10 -12 -13 13 -15 -16 -17 -18 -19 26 20 -22 -23 23 -25 25 27 28 -29 29 -31 -32 -33 -34 36 -36 -37 37 38 -40
leaf_value=0.11738045724729698 -0.0085936283737529841 0.21874921566673688 0.15767241470717097 0.0024086684538403248 0.028749303827256274 -0.019695021093331197 0.09708331735045822 0.0034590856172144416 0.0092323222989911472 0.3865980061516166 0.059900849796831614 -0.090938715199972028 0.22580988701432944 0.068207649585719288 0.10561442183142947 0.00026188920905340969 -0.0058925918852080518 -0.0075717013405729311 0.079105731099843979 0.1198918380187108 0.025474534139913674 -0.014841734139817184 0.010480076852942661 0.085264953722556436 -0.011135180818068016 0.13841094765169867 0.030177709020404932 0.055682584310345576 0.3447452251774234 -0.0077911079344226489 -0.00012530098358790081 0.0024678529298874088 0.0035154585177317645 0.0087121698939115876 0.081124224790161667 -0.0088121136147990154 -0.015959970906185797 0.12129494475788977 0.019443349421701648
leaf_count=24 8191 42 37 2224 96 890 27 28 134 20 20 29 20 26 129 268 404 2095 28 65 68 829 291 30 37 29 83 66 37 288 90 857 39 2584 31 848 39 38 44
internal_value=0 0.543687 2.03215 -0.0568876 1.2923 0.0292591 0.401036 0.696367 0.0667591 0.476837 4.46499 0.262708 0.347014 2.73461 1.74791 0.47595 0.183089 0.031988 0.0856344 0.738218 1.43237 -0.0455088 0.472925 0.349386 0.640158 1.10257 0.18305 1.61873 0.173454 0.506046 2.00698 0.1102 0.937852 0.135814 -0.0509994 -0.106722 0.202252 0.800376 1.33286
internal_count=21125 2001 175 19124 133 10933 1826 906 10043 785 40 745 716 46 157 749 670 9258 7163 481 133 3053 348 321 266 132 4110 95 4082 415 127 920 63 3667 962 931 2705 121 82
shrinkage=0.05


Tree=15
num_leaves=40
num_cat=0
split_feature=0 7 1 0 1 2 7 0 1 6 7 2 2 7 7 2 7 1 7 0 7 0 0 2 7 7 1 0 2 7 2 0 0 1 7 7 2 3 6
split_gain=589.672 409.152 265.122 362.623 176.096 336.296 991.261 265.674 511.671 263.666 170.14 316.882 98.4692 131.777 174.78 94.0873 92.1937 148.208 236.64 197.326 84.8548 66.0903 93.7736 78.7737 194.337 323.358 209.259 69.9535 62.2404 97.0849 119.351 77.3515 57.3797 54.9192 112.003 247.474 669.489 1141.36 54.2838
threshold=5.5000000000000009 6.1949999332427987 4.5000000000000009 1.5000000000000002 4.5000000000000009 11.500000000000002 49.995000839233406 7.5000000000000009 5.5000000000000009 0.20499999821186068 31.595000267028812 3.5000000000000004 4.5000000000000009 62.854999542236335 66.134998321533217 11.500000000000002 33.174999237060554 5.5000000000000009 21.335000038146976 17.500000000000004 64.674999237060561 14.500000000000002 18.500000000000004 2.5000000000000004 46.495000839233406 52.645000457763679 2.5000000000000004 8.5000000000000018 2.5000000000000004 38.524999618530281 3.5000000000000004 19.500000000000004 6.5000000000000009 2.5000000000000004 72.024997711181655 75.444999694824233 7.5000000000000009 1.0000000180025095e-35 0.89499998092651378
decision_type=2 2 2 2 2 2 2 2 2 2 2 2 2 2 2 2 2 2 2 2 2 2 2 2 2 2 2 2 2 2 2 2 2 2 2 2 2 2 2
left_child=1 -1 -3 15 21 12 7 8 -7 16 -5 -12 13 28 20 -4 17 18 -9 -20 -15 27 23 24 -23 26 -26 -2 -6 32 31 -31 -30 -24 38 36 -36 -38 -35
right_child=4 2 3 10 5 6 -8 9 -10 -11 11 -13 -14 14 -16 -17 -18 -19 19 -21 -22 22 33 -25 25 -27 -28 -29 29 30 -32 -33 -34 34 35 -37 37 -39 -40
leaf_value=0.25084255144000051 -0.0021377313722860374 0.013138470940483624 0.017266875288555486 0.021451723712773339 -0.001708096401310975 -0.032402581419973146 0.38330601283482146 -0.039290906637907033 0.30896185578211499 -0.103433635312973 0.29534241783398169 0.10250941553697138 -0.004204843524725865 0.077195458703984823 0.0045725844654382446 0.12441657483577728 0.0027265983174594357 0.010540071973883652 0.08836784324475698 0.28223873156876794 0.21664400079287588 0.0073706167046901638 -0.012429181740936506 0.00050023539695590329 0.090837738526364176 -0.0054656862430274488 0.29963343575596812 -0.012836650567887194 0.05822763347466077 0.048004700970469105 0.012390299303091167 0.13528554777304333 -0.0089522731071876391 -0.0086036523135744059 -0.016457774809428626 -0.010928797496893964 0.48105278611183167 -0.028788145667030696 0.040919436400571579
leaf_count=20 2310 1496 298 37 958 21 21 20 23 41 27 101 3073 24 51 22 142 79 35 21 20 449 2275 2509 30 50 20 4512 35 165 341 30 346 1204 63 154 23 21 58
internal_value=0 0.516503 0.471068 1.11357 -0.0540432 0.0980319 0.977083 0.609361 2.92076 0.308469 2.31775 2.8637 0.0277844 0.202308 1.35132 0.492668 0.636627 1.1699 2.16686 3.22139 2.81162 -0.114593 -0.045254 0.0850818 0.428194 1.6889 3.48712 -0.184278 0.144091 0.330314 0.604643 1.22865 -0.0556178 -0.150195 -0.00322629 0.593087 1.76128 4.75439 -0.126553
internal_count=21125 2001 1981 485 19124 5446 403 382 44 338 165 128 5043 1970 95 320 297 155 76 56 44 13678 6856 3058 549 100 50 6822 1875 917 536 195 381 3798 1523 261 107 44 1262
shrinkage=0.05


Tree=16
num_leaves=40
num_cat=0
split_feature=0 1 7 1 2 6 2 0 1 7 7 3 2 2 2 2 2 7 1 7 2 7 7 0 6 5 0 0 3 1 7 0 2 0 7 6 7 0 2
split_gain=532.179 376.819 267.096 158.927 303.508 995.979 157.03 133.758 160.323 120.473 103.814 96.4074 89.3669 83.1653 80.6616 106.95 71.8032 199.141 131.089 76.2669 72.9361 116.485 75.4283 106.295 99.9384 66.3087 61.1962 80.605 69.2256 76.1838 60.586 61.5726 53.4253 63.3781 53.0764 54.9091 52.3713 51.6975 51.6225
threshold=5.5000000000000009 5.5000000000000009 34.725000381469734 4.5000000000000009 11.500000000000002 0.46500000357627874 4.5000000000000009 1.5000000000000002 4.5000000000000009 33.174999237060554 31.884999275207523 1.0000000180025095e-35 2.5000000000000004 7.5000000000000009 5.5000000000000009 6.5000000000000009 4.5000000000000009 62.854999542236335 5.5000000000000009 65.884998321533217 2.5000000000000004 38.524999618530281 44.895000457763679 21.500000000000004 0.17500000447034839 1.0000000180025095e-35 13.500000000000002 9.5000000000000018 1.0000000180025095e-35 2.5000000000000004 53.204999923706062 10.500000000000002 3.5000000000000004 17.500000000000004 17.969999313354496 0.61500000953674328 47.414999008178718 6.5000000000000009 2.5000000000000004
decision_type=2 2 2 2 2 2 2 2 2 2 2 2 2 2 2 2 2 2 2 2 2 2 2 2 2 2 2 2 2 2 2 2 2 2 2 2 2 2 2
left_child=1 7 -3 25 11 9 -4 -1 13 10 -6 16 -10 14 34 -16 17 20 19 -19 -5 37 24 30 -23 26 27 -2 29 -28 31 -24 -32 -34 -9 -36 -11 -22 -31
right_child=3 2 6 4 5 -7 -8 8 12 36 -12 -13 -14 -15 15 -17 -18 18 -20 -21 21 22 23 -25 -26 -27 28 -29 -30 38 32 -33 33 -35 35 -37 -38 -39 -40
leaf_value=0.0043876207166391873 -0.0040105910022805299 0.20454426553277744 0.14742233535727942 -0.0016226911164882415 0.034779807660111621 0.29002257278679233 0.026180868886876853 0.088931069799043527 -0.0035760798603795205 0.0020537364953047326 0.14616280142217875 -0.019403937056586884 0.094968841086293387 -0.00049682391056818755 0.11324032634496689 0.023543881142840669 -0.0017068614088224642 0.20646894409631691 0.0029988970756530762 0.074265154302120204 0.05531625083514622 0.046582018843258334 0.029412589452483442 0.10655290813696 0.16470645803958178 0.019229653515689046 -0.0055484796813535242 -0.015646196713172727 -0.016222994095490627 0.019711129419578644 0.092824800362189611 -0.037193157864694897 -0.0075701969968421119 0.088098124058350269 0.0092991479995734091 0.080344784855842594 -0.078799399344817458 -0.0084848501029041769 0.0019915179784363093
leaf_count=920 3037 42 37 958 163 38 96 27 28 155 24 505 129 268 65 68 2640 24 25 20 35 171 55 31 20 267 3963 2919 864 510 30 94 70 23 291 30 23 342 2118
internal_value=0 0.490678 1.89244 -0.051341 0.0931303 0.928229 1.19819 0.356336 0.629069 0.420984 0.981499 0.0263952 1.54788 0.436475 0.685203 1.34761 0.0725189 0.220871 1.88856 2.92753 0.157957 0.367386 0.686859 0.376618 1.17902 -0.108863 -0.118688 -0.194263 -0.0583087 -0.0234196 0.176663 -0.252143 0.696112 0.321794 0.432042 0.318779 -0.167872 -0.0512334 0.108605
internal_count=21125 2001 175 19124 5446 403 133 1826 906 365 187 5043 157 749 481 133 4538 1898 69 44 1829 871 494 303 191 13678 13411 5956 7455 6591 272 149 123 93 348 321 178 377 2628
shrinkage=0.05


Tree=17
num_leaves=40
num_cat=0
split_feature=0 7 1 1 2 7 0 6 0 1 7 7 7 2 2 7 2 3 2 2 2 7 7 2 7 0 2 7 2 0 5 7 0 0 3 1 7 0 2
split_gain=480.291 362.574 217.891 143.431 273.916 927.052 2347.23 166.811 110.733 163.957 110.255 99.6258 220.518 119.684 89.7851 103.36 112.499 87.0077 79.1353 80.5788 96.5224 72.0116 101.04 64.8024 179.725 122.828 65.8248 105.128 69.8438 69.2455 59.8436 55.4692 63.8019 86.2399 57.1124 52.3172 51.4776 348.226 1042.35
threshold=5.5000000000000009 6.1949999332427987 5.5000000000000009 4.5000000000000009 11.500000000000002 44.68499946594239 11.500000000000002 0.22500000149011615 1.5000000000000002 4.5000000000000009 65.155002593994155 31.595000267028812 37.014999389648445 8.5000000000000018 10.500000000000002 32.385000228881843 8.5000000000000018 1.0000000180025095e-35 7.5000000000000009 5.5000000000000009 6.5000000000000009 33.174999237060554 31.884999275207523 4.5000000000000009 62.854999542236335 17.500000000000004 2.5000000000000004 38.524999618530281 3.5000000000000004 19.500000000000004 1.0000000180025095e-35 24.535000801086429 12.500000000000002 9.5000000000000018 1.0000000180025095e-35 2.5000000000000004 72.024997711181655 19.500000000000004 7.5000000000000009
decision_type=2 2 2 2 2 2 2 2 2 2 2 2 2 2 2 2 2 2 2 2 2 2 2 2 2 2 2 2 2 2 2 2 2 2 2 2 2 2 2
left_child=1 -1 8 30 17 7 -7 21 -3 18 11 -4 -13 -14 15 -11 -17 23 19 -10 -21 22 -6 24 26 -26 -5 -28 29 -29 31 -2 33 -33 35 -34 -37 -38 -39
right_child=3 2 10 4 5 6 -8 -9 9 14 -12 12 13 -15 -16 16 -18 -19 -20 20 -22 -23 -24 -25 25 -27 27 28 -30 -31 -32 32 34 -35 -36 36 37 38 -40
leaf_value=0.23512959301471714 0.0077938912679485148 0.0038006260193402899 0.0048850017098280105 -0.0015415565894298365 0.034745616989965138 0.66258492588996898 -0.057899675460962155 -0.085189285072394538 0.018145725803112078 -0.025846845377236607 -0.012147566626469295 0.24814841995636622 0.12061396131323557 0.0017091559189738648 0.16647346719451572 0.10853839181349556 -0.021004400295870647 -0.018433740507848195 -0.0030743743888193504 0.10757830905226561 0.022366687830756696 0.00086979628846484385 0.14677942511828052 -0.0016215185389261357 0.1431938980306898 0.0065040695446508916 -0.0024335866295596689 0.043201332487391705 0.017442992832947736 0.12578237009545168 0.018268170368191457 -0.0050912140131121886 -0.0056216688836262145 -0.018609033030073992 -0.015605360563991772 -0.00063012146452971101 0.00080405458833815327 -0.0076048866845667366 0.35374602459628007
leaf_count=20 727 913 26 958 161 20 26 36 342 28 30 24 59 33 23 83 21 505 266 65 68 137 23 2640 42 27 377 165 299 30 267 2723 4228 2082 885 2097 576 64 29
internal_value=0 0.466144 0.423373 -0.048774 0.0884738 0.881818 5.10709 0.337385 0.321109 0.570856 1.49893 1.86693 2.26348 1.55927 1.50616 1.18847 1.64761 0.0250755 0.375211 0.619763 1.28023 0.566301 0.974997 0.068893 0.209827 1.79413 0.150059 0.349017 0.652516 1.11812 -0.10342 -0.112753 -0.12815 -0.218969 -0.0727642 -0.0424785 0.0644519 0.305981 2.10149
internal_count=21125 2001 1981 19124 5446 403 46 357 1809 896 172 142 116 92 155 132 104 5043 741 475 133 321 184 4538 1898 69 1829 871 494 195 13678 13411 12684 4805 7879 6994 2766 669 93
shrinkage=0.05


Tree=18
num_leaves=40
num_cat=0
split_feature=0 7 1 1 3 6 6 0 2 7 0 1 7 7 7 2 0 2 7 2 2 2 2 2 7 0 7 1 0 7 6 3 2 7 2 7 7 7 7
split_gain=433.463 327.223 196.646 129.626 124.931 125.024 413.921 231.705 789.986 156.914 99.9363 147.971 99.5048 89.9123 199.018 108.015 84.7427 81.0311 93.2825 101.531 71.4196 72.7224 87.1115 69.1874 63.2235 62.4138 57.9169 54.8348 127.349 47.418 44.5274 43.618 43.0076 76.3383 67.5705 90.6173 79.1077 47.268 40.2531
threshold=5.5000000000000009 6.1949999332427987 5.5000000000000009 2.5000000000000004 1.0000000180025095e-35 0.46500000357627874 0.48499999940395361 8.5000000000000018 10.500000000000002 32.385000228881843 1.5000000000000002 4.5000000000000009 65.155002593994155 31.595000267028812 37.014999389648445 8.5000000000000018 12.500000000000002 10.500000000000002 32.385000228881843 8.5000000000000018 7.5000000000000009 5.5000000000000009 6.5000000000000009 11.500000000000002 49.995000839233406 10.500000000000002 29.224999427795414 5.5000000000000009 6.5000000000000009 57.034999847412116 0.61500000953674328 1.0000000180025095e-35 1.5000000000000002 13.034999847412111 11.500000000000002 19.860000610351566 25.039999961853031 28.505000114440922 10.715000152587892
decision_type=2 2 2 2 2 2 2 2 2 2 2 2 2 2 2 2 2 2 2 2 2 2 2 2 2 2 2 2 2 2 2 2 2 2 2 2 2 2 2
left_child=1 -1 10 38 5 16 -7 8 -8 -9 31 20 13 -4 -15 29 25 18 -13 -20 21 30 -23 -11 -25 27 32 -5 -29 -16 -12 -3 33 -18 37 -36 -37 -34 -2
right_child=3 2 12 4 -6 6 7 9 -10 23 11 17 -14 14 15 -17 26 -19 19 -21 -22 22 -24 24 -26 -27 -28 28 -30 -31 -32 -33 34 -35 35 36 -38 -39 -40
leaf_value=0.223373111221008 0.039568369969239708 0.0077179464609362196 0.0046407510454838088 -0.0046307456714978698 -0.016708144514162217 0.23045668028618979 0.0152239835630171 0.12976223391791183 0.3294663954973221 0.0046743174883981352 0.011644036110299521 -0.024554499361797103 -0.011540188615520796 0.2357409906340763 0.082483739864367703 0.0016236962242559953 0.11550777032971382 0.1581497943919638 0.10311147177631193 -0.019954183378389903 -0.0029206546541667524 0.10219939459688387 0.02124835515723509 -0.08788056762889028 0.020997406058013441 -0.015061014624403382 0.0034361586657507821 0.054328628632126098 0.00085920152029887373 0.17717731638811529 0.075420256604750949 -0.02546800375644085 -0.013457563351358818 0.026518590596667359 -0.009113627051313718 0.15558082684874536 0.041805174589157112 0.054583708940330766 -0.0073360288193411649
leaf_count=20 46 800 26 2148 890 23 100 24 25 612 312 28 30 24 39 33 28 23 83 21 266 65 68 40 20 1025 4758 139 560 20 30 113 213 173 54 22 50 29 8145
internal_value=0 0.442837 0.402204 -0.0463353 0.0249264 0.0567485 0.425101 0.307887 1.56145 0.08275 0.305054 0.542313 1.42398 1.77358 2.15031 1.4813 0.0229525 1.43086 1.12904 1.56523 0.356451 0.588775 1.21622 -0.00698191 -1.03176 -0.0896258 0.104781 -0.0134458 0.229838 2.29167 0.344769 0.0722119 0.406302 0.778302 0.203118 0.796968 1.5314 -0.106077 -0.141452
internal_count=21125 2001 1981 19124 10933 10043 844 821 125 696 1809 896 172 142 116 92 9199 155 132 104 741 475 133 672 60 3872 5327 2847 699 59 342 913 569 201 368 126 72 242 8191
shrinkage=0.05


Tree=19
num_leaves=40
num_cat=0
split_feature=0 7 1 1 2 6 0 7 0 1 7 7 0 7 7 2 2 7 2 3 2 2 2 2 7 1 2 7 7 6 0 5 7 0 0 0 7 7 7
split_gain=391.2 295.319 177.473 119.935 243.328 911.228 1448.75 93.5818 90.1925 133.544 89.8031 88.4025 81.2364 81.1459 179.613 97.4835 73.1305 84.1875 91.6315 70.8302 64.4562 65.632 78.6181 57.9093 163.235 109.512 56.3391 91.7741 70.7236 90.0594 84.3739 53.3775 51.237 56.5311 49.3016 76.3059 52.6501 166.376 720.555
threshold=5.5000000000000009 6.1949999332427987 5.5000000000000009 4.5000000000000009 11.500000000000002 0.17500000447034839 12.500000000000002 29.545000076293949 1.5000000000000002 4.5000000000000009 65.155002593994155 19.005000114440922 11.500000000000002 31.595000267028812 37.014999389648445 8.5000000000000018 10.500000000000002 32.385000228881843 8.5000000000000018 1.0000000180025095e-35 7.5000000000000009 5.5000000000000009 6.5000000000000009 4.5000000000000009 61.805000305175788 5.5000000000000009 2.5000000000000004 38.524999618530281 44.895000457763679 0.17500000447034839 21.500000000000004 1.0000000180025095e-35 53.204999923706062 10.500000000000002 14.500000000000002 18.500000000000004 73.680000305175795 75.444999694824233 75.104999542236342
decision_type=2 2 2 2 2 2 2 2 2 2 2 2 2 2 2 2 2 2 2 2 2 2 2 2 2 2 2 2 2 2 2 2 2 2 2 2 2 2 2
left_child=1 -1 8 31 19 7 -7 11 -3 20 13 -6 -13 -4 -15 -16 17 -11 -19 23 21 -10 -23 24 26 -26 -5 -28 29 -29 32 34 33 -30 -2 -36 -37 38 -38
right_child=3 2 10 4 5 6 -8 -9 9 16 -12 12 -14 14 15 -17 -18 18 -20 -21 -22 22 -24 -25 25 -27 27 28 30 -31 -32 -33 -34 -35 35 36 37 -39 -40
leaf_value=0.21220445547252897 -0.0081841972538005923 0.0034300659216026427 0.004408714404472938 -0.0017174903834734963 -0.015880914193552895 0.52227446138858802 0.0083725214323038706 -0.0071428567783915131 0.016376519166150984 -0.023326777334191973 -0.01096317932009697 0.022357644078632197 0.12416365129310032 0.22395394534493485 0.1088540950821618 0.001542513253110828 0.15024230428363966 0.097955899739480878 -0.018956473256860461 -0.016676646299881508 -0.0027746234453262242 0.097089424517292244 0.02018593365655226 -0.00172586007128385 0.12615554309164992 0.0072314867284148932 -0.0025713724529479363 0.042261603981125773 0.02678501435301521 0.15439582357183101 0.09430051535367967 0.01743725416697876 0.031168034680566826 -0.037035672002016233 0.0038435038671340523 -0.0093235932429088283 0.0058916450370993237 -0.008224762778207299 0.32483022528744881
leaf_count=20 6678 913 26 957 37 24 32 231 342 28 30 36 43 24 59 33 23 83 21 505 266 65 68 2640 49 32 377 171 55 20 30 267 113 94 2985 3200 113 414 21
internal_value=0 0.420695 0.382094 -0.0440185 0.0814848 0.829222 4.57232 0.225148 0.289801 0.515198 1.35278 0.957986 1.55542 1.6849 2.04279 1.40724 1.35931 1.07259 1.48697 0.021731 0.338628 0.559336 1.15541 0.0612657 0.194494 1.58346 0.132575 0.318327 0.606935 1.08007 0.297454 -0.0939886 0.115558 -0.269554 -0.102803 -0.0424194 -0.137425 0.148983 1.11749
internal_count=21125 2001 1981 19124 5446 403 56 347 1809 896 172 116 79 142 116 92 155 132 104 5043 741 475 133 4538 1898 81 1817 860 483 191 292 13678 262 149 13411 6733 3748 548 134
shrinkage=0.05


Tree=20
num_leaves=40
num_cat=0
split_feature=0 7 1 1 3 6 6 0 2 7 0 1 7 0 7 7 2 2 2 7 2 2 2 0 7 1 0 7 7 7 2 7 2 7 7 7 6 3 2
split_gain=353.058 266.525 160.17 110.804 105.314 106.696 363.487 206.939 693.745 142.233 81.3988 120.524 81.0473 74.222 73.2341 162.101 87.9789 72.0208 67.7651 61.7049 58.1717 59.2328 70.9529 57.6149 51.0961 47.8405 115.388 46.5178 53.3636 42.7948 40.4925 68.9155 56.028 75.2146 70.3392 42.6387 40.186 39.3653 39.1054
threshold=5.5000000000000009 6.1949999332427987 5.5000000000000009 2.5000000000000004 1.0000000180025095e-35 0.46500000357627874 0.48499999940395361 8.5000000000000018 10.500000000000002 32.385000228881843 1.5000000000000002 4.5000000000000009 65.155002593994155 12.500000000000002 31.595000267028812 37.014999389648445 8.5000000000000018 11.500000000000002 2.5000000000000004 49.995000839233406 7.5000000000000009 5.5000000000000009 6.5000000000000009 10.500000000000002 29.224999427795414 5.5000000000000009 6.5000000000000009 63.065000534057624 56.815000534057624 57.034999847412116 1.5000000000000002 13.034999847412111 11.500000000000002 19.860000610351566 25.039999961853031 28.505000114440922 0.61500000953674328 1.0000000180025095e-35 5.5000000000000009
decision_type=2 2 2 2 2 2 2 2 2 2 2 2 2 2 2 2 2 2 2 2 2 2 2 2 2 2 2 2 2 2 2 2 2 2 2 2 2 2 2
left_child=1 -1 10 -2 5 13 -7 8 -8 -9 37 20 14 23 -4 -16 29 -11 -13 -19 21 36 -23 25 30 38 -27 28 -20 -17 31 -15 35 -34 -35 -32 -12 -3 -5
right_child=3 2 12 4 -6 6 7 9 -10 17 11 18 -14 24 15 16 -18 19 27 -21 -22 22 -24 -25 -26 26 -28 -29 -30 -31 32 -33 33 34 -36 -37 -38 -39 -40
leaf_value=0.20159423388540745 -0.0064879114413034181 0.0071605465915054083 0.0041882774004569417 0.0032741812881878366 -0.015281254468757785 0.21572123445246533 0.014524126652628184 0.12315190074344476 0.30900362516986207 0.0044017596605532118 0.010243008695304014 -0.0074156612295795373 -0.010415019939343136 0.10991435647010804 0.21275624659222864 0.072916849721700719 0.001465386287732558 -0.088855088371783505 0.076215629028268617 0.018707326557487251 -0.002635889808486279 0.092234953469955014 0.019176640755989974 -0.014329594401324667 0.0032388255035151591 0.051632327708570007 0.00073579283930095185 0.01700532203540206 0.16543528664679755 0.16287574974820018 -0.012586612025485703 0.025362263004580849 -0.0083343719028764317 0.14423165810717778 0.036946760043501857 0.052036979539191425 0.070830420106649403 -0.024366108585247952 -0.01028992084682466
leaf_count=20 8191 800 26 964 890 23 100 24 25 612 312 27 30 28 24 39 33 40 83 20 266 65 68 1025 4758 139 560 24 21 20 213 173 54 22 50 29 30 113 1184
internal_value=0 0.39966 0.362989 -0.0418176 0.0240675 0.0532845 0.393568 0.283726 1.4684 0.0709617 0.275311 0.489438 1.28514 0.0220638 1.60066 1.94065 1.33688 -0.0144696 1.29135 -1.06002 0.321697 0.531369 1.09764 -0.0832947 0.098645 -0.010102 0.217137 1.59503 1.88462 2.06823 0.381855 0.742813 0.184701 0.725457 1.39457 -0.0968493 0.311154 0.0651712 -0.0840499
internal_count=21125 2001 1981 19124 10933 10043 844 821 125 696 1809 896 172 9199 142 116 92 672 155 60 741 475 133 3872 5327 2847 699 128 104 59 569 201 368 126 72 242 342 913 2148
shrinkage=0.05


Tree=21
num_leaves=40
num_cat=0
split_feature=0 1 7 2 1 2 6 7 6 0 1 2 2 7 7 1 7 7 7 0 7 2 7 2 6 7 2 2 7 2 1 6 7 2 6 7 7 7 1
split_gain=318.635 244.835 225.112 102.361 100.195 217.041 826.696 115.209 109.053 80.7257 93.1304 61.3089 60.3289 95.7624 62.5919 66.2632 95.9503 58.8784 67.1562 53.8153 130.591 51.051 182.224 208.318 50.835 164.394 49.5691 48.5572 50.7809 52.2573 104.865 47.6266 47.1995 45.3572 47.158 44.257 42.0667 41.991 120.746
threshold=5.5000000000000009 5.5000000000000009 34.725000381469734 4.5000000000000009 4.5000000000000009 11.500000000000002 0.46500000357627874 47.414999008178718 0.10500000044703485 1.5000000000000002 4.5000000000000009 2.5000000000000004 4.5000000000000009 58.364999771118171 70.865001678466811 5.5000000000000009 63.895000457763679 30.464999198913578 19.005000114440922 19.500000000000004 54.024999618530281 3.5000000000000004 61.545000076293952 2.5000000000000004 0.24499999731779101 32.135000228881843 4.5000000000000009 7.5000000000000009 57.32500076293946 6.5000000000000009 2.5000000000000004 0.85500001907348644 24.535000801086429 2.5000000000000004 0.43500000238418585 10.715000152587892 14.795000076293947 45.704999923706062 3.5000000000000004
decision_type=2 2 2 2 2 2 2 2 2 2 2 2 2 2 2 2 2 2 2 2 2 2 2 2 2 2 2 2 2 2 2 2 2 2 2 2 2 2 2
left_child=1 9 -3 -4 21 12 7 8 17 -1 27 -12 13 19 15 16 -15 18 -7 24 36 22 31 -24 -6 -26 -23 28 -11 30 -30 35 -20 -27 -35 -2 -21 -37 -39
right_child=4 2 3 -5 5 6 -8 -9 -10 10 11 -13 -14 14 -16 -17 -18 -19 32 20 -22 26 23 -25 25 33 -28 -29 29 -31 -32 -33 -34 34 -36 37 -38 38 -40
leaf_value=0.0031367583034064058 0.038946619953673621 0.17639336727914356 0.11426751669999716 0.016380046583556882 -0.004311180442501515 -0.015043877951196723 0.26100370380047122 -0.092369440327519967 0.13652662709588187 0.016856039004156519 -0.0078879128875476972 0.073734208970337875 -0.0034511220812060493 0.037920655374941624 -0.032457044461499093 0.016950027559135782 0.14690643300612768 -0.0015062088288210762 0.11752102426413834 0.080759714408354333 0.13879240491342815 -0.015598970209248365 -0.017261180281639098 0.16876617582405318 0.15875824049115184 -0.013660335806110558 -0.0048237572347890386 -0.00023144840526936658 0.15580118611968796 0.023043174645863473 0.021338861153043551 0.025884021058395181 0.040811915910587859 0.096567140509495927 0.012360331605596003 -0.0050100997453914123 0.0095887119943644551 -0.0011302384002018346 0.061051807500189174
leaf_count=920 65 42 37 96 1182 37 38 23 20 359 28 129 3073 46 23 61 36 191 29 22 22 1216 27 34 20 106 8730 268 29 64 29 161 65 23 60 2931 369 418 96
internal_value=0 0.379677 1.50959 0.872238 -0.0397267 0.0749845 0.781179 0.319047 0.464743 0.271389 0.483266 1.18355 0.0185506 0.155156 0.881978 1.12824 1.71536 0.324011 0.840345 0.0882749 0.405248 -0.0853999 0.0143343 1.72852 -0.00583727 0.448788 -0.122823 0.336478 0.526534 1.08391 1.7714 -0.0141499 1.28955 0.160282 0.713895 -0.0385444 0.271864 -0.0539685 0.209671
internal_count=21125 2001 175 133 19124 5446 403 365 342 1826 906 157 5043 1970 166 143 82 322 131 1804 413 13678 3732 61 1391 209 9946 749 481 122 58 3671 94 189 83 3510 391 3445 514
shrinkage=0.05


Tree=22
num_leaves=40
num_cat=0
split_feature=0 7 1 1 3 6 6 0 2 2 7 2 7 7 7 2 0 1 0 7 0 2 7 2 0 2 2 2 7 1 0 7 0 0 0 2 7 2 7
split_gain=287.568 238.189 127.001 93.4074 92.8303 87.1953 321.647 187.642 618.866 120.647 91.1679 81.5922 67.3524 74.6619 137.11 75.5053 65.9685 98.9343 65.3672 64.8429 77.4637 63.5125 68.9494 83.3327 52.1845 47.5731 50.5603 80.8461 44.3569 42.9502 104.382 40.9417 39.0057 84.6823 50.7773 36.6489 59.9944 48.9402 64.716
threshold=5.5000000000000009 6.1949999332427987 5.5000000000000009 2.5000000000000004 1.0000000180025095e-35 0.46500000357627874 0.48499999940395361 8.5000000000000018 10.500000000000002 1.5000000000000002 40.194999694824226 11.500000000000002 65.155002593994155 31.595000267028812 37.014999389648445 8.5000000000000018 1.5000000000000002 4.5000000000000009 12.500000000000002 49.995000839233406 14.500000000000002 10.500000000000002 32.385000228881843 8.5000000000000018 10.500000000000002 7.5000000000000009 4.5000000000000009 3.5000000000000004 29.224999427795414 5.5000000000000009 6.5000000000000009 57.034999847412116 19.500000000000004 16.500000000000004 8.5000000000000018 1.5000000000000002 13.034999847412111 11.500000000000002 19.860000610351566
decision_type=2 2 2 2 2 2 2 2 2 2 2 2 2 2 2 2 2 2 2 2 2 2 2 2 2 2 2 2 2 2 2 2 2 2 2 2 2 2 2
left_child=1 -1 16 32 5 18 -7 8 -8 10 -9 -11 13 -4 -15 31 -3 25 24 20 -13 22 -19 -24 29 26 27 -18 35 -5 -31 -16 33 34 -2 36 -20 -37 -39
right_child=3 2 12 4 -6 6 7 9 -10 11 -12 19 -14 14 15 -17 17 21 28 -21 -22 -23 23 -25 -26 -27 -28 -29 -30 30 -32 -33 -34 -35 -36 37 -38 38 -40
leaf_value=0.18972037807106973 0.0010075582676789072 0.0029387961623237469 -0.0048408027165211167 -0.0038661904656727628 -0.014339235492385506 0.20230499220931014 0.013501532147638502 0.14700775695964693 0.29163506904244424 0.0023319350842469842 0.016263783569447698 -0.16488370835781097 -0.010713271250327429 0.19533428618063531 0.065189091555583167 0.00057311595389337251 0.02527197781913533 -0.024641308215047633 0.10295525821191925 0.015354882255196572 -0.027388865545037246 0.13503874333008478 0.08626638160322804 -0.025226112242255894 -0.013519743890115402 -0.0024925264760963899 0.042558779061129953 -0.038430404911438627 0.0031135441523292228 0.049184795140737682 0.00077644340477750777 0.15317880129441619 -0.012407190984807703 0.0068625373377943499 -0.010241723945867287 -0.0046501651306228705 0.024065358635856411 -0.007600486885618281 0.064809437366461178
leaf_count=20 1389 913 26 2148 890 23 100 24 25 581 30 20 30 24 39 33 203 28 28 20 21 23 83 21 1025 266 206 66 4758 139 560 20 1808 1383 3611 242 173 54 72
internal_value=0 0.360693 0.326027 -0.0377404 0.0227519 0.0501827 0.357802 0.254476 1.38256 0.0518739 1.48744 -0.068875 1.14717 1.43479 1.77808 1.2228 0.247953 0.440719 0.0219589 -1.1691 -1.88919 1.16726 0.900061 1.27507 -0.0769154 0.288742 0.478354 0.192848 0.093827 -0.00725734 0.208054 1.90032 -0.118483 -0.0817562 -0.142333 0.3577 0.7011 0.170137 0.675532
internal_count=21125 2001 1981 19124 10933 10043 844 821 125 696 54 642 172 142 116 92 1809 896 9199 61 41 155 132 104 3872 741 475 269 5327 2847 699 59 8191 6383 5000 569 201 368 126
shrinkage=0.05


Tree=23
num_leaves=40
num_cat=0
split_feature=0 7 1 1 3 6 2 0 7 1 7 7 7 2 3 0 0 7 7 1 0 7 1 0 7 0 0 0 2 2 6 0 2 1 7 1 2 7 7
split_gain=259.53 214.965 114.619 84.3001 83.7794 78.6938 305.051 2982.42 158.694 77.7605 60.7855 67.3824 123.742 68.1436 59.8356 58.9939 47.0965 45.2785 49.2042 54.2033 68.4402 40.0321 38.7625 94.2049 36.9499 35.2027 76.4258 45.8265 34.9172 51.1821 50.1429 178.188 38.8005 351.893 1081.15 67.5963 63.293 216.359 472.507
threshold=5.5000000000000009 6.1949999332427987 5.5000000000000009 2.5000000000000004 1.0000000180025095e-35 0.46500000357627874 11.500000000000002 11.500000000000002 32.385000228881843 4.5000000000000009 65.155002593994155 31.595000267028812 37.014999389648445 8.5000000000000018 1.0000000180025095e-35 12.500000000000002 10.500000000000002 22.744999885559086 26.960000038146976 4.5000000000000009 1.5000000000000002 29.224999427795414 5.5000000000000009 6.5000000000000009 57.034999847412116 19.500000000000004 16.500000000000004 8.5000000000000018 8.5000000000000018 1.5000000000000002 0.17500000447034839 19.500000000000004 7.5000000000000009 3.5000000000000004 75.634998321533217 3.5000000000000004 3.5000000000000004 51.264999389648445 53.204999923706062
decision_type=2 2 2 2 2 2 2 2 2 2 2 2 2 2 2 2 2 2 2 2 2 2 2 2 2 2 2 2 2 2 2 2 2 2 2 2 2 2 2
left_child=1 -1 14 25 5 15 8 -8 -7 -9 11 -4 -13 24 17 16 22 -3 -19 -20 -21 -17 -5 -24 -14 26 27 -2 29 -23 -30 -32 35 34 -34 -31 37 -37 -39
right_child=3 2 10 4 -6 6 7 9 -10 -11 -12 12 13 -15 -16 21 -18 18 19 20 -22 28 23 -25 -26 -27 -28 -29 30 32 31 -33 33 -35 -36 36 -38 38 -40
leaf_value=0.18023436471819879 0.00095718034708710186 0.043213312989175925 -0.004598761751101567 -0.0036728811027353691 -0.013622273361163862 0.12675105178797688 0.61823525045599259 -0.026414928116180281 0.003349842432438876 -0.1475636763856388 -0.010177608380715053 0.18556756805628538 0.061929634022407046 0.00054445876316590737 -0.02345157880748136 0.016990753871622792 -0.012843756745137819 -0.023649343698406999 0.0098577817103264326 0.0070788830789652746 0.06095567182234423 -0.01185221462345578 0.046725555217201759 0.0007376208929677627 0.14551986398175359 -0.011786831620116348 0.0065194100169134982 -0.0097296374892788615 -0.0054450417212865169 -0.0077548189959021118 -0.025986194610595703 0.16209780211560429 0.31885856274213342 -0.008956364873677387 -0.0022066651905576387 0.011304878833891379 0.0041193438548896974 0.30941374005749822 0.03469587181332625
leaf_count=20 1389 124 26 2148 890 27 21 27 743 26 30 24 39 33 113 569 1025 92 1243 110 127 367 139 560 20 1808 1383 3611 1373 687 34 20 37 281 90 526 1251 20 72
internal_value=0 0.342659 0.309725 -0.0358534 0.0216143 0.0476736 0.339912 2.27921 0.153538 -1.71693 1.08981 1.36305 1.68918 1.16166 0.235555 0.0208609 -0.0730696 0.2825 0.23661 0.28072 0.718991 0.0891356 -0.00689448 0.197651 1.80531 -0.112559 -0.0776683 -0.135217 0.0591573 0.115228 -0.0717255 0.873491 0.158846 0.445217 1.82664 0.113134 0.211729 0.473552 1.88834
internal_count=21125 2001 1981 19124 10933 10043 844 74 770 53 172 142 116 92 1809 9199 3872 1696 1572 1480 237 5327 2847 699 59 8191 6383 5000 4758 3331 1427 54 2964 408 127 2556 1869 618 92
shrinkage=0.05


Tree=24
num_leaves=40
num_cat=0
split_feature=0 7 1 1 2 7 0 6 7 7 2 0 1 2 7 2 7 7 2 7 2 4 0 7 7 5 7 7 6 7 0 0 2 7 2 1 6 0 0
split_gain=234.226 194.006 103.443 78.1011 189.453 765.722 1931.3 189.793 58.5541 84.9931 141.467 55.4982 80.4851 57.2874 59.4559 75.2077 49.4153 101.485 48.0769 88.9779 57.0792 108.536 47.3727 118.406 47.3421 47.0869 45.5388 64.2882 66.8157 44.1912 46.2617 65.7906 42.7838 47.4409 47.738 93.9326 44.1332 41.289 67.2486
threshold=5.5000000000000009 6.1949999332427987 5.5000000000000009 4.5000000000000009 11.500000000000002 44.68499946594239 11.500000000000002 0.22500000149011615 34.725000381469734 38.704999923706062 6.5000000000000009 1.5000000000000002 4.5000000000000009 10.500000000000002 32.385000228881843 8.5000000000000018 33.174999237060554 31.884999275207523 4.5000000000000009 58.364999771118171 3.5000000000000004 1.0000000180025095e-35 19.500000000000004 54.024999618530281 66.134998321533217 1.0000000180025095e-35 33.174999237060554 31.595000267028812 0.28499999642372137 24.535000801086429 12.500000000000002 10.500000000000002 7.5000000000000009 57.32500076293946 6.5000000000000009 2.5000000000000004 0.61500000953674328 18.500000000000004 16.500000000000004
decision_type=2 2 2 2 2 2 2 2 2 2 2 2 2 2 2 2 2 2 2 2 2 2 2 2 2 2 2 2 2 2 2 2 2 2 2 2 2 2 2
left_child=1 -1 11 25 18 7 -7 16 -4 -10 -11 -3 32 14 -14 -16 17 -6 19 22 -21 24 -5 -24 -22 29 27 -27 -29 -2 31 -31 33 36 35 -35 -13 38 -32
right_child=3 2 8 4 5 6 -8 -9 9 10 -12 12 13 -15 15 -17 -18 -19 -20 20 21 -23 23 -25 -26 26 -28 28 -30 30 37 -33 -34 34 -36 -37 -38 -39 -40
leaf_value=0.17122264102101326 0.007855407596838648 0.0025130795450067113 0.10563971635240775 -0.000816449562792675 0.026711914562822688 0.59774541094899181 -0.055794486861962533 -0.097251828035546675 -0.051443186596683836 0.11868829039546352 0.0043537866444356985 0.007488739354991507 -0.024566027655133181 0.12561579372571863 0.078905278157038863 -0.027012589360986439 0.001084039075449653 0.13899193263572196 -0.0031842649009671542 0.10303651226624366 0.033898055377519797 0.13530614737421273 0.012117846762937735 0.13133306720040061 -0.032406311950018245 0.013145563561868454 -0.011407213212679262 0.030076506135186983 0.14805927104981884 -0.0049506110955607752 -0.0036288097506872821 -0.017848266017269986 -0.0028793980640576299 0.14552993450699181 0.019270187895745042 0.018269243939169521 0.070887130300203965 -0.0064673962651839757 0.0095442579347770323
leaf_count=20 727 913 39 1391 161 20 26 36 23 48 62 323 28 23 83 21 137 23 3073 31 72 20 391 22 43 126 92 28 21 3413 2876 1392 266 29 64 29 30 3542 1461
internal_value=0 0.325526 0.294239 -0.0340607 0.0672165 0.727004 4.56707 0.232206 1.03532 0.719365 1.0849 0.223777 0.400585 1.0559 0.802125 1.15036 0.476383 0.814938 0.0144911 0.136438 0.837041 0.556046 0.0719703 0.369366 0.18212 -0.074385 0.341443 0.640883 1.61281 -0.0826637 -0.0964066 -0.173741 0.263509 0.443324 0.980896 1.63799 0.257534 -0.0492444 0.0161757
internal_count=21125 2001 1981 19124 5446 403 46 357 172 133 110 1809 896 155 132 104 321 184 5043 1970 166 135 1804 413 115 13678 267 175 49 13411 12684 4805 741 475 122 58 353 7879 4337
shrinkage=0.05


Tree=25
num_leaves=40
num_cat=0
split_feature=0 7 1 3 1 6 2 7 0 0 0 1 2 4 3 0 2 7 7 1 0 0 0 7 7 2 7 7 7 2 2 7 7 7 2 7 2 7 7
split_gain=211.389 175.09 93.3576 72.6617 89.4518 307.269 1916.48 270.939 105.978 81.735 76.5793 71.526 58.7926 81.668 52.6109 42.5336 54.7241 41.8354 54.9165 43.8926 54.7112 35.0792 44.7267 35.0262 66.7967 31.5496 31.5336 31.2038 53.5925 59.2555 30.8876 90.5354 55.0025 29.8943 29.3943 47.0138 213.244 41.5041 29.2544
threshold=5.5000000000000009 6.1949999332427987 5.5000000000000009 1.0000000180025095e-35 5.5000000000000009 0.46500000357627874 11.500000000000002 33.975000381469734 6.5000000000000009 12.500000000000002 10.500000000000002 2.5000000000000004 1.5000000000000002 1.0000000180025095e-35 1.0000000180025095e-35 21.500000000000004 3.5000000000000004 23.464999198913578 26.960000038146976 4.5000000000000009 1.5000000000000002 19.500000000000004 16.500000000000004 60.975000381469734 54.305000305175788 2.5000000000000004 92.270000457763686 63.065000534057624 56.104999542236335 6.5000000000000009 3.5000000000000004 46.495000839233406 49.995000839233406 29.545000076293949 6.5000000000000009 61.545000076293952 4.5000000000000009 77.274997711181655 42.495000839233406
decision_type=2 2 2 2 2 2 2 2 2 2 2 2 2 2 2 2 2 2 2 2 2 2 2 2 2 2 2 2 2 2 2 2 2 2 2 2 2 2 2
left_child=1 -1 14 4 9 8 7 -7 -6 10 34 21 -4 23 17 -10 25 -3 -19 -20 -21 22 -11 24 -14 33 -13 28 29 -22 31 -24 -33 -17 35 -2 -37 -38 -9
right_child=3 2 12 -5 5 6 -8 38 15 11 -12 26 13 -15 -16 16 -18 18 19 20 27 -23 30 -25 -26 -27 -28 -29 -30 -31 -32 32 -34 -35 -36 36 37 -39 -40
leaf_value=0.16266150683164599 -0.0025208693423139101 0.039426744745715579 0.1200628200173378 -0.012537718560179654 0.04437556243200097 0.18700314022245862 0.48533947967613744 -0.033092392762019127 -0.0034091235953479094 -0.0056160143491370846 -0.01544990896040961 0.0050670215671067501 0.01166348349171809 0.13103490138571944 -0.022404655202629822 0.07649898947704406 0.0032300546941243947 -0.029838384762406352 0.0089329485956066972 0.0065992826087908317 0.08081885355901211 -0.0098817617844431192 0.0071642031312569403 -0.017852482768265825 0.10691801169170784 0.098421836800228521 0.05340636877671761 0.0034266694138447443 0.12880080141700231 -0.0091247476637363444 0.0016482366815767976 0.12465622527524829 0.033285602796822793 -0.0012829722545575351 -0.0075242029562957698 0.13992399412672968 0.0013072455218166449 0.070609288630278211 0.0096418653771040905
leaf_count=20 2090 136 25 1411 139 21 24 54 1820 1771 1742 4368 63 20 113 21 180 80 1243 110 47 1463 308 38 26 26 34 24 26 30 907 28 40 30 2081 32 356 23 155
internal_value=0 0.309249 0.279527 -0.0323577 -0.0149604 0.161576 1.20336 0.316049 0.0421658 -0.0435667 -0.130529 0.0180938 0.983551 0.742445 0.212588 -0.0144077 0.36641 0.256608 0.210235 0.253856 0.648247 -0.0703106 -0.00931655 0.446657 0.789813 1.07194 0.108808 1.0954 1.33467 0.915518 0.132866 0.37385 1.41818 0.614898 -0.062678 0.0103826 0.31956 0.110258 -0.0279904
internal_count=21125 2001 1981 19124 17713 2470 254 230 2216 15243 6324 8919 172 147 1809 2077 257 1696 1560 1480 237 4517 3054 127 89 77 4402 127 103 77 1283 376 68 51 4582 2501 411 379 209
shrinkage=0.05


Tree=26
num_leaves=40
num_cat=0
split_feature=0 1 7 7 2 3 1 6 2 7 0 0 0 1 0 1 2 0 2 7 7 2 2 2 7 2 7 7 6 0 0 2 7 7 2 0 7 1 5
split_gain=190.779 162.003 184.631 78.7022 125.767 65.5772 80.7302 277.31 1729.63 244.523 95.6453 73.7658 69.1128 64.5522 51.9298 53.5006 48.1036 38.3866 49.3885 35.6248 45.4083 34.6392 40.7982 55.9723 34.4721 41.0495 34.0154 33.8339 32.3635 31.659 40.3658 30.3877 118.538 242.782 47.7827 340.098 813.969 49.2194 71.0617
threshold=5.5000000000000009 5.5000000000000009 34.725000381469734 38.704999923706062 6.5000000000000009 1.0000000180025095e-35 5.5000000000000009 0.46500000357627874 11.500000000000002 33.975000381469734 6.5000000000000009 12.500000000000002 10.500000000000002 2.5000000000000004 1.5000000000000002 4.5000000000000009 2.5000000000000004 21.500000000000004 3.5000000000000004 63.065000534057624 56.815000534057624 7.5000000000000009 5.5000000000000009 6.5000000000000009 28.154999732971195 2.5000000000000004 54.815000534057624 41.055000305175788 0.74500000476837169 19.500000000000004 16.500000000000004 8.5000000000000018 33.174999237060554 31.884999275207523 7.5000000000000009 19.500000000000004 72.024997711181655 3.5000000000000004 1.0000000180025095e-35
decision_type=2 2 2 2 2 2 2 2 2 2 2 2 2 2 2 2 2 2 2 2 2 2 2 2 2 2 2 2 2 2 2 2 2 2 2 2 2 2 2
left_child=1 14 -3 -4 26 6 11 10 9 -9 -8 12 -2 29 -1 21 -17 -12 -19 20 -18 22 24 -24 25 -16 -5 -23 -26 30 -13 34 33 -33 37 -36 -37 38 -15
right_child=5 2 3 4 -6 -7 7 8 -10 -11 17 13 -14 31 15 16 19 18 -20 -21 -22 27 23 -25 28 -27 -28 -29 -30 -31 -32 32 -34 -35 35 36 -38 -39 -40
leaf_value=0.001917506202558086 -0.0029772036555991478 0.15203615378122778 -0.052329717511716105 0.15589170855554668 0.0023305670208027289 -0.011910832598198189 0.042156783352009689 0.17765298656054906 0.46107249595224858 -0.0013295454512301246 -0.0032386677651883586 -0.0053352136585602715 -0.014677412967768581 -0.0058664622571647403 0.018524414013055237 -0.014084842608177238 0.05433624970416228 0.050917005235088887 0.0030685518966573812 0.0032553341239690784 0.13653835139813877 0.024008670214856611 0.077976530698629531 0.01308751215829569 -0.0029798720610038991 0.094884708896279341 0.071416269672604712 -0.013713089634752807 0.055847157451968936 -0.009387674296729303 0.0063111123243827357 0.014295450986006901 -0.0075355059389155977 0.18738389624201734 -0.0041285793887657404 -0.017446361504495144 0.2969405036313193 0.010592735774261626 0.071081534394573778
leaf_count=920 4582 42 23 22 62 1411 139 21 24 209 1820 1771 1742 934 66 28 84 77 180 24 21 89 65 68 232 24 26 179 26 1463 1283 170 1109 23 244 50 35 1806 31
internal_value=0 0.293787 1.2129 0.635692 0.987443 -0.0307398 -0.0142124 0.153498 1.1432 0.300247 0.0400575 -0.0413884 -0.124003 0.0171891 0.205701 0.375638 0.906408 -0.0136873 0.348089 1.16429 1.41553 0.264382 0.424905 0.896004 0.244859 0.777743 2.20268 -0.0237217 0.0589687 -0.0667951 -0.00885073 0.103367 -0.0248359 0.698451 0.157213 0.517521 2.24014 0.114433 -0.0678912
internal_count=21125 2001 175 133 110 19124 17713 2470 254 230 2216 15243 6324 8919 1826 906 157 2077 257 129 105 749 481 133 348 90 48 268 258 4517 3054 4402 1302 193 3100 329 85 2771 965
shrinkage=0.05


end of trees

feature importances:
Column_7=353
Column_2=251
Column_0=203
Column_1=132
Column_6=60
Column_3=41
Column_5=8
Column_4=5

parameters:
[boosting: gbdt]
[objective: regression]
[metric: rmse]
[tree_learner: serial]
[device_type: cpu]
[data: ]
[valid: ]
[num_iterations: 100]
[learning_rate: 0.05]
[num_leaves: 40]
[num_threads: 0]
[max_depth: -1]
[min_data_in_leaf: 20]
[min_sum_hessian_in_leaf: 0.001]
[bagging_fraction: 1]
[bagging_freq: 0]
[bagging_seed: 3]
[feature_fraction: 1]
[feature_fraction_seed: 2]
[early_stopping_round: 0]
[max_delta_step: 0]
[lambda_l1: 0]
[lambda_l2: 0]
[min_gain_to_split: 0]
[drop_rate: 0.1]
[max_drop: 50]
[skip_drop: 0.5]
[xgboost_dart_mode: 0]
[uniform_drop: 0]
[drop_seed: 4]
[top_rate: 0.2]
[other_rate: 0.1]
[min_data_per_group: 100]
[max_cat_threshold: 32]
[cat_l2: 10]
[cat_smooth: 10]
[max_cat_to_onehot: 4]
[top_k: 20]
[monotone_constraints: ]
[feature_contri: ]
[forcedsplits_filename: ]
[refit_decay_rate: 0.9]
[verbosity: 1]
[max_bin: 255]
[min_data_in_bin: 3]
[bin_construct_sample_cnt: 200000]
[histogram_pool_size: -1]
[data_random_seed: 1]
[output_model: LightGBM_model.txt]
[snapshot_freq: -1]
[input_model: ]
[output_result: LightGBM_predict_result.txt]
[initscore_filename: ]
[valid_data_initscores: ]
[pre_partition: 0]
[enable_bundle: 1]
[max_conflict_rate: 0]
[is_enable_sparse: 1]
[sparse_threshold: 0.8]
[use_missing: 1]
[zero_as_missing: 0]
[two_round: 0]
[save_binary: 0]
[enable_load_from_binary_file: 1]
[header: 0]
[label_column: ]
[weight_column: ]
[group_column: ]
[ignore_column: ]
[categorical_feature: ]
[predict_raw_score: 0]
[predict_leaf_index: 0]
[predict_contrib: 0]
[num_iteration_predict: -1]
[pred_early_stop: 0]
[pred_early_stop_freq: 10]
[pred_early_stop_margin: 10]
[convert_model_language: ]
[convert_model: gbdt_prediction.cpp]
[num_class: 1]
[is_unbalance: 0]
[scale_pos_weight: 1]
[sigmoid: 1]
[boost_from_average: 1]
[reg_sqrt: 0]
[alpha: 0.9]
[fair_c: 1]
[poisson_max_delta_step: 0.7]
[tweedie_variance_power: 1.5]
[max_position: 20]
[label_gain: ]
[metric_freq: 1]
[is_provide_training_metric: 0]
[eval_at: ]
[num_machines: 1]
[local_listen_port: 12400]
[time_out: 120]
[machine_list_filename: ]
[machines: ]
[gpu_platform_id: -1]
[gpu_device_id: -1]
[gpu_use_dp: 0]

end of parameters

pandas_categorical:null
