tree
version=v2
num_class=1
num_tree_per_iteration=1
label_index=0
max_feature_idx=8
objective=regression
feature_names=Column_0 Column_1 Column_2 Column_3 Column_4 Column_5 Column_6 Column_7 Column_8
feature_infos=[0:23] [0:6] [1:12] [0:2] none [0:1] [0:1] [0:1] [-10.010000228881836:95.709999084472656]
tree_sizes=692 702 723 705 729 709 714 706 713 716 721 709 715 708 704 725 710 723 724 721

Tree=0
num_leaves=8
num_cat=0
split_feature=0 0 8 8 8 8 2
split_gain=33471.4 50476 5351.67 1785.78 1130.81 1605.52 1190.79
threshold=1.5000000000000002 1.0000000180025095e-35 38.104999542236335 73.784999847412124 46.43499946594239 31.195000648498539 6.5000000000000009
decision_type=2 2 2 2 2 2 2
left_child=1 -1 -2 4 5 -3 -6
right_child=2 3 -4 -5 6 -7 -8
leaf_value=3.0956801356327062 3.1700988984865455 4.8605807119194706 3.0025296125847483 5.7718643279476405 5.0445094608252941 4.1294380491058522 4.5371976328532835
leaf_count=782 3657 67 10999 20 124 122 144
internal_value=0 4.94839 -0.424654 13.0556 12.6509 10.7777 13.9719
internal_count=15915 1259 14656 477 457 189 268
shrinkage=1


Tree=1
num_leaves=8
num_cat=0
split_feature=0 0 1 8 1 1 8
split_gain=25920.3 39088.7 6275.73 4181.27 1526.16 1115.76 1601.22
threshold=1.5000000000000002 1.0000000180025095e-35 4.5000000000000009 37.495000839233406 5.5000000000000009 1.5000000000000002 58.465000152587898
decision_type=2 2 2 2 2 2 2
left_child=1 -1 5 -2 -4 -3 -7
right_child=3 2 4 -5 -6 6 -8
leaf_value=0.0003342312658229447 0.070280180513652549 2.0134960465720204 1.0581030945987491 -0.08052883619312888 0.28611595942128087 1.2945905877466071 1.9652594988274421
leaf_count=782 3468 99 91 11188 62 146 79
internal_value=0 4.35458 11.489 -0.373695 6.2106 13.9815 12.7506
internal_count=15915 1259 477 14656 153 324 225
shrinkage=0.12


Tree=2
num_leaves=8
num_cat=0
split_feature=8 8 3 2 7 8 7
split_gain=3298.57 1417.35 955.773 585.979 564.856 470.374 2753.48
threshold=37.495000839233406 66.274997711181655 1.0000000180025095e-35 5.5000000000000009 0.99500000476837169 30.60000038146973 0.55500000715255748
decision_type=2 2 2 2 2 2 2
left_child=5 2 3 -2 -5 6 -1
right_child=1 -3 -4 4 -6 -7 -8
leaf_value=0.12287367235004269 -0.018889846466665802 -0.081638178235774017 -0.1599798583237787 0.042267544299499069 0.32659525796341204 0.053158009523440242 1.5042329542977468
leaf_count=1977 3642 4765 487 3091 104 1828 21
internal_value=0 -0.25581 0.0203758 0.116789 0.429355 0.809555 1.14494
internal_count=15915 12089 7324 6837 3195 3826 1998
shrinkage=0.12


Tree=3
num_leaves=8
num_cat=0
split_feature=0 0 1 8 1 8 8
split_gain=19916.6 30229.1 4864.86 2792.86 1173.01 900.258 1386.05
threshold=1.5000000000000002 1.0000000180025095e-35 4.5000000000000009 48.514999389648445 5.5000000000000009 46.43499946594239 28.974999427795414
decision_type=2 2 2 2 2 2 2
left_child=1 -1 5 -2 -4 6 -3
right_child=3 2 4 -5 -6 -7 -8
leaf_value=-0.0011883209565716325 0.022805256082044409 1.8291954429839785 0.92750809711414373 -0.083488012264154837 0.25070542686408565 1.6338429216859918 0.96198691118847235
leaf_count=782 6091 38 91 8565 62 198 88
internal_value=0 3.81707 10.0911 -0.327606 5.44373 12.2856 10.196
internal_count=15915 1259 477 14656 153 324 126
shrinkage=0.12


Tree=4
num_leaves=8
num_cat=0
split_feature=8 8 3 2 7 2 8
split_gain=2167.41 888.618 668.88 435.152 439.311 364.663 345.814
threshold=37.495000839233406 66.274997711181655 1.0000000180025095e-35 5.5000000000000009 0.99500000476837169 8.5000000000000018 30.60000038146973
decision_type=2 2 2 2 2 2 2
left_child=6 2 3 -2 5 -5 -1
right_child=1 -3 -4 4 -6 -7 -8
leaf_value=0.11325404398792141 -0.017318983311953615 -0.065219942193232072 -0.13452043707549449 0.098807915764895449 0.28594401955604554 0.0084898708333964196 0.041028785887510556
leaf_count=1998 3642 4765 487 914 104 2177 1828
internal_value=0 -0.207371 0.0113143 0.0919693 0.361323 0.293306 0.656217
internal_count=15915 12089 7324 6837 3195 3091 3826
shrinkage=0.12


Tree=5
num_leaves=8
num_cat=0
split_feature=0 0 1 8 8 1 2
split_gain=16794.1 23970.7 3975.3 1959.63 1571.76 1128.45 1002.67
threshold=4.0000000000000009 1.0000000180025095e-35 4.5000000000000009 41.795000076293952 60.424999237060554 1.5000000000000002 11.500000000000002
decision_type=2 2 2 2 2 2 2
left_child=1 -1 5 -2 -4 -3 -5
right_child=3 2 4 6 -6 -7 -8
leaf_value=0.0042736353278160092 0.029342051747375236 1.6627608527243138 0.30860729414282495 -0.070018556549929958 1.1286126191318033 1.1747838243235975 0.23187171170245044
leaf_count=765 4602 96 103 9902 50 236 161
internal_value=0 3.5224 9.02219 -0.296034 4.80486 10.9657 -0.543238
internal_count=15915 1250 485 14665 153 332 10063
shrinkage=0.12


Tree=6
num_leaves=8
num_cat=0
split_feature=0 0 8 8 2 0 7
split_gain=13005.4 18562.9 1530.72 1424.24 772.617 732.68 672.935
threshold=4.0000000000000009 1.0000000180025095e-35 43.504999160766609 73.125000000000014 11.500000000000002 6.5000000000000009 0.85500001907348644
decision_type=2 2 2 2 2 2 2
left_child=1 -1 -2 6 5 -4 -3
right_child=2 3 4 -5 -6 -7 -8
leaf_value=0.0037607965060308867 0.022591773064325579 0.87717845422621499 0.084305550452176622 1.8961114171418274 0.23368928412208334 -0.070614272097666006 1.5887874019145964
leaf_count=765 5006 443 462 22 128 9069 20
internal_value=0 3.09972 -0.26051 7.93952 -0.493097 -0.525873 7.56598
internal_count=15915 1250 14665 485 9659 9531 463
shrinkage=0.12


Tree=7
num_leaves=8
num_cat=0
split_feature=0 0 1 1 8 7 8
split_gain=10071.3 14375.1 3179.38 1262.85 1219.49 1208.28 983.176
threshold=4.0000000000000009 1.0000000180025095e-35 5.5000000000000009 1.5000000000000002 51.335000991821296 0.27500000596046453 50.795000076293952
decision_type=2 2 2 2 2 2 2
left_child=1 -1 3 -3 -2 -5 -4
right_child=4 2 6 5 -6 -7 -8
leaf_value=0.003309501348172917 0.010033856309444871 1.341552217034623 -0.40216124187816271 0.77335969940737137 -0.059404676789301579 1.5851199075271343 0.53135453224182128
leaf_count=765 6736 96 33 295 7929 29 32
internal_value=0 2.72775 6.98678 7.99402 -0.229249 7.05014 0.478465
internal_count=15915 1250 485 420 14665 324 65
shrinkage=0.12


Tree=8
num_leaves=8
num_cat=0
split_feature=0 0 1 2 2 7 1
split_gain=7799.25 11132.1 2493.75 1053.68 1341.22 748.247 1114.8
threshold=4.0000000000000009 1.0000000180025095e-35 4.5000000000000009 2.5000000000000004 9.5000000000000018 0.73500001430511486 1.5000000000000002
decision_type=2 2 2 2 2 2 2
left_child=1 -1 5 -2 -5 6 -3
right_child=3 2 -4 4 -6 -7 -8
leaf_value=0.0029123620916815364 0.045985653630291314 1.2331243210026388 0.33697389860363569 -0.061112867024017817 0.032946883483922905 1.5987689358537847 0.73012200673443695
leaf_count=765 2545 89 153 9264 2856 22 221
internal_value=0 2.40042 6.14837 -0.201739 -0.324569 7.6877 7.28777
internal_count=15915 1250 485 14665 12120 332 310
shrinkage=0.12


Tree=9
num_leaves=8
num_cat=0
split_feature=0 0 8 8 2 0 8
split_gain=6039.74 8620.7 1000.31 823.728 539.653 536.688 486.244
threshold=4.0000000000000009 1.0000000180025095e-35 73.125000000000014 39.885000228881843 11.500000000000002 6.5000000000000009 49.754999160766609
decision_type=2 2 2 2 2 2 2
left_child=1 -1 6 -2 5 -5 -3
right_child=3 2 -4 4 -6 -7 -8
leaf_value=0.0025628750598898123 0.02411923904466887 0.49057146458676515 1.4398658294027502 0.078048667126813853 0.15179312050912938 -0.049158705814554983 0.73655007258841865
leaf_count=765 4130 235 22 502 209 9824 228
internal_value=0 2.11237 5.41056 -0.17753 -0.325921 -0.358121 5.09751
internal_count=15915 1250 485 14665 10535 10326 463
shrinkage=0.12


Tree=10
num_leaves=8
num_cat=0
split_feature=0 0 1 1 2 2 2
split_gain=4309.71 6607.58 3198.28 1231.41 960.715 778.502 1060.47
threshold=1.5000000000000002 1.0000000180025095e-35 3.5000000000000004 5.5000000000000009 11.500000000000002 2.5000000000000004 9.5000000000000018
decision_type=2 2 2 2 2 2 2
left_child=1 4 -3 -4 -1 -2 -7
right_child=5 2 3 -5 -6 6 -8
leaf_value=-0.038876329225301744 0.042358699613592225 0.87968171584088684 0.42087508977563287 -0.21170177690318373 0.49573325115900774 -0.050298271649493423 0.032862424404661375
leaf_count=700 2564 239 162 61 52 9235 2902
internal_value=0 1.81272 4.78918 2.06532 -0.0159054 -0.147683 -0.253452
internal_count=15915 1214 462 223 752 14701 12137
shrinkage=0.12


Tree=11
num_leaves=8
num_cat=0
split_feature=0 0 1 1 8 2 5
split_gain=3337.44 5116.91 2476.75 953.607 774.949 743.978 714.357
threshold=1.5000000000000002 1.0000000180025095e-35 3.5000000000000004 5.5000000000000009 28.974999427795414 11.500000000000002 1.0000000180025095e-35
decision_type=2 2 2 2 2 2 2
left_child=1 5 4 6 -3 -1 -4
right_child=-2 2 3 -5 -6 -7 -8
leaf_value=-0.034211171555093352 -0.015595297794678843 1.333838596343994 0.46493983607476863 -0.18629757502039923 0.69070030408768124 0.43624528204019247 -0.30107520747184752
leaf_count=700 14701 31 142 61 208 52 20
internal_value=0 1.59519 4.21447 1.81748 6.451 -0.0139967 3.08642
internal_count=15915 1214 462 223 239 752 162
shrinkage=0.12


Tree=12
num_leaves=8
num_cat=0
split_feature=2 2 8 8 1 7 8
split_gain=920.741 607.817 449.115 375.328 430.902 389.752 2062.01
threshold=11.500000000000002 2.5000000000000004 17.605000495910648 19.394999504089359 4.5000000000000009 0.75499999523162853 34.284999847412116
decision_type=2 2 2 2 2 2 2
left_child=1 3 -2 4 -1 -5 -7
right_child=2 -3 -4 5 -6 6 -8
leaf_value=0.24801153834924658 -0.15959699322537677 -0.019004433070078933 0.13312105637267466 0.013747826427789659 -0.049349241039969703 1.2862990496375344 0.038949945389758794
leaf_count=241 82 12120 949 2258 99 22 144
internal_value=0 -0.0618665 0.915332 0.361298 1.34523 0.223288 1.70218
internal_count=15915 14884 1031 2764 340 2424 166
shrinkage=0.12


Tree=13
num_leaves=8
num_cat=0
split_feature=2 2 8 1 7 8 8
split_gain=713.022 470.693 399.734 332.001 323.482 336.758 484.375
threshold=11.500000000000002 2.5000000000000004 47.924999237060554 3.5000000000000004 0.54500001668930065 16.230000495910648 19.394999504089359
decision_type=2 2 2 2 2 2 2
left_child=1 -1 4 -4 5 -2 -7
right_child=2 -3 3 -5 -6 6 -8
leaf_value=0.03815302367638878 -0.15489523732984387 -0.016723898484343937 0.022891528701782227 0.56830226000150041 -0.26663321134291196 0.612136443985833 0.095591574198138102
leaf_count=2764 74 12120 25 45 38 27 822
internal_value=0 -0.0544425 0.805493 3.11261 0.637441 0.755162 0.93349
internal_count=15915 14884 1031 70 961 923 849
shrinkage=0.12


Tree=14
num_leaves=8
num_cat=0
split_feature=0 0 0 1 1 1 2
split_gain=2593.42 1387.08 2934.5 1917.75 734.764 684.458 1617.65
threshold=6.5000000000000009 1.0000000180025095e-35 1.5000000000000002 3.5000000000000004 5.5000000000000009 5.5000000000000009 8.5000000000000018
decision_type=2 2 2 2 2 2 2
left_child=1 -1 3 -3 -5 -4 -7
right_child=-2 2 5 4 -6 6 -8
leaf_value=-0.0016114962867837636 -0.018304685887094548 0.68122649795215995 0.024226983881724829 0.32562140534321465 -0.16301427073166017 0.089298544191334331 1.24337279661842
leaf_count=752 13901 239 704 162 61 73 23
internal_value=0 1.06165 1.70227 3.70887 1.59966 0.54346 3.0483
internal_count=15915 2014 1262 462 223 800 96
shrinkage=0.12


Tree=15
num_leaves=8
num_cat=0
split_feature=8 7 3 7 8 2 2
split_gain=673.952 1265.82 273.45 213.704 183.128 701.909 341.92
threshold=30.304999351501468 0.46500000357627874 1.0000000180025095e-35 0.98500001430511486 10.34999990463257 11.500000000000002 11.500000000000002
decision_type=2 2 2 2 2 2 2
left_child=1 4 3 -2 5 -1 -6
right_child=2 -3 -4 -5 6 -7 -8
leaf_value=0.3716702552977949 -0.0026244458107580219 0.93646723501384255 -0.060363910964413264 0.094640540356363004 0.024051041803284032 -0.21649733654090336 0.15994354227814103
leaf_count=96 12464 24 1184 334 1444 42 327
internal_value=0 0.586713 -0.0432532 -0.000717008 0.495978 1.60552 0.40952
internal_count=15915 1933 13982 12798 1909 138 1771
shrinkage=0.12


Tree=16
num_leaves=8
num_cat=0
split_feature=0 0 0 2 8 8 2
split_gain=1948.74 1123.29 2041.4 859.974 1278.19 1048.3 722.299
threshold=6.5000000000000009 1.0000000180025095e-35 1.5000000000000002 6.5000000000000009 72.895000457763686 49.215000152587898 2.5000000000000004
decision_type=2 2 2 2 2 2 2
left_child=1 -1 3 5 -5 -3 -2
right_child=6 2 -4 4 -6 -7 -8
leaf_value=-0.0046513642448513691 0.04652788842099799 0.31321527982244685 0.064831534802570201 0.11078327436859792 1.0535166400411853 0.80177019180478271 -0.025541196081830544
leaf_count=766 2430 147 846 208 23 111 11384
internal_value=0 0.926533 1.4804 3.1069 1.7054 4.36173 -0.107197
internal_count=15915 2101 1335 489 231 258 13814
shrinkage=0.12


Tree=17
num_leaves=8
num_cat=0
split_feature=0 0 0 0 0 2 8
split_gain=1509.1 869.878 1580.86 699.499 774.775 665.964 989.828
threshold=6.5000000000000009 1.0000000180025095e-35 1.5000000000000002 19.500000000000004 21.500000000000004 6.5000000000000009 72.895000457763686
decision_type=2 2 2 2 2 2 2
left_child=1 -1 5 -2 -5 -3 -7
right_child=3 2 -4 4 -6 6 -8
leaf_value=-0.0040932017831282579 -0.025875329573854342 0.46059860451276907 0.057051751340164783 0.098020059841539248 -0.021776591735009117 0.097489281824001905 0.92709464612214454
leaf_count=766 10704 258 846 1572 1538 208 23
internal_value=0 0.815349 1.30275 -0.0943333 0.323138 2.73407 1.50076
internal_count=15915 2101 1335 13814 3110 489 231
shrinkage=0.12


Tree=18
num_leaves=8
num_cat=0
split_feature=0 0 0 2 2 2 2
split_gain=1168.65 673.634 1224.22 559.237 532.604 515.78 515.722
threshold=6.5000000000000009 1.0000000180025095e-35 1.5000000000000002 2.5000000000000004 9.5000000000000018 11.500000000000002 6.5000000000000009
decision_type=2 2 2 2 2 2 2
left_child=1 5 6 -2 -5 -1 -3
right_child=3 2 -4 4 -6 -7 -8
leaf_value=-0.030719920413966255 0.042297737537158854 0.40532677722531696 0.050205542845321249 -0.035691592781318664 0.025107280831332169 0.35395259552531771 0.15847979362908896
leaf_count=712 2430 258 846 8655 2729 54 231
internal_value=0 0.717507 1.14642 -0.0830133 -0.175973 -0.0300168 2.40598
internal_count=15915 2101 1335 13814 11384 766 489
shrinkage=0.12


Tree=19
num_leaves=8
num_cat=0
split_feature=0 0 0 0 0 8 2
split_gain=905.001 539.797 599.513 521.662 948.033 502.03 658.754
threshold=6.5000000000000009 19.500000000000004 21.500000000000004 1.0000000180025095e-35 1.5000000000000002 72.895000457763686 6.5000000000000009
decision_type=2 2 2 2 2 2 2
left_child=3 -2 -3 -1 5 6 -5
right_child=1 2 -4 4 -6 -7 -8
leaf_value=-0.0031697764524377826 -0.021552471843299625 0.087355340274206578 -0.018024240861972612 0.3545337667395087 0.044180875403925457 0.76716430994180529 0.066772987106814979
leaf_count=766 10704 1572 1538 255 846 26 208
internal_value=0 -0.0730517 0.29368 0.631406 1.00885 2.11727 1.87716
internal_count=15915 13814 3110 2101 1335 489 463
shrinkage=0.12


end of trees

feature importances:
Column_0=41
Column_8=37
Column_2=28
Column_1=20
Column_7=10
Column_3=3
Column_5=1

parameters:
[boosting: gbdt]
[objective: regression]
[metric: rmse]
[tree_learner: serial]
[device_type: cpu]
[data: ]
[valid: ]
[num_iterations: 100]
[learning_rate: 0.12]
[num_leaves: 8]
[num_threads: 0]
[max_depth: -1]
[min_data_in_leaf: 20]
[min_sum_hessian_in_leaf: 0.001]
[bagging_fraction: 0.8]
[bagging_freq: 5]
[bagging_seed: 3]
[feature_fraction: 0.9]
[feature_fraction_seed: 2]
[early_stopping_round: 0]
[max_delta_step: 0]
[lambda_l1: 0]
[lambda_l2: 0]
[min_gain_to_split: 0]
[drop_rate: 0.1]
[max_drop: 50]
[skip_drop: 0.5]
[xgboost_dart_mode: 0]
[uniform_drop: 0]
[drop_seed: 4]
[top_rate: 0.2]
[other_rate: 0.1]
[min_data_per_group: 100]
[max_cat_threshold: 32]
[cat_l2: 10]
[cat_smooth: 10]
[max_cat_to_onehot: 4]
[top_k: 20]
[monotone_constraints: ]
[feature_contri: ]
[forcedsplits_filename: ]
[refit_decay_rate: 0.9]
[verbosity: 0]
[max_bin: 255]
[min_data_in_bin: 3]
[bin_construct_sample_cnt: 200000]
[histogram_pool_size: -1]
[data_random_seed: 1]
[output_model: LightGBM_model.txt]
[snapshot_freq: -1]
[input_model: ]
[output_result: LightGBM_predict_result.txt]
[initscore_filename: ]
[valid_data_initscores: ]
[pre_partition: 0]
[enable_bundle: 1]
[max_conflict_rate: 0]
[is_enable_sparse: 1]
[sparse_threshold: 0.8]
[use_missing: 1]
[zero_as_missing: 0]
[two_round: 0]
[save_binary: 0]
[enable_load_from_binary_file: 1]
[header: 0]
[label_column: ]
[weight_column: ]
[group_column: ]
[ignore_column: ]
[categorical_feature: ]
[predict_raw_score: 0]
[predict_leaf_index: 0]
[predict_contrib: 0]
[num_iteration_predict: -1]
[pred_early_stop: 0]
[pred_early_stop_freq: 10]
[pred_early_stop_margin: 10]
[convert_model_language: ]
[convert_model: gbdt_prediction.cpp]
[num_class: 1]
[is_unbalance: 0]
[scale_pos_weight: 1]
[sigmoid: 1]
[boost_from_average: 1]
[reg_sqrt: 0]
[alpha: 0.9]
[fair_c: 1]
[poisson_max_delta_step: 0.7]
[tweedie_variance_power: 1.5]
[max_position: 20]
[label_gain: ]
[metric_freq: 1]
[is_provide_training_metric: 0]
[eval_at: ]
[num_machines: 1]
[local_listen_port: 12400]
[time_out: 120]
[machine_list_filename: ]
[machines: ]
[gpu_platform_id: -1]
[gpu_device_id: -1]
[gpu_use_dp: 0]

end of parameters

pandas_categorical:null
