tree
version=v2
num_class=1
num_tree_per_iteration=1
label_index=0
max_feature_idx=7
objective=regression
feature_names=Column_0 Column_1 Column_2 Column_3 Column_4 Column_5 Column_6 Column_7
feature_infos=[0:23] [0:6] [1:12] [0:2] [0:1] [0:1] [0:1] [-9.5500001907348633:95.730003356933594]
tree_sizes=3066 3127 3129 3143 3141 3140 3145 3145 3139 3147 3155 3138 3135 3167 3144

Tree=0
num_leaves=40
num_cat=0
split_feature=0 1 1 2 6 2 7 6 2 7 2 7 7 6 1 3 7 7 7 7 0 0 7 7 7 7 2 0 2 7 2 6 7 0 7 7 1 7 7
split_gain=1407.98 752.913 583.55 1497.25 3485.86 502.32 487.469 486.421 315.759 893.054 877.456 304.306 277.874 275.066 273.08 264.64 261.707 256.377 213.97 178.107 263.538 157.343 160.809 137.015 129.02 430.088 215.149 101.378 99.9185 226.125 207.892 246.443 106.558 96.2072 94.8047 89.7807 86.7254 151.516 759.914
threshold=5.5000000000000009 4.5000000000000009 4.5000000000000009 11.500000000000002 0.46500000357627874 4.5000000000000009 58.454999923706062 0.94499999284744274 3.5000000000000004 61.625000000000007 2.5000000000000004 6.1700000762939462 10.550000190734865 0.14500000327825549 5.5000000000000009 1.0000000180025095e-35 30.474999427795414 18.979999542236332 61.885000228881843 62.094999313354499 16.500000000000004 14.500000000000002 72.024997711181655 72.255001068115249 34.284999847412116 39.585000991821296 8.5000000000000018 1.5000000000000002 2.5000000000000004 38.024999618530281 3.5000000000000004 0.17500000447034839 39.585000991821296 18.500000000000004 13.000000000000002 25.515000343322757 2.5000000000000004 75.415000915527358 74.840000152587905
decision_type=2 2 2 2 2 2 2 2 2 2 2 2 2 2 2 2 2 2 2 2 2 2 2 2 2 2 2 2 2 2 2 2 2 2 2 2 2 2 2
left_child=1 12 8 5 13 6 28 14 9 11 -11 -2 -1 16 27 19 17 -5 24 -8 -21 -10 33 -24 -16 -26 -27 -3 34 -30 31 32 -31 -23 -4 -19 -25 38 -38
right_child=2 7 3 4 -6 -7 15 -9 21 10 -12 -13 -14 -15 18 -17 -18 35 -20 20 -22 22 23 36 25 26 -28 -29 29 30 -32 -33 -34 -35 -36 -37 37 -39 -40
leaf_value=1.1093662739139953 1.0482948400579764 0.92797016880983307 0.96603294014604491 0.89660986219708028 1.4811519886414226 0.89162910539047435 0.97269960640292963 1.2368662711200278 0.88134805949028738 0.88464405028858051 1.2689874900957738 0.90015661257020518 0.92173388973255299 1.1393662775647799 0.99407557505008293 0.87460820807478745 0.91493078859977806 1.1125805593675109 0.93491505202942637 1.1756162770804921 0.98627803867027874 0.89845613398727897 1.0256162685682038 0.89564286803460824 1.2622234172660698 1.1041635711841082 0.91648165668679415 0.98592032637020199 0.89864900208890941 0.88751143385720499 0.92426492095221113 1.1568662746963063 0.98951933365419775 0.88115062361022267 0.90107739610078852 1.0111766178693498 0.91341799599787843 0.90442724777749073 1.1979377053485756
leaf_count=20 35 154 60 39 35 3078 60 20 4969 27 33 3644 1473 20 43 31 217 35 41 40 34 1302 24 940 28 37 26 148 359 31 296 20 147 2096 881 58 145 451 28
internal_value=0 0.800548 -0.0832553 0.19379 2.04606 0.0452263 0.441068 1.86665 -0.193333 0.054441 3.88137 -0.00797156 0.445658 1.1414 1.66407 2.08591 0.934712 2.04501 2.65804 2.69505 3.73317 -0.286394 -0.160889 0.101814 3.26968 3.94419 2.49486 1.0881 0.289786 0.53766 0.976578 1.76975 1.39579 -0.28366 0.0650918 2.9475 0.0654268 0.354446 1.15006
internal_count=21125 1990 19135 5441 404 5037 1959 497 13694 3739 60 3679 1493 369 477 165 349 132 175 134 74 9955 4986 1588 134 91 63 302 1794 853 494 198 178 3398 941 93 1564 624 173
shrinkage=1


Tree=1
num_leaves=40
num_cat=0
split_feature=0 1 1 2 6 2 7 6 2 7 2 7 7 6 1 3 7 7 7 7 0 0 7 7 7 7 2 0 2 7 2 6 7 0 7 0 1 2 7
split_gain=1270.7 679.504 526.654 1351.27 3145.99 453.343 439.941 438.995 284.973 805.981 791.904 274.636 250.782 248.247 246.454 238.838 236.19 231.381 193.108 160.741 237.843 142.002 145.13 123.656 116.441 388.155 194.172 91.4939 90.1764 204.077 187.623 222.414 96.1687 86.827 86.5952 111.333 223.58 474.151 214.367
threshold=5.5000000000000009 4.5000000000000009 4.5000000000000009 11.500000000000002 0.46500000357627874 4.5000000000000009 58.454999923706062 0.94499999284744274 3.5000000000000004 61.625000000000007 2.5000000000000004 6.1700000762939462 10.550000190734865 0.14500000327825549 5.5000000000000009 1.0000000180025095e-35 30.474999427795414 18.979999542236332 61.885000228881843 62.094999313354499 16.500000000000004 14.500000000000002 72.024997711181655 72.255001068115249 34.284999847412116 39.585000991821296 8.5000000000000018 1.5000000000000002 2.5000000000000004 38.024999618530281 3.5000000000000004 0.17500000447034839 39.585000991821296 18.500000000000004 46.004999160766609 14.500000000000002 3.5000000000000004 2.5000000000000004 46.764999389648445
decision_type=2 2 2 2 2 2 2 2 2 2 2 2 2 2 2 2 2 2 2 2 2 2 2 2 2 2 2 2 2 2 2 2 2 2 2 2 2 2 2
left_child=1 12 8 5 13 6 28 14 9 11 -11 -2 -1 16 27 19 17 -5 24 -8 -21 -10 33 -24 -16 -26 -27 -3 -4 -30 31 32 -31 -23 -13 -36 38 -38 -37
right_child=2 7 3 4 -6 -7 15 -9 21 10 -12 34 -14 -15 18 -17 -18 -19 -20 20 -22 22 23 -25 25 26 -28 -29 29 30 -32 -33 -34 -35 35 36 37 -39 -40
leaf_value=0.19703168695792558 0.13901383045528617 0.024705387942202683 0.0030918618032706787 -0.0050869024716890775 0.55022810237748287 -0.0098186224778899905 0.06719835502561182 0.31815669059753421 -0.019585616276654758 -0.016454424170984163 0.34867183412566333 -0.0049113673474819337 0.018780922312580318 0.22553168702870607 0.087505522173244588 -0.025988475281384683 0.01231797701477455 0.14000614721087679 0.031303027326740868 0.25996918432414534 0.0800978654940777 -0.0033329451854373637 0.11746918755040195 0.0031077733558728875 0.34224597747836794 0.1920891218894237 0.013791301617255579 0.079758038341596324 -0.0031497199046827623 -0.013730410702766911 0.021185403133465633 0.24215668976306914 0.083177093951804504 -0.019773179448550952 -0.0073584279141934274 0.15699216851592065 0.32249217642471195 0.0012884661693263937 0.0021485672548625144
leaf_count=20 35 154 941 39 35 3078 60 20 4969 27 33 3110 1473 20 43 31 217 93 41 40 34 1302 24 1564 28 37 26 148 359 31 296 20 147 2096 251 25 20 27 211
internal_value=0 0.760521 -0.0790926 0.1841 1.94375 0.042965 0.419014 1.77331 -0.183666 0.0517189 3.6873 -0.00757298 0.423375 1.08433 1.58087 1.98162 0.887976 1.94275 2.52513 2.5603 3.54651 -0.272075 -0.152845 0.0967231 3.10619 3.74698 2.37012 1.0337 0.275296 0.510777 0.927749 1.68127 1.326 -0.269477 -0.0343498 0.337671 0.767688 2.75942 0.37103
internal_count=21125 1990 19135 5441 404 5037 1959 497 13694 3739 60 3679 1493 369 477 165 349 132 175 134 74 9955 4986 1588 134 91 63 302 1794 853 494 198 178 3398 3644 534 283 47 236
shrinkage=0.05


Tree=2
num_leaves=40
num_cat=0
split_feature=0 1 1 2 6 2 7 6 3 2 7 2 7 7 7 1 0 7 1 0 2 7 0 7 7 2 7 2 6 7 0 1 7 7 7 7 7 7 1
split_gain=1146.81 613.252 475.306 1219.52 2839.25 409.142 397.136 396.193 297.195 257.188 727.398 714.693 251.653 233.225 224.383 222.425 214.654 176.13 186.309 192.468 175.927 598.617 131.361 155.83 148.41 106.843 212.05 223.614 179.78 139.131 96.039 86.7529 145.872 756.312 85.6353 83.0944 82.9325 136.04 136.486
threshold=5.5000000000000009 4.5000000000000009 4.5000000000000009 11.500000000000002 0.46500000357627874 4.5000000000000009 62.094999313354499 0.94499999284744274 1.0000000180025095e-35 3.5000000000000004 61.625000000000007 2.5000000000000004 10.550000190734865 18.000000000000004 33.18499946594239 5.5000000000000009 16.500000000000004 18.979999542236332 5.5000000000000009 17.500000000000004 4.5000000000000009 38.704999923706062 15.500000000000002 72.024997711181655 72.255001068115249 2.5000000000000004 38.024999618530281 3.5000000000000004 0.17500000447034839 54.315000534057624 18.500000000000004 2.5000000000000004 75.415000915527358 74.840000152587905 13.000000000000002 28.175000190734867 46.245000839233406 46.764999389648445 3.5000000000000004
decision_type=2 2 2 2 2 2 2 2 2 2 2 2 2 2 2 2 2 2 2 2 2 2 2 2 2 2 2 2 2 2 2 2 2 2 2 2 2 2 2
left_child=1 13 9 5 14 6 25 15 16 10 12 -12 -2 -1 17 -3 -8 -5 19 -19 21 -17 -11 30 -25 34 -27 28 29 -28 -24 -26 33 -33 -4 -20 -14 -38 -39
right_child=2 7 3 4 -6 -7 8 -9 -10 22 11 -13 36 -15 -16 20 -18 18 35 -21 -22 -23 23 24 31 26 27 -29 -30 -31 -32 32 -34 -35 -36 -37 37 38 -40
leaf_value=0.12212456958023486 0.098712165630052973 0.04910058943209368 0.060710425265133386 -0.0048325574550873197 0.52271671136042908 -0.0093276909617265365 0.24697073362767696 0.30224884927272799 -0.022788130332316674 -0.018078084511693876 -0.015631703646094713 0.33123824740901142 -0.0051820976543014785 0.016282111997350461 0.011768849566578865 0.09330051838021193 0.07609297296799282 0.11678912540754448 0.14240743404343015 0.29049508179659428 0.076019370981087589 0.41197137230075898 7.315746482356964e-05 0.14284572675824167 -0.0047012140599093331 -0.0029922340770866876 0.054854670569766319 0.021697570650183948 0.23004884868860245 0.17956207750651698 -0.018784520326480841 0.014022195694798774 0.0042156395806080618 0.31394771671295169 -0.0010063158660389576 0.02488409015789347 0.11799203728235537 -0.002721471575587386 0.065184874153071712
leaf_count=54 63 302 60 39 35 3078 40 20 28 5514 27 33 3098 1439 181 56 34 52 21 23 99 20 996 20 804 359 160 343 20 26 2096 132 368 25 889 53 31 396 91
internal_value=0 0.722495 -0.0751379 0.174895 1.84656 0.0408167 0.398064 1.68465 2.3192 -0.174483 0.049133 3.50294 -0.00719434 0.402206 1.03011 1.50183 3.36919 1.79525 2.29045 3.40118 2.39888 3.54323 -0.258471 -0.130472 0.153123 0.292541 0.537762 0.928547 1.75207 1.44574 -0.254201 0.112433 0.428609 1.23562 0.0579138 1.16471 -0.0417161 0.328644 0.199348
internal_count=21125 1990 19135 5441 404 5037 1959 497 102 13694 3739 60 3679 1493 369 477 74 188 149 75 175 76 9955 4441 1349 1857 908 549 206 186 3092 1329 525 157 949 74 3616 518 487
shrinkage=0.05


Tree=3
num_leaves=40
num_cat=0
split_feature=0 1 1 2 6 2 7 6 2 7 2 7 6 7 1 7 3 7 7 7 7 0 0 7 7 2 0 0 7 1 7 7 2 7 2 4 7 1 1
split_gain=1034.99 553.46 428.963 1100.62 2562.43 369.251 362.209 357.564 232.112 656.476 645.011 229.663 223.508 212.721 200.739 197.105 196.922 183.726 173.468 384.599 127.767 193.725 118.553 140.636 133.94 109.546 86.6752 82.5732 81.4269 78.2945 131.649 682.572 72.9105 165.529 156.846 115.778 78.0276 86.9211 71.8408
threshold=5.5000000000000009 4.5000000000000009 4.5000000000000009 11.500000000000002 0.46500000357627874 4.5000000000000009 58.454999923706062 0.94499999284744274 3.5000000000000004 61.625000000000007 2.5000000000000004 6.1700000762939462 0.14500000327825549 10.550000190734865 5.5000000000000009 30.804999351501468 1.0000000180025095e-35 18.979999542236332 40.014999389648445 34.284999847412116 62.094999313354499 16.500000000000004 15.500000000000002 72.024997711181655 72.255001068115249 6.5000000000000009 18.500000000000004 1.5000000000000002 25.515000343322757 2.5000000000000004 75.415000915527358 74.840000152587905 2.5000000000000004 38.395000457763679 3.5000000000000004 1.0000000180025095e-35 27.814999580383304 5.5000000000000009 5.5000000000000009
decision_type=2 2 2 2 2 2 2 2 2 2 2 2 2 2 2 2 2 2 2 2 2 2 2 2 2 2 2 2 2 2 2 2 2 2 2 2 2 2 2
left_child=1 13 8 5 12 6 32 14 9 11 -11 -2 15 -1 27 17 20 -5 19 -16 -8 -22 -10 26 -25 -20 -24 -3 -19 -26 31 -31 36 -34 35 38 37 -4 -35
right_child=2 7 3 4 -6 -7 16 -9 22 10 -12 -13 -14 -15 18 -17 -18 28 25 -21 21 -23 23 24 29 -27 -28 -29 -30 30 -32 -33 33 34 -36 -37 -38 -39 -40
leaf_value=0.18107387453317644 0.12712752759456633 0.021015090360638821 0.00087127537548947493 -0.0045909297007780811 0.49658086499997545 -0.0088613060603790882 0.061852484339227277 0.28713641010224816 -0.017174180054285192 -0.014850117597315048 0.3146763322028247 -0.0015660519506061567 0.21148536905646323 0.016905617122509937 0.078585788070462473 0.0097701121060717322 -0.023764897810835992 0.18489430304084506 0.13446873243277271 0.31420318057824831 0.2346221920475364 0.07228832148453769 6.9500458049008169e-05 0.13570344194769859 -0.0044661522926345695 0.029539303350277615 -0.017845294175968144 0.073315106392712201 0.089221052263603842 0.013321086295852156 0.004004858300575744 0.29825032806396484 -0.0017746466708515305 0.091356922954320907 0.019793290889834707 0.19230781435966493 -0.0060819013126172626 0.059338799195497165 0.023516677867155524
leaf_count=20 35 154 147 39 35 3078 60 20 5514 27 33 3644 20 1473 43 214 31 35 42 29 40 34 996 20 804 61 2096 148 61 132 368 25 377 100 292 20 682 112 64
internal_value=0 0.68637 -0.071381 0.166151 1.75424 0.0387759 0.37816 1.60042 -0.165759 0.0466763 3.32779 -0.00683463 0.978604 0.382096 1.42673 0.792295 1.79602 1.73848 2.27893 3.46974 2.32147 3.20073 -0.245547 -0.123949 0.145466 1.44652 -0.241491 0.932911 2.48204 0.106812 0.407178 1.17384 0.247756 0.459496 0.851536 1.57466 0.0558165 0.523091 1.29765
internal_count=21125 1990 19135 5441 404 5037 1959 497 13694 3739 60 3679 369 1493 477 349 165 135 175 72 134 74 9955 4441 1349 103 3092 302 96 1329 525 157 1794 853 476 184 941 259 164
shrinkage=0.05


Tree=4
num_leaves=40
num_cat=0
split_feature=0 1 1 2 7 1 2 7 6 7 2 7 2 7 7 0 2 3 6 7 1 0 7 0 0 7 7 0 7 7 1 2 5 1 1 0 7 1 7
split_gain=934.082 499.498 387.139 993.307 2357.83 3533.68 333.249 326.894 322.701 251.114 209.481 592.47 582.122 210.476 197.95 187.232 355.731 177.722 150.777 133.286 131.093 206.429 115.31 174.837 106.994 126.924 120.881 78.2244 74.8465 122.776 123.179 228.254 76.7548 70.6608 129.911 298.227 768.495 69.3896 66.6987
threshold=5.5000000000000009 4.5000000000000009 4.5000000000000009 11.500000000000002 44.715000152587898 5.5000000000000009 4.5000000000000009 58.454999923706062 0.94499999284744274 33.414999008178718 3.5000000000000004 61.625000000000007 2.5000000000000004 10.550000190734865 18.000000000000004 1.5000000000000002 2.5000000000000004 1.0000000180025095e-35 0.12499999627470972 18.979999542236332 5.5000000000000009 17.500000000000004 62.094999313354499 16.500000000000004 15.500000000000002 72.024997711181655 72.255001068115249 18.500000000000004 46.245000839233406 46.764999389648445 3.5000000000000004 2.5000000000000004 1.0000000180025095e-35 2.5000000000000004 3.5000000000000004 19.500000000000004 75.415000915527358 1.0000000180025095e-35 28.175000190734867
decision_type=2 2 2 2 2 2 2 2 2 2 2 2 2 2 2 2 2 2 2 2 2 2 2 2 2 2 2 2 2 2 2 2 2 2 2 2 2 2 2
left_child=1 14 10 6 9 -6 7 -4 15 19 11 13 -13 37 -1 18 -17 22 -3 -5 21 -21 -9 -24 -12 27 -27 -26 32 -30 -31 -32 -15 -28 35 -35 -37 -2 -22
right_child=2 8 3 4 5 -7 -8 17 -10 -11 24 12 -14 28 -16 16 -18 -19 -20 20 38 -23 23 -25 25 26 33 -29 29 30 31 -33 -34 34 -36 36 -38 -39 -40
leaf_value=0.11213291024582253 0.038632110890466725 0.034047107374494227 0.011768393618248843 -0.0043613831202189129 0.035946451442746018 0.91996342554688459 -0.0084182410488235562 0.058759860694408417 0.27277959346771241 -0.0057745703364625303 -0.01631547094045405 -0.014107612630835287 0.29894251525402071 -0.0069831396004046272 0.014622725988074859 0.24560273264191654 0.070062342838694655 -0.022576652587421479 0.1469207840322545 0.092435770897593889 0.12854807859375364 0.27035013404877289 0.22289108426310122 0.068673907308017507 6.6025818447511362e-05 0.12891826793551445 -0.0042428455866910337 -0.016953030221150009 0.11217073359106096 -0.0025070951536598834 0.15766926589044367 -0.0035445409240546055 0.024119746419185767 0.0090391822190860581 -0.0048304375412839438 0.30965881457157213 -0.0080099978380733083 0.14359403054320044 0.024059088647897756
leaf_count=54 32 286 1794 39 26 20 3078 60 20 163 5514 27 33 2885 1439 38 120 31 33 56 21 23 40 34 996 20 804 2096 31 396 37 54 213 177 270 33 45 31 56
internal_value=0 0.652051 -0.067812 0.157843 1.66652 8.40603 0.0368371 0.359252 1.5204 0.800555 -0.157471 0.0443425 3.1614 -0.0064929 0.362991 1.3554 2.24562 1.70621 0.914474 1.56627 1.97965 2.88467 2.2054 3.04069 -0.23327 -0.117751 0.138193 -0.229416 -0.0380642 0.313778 0.190947 1.24008 -0.0968938 0.101471 0.386819 0.898684 2.52777 1.8056 1.05112
internal_count=21125 1990 19135 5441 404 46 5037 1959 497 358 13694 3739 60 3679 1493 477 158 165 319 195 156 79 134 74 9955 4441 1349 3092 3616 518 487 91 3098 1329 525 255 78 63 77
shrinkage=0.05


Tree=5
num_leaves=40
num_cat=0
split_feature=0 1 1 2 6 2 7 6 2 7 2 7 6 1 7 7 3 7 7 7 0 0 7 1 0 3 2 7 7 2 1 7 7 7 1 2 5 0 2
split_gain=843.009 450.797 349.393 896.459 2189.1 300.757 295.022 291.238 189.057 539.318 569.057 195.321 187.083 186.884 180.434 169.335 160.394 154.66 150.347 104.067 158.989 97.1429 97.0536 92.6648 179.985 532.601 1650.12 90.6606 318.228 149.755 71.2171 69.6017 68.6416 109.486 100.794 213.727 66.9504 65.8129 65.8017
threshold=5.5000000000000009 4.5000000000000009 4.5000000000000009 11.500000000000002 0.46500000357627874 4.5000000000000009 58.454999923706062 0.94499999284744274 3.5000000000000004 62.094999313354499 2.5000000000000004 6.1700000762939462 0.14500000327825549 5.5000000000000009 10.550000190734865 30.804999351501468 1.0000000180025095e-35 61.885000228881843 18.979999542236332 62.094999313354499 17.500000000000004 14.500000000000002 72.024997711181655 2.5000000000000004 19.500000000000004 1.0000000180025095e-35 7.5000000000000009 34.284999847412116 39.585000991821296 8.5000000000000018 5.5000000000000009 25.515000343322757 46.245000839233406 46.764999389648445 3.5000000000000004 2.5000000000000004 1.0000000180025095e-35 1.5000000000000002 2.5000000000000004
decision_type=2 2 2 2 2 2 2 2 2 2 2 2 2 2 2 2 2 2 2 2 2 2 2 2 2 2 2 2 2 2 2 2 2 2 2 2 2 2 2
left_child=1 14 8 5 12 6 38 13 9 11 -11 -2 15 37 -1 18 19 27 -5 -8 30 -10 -23 -24 -25 26 -26 -15 -29 -30 -21 -20 36 -34 -35 -36 -13 -3 -4
right_child=2 7 3 4 -6 -7 16 -9 21 10 -12 32 -14 17 -16 -17 -18 -19 31 20 -22 22 23 24 25 -27 -28 28 29 -31 -32 -33 33 34 35 -37 -38 -39 -40
leaf_value=0.16641353584825994 0.11734009035996029 0.017675621032279421 0.0020628647599666202 -0.0041433152480003163 0.45707233878916931 -0.0079973299203947665 0.055821869373321537 0.25914060413837431 -0.016027949080785819 -0.012333855290825551 0.30980521178451081 -0.0061251910517188517 0.19203529387712481 0.071665786553260891 0.015216663995383401 0.0071294303733211405 -0.021447820240451443 0.02051765931452193 0.16847860819759913 0.25119385101177077 0.041828446745872501 -0.010918421718374711 -0.005778576808918209 0.0019533950604184503 0.0034622577349505117 -0.023738213438216763 0.46592243385634258 0.30001824166226604 0.16205306186063873 0.0054702538710374102 0.13000378395346077 0.080024809475804939 0.10656220163068464 -0.0011718171993270515 0.14978580297650518 -0.0056356489387425516 0.022913759478101148 0.064367108580631188 0.021237652274754867
leaf_count=20 35 154 941 39 35 3078 60 20 4969 26 29 2913 20 43 1473 214 31 41 35 27 25 3398 955 451 62 92 28 28 37 26 22 61 31 400 37 55 213 148 853
internal_value=0 0.619449 -0.0644214 0.149951 1.5832 0.0349952 0.34129 1.44438 -0.149597 0.0421254 3.15043 -0.00427976 0.866292 1.28763 0.344841 0.695838 1.6209 2.10989 1.57284 2.09513 2.88866 -0.221607 -0.122992 0.0810959 0.377806 1.21721 2.94678 2.6299 3.19532 1.94863 3.93564 2.24547 -0.0268306 0.308482 0.193634 1.13742 -0.0829306 0.811151 0.223599
internal_count=21125 1990 19135 5441 404 5037 1959 497 13694 3739 55 3684 369 477 1493 349 165 175 135 134 74 9955 4986 1588 633 182 90 134 91 63 49 96 3649 523 492 92 3126 302 1794
shrinkage=0.05


Tree=6
num_leaves=40
num_cat=0
split_feature=0 1 1 2 7 0 6 2 7 7 0 2 2 7 2 7 7 3 7 7 7 7 0 3 7 1 0 2 7 7 0 7 7 1 0 7 5 2 7
split_gain=760.816 406.844 315.327 809.055 2093.75 3404.89 274.166 271.434 266.257 229.269 210.572 330.383 170.624 486.734 513.574 176.277 168.013 144.756 112.365 101.365 93.9204 147.192 87.8572 107.711 123.068 145.898 494.527 1489.23 86.6101 103.012 71.785 61.949 98.811 90.967 207.304 355.963 60.4227 59.3861 149.809
threshold=5.5000000000000009 4.5000000000000009 4.5000000000000009 11.500000000000002 44.715000152587898 11.500000000000002 0.10500000044703485 4.5000000000000009 58.454999923706062 33.414999008178718 1.5000000000000002 2.5000000000000004 3.5000000000000004 62.094999313354499 2.5000000000000004 6.1700000762939462 18.000000000000004 1.0000000180025095e-35 13.000000000000002 58.18499946594239 62.094999313354499 65.625000000000014 15.500000000000002 1.0000000180025095e-35 72.024997711181655 2.5000000000000004 19.500000000000004 7.5000000000000009 32.225000381469734 27.814999580383304 18.500000000000004 46.245000839233406 46.764999389648445 3.5000000000000004 14.500000000000002 54.045000076293952 1.0000000180025095e-35 2.5000000000000004 38.024999618530281
decision_type=2 2 2 2 2 2 2 2 2 2 2 2 2 2 2 2 2 2 2 2 2 2 2 2 2 2 2 2 2 2 2 2 2 2 2 2 2 2 2
left_child=1 16 12 7 9 -6 10 8 37 18 -3 -12 13 15 -15 -2 -1 20 -5 -8 -10 -22 -14 24 -24 -26 -27 -28 29 -20 -31 36 -33 -34 -35 -36 -17 -4 -39
right_child=2 6 3 4 5 -7 19 -9 17 -11 11 -13 22 14 -16 31 -18 -19 28 -21 21 -23 23 -25 25 26 27 -29 -30 30 -32 32 33 34 35 -37 -38 38 -40
leaf_value=0.10296548911266856 0.11147308613572803 0.029332829697930315 0.0019597217357469037 -0.032810172989316613 0.88321877181529995 0.01545996625477878 0.11482179707441575 -0.0075974634404961678 0.053030776605010037 -0.0093646334198537792 0.23458825941714975 0.060277395541066529 -0.014741770843078381 -0.011717163771390916 0.29431494510379336 -0.0058189306986207133 0.013130755460098818 -0.020375428925598821 0.1166509330380654 0.24379596495628358 0.20222499061375859 0.060724329247194175 -0.0073623056051569657 -0.021643235788302868 -0.0017037356060139741 0.0062866999284928067 0.0032891450840378967 0.44262632775519584 0.18000358322945734 0.072139707944184853 -0.023258168749144357 0.10123408951105611 -0.0011132261659950017 -0.011800369935540053 0.28875984735786914 -0.0095534566044807451 0.021768070918293626 -0.0044041919799568266 0.038038535633674438
leaf_count=54 35 286 941 23 20 26 39 3078 60 163 36 111 5514 26 29 2913 1439 31 69 25 40 34 2599 821 632 299 62 28 21 49 33 31 400 52 20 20 213 359 494
internal_value=0 0.588476 -0.0612003 0.142453 1.50404 7.85493 1.37216 0.0332455 0.324225 0.688003 1.08661 2.05932 -0.142118 0.0400191 2.9929 -0.00406576 0.327599 1.53986 1.41966 3.30405 1.99037 2.74422 -0.210526 -0.105847 -0.0316807 0.262496 0.744328 2.79944 1.69725 1.43261 0.674958 -0.025489 0.293058 0.183952 1.08055 2.79206 -0.078784 0.21242 0.403515
internal_count=21125 1990 19135 5441 404 46 497 5037 1959 358 433 147 13694 3739 55 3684 1493 165 195 64 134 74 9955 4441 3620 1021 389 90 172 151 82 3649 523 492 92 40 3126 1794 853
shrinkage=0.05


Tree=7
num_leaves=40
num_cat=0
split_feature=0 1 1 2 6 6 2 7 1 0 7 7 7 7 7 3 2 7 2 7 0 7 7 2 0 3 1 7 0 2 2 1 7 0 0 1 7 0 2
split_gain=686.636 367.177 284.583 730.172 1915.63 248.565 244.969 240.297 174.196 172.217 157.673 155.316 153.044 139.315 132.689 130.642 121.148 448.224 432.141 84.7632 142.43 81.9442 283.773 134.293 79.4497 81.7496 85.6368 120.041 495.682 1344.03 64.7737 72.7615 64.4118 60.5654 56.2763 62.642 54.9063 93.1445 183.04
threshold=5.5000000000000009 4.5000000000000009 4.5000000000000009 11.500000000000002 0.46500000357627874 0.94499999284744274 4.5000000000000009 58.454999923706062 5.5000000000000009 22.500000000000004 30.474999427795414 10.550000190734865 10.550000190734865 61.885000228881843 18.979999542236332 1.0000000180025095e-35 3.5000000000000004 61.625000000000007 2.5000000000000004 62.094999313354499 16.500000000000004 34.284999847412116 39.585000991821296 8.5000000000000018 14.500000000000002 1.0000000180025095e-35 2.5000000000000004 72.024997711181655 19.500000000000004 7.5000000000000009 1.5000000000000002 1.0000000180025095e-35 65.125000000000014 9.5000000000000018 6.5000000000000009 5.5000000000000009 46.004999160766609 14.500000000000002 2.5000000000000004
decision_type=2 2 2 2 2 2 2 2 2 2 2 2 2 2 2 2 2 2 2 2 2 2 2 2 2 2 2 2 2 2 2 2 2 2 2 2 2 2 2
left_child=1 12 11 6 9 8 7 -4 -3 10 14 30 -1 21 -5 19 17 36 -19 -9 32 -10 -23 -24 33 26 -26 -28 -29 -30 31 -2 -21 -18 35 -8 -13 -38 -39
right_child=2 5 3 4 -6 -7 34 15 13 -11 -12 16 -14 -15 -16 -17 24 18 -20 20 -22 22 23 -25 25 -27 27 28 29 -31 -32 -33 -34 -35 -36 -37 37 38 -40
leaf_value=0.15294458483112977 0.037343686569615141 0.034936031818833972 0.010089926307355423 -0.0078855955600738523 0.42496177136898039 0.23786300249397754 -0.0095940580168230975 0.050379235694805784 0.065426386962103289 0.18059980462305247 0.0046276552240929704 -0.0042456271193346213 0.013695611970629405 0.016978972477883828 0.10684715887117718 -0.019356657853049616 -0.0083981442456856539 -0.01223998801023872 0.25748411626978357 0.13085533566772939 0.055111324874793782 0.28162659949490004 0.15151574128382916 0.003236893191933632 -0.0084862635485380249 -0.01980624248879418 -0.002632845216737888 0.0029495004215572456 0.003124688030971635 0.42049501406561052 0.0073919173959340603 0.15350249409675598 0.25775268316268923 -0.019519694749354444 -0.008882558281866541 0.05006503193554554 -0.0090527945424456052 0.069328693064951138 -0.011462767701596023
leaf_count=20 28 302 1794 35 35 20 88 60 43 20 224 3082 1473 41 90 31 2216 27 33 20 34 28 37 26 2513 841 1137 395 62 28 37 26 20 2735 2902 88 251 155 128
internal_value=0 0.559053 -0.0581403 0.135331 1.42884 1.30355 0.0315832 0.308014 1.15874 0.758203 0.594662 -0.135012 0.311219 1.9526 1.49444 1.46287 -0.143722 0.0113598 2.72217 1.89085 2.60701 2.44614 2.98369 1.80643 -0.20115 -0.111913 -0.0541083 0.12502 0.541552 2.65946 1.16707 1.86544 3.88608 -0.290837 -0.144352 0.40471 -0.0336204 0.262414 0.655739
internal_count=21125 1990 19135 5441 404 497 5037 1959 477 369 349 13694 1493 175 125 165 13603 3676 60 134 74 134 91 63 9927 4976 4135 1622 485 90 91 54 40 4951 3078 176 3616 534 283
shrinkage=0.05


Tree=8
num_leaves=40
num_cat=0
split_feature=0 1 2 1 7 2 7 2 0 6 0 2 7 7 1 7 0 7 3 1 1 7 7 7 0 6 7 0 2 1 0 0 7 1 7 2 1 2 7
split_gain=619.689 331.377 261.437 665.632 4724.26 238.395 605.867 672.486 361.671 233.562 195.837 292.887 173.864 142.607 95.8464 270.474 190.645 92.8401 92.5341 104.858 63.9005 141.953 349.251 67.0233 123.872 71.2146 171.617 139.413 59.9841 144.042 57.6759 52.5231 67.0824 292.598 691.733 1745.64 61.505 157.854 298.512
threshold=5.5000000000000009 4.5000000000000009 11.500000000000002 5.5000000000000009 44.715000152587898 3.5000000000000004 61.625000000000007 2.5000000000000004 14.500000000000002 0.10500000044703485 1.5000000000000002 2.5000000000000004 6.1700000762939462 18.000000000000004 4.5000000000000009 33.18499946594239 18.500000000000004 58.18499946594239 1.0000000180025095e-35 2.5000000000000004 3.5000000000000004 51.295000076293952 52.655000686645515 13.000000000000002 17.500000000000004 0.62500000000000011 33.414999008178718 17.500000000000004 2.5000000000000004 4.5000000000000009 9.5000000000000018 16.500000000000004 72.024997711181655 3.5000000000000004 75.415000915527358 7.5000000000000009 4.5000000000000009 4.5000000000000009 63.414999008178718
decision_type=2 2 2 2 2 2 2 2 2 2 2 2 2 2 2 2 2 2 2 2 2 2 2 2 2 2 2 2 2 2 2 2 2 2 2 2 2 2 2
left_child=1 13 5 14 -5 6 12 -8 -9 10 -3 -12 30 -1 -4 16 -16 -11 19 -7 -14 23 -23 24 -22 -25 -27 -28 -24 -30 -2 36 -33 34 35 -34 -21 38 -38
right_child=2 9 3 4 -6 18 7 8 -10 17 11 -13 20 -15 15 -17 -18 -19 -20 31 21 22 28 25 -26 26 27 -29 29 -31 -32 32 33 -35 -36 -37 37 -39 -40
leaf_value=0.094553748738986476 0.14061603361208524 0.0246336100766292 -0.0030969462300861738 0.020432661645480493 0.8320992025732995 -0.012002380830998183 -0.029592567053623498 0.42167248981339595 0.13467406449110614 0.10285850258973928 0.2195721573299832 0.055450475699192772 -0.0032292321001498518 0.011789436640426299 0.055503047873865667 -0.017893750334910134 0.21794614644022658 0.22628987199068071 -0.020158505617393314 -0.011411843225669927 0.01137356312515644 0.21449240577806319 -0.017580899709867218 0.00022228685343007502 0.1577955343294889 0.17276399608701468 -0.014422946700707396 0.11268104836344719 -0.028486528753169944 0.12796543149217485 0.040009379932849573 -0.0010926937361064269 -0.003644778111151287 -0.0045612923294687888 8.9028742268820792e-05 0.56473599259148954 0.019715175807344179 -0.004666509158322521 0.20179571509361269
leaf_count=54 28 286 905 173 20 4929 32 21 23 39 36 111 2902 1439 73 114 24 25 1403 2163 52 28 59 1796 20 20 94 28 28 31 29 1659 35 390 107 22 226 1676 25
internal_value=0 0.5311 -0.0552333 0.376114 2.09086 -0.086908 0.0935116 2.89623 5.43301 1.23837 0.974818 1.91287 0.0518681 0.295658 0.0795664 0.686497 1.9139 3.02148 -0.161032 -0.130786 0.0322963 0.162699 1.11477 0.0935438 1.04093 0.058347 0.740083 0.294969 0.361361 1.07434 1.7886 -0.0453432 0.0787571 0.380045 1.50075 4.31461 -0.112491 0.0174308 0.757014
internal_count=21125 1990 19135 1309 193 17826 5191 76 44 497 433 147 5115 1493 1116 211 97 64 12635 11232 5058 2156 146 2010 72 1938 142 122 118 59 57 6303 2213 554 164 57 4090 1927 251
shrinkage=0.05


Tree=9
num_leaves=40
num_cat=0
split_feature=0 1 2 1 7 2 7 2 0 6 1 7 7 7 1 7 0 3 1 7 7 2 0 7 7 7 0 2 0 0 2 0 2 1 1 7 0 6 7
split_gain=559.269 299.068 235.947 600.733 4263.65 215.151 546.795 606.919 326.408 212.15 162.426 156.912 129.809 125.499 86.5014 244.103 172.057 83.512 94.6342 74.0861 253.03 120.422 58.4336 82.8473 283.665 59.8968 56.2119 52.6398 52.374 52.0525 51.5597 71.2579 363.633 1021.59 51.3584 64.5902 49.2199 47.7548 210.426
threshold=5.5000000000000009 4.5000000000000009 11.500000000000002 5.5000000000000009 44.715000152587898 3.5000000000000004 61.625000000000007 2.5000000000000004 14.500000000000002 0.94499999284744274 5.5000000000000009 6.1700000762939462 10.550000190734865 61.885000228881843 4.5000000000000009 33.18499946594239 18.500000000000004 1.0000000180025095e-35 2.5000000000000004 34.284999847412116 39.585000991821296 8.5000000000000018 14.500000000000002 51.295000076293952 52.655000686645515 13.000000000000002 19.500000000000004 7.5000000000000009 3.5000000000000004 9.5000000000000018 8.5000000000000018 19.500000000000004 7.5000000000000009 3.5000000000000004 5.5000000000000009 41.565000534057624 19.500000000000004 0.46500000357627874 32.454999923706062
decision_type=2 2 2 2 2 2 2 2 2 2 2 2 2 2 2 2 2 2 2 2 2 2 2 2 2 2 2 2 2 2 2 2 2 2 2 2 2 2 2
left_child=1 12 5 14 -5 6 11 -8 -9 10 -3 29 -1 19 -4 16 -16 18 -7 -12 -21 -22 37 25 -25 36 -27 -14 -29 -2 31 -20 -33 -34 -28 -36 -24 -13 -39
right_child=2 9 3 4 -6 17 7 8 -10 -11 13 22 27 -15 15 -17 -18 -19 30 20 21 -23 23 24 -26 26 34 28 -30 -31 -32 32 33 -35 35 -37 -38 38 -40
leaf_value=0.14056966606527568 0.13358523215034179 0.029923257091859765 -0.0029420990171682773 0.019411029647416679 0.79049423187971124 -0.011402261634537718 -0.028112938837148251 0.40058886862936477 0.12794036081303722 0.21835829876363277 0.059798945555853293 -0.0060496467930518921 0.019401508434951874 0.013914654531129979 0.052727898024022585 -0.0169990627683307 0.20704883465853832 -0.019150580180887233 -0.0019769762641066589 0.26450211310626143 0.14180448638224924 0.001392069458961487 0.012701271187203626 0.18607751382514837 0.011947437687973742 0.010576853575110198 -0.0095298744951296289 0.015283900200064933 -0.016182678649984017 0.038008910880006595 -0.0085537522968229598 0.000287229188152614 0.30077723316848282 -0.013603655871463151 0.0059766282158141793 0.089058683607085007 0.11751818188599178 0.16119843023302763 0.0021493343713646115
leaf_count=20 28 302 905 173 20 4929 32 21 23 20 43 2294 944 41 73 114 24 1403 3460 28 37 26 24 28 142 1246 913 267 262 29 2099 631 40 73 121 29 21 23 217
internal_value=0 0.504545 -0.0524716 0.357308 1.98632 -0.0825626 0.088836 2.75142 5.16136 1.17645 1.04267 0.0492747 0.280876 1.80924 0.0755881 0.652172 1.81821 -0.15298 -0.124247 2.27767 2.7888 1.67713 0.0306815 0.138378 0.812554 0.0896905 0.0674219 0.246517 -0.00601363 1.69917 -0.043076 0.0208322 0.301593 1.95363 -0.101503 0.440783 1.23232 -0.0765897 0.347831
internal_count=21125 1990 19135 1309 193 17826 5191 76 44 497 477 5115 1493 175 1116 211 97 12635 11232 134 91 63 5058 2524 170 2354 2309 1473 529 57 6303 4204 744 113 1063 150 45 2534 240
shrinkage=0.05


Tree=10
num_leaves=40
num_cat=0
split_feature=0 1 1 2 7 0 6 2 7 0 2 6 0 7 7 7 7 3 0 0 0 2 7 7 7 7 0 2 7 7 7 7 3 1 0 0 5 2 7
split_gain=504.741 269.909 217.728 533.506 1539.75 3135.17 198.936 190.733 197.974 182.177 259.587 177.343 140.837 120.567 119.206 117.104 118.874 104.088 91.448 166.191 129.672 124.085 295.454 405.231 85.0275 67.2074 172.084 62.81 267.75 56.6984 138.997 777.723 65.6998 135.667 326.133 54.8507 85.5902 54.5035 133.453
threshold=5.5000000000000009 4.5000000000000009 4.5000000000000009 11.500000000000002 44.715000152587898 11.500000000000002 0.10500000044703485 4.5000000000000009 58.454999923706062 1.5000000000000002 2.5000000000000004 0.41499999165534979 22.500000000000004 18.000000000000004 10.550000190734865 30.474999427795414 18.979999542236332 1.0000000180025095e-35 14.500000000000002 18.500000000000004 9.5000000000000018 2.5000000000000004 46.534999847412116 52.655000686645515 58.18499946594239 62.914999008178718 17.500000000000004 3.5000000000000004 52.895000457763679 72.024997711181655 75.415000915527358 75.104999542236342 1.0000000180025095e-35 2.5000000000000004 20.500000000000004 15.500000000000002 1.0000000180025095e-35 2.5000000000000004 38.395000457763679
decision_type=2 2 2 2 2 2 2 2 2 2 2 2 2 2 2 2 2 2 2 2 2 2 2 2 2 2 2 2 2 2 2 2 2 2 2 2 2 2 2
left_child=1 13 14 7 11 -6 9 8 37 -3 -11 12 15 -1 -2 16 -5 25 20 21 27 22 35 -24 -8 -10 -27 28 -16 -21 31 32 33 -31 -35 -20 -37 -4 -39
right_child=2 6 3 4 5 -7 24 -9 17 10 -12 -13 -14 -15 18 -17 -18 -19 19 29 -22 -23 23 -25 -26 26 -28 -29 -30 30 -32 -33 -34 34 -36 36 -38 38 -40
leaf_value=0.086689464306389852 0.051181910316981785 0.020468447860200092 0.00061271776287845174 -0.012856717301266536 0.80420923247933396 -0.028470266696352227 0.092021004741008466 -0.0062272853382014087 0.050874871101932256 0.20562818717832365 0.051117932970996371 -0.099490309277406111 0.1647345773689449 0.010589131181431861 0.0046627141118237058 0.0028210935541453531 0.095739190628131243 -0.016423370232505185 -0.019738648549060933 -0.011996472695718109 -0.016569694692046763 0.0018485022570951246 0.20848615565812409 0.0051390112054591278 0.21014479321241378 0.17991805672645569 0.0079883364113894385 -0.0070252727367494938 0.18989443119615318 -0.014768702299757439 -0.013266736549054478 0.32501255571842197 -0.021784527318657571 -0.030174167490062805 0.2227530084103346 0.013762846165759998 0.10995925544947385 -0.0041585730218923886 0.035664426697566795
leaf_count=54 91 286 941 35 20 26 39 3078 69 36 111 26 20 1439 795 187 90 31 110 3110 3747 2507 49 49 25 43 22 2216 20 66 423 21 106 26 25 308 25 377 476
internal_value=0 0.479318 -0.049848 0.119378 1.22505 6.67129 1.11763 0.0306966 0.274615 0.874396 1.77914 0.525253 0.722216 0.266832 -0.117086 0.557313 1.30665 1.32284 -0.124717 -0.0430086 -0.206993 0.130699 0.56504 2.13625 2.76326 1.70486 2.43453 -0.0532053 0.184166 -0.183189 0.0813744 0.682432 0.134565 0.651207 1.87619 0.217458 0.419696 0.178206 0.361277
internal_count=21125 1990 19135 5441 404 46 497 5037 1959 433 147 358 332 1493 13694 312 125 165 13603 6825 6778 3048 541 98 64 134 65 3031 815 3777 667 244 223 117 51 443 333 1794 853
shrinkage=0.05


Tree=11
num_leaves=40
num_cat=0
split_feature=0 1 1 2 6 6 2 7 1 7 7 7 7 7 3 2 7 2 2 7 7 0 7 7 2 7 7 0 0 2 1 0 1 2 7 2 6 7 7
split_gain=455.528 243.593 196.499 481.489 1520.59 181.076 172.137 178.672 151.502 150.779 150.504 113.058 110.113 107.584 93.939 82.6702 338.115 337.519 70.3393 68.446 77.9271 70.4199 66.9992 225.601 107.979 61.0056 124.401 60.5596 68.6827 51.4737 63.6705 50.1214 56.4972 49.1894 120.883 131.676 168.166 77.4478 66.057
threshold=5.5000000000000009 4.5000000000000009 4.5000000000000009 11.500000000000002 0.46500000357627874 0.94499999284744274 4.5000000000000009 58.454999923706062 5.5000000000000009 33.18499946594239 31.945000648498539 61.885000228881843 10.550000190734865 10.550000190734865 1.0000000180025095e-35 3.5000000000000004 62.094999313354499 2.5000000000000004 4.5000000000000009 13.000000000000002 27.814999580383304 18.500000000000004 34.284999847412116 39.585000991821296 8.5000000000000018 62.094999313354499 65.625000000000014 15.500000000000002 18.500000000000004 1.5000000000000002 1.0000000180025095e-35 6.5000000000000009 5.5000000000000009 2.5000000000000004 38.024999618530281 3.5000000000000004 0.17500000447034839 39.585000991821296 27.814999580383304
decision_type=2 2 2 2 2 2 2 2 2 2 2 2 2 2 2 2 2 2 2 2 2 2 2 2 2 2 2 2 2 2 2 2 2 2 2 2 2 2 2
left_child=1 12 13 6 9 8 7 33 -3 10 19 22 -1 29 25 16 -15 -18 -17 -5 -21 -22 -10 -24 -25 -9 -27 -20 -29 30 -2 32 -8 38 -35 36 37 -36 -4
right_child=2 5 3 4 -6 -7 31 14 11 -11 -12 -13 -14 15 -16 18 17 -19 27 20 21 -23 23 24 -26 26 -28 28 -30 -31 -32 -33 -34 34 35 -37 -38 -39 -40
leaf_value=0.12920670837163925 0.027432562943015784 0.025457222125684187 0.022079032691297643 -0.036282950412967932 0.37315599484103068 0.20047686636447906 -0.0083362925459038138 0.043514558846751851 0.05472232533055682 -0.0042586586167984415 0.18583331904595807 0.011270249285167311 0.011092266046365588 -0.0013875297399572628 -0.015602202377011699 -0.01955565452734858 -0.00729115169781905 0.24080214135605715 -0.010464754338093584 0.094952210341242779 0.063120028619156332 -0.034837811448960566 0.24854769319561976 0.13284670398444742 -0.00011375850209823023 0.17112827017903329 0.041042715486358197 0.0064256106093879724 -0.007273981831257369 0.0031933220304750107 0.13609274774789812 -0.0074872062300851156 0.04832116026769985 -0.0049190869181310569 -0.022496253144251365 0.012093688179487111 0.20223700284957885 0.064468878558298359 -0.007581716307706563
leaf_count=20 28 302 259 23 35 20 88 60 43 181 21 41 1473 3621 31 1217 26 29 4824 69 43 32 28 37 26 40 34 1474 2412 37 26 2902 88 359 31 296 20 147 682
internal_value=0 0.455352 -0.0473556 0.11341 1.1638 1.06175 0.0291617 0.260884 0.938152 0.5663 1.19352 1.6785 0.25349 -0.111232 1.2567 -0.118482 0.00962702 2.47043 -0.165921 0.876233 1.13209 0.426494 2.1231 2.60917 1.55948 1.61962 2.22718 -0.134456 -0.0415517 0.972456 1.59501 -0.118318 0.399849 0.169295 0.343214 0.66413 1.29538 0.986465 0.0116416
internal_count=21125 1990 19135 5441 404 497 5037 1959 477 369 188 175 1493 13694 165 13603 3676 55 9927 167 144 75 134 91 63 134 74 8710 3886 91 54 3078 176 1794 853 494 198 178 941
shrinkage=0.05


Tree=12
num_leaves=40
num_cat=0
split_feature=0 0 1 2 6 7 7 2 7 7 0 7 7 6 2 7 2 2 7 7 0 2 7 2 7 0 0 1 3 0 0 7 0 1 7 0 6 5 1
split_gain=413.2 452.277 206.574 436.102 1363.51 159.178 145.2 129.789 192.565 185.535 167.18 128.003 115.892 115.354 96.2143 302.533 297.961 88.1237 74.3878 126.264 69.6019 65.8606 117.92 202.945 90.7257 67.0474 77.1405 62.8586 60.5597 59.456 67.0251 52.6445 86.3781 80.6414 123.882 56.3467 47.9436 47.1278 46.3093
threshold=3.5000000000000004 1.0000000180025095e-35 4.5000000000000009 11.500000000000002 0.46500000357627874 33.18499946594239 6.1700000762939462 4.5000000000000009 62.094999313354499 65.625000000000014 5.5000000000000009 31.945000648498539 63.924999237060554 0.99500000476837169 3.5000000000000004 62.094999313354499 2.5000000000000004 4.5000000000000009 18.979999542236332 25.515000343322757 7.5000000000000009 2.5000000000000004 38.395000457763679 3.5000000000000004 41.335000991821296 19.500000000000004 16.500000000000004 5.5000000000000009 1.0000000180025095e-35 18.500000000000004 12.500000000000002 27.814999580383304 9.5000000000000018 5.5000000000000009 22.760000228881839 17.500000000000004 0.99500000476837169 1.0000000180025095e-35 5.5000000000000009
decision_type=2 2 2 2 2 2 2 2 2 2 2 2 2 2 2 2 2 2 2 2 2 2 2 2 2 2 2 2 2 2 2 2 2 2 2 2 2 2 2
left_child=1 13 6 7 5 11 20 8 21 12 -9 18 -10 28 15 37 -17 -16 -5 -20 -2 31 -23 24 27 26 38 -24 -1 30 -21 32 -4 -34 35 -35 -12 -8 -26
right_child=2 -3 3 4 -6 -7 14 10 9 -11 36 -13 -14 -15 17 16 -18 -19 19 29 -22 22 23 -25 25 -27 -28 -29 -30 -31 -32 -33 33 34 -36 -37 -38 -39 -40
leaf_value=0.025796691899539155 0.13963303283477824 0.20167142630026147 -0.016540420844426584 -0.013965446334332228 0.35449819566948076 -0.0048552078773846504 -0.0014613686557248227 0.067151233940212815 0.072084156326625667 0.018099261689604376 -0.0064461180121938065 0.17654164646353043 0.22914820797741414 0.12997958409786223 -0.019877266970242044 -0.0069265947892115671 0.22433123235901198 -0.0058978232353075069 0.13943409338975563 0.0081127801510904509 0.027726509196288659 -0.0025411512154099973 0.070510523826689334 0.010524725530798251 0.13384489864110946 0.17600487133731013 0.010637855636222023 -0.026882584442694986 -0.011056096963291094 -0.018053662419940036 0.11567583669908346 -0.0075183510169112401 0.010592666495787471 -0.0060919505031779416 0.17962482963180679 0.10225426617544145 0.041523811291411243 0.022320867139357249 0.051289857566356657
leaf_count=912 24 37 108 40 35 185 3628 81 23 57 3025 21 24 25 1285 26 30 9188 39 28 33 393 37 349 53 23 28 30 127 36 30 699 95 30 22 20 53 221 25
internal_value=0 0.596436 -0.0327944 0.130437 1.11804 0.566542 -0.095995 0.0514288 0.24967 1.57484 -0.0750839 1.1994 3.04574 0.476916 -0.10231 0.0316564 2.33923 -0.152261 0.916395 1.276 1.4969 0.177589 0.366714 0.6678 1.48208 1.9724 1.63658 0.538033 0.425841 0.648404 1.27498 -0.00454449 0.36611 0.816812 1.61502 0.744931 -0.112403 -0.00191704 2.1477
internal_count=21125 1101 20024 5589 414 379 14435 5175 2016 104 3159 194 47 1064 14378 3905 56 10473 173 133 57 1912 938 545 196 129 106 67 1039 94 58 974 275 167 72 50 3078 3849 78
shrinkage=0.05


Tree=13
num_leaves=40
num_cat=0
split_feature=0 1 6 2 1 7 0 2 2 7 2 0 7 7 7 3 1 6 6 1 6 7 7 7 1 2 0 2 1 1 2 7 0 3 2 2 7 2 2
split_gain=377.083 202.401 167.992 163.428 457.119 3565.56 161.823 229.323 149.009 398.741 472.904 293.164 122.96 99.1917 77.4271 72.6717 75.062 69.9996 151.233 50.2605 49.7942 145.292 45.4165 156.153 280.282 42.0344 61.4703 323.719 913.933 41.7892 103.221 40.2877 39.1261 61.8327 48.3931 112.832 54.6429 36.8932 50.5908
threshold=5.5000000000000009 4.5000000000000009 0.10500000044703485 11.500000000000002 5.5000000000000009 44.715000152587898 1.5000000000000002 2.5000000000000004 3.5000000000000004 61.625000000000007 2.5000000000000004 14.500000000000002 6.1700000762939462 18.000000000000004 58.18499946594239 1.0000000180025095e-35 2.5000000000000004 0.32500000298023229 0.16499999910593036 1.0000000180025095e-35 0.61500000953674328 32.225000381469734 51.295000076293952 52.655000686645515 3.5000000000000004 8.5000000000000018 19.500000000000004 7.5000000000000009 3.5000000000000004 4.5000000000000009 2.5000000000000004 25.515000343322757 1.0000000180025095e-35 1.0000000180025095e-35 6.5000000000000009 5.5000000000000009 57.944999694824226 7.5000000000000009 2.5000000000000004
decision_type=2 2 2 2 2 2 2 2 2 2 2 2 2 2 2 2 2 2 2 2 2 2 2 2 2 2 2 2 2 2 2 2 2 2 2 2 2 2 2
left_child=1 13 6 8 17 31 37 -8 9 12 -11 -12 19 -1 -4 16 -10 18 -5 -2 22 -22 -14 24 -24 26 -18 -28 -29 -25 -31 -6 33 -15 35 -34 -37 38 -3
right_child=3 2 14 4 5 -7 7 -9 15 10 11 -13 20 32 -16 -17 25 -19 -20 -21 21 -23 23 29 -26 -27 27 28 -30 30 -32 -33 34 -35 -36 36 -38 -39 -40
leaf_value=0.078043481238462317 0.021943777456879615 -0.0082965528652552637 0.079932738955204308 0.0032585115713522714 0.065556444128354388 0.71801572285592563 0.18947131532347866 0.044246728516913747 -0.0096185574829910948 -0.028840448241680861 0.35884438831181753 0.1004530130521111 -0.0014438545643454146 0.022662060730065565 0.19265360360592604 -0.017065711203678457 -0.0013002505922700802 -0.038441918900138455 0.12318942464060255 0.11656222820747644 0.1433970695361495 0.010971287317247799 -0.0394267768599093 -0.010642080060233908 0.20752944833150619 -0.0071604272645284534 0.00058472043496634804 0.28457512252032757 -0.012779681598895219 -0.018960461902775266 0.1051067270586888 0.0018254229603530644 0.00021236553671769799 -0.02183429225860687 -0.013491085325396319 0.12470428431406617 0.033632857548072936 -0.009041992198712755 0.047094954568438416
leaf_count=54 25 62 39 994 30 20 36 111 4929 32 21 23 4398 636 25 1403 3460 95 27 32 22 354 20 169 27 2099 631 40 73 38 30 143 320 89 326 28 40 101 123
internal_value=0 0.414293 0.967047 -0.0430856 0.297955 1.71897 0.743529 1.59624 -0.0681289 0.0745109 2.34823 4.47552 0.0407274 0.230289 2.47929 -0.126731 -0.0999278 0.052206 0.128601 1.50126 0.0242683 0.374392 -0.0038493 0.383729 2.04883 -0.0276362 0.0300675 0.290835 1.84957 0.0535184 0.715501 0.257541 0.180357 0.343995 0.0141988 0.252835 1.42266 0.305248 0.570626
internal_count=21125 1990 497 19135 1309 193 433 147 17826 5191 76 44 5115 1493 64 12635 11232 1116 1021 57 5058 376 4682 284 47 6303 4204 744 113 237 68 173 1439 725 714 388 68 286 185
shrinkage=0.05


Tree=14
num_leaves=40
num_cat=0
split_feature=0 0 1 2 7 7 6 6 7 7 7 2 7 7 0 6 0 6 2 7 2 2 2 7 2 7 1 0 0 0 0 3 1 7 7 6 2 3 7
split_gain=341.487 394.206 174.094 361.819 1237.27 235.264 247.946 150.399 127.386 112.741 121.393 108.004 172.354 223.022 144.302 178.179 105.209 101.087 74.3586 250.841 240.576 78.1045 64.8012 108.65 112.212 154.297 70.7443 59.1261 84.213 54.2869 80.0683 50.9123 50.7037 47.9638 46.8362 52.752 199.702 46.8137 45.417
threshold=3.5000000000000004 1.0000000180025095e-35 4.5000000000000009 11.500000000000002 50.045000076293952 44.715000152587898 0.45499999821186071 0.095000002533197417 10.550000190734865 30.474999427795414 18.979999542236332 4.5000000000000009 62.914999008178718 65.625000000000014 6.5000000000000009 0.33500000834465032 6.5000000000000009 0.99500000476837169 3.5000000000000004 62.094999313354499 2.5000000000000004 4.5000000000000009 2.5000000000000004 36.395000457763679 3.5000000000000004 41.335000991821296 5.5000000000000009 19.500000000000004 16.500000000000004 10.500000000000002 16.500000000000004 1.0000000180025095e-35 5.5000000000000009 24.48499965667725 44.204999923706062 0.7749999761581422 1.5000000000000002 1.0000000180025095e-35 52.895000457763679
decision_type=2 2 2 2 2 2 2 2 2 2 2 2 2 2 2 2 2 2 2 2 2 2 2 2 2 2 2 2 2 2 2 2 2 2 2 2 2 2 2
left_child=1 17 8 11 5 6 7 9 16 10 -5 12 22 -14 15 32 -2 31 19 -10 -21 -20 34 -24 25 26 29 28 -27 -25 -31 -1 -13 -12 35 -4 -37 -26 -34
right_child=2 -3 3 4 -6 -7 -8 -9 18 -11 33 14 13 -15 -16 -17 -18 -19 21 20 -22 -23 23 24 37 27 -28 -29 -30 30 -32 -33 38 -35 -36 36 -38 -39 -40
leaf_value=0.02327118671515532 0.14269680402552087 0.1875489181360683 0.00079262241298880352 -0.015038783643394711 0.43462982535362243 0.17395173046323989 -0.13097933411598206 0.16518038000911475 -0.00041270441908066282 -0.0015860835885679399 0.13977965481819646 0.0036842519120805586 0.17764894136360715 0.017299865081644893 -0.0065469678976591665 0.172108418086455 0.023161473016761528 0.12088537210226058 -0.018526334351486734 -0.005138242072783984 0.20266060874486966 -0.0053643270800446882 -0.0073946807371533434 -0.0035057221610958764 0.017577383306825303 0.10339627644978465 -0.018082469600108519 0.16515610449663973 0.0039407451604974676 0.1542482369833372 0.016019392535090448 -0.010518946681963647 -0.0063599251048720405 0.064381666425051109 -0.025353922355879834 0.16691450830549004 -0.032858017973344901 -0.038997759052166125 0.077091701614803498
leaf_count=912 24 37 762 40 20 27 25 20 3817 185 31 157 35 57 2902 21 79 25 1285 26 30 9174 299 26 338 80 71 23 29 22 20 127 23 66 162 22 29 41 56
internal_value=0 0.542214 -0.0298131 0.120037 1.0196 0.630112 0.420518 0.642748 -0.0878327 0.477477 1.16508 0.0480719 0.228912 1.56604 -0.0673361 0.650861 1.02029 0.430631 -0.0957965 0.0225713 2.12365 -0.139628 0.164974 0.350994 0.580482 1.07184 0.336524 1.84615 1.53871 1.0655 1.7685 0.382818 0.402482 1.76956 -0.0160845 0.0817519 1.06637 0.229142 1.05591
internal_count=21125 1101 20024 5589 414 394 367 342 14435 322 137 5175 2016 92 3159 257 103 1064 14332 3873 56 10459 1924 949 650 271 139 132 109 68 42 1039 236 97 975 813 51 379 79
shrinkage=0.05


end of trees

feature importances:
Column_7=218
Column_2=113
Column_0=103
Column_1=81
Column_6=43
Column_3=21
Column_5=5
Column_4=1

parameters:
[boosting: gbdt]
[objective: regression]
[metric: rmse]
[tree_learner: serial]
[device_type: cpu]
[data: ]
[valid: ]
[num_iterations: 100]
[learning_rate: 0.05]
[num_leaves: 40]
[num_threads: 0]
[max_depth: -1]
[min_data_in_leaf: 20]
[min_sum_hessian_in_leaf: 0.001]
[bagging_fraction: 1]
[bagging_freq: 0]
[bagging_seed: 3]
[feature_fraction: 1]
[feature_fraction_seed: 2]
[early_stopping_round: 0]
[max_delta_step: 0]
[lambda_l1: 0]
[lambda_l2: 0]
[min_gain_to_split: 0]
[drop_rate: 0.1]
[max_drop: 50]
[skip_drop: 0.5]
[xgboost_dart_mode: 0]
[uniform_drop: 0]
[drop_seed: 4]
[top_rate: 0.2]
[other_rate: 0.1]
[min_data_per_group: 100]
[max_cat_threshold: 32]
[cat_l2: 10]
[cat_smooth: 10]
[max_cat_to_onehot: 4]
[top_k: 20]
[monotone_constraints: ]
[feature_contri: ]
[forcedsplits_filename: ]
[refit_decay_rate: 0.9]
[verbosity: 1]
[max_bin: 255]
[min_data_in_bin: 3]
[bin_construct_sample_cnt: 200000]
[histogram_pool_size: -1]
[data_random_seed: 1]
[output_model: LightGBM_model.txt]
[snapshot_freq: -1]
[input_model: ]
[output_result: LightGBM_predict_result.txt]
[initscore_filename: ]
[valid_data_initscores: ]
[pre_partition: 0]
[enable_bundle: 1]
[max_conflict_rate: 0]
[is_enable_sparse: 1]
[sparse_threshold: 0.8]
[use_missing: 1]
[zero_as_missing: 0]
[two_round: 0]
[save_binary: 0]
[enable_load_from_binary_file: 1]
[header: 0]
[label_column: ]
[weight_column: ]
[group_column: ]
[ignore_column: ]
[categorical_feature: ]
[predict_raw_score: 0]
[predict_leaf_index: 0]
[predict_contrib: 0]
[num_iteration_predict: -1]
[pred_early_stop: 0]
[pred_early_stop_freq: 10]
[pred_early_stop_margin: 10]
[convert_model_language: ]
[convert_model: gbdt_prediction.cpp]
[num_class: 1]
[is_unbalance: 0]
[scale_pos_weight: 1]
[sigmoid: 1]
[boost_from_average: 1]
[reg_sqrt: 0]
[alpha: 0.9]
[fair_c: 1]
[poisson_max_delta_step: 0.7]
[tweedie_variance_power: 1.5]
[max_position: 20]
[label_gain: ]
[metric_freq: 1]
[is_provide_training_metric: 0]
[eval_at: ]
[num_machines: 1]
[local_listen_port: 12400]
[time_out: 120]
[machine_list_filename: ]
[machines: ]
[gpu_platform_id: -1]
[gpu_device_id: -1]
[gpu_use_dp: 0]

end of parameters

pandas_categorical:null
