tree
version=v2
num_class=1
num_tree_per_iteration=1
label_index=0
max_feature_idx=8
objective=regression
feature_names=Column_0 Column_1 Column_2 Column_3 Column_4 Column_5 Column_6 Column_7 Column_8
feature_infos=[0:23] [0:6] [1:12] [0:2] none [0:1] [0:1] [0:1] [-9.5699996948242188:96.110000610351562]
tree_sizes=706 715 708 723 714 712 719 712 724 713 722 723 706 724 727 727 716 711 729 710

Tree=0
num_leaves=8
num_cat=0
split_feature=8 2 0 2 2 8 2
split_gain=11036 2864.47 1656.8 1261.84 2738.24 1125.49 1091.96
threshold=44.395000457763679 11.500000000000002 1.0000000180025095e-35 2.5000000000000004 4.5000000000000009 18.329999923706058 9.5000000000000018
decision_type=2 2 2 2 2 2 2
left_child=3 2 -2 5 -5 -1 -4
right_child=1 -3 6 4 -6 -7 -8
leaf_value=2.9048982830825554 2.6163414173077411 3.0091876847397607 2.3621079134831615 2.4426982556010026 2.6600364452580321 2.6395504266472605 2.4789888593145872
leaf_count=258 438 108 8553 1630 1711 2135 1330
internal_value=0 -0.609327 -0.662938 1.11777 0.720756 1.67206 -0.747285
internal_count=16163 10429 10321 5734 3341 2393 9883
shrinkage=1


Tree=1
num_leaves=8
num_cat=0
split_feature=8 2 0 1 2 2 8
split_gain=8546.28 2218.24 1345.33 1155.96 977.165 2120.49 871.583
threshold=44.395000457763679 11.500000000000002 5.5000000000000009 3.5000000000000004 2.5000000000000004 4.5000000000000009 18.329999923706058
decision_type=2 2 2 2 2 2 2
left_child=4 2 -2 -3 6 -6 -1
right_child=1 3 -4 -5 5 -7 -8
leaf_value=0.38490058072777678 0.079152982644690367 0.11889748021770837 -0.082590300971456226 0.90746890947298731 -0.02183544711613216 0.16942215430952526 0.15139446520358674
leaf_count=258 803 59 9518 49 1630 1711 2135
internal_value=0 -0.536208 -0.583386 3.97229 0.983637 0.634265 1.47142
internal_count=16163 10429 10321 108 5734 3341 2393
shrinkage=0.12


Tree=2
num_leaves=8
num_cat=0
split_feature=8 2 2 8 1 2 8
split_gain=6622.5 1306.45 709.327 774.369 1510.56 603.409 1478.67
threshold=41.854999542236335 9.5000000000000018 11.500000000000002 48.094999313354499 3.5000000000000004 11.500000000000002 25.414999961853031
decision_type=2 2 2 2 2 2 2
left_child=5 -2 -3 -4 -5 6 -1
right_child=1 2 3 4 -6 -7 -8
leaf_value=0.23629731500317266 -0.069437570422808154 0.019484471654154591 0.064124637208878996 0.017357055924155495 1.1570600438117979 0.20430935536696654 0.05910155972741124
leaf_count=849 9355 1552 96 33 34 874 3370
internal_value=0 -0.431557 0.370791 2.35526 4.96428 0.946323 0.789659
internal_count=16163 11070 1715 163 67 5093 4219
shrinkage=0.12


Tree=3
num_leaves=8
num_cat=0
split_feature=8 2 0 2 2 2 1
split_gain=5219.98 1352.78 1064.11 742.877 1477.45 682.523 668.768
threshold=44.395000457763679 11.500000000000002 1.0000000180025095e-35 2.5000000000000004 4.5000000000000009 9.5000000000000018 3.5000000000000004
decision_type=2 2 2 2 2 2 2
left_child=3 2 -2 -1 -5 -4 -3
right_child=1 6 5 4 -6 -7 -8
leaf_value=0.14328265096582832 0.12831858981145569 0.10007380009707757 -0.075258206160433966 -0.026066421720879206 0.13357948223970426 0.017147621278475998 0.69987407786505562
leaf_count=2393 438 59 8553 1630 1711 1330 49
internal_value=0 -0.419084 -0.455926 0.768721 0.464098 -0.523523 3.10171
internal_count=16163 10429 10321 5734 3341 9883 108
shrinkage=0.12


Tree=4
num_leaves=8
num_cat=0
split_feature=8 2 2 2 8 7 1
split_gain=4042.35 1047.59 575.284 1144.14 560.558 519.927 517.894
threshold=44.395000457763679 11.500000000000002 2.5000000000000004 4.5000000000000009 18.329999923706058 0.99500000476837169 3.5000000000000004
decision_type=2 2 2 2 2 2 2
left_child=2 -2 4 -4 -1 -5 -3
right_child=1 6 3 5 -6 -7 -8
leaf_value=0.29316291257392529 -0.048145791050676526 0.088064948461823542 -0.022938457695253055 0.10917390704101876 0.10589897311498046 0.63996632705132173 0.6158892014075299
leaf_count=258 10321 59 1630 1684 2135 27 49
internal_value=0 -0.368794 0.676475 0.408406 1.05074 0.979583 2.72951
internal_count=16163 10429 5734 3341 2393 1711 108
shrinkage=0.12


Tree=5
num_leaves=8
num_cat=0
split_feature=8 0 0 0 1 0 8
split_gain=2775.93 1095.72 869.414 840.525 723.156 718.99 729.117
threshold=50.725000381469734 5.5000000000000009 5.5000000000000009 22.500000000000004 5.5000000000000009 12.500000000000002 6.5350000858306894
decision_type=2 2 2 2 2 2 2
left_child=2 -2 4 -3 -1 -4 -7
right_child=1 3 5 -5 -6 6 -8
leaf_value=0.21474988734966927 0.1093913914133673 -0.061603485166866923 -0.0029199284474488805 0.12090980155261483 -0.21941337905824185 0.76673541816798119 0.073920007188763917
leaf_count=697 644 7843 2702 381 60 22 3814
internal_value=0 -0.344536 0.488263 -0.4429 1.50282 0.370793 0.649112
internal_count=16163 8868 7295 8224 757 6538 3836
shrinkage=0.12


Tree=6
num_leaves=8
num_cat=0
split_feature=8 0 0 0 0 8 2
split_gain=2149.68 848.523 673.274 650.902 556.785 564.628 431.495
threshold=50.725000381469734 5.5000000000000009 5.5000000000000009 22.500000000000004 12.500000000000002 6.5350000858306894 9.5000000000000018
decision_type=2 2 2 2 2 2 2
left_child=2 -2 -1 -3 -4 -6 -7
right_child=1 3 4 -5 5 6 -8
leaf_value=0.15869744676973577 0.096264423542418834 -0.054211063462754956 -0.0025695382375725104 0.10640063015494759 0.67472717008807437 0.038876594653509178 0.12729454390288875
leaf_count=757 644 7843 2702 381 22 2685 1129
internal_value=0 -0.303192 0.429671 -0.389752 0.326298 0.571218 0.54208
internal_count=16163 8868 7295 8224 6538 3836 3814
shrinkage=0.12


Tree=7
num_leaves=8
num_cat=0
split_feature=8 0 2 2 0 8 1
split_gain=1664.72 657.096 568.136 1230.43 515.5 557.47 974.544
threshold=50.725000381469734 5.5000000000000009 2.5000000000000004 9.5000000000000018 5.5000000000000009 10.779999732971193 3.5000000000000004
decision_type=2 2 2 2 2 2 2
left_child=2 -2 4 -4 -1 6 -6
right_child=1 -3 3 -5 5 -7 -8
leaf_value=0.25054342467337848 0.084712694153776802 -0.041157843967463012 -0.036185164733329701 0.08728658639061361 0.81969810880328486 0.062031543517191153 -0.057944389011178696
leaf_count=260 644 8224 2538 2144 38 2280 35
internal_value=0 -0.266809 0.378111 0.169629 0.75167 0.604025 3.32426
internal_count=16163 8868 7295 4682 2613 2353 73
shrinkage=0.12


Tree=8
num_leaves=8
num_cat=0
split_feature=2 2 0 0 7 1 0
split_gain=1245.36 1723.12 527.02 514.093 476.079 430.787 647.391
threshold=2.5000000000000004 9.5000000000000018 1.0000000180025095e-35 18.500000000000004 0.99500000476837169 4.5000000000000009 1.5000000000000002
decision_type=2 2 2 2 2 2 2
left_child=5 2 -2 4 -3 6 -1
right_child=1 3 -4 -5 -6 -7 -8
leaf_value=0.39574055661275548 0.090325388922189748 0.02924477693199317 -0.042798301871399602 0.14954905308174252 0.40342503426074977 -0.0051839289184038833 0.087251367893899895
leaf_count=103 448 2364 9705 771 50 720 2002
internal_value=0 -0.10639 -0.307702 0.535343 0.308292 0.624502 0.852884
internal_count=16163 13338 10153 3185 2414 2825 2105
shrinkage=0.12


Tree=9
num_leaves=8
num_cat=0
split_feature=8 0 8 0 8 7 2
split_gain=1052.76 623.108 633.897 467.302 442.509 1030.26 638.637
threshold=56.954999923706062 5.5000000000000009 56.250000000000007 22.500000000000004 31.105000495910648 0.43500000238418585 9.5000000000000018
decision_type=2 2 2 2 2 2 2
left_child=1 2 -1 -2 5 -3 -6
right_child=3 4 -4 -5 6 -7 -8
leaf_value=0.10915161276272531 -0.037615695062414814 0.06247305978629928 0.7613740870356559 0.11434400185158378 -0.021351467093928815 0.92862837213277816 0.06264214710330962
leaf_count=871 7036 1758 22 304 4277 20 1875
internal_value=0 0.251573 1.0435 -0.261017 0.162394 0.601801 0.0354001
internal_count=16163 8823 893 7340 7930 1778 6152
shrinkage=0.12


Tree=10
num_leaves=8
num_cat=0
split_feature=2 2 7 0 0 0 1
split_gain=766.982 1020.76 520.662 324.163 303.078 247.665 349.252
threshold=3.5000000000000004 9.5000000000000018 0.99500000476837169 22.500000000000004 5.5000000000000009 18.500000000000004 4.5000000000000009
decision_type=2 2 2 2 2 2 2
left_child=-1 3 5 4 -2 -3 -7
right_child=1 2 -4 -5 -6 6 -8
leaf_value=0.041680014162108439 0.028686881961430457 0.013590037970660246 0.35708952763717466 0.064138010892856645 -0.051397280160500727 0.13855771544586004 -0.048244287627749148
leaf_count=4257 748 2357 73 418 7540 578 192
internal_value=0 -0.147226 0.335736 -0.324745 -0.36808 0.274105 0.766488
internal_count=16163 11906 3200 8706 8288 3127 770
shrinkage=0.12


Tree=11
num_leaves=8
num_cat=0
split_feature=8 0 1 8 1 0 1
split_gain=733.943 333.706 651.187 564.576 494.562 547.014 738.605
threshold=39.32500076293946 9.5000000000000018 3.5000000000000004 29.554999351501468 2.5000000000000004 5.5000000000000009 4.5000000000000009
decision_type=2 2 2 2 2 2 2
left_child=1 4 -3 -4 -1 6 -6
right_child=-2 2 3 -5 5 -7 -8
leaf_value=-0.075283764538481013 -0.017353214787500119 0.11356631234179448 -0.12570207223575811 0.055563081269361533 0.37197494180365043 -0.0043216532366532907 -0.035154618822715498
leaf_count=740 11795 1644 373 735 154 612 110
internal_value=0 0.335236 0.547042 -0.0454874 -0.0254626 0.482994 1.68615
internal_count=16163 4368 2752 1108 1616 876 264
shrinkage=0.12


Tree=12
num_leaves=8
num_cat=0
split_feature=8 2 1 1 8 1 8
split_gain=569.935 482.908 575.262 875.637 937.084 726.461 480.195
threshold=39.125000000000007 11.500000000000002 5.5000000000000009 2.5000000000000004 49.68499946594239 1.0000000180025095e-35 42.875000000000007
decision_type=2 2 2 2 2 2 2
left_child=-1 -2 3 5 6 -3 -5
right_child=1 2 -4 4 -6 -7 -8
leaf_value=0.035839130582633417 -0.018642234466176428 0.47729193369547523 -0.43243998690084978 0.52606580193837482 1.0362957535896982 -0.25259724204738931 -0.019572280719876291
leaf_count=4302 11619 27 22 45 28 72 48
internal_value=0 -0.126232 1.2719 1.75946 3.56403 -0.446138 2.03705
internal_count=16163 11861 242 220 121 99 93
shrinkage=0.12


Tree=13
num_leaves=8
num_cat=0
split_feature=2 2 6 8 7 1 1
split_gain=463.8 557.019 569.064 468.089 336.509 324.212 560.452
threshold=2.5000000000000004 9.5000000000000018 1.0000000180025095e-35 13.325000286102297 0.99500000476837169 4.5000000000000009 2.5000000000000004
decision_type=2 2 2 2 2 2 2
left_child=5 2 -2 -3 -5 6 -1
right_child=1 3 -4 4 -6 -7 -8
leaf_value=0.01746016553091994 -0.027472363164869531 -0.28826685232110322 0.2375932730961654 0.033489880345389605 0.29418475464700833 -0.025943650873738098 0.14573955659618876
leaf_count=1260 10058 64 118 3063 73 724 803
internal_value=0 -0.0888875 -0.203322 0.275015 0.329653 0.359543 0.561596
internal_count=16163 13376 10176 3200 3136 2787 2063
shrinkage=0.12


Tree=14
num_leaves=8
num_cat=0
split_feature=3 0 0 1 1 2 8
split_gain=414.225 465.65 402.511 429.485 423.433 360.647 776.095
threshold=1.0000000180025095e-35 18.500000000000004 1.0000000180025095e-35 1.0000000180025095e-35 5.5000000000000009 6.5000000000000009 33.440000534057624
decision_type=2 2 2 2 2 2 2
left_child=1 2 3 -1 5 -5 -7
right_child=-2 -3 -4 4 -6 6 -8
leaf_value=-0.1527250337596745 -0.067981043084732531 0.044261113020802816 -0.012372161517613693 0.2645871086053182 -0.10342441445773409 0.62424604950280027 -0.047402219110771131
leaf_count=94 1236 3278 10996 263 97 29 170
internal_value=0 0.0358894 -0.0578028 0.704988 1.03755 1.43635 0.420635
internal_count=16163 14927 11649 653 559 462 199
shrinkage=0.12


Tree=15
num_leaves=8
num_cat=0
split_feature=2 2 6 8 8 1 1
split_gain=594.442 450.88 473.277 422.561 406.145 814.145 672.117
threshold=2.5000000000000004 9.5000000000000018 1.0000000180025095e-35 23.270000457763675 32.795000076293952 4.5000000000000009 2.5000000000000004
decision_type=2 2 2 2 2 2 2
left_child=3 2 -2 -1 -5 6 -6
right_child=1 -3 -4 4 5 -7 -8
leaf_value=0.15309034713039876 -0.023250179874628508 0.031120724898232675 0.21848621967473555 -0.036541308830712861 0.046297918536841502 -0.075357773504117972 0.23950681174702421
leaf_count=497 10012 3219 118 823 653 411 430
internal_value=0 -0.0666853 -0.170286 0.439057 0.259585 0.570328 1.02509
internal_count=16163 13349 10130 2814 2317 1494 1083
shrinkage=0.12


Tree=16
num_leaves=8
num_cat=0
split_feature=2 2 8 0 8 8 0
split_gain=466.539 425.582 359.455 831.543 315.164 300.873 209.734
threshold=3.5000000000000004 9.5000000000000018 10.779999732971193 13.500000000000002 76.784999847412124 10.779999732971193 22.500000000000004
decision_type=2 2 2 2 2 2 2
left_child=2 6 3 -1 5 -3 -2
right_child=1 4 -4 -5 -6 -7 -8
leaf_value=0.033664131947417755 -0.027760546852695068 -0.29464706595454898 0.031138806578344953 0.80283511494768067 0.50226361379027362 0.028662085166094205 0.061306160507177493
leaf_count=67 8308 42 4141 29 20 3157 399
internal_value=0 -0.0824649 0.303838 2.21682 0.228219 0.203478 -0.197325
internal_count=16163 11926 4237 96 3219 3199 8707
shrinkage=0.12


Tree=17
num_leaves=8
num_cat=0
split_feature=2 0 8 8 8 6 1
split_gain=372.574 510.105 394.495 428.905 1062.31 337.155 536.336
threshold=2.5000000000000004 21.500000000000004 20.175000190734867 33.664999008178718 38.315000534057624 1.0000000180025095e-35 1.5000000000000002
decision_type=2 2 2 2 2 2 2
left_child=1 -1 -3 -4 -5 -2 -7
right_child=5 2 3 4 -6 6 -8
leaf_value=0.02485248200152276 -0.0084734041837518544 0.53543422469070978 -0.02346456518694132 0.79102385532565234 0.027705598031617189 0.4466691392611285 -0.006562553653303457
leaf_count=2539 13190 42 119 41 73 61 98
internal_value=0 0.347225 1.64092 1.13241 2.5186 -0.0531629 1.39432
internal_count=16163 2814 275 233 114 13349 159
shrinkage=0.12


Tree=18
num_leaves=8
num_cat=0
split_feature=3 0 0 1 8 2 7
split_gain=323.54 368.589 442.021 487.492 347.441 269.453 317.056
threshold=1.0000000180025095e-35 12.500000000000002 5.5000000000000009 5.5000000000000009 6.5350000858306894 11.500000000000002 0.15500000119209292
decision_type=2 2 2 2 2 2 2
left_child=1 2 3 -1 -3 6 -4
right_child=-2 4 5 -5 -6 -7 -8
leaf_value=0.070045970963207929 -0.057803637744467937 0.49011250687682106 -0.045973254857195535 -0.19357624682242219 0.02303274207686613 0.067154218779694755 0.044034095182317469
leaf_count=1236 1215 23 4665 110 7874 399 641
internal_value=0 0.0548964 -0.111286 0.404182 0.203276 -0.232902 -0.292498
internal_count=16163 14948 7051 1346 7897 5705 5306
shrinkage=0.12


Tree=19
num_leaves=8
num_cat=0
split_feature=2 0 1 1 1 2 8
split_gain=276.443 376.498 379.4 689.118 272.165 256.017 779.768
threshold=2.5000000000000004 21.500000000000004 3.5000000000000004 2.5000000000000004 5.5000000000000009 11.500000000000002 21.765000343322757
decision_type=2 2 2 2 2 2 2
left_child=1 -1 3 -3 -4 -2 -7
right_child=5 2 4 -5 -6 6 -8
leaf_value=0.021272975339129856 -0.010561173606156885 0.14163749990096458 -0.14400645521325126 0.70074563890695563 0.27750708131119606 -0.22581524549875148 0.088891428099610856
leaf_count=2539 12284 130 71 42 32 129 936
internal_value=0 0.297655 1.40909 2.31803 -0.108757 -0.0472328 0.4231
internal_count=16163 2814 275 172 103 13349 1065
shrinkage=0.12


end of trees

feature importances:
Column_2=37
Column_8=36
Column_0=31
Column_1=25
Column_7=6
Column_6=3
Column_3=2

parameters:
[boosting: gbdt]
[objective: regression]
[metric: rmse]
[tree_learner: serial]
[device_type: cpu]
[data: ]
[valid: ]
[num_iterations: 100]
[learning_rate: 0.12]
[num_leaves: 8]
[num_threads: 0]
[max_depth: -1]
[min_data_in_leaf: 20]
[min_sum_hessian_in_leaf: 0.001]
[bagging_fraction: 0.8]
[bagging_freq: 5]
[bagging_seed: 3]
[feature_fraction: 0.9]
[feature_fraction_seed: 2]
[early_stopping_round: 0]
[max_delta_step: 0]
[lambda_l1: 0]
[lambda_l2: 0]
[min_gain_to_split: 0]
[drop_rate: 0.1]
[max_drop: 50]
[skip_drop: 0.5]
[xgboost_dart_mode: 0]
[uniform_drop: 0]
[drop_seed: 4]
[top_rate: 0.2]
[other_rate: 0.1]
[min_data_per_group: 100]
[max_cat_threshold: 32]
[cat_l2: 10]
[cat_smooth: 10]
[max_cat_to_onehot: 4]
[top_k: 20]
[monotone_constraints: ]
[feature_contri: ]
[forcedsplits_filename: ]
[refit_decay_rate: 0.9]
[verbosity: 0]
[max_bin: 255]
[min_data_in_bin: 3]
[bin_construct_sample_cnt: 200000]
[histogram_pool_size: -1]
[data_random_seed: 1]
[output_model: LightGBM_model.txt]
[snapshot_freq: -1]
[input_model: ]
[output_result: LightGBM_predict_result.txt]
[initscore_filename: ]
[valid_data_initscores: ]
[pre_partition: 0]
[enable_bundle: 1]
[max_conflict_rate: 0]
[is_enable_sparse: 1]
[sparse_threshold: 0.8]
[use_missing: 1]
[zero_as_missing: 0]
[two_round: 0]
[save_binary: 0]
[enable_load_from_binary_file: 1]
[header: 0]
[label_column: ]
[weight_column: ]
[group_column: ]
[ignore_column: ]
[categorical_feature: ]
[predict_raw_score: 0]
[predict_leaf_index: 0]
[predict_contrib: 0]
[num_iteration_predict: -1]
[pred_early_stop: 0]
[pred_early_stop_freq: 10]
[pred_early_stop_margin: 10]
[convert_model_language: ]
[convert_model: gbdt_prediction.cpp]
[num_class: 1]
[is_unbalance: 0]
[scale_pos_weight: 1]
[sigmoid: 1]
[boost_from_average: 1]
[reg_sqrt: 0]
[alpha: 0.9]
[fair_c: 1]
[poisson_max_delta_step: 0.7]
[tweedie_variance_power: 1.5]
[max_position: 20]
[label_gain: ]
[metric_freq: 1]
[is_provide_training_metric: 0]
[eval_at: ]
[num_machines: 1]
[local_listen_port: 12400]
[time_out: 120]
[machine_list_filename: ]
[machines: ]
[gpu_platform_id: -1]
[gpu_device_id: -1]
[gpu_use_dp: 0]

end of parameters

pandas_categorical:null
