tree
version=v2
num_class=1
num_tree_per_iteration=1
label_index=0
max_feature_idx=8
objective=regression
feature_names=Column_0 Column_1 Column_2 Column_3 Column_4 Column_5 Column_6 Column_7 Column_8
feature_infos=[0:23] [0:6] [1:12] [0:2] none [0:1] [0:1] [0:1] [-9.7700004577636719:95.959999084472656]
tree_sizes=708 719 714 729 709 718 724 730 732 730 727 731 718 711 734 712 721 728 719 710

Tree=0
num_leaves=8
num_cat=0
split_feature=8 0 2 0 2 2 8
split_gain=10801.8 4832.4 2002.61 1387.69 1094.76 3039.09 772.042
threshold=47.784999847412116 1.0000000180025095e-35 11.500000000000002 1.0000000180025095e-35 2.5000000000000004 9.5000000000000018 18.295000076293949
decision_type=2 2 2 2 2 2 2
left_child=3 -2 -3 -1 6 -6 -5
right_child=1 2 -4 4 5 -7 -8
leaf_value=3.2817273939188869 3.2571837832763113 2.8293585670122332 3.4829878951102824 3.3083418366594071 2.8968363562544526 3.1111130617636107 3.0796545670328435
leaf_count=357 406 9160 68 236 2006 1816 2142
internal_value=0 -0.676721 -0.825276 0.987182 0.876792 0.545337 1.40952
internal_count=16191 9634 9228 6557 6200 3822 2378
shrinkage=1


Tree=1
num_leaves=8
num_cat=0
split_feature=8 0 2 0 0 1 2
split_gain=8364.88 3742.21 1550.82 1074.62 1063.35 915.378 796.625
threshold=47.784999847412116 1.0000000180025095e-35 11.500000000000002 1.0000000180025095e-35 12.500000000000002 3.5000000000000004 2.5000000000000004
decision_type=2 2 2 2 2 2 2
left_child=3 -2 -3 -1 -5 -4 -6
right_child=1 2 5 4 6 -7 -8
leaf_value=0.3066969189323297 0.28509854257987638 -0.091387657121344418 0.068708114624023431 0.037880102828745751 0.20942105646720174 0.95079143464565274 0.090626865697633938
leaf_count=357 406 9160 36 2803 1347 32 2050
internal_value=0 -0.595514 -0.726243 0.86872 0.771577 4.03172 1.14777
internal_count=16191 9634 9228 6557 6200 68 3397
shrinkage=0.12


Tree=2
num_leaves=8
num_cat=0
split_feature=8 2 1 2 2 2 1
split_gain=6532.25 2174.61 1303.63 804.646 1998.82 719.79 698.082
threshold=45.655000686645515 11.500000000000002 3.5000000000000004 2.5000000000000004 9.5000000000000018 9.5000000000000018 4.5000000000000009
decision_type=2 2 2 2 2 2 2
left_child=3 5 -3 -1 -5 -2 -6
right_child=1 2 -4 4 6 -7 -8
leaf_value=0.15179892176904797 -0.076585246437958304 0.10062945360361143 1.0587032126463376 -0.024232661014122348 0.1953982971899634 0.018918670845342083 0.016045687059169918
leaf_count=2430 8750 43 39 1860 1357 1306 406
internal_value=0 -0.493027 4.63582 0.819798 0.521201 -0.534849 1.28413
internal_count=16191 10138 82 6053 3623 10056 1763
shrinkage=0.12


Tree=3
num_leaves=8
num_cat=0
split_feature=8 0 2 0 0 7 2
split_gain=5071.56 2899.1 902.566 842.249 820.712 583.434 590.353
threshold=47.784999847412116 1.0000000180025095e-35 9.5000000000000018 1.0000000180025095e-35 13.500000000000002 0.064999999478459372 2.5000000000000004
decision_type=2 2 2 2 2 2 2
left_child=3 -2 -3 -1 -5 6 -6
right_child=1 2 -4 4 5 -7 -8
leaf_value=0.26040246592850247 0.25819203895301063 -0.083889799036176438 0.028086732838334152 0.027108088390782485 0.21102850661391301 0.0091158263194443551 0.092104750388296283
leaf_count=357 406 8038 1190 3094 1008 609 1489
internal_value=0 -0.463685 -0.578749 0.676438 0.590436 0.953564 1.1676
internal_count=16191 9634 9228 6557 6200 3106 2497
shrinkage=0.12


Tree=4
num_leaves=8
num_cat=0
split_feature=8 2 1 1 8 1 2
split_gain=3995.4 1501.55 1056.99 581.146 1160.55 1383.36 1721.15
threshold=44.354999542236335 11.500000000000002 3.5000000000000004 4.5000000000000009 19.250000000000004 2.5000000000000004 11.500000000000002
decision_type=2 2 2 2 2 2 2
left_child=3 -2 -3 4 5 -1 -7
right_child=1 2 -4 -5 -6 6 -8
leaf_value=0.10119833983607211 -0.048743245659768723 0.062884864012400302 0.85035072151819857 0.013777534125774437 0.084796027257152712 0.85198441127458446 -0.12086851297106062
leaf_count=177 10366 54 45 1419 3991 104 35
internal_value=0 -0.369176 3.50687 0.669838 0.852699 2.69747 5.05851
internal_count=16191 10465 99 5726 4307 316 139
shrinkage=0.12


Tree=5
num_leaves=8
num_cat=0
split_feature=0 8 2 2 2 2 1
split_gain=3350.51 3337.44 1605.72 727.801 508.412 494.468 483.77
threshold=1.0000000180025095e-35 37.969999313354499 9.5000000000000018 3.5000000000000004 11.500000000000002 6.5000000000000009 3.5000000000000004
decision_type=2 2 2 2 2 2 2
left_child=4 6 3 -3 5 -1 -2
right_child=1 2 -4 -5 -6 -7 -8
leaf_value=0.30239197653798122 0.12035720446754587 0.010735161907662072 0.05403106897721259 -0.079106401417142952 0.62149836864322416 0.10107016763150298 0.032161444501897334
leaf_count=420 2261 1544 1969 8164 48 302 1483
internal_value=0 -0.10972 -0.373143 -0.540147 2.0277 1.81819 0.711857
internal_count=16191 15421 11677 9708 770 722 3744
shrinkage=0.12


Tree=6
num_leaves=8
num_cat=0
split_feature=0 8 2 7 2 8 2
split_gain=2594.63 2584.51 1243.47 617.054 563.609 411.387 393.714
threshold=1.0000000180025095e-35 37.969999313354499 9.5000000000000018 0.99500000476837169 3.5000000000000004 61.954999923706062 11.500000000000002
decision_type=2 2 2 2 2 2 2
left_child=6 -2 4 -4 5 -3 -1
right_child=1 2 3 -5 -6 -7 -8
leaf_value=0.19200066656999062 0.07517208757702834 -0.0017670463516959378 0.035234380631934938 0.41405023240484295 -0.069613636075699273 0.3515879952177709 0.54691856678575279
leaf_count=722 3744 1495 1905 64 8164 49 48
internal_value=0 -0.0965537 -0.328366 0.396228 -0.475329 0.0787245 1.78438
internal_count=16191 15421 11677 1969 9708 1544 770
shrinkage=0.12


Tree=7
num_leaves=8
num_cat=0
split_feature=0 8 2 7 2 0 1
split_gain=2009.28 2001.45 962.944 477.846 436.459 392.183 481.876
threshold=1.0000000180025095e-35 37.969999313354499 9.5000000000000018 0.99500000476837169 3.5000000000000004 8.5000000000000018 3.5000000000000004
decision_type=2 2 2 2 2 2 2
left_child=-1 5 4 -4 -3 -2 -7
right_child=1 2 3 -5 -6 6 -8
leaf_value=0.18843036901525087 0.0046741261149055502 0.0083133092760036015 0.031006252558212578 0.36436420275829728 -0.061259996990811506 0.13303312091719638 0.029452120484524596
leaf_count=770 1068 1544 1905 64 8164 1582 1094
internal_value=0 -0.0849673 -0.288962 0.34868 -0.41829 0.551262 0.755727
internal_count=16191 15421 11677 1969 9708 3744 2676
shrinkage=0.12


Tree=8
num_leaves=8
num_cat=0
split_feature=0 2 2 6 0 1 7
split_gain=1555.99 1446.48 1804.09 950.882 443.567 407.773 410.605
threshold=1.0000000180025095e-35 9.5000000000000018 2.5000000000000004 1.0000000180025095e-35 13.500000000000002 4.5000000000000009 0.99500000476837169
decision_type=2 2 2 2 2 2 2
left_child=-1 2 4 -4 -2 6 -3
right_child=1 5 3 -5 -6 -7 -8
leaf_value=0.1658187259187946 0.0078292505351142804 0.082046670719454956 -0.055233755998453121 0.29801399720681682 0.10528812412180333 -0.013601293389647572 0.40276249808780218
leaf_count=770 1264 2237 9600 111 1437 713 59
internal_value=0 -0.0747712 -0.225568 -0.426633 0.497332 0.547257 0.752401
internal_count=16191 15421 12412 9711 2701 3009 2296
shrinkage=0.12


Tree=9
num_leaves=8
num_cat=0
split_feature=2 2 0 8 6 8 0
split_gain=1375.13 1123.89 963.393 961.047 854.549 568.982 554.133
threshold=11.500000000000002 2.5000000000000004 5.5000000000000009 20.845000267028812 1.0000000180025095e-35 6.8550000190734872 11.500000000000002
decision_type=2 2 2 2 2 2 2
left_child=1 5 -3 -2 6 -1 -4
right_child=3 2 4 -5 -6 -7 -8
leaf_value=0.40937454689466035 -0.20951801421129548 0.076787160148873643 -0.077346417815940233 0.17176181941937327 0.29188805182950683 0.050190073581262935 -0.020493118401396473
leaf_count=65 106 1199 3738 934 113 2766 7270
internal_value=0 -0.0811936 -0.211752 1.10751 -0.303572 0.486975 -0.331657
internal_count=16191 15151 12320 1040 11121 2831 11008
shrinkage=0.12


Tree=10
num_leaves=8
num_cat=0
split_feature=0 2 2 0 7 7 1
split_gain=1196.55 1106.13 1447.67 494.613 470.731 382.031 328.611
threshold=1.0000000180025095e-35 2.5000000000000004 9.5000000000000018 13.500000000000002 0.034999999217689044 0.99500000476837169 2.5000000000000004
decision_type=2 2 2 2 2 2 2
left_child=6 3 -3 -2 -5 -4 -1
right_child=1 2 5 4 -6 -7 -8
leaf_value=0.055548807866600096 0.012220414087612512 -0.041001771137492926 0.047047934745516315 0.15158034773875731 -0.018282933441684548 0.33262553943240125 0.21626434163153169
leaf_count=309 1264 9679 3012 1110 298 69 450
internal_value=0 -0.02913 -0.151644 0.555927 0.963576 0.445363 1.25696
internal_count=16191 15432 12760 2672 1408 3081 759
shrinkage=0.12


Tree=11
num_leaves=8
num_cat=0
split_feature=8 0 0 5 0 8 8
split_gain=1105.77 709.584 492.353 542.108 400.627 361.809 705.495
threshold=45.909999847412116 1.0000000180025095e-35 13.500000000000002 1.0000000180025095e-35 1.0000000180025095e-35 33.274999618530281 29.755000114440922
decision_type=2 2 2 2 2 2 2
left_child=2 -2 4 -4 5 6 -1
right_child=1 -3 3 -5 -6 -7 -8
leaf_value=0.097523585093198431 0.12906551990993578 -0.027969872759784041 0.10628024432804077 -0.021657978164180369 -0.0026350531543102764 0.022333308324385223 0.66031761878348416
leaf_count=101 433 9622 2281 603 2926 178 47
internal_value=0 -0.176729 0.361956 0.662753 0.0951978 1.14673 2.30207
internal_count=16191 10055 6136 2884 3252 326 148
shrinkage=0.12


Tree=12
num_leaves=8
num_cat=0
split_feature=8 2 1 8 1 1 8
split_gain=868.258 621.016 479.775 649.847 504.915 359.705 475.355
threshold=37.969999313354499 11.500000000000002 2.5000000000000004 48.07500076293946 1.0000000180025095e-35 3.5000000000000004 20.060000419616703
decision_type=2 2 2 2 2 2 2
left_child=5 -2 4 -4 -3 6 -1
right_child=1 2 3 -5 -6 -7 -8
leaf_value=0.22516521501665313 -0.017231689716009291 0.37934603333473205 0.16428772568170513 0.73857804028611429 -0.14762969464063644 0.0070572793789698413 0.060909675843795169
leaf_count=288 11895 36 112 38 96 1595 2131
internal_value=0 -0.108826 1.35787 2.58146 -0.0325753 0.427467 0.670546
internal_count=16191 12177 282 150 132 4014 2419
shrinkage=0.12


Tree=13
num_leaves=8
num_cat=0
split_feature=8 2 2 8 8 2 1
split_gain=723.323 324.901 878.355 340.129 327 314.066 301.202
threshold=50.82500076293946 9.5000000000000018 2.5000000000000004 13.300000190734865 6.8550000190734872 11.500000000000002 2.5000000000000004
decision_type=2 2 2 2 2 2 2
left_child=1 2 4 -3 -1 -2 -7
right_child=5 3 -4 -5 -6 6 -8
leaf_value=0.33336013161000755 -0.022000579649011403 -0.22229875250586439 -0.035997568316309056 0.077346749981584029 0.056580460354721175 -0.029181664330618723 0.59940195990645362
leaf_count=63 8855 56 2541 2106 2526 21 23
internal_value=0 0.254729 0.117697 0.579878 0.527629 -0.170096 2.49497
internal_count=16191 7292 5130 2162 2589 8899 44
shrinkage=0.12


Tree=14
num_leaves=8
num_cat=0
split_feature=0 0 3 8 1 7 7
split_gain=711.743 575.972 654.873 421.11 575.188 504.96 954.915
threshold=1.0000000180025095e-35 12.500000000000002 1.0000000180025095e-35 45.655000686645515 3.5000000000000004 0.22500000149011615 0.17500000447034839
decision_type=2 2 2 2 2 2 2
left_child=-1 -2 3 4 5 6 -3
right_child=1 2 -4 -5 -6 -7 -8
leaf_value=0.11569017927622488 -0.030517256582835932 0.12221513579688897 -0.073267493465462241 0.0060760396854698581 -0.00035769379863375458 -0.038077384204276511 0.95682482421398163
leaf_count=759 6499 1522 1036 4822 1237 296 20
internal_value=0 -0.0278121 0.136972 0.23504 0.524213 0.879022 1.10867
internal_count=16191 15432 8933 7897 3075 1838 1542
shrinkage=0.12


Tree=15
num_leaves=8
num_cat=0
split_feature=2 8 8 7 2 8 1
split_gain=830.22 832.563 661.062 2131.75 1275.61 618.999 345.735
threshold=11.500000000000002 24.73499965667725 27.925000190734867 0.12499999627470972 10.500000000000002 20.845000267028812 4.5000000000000009
decision_type=2 2 2 2 2 2 2
left_child=2 -2 3 4 6 -6 -1
right_child=1 -3 -4 -5 5 -7 -8
leaf_value=0.071622026755906745 -0.11617136218498662 0.15927365005472149 -0.0096490640473060971 1.3121558901071546 1.1103588291731747 0.30657385826110839 -0.085005065187700651
leaf_count=836 194 852 13962 20 22 37 268
internal_value=0 0.901561 -0.0195947 0.698147 0.522111 5.05242 0.280002
internal_count=16191 1046 15145 1183 1163 59 1104
shrinkage=0.12


Tree=16
num_leaves=8
num_cat=0
split_feature=2 8 0 2 6 1 0
split_gain=642.922 644.737 643.783 537.487 455.442 467.682 452.518
threshold=11.500000000000002 24.73499965667725 1.5000000000000002 2.5000000000000004 1.0000000180025095e-35 1.5000000000000002 5.5000000000000009
decision_type=2 2 2 2 2 2 2
left_child=3 -2 -3 -1 6 -6 -5
right_child=1 2 -4 4 5 -7 -8
leaf_value=0.044935589304105468 -0.10223079968589482 0.63678186625242228 0.11825105696259176 0.055950796362028682 0.50292518052519575 0.034341589067040421 -0.022848760534104409
leaf_count=2845 194 36 816 1160 49 82 11009
internal_value=0 0.793373 1.16801 -0.0172433 -0.107845 1.74678 -0.12781
internal_count=16191 1046 852 15145 12300 131 12169
shrinkage=0.12


Tree=17
num_leaves=8
num_cat=0
split_feature=8 0 0 1 8 2 1
split_gain=511.714 339.548 572.427 558.598 387.585 220.273 485.201
threshold=36.784999847412116 12.500000000000002 5.5000000000000009 4.5000000000000009 56.674999237060554 9.5000000000000018 4.5000000000000009
decision_type=2 2 2 2 2 2 2
left_child=5 2 -2 4 -3 -1 -7
right_child=1 3 -4 -5 -6 6 -8
leaf_value=0.025510549578106539 0.047664917214877076 0.06898310201888469 -0.05001711661679524 -0.046169009485028362 0.0026703714887643683 0.14084062623304769 -0.055432659623162871
leaf_count=2641 1080 2134 4317 1913 3132 733 241
internal_value=0 -0.0644041 -0.253915 0.0780659 0.246192 0.362495 0.768967
internal_count=16191 12576 5397 7179 5266 3615 974
shrinkage=0.12


Tree=18
num_leaves=8
num_cat=0
split_feature=3 0 1 0 8 1 8
split_gain=444.807 490.976 691.454 551.187 418.326 1066.86 301.445
threshold=1.0000000180025095e-35 1.0000000180025095e-35 2.5000000000000004 12.500000000000002 33.475000381469734 3.5000000000000004 25.314999580383304
decision_type=2 2 2 2 2 2 2
left_child=1 2 -1 -3 5 -4 -7
right_child=-2 3 4 -5 -6 6 -8
leaf_value=-0.03540545311062894 -0.067258201519656557 -0.021886850979380323 1.1027821100234985 0.025440148534754285 0.14139234368640341 -0.052447805901368459 0.44579811015549825
leaf_count=282 1193 6444 25 7873 304 36 34
internal_value=0 0.0739482 0.903543 0.0344878 1.75066 3.58233 1.57964
internal_count=16191 14998 681 14317 399 95 70
shrinkage=0.12


Tree=19
num_leaves=8
num_cat=0
split_feature=2 8 8 2 0 0 8
split_gain=401.704 522.612 407.798 1068.66 704.215 395.136 1465.97
threshold=11.500000000000002 22.224999427795414 27.110000610351566 10.500000000000002 9.5000000000000018 19.500000000000004 41.024999618530281
decision_type=2 2 2 2 2 2 2
left_child=2 -2 3 -1 -5 -3 -7
right_child=1 5 -4 4 -6 6 -8
leaf_value=0.041702447275889475 -0.14098180356195994 0.070742407899334836 -0.0075159589052644698 0.18722407986377848 1.0563079622268676 0.13578370895080424 1.1880024816773156
leaf_count=1013 140 741 14078 29 25 143 22
internal_value=0 0.623293 -0.0174578 0.578583 4.91315 0.901152 2.30066
internal_count=16191 1046 15145 1067 54 906 165
shrinkage=0.12


end of trees

feature importances:
Column_2=39
Column_8=34
Column_0=31
Column_1=21
Column_7=9
Column_6=3
Column_3=2
Column_5=1

parameters:
[boosting: gbdt]
[objective: regression]
[metric: rmse]
[tree_learner: serial]
[device_type: cpu]
[data: ]
[valid: ]
[num_iterations: 100]
[learning_rate: 0.12]
[num_leaves: 8]
[num_threads: 0]
[max_depth: -1]
[min_data_in_leaf: 20]
[min_sum_hessian_in_leaf: 0.001]
[bagging_fraction: 0.8]
[bagging_freq: 5]
[bagging_seed: 3]
[feature_fraction: 0.9]
[feature_fraction_seed: 2]
[early_stopping_round: 0]
[max_delta_step: 0]
[lambda_l1: 0]
[lambda_l2: 0]
[min_gain_to_split: 0]
[drop_rate: 0.1]
[max_drop: 50]
[skip_drop: 0.5]
[xgboost_dart_mode: 0]
[uniform_drop: 0]
[drop_seed: 4]
[top_rate: 0.2]
[other_rate: 0.1]
[min_data_per_group: 100]
[max_cat_threshold: 32]
[cat_l2: 10]
[cat_smooth: 10]
[max_cat_to_onehot: 4]
[top_k: 20]
[monotone_constraints: ]
[feature_contri: ]
[forcedsplits_filename: ]
[refit_decay_rate: 0.9]
[verbosity: 0]
[max_bin: 255]
[min_data_in_bin: 3]
[bin_construct_sample_cnt: 200000]
[histogram_pool_size: -1]
[data_random_seed: 1]
[output_model: LightGBM_model.txt]
[snapshot_freq: -1]
[input_model: ]
[output_result: LightGBM_predict_result.txt]
[initscore_filename: ]
[valid_data_initscores: ]
[pre_partition: 0]
[enable_bundle: 1]
[max_conflict_rate: 0]
[is_enable_sparse: 1]
[sparse_threshold: 0.8]
[use_missing: 1]
[zero_as_missing: 0]
[two_round: 0]
[save_binary: 0]
[enable_load_from_binary_file: 1]
[header: 0]
[label_column: ]
[weight_column: ]
[group_column: ]
[ignore_column: ]
[categorical_feature: ]
[predict_raw_score: 0]
[predict_leaf_index: 0]
[predict_contrib: 0]
[num_iteration_predict: -1]
[pred_early_stop: 0]
[pred_early_stop_freq: 10]
[pred_early_stop_margin: 10]
[convert_model_language: ]
[convert_model: gbdt_prediction.cpp]
[num_class: 1]
[is_unbalance: 0]
[scale_pos_weight: 1]
[sigmoid: 1]
[boost_from_average: 1]
[reg_sqrt: 0]
[alpha: 0.9]
[fair_c: 1]
[poisson_max_delta_step: 0.7]
[tweedie_variance_power: 1.5]
[max_position: 20]
[label_gain: ]
[metric_freq: 1]
[is_provide_training_metric: 0]
[eval_at: ]
[num_machines: 1]
[local_listen_port: 12400]
[time_out: 120]
[machine_list_filename: ]
[machines: ]
[gpu_platform_id: -1]
[gpu_device_id: -1]
[gpu_use_dp: 0]

end of parameters

pandas_categorical:null
