tree
version=v2
num_class=1
num_tree_per_iteration=1
label_index=0
max_feature_idx=8
objective=regression
feature_names=Column_0 Column_1 Column_2 Column_3 Column_4 Column_5 Column_6 Column_7 Column_8
feature_infos=[0:23] [0:6] [1:12] [0:2] none [0:1] [0:1] [0:1] [-9.75:95.959999084472656]
tree_sizes=690 716 717 710 727 701 712 716 720 710 718 697 715 711 698 723 708 706 715 710

Tree=0
num_leaves=8
num_cat=0
split_feature=0 0 8 2 8 8 8
split_gain=42698.2 62555 5825.4 1713.12 1243.46 1820 1645.72
threshold=4.0000000000000009 1.0000000180025095e-35 44.014999389648445 9.5000000000000018 22.945000648498539 49.98500061035157 52.975000381469734
decision_type=2 2 2 2 2 2 2
left_child=1 -1 -2 -4 -3 -6 -7
right_child=2 4 3 -5 5 6 -8
leaf_value=3.1575099397593034 3.199270533318487 5.6278975158841167 3.0193030613523826 3.1611660630245355 4.6103188827726251 6.1393521025417277 4.9994390295928568
leaf_count=760 5079 33 8207 1441 211 20 207
internal_value=0 5.66162 -0.469048 -0.925376 14.7168 14.2708 16.2361
internal_count=15958 1231 14727 9648 471 438 227
shrinkage=1


Tree=1
num_leaves=8
num_cat=0
split_feature=0 0 1 8 1 2 7
split_gain=33065.5 48442.6 5536.5 4559.64 1565.6 1499.39 1305.21
threshold=4.0000000000000009 1.0000000180025095e-35 5.5000000000000009 42.034999847412116 3.5000000000000004 9.5000000000000018 0.99500000476837169
decision_type=2 2 2 2 2 2 2
left_child=1 -1 4 -2 -3 -5 -7
right_child=3 2 -4 5 -6 6 -8
leaf_value=0.0052566955865998013 0.049088187389225442 1.8791513359052441 0.33275296517036618 -0.1148559154354421 1.4068554251788541 -0.0086157244885267156 0.59151716162761048
leaf_count=760 4629 256 48 8491 167 1553 54
internal_value=0 4.98223 12.9508 -0.412763 14.1057 -0.789496 0.0962544
internal_count=15958 1231 471 14727 423 10098 1607
shrinkage=0.12


Tree=2
num_leaves=8
num_cat=0
split_feature=8 8 2 7 8 2 1
split_gain=3871.38 1489.2 962.372 691.996 571.649 713.895 710.965
threshold=38.305000305175788 65.424999237060561 5.5000000000000009 0.99500000476837169 22.945000648498539 11.500000000000002 4.5000000000000009
decision_type=2 2 2 2 2 2 2
left_child=4 2 -2 -4 5 6 -1
right_child=1 -3 3 -5 -6 -7 -8
leaf_value=0.3275847652690862 -0.038446414920733675 -0.082780029035526198 0.042172929624237687 0.36948682724498211 0.079687304303329112 -0.047676259080568946 0.047304712402951581
leaf_count=459 3693 5139 2988 96 3257 144 182
internal_value=0 -0.283866 0.0239792 0.436347 0.848687 1.61471 2.0667
internal_count=15958 11916 6777 3084 4042 785 641
shrinkage=0.12


Tree=3
num_leaves=8
num_cat=0
split_feature=0 0 1 8 1 2 1
split_gain=25356.9 37998.3 4232.07 2909.08 1275.65 826.445 773.654
threshold=1.5000000000000002 1.0000000180025095e-35 5.5000000000000009 50.295000076293952 1.5000000000000002 11.500000000000002 1.0000000180025095e-35
decision_type=2 2 2 2 2 2 2
left_child=1 -1 4 -2 6 -5 -3
right_child=3 2 -4 5 -6 -7 -8
leaf_value=0.0015483606367519027 0.017079520929398673 1.3728770402484927 0.29808519179516652 -0.092973097144667768 1.3863460835750285 0.46793981923868777 2.1182316220356867
leaf_count=760 6453 29 47 8241 325 38 65
internal_value=0 4.37227 11.482 -0.361003 12.4913 -0.753321 15.7357
internal_count=15958 1226 466 14732 419 8279 94
shrinkage=0.12


Tree=4
num_leaves=8
num_cat=0
split_feature=8 2 7 3 8 8 2
split_gain=2537.29 1037.39 630.242 594.077 480.604 422.579 660.054
threshold=38.305000305175788 9.5000000000000018 0.99500000476837169 1.0000000180025095e-35 78.625000000000014 22.945000648498539 9.5000000000000018
decision_type=2 2 2 2 2 2 2
left_child=5 3 -3 4 -2 -1 -7
right_child=1 2 -4 -5 -6 6 -8
leaf_value=0.16146906772768418 -0.020490769834590951 0.037242020790113177 0.39865008143087227 -0.12219356342037747 -0.09829912919386298 0.028798562192297601 0.14775801381251627
leaf_count=785 7282 1987 72 1219 1356 2310 947
internal_value=0 -0.229914 0.415666 -0.364767 -0.272543 0.686963 0.528225
internal_count=15958 11916 2059 9857 8638 4042 3257
shrinkage=0.12


Tree=5
num_leaves=8
num_cat=0
split_feature=0 0 1 8 1 8 8
split_gain=18888.1 31080.5 3495.13 1889.19 932.206 703.291 956.02
threshold=4.0000000000000009 1.0000000180025095e-35 5.5000000000000009 48.725000381469734 1.5000000000000002 48.18499946594239 64.694999694824233
decision_type=2 2 2 2 2 2 2
left_child=1 -1 4 -2 -3 -6 -7
right_child=3 2 -4 -5 5 6 -8
leaf_value=-0.025244906947053967 0.012230181437826847 1.6670242395843426 0.32328906291181392 -0.074905000693318791 1.0461843765216567 1.6228280199733045 1.034620264882133
leaf_count=750 6143 97 55 8598 144 108 63
internal_value=0 3.77736 10.1816 -0.32161 11.1812 10.3465 11.7177
internal_count=15958 1217 467 14741 412 315 171
shrinkage=0.12


Tree=6
num_leaves=8
num_cat=0
split_feature=0 0 2 2 7 7 8
split_gain=14639.9 24352.5 1585.41 2175.14 1274 836.728 755.712
threshold=1.5000000000000002 1.0000000180025095e-35 9.5000000000000018 2.5000000000000004 0.99500000476837169 0.63499999046325695 22.945000648498539
decision_type=2 2 2 2 2 2 2
left_child=1 -1 3 -2 -4 6 -3
right_child=2 5 4 -5 -6 -7 -8
leaf_value=-0.022215519608855247 0.043066504895458123 1.5930287512865933 0.032217411293690955 -0.08124595308558992 0.55764595756635937 1.6772931182943285 0.99538650557736597
leaf_count=750 2603 33 2918 9157 68 32 397
internal_value=0 3.33299 -0.282527 -0.447752 0.368191 9.04422 8.6771
internal_count=15958 1212 14746 11760 2986 462 430
shrinkage=0.12


Tree=7
num_leaves=8
num_cat=0
split_feature=0 0 1 2 2 7 1
split_gain=11337.2 18858.6 2523.8 1227.74 1684.43 986.585 695.415
threshold=1.5000000000000002 1.0000000180025095e-35 5.5000000000000009 9.5000000000000018 2.5000000000000004 0.99500000476837169 1.5000000000000002
decision_type=2 2 2 2 2 2 2
left_child=1 -1 6 4 -2 -5 -3
right_child=3 2 -4 5 -6 -7 -8
leaf_value=-0.019549653642922639 0.037898522881627122 1.3366628124357498 0.17593763540375906 0.028351320863214357 -0.071496441238756578 0.49072844842777524 0.96878644159206984
leaf_count=750 2603 97 53 2918 9157 68 312
internal_value=0 2.93303 7.95892 -0.248624 -0.394021 0.324008 8.80028
internal_count=15958 1212 462 14746 11760 2986 409
shrinkage=0.12


Tree=8
num_leaves=8
num_cat=0
split_feature=0 0 1 2 2 7 0
split_gain=8779.5 14604.1 1954.43 950.765 1304.42 764.012 609.459
threshold=1.5000000000000002 1.0000000180025095e-35 5.5000000000000009 9.5000000000000018 2.5000000000000004 0.99500000476837169 19.500000000000004
decision_type=2 2 2 2 2 2 2
left_child=1 -1 -3 4 -2 6 -5
right_child=3 2 -4 5 -6 -7 -8
leaf_value=-0.017203695727884768 0.033350700084585162 0.92930940055035616 0.1548251170932122 -0.0033909413042080743 -0.062916866233740168 0.43184102770160221 0.13107478613568832
leaf_count=750 2603 409 53 2303 9157 68 615
internal_value=0 2.58107 7.00385 -0.218789 -0.346739 0.285127 0.20791
internal_count=15958 1212 462 14746 11760 2986 2918
shrinkage=0.12


Tree=9
num_leaves=8
num_cat=0
split_feature=0 0 8 8 8 8 0
split_gain=6799.12 11187.4 866.169 1842.6 1133.14 819.987 655.068
threshold=4.0000000000000009 1.0000000180025095e-35 49.454999923706062 30.974999427795414 66.284999847412124 45.844999313354499 16.500000000000004
decision_type=2 2 2 2 2 2 2
left_child=1 -1 3 -3 -4 6 -2
right_child=5 2 4 -5 -6 -7 -8
leaf_value=-0.015139252081637968 -0.020152364774798988 1.089665430846499 1.0922107963530434 0.33798527784028631 0.55796093095903809 -0.045049325444922815 0.064325032895965778
leaf_count=750 3325 67 151 157 92 9222 2194
internal_value=0 2.26632 6.10863 4.69015 7.41619 -0.192955 0.11192
internal_count=15958 1217 467 224 243 14741 5519
shrinkage=0.12


Tree=10
num_leaves=8
num_cat=0
split_feature=0 0 1 2 2 2 0
split_gain=6325.86 8269.35 2586.57 1140.13 699.745 1016.38 364.747
threshold=1.5000000000000002 1.0000000180025095e-35 4.5000000000000009 9.5000000000000018 9.5000000000000018 2.5000000000000004 19.500000000000004
decision_type=2 2 2 2 2 2 2
left_child=1 -1 3 -3 5 -2 -6
right_child=4 2 -4 -5 6 -7 -8
leaf_value=0.018417151121028295 0.034561236578806158 0.94363025849869286 0.20797883256246114 0.38441614090479337 0.011143397746113424 -0.050728202997861967 0.1138140293941723
leaf_count=751 2574 273 131 65 2314 9215 635
internal_value=0 2.21089 5.50539 6.96741 -0.158571 -0.267552 0.277093
internal_count=15958 1220 469 338 14738 11789 2949
shrinkage=0.12


Tree=11
num_leaves=8
num_cat=0
split_feature=0 0 1 8 8 2 8
split_gain=4898.75 6403.78 2003.04 1208.62 2011.7 1013.46 1044.85
threshold=1.5000000000000002 1.0000000180025095e-35 4.5000000000000009 49.764999389648445 30.974999427795414 6.5000000000000009 73.024997711181655
decision_type=2 2 2 2 2 2 2
left_child=1 -1 3 4 -3 -5 -7
right_child=-2 2 -4 5 -6 6 -8
leaf_value=0.016207095876735415 -0.016745080479477845 1.1524596500822475 0.18302136822283721 1.2866260008357073 0.23775175030958853 0.48670887068316737 1.445765527997698
leaf_count=751 14738 49 131 76 118 74 21
internal_value=0 1.94559 4.84474 6.13132 4.21783 8.00005 5.82259
internal_count=15958 1220 469 338 167 171 95
shrinkage=0.12


Tree=12
num_leaves=8
num_cat=0
split_feature=8 7 2 1 8 2 1
split_gain=617.654 2421.76 527.51 349.458 444.682 469.248 1117.93
threshold=30.724999427795414 0.55500000715255748 9.5000000000000018 4.5000000000000009 19.904999732971195 11.500000000000002 2.5000000000000004
decision_type=2 2 2 2 2 2 2
left_child=1 3 -2 4 5 6 -1
right_child=2 -3 -4 -5 -6 -7 -8
leaf_value=0.07017422556877137 -0.018184924458244295 1.3789432393312455 0.040639639479365754 -0.038261850282644769 0.04244952564505855 -0.074778011392902688 0.54865481093778445
leaf_count=174 11274 20 2726 471 1101 74 118
internal_value=0 0.54355 -0.0560912 0.430571 0.671182 1.62609 2.19611
internal_count=15958 1958 14000 1938 1467 366 292
shrinkage=0.12


Tree=13
num_leaves=8
num_cat=0
split_feature=8 7 2 1 8 1 2
split_gain=478.311 1875.41 408.504 306.151 376.832 992.131 386.784
threshold=30.724999427795414 0.55500000715255748 9.5000000000000018 3.5000000000000004 18.045000076293949 2.5000000000000004 2.5000000000000004
decision_type=2 2 2 2 2 2 2
left_child=1 3 -2 4 5 -1 -7
right_child=2 -3 -4 -5 -6 6 -8
leaf_value=0.067298798879911734 -0.016002731589631919 1.2134700640439986 0.035762881573805257 -0.012088112993583705 0.055372424091417162 1.0571274027617081 0.39299068859645298
leaf_count=129 11274 20 2726 789 969 23 28
internal_value=0 0.478324 -0.0493602 0.378903 0.708261 2.037 5.77086
internal_count=15958 1958 14000 1938 1149 180 51
shrinkage=0.12


Tree=14
num_leaves=8
num_cat=0
split_feature=0 0 1 8 8 2 8
split_gain=3756.4 4953.72 1541.19 984.875 1475.48 790.77 813.952
threshold=1.5000000000000002 1.0000000180025095e-35 4.5000000000000009 49.764999389648445 30.974999427795414 6.5000000000000009 73.024997711181655
decision_type=2 2 2 2 2 2 2
left_child=1 -1 3 4 -3 -5 -7
right_child=-2 2 -4 5 -6 6 -8
leaf_value=0.012893201950689487 -0.015126261756005829 0.99163306430894493 0.16054840011820767 1.1363333838550667 0.20826313846949801 0.42989563800998637 1.2763761738368442
leaf_count=751 14738 49 131 76 118 74 21
internal_value=0 1.69984 4.24972 5.37827 3.65095 7.06518 5.14177
internal_count=15958 1220 469 338 167 171 95
shrinkage=0.12


Tree=15
num_leaves=8
num_cat=0
split_feature=3 8 1 8 1 2 1
split_gain=507.038 335.442 266.343 342.296 1031.25 305.417 247.961
threshold=1.0000000180025095e-35 39.844999313354499 3.5000000000000004 18.045000076293949 2.5000000000000004 2.5000000000000004 1.0000000180025095e-35
decision_type=2 2 2 2 2 2 2
left_child=1 2 3 4 6 -6 -1
right_child=-2 -3 -4 -5 5 -7 -8
leaf_value=-0.17229671472609043 -0.074329375302577411 -0.0063364875902089859 -0.0028340173519630922 0.045541682106401277 0.98534103393554695 0.3970049243503147 0.16754856067123236
leaf_count=50 1241 10292 1773 2470 24 27 81
internal_value=0 0.0461892 0.276435 0.477036 1.80055 5.61557 0.315305
internal_count=15958 14717 4425 2652 182 51 131
shrinkage=0.12


Tree=16
num_leaves=8
num_cat=0
split_feature=0 0 1 8 8 2 8
split_gain=2649.64 4285.69 1145.97 636.625 1732.64 757.128 687.746
threshold=1.5000000000000002 1.0000000180025095e-35 5.5000000000000009 46.125000000000007 40.114999771118171 9.5000000000000018 51.065000534057624
decision_type=2 2 2 2 2 2 2
left_child=1 -1 3 4 -3 6 -5
right_child=-2 2 -4 5 -6 -7 -8
leaf_value=-0.0045876469382872941 -0.014818560694349848 0.58362007340505007 -0.075611964005690355 1.3479746712809022 -0.25733272710625005 0.074640218348338686 0.65259783528067838
leaf_count=780 14712 126 52 23 49 29 187
internal_value=0 1.39527 3.79468 4.35046 2.90128 5.41157 6.07298
internal_count=15958 1246 466 414 175 239 210
shrinkage=0.12


Tree=17
num_leaves=8
num_cat=0
split_feature=0 0 1 8 8 1 8
split_gain=2051.88 3318.84 921.302 680.542 665.354 829.157 519.402
threshold=1.5000000000000002 1.0000000180025095e-35 4.5000000000000009 49.764999389648445 40.114999771118171 3.5000000000000004 44.725000381469734
decision_type=2 2 2 2 2 2 2
left_child=1 -1 3 4 5 -3 -6
right_child=-2 2 -4 -5 6 -7 -8
leaf_value=-0.0040371288803334416 -0.013040334371045906 0.69495031659419726 0.13513228417999709 0.67064432124240059 -0.3664896333217621 -0.17111422920227048 0.34652625131030235
leaf_count=780 14712 78 134 175 28 20 31
internal_value=0 1.22784 3.33932 4.23261 2.72104 4.31835 0.0678819
internal_count=15958 1246 466 332 157 98 59
shrinkage=0.12


Tree=18
num_leaves=8
num_cat=0
split_feature=0 0 0 1 8 7 8
split_gain=1623.67 918.527 1857.21 770.508 479.97 937.937 2996.13
threshold=6.5000000000000009 1.0000000180025095e-35 1.5000000000000002 5.5000000000000009 36.065000534057624 0.56499999761581432 32.995000839233406
decision_type=2 2 2 2 2 2 2
left_child=1 -1 3 -3 5 -2 -7
right_child=4 2 -4 -5 -6 6 -8
leaf_value=-0.0035526717901229856 0.016014392539387051 0.40731875769901965 0.052022111767216245 -0.08275441426497239 -0.02612509558671695 1.3722334791855104 -0.033035575469603409
leaf_count=780 2594 414 811 52 11202 31 74
internal_value=0 0.825416 1.34767 2.9386 -0.1265 0.252056 3.18211
internal_count=15958 2057 1277 466 13901 2699 105
shrinkage=0.12


Tree=19
num_leaves=8
num_cat=0
split_feature=0 0 0 1 8 8 1
split_gain=1257.37 711.307 1438.22 617.643 527.012 515.25 642.099
threshold=6.5000000000000009 1.0000000180025095e-35 1.5000000000000002 4.5000000000000009 49.764999389648445 40.114999771118171 3.5000000000000004
decision_type=2 2 2 2 2 2 2
left_child=1 -1 3 4 5 6 -3
right_child=-2 2 -4 -5 -6 -7 -8
leaf_value=-0.0031263523265862691 -0.013358415007426704 0.56267800672696189 0.045779457544005309 0.092859477756628353 0.54128874501585955 -0.041709924047276123 -0.19945877695083616
leaf_count=780 13901 78 811 134 175 59 20
internal_value=0 0.726366 1.18595 2.58597 3.31738 1.9872 3.39283
internal_count=15958 2057 1277 466 332 157 98
shrinkage=0.12


end of trees

feature importances:
Column_8=42
Column_0=35
Column_1=27
Column_2=24
Column_7=10
Column_3=2

parameters:
[boosting: gbdt]
[objective: regression]
[metric: rmse]
[tree_learner: serial]
[device_type: cpu]
[data: ]
[valid: ]
[num_iterations: 100]
[learning_rate: 0.12]
[num_leaves: 8]
[num_threads: 0]
[max_depth: -1]
[min_data_in_leaf: 20]
[min_sum_hessian_in_leaf: 0.001]
[bagging_fraction: 0.8]
[bagging_freq: 5]
[bagging_seed: 3]
[feature_fraction: 0.9]
[feature_fraction_seed: 2]
[early_stopping_round: 0]
[max_delta_step: 0]
[lambda_l1: 0]
[lambda_l2: 0]
[min_gain_to_split: 0]
[drop_rate: 0.1]
[max_drop: 50]
[skip_drop: 0.5]
[xgboost_dart_mode: 0]
[uniform_drop: 0]
[drop_seed: 4]
[top_rate: 0.2]
[other_rate: 0.1]
[min_data_per_group: 100]
[max_cat_threshold: 32]
[cat_l2: 10]
[cat_smooth: 10]
[max_cat_to_onehot: 4]
[top_k: 20]
[monotone_constraints: ]
[feature_contri: ]
[forcedsplits_filename: ]
[refit_decay_rate: 0.9]
[verbosity: 0]
[max_bin: 255]
[min_data_in_bin: 3]
[bin_construct_sample_cnt: 200000]
[histogram_pool_size: -1]
[data_random_seed: 1]
[output_model: LightGBM_model.txt]
[snapshot_freq: -1]
[input_model: ]
[output_result: LightGBM_predict_result.txt]
[initscore_filename: ]
[valid_data_initscores: ]
[pre_partition: 0]
[enable_bundle: 1]
[max_conflict_rate: 0]
[is_enable_sparse: 1]
[sparse_threshold: 0.8]
[use_missing: 1]
[zero_as_missing: 0]
[two_round: 0]
[save_binary: 0]
[enable_load_from_binary_file: 1]
[header: 0]
[label_column: ]
[weight_column: ]
[group_column: ]
[ignore_column: ]
[categorical_feature: ]
[predict_raw_score: 0]
[predict_leaf_index: 0]
[predict_contrib: 0]
[num_iteration_predict: -1]
[pred_early_stop: 0]
[pred_early_stop_freq: 10]
[pred_early_stop_margin: 10]
[convert_model_language: ]
[convert_model: gbdt_prediction.cpp]
[num_class: 1]
[is_unbalance: 0]
[scale_pos_weight: 1]
[sigmoid: 1]
[boost_from_average: 1]
[reg_sqrt: 0]
[alpha: 0.9]
[fair_c: 1]
[poisson_max_delta_step: 0.7]
[tweedie_variance_power: 1.5]
[max_position: 20]
[label_gain: ]
[metric_freq: 1]
[is_provide_training_metric: 0]
[eval_at: ]
[num_machines: 1]
[local_listen_port: 12400]
[time_out: 120]
[machine_list_filename: ]
[machines: ]
[gpu_platform_id: -1]
[gpu_device_id: -1]
[gpu_use_dp: 0]

end of parameters

pandas_categorical:null
