tree
version=v2
num_class=1
num_tree_per_iteration=1
label_index=0
max_feature_idx=7
objective=regression
feature_names=Column_0 Column_1 Column_2 Column_3 Column_4 Column_5 Column_6 Column_7
feature_infos=[0:23] [0:6] [1:12] [0:2] [0:1] [0:1] [0:1] [-10.229999542236328:95.220001220703125]
tree_sizes=3029 3078 3076 3079 3091 3097 3106 3096 3105 3082 3111 3084 3084 3104 3107 3106 3102 3106 3100 3119 3101 3070 3094 3096 3100 3104 3088 3108 3071 3104 3096 3103 3096 3099 3114 3122 3079 3092 3097 3104 3091 3096 3068 3102 3128 3124 3110 3114 3078 3075

Tree=0
num_leaves=40
num_cat=0
split_feature=7 2 2 2 0 6 0 0 1 1 7 1 2 4 1 0 0 2 7 2 0 6 0 0 7 1 0 7 1 2 7 0 1 0 2 1 7 7 2
split_gain=150738 38353.1 43255.8 31672.9 25392 19194.1 19725.2 17099 14760.8 13245.8 15400.3 12113.6 11507.7 12943.5 11788.3 9954.26 9164.1 8819.65 29388.6 7309.63 7259.16 7017.89 6993.58 6784.65 6758.95 10232.9 6571.64 6375.19 6046.13 5892.87 7064.35 5729.3 5126.78 5033.35 5161.22 9062.67 4777.46 4745.7 5706.03
threshold=49.784999847412116 9.5000000000000018 2.5000000000000004 11.500000000000002 1.5000000000000002 0.99500000476837169 18.500000000000004 1.0000000180025095e-35 3.5000000000000004 4.5000000000000009 25.039999961853031 2.5000000000000004 10.500000000000002 1.0000000180025095e-35 3.5000000000000004 21.500000000000004 1.0000000180025095e-35 11.500000000000002 40.454999923706062 3.5000000000000004 1.5000000000000002 0.054999999701976783 14.500000000000002 8.5000000000000018 12.600000381469728 4.5000000000000009 12.500000000000002 36.225000381469734 5.5000000000000009 1.5000000000000002 28.035000801086429 18.500000000000004 5.5000000000000009 21.500000000000004 1.5000000000000002 3.5000000000000004 28.714999198913578 46.215000152587898 10.500000000000002
decision_type=2 2 2 2 2 2 2 2 2 2 2 2 2 2 2 2 2 2 2 2 2 2 2 2 2 2 2 2 2 2 2 2 2 2 2 2 2 2 2
left_child=1 2 11 4 -2 9 -7 -4 -5 15 -11 27 33 -14 -15 20 28 -12 21 -9 -3 31 -20 36 25 -18 -26 -1 -13 30 32 -19 -28 34 35 -6 -22 38 -17
right_child=3 5 7 8 12 6 -8 19 -10 10 17 16 13 14 -16 37 24 18 22 -21 23 -23 -24 -25 26 -27 29 -29 -30 -31 -32 -33 -34 -35 -36 -37 -38 -39 -40
leaf_value=9.5124810424505917 9.5767515092475506 9.9298944244967338 9.7446509031753497 9.5044488825428513 10.142016449847299 9.9254905505506219 11.79444889545719 9.337849986268786 11.015877452410349 9.2300044347509136 9.7418099943245142 10.407235781054858 9.3301450824765393 9.6232293768800101 11.037492373925382 10.480698903652829 10.606591746100303 9.7984326185665207 10.689966135479981 9.1828927036313743 9.6085005986358674 9.1791363795688277 11.872176197092717 9.5559796592075568 9.4750773725099613 9.5854658228792946 9.6867130265286239 9.2865256282264301 9.440357969893725 9.8069265589052712 9.4285151440130495 10.424448892786444 10.408823900430454 9.2961085860455928 9.1725875186711452 9.011213586859121 9.2378494563271421 9.1721761492735361 9.8150549452982911
leaf_count=1057 456 101 198 30 37 48 20 1623 35 99 360 61 237 41 23 40 42 123 29 1433 116 32 22 1202 716 59 106 443 22 448 332 52 32 958 9348 34 347 22 165
internal_value=0 2.96414 1.64737 -2.47475 -2.60325 6.07928 22.6732 -0.943246 19.5354 5.6629 9.34885 4.18801 -2.91532 3.18007 15.7991 4.33685 5.9236 11.2038 15.6662 -1.52673 3.5356 10.3686 37.1683 3.03625 5.43254 13.3713 4.94183 2.08447 16.1886 6.71294 4.23933 12.8585 10.2527 -3.09213 -3.31424 5.1796 -0.216255 10.5704 12.0682
internal_count=20549 9350 6572 11199 11134 2778 68 3254 65 2710 717 3318 10678 301 64 1993 1818 618 258 3056 1766 207 51 1665 1735 101 1634 1500 83 918 470 175 138 10377 9419 71 463 227 205
shrinkage=1


Tree=1
num_leaves=40
num_cat=0
split_feature=7 2 2 2 0 6 0 0 1 1 7 1 2 4 1 0 0 2 7 1 7 2 0 2 6 0 7 1 0 7 1 2 7 0 0 1 6 0 0
split_gain=136041 34613.7 39038.3 28584.8 22916.2 17322.7 17802 15431.8 13321.7 11954.4 13898.7 10932.5 10385.7 11681.5 10639 9031.27 8270.6 7959.73 26523.2 7508.34 7916.83 10658 7194.5 6596.94 6333.65 6311.71 6099.95 9235.19 5930.91 5753.61 5456.63 5318.31 6375.57 5170.69 4780.86 4626.92 4623.7 4542.68 4542.6
threshold=49.784999847412116 9.5000000000000018 2.5000000000000004 11.500000000000002 1.5000000000000002 0.99500000476837169 18.500000000000004 1.0000000180025095e-35 3.5000000000000004 4.5000000000000009 25.039999961853031 2.5000000000000004 10.500000000000002 1.0000000180025095e-35 3.5000000000000004 19.500000000000004 1.0000000180025095e-35 11.500000000000002 40.454999923706062 3.5000000000000004 46.215000152587898 10.500000000000002 1.5000000000000002 3.5000000000000004 0.054999999701976783 14.500000000000002 12.600000381469728 4.5000000000000009 12.500000000000002 36.225000381469734 5.5000000000000009 1.5000000000000002 28.035000801086429 18.500000000000004 8.5000000000000018 5.5000000000000009 0.21499999612569812 11.500000000000002 21.500000000000004
decision_type=2 2 2 2 2 2 2 2 2 2 2 2 2 2 2 2 2 2 2 2 2 2 2 2 2 2 2 2 2 2 2 2 2 2 2 2 2 2 2
left_child=1 2 11 4 -2 9 -7 -4 -5 15 -11 29 38 -14 -15 22 30 36 24 20 21 -17 -3 -9 33 -20 27 -18 -28 37 -13 32 35 -19 -24 -30 -12 -1 -6
right_child=3 5 7 8 12 6 -8 23 -10 10 17 16 13 14 -16 19 26 18 25 -21 -22 -23 34 -25 -26 -27 28 -29 31 -31 -32 -33 -34 -35 -36 -37 -38 -39 -40
leaf_value=0.044549484224484959 0.22346504838450959 0.55895083450739935 0.38296947212833349 0.15477754751841227 -0.15742639068806094 0.5547671323176474 2.3302775572612879 -0.003491383798314845 1.5906347030507666 -0.10594465985442654 0.32624283356196959 1.012425097065871 -0.010811045923062014 0.26761902047366631 1.6111688787522525 1.2600783095932475 1.2018132493609475 0.43406211798026312 1.2810189512269252 -0.021799443101073492 -0.14743365310132503 0.46723311459163269 -0.010272115190587858 -0.15070081308265709 -0.15426931751426309 2.4041184382005172 0.12687462197418986 0.2317436670600358 0.32792849265179547 -0.052249534650123421 0.093891185522079479 0.44213135152656052 0.082640504127884484 1.0287775367498397 0.18388093750827594 1.0139338121749462 0.97457617238163952 0.25357057805229355 -0.04314571296434562
leaf_count=461 456 101 198 30 9419 48 20 1623 35 99 330 61 237 41 23 51 42 123 29 81 40 251 463 1433 32 22 716 59 106 443 22 448 332 52 1006 32 30 596 958
internal_value=0 2.81594 1.565 -2.35101 -2.47308 5.77532 21.5395 -0.896084 18.5586 5.37976 8.88141 3.97861 -2.76956 3.02107 15.0091 4.12001 5.62742 10.6436 14.8829 8.22111 10.2715 12.0225 3.01506 -1.4504 9.85019 35.3099 5.16091 12.7028 4.69474 1.98025 15.3792 6.37729 4.02736 12.2156 2.45375 9.74004 7.60541 3.24816 -2.93752
internal_count=20549 9350 6572 11199 11134 2778 68 3254 65 2710 717 3318 10678 301 64 1993 1818 618 258 423 342 302 1570 3056 207 51 1735 101 1634 1500 83 918 470 175 1469 138 360 1057 10377
shrinkage=0.05


Tree=2
num_leaves=40
num_cat=0
split_feature=7 2 2 2 0 6 0 0 1 1 7 1 2 4 1 0 0 0 2 0 7 1 0 2 7 6 0 7 6 1 7 2 6 7 7 1 0 0 7
split_gain=122777 31238.9 35232.1 25797.7 20681.9 15633.8 16066.3 13927.2 12022.8 10788.8 12543.6 9866.61 9373.08 10542.5 9601.66 8265.79 7511.38 7464.22 5953.74 5923.79 5505.21 8334.76 5498.18 5472.53 30965 6775.46 5352.64 5302.18 6758.37 4924.61 4864.6 4799.78 6338.38 4785.69 4404.69 4921.43 4347.08 5292.99 4311.66
threshold=49.784999847412116 9.5000000000000018 2.5000000000000004 11.500000000000002 1.5000000000000002 0.99500000476837169 18.500000000000004 1.0000000180025095e-35 3.5000000000000004 4.5000000000000009 25.039999961853031 2.5000000000000004 10.500000000000002 1.0000000180025095e-35 3.5000000000000004 21.500000000000004 6.5000000000000009 1.0000000180025095e-35 3.5000000000000004 1.5000000000000002 12.600000381469728 4.5000000000000009 8.5000000000000018 11.500000000000002 40.454999923706062 0.054999999701976783 12.500000000000002 29.664999961853031 0.13499999791383746 5.5000000000000009 34.895000457763679 1.5000000000000002 0.34499999880790716 31.414999961853031 37.914999008178718 3.5000000000000004 18.500000000000004 9.5000000000000018 28.714999198913578
decision_type=2 2 2 2 2 2 2 2 2 2 2 2 2 2 2 2 2 2 2 2 2 2 2 2 2 2 2 2 2 2 2 2 2 2 2 2 2 2 2
left_child=1 2 11 4 -2 9 -7 -4 -5 15 -11 27 -6 -14 -15 19 30 29 -9 -3 21 -19 38 -18 25 36 -22 28 -1 -13 -12 32 33 -28 35 -24 37 -25 -21
right_child=3 5 7 8 12 6 -8 18 -10 10 16 17 13 14 -16 -17 23 20 -20 22 26 -23 34 24 -26 -27 31 -29 -30 -31 -32 -33 -34 -35 -36 -37 -38 -39 -40
leaf_value=0.17313830566130567 0.21229179841384554 0.53100327943811321 0.363821000214478 0.14703867753346764 -0.13953225788146714 0.52702878589431446 2.2137637037038806 -0.0033168110255099195 1.5111029430798122 -0.10064743334672066 0.73344983905553818 0.96180382664086395 -0.010270502195076602 0.25423808359518285 1.5306104354236438 0.47971513071774385 0.43511444713665537 1.1417225905827113 -0.1431657784051065 0.2541402981070609 0.12053090138100714 0.22015647624256249 0.36379347287589087 1.1042843422429127 1.9339876585536535 -0.21624335289622346 0.3312860372792838 0.012191060892058425 1.1068101835250854 0.089196636730974374 -0.16512892729923376 0.42002478119518072 1.0403310594104587 0.0033039983210524891 0.10060420407407539 -0.003938937556427137 0.97733866638289058 0.22973329814863794 -0.09797828581602841
leaf_count=627 456 101 198 30 10377 48 20 1623 35 99 20 61 237 41 23 227 307 42 1433 116 716 59 467 22 45 30 203 853 20 22 61 448 21 246 622 113 52 81 347
internal_value=0 2.67514 1.48675 -2.23346 -2.34943 5.48655 20.4625 -0.85128 17.6307 5.11077 8.43734 3.77968 -2.63108 2.87001 14.2587 3.91401 10.1114 5.34605 -1.37788 3.18387 4.90287 12.0676 2.73278 11.4654 15.1536 9.43102 4.46 1.88124 4.04 14.6102 1.13485 6.05843 3.82599 3.0318 3.8606 5.84298 12.0935 8.33061 -0.19517
internal_count=20549 9350 6572 11199 11134 2778 68 3254 65 2710 717 3318 10678 301 64 1993 618 1818 3056 1766 1735 101 1665 537 230 185 1634 1500 647 83 81 918 470 449 1202 580 155 103 463
shrinkage=0.05


Tree=3
num_leaves=40
num_cat=0
split_feature=7 2 2 2 0 6 0 0 1 1 7 1 2 4 1 0 0 0 1 7 2 0 2 0 7 7 2 0 1 7 0 6 7 1 1 7 2 1 0
split_gain=110806 28193.1 31797 23282.5 18665.4 14109.5 14499.8 12569.3 10850.6 9736.91 11320.6 8904.62 8459.2 9514.63 8665.5 7490.42 6779.02 6736.46 6640.36 7036.36 9646.58 5874.4 5373.25 5080.15 8482.97 4993.06 21324.3 13056.2 5424.19 4901 4874.83 4530.26 8255.82 7873.17 4444.46 4390.3 4245.63 7783.96 4698.27
threshold=49.784999847412116 9.5000000000000018 2.5000000000000004 11.500000000000002 1.5000000000000002 0.99500000476837169 18.500000000000004 1.0000000180025095e-35 3.5000000000000004 4.5000000000000009 25.039999961853031 2.5000000000000004 10.500000000000002 1.0000000180025095e-35 3.5000000000000004 19.500000000000004 6.5000000000000009 1.0000000180025095e-35 3.5000000000000004 46.215000152587898 10.500000000000002 1.5000000000000002 3.5000000000000004 17.500000000000004 6.4549999237060556 39.364999771118171 11.500000000000002 15.500000000000002 5.5000000000000009 36.225000381469734 9.5000000000000018 0.35500000417232519 34.375000000000007 5.5000000000000009 5.5000000000000009 34.895000457763679 1.5000000000000002 3.5000000000000004 12.500000000000002
decision_type=2 2 2 2 2 2 2 2 2 2 2 2 2 2 2 2 2 2 2 2 2 2 2 2 2 2 2 2 2 2 2 2 2 2 2 2 2 2 2
left_child=1 2 11 4 -2 9 -7 -4 -5 15 -11 29 36 -14 -15 21 35 34 19 20 -17 -3 -9 24 -19 28 -27 -28 -18 -1 -30 -26 -33 -34 -13 -12 37 -6 -38
right_child=3 5 7 8 12 6 -8 22 -10 10 16 17 13 14 -16 18 25 23 -20 -21 -22 -23 -24 -25 31 26 27 -29 30 -31 -32 32 33 -35 -36 -37 38 -39 -40
leaf_value=0.14786895754814938 0.20167721544776374 0.50445311105266066 0.34562995168897842 0.13968676251669726 0.74292030161932898 0.50067735208819319 2.1030755078792573 -0.0031509691900995437 1.4355478300367084 -0.095615071717724959 0.69677737474441537 0.9137136512359636 -0.0097569813771086911 0.24152616333307289 1.4540799265646418 1.178519432217467 0.1305810278923861 1.1714296590714228 -0.034406890159035912 -0.15409605976194143 0.42422958327479576 0.11024106625718598 -0.13600747288833193 0.3601619079715952 0.12380224218538829 0.46599774745874534 0.92269568118370238 2.4282503008842471 1.260702145682729 -0.050246620755096054 0.45965260120980239 1.2983088799144911 0.71255396008491523 -0.17143527567386629 0.084736812656575997 -0.1568724648630033 -0.17682979971399732 -0.29056872345507145 -0.10783408438195977
leaf_count=1057 456 101 198 30 38 48 20 1623 35 99 20 61 237 41 23 51 116 21 81 40 251 1469 1433 540 1050 229 36 24 23 443 109 23 48 53 22 61 4094 35 6210
internal_value=0 2.54138 1.41241 -2.12179 -2.23196 5.21222 19.4394 -0.808715 16.7492 4.85523 8.01547 3.5907 -2.49952 2.72651 13.5458 3.71831 9.60584 5.07875 7.45321 9.38142 11.0322 2.71202 -1.30898 4.65772 3.50745 10.8921 13.7169 30.4984 7.60046 1.78718 11.9846 3.15111 8.86736 4.97357 13.8797 1.07811 -2.65111 4.94824 -2.70495
internal_count=20549 9350 6572 11199 11134 2778 68 3254 65 2710 717 3318 10678 301 64 1993 618 1818 423 342 302 1570 3056 1735 1195 537 289 60 248 1500 132 1174 124 101 83 81 10377 73 10304
shrinkage=0.05


Tree=4
num_leaves=40
num_cat=0
split_feature=7 2 2 2 0 6 0 0 1 1 7 1 2 4 1 0 0 0 2 0 0 7 1 2 7 6 0 7 6 2 6 7 2 0 0 1 0 2 1
split_gain=100002 25444.3 28696.8 21012.4 16845.5 12733.8 13086.1 11343.8 9792.65 8787.56 10216.8 8036.42 7634.43 8586.95 7820.61 6860.43 6118.06 6079.65 4849.36 4833.93 4869.16 4680.75 7505.85 4573.41 25945.6 6019.2 4546.4 4516.07 6099.43 4324.26 5550.71 4271.41 4150.23 4044.55 4474.9 4011.13 3994.63 4226.15 7411.12
threshold=49.784999847412116 9.5000000000000018 2.5000000000000004 11.500000000000002 1.5000000000000002 0.99500000476837169 18.500000000000004 1.0000000180025095e-35 3.5000000000000004 4.5000000000000009 25.039999961853031 2.5000000000000004 10.500000000000002 1.0000000180025095e-35 3.5000000000000004 21.500000000000004 6.5000000000000009 1.0000000180025095e-35 3.5000000000000004 1.5000000000000002 8.5000000000000018 12.600000381469728 4.5000000000000009 11.500000000000002 40.454999923706062 0.054999999701976783 12.500000000000002 29.664999961853031 0.13499999791383746 1.5000000000000002 0.34499999880790716 31.414999961853031 3.5000000000000004 18.500000000000004 9.5000000000000018 5.5000000000000009 21.500000000000004 1.5000000000000002 3.5000000000000004
decision_type=2 2 2 2 2 2 2 2 2 2 2 2 2 2 2 2 2 2 2 2 2 2 2 2 2 2 2 2 2 2 2 2 2 2 2 2 2 2 2
left_child=1 2 11 4 -2 9 -7 32 -5 15 -11 27 36 -14 -15 19 -12 35 -9 -3 -21 22 -19 -18 25 33 -23 28 -1 30 31 -28 -4 34 -25 -13 37 38 -6
right_child=3 5 7 8 12 6 -8 18 -10 10 16 17 13 14 -16 -17 23 21 -20 20 -22 26 -24 24 -26 -27 29 -29 -30 -31 -32 -33 -34 -35 -36 -37 -38 -39 -40
leaf_value=0.15708794292460598 0.19159335033935415 0.47923046391789276 0.58428279024294827 0.13270241361111404 0.73816866133664105 0.47564346737538776 1.9979217207431796 -0.0029934223206485415 1.3637704447337562 -0.090834305450470776 0.05120999859071073 0.86802795534251165 -0.009269129582346743 0.22944985686278924 1.3813758844914643 0.43536607251555914 0.39107875646507606 1.0624383233842396 -0.12920710473358424 -0.01478264875605413 0.17605385212537628 0.10638670893646152 0.18789798981052336 1.0004136952486904 1.7627152043581011 -0.22423004108170669 0.30113811468696361 0.0093325624773049551 1.0440762084722519 0.38563199131874304 0.96305998620532807 -0.0087200921180287019 0.1236009798131206 0.90898091252893209 0.19628322505288653 0.080499960617585631 -0.028654974977882476 -0.13874024891405723 -0.28441959715941373
leaf_count=627 456 101 88 30 37 48 20 1623 35 99 81 61 237 41 23 227 307 42 1433 463 1202 716 59 22 45 30 203 853 20 448 21 246 110 52 81 22 958 9348 34
internal_value=0 2.41431 1.34179 -2.0157 -2.12036 4.95161 18.4674 -0.76828 15.9117 4.61247 7.6147 3.41116 -2.37455 2.59019 12.8685 3.53239 9.12555 4.82481 -1.24353 2.86721 2.45973 4.42484 11.0314 10.3475 13.7192 8.48088 4.01648 1.69782 3.69013 5.48961 3.37064 2.62743 6.56697 10.9903 7.36078 13.1857 -2.51856 -2.71643 4.96957
internal_count=20549 9350 6572 11199 11134 2778 68 3254 65 2710 717 3318 10678 301 64 1993 618 1818 3056 1766 1665 1735 101 537 230 185 1634 1500 647 918 470 449 198 155 103 83 10377 9419 71
shrinkage=0.05


Tree=5
num_leaves=40
num_cat=0
split_feature=7 2 1 6 0 0 0 2 2 2 7 7 1 1 2 6 2 4 1 7 2 1 7 2 1 1 1 2 7 2 7 7 1 7 7 7 2 7 0
split_gain=90597.2 32271.7 18980.7 20716.1 15304.1 15336.6 14094.2 12223 14989.8 8035.22 6875.23 6697.22 6264.46 7969.11 6140.49 8787.24 6545.73 5766.62 5643.1 7190.95 6010.97 5766.57 5339.53 5161.99 5040.33 4767 5450.85 6465.87 4606.81 7417.56 4586.14 4363.44 4126.23 7277.67 6500.5 6723.37 3818.39 3782.5 5723.49
threshold=45.395000457763679 10.500000000000002 3.5000000000000004 0.91500002145767223 1.0000000180025095e-35 12.500000000000002 1.0000000180025095e-35 9.5000000000000018 2.5000000000000004 11.500000000000002 28.035000801086429 38.085000991821296 1.5000000000000002 5.5000000000000009 9.5000000000000018 0.99500000476837169 3.5000000000000004 1.0000000180025095e-35 3.5000000000000004 18.615000724792484 11.500000000000002 1.0000000180025095e-35 48.024999618530281 11.500000000000002 4.5000000000000009 4.5000000000000009 3.5000000000000004 10.500000000000002 39.364999771118171 11.500000000000002 30.304999351501468 40.93499946594239 4.5000000000000009 12.600000381469728 21.57499980926514 31.969999313354496 8.5000000000000018 21.57499980926514 21.500000000000004
decision_type=2 2 2 2 2 2 2 2 2 2 2 2 2 2 2 2 2 2 2 2 2 2 2 2 2 2 2 2 2 2 2 2 2 2 2 2 2 2 2
left_child=4 6 -3 9 12 18 -2 8 11 17 23 32 -1 -14 16 -16 24 -4 19 21 -21 -6 -11 -9 -8 26 27 -12 -27 31 -29 -30 33 -7 -34 -36 -18 -25 -39
right_child=1 2 3 -5 5 7 14 10 -10 22 25 -13 13 -15 15 -17 36 -19 -20 20 -22 -23 -24 37 -26 28 -28 30 29 -31 -32 -33 34 -35 35 -37 -38 38 -40
leaf_value=0.11085012531174082 0.15520531853584396 0.040002406313816179 0.1365892152974589 1.7490229154334349 -0.14210123454823215 0.86890867607934141 0.078569562449061048 0.66839636129423463 -0.0083962191402176291 1.5971748960018157 0.82846873675042121 0.03163386149089422 0.66972852276790207 -0.0064512249433769375 -0.025474757865115407 0.84186441500981657 -0.12428680438644549 1.0426477819681168 0.11541501184095969 -0.07897692767512654 0.17967053999075261 0.49667524453090589 0.57304765905652733 -0.28334474374794144 -0.20780605332457963 0.3579239334125503 0.0095564102498060868 0.78530451052862671 1.1794878005981446 1.3883861221585956 0.26337649465359825 0.34072331933007727 0.04861628209672323 0.19638625075718133 0.82971530045781816 0.29478775114463324 -0.21570231961535224 -0.080881929121190507 0.8029291494534565
leaf_count=112 511 374 144 34 51 42 632 29 1215 20 67 361 245 53 1098 30 8169 20 1399 1612 261 115 35 88 203 147 131 46 20 35 495 69 82 953 119 116 1328 62 26
internal_value=0 -1.6681 5.32535 12.0149 2.64303 2.31953 -2.03439 3.62496 2.50545 8.44949 6.28598 4.44696 8.59301 10.9894 -2.26352 -0.0481445 -2.50538 4.94168 0.761601 -0.29962 -0.858695 6.00849 18.9092 1.00592 0.178954 7.35768 6.04207 7.30272 10.9452 15.4344 6.1551 10.5842 5.49647 4.49548 8.63836 11.3133 -2.7414 -1.03101 3.60488
internal_count=20549 12598 627 253 7951 7541 11971 4103 2888 219 1215 1673 410 298 11460 1128 10332 164 3438 2039 1873 166 55 205 835 1010 739 608 271 124 541 89 1312 995 317 235 9497 176 88
shrinkage=0.05


Tree=6
num_leaves=40
num_cat=0
split_feature=7 2 0 0 0 2 6 1 0 2 2 1 7 7 2 1 1 7 1 7 2 1 2 1 0 1 0 2 7 7 1 4 7 7 7 0 0 0 7
split_gain=81763.9 29139.1 13812 13841.3 13382.8 13771.8 15572.6 12789.3 13640.8 11031.3 13528.3 8555.11 6204.9 6044.25 5907.52 5653.68 7192.12 5114.32 5092.9 6489.84 5424.9 5204.33 4658.7 4548.9 4536.79 3992.29 4027.36 3840.44 8769.84 3772.94 9095.91 9605.85 6093.13 4309.2 4460.62 4994.5 3690.92 3621.1 5902.15
threshold=45.395000457763679 11.500000000000002 1.0000000180025095e-35 12.500000000000002 1.0000000180025095e-35 9.5000000000000018 0.99500000476837169 3.5000000000000004 15.500000000000002 9.5000000000000018 2.5000000000000004 4.5000000000000009 28.035000801086429 38.085000991821296 3.5000000000000004 1.5000000000000002 5.5000000000000009 57.085000991821296 3.5000000000000004 18.615000724792484 11.500000000000002 1.0000000180025095e-35 11.500000000000002 4.5000000000000009 19.500000000000004 4.5000000000000009 10.500000000000002 1.5000000000000002 12.600000381469728 26.445000648498539 4.5000000000000009 1.0000000180025095e-35 31.969999313354496 37.534999847412116 29.375000000000004 17.500000000000004 19.500000000000004 8.5000000000000018 36.414999008178718
decision_type=2 2 2 2 2 2 2 2 2 2 2 2 2 2 2 2 2 2 2 2 2 2 2 2 2 2 2 2 2 2 2 2 2 2 2 2 2 2 2
left_child=2 4 15 18 -2 14 17 -3 -9 10 13 -8 22 27 23 -1 -17 25 19 21 -21 -4 -11 -6 -14 26 -7 28 -5 -29 33 32 -32 34 35 -31 -16 -22 -39
right_child=1 7 3 9 5 6 11 8 -10 12 -12 -13 24 -15 36 16 -18 -19 -20 20 37 -23 -24 -25 -26 -27 -28 29 -30 30 31 -33 -34 -35 -36 -37 -38 38 -40
leaf_value=0.10530761855521374 0.15918727434875835 0.10933353896252812 -0.13499617101807221 0.80100065810536902 0.074641081559931557 -0.18419160630144826 0.40005660112947228 0.65553550577285336 2.1542190443385731 0.63497654549006766 -0.0079764089172269098 1.6266584061440967 0.26332185888711951 0.030052162549997631 -0.14584051869603484 0.63624211454878055 -0.0061286613626300168 -0.093112825498577551 0.10964426973713476 -0.075028078838785373 -0.02810438341293179 0.47184147992211839 -0.048972823388281878 -0.19741575348149676 0.47981303252316831 0.25704417626261716 0.10266364192106632 0.16505680272225726 0.13958806778401819 1.2011243142187595 1.5626268355469957 -0.038467827998101715 0.69829767095771711 0.93925227423508972 0.11016210349485836 0.29708815515041354 -0.068030686542884064 0.57804077824820643 -0.11067457975859339
leaf_count=112 529 56 51 54 632 173 44 49 22 29 1215 21 608 361 7590 245 53 704 1399 1612 122 115 176 203 402 250 418 172 697 22 38 24 44 24 187 50 1907 92 47
internal_value=0 -1.58469 2.51088 2.20355 -1.73817 -1.9562 0.764226 13.4861 22.3983 3.44371 2.38018 15.9269 5.97168 4.22461 -2.38011 8.16336 10.4399 0.126315 0.723522 -0.284639 -0.81576 5.70807 0.95562 0.170006 6.98979 1.79095 0.373883 5.22164 3.74293 7.20118 8.92561 16.8267 21.9768 5.96618 4.77834 11.4664 -2.60433 3.41374 6.90332
internal_count=20549 12598 7951 7541 12471 11942 1610 127 71 4103 2888 65 1215 1673 10332 410 298 1545 3438 2039 1873 166 205 835 1010 841 591 1312 751 561 389 106 82 283 259 72 9497 261 139
shrinkage=0.05


Tree=7
num_leaves=40
num_cat=0
split_feature=7 2 1 4 1 0 0 0 2 2 2 7 7 6 6 7 1 1 2 6 2 1 7 2 1 1 1 2 2 7 2 7 1 7 1 7 2 7 7
split_gain=73792 26683.2 15917.8 17790.8 26124.8 12465.3 12491.8 11434 9955.71 12209.3 7414.4 5599.92 5476.99 5244.48 5687.55 5134.4 5102.44 6490.89 4906.63 6901.98 5331.54 4596.34 5857.08 4895.97 4696.91 4312.03 4922.31 5737.33 4204.48 4199.04 6714.71 4107.19 4105.38 3940.02 3774.89 7661.79 10961.4 5689.9 4434.67
threshold=45.395000457763679 10.500000000000002 3.5000000000000004 1.0000000180025095e-35 5.5000000000000009 1.0000000180025095e-35 12.500000000000002 1.0000000180025095e-35 9.5000000000000018 2.5000000000000004 11.500000000000002 28.035000801086429 36.225000381469734 0.59499999880790722 0.054999999701976783 57.315000534057624 1.5000000000000002 5.5000000000000009 9.5000000000000018 0.99500000476837169 3.5000000000000004 3.5000000000000004 18.615000724792484 11.500000000000002 1.0000000180025095e-35 4.5000000000000009 3.5000000000000004 10.500000000000002 11.500000000000002 39.364999771118171 11.500000000000002 30.304999351501468 4.5000000000000009 40.93499946594239 4.5000000000000009 26.855000495910648 1.5000000000000002 12.600000381469728 31.969999313354496
decision_type=2 2 2 2 2 2 2 2 2 2 2 2 2 2 2 2 2 2 2 2 2 2 2 2 2 2 2 2 2 2 2 2 2 2 2 2 2 2 2
left_child=5 7 -3 10 15 16 21 -2 9 12 -4 28 13 14 34 -5 -1 -18 20 -20 32 22 24 -24 -7 26 27 -13 -10 -27 33 -29 -9 -31 37 -36 -37 -8 -38
right_child=1 2 3 4 -6 6 8 18 11 -11 -12 25 -14 -15 -16 -17 17 -19 19 -21 -22 -23 23 -25 -26 29 -28 31 -30 30 -32 -33 -34 -35 35 36 38 -39 -40
leaf_value=0.10004223885812931 0.13948568436089329 0.035479093876911359 0.12317145745683876 2.2238639476799196 -0.31128687024116519 -0.12824635920571345 0.78995569343900396 0.070909032582812295 0.60322771380687579 -0.0075775861936341589 0.90835424943974152 0.76580119989256357 0.06763025047275148 0.83203325050238242 -0.07844398085906254 1.1963116731494665 0.60442999797207975 -0.005822232759223795 -0.023672671318868473 0.74501460880041126 -0.12370546882442768 0.10416204656099499 -0.071276676974307854 0.16215266679552781 0.4482494060241658 0.3218543657640211 -0.0085495334772663269 0.7272255738468274 -0.046524180683561345 1.104099930524826 1.3036357788901245 0.23330218377438461 -0.18754497238760587 0.30706975099401201 0.12200503676699906 0.23831182132199619 1.4844954490661622 0.19053915818046402 0.71547406944068703
leaf_count=112 511 374 144 31 20 51 42 632 29 1215 38 67 529 39 123 20 245 53 1098 30 9497 1399 1612 261 115 147 131 46 176 20 35 495 203 69 104 71 38 690 37
internal_value=0 -1.50546 4.8537 10.9798 24.4057 2.38533 2.09338 -1.83853 3.27152 2.26117 5.74221 5.6731 4.01338 5.24376 4.84151 36.418 7.7552 9.9179 -2.0449 -0.0645772 -2.26111 0.687345 -0.270407 -0.774972 5.42266 6.6403 5.38906 6.58703 0.907839 10.0524 14.3382 5.50599 0.161506 9.72355 5.64444 8.99936 13.6717 4.49864 22.1022
internal_count=20549 12598 627 253 71 7951 7541 11971 4103 2888 182 1215 1673 1144 1105 51 410 298 11460 1128 10332 3438 2039 1873 166 1010 739 608 205 271 124 541 835 89 982 250 146 732 75
shrinkage=0.05


Tree=8
num_leaves=40
num_cat=0
split_feature=7 2 0 2 6 0 0 2 2 1 0 1 1 1 7 7 2 7 1 1 0 7 2 1 7 2 1 1 7 1 2 7 0 7 7 2 7 0 7
split_gain=66637.2 27444.3 10723.4 11078.1 12962.7 10526.9 11166 8917.83 10648.7 7720.66 10542.6 7388.5 5857.32 5648.14 5150.88 5129.22 4855.56 4393.68 4318.84 4498.48 5456.33 4458.05 5384.94 4170.15 5246.6 4378.69 4238.96 4096.27 3734.37 3512.89 3493.72 3308.97 3268.04 5326.69 3698.78 3249.77 7414.59 3215.1 3199.7
threshold=45.145000457763679 11.500000000000002 1.0000000180025095e-35 9.5000000000000018 0.99500000476837169 1.0000000180025095e-35 12.500000000000002 9.5000000000000018 2.5000000000000004 3.5000000000000004 15.500000000000002 4.5000000000000009 1.5000000000000002 5.5000000000000009 28.035000801086429 38.085000991821296 3.5000000000000004 57.085000991821296 4.5000000000000009 3.5000000000000004 22.500000000000004 39.364999771118171 11.500000000000002 3.5000000000000004 18.615000724792484 11.500000000000002 1.0000000180025095e-35 3.5000000000000004 30.304999351501468 4.5000000000000009 8.5000000000000018 34.895000457763679 8.5000000000000018 36.414999008178718 29.07499980926514 1.5000000000000002 12.600000381469728 21.500000000000004 26.445000648498539
decision_type=2 2 2 2 2 2 2 2 2 2 2 2 2 2 2 2 2 2 2 2 2 2 2 2 2 2 2 2 2 2 2 2 2 2 2 2 2 2 2
left_child=5 2 -2 16 17 12 23 8 15 -3 -11 -6 -1 -14 27 35 29 -5 19 20 28 -20 -23 24 26 -26 -7 -9 -16 -4 37 -22 -27 34 -34 36 -8 -18 -37
right_child=1 9 3 4 11 6 7 14 -10 10 -12 -13 13 -15 18 -17 30 -19 21 -21 31 22 -24 -25 25 32 -28 -29 -30 -31 -32 -33 33 -35 -36 38 -38 -39 -40
leaf_value=0.050695158622481612 0.1412168715240196 0.21838252351715648 0.064426121185929552 0.079839505177090514 0.35653172642712228 -0.12183404319426593 0.73258535210733067 0.26124102194394383 -0.0051055867652015216 0.58363367009162903 1.8771041087401301 1.4964370347914242 0.57883098850057269 0.0048839260752384477 0.72159854084253316 0.022640991667233532 -0.11546938969484628 -0.08847720079039309 0.30576164783263698 -0.015125973534396315 0.24633405307928721 0.50155579181278453 1.2384539694445476 0.10103875802443274 -0.066862866630169965 -0.034806799461118511 0.42583693162254665 -0.18590227054059505 0.21907581767739087 -0.17135778831041745 -0.19263005965354299 0.9679249116477181 0.14562046395407782 -0.11324849252371079 0.79522362878280028 0.14763361599816138 0.12442204981088274 -0.009178628860540888 0.40661410817153432
leaf_count=110 532 58 647 863 44 51 54 105 1195 50 23 21 244 52 40 358 7411 704 147 127 24 85 35 1378 1596 122 115 100 488 209 1330 47 36 47 56 172 697 787 389
internal_value=0 -1.41876 -1.56908 -1.7636 0.658408 2.28569 2.01596 3.13499 2.17698 12.9803 19.8233 14.4962 7.24459 9.56005 5.42607 3.80782 -2.14425 0.0844103 6.36821 5.10348 6.24966 9.80712 14.3297 0.679105 -0.234797 -0.716288 5.15153 0.862447 5.14291 0.137148 -2.34921 14.4801 3.0809 6.396 10.8206 4.72329 3.36303 -2.10531 6.54424
internal_count=20549 12679 12548 12016 1632 7870 7464 4063 2865 131 73 65 406 296 1198 1670 10384 1567 993 726 599 267 120 3401 2023 1857 166 205 528 856 9528 71 261 139 92 1312 751 8198 561
shrinkage=0.05


Tree=9
num_leaves=40
num_cat=0
split_feature=7 2 0 2 6 0 0 2 2 1 0 1 7 0 7 6 1 1 1 2 7 7 7 1 1 1 7 0 7 1 1 2 1 0 1 7 1 0 0
split_gain=60140 24768.5 9677.84 9997.99 11698.9 9500.5 10136.2 8339.56 11252.3 6967.9 9514.7 6668.12 6054.88 6207.94 5615.27 37099.6 5286.23 5097.44 4775.13 4382.14 4154.38 4060.95 7375.9 10114.3 4981 4987.53 4923.39 4322.59 3965.3 3531.76 3170.39 3153.08 3141.71 3139.08 3047.49 4584.19 2975.94 3471.82 3165.71
threshold=45.145000457763679 11.500000000000002 1.0000000180025095e-35 9.5000000000000018 0.99500000476837169 1.0000000180025095e-35 8.5000000000000018 9.5000000000000018 2.5000000000000004 3.5000000000000004 15.500000000000002 4.5000000000000009 12.600000381469728 19.500000000000004 29.664999961853031 0.19500000029802325 1.5000000000000002 5.5000000000000009 1.5000000000000002 3.5000000000000004 12.600000381469728 39.364999771118171 40.93499946594239 2.5000000000000004 1.0000000180025095e-35 3.5000000000000004 30.304999351501468 22.500000000000004 57.085000991821296 3.5000000000000004 4.5000000000000009 8.5000000000000018 5.5000000000000009 17.500000000000004 5.5000000000000009 40.93499946594239 4.5000000000000009 10.500000000000002 13.500000000000002
decision_type=2 2 2 2 2 2 2 2 2 2 2 2 2 2 2 2 2 2 2 2 2 2 2 2 2 2 2 2 2 2 2 2 2 2 2 2 2 2 2
left_child=5 2 -2 19 28 16 -7 8 14 -3 -11 -6 -9 34 15 20 -1 -18 -16 30 29 24 -23 -24 -15 26 -26 -28 36 33 -4 -21 -27 -8 -14 -36 37 -5 -38
right_child=1 9 3 4 11 6 7 12 -10 10 -12 -13 13 21 18 -17 17 -19 -20 31 -22 22 23 -25 25 32 27 -29 -30 -31 -32 -33 -34 -35 35 -37 38 -39 -40
leaf_value=0.048160405335101214 0.13415602276138253 0.20746340214692316 0.061204818934432505 -0.1709356750808867 0.33870511901649564 -0.0054526473733368941 0.46407399883976685 -0.34190822318196301 -0.010561559483955761 0.55445198959112163 1.7832488837449447 1.4216151972611746 0.14326175337913591 -0.09865123792181886 -0.053516857418680445 2.384151796102524 0.54988945514788146 0.0046397305451906642 0.15431976629668065 -0.1000022945871518 0.17088058503787507 1.351136042390551 1.1516258666524664 0.060048007870477343 0.95751775761933211 0.0019303304021773132 0.17408770354588829 0.88423001607259111 -0.084053332760760741 0.23619415144702152 -0.16278990640452035 -0.18299855354459105 0.51964655986358954 1.2791537875930468 0.19487587529243811 0.78836566408475239 0.39459232063964012 0.092254478600753226 0.043620499021323152
leaf_count=110 532 58 647 177 44 1858 27 46 1635 50 23 21 974 63 386 20 244 52 973 8198 837 28 32 63 56 92 75 30 704 56 209 1330 43 21 101 48 128 429 129
internal_value=0 -1.34782 -1.49063 -1.67542 0.625488 2.17141 1.91516 2.58605 1.79801 12.3313 18.8321 13.7714 4.4738 4.798 3.21401 5.06408 6.88236 9.08205 1.90575 -2.03704 4.15826 7.79995 12.7588 8.55475 6.10094 7.81938 11.5782 7.53971 0.0801898 10.1191 0.13029 -2.23175 3.33665 16.4134 3.50955 7.72134 1.51695 0.307642 4.36847
internal_count=20549 12679 12548 12016 1632 7870 7464 5606 3955 131 73 65 1651 1605 2320 961 406 296 1359 10384 941 482 123 95 359 296 161 105 1567 104 856 9528 135 48 1123 149 863 606 257
shrinkage=0.05


Tree=10
num_leaves=40
num_cat=0
split_feature=7 2 0 2 6 0 0 2 2 1 0 1 1 1 7 7 2 1 1 2 7 2 2 1 7 1 2 7 7 0 1 1 7 0 0 7 0 7 1
split_gain=54276.4 22353.6 8734.26 9023.19 10558.2 8574.2 9301.45 7249.12 8728.9 6288.53 8587.02 6017.98 4770.82 4600.44 4514.52 4472.78 3954.88 3785.46 3924.12 4777.96 3832.73 4789.11 3729.48 3712.56 4686.85 3906.66 3873.07 3578.68 3406.41 5684.95 4874.74 3360.39 3282.29 3233.33 3222.8 3049.08 2980.94 3631.11 2956.38
threshold=45.145000457763679 11.500000000000002 1.0000000180025095e-35 9.5000000000000018 0.99500000476837169 1.0000000180025095e-35 12.500000000000002 9.5000000000000018 2.5000000000000004 3.5000000000000004 15.500000000000002 4.5000000000000009 1.5000000000000002 5.5000000000000009 28.035000801086429 38.085000991821296 3.5000000000000004 4.5000000000000009 3.5000000000000004 10.500000000000002 39.364999771118171 11.500000000000002 11.500000000000002 3.5000000000000004 18.615000724792484 2.5000000000000004 11.500000000000002 57.085000991821296 38.504999160766609 15.500000000000002 1.0000000180025095e-35 1.5000000000000002 30.304999351501468 22.500000000000004 16.500000000000004 40.93499946594239 19.500000000000004 63.795000076293952 4.5000000000000009
decision_type=2 2 2 2 2 2 2 2 2 2 2 2 2 2 2 2 2 2 2 2 2 2 2 2 2 2 2 2 2 2 2 2 2 2 2 2 2 2 2
left_child=5 2 -2 16 27 12 23 8 15 -3 -11 -6 -1 -14 22 38 -4 18 19 -16 -19 35 -9 24 25 -7 -26 -5 29 -21 34 -24 -31 -34 -30 -22 -18 -38 -8
right_child=1 9 3 4 11 6 7 14 -10 10 -12 -13 13 -15 17 -17 36 20 -20 28 21 -23 31 -25 26 -27 -28 -29 30 32 -32 -33 33 -35 -36 -37 37 -39 -40
leaf_value=0.045752388685941697 0.12744823413852013 0.19709024043946433 0.0061887900215556206 0.072055153516504308 0.32176987496628007 0.10923107498674654 0.17305596636650364 0.55707799997822993 -0.0043222349557916493 0.52672940245270727 1.6940864407497906 1.3505344339779446 0.52239497891388342 0.0044077507578409638 0.69564098008568331 0.016028071918092961 -0.12003941474368265 0.27923877147995696 -0.022238318974108207 0.77894972100601356 0.99724562823772434 1.1523141809872219 0.38364318153687887 0.093259144827577523 -0.065107096882973489 0.68656909334424299 0.14265538599641844 -0.079850663446863604 0.091545101165771484 0.64460518289180035 -0.068036227947787228 -0.16372268552634311 0.090942312280337015 0.63954773333764847 0.88663257818955654 0.29126593118103655 -0.13043854404630331 0.008830481546095904 0.34839384021319758
leaf_count=110 532 58 856 863 44 128 995 29 1195 50 23 21 244 52 63 358 7612 147 127 59 20 35 35 1378 1596 38 261 704 25 42 152 141 201 31 26 65 813 1103 317
internal_value=0 -1.28043 -1.4161 -1.59165 0.594214 2.06284 1.8194 2.84074 1.97699 11.7148 17.8905 13.0828 6.53824 8.62794 4.90637 3.45353 -1.93519 5.7884 4.60434 5.67485 9.00796 13.2014 0.633939 0.599262 -0.263042 4.82786 -0.718125 0.0761803 4.70658 6.67489 1.47779 -1.09743 4.75758 3.28495 9.93768 9.14758 -2.12016 -1.00529 4.30841
internal_count=20549 12679 12548 12016 1632 7870 7464 4063 2865 131 73 65 406 296 1198 1670 10384 993 726 599 267 120 205 3401 2023 166 1857 1567 536 333 203 176 274 232 51 85 9528 1916 1312
shrinkage=0.05


Tree=11
num_leaves=40
num_cat=0
split_feature=7 2 0 2 6 0 0 2 2 1 0 1 7 0 7 6 1 1 1 7 2 7 7 1 1 1 7 0 2 1 1 7 1 7 1 0 2 0 1
split_gain=48984.4 20174.1 7882.67 8143.43 9528.8 7738.22 8589.01 6810.19 9354.36 5675.4 7749.78 5431.23 5223.73 5336.24 4888.98 33454.8 4305.67 4231.88 4151.9 3651.43 3647.12 3503.91 6438.86 8711.55 4602.93 4341.42 4417.89 3636.82 3413.78 3710.45 5371.91 3229.76 2772.06 2826.14 2685.79 3133.32 2969.98 4422.09 4367.1
threshold=45.145000457763679 11.500000000000002 1.0000000180025095e-35 9.5000000000000018 0.99500000476837169 1.0000000180025095e-35 8.5000000000000018 9.5000000000000018 2.5000000000000004 3.5000000000000004 15.500000000000002 4.5000000000000009 12.600000381469728 19.500000000000004 29.664999961853031 0.19500000029802325 1.5000000000000002 1.5000000000000002 5.5000000000000009 12.600000381469728 7.5000000000000009 39.364999771118171 40.93499946594239 2.5000000000000004 1.0000000180025095e-35 3.5000000000000004 30.304999351501468 22.500000000000004 1.5000000000000002 1.0000000180025095e-35 4.5000000000000009 57.085000991821296 5.5000000000000009 31.414999961853031 4.5000000000000009 10.500000000000002 10.500000000000002 13.500000000000002 5.5000000000000009
decision_type=2 2 2 2 2 2 2 2 2 2 2 2 2 2 2 2 2 2 2 2 2 2 2 2 2 2 2 2 2 2 2 2 2 2 2 2 2 2 2
left_child=5 2 -2 20 31 16 -7 8 14 -3 -11 -6 -9 -14 15 19 -1 -16 -18 28 -4 24 -23 -24 -15 26 -26 -28 29 -8 -31 34 -27 -34 35 -5 -36 38 -38
right_child=1 9 3 4 11 6 7 12 -10 10 -12 -13 13 21 17 -17 18 -19 -20 -21 -22 22 23 -25 25 32 27 -29 -30 30 -32 -33 33 -35 36 -37 37 -39 -40
leaf_value=0.043464768014170908 0.12107582576012701 0.18723572698132745 -0.072754496060275661 -0.16599165507629093 0.30568138344044038 -0.0067448820273188397 0.17944912633725577 -0.32275131448455485 -0.009904869541935965 0.50039292308688166 1.6093820973582891 1.2830077091852825 0.15792248478569407 -0.11017234453133173 -0.054873438891737569 2.2561277912557123 0.49627522298623428 0.1407840691991428 0.004187357998811282 0.15483411757501897 -0.13773288351395163 1.2534781226090024 1.0625429615378381 0.049484882279047897 0.89449010289141118 -0.0035134114669230971 0.15845902707179388 0.80983878334363313 -0.014795560141404471 1.4352935994664828 0.38802839231491093 -0.075858139061231428 0.89768400376751323 0.086760195412419069 0.073737661841750887 0.084039001126875693 1.3014359550816674 0.07378035135891127 0.34759486903037345
leaf_count=110 532 58 7321 177 44 1858 28 46 1635 50 23 21 1123 63 386 20 244 973 52 837 3063 28 32 63 56 92 75 30 27 24 25 704 21 22 162 429 21 46 28
internal_value=0 -1.21641 -1.34529 -1.51206 0.564503 1.9597 1.72843 2.346 1.63388 11.129 16.996 12.4287 4.05189 4.35303 2.92494 4.65123 6.21133 1.70422 8.19655 3.79105 -1.83843 7.13624 11.7425 7.81451 5.55805 7.20999 10.7169 6.89135 9.37939 12.772 18.0195 0.0723712 3.02768 9.65586 1.36905 0.220205 4.07799 8.5172 15.1277
internal_count=20549 12679 12548 12016 1632 7870 7464 5606 3955 131 73 65 1651 1605 2320 961 406 1359 296 941 10384 482 123 95 359 296 161 105 104 77 49 1567 135 43 863 606 257 95 49
shrinkage=0.05


Tree=12
num_leaves=40
num_cat=0
split_feature=7 2 6 1 0 0 0 2 2 1 0 6 2 7 0 7 7 1 1 7 6 1 1 1 7 1 1 1 2 7 7 2 1 1 7 0 2 7 6
split_gain=44232.9 15591.2 10247.2 9263.41 7398.45 7480.68 6444.24 5755.72 7843.19 5640.2 5080.92 6550.52 4852.97 4779.81 4783.07 4519.24 4483.84 6465.25 5381.98 4356.09 30193 4154.15 4003.4 3918.13 3987.14 3874.33 5468.54 3598.54 3342.89 4758.75 3295.42 3258.25 3105.05 3072.82 2889.26 2812.25 2631.9 2612.6 2612.38
threshold=44.065000534057624 10.500000000000002 0.91500002145767223 3.5000000000000004 1.0000000180025095e-35 8.5000000000000018 1.0000000180025095e-35 9.5000000000000018 2.5000000000000004 4.5000000000000009 21.500000000000004 0.98500001430511486 11.500000000000002 12.600000381469728 19.500000000000004 49.274999618530281 39.364999771118171 4.5000000000000009 3.5000000000000004 29.664999961853031 0.19500000029802325 1.0000000180025095e-35 1.0000000180025095e-35 3.5000000000000004 30.304999351501468 1.5000000000000002 4.5000000000000009 1.5000000000000002 11.500000000000002 37.354999542236335 12.600000381469728 3.5000000000000004 3.5000000000000004 4.5000000000000009 56.174999237060554 17.500000000000004 10.500000000000002 33.625000000000007 0.21499999612569812
decision_type=2 2 2 2 2 2 2 2 2 2 2 2 2 2 2 2 2 2 2 2 2 2 2 2 2 2 2 2 2 2 2 2 2 2 2 2 2 2 2
left_child=4 6 9 -4 25 -6 -2 8 19 22 31 -12 -11 -9 -15 -14 21 18 36 20 30 -16 34 24 -23 -1 -27 -21 29 -26 32 33 35 -8 -3 -7 -18 -30 -29
right_child=1 2 3 -5 5 7 10 13 -10 12 11 -13 15 14 16 -17 17 -19 -20 27 -22 23 -24 -25 28 26 -28 38 37 -31 -32 -33 -34 -35 -36 -37 -38 -39 -40
leaf_value=0.050938152086060007 0.10182991174797557 0.55629489731554893 0.24216156689822677 1.2940469394955372 -0.003633150862654744 0.40309208929538731 0.057470885091188965 -0.30661374200945318 -0.0066050352895835537 0.199034839926302 0.0076771501072573217 0.92062589973211295 1.3608625243790449 0.15210324147779908 -0.10466373200927462 0.29793774604797368 1.1353157883882523 1.3587094026307265 -0.26310019606635687 -0.050308890652688433 2.1433214312791828 0.84976559435682641 -0.051325949010094109 0.14381490307411662 1.0708863483534921 0.57800625954515172 0.12555907953409826 0.17519548694025727 0.36138262897729878 0.13213760146388301 0.14709241018055305 -0.095786116363452037 0.19258299722735372 -0.1606649697613968 -0.15278005529195071 1.1745749950408937 0.40842265432531183 -0.357815156293952 -0.031073761437995447
leaf_count=106 528 51 50 36 1790 27 667 46 1522 129 1117 20 20 1052 63 20 20 24 21 374 20 56 394 135 27 175 108 750 28 27 837 9750 56 213 20 21 33 23 193
internal_value=0 -1.11627 3.40662 13.6497 1.92835 1.69713 -1.38113 2.28871 1.62552 2.01718 -1.53449 0.474721 6.96467 3.90939 4.2155 16.588 6.91671 12.9119 8.28626 2.79983 4.41867 5.28015 0.219054 6.84949 10.1811 6.17537 8.10682 1.61859 6.54678 12.0302 3.6015 -1.74939 8.91042 0.0934419 7.13111 14.8123 13.6544 0.740771 2.65958
internal_count=20549 13015 720 86 7534 7145 12295 5355 3800 634 11767 1137 169 1555 1509 40 457 98 74 2278 961 359 465 296 161 389 283 1317 105 54 941 10630 104 880 71 48 53 51 943
shrinkage=0.05


Tree=13
num_leaves=40
num_cat=0
split_feature=7 2 6 1 0 0 0 2 2 1 0 6 2 7 0 7 7 1 1 7 6 1 1 7 7 1 2 1 1 7 1 1 0 0 1 2 1 7 1
split_gain=39920.2 14071.1 9248.07 8360.23 6677.1 6751.31 5815.92 5194.54 7078.48 5090.28 4585.53 5911.84 4379.8 4313.78 4316.72 4078.61 4046.66 5834.89 4857.24 3954.42 26562.2 3749.12 3693.35 10926.8 7123.21 7534.39 4318.38 3613.07 3536.12 3598.4 3496.58 4935.35 3152.76 3054.23 3034.75 2940.57 2773.22 2607.55 2562.93
threshold=44.065000534057624 10.500000000000002 0.91500002145767223 3.5000000000000004 1.0000000180025095e-35 8.5000000000000018 1.0000000180025095e-35 9.5000000000000018 2.5000000000000004 4.5000000000000009 21.500000000000004 0.98500001430511486 11.500000000000002 12.600000381469728 19.500000000000004 49.274999618530281 39.364999771118171 4.5000000000000009 3.5000000000000004 31.969999313354496 0.41499999165534979 1.0000000180025095e-35 4.5000000000000009 23.445000648498539 16.404999732971195 1.0000000180025095e-35 1.5000000000000002 1.0000000180025095e-35 3.5000000000000004 30.304999351501468 1.5000000000000002 4.5000000000000009 22.500000000000004 17.500000000000004 1.5000000000000002 3.5000000000000004 4.5000000000000009 56.174999237060554 3.5000000000000004
decision_type=2 2 2 2 2 2 2 2 2 2 2 2 2 2 2 2 2 2 2 2 2 2 2 2 2 2 2 2 2 2 2 2 2 2 2 2 2 2 2
left_child=4 6 9 -4 30 38 -2 8 19 27 35 -12 -11 -9 -15 -14 21 18 -18 20 22 -16 24 -24 25 -7 -25 37 29 -23 -1 -32 -31 -28 -21 36 -8 -3 -6
right_child=1 2 3 -5 5 7 10 13 -10 12 11 -13 15 14 16 -17 17 -19 -20 34 -22 28 23 26 -26 -27 33 -29 -30 32 31 -33 -34 -35 -36 -37 -38 -39 -40
leaf_value=0.04839124055403584 0.096738419748108956 0.52848015842484497 0.23005349624156951 1.2293445964654288 -0.052700686530186516 -0.014222749166710433 0.054597336586252015 -0.29128305834272633 -0.0062747802962298156 0.18908309788955738 0.0072932931893666085 0.8745946061611175 1.2928193691372873 0.14449807912390814 -0.099430539943869162 0.28304083824157716 0.64858586855654454 1.2907739197214445 -0.24994518529801144 -0.067359150941333476 2.0037481811642648 0.80727730013563159 -0.0039729257633212868 0.33957024586989598 0.062124797300734697 0.84155658798990773 0.58320515446173837 -0.048759647680039937 0.1366241582510648 0.13769117546081544 0.5491059457319124 0.11928111890123949 0.74417474091053015 1.2218629221121471 0.11688407805356454 -0.090996810005309112 -0.15263172320566828 -0.14514104656875135 0.069230219637292395
leaf_count=106 528 51 50 36 1067 43 667 46 1522 129 1117 20 20 1052 63 20 53 24 21 310 20 56 131 68 766 64 39 394 135 75 175 108 30 36 801 9750 213 20 723
internal_value=0 -1.06045 3.23629 12.9672 1.83194 1.61227 -1.31207 2.17428 1.54424 1.91632 -1.45776 0.450985 6.61644 3.71392 4.00473 15.7586 6.57088 12.2663 7.87195 2.65984 3.94538 5.01614 3.3154 6.51842 2.31009 9.95291 12.5626 0.208102 6.50702 9.672 5.8666 7.70148 6.21944 17.7952 1.3095 -1.66192 0.0887697 6.77455 -0.06903
internal_count=20549 13015 720 86 7534 7145 12295 5355 3800 634 11767 1137 169 1555 1509 40 457 98 74 2278 1167 359 1147 274 873 107 143 465 296 161 389 283 105 75 1111 10630 880 71 1790
shrinkage=0.05


Tree=14
num_leaves=40
num_cat=0
split_feature=7 2 6 1 0 2 2 1 4 0 0 1 0 6 7 2 7 7 7 1 7 1 7 1 1 0 0 1 6 6 0 6 7 2 6 1 6 7 1
split_gain=36028 12699.1 8346.39 7545.11 6026.08 6233.42 9234.23 5260.71 9728.87 5248.87 4703.27 4593.97 4138.44 5335.44 4064.92 3952.77 3680.95 3613.51 6134.64 3573.12 3650.77 3260.8 3259.12 3155.67 4454.16 3129.29 3782.07 2971.04 2792.52 12513.7 2735.65 2975.08 3450.22 2696.91 3500.33 4006.33 3076.72 2566.05 2516.88
threshold=44.065000534057624 10.500000000000002 0.91500002145767223 3.5000000000000004 1.0000000180025095e-35 9.5000000000000018 2.5000000000000004 5.5000000000000009 1.0000000180025095e-35 1.0000000180025095e-35 19.500000000000004 4.5000000000000009 21.500000000000004 0.98500001430511486 39.795000076293952 11.500000000000002 49.274999618530281 25.039999961853031 31.414999961853031 2.5000000000000004 6.4549999237060556 1.0000000180025095e-35 36.225000381469734 1.5000000000000002 4.5000000000000009 17.500000000000004 18.500000000000004 3.5000000000000004 0.63499999046325695 0.97500002384185802 21.500000000000004 0.024999999441206459 22.255000114440922 2.5000000000000004 0.35500000417232519 1.5000000000000002 0.62500000000000011 54.93499946594239 1.0000000180025095e-35
decision_type=2 2 2 2 2 2 2 2 2 2 2 2 2 2 2 2 2 2 2 2 2 2 2 2 2 2 2 2 2 2 2 2 2 2 2 2 2 2 2
left_child=4 9 11 -4 23 6 19 10 17 -2 -7 21 33 -14 38 -13 -17 -9 -19 22 -21 -3 30 -1 -25 28 27 -27 -22 -30 -6 32 -32 34 35 37 -36 -11 -12
right_child=1 2 3 -5 5 7 -8 8 -10 12 14 15 13 -15 -16 16 -18 18 -20 20 25 -23 -24 24 -26 26 -28 -29 29 -31 31 -33 -34 -35 36 -37 -38 -39 -40
leaf_value=0.045971676088728999 0.091901489310531007 0.32179131624879131 0.21855080541968347 1.167877381750279 0.059115905158109217 0.075939874362176613 -0.032736701175219873 -0.19516063365671371 1.3434116044770117 0.078258402074146791 -0.094459013700012182 0.17962894888176015 0.0069286312879169075 0.83086488664150238 0.58497126404150035 1.2281783956289294 0.26888882160186767 0.84771577909271767 0.19202038826722956 0.65971113392284941 0.076468645656858306 -0.046321667898044483 -0.090541208553119659 0.52165064425553598 0.11331707328833916 1.0948026040941476 0.18819330957384758 0.38650294914841654 1.199426315511976 -0.24796264404430987 0.63355160038317404 0.85483607110523041 -0.005927643676598867 -0.084376237009427618 0.76926318407058725 -0.12824837829465505 0.12312161740044068 0.61317796572261773 0.25590771942517976
leaf_count=106 528 71 50 36 894 1403 2125 36 23 81 63 129 1117 20 81 20 20 47 148 35 1018 394 337 175 108 20 405 57 28 32 31 21 66 10157 27 276 58 31 275
internal_value=0 -1.00743 3.07447 12.3189 1.74034 1.53166 0.933917 2.99118 7.25467 -1.24647 2.39682 1.8205 -1.38487 0.428436 5.33682 6.28562 14.9707 5.30181 7.0012 2.08062 3.09378 0.197697 0.882693 5.57327 7.3164 2.86717 4.98527 11.4095 1.92012 8.54971 1.77965 6.30516 3.96884 -1.57883 0.755267 -0.517995 6.56733 4.52633 3.81205
internal_count=20549 13015 720 86 7534 7145 5069 2076 254 12295 1822 634 11767 1137 419 169 40 231 195 2944 1595 465 1349 389 283 1560 482 77 1078 60 1012 118 97 10630 473 388 85 112 338
shrinkage=0.05


Tree=15
num_leaves=40
num_cat=0
split_feature=7 2 6 1 0 0 0 2 7 6 1 7 0 1 2 1 7 2 7 7 1 2 2 6 2 2 0 1 1 2 7 6 7 7 2 7 1 1 0
split_gain=32515.3 11461 7532.61 6809.46 5438.54 5877.36 4737.11 4209.91 5675.84 15124.5 4146.06 4028.9 4003.53 6426.21 5492.41 3860.78 5123.76 3748.54 6489.73 8426.71 3698.09 5307.89 3591.92 3247.41 3148.05 3103.79 2948.91 2942.87 2917.16 2882.14 4243.07 3686.71 7164.69 3606.32 3524.5 2947.1 2847.99 4019.88 2725.11
threshold=44.065000534057624 10.500000000000002 0.91500002145767223 3.5000000000000004 1.0000000180025095e-35 12.500000000000002 1.0000000180025095e-35 9.5000000000000018 31.969999313354496 0.45499999821186071 4.5000000000000009 28.035000801086429 12.500000000000002 4.5000000000000009 1.5000000000000002 4.5000000000000009 39.364999771118171 9.5000000000000018 49.784999847412116 48.764999389648445 5.5000000000000009 11.500000000000002 11.500000000000002 0.23499999940395358 11.500000000000002 3.5000000000000004 8.5000000000000018 1.0000000180025095e-35 1.5000000000000002 11.500000000000002 14.559999942779543 0.17500000447034839 31.969999313354496 6.4549999237060556 9.5000000000000018 36.225000381469734 1.5000000000000002 4.5000000000000009 13.500000000000002
decision_type=2 2 2 2 2 2 2 2 2 2 2 2 2 2 2 2 2 2 2 2 2 2 2 2 2 2 2 2 2 2 2 2 2 2 2 2 2 2 2
left_child=4 6 10 -4 36 29 -2 8 9 -7 27 24 13 14 -8 -13 -17 -14 19 -19 21 38 -18 25 -9 -10 -15 -3 -26 31 -31 33 -33 -6 -34 -32 -1 -38 -12
right_child=1 2 3 -5 5 7 12 11 23 -11 20 15 17 26 -16 16 22 18 -20 -21 -22 -23 -24 -25 28 -27 -28 -29 -30 30 35 32 34 -35 -36 -37 37 -39 -40
leaf_value=0.04367310238896676 0.087306427872728382 0.30570175269959682 0.20762327040731907 1.1094834938645364 0.45898464581905274 0.1449849172042654 0.44519121717661625 0.4784178859200971 0.097289951668856095 1.5003294158549538 0.71938608159189643 0.17913746156205285 -0.05427895212109235 0.075418505048721676 -0.14415343695595823 0.22517710219336942 0.47487807192374021 0.20362948148863988 -0.0023260325279467965 1.281642752073028 0.045934582921939027 1.1355663948059083 1.1170806870316015 -0.096703037350220192 0.32476281366177973 -0.12003195389490767 -0.075389331881399763 -0.044005584113564589 -0.1852287364766953 -0.36917770442209746 0.25124776101283797 0.8925688447554907 0.027434193899836201 -0.02571202976142134 0.53300003211658742 -0.061306183389628059 0.49556812093939107 0.10765121409462558 0.045113156978474109
leaf_count=106 528 71 50 36 39 1038 40 29 1073 21 23 673 6299 593 3389 147 64 103 606 22 78 25 33 418 35 194 715 394 141 38 339 30 297 2400 39 97 175 108 43
internal_value=0 -0.95706 2.92075 11.7029 1.65332 1.45508 -1.18415 2.29035 1.62307 3.43723 1.72948 3.92228 -1.31563 -2.02621 -2.74557 4.81824 8.22597 -0.836821 1.30671 7.8672 5.97134 10.3022 13.8672 0.482897 -0.0855058 1.28028 -0.14037 0.187812 -1.6762 0.470272 2.75095 0.0848738 3.04437 -0.359233 1.72232 3.63423 5.29461 6.95058 5.60174
internal_count=20549 13015 720 86 7534 7145 12295 3866 2744 1059 634 1122 11767 4737 3429 917 244 7030 731 125 169 91 97 1685 205 1267 1308 465 176 3279 474 2805 366 2439 336 436 389 283 66
shrinkage=0.05


Tree=16
num_leaves=40
num_cat=0
split_feature=7 2 6 1 0 0 0 1 2 2 0 1 2 7 0 2 7 7 1 2 7 6 7 1 1 1 1 7 2 7 1 4 0 1 1 1 0 1 7
split_gain=29345 10343.5 6798.18 6145.54 4908.28 5495.8 4275.24 3741.82 3735.25 5505.43 3613.18 5799.65 4956.9 3452.53 3500.78 3383.06 5856.98 7605.11 3337.53 4790.37 3294.17 23583.2 3173.05 5012.46 4377.13 3130.14 3232.09 3295.47 2983.6 4230.11 2770.68 2724.2 2661.39 2655.94 2570.31 3627.94 2459.41 2399.34 2439.33
threshold=44.065000534057624 10.500000000000002 0.91500002145767223 3.5000000000000004 1.0000000180025095e-35 8.5000000000000018 1.0000000180025095e-35 4.5000000000000009 9.5000000000000018 2.5000000000000004 12.500000000000002 4.5000000000000009 1.5000000000000002 12.600000381469728 19.500000000000004 9.5000000000000018 49.784999847412116 48.764999389648445 5.5000000000000009 11.500000000000002 29.664999961853031 0.19500000029802325 39.364999771118171 4.5000000000000009 3.5000000000000004 1.0000000180025095e-35 3.5000000000000004 30.304999351501468 11.500000000000002 37.354999542236335 1.5000000000000002 1.0000000180025095e-35 8.5000000000000018 1.0000000180025095e-35 1.5000000000000002 4.5000000000000009 13.500000000000002 5.5000000000000009 31.414999961853031
decision_type=2 2 2 2 2 2 2 2 2 2 2 2 2 2 2 2 2 2 2 2 2 2 2 2 2 2 2 2 2 2 2 2 2 2 2 2 2 2 2
left_child=4 6 7 -4 34 -6 -2 33 9 20 11 12 -8 -10 -15 -12 17 -17 19 36 21 31 25 24 -24 -16 27 -27 29 -29 -22 -7 -13 -3 -1 -36 -9 -28 -39
right_child=1 2 3 -5 5 8 10 18 13 -11 15 32 -14 14 22 16 -18 -19 -20 -21 30 -23 23 -25 -26 26 37 28 -30 -31 -32 -33 -34 -35 35 -37 -38 38 -40
leaf_value=0.041489439640405051 0.082941099431252843 0.29041666589992149 0.19724211480654777 1.0540093178550403 -0.0067306753536218039 0.17073322522393541 0.42293164891190832 0.68341677240703413 -0.26696754810602769 -0.0058718189812521117 -0.051565004228022127 0.071647577813016103 -0.13694576925833596 0.12256199205332984 -0.10055489475055346 0.19344800340319146 -0.002209728468738177 1.217560591751879 0.043637856229757653 1.0787880773544312 -0.04956880488935958 1.8863207477331163 0.57888244188056803 1.1683712502320609 -0.27408639476412822 0.74862701871565418 -0.036959566678042004 0.97522781546469095 -0.00058531466068006033 0.090155196189880382 0.1112601622895161 -0.21980803057234338 -0.071619865387886547 -0.041805305332890924 0.47078971828307425 0.10226865888193802 0.042857500217681713 0.8009282691138131 0.047540358386256476
leaf_count=106 528 71 50 36 1790 894 40 23 46 1522 6299 593 3389 1052 63 103 606 22 78 25 374 20 53 24 21 56 92 27 51 27 943 47 715 394 175 108 43 21 22
internal_value=0 -0.909207 2.77471 11.1178 1.57066 1.38232 -1.12494 1.643 1.88939 1.35512 -1.24985 -1.9249 -2.60829 3.19498 3.45513 -0.79498 1.24138 7.47384 5.67277 9.78707 2.33899 3.74674 5.76607 10.8094 6.73647 4.38935 5.7516 8.77747 5.47343 10.6538 1.31176 3.02454 -0.133352 0.178421 5.02988 6.60305 5.32165 2.14298 8.30948
internal_count=20549 13015 720 86 7534 7145 12295 634 5355 3800 11767 4737 3429 1555 1509 7030 731 125 169 91 2278 961 457 98 74 359 296 161 105 54 1317 941 1308 465 389 283 66 135 43
shrinkage=0.05


Tree=17
num_leaves=40
num_cat=0
split_feature=7 2 1 4 1 6 0 0 1 7 7 6 0 7 1 2 0 0 0 1 2 1 7 0 2 2 2 7 1 7 7 2 0 2 6 2 0 0 4
split_gain=26500.3 10592.7 7785.32 9620.03 19877.1 6854.51 4622.25 5453.08 5293.48 4403.04 7022.89 5710.85 4118.31 3595.92 5136.26 8716.03 3858.94 3441.09 2980.54 4527.8 5255.97 2905.04 2801.55 5519.38 2774.32 2425.34 2327.83 4158.17 6784.9 2277.39 2214.09 4178.03 5902.77 2970.42 10794.9 2798.07 2360.56 2711.18 3004.48
threshold=45.395000457763679 10.500000000000002 3.5000000000000004 1.0000000180025095e-35 5.5000000000000009 0.99500000476837169 21.500000000000004 1.5000000000000002 4.5000000000000009 22.894999504089359 31.414999961853031 0.14500000327825549 1.0000000180025095e-35 18.615000724792484 2.5000000000000004 11.500000000000002 7.5000000000000009 16.500000000000004 12.500000000000002 4.5000000000000009 1.5000000000000002 3.5000000000000004 30.535000801086429 16.500000000000004 9.5000000000000018 1.5000000000000002 9.5000000000000018 50.024999618530281 4.5000000000000009 37.914999008178718 37.73500061035157 11.500000000000002 15.500000000000002 1.5000000000000002 0.17500000447034839 1.5000000000000002 17.500000000000004 13.500000000000002 1.0000000180025095e-35
decision_type=2 2 2 2 2 2 2 2 2 2 2 2 2 2 2 2 2 2 2 2 2 2 2 2 2 2 2 2 2 2 2 2 2 2 2 2 2 2 2
left_child=6 12 -3 17 5 -5 7 -1 13 -10 11 22 -2 14 -9 21 -15 -4 19 20 -14 25 -11 -24 -18 -16 -20 28 -28 -26 35 33 -33 34 -32 -12 37 -35 -39
right_child=1 2 3 4 -6 -7 -8 8 9 10 30 -13 18 16 15 -17 24 -19 26 -21 -22 -23 23 -25 29 -27 27 -29 -30 -31 31 32 -34 36 -36 -37 -38 38 -40
leaf_value=0.23135713857506782 0.083280689149745069 0.010314394297566325 0.037512612143574764 1.9123323883329117 -0.47286733686923982 0.74740108445934628 0.17892074576705796 -0.004128870933676477 -0.065056106779310438 0.23140857233101936 -0.2517451537259664 1.1651038295030594 0.46912976342278556 -0.082255976436942879 1.3079759665510871 -0.17326419112530161 0.0031987253040334559 0.51605543052812786 -0.050710573391631403 -0.012553808768903177 -0.13013325418055141 0.38045484720586015 0.20796490663455591 1.1750365796089173 0.1633445666159275 0.62153648782160975 0.050380364950023487 -0.0045420278885392445 0.91759263382786349 0.016579125808215047 0.028712804891890095 0.11097227788502069 1.1183224109502941 0.025645732885528461 1.2594713702201845 0.066465294242664744 -0.14738135885411097 0.42822891329725588 -0.14669888307308329
leaf_count=426 511 374 129 28 20 23 889 176 270 289 83 20 37 934 22 47 2529 53 6155 1270 3299 52 36 25 604 31 67 598 34 470 62 33 26 253 25 412 103 105 29
internal_value=0 -0.902173 3.10449 7.38879 17.2615 27.7394 1.42945 1.15893 0.936288 2.41659 3.08533 6.86712 -1.11203 0.397416 3.59492 7.85307 0.166254 3.53737 -1.23588 -1.85799 -2.46974 12.9194 5.92798 12.0861 0.635814 18.1295 -0.817818 0.911516 6.84626 1.98235 1.84814 3.08249 11.0978 2.26291 7.64758 0.262176 1.30685 2.43918 6.07608
internal_count=20549 12598 627 253 71 51 7951 7062 6636 1771 1501 370 11971 4865 328 152 4537 182 11460 4606 3336 105 350 61 3603 53 6854 699 101 1074 1131 636 59 577 87 495 490 387 134
shrinkage=0.05


Tree=18
num_leaves=40
num_cat=0
split_feature=7 2 2 6 0 0 0 2 2 7 7 0 1 7 2 7 1 2 7 7 0 7 1 1 1 4 1 7 7 1 7 1 7 7 2 2 7 6 7
split_gain=23978.7 8563.91 4595.96 5654.39 4629.83 4019.53 4655.96 3852.74 4696.93 3506.17 6714.8 3458.53 4965.63 3416.53 3402.62 3329.71 3473.8 3328.13 3559.74 14354.8 2967.24 2892.15 4435.7 3931.97 2826.11 3126.16 3294.83 2769.36 2485.75 2476.48 4683.08 5693 4658.94 6351.12 2380.13 2138.14 2362.09 2770.76 2230.98
threshold=44.065000534057624 11.500000000000002 9.5000000000000018 0.99500000476837169 1.0000000180025095e-35 1.5000000000000002 7.5000000000000009 9.5000000000000018 2.5000000000000004 48.764999389648445 51.905000686645515 16.500000000000004 3.5000000000000004 12.600000381469728 8.5000000000000018 38.085000991821296 3.5000000000000004 10.500000000000002 25.039999961853031 31.115000724792484 19.500000000000004 39.364999771118171 4.5000000000000009 3.5000000000000004 1.0000000180025095e-35 1.0000000180025095e-35 3.5000000000000004 38.504999160766609 57.085000991821296 4.5000000000000009 16.404999732971195 1.0000000180025095e-35 21.57499980926514 32.225000381469734 10.500000000000002 1.5000000000000002 37.534999847412116 0.58499997854232799 19.454999923706058
decision_type=2 2 2 2 2 2 2 2 2 2 2 2 2 2 2 2 2 2 2 2 2 2 2 2 2 2 2 2 2 2 2 2 2 2 2 2 2 2 2
left_child=5 2 4 28 -2 -1 15 8 27 -5 -11 -3 -13 -9 -6 16 -7 -18 -19 -20 -15 24 23 34 -22 26 -26 29 -4 30 31 -8 -31 -34 -23 -32 37 38 -37
right_child=1 11 3 9 14 6 7 13 -10 10 -12 12 -14 20 -16 -17 17 18 19 -21 21 22 -24 -25 25 -27 -28 -29 -30 32 35 -33 33 -35 -36 36 -38 -39 -40
leaf_value=0.22421564820280049 0.094502198755243377 0.18727345208235838 0.061123952948539263 -0.072593403946269647 -0.053675112763433445 -0.055709263741842409 -0.052345144980483586 -0.26184351259469985 -0.0094001286352299474 1.3707255746104889 0.21275410998252131 0.1621393781900406 1.2629804707708814 0.11589337211695552 -0.13920478757162741 -0.17814627869047803 0.0479579730787211 0.024489638277075509 1.6059174454730489 0.038282056897878648 -0.10388172557429663 0.97491727657616145 1.0973393581807613 -0.26391672861008419 0.47247686143272327 -0.28210468366742136 0.12307171767217018 -0.016622103966032784 -0.060346356437124063 -0.052945607004024224 0.012719338716560927 0.65902297963698708 0.50637532521024853 0.095756056668654166 0.28366479494354946 0.52623345851898196 0.50384113744991577 0.55546952738906397 0.059785768588457466
leaf_count=405 479 109 1005 22 9252 642 45 50 1657 21 31 20 21 1182 1330 271 324 44 23 40 63 20 24 21 148 24 124 423 725 118 793 75 194 183 33 27 41 33 507
internal_value=0 -0.821879 -0.909469 0.570532 -1.15085 1.4198 1.2457 1.63523 1.11119 9.13069 13.6079 6.69042 14.5197 2.90609 -1.2885 -0.430948 0.360074 2.55607 7.39158 12.2119 3.1545 5.31841 10.1333 6.3019 4.00403 5.29844 6.26378 1.99382 0.204375 2.48192 1.84964 7.8452 4.42475 6.14112 10.8903 1.3361 2.74696 2.21694 1.6674
internal_count=20549 13015 12865 1804 11061 7534 7129 5785 4096 74 52 150 41 1689 10582 1344 1073 431 107 63 1639 457 98 74 359 296 272 2439 1730 2016 1521 120 495 377 53 1401 608 567 534
shrinkage=0.05


Tree=19
num_leaves=40
num_cat=0
split_feature=7 2 2 6 0 0 0 6 6 0 7 6 0 0 1 2 2 7 6 7 2 7 7 1 1 7 0 2 1 7 2 3 7 0 7 7 7 1 1
split_gain=21640.7 7728.93 4147.85 5103.09 4178.42 3627.9 4209.3 3595.15 4997.04 5471.52 3951.36 9070.39 3239.48 3121.32 4481.48 3070.86 2334.52 3399.8 3261.53 5991.53 3096.64 3062.49 2645.65 2319.71 3274.22 2243.39 2224.53 2108.53 2239.8 2099.23 3016.71 1973.72 1959.79 1943.98 3119.17 2401.03 1872.43 3644.49 3078.41
threshold=44.065000534057624 11.500000000000002 9.5000000000000018 0.99500000476837169 1.0000000180025095e-35 1.0000000180025095e-35 12.500000000000002 0.064999999478459372 0.99500000476837169 17.500000000000004 29.664999961853031 0.20499999821186068 18.500000000000004 16.500000000000004 3.5000000000000004 8.5000000000000018 11.500000000000002 14.559999942779543 0.17500000447034839 31.969999313354496 9.5000000000000018 6.4549999237060556 36.225000381469734 1.5000000000000002 4.5000000000000009 57.085000991821296 11.500000000000002 3.5000000000000004 4.5000000000000009 29.07499980926514 10.500000000000002 1.0000000180025095e-35 44.344999313354499 19.500000000000004 63.795000076293952 65.49499893188478 29.664999961853031 3.5000000000000004 3.5000000000000004
decision_type=2 2 2 2 2 2 2 2 2 2 2 2 2 2 2 2 2 2 2 2 2 2 2 2 2 2 2 2 2 2 2 2 2 2 2 2 2 2 2
left_child=5 2 4 25 -2 23 16 31 10 -10 11 -9 -5 -3 -15 27 18 -18 21 -20 -21 -7 26 -1 36 32 -19 28 -6 30 -23 -8 -4 -29 -35 -36 38 -38 -25
right_child=1 13 3 12 15 6 7 8 9 -11 -12 -13 -14 14 -16 -17 17 22 19 20 -22 29 -24 24 -26 -27 -28 33 -30 -31 -32 -33 -34 34 35 -37 37 -39 -40
leaf_value=0.016636334528338233 0.089777079272805274 0.17790978004079347 -0.38832805355389916 0.20450910472869877 0.063181944346070953 0.41896141917308205 0.12260759089544836 -0.12516446215541741 -0.15299521386623383 0.82164178374740815 -0.082677527199853329 1.1505561936985362 0.91120522717634833 0.15403241395950318 1.1998314653124129 -0.13224454566573768 -0.33328135013580323 0.26562929916584377 0.81654056747754411 0.02405779619108547 0.49794470888968462 0.009510784485574228 -0.07041726597037512 0.96926683160391736 0.074376582085258436 -0.057329039860388335 -0.18534172813097638 -0.071123175378916867 -0.11581251087771867 -0.062863859440827605 0.38281114085994922 -0.21848803155643998 0.068988755494963749 -0.091274129851621921 0.30323574143861021 0.023380079972743991 0.12580606220517218 0.70795150481164459 0.18312827587127686
leaf_count=106 479 109 24 50 718 39 3094 38 24 36 609 22 24 20 21 1330 38 309 30 297 39 809 97 33 108 725 30 6650 231 1533 58 43 981 694 84 875 82 40 20
internal_value=0 -0.780785 -0.863996 0.542006 -1.09331 1.34881 1.18689 1.89377 -0.10665 8.63574 -0.890721 6.852 8.67416 6.3559 13.7937 -1.22407 0.353472 2.40608 0.00661459 2.79023 1.58125 -0.411099 3.19673 4.32281 5.81733 0.194157 4.51441 -1.01983 0.392243 -0.553942 0.689672 2.35864 1.16136 -1.18122 -0.210706 0.95786 8.48943 6.33347 13.4522
internal_count=20549 13015 12865 1804 11061 7534 7145 3866 729 60 669 60 74 150 41 10582 3279 474 2805 366 336 2439 436 389 283 1730 339 9252 949 2400 867 3137 1005 8303 1653 959 175 122 53
shrinkage=0.05


Tree=20
num_leaves=40
num_cat=0
split_feature=7 2 6 0 0 0 0 1 7 7 6 2 2 0 1 1 7 1 7 1 2 0 0 0 7 0 6 7 1 1 2 1 7 7 5 2 0 2 0
split_gain=19636.6 7368.64 6534.87 6811.05 4862.93 4144.89 3618.58 3299.26 3938.1 5699.88 4900.25 3152.66 3025.04 5457.97 4373 3342.86 3399.86 4453.29 2764.59 4506.33 7263.81 2878.09 4534.74 2707.57 2541.76 4950.52 2362.53 6311.61 2325.54 2331.32 2188.89 2144.44 3188.48 2075.5 2047.77 2066.39 4938.38 1972.84 2457.02
threshold=42.174999237060554 9.5000000000000018 0.99500000476837169 19.500000000000004 21.500000000000004 1.5000000000000002 1.0000000180025095e-35 4.5000000000000009 22.894999504089359 31.414999961853031 0.14500000327825549 3.5000000000000004 11.500000000000002 19.500000000000004 1.0000000180025095e-35 2.5000000000000004 46.674999237060554 4.5000000000000009 18.615000724792484 2.5000000000000004 11.500000000000002 18.500000000000004 8.5000000000000018 10.500000000000002 30.535000801086429 16.500000000000004 0.28499999642372137 31.969999313354496 1.5000000000000002 4.5000000000000009 8.5000000000000018 5.5000000000000009 16.404999732971195 57.085000991821296 1.0000000180025095e-35 11.500000000000002 15.500000000000002 11.500000000000002 8.5000000000000018
decision_type=2 2 2 2 2 2 2 2 2 2 2 2 2 2 2 2 2 2 2 2 2 2 2 2 2 2 2 2 2 2 2 2 2 2 2 2 2 2 2
left_child=4 6 12 -4 5 28 -2 18 31 10 24 -8 33 14 -14 -16 -17 -18 19 -7 21 22 -21 37 -10 -26 -25 -28 -1 -30 -13 -9 -33 -3 35 -11 -37 -20 -39
right_child=1 2 3 -5 -6 7 11 8 9 34 -12 30 13 -15 15 16 17 -19 23 20 -22 -23 -24 26 25 -27 27 -29 29 -31 -32 32 -34 -35 -36 36 -38 38 -40
leaf_value=0.010656114645076521 0.079928363790584989 0.052889669576960834 0.21698555068389791 1.2020922712657764 0.18834065694623592 -0.011834038940088993 0.020475605161029416 -0.18237133140889755 0.20346526320005373 0.059766292441763041 1.0700636041164397 -0.056635219407939669 0.79397187005905878 0.9451980948448182 -0.35277264033045092 -0.12410800292136821 -0.10971845790743828 0.85348937829335536 -0.063444363522993638 0.39741246293609345 -0.1568046550484414 0.051410686969757084 1.1340168548043115 0.066333252465171105 0.18329149236281714 1.0991728310585023 0.69361616396904002 -0.12978080332787703 0.41882435360875647 0.11824916512705386 -0.12563232224266557 -0.1051560640335083 0.45309375364605975 -0.054462587675143941 -0.29964262127876279 -0.0099850740697648797 0.64833844602108004 -0.027611597645170006 0.30806213452535519
leaf_count=99 507 1188 74 23 759 176 1181 161 289 735 20 8469 21 23 42 47 20 30 1372 48 47 20 37 1921 36 25 25 337 156 110 1330 68 41 725 35 63 52 152 85
internal_value=0 -0.692694 0.987016 9.01135 1.37954 1.08299 -1.01337 0.875382 2.136 2.88137 6.17733 -1.13398 0.615661 4.49986 2.42927 0.397235 3.62417 9.36412 0.419825 3.20793 7.19642 11.8215 14.361 0.184857 5.30739 11.1731 0.885067 -1.45833 4.35063 5.89053 -1.32 -1.32856 2.09656 0.244094 1.5034 1.81207 5.75383 -0.808668 1.85555
internal_count=20549 13680 2193 97 6869 6110 11487 5745 1525 1255 370 10980 2096 183 160 139 97 50 4220 328 152 105 85 3892 350 61 2283 362 365 266 9799 270 109 1913 885 850 115 1609 237
shrinkage=0.05


Tree=21
num_leaves=40
num_cat=0
split_feature=7 2 6 0 0 0 0 0 1 7 7 6 2 7 6 2 2 2 0 1 1 7 7 0 2 7 0 0 2 7 2 2 7 1 0 1 1 2 0
split_gain=17722 6650.19 5897.72 6146.98 4388.8 3740.76 3265.77 3040.93 3719.58 3407.51 5996.42 3984.09 2845.28 2796.45 4656.72 11483.2 6716.14 2730.1 4925.82 3946.63 3016.93 3068.37 4226.12 2394.2 2249.59 2198.32 3977.95 3337.25 9734.57 3986.47 3067.64 2490.09 2136.25 3792 5160.69 2098.8 2171.46 1975.47 1935.9
threshold=42.174999237060554 9.5000000000000018 0.99500000476837169 19.500000000000004 21.500000000000004 1.5000000000000002 1.0000000180025095e-35 5.5000000000000009 4.5000000000000009 22.894999504089359 31.414999961853031 0.14500000327825549 3.5000000000000004 37.914999008178718 0.14500000327825549 1.5000000000000002 2.5000000000000004 11.500000000000002 19.500000000000004 1.0000000180025095e-35 2.5000000000000004 46.674999237060554 49.014999389648445 6.5000000000000009 1.5000000000000002 30.535000801086429 16.500000000000004 9.5000000000000018 10.500000000000002 25.554999351501468 2.5000000000000004 1.5000000000000002 40.024999618530281 5.5000000000000009 16.500000000000004 1.5000000000000002 5.5000000000000009 8.5000000000000018 11.500000000000002
decision_type=2 2 2 2 2 2 2 2 2 2 2 2 2 2 2 2 2 2 2 2 2 2 2 2 2 2 2 2 2 2 2 2 2 2 2 2 2 2 2
left_child=4 6 17 -4 5 35 -2 -7 -9 23 11 25 -8 24 32 -16 -17 -3 19 -19 -21 -22 -23 -10 -12 27 -27 28 29 -11 31 -29 33 -15 38 -1 -37 -14 -35
right_child=1 2 3 -5 -6 7 12 8 9 10 13 -13 37 14 15 16 -18 18 -20 20 21 22 -24 -25 -26 26 -28 30 -30 -31 -32 -33 -34 34 -36 36 -38 -39 -40
leaf_value=0.010123307054693048 0.075931950106011822 0.011594444981197327 0.20613627200191087 1.1419876855352651 0.17892362554091346 -0.091395067494362603 0.019451825326398508 0.026395845890420273 0.34724096186233289 0.77869719346719135 -0.22868232046298329 1.016560388058424 -0.053803456364240103 -0.015330321438934492 1.5320399571032752 -0.38804144125564827 0.69760685193127603 0.75427328859056741 0.89793822506199727 -0.33513400838488627 -0.11790258583236249 0.98498414187204275 0.053625167135534613 -0.11059366811137156 0.055578476517218089 0.21337688793154325 1.0442142028808594 0.066419629163520275 1.4154194264184863 -0.035317627776343868 -0.10258552471360008 0.63006450037161521 -0.04438099372812486 0.51116541579365726 -0.10893500873020717 0.35189985944801627 -0.0032585696985565678 -0.11935070181727635 1.2068484872579575
leaf_count=99 507 1913 74 23 759 400 1181 3921 33 21 84 20 8469 69 21 28 29 21 23 42 47 21 29 212 406 34 25 43 21 53 91 36 137 20 21 212 54 1330 20
internal_value=0 -0.65806 0.937666 8.56078 1.31056 1.02884 -0.962702 0.831613 1.03064 2.4149 3.12006 6.63367 -1.07728 1.67254 3.8535 10.6508 3.28612 0.584878 4.27487 2.30781 0.377374 3.44296 8.89592 -0.978523 0.136961 5.78814 11.3085 4.55907 9.30623 3.91373 1.90625 6.46541 1.86776 4.77152 10.5156 4.1331 5.596 -1.254 17.1801
internal_count=20549 13680 2193 97 6869 6110 11487 5745 5345 1424 1179 344 10980 835 345 78 57 2096 183 160 139 97 50 245 490 324 59 265 95 74 170 79 267 130 61 365 266 9799 40
shrinkage=0.05


Tree=22
num_leaves=40
num_cat=0
split_feature=7 2 6 0 0 0 0 2 7 1 6 7 6 7 7 2 7 7 2 0 2 1 2 0 1 1 7 0 0 1 7 7 0 7 7 7 0 0 1
split_gain=15994.1 6001.8 5322.7 5547.65 3960.89 3376.04 2947.35 2790.56 5830.48 7447.46 5416.82 3660.45 18735.9 3369.23 4343.51 3230.86 3991.52 3767.66 2633.55 2547.75 2539.66 2690.98 2463.91 4445.55 3561.84 2758.66 6840.31 2367.19 2348.94 3415.25 3955.43 3001 5736.25 4614.09 5071.53 2704.92 2409.92 2143.23 2105.65
threshold=42.174999237060554 9.5000000000000018 0.99500000476837169 19.500000000000004 21.500000000000004 1.5000000000000002 1.0000000180025095e-35 11.500000000000002 25.039999961853031 5.5000000000000009 0.22500000149011615 29.664999961853031 0.28499999642372137 31.414999961853031 34.375000000000007 10.500000000000002 20.82499980926514 27.615000724792484 7.5000000000000009 5.5000000000000009 2.5000000000000004 4.5000000000000009 11.500000000000002 19.500000000000004 1.0000000180025095e-35 4.5000000000000009 46.674999237060554 9.5000000000000018 8.5000000000000018 3.5000000000000004 34.635000228881843 38.504999160766609 15.500000000000002 34.635000228881843 36.225000381469734 34.895000457763679 11.500000000000002 14.500000000000002 3.5000000000000004
decision_type=2 2 2 2 2 2 2 2 2 2 2 2 2 2 2 2 2 2 2 2 2 2 2 2 2 2 2 2 2 2 2 2 2 2 2 2 2 2 2
left_child=4 6 22 -4 5 -1 -2 11 27 10 28 12 15 -11 -15 20 -17 -18 -8 -13 -7 -22 -3 24 -24 -26 -27 -9 -10 31 -31 32 33 36 -35 -34 -30 -33 -21
right_child=1 2 3 -5 -6 7 18 8 9 13 -12 19 -14 14 -16 16 17 -19 -20 38 21 -23 23 -25 25 26 -28 -29 29 30 -32 37 35 34 -36 -37 -38 -39 -40
leaf_value=0.1963220867480483 0.072135356938580322 0.011014723439016407 0.19582946469654908 1.084888305871383 0.16997744299174436 0.084070297730957269 -0.035939536095156065 0.07094344426285136 -0.037338579685316176 0.95000262370235056 -0.30787025075970276 -0.17676928799941347 1.6064433880150319 -0.027279812438147411 0.76621008998550044 0.94464127042076818 -0.12577382805870801 0.66302292860927992 -0.090538930671713425 -0.030594830975637241 0.018049515735437262 -0.29612395328780017 0.71655959401811875 0.8530413220758023 -0.14903059561600848 -0.40114987969398497 0.79261100530624395 -0.24591266398472111 0.58460960055506506 -0.25443359656610348 0.31115860140749385 -0.27318401731112424 0.29846663474313262 1.5184686720371248 0.54332199692726135 -0.1904566260484549 -0.032726010918617252 0.3119246203323891 0.054824964345602703
leaf_count=365 507 1913 74 23 759 1152 7917 110 109 38 66 207 20 35 34 22 41 24 3063 1749 235 96 21 23 89 20 30 127 43 69 56 34 103 24 30 39 25 29 1228
internal_value=0 -0.625157 0.890782 8.13274 1.24503 0.977395 -0.914567 0.790032 2.3354 3.72782 2.41194 0.475714 1.71484 11.4386 7.2743 1.3274 7.2501 3.30948 -1.02341 -0.143069 0.979942 -1.46141 0.555634 4.06113 2.19242 0.358505 6.30213 -1.97697 3.4201 4.42494 -0.0209658 6.12445 7.60434 12.6333 19.5344 3.2837 7.15296 -0.0769659 0.0928095
internal_count=20549 13680 2193 97 6869 6110 11487 5745 971 734 627 4774 1590 107 69 1570 87 65 10980 3184 1483 331 2096 183 160 139 50 237 561 452 125 327 264 122 54 142 68 63 2977
shrinkage=0.05


Tree=23
num_leaves=40
num_cat=0
split_feature=7 2 6 0 0 0 0 1 7 7 6 2 7 1 2 0 0 0 2 0 1 1 7 7 0 6 7 1 7 7 0 1 1 7 0 0 2 7 2
split_gain=14434.7 5416.62 4803.73 5006.75 3574.7 3046.87 2659.99 2578.57 3054.03 4559.65 3837.6 2512.01 2405.34 3996.45 6215.51 2571.68 4032.3 2328.64 2223.68 4012.11 3214.56 2589.29 2431.9 3901.21 2177.54 2087.14 5110.03 1913.91 2861.66 1904.64 2001.75 1894.17 1977.51 1892.6 3547.01 3032.69 8546.3 3588.82 2760.66
threshold=42.174999237060554 9.5000000000000018 0.99500000476837169 19.500000000000004 21.500000000000004 1.5000000000000002 1.0000000180025095e-35 4.5000000000000009 22.894999504089359 31.414999961853031 0.14500000327825549 3.5000000000000004 18.615000724792484 2.5000000000000004 11.500000000000002 18.500000000000004 8.5000000000000018 10.500000000000002 11.500000000000002 19.500000000000004 1.0000000180025095e-35 2.5000000000000004 46.674999237060554 49.014999389648445 5.5000000000000009 0.28499999642372137 31.969999313354496 5.5000000000000009 16.404999732971195 74.225002288818374 21.500000000000004 1.5000000000000002 4.5000000000000009 30.535000801086429 16.500000000000004 9.5000000000000018 10.500000000000002 25.554999351501468 2.5000000000000004
decision_type=2 2 2 2 2 2 2 2 2 2 2 2 2 2 2 2 2 2 2 2 2 2 2 2 2 2 2 2 2 2 2 2 2 2 2 2 2 2 2
left_child=4 6 18 -4 5 31 -2 12 27 10 24 -8 13 -7 15 16 -15 -14 -3 20 -20 -22 -23 -24 -10 -19 -27 -9 -29 -13 -31 -1 -33 35 -35 36 37 -26 -37
right_child=1 2 3 -5 -6 7 11 8 9 -11 -12 29 17 14 -16 -17 -18 25 19 -21 21 22 23 -25 33 26 -28 28 -30 30 -32 32 -34 34 -36 38 -38 -39 -40
leaf_value=-0.00019894989602493515 0.068528579513467039 0.010463983585967469 0.18603798340301259 1.0306438829587854 0.1614785750443791 -0.014772406418871304 0.020276210978658751 -0.16883409685044556 -0.20528356667894584 0.064446151469897295 0.94708926729857934 -0.071568077396362437 -0.039638020942911439 0.36681573487197361 -0.14266886446783519 0.039013983011245729 1.0614155076645517 0.059652467431521888 0.68073163032531747 0.8103892497394396 -0.31092577746936256 -0.099191704804592939 0.92076641236032764 0.02592504281422188 0.74008493820826216 0.61848964560031894 -0.12239593342969123 -0.096442874214228466 0.43242373161199615 -0.032117780099062562 0.17547552195216015 0.37047204028528474 0.093643130023371102 0.19397492075667663 0.97852011972665798 0.30308851856219621 1.3297815712434906 -0.032264797586315085 -0.10089806622856266
leaf_count=99 507 1913 74 23 759 176 1181 161 26 885 20 6796 1609 48 47 20 37 1921 21 23 42 47 21 29 21 25 337 68 41 2882 121 156 110 34 25 79 21 53 91
internal_value=0 -0.593899 0.846243 7.72611 1.18278 0.928526 -0.868838 0.75053 1.86499 2.52138 5.4693 -0.972243 0.347792 2.94844 6.70452 10.9828 13.3834 0.128621 0.527853 3.85807 2.0828 0.34058 3.1806 8.03517 4.69944 0.777987 -1.4246 -1.186 2.04977 -1.13829 -0.475064 3.73012 5.11988 5.40602 10.5282 4.26562 8.79098 3.73831 1.73674
internal_count=20549 13680 2193 97 6869 6110 11487 5745 1525 1255 370 10980 4220 328 152 105 85 3892 2096 183 160 139 97 50 350 2283 362 270 109 9799 3003 365 266 324 59 265 95 74 170
shrinkage=0.05


Tree=24
num_leaves=40
num_cat=0
split_feature=7 2 1 4 1 6 0 2 7 1 6 7 2 1 1 1 2 6 0 1 0 0 1 0 7 6 4 7 6 2 7 5 7 7 1 2 7 7 1
split_gain=13029.6 5729.89 6025.48 7365.37 16555.2 6715.25 2750.53 2602.86 6400.52 3903.17 5743.23 3565.1 8353.33 2892.86 6522.63 5369.7 5068.96 2757.49 3397.09 2794.17 2935.84 2423.97 3564.65 2683.81 3370.54 2527.1 2475.96 2264.67 2928.9 2205.77 5065.28 3780.88 3412.43 3257.53 5966.3 4623.76 3803.23 2770.14 2744.83
threshold=45.395000457763679 10.500000000000002 3.5000000000000004 1.0000000180025095e-35 5.5000000000000009 0.99500000476837169 16.500000000000004 11.500000000000002 16.404999732971195 5.5000000000000009 0.22500000149011615 18.615000724792484 10.500000000000002 4.5000000000000009 2.5000000000000004 3.5000000000000004 1.5000000000000002 0.99500000476837169 17.500000000000004 4.5000000000000009 22.500000000000004 1.0000000180025095e-35 3.5000000000000004 10.500000000000002 29.664999961853031 0.17500000447034839 1.0000000180025095e-35 32.225000381469734 0.28499999642372137 2.5000000000000004 32.225000381469734 1.0000000180025095e-35 27.615000724792484 22.894999504089359 5.5000000000000009 1.5000000000000002 27.615000724792484 26.445000648498539 5.5000000000000009
decision_type=2 2 2 2 2 2 2 2 2 2 2 2 2 2 2 2 2 2 2 2 2 2 2 2 2 2 2 2 2 2 2 2 2 2 2 2 2 2 2
left_child=7 -2 -3 6 5 -5 -4 11 -9 10 -10 12 13 14 -1 16 -16 19 -19 20 21 22 26 -23 25 -25 -13 -26 -29 30 31 33 -31 34 -21 37 -37 -35 -32
right_child=1 2 3 4 -6 -7 -8 8 9 -11 -12 17 -14 -15 15 -17 -18 18 -20 29 -22 23 -24 24 27 -27 -28 28 -30 32 38 -33 -34 35 -36 36 -38 -39 -40
leaf_value=0.0442539517878714 -0.039347299530584592 -0.011773292606019161 0.011074925024899865 1.7342149961207594 -0.4831146144866944 0.5811780802581622 0.43891491001507021 -0.25751495985314249 0.15411118355577591 0.40466999445800433 -0.28808391945436601 -0.021544842849053988 1.1460017340523858 -0.055018673580441928 1.3977391686577063 0.20627178018912673 0.35330310378755847 0.1015421358642177 0.65733372456318628 -0.25648765540122986 0.16355460760452217 -0.068484779019460498 0.52767462122197051 0.10302553794617023 -0.17130803944605388 0.67535914555192 0.51262631130218506 0.037475635469842193 -0.12256578687619378 -0.28096220349823992 0.18949119327779937 -0.3238944955494093 0.058647857846729372 0.62602667748928076 0.70257647708058357 0.3139266708696431 0.9177945887902752 0.065417320631354692 -0.088564749940165458
leaf_count=193 11971 374 129 28 20 23 53 104 894 135 80 164 21 148 26 56 21 107 37 50 267 1536 49 541 209 20 25 1332 364 81 147 23 852 30 24 44 64 83 224
internal_value=0 -0.632602 2.31422 6.08332 14.7219 24.2844 2.71331 1.00233 2.35083 3.05427 2.35583 0.759567 3.43123 2.50946 4.31438 10.7402 18.6215 0.561524 4.88699 0.459898 0.0548437 -0.147689 2.9528 -0.332076 0.314227 2.46859 0.982254 -0.320208 0.0625425 1.58541 2.94243 5.87107 0.583281 6.83387 1.0912 8.75675 13.4355 4.28503 0.432167
internal_count=20549 12598 627 253 71 51 182 7951 1213 1109 974 6738 465 444 296 103 47 6273 144 6129 4507 4240 238 4002 2466 561 189 1905 1696 1622 689 318 933 295 74 221 108 113 371
shrinkage=0.05


Tree=25
num_leaves=40
num_cat=0
split_feature=7 2 6 0 0 0 0 2 0 1 7 2 0 7 2 7 1 6 5 2 7 6 7 1 1 4 2 7 0 0 0 2 1 0 1 7 0 2 0
split_gain=11857.7 4544.19 4127.65 4465.19 3068.15 2563.34 2371.69 2329.43 2320.18 2717.68 2387.32 3511.83 3826.84 4618.37 2439.21 3186.19 7800.13 9191.22 3666.08 3213.37 2994.3 2204 1870.21 2513.87 3630 4435.94 3987.08 3585.32 3981.52 2061.98 3139.29 2535.47 3065.29 2811.65 2513.02 2231.43 2521.04 2145.17 1926.23
threshold=42.174999237060554 9.5000000000000018 0.99500000476837169 19.500000000000004 21.500000000000004 1.5000000000000002 1.0000000180025095e-35 7.5000000000000009 5.5000000000000009 4.5000000000000009 16.404999732971195 11.500000000000002 7.5000000000000009 38.704999923706062 2.5000000000000004 34.125000000000007 5.5000000000000009 0.17500000447034839 1.0000000180025095e-35 1.5000000000000002 27.224999427795414 0.054999999701976783 57.854999542236335 4.5000000000000009 5.5000000000000009 1.0000000180025095e-35 11.500000000000002 53.965000152587898 8.5000000000000018 10.500000000000002 1.5000000000000002 10.500000000000002 1.0000000180025095e-35 22.500000000000004 2.5000000000000004 50.024999618530281 15.500000000000002 11.500000000000002 8.5000000000000018
decision_type=2 2 2 2 2 2 2 2 2 2 2 2 2 2 2 2 2 2 2 2 2 2 2 2 2 2 2 2 2 2 2 2 2 2 2 2 2 2 2
left_child=4 6 22 -4 5 -1 -2 -8 -7 -10 -11 14 -13 21 15 18 17 19 -12 -17 -16 -14 23 29 25 26 38 28 -26 30 -3 33 37 -31 -34 -36 -37 -33 -25
right_child=1 2 3 -5 -6 8 7 -9 9 10 11 12 13 -15 20 16 -18 -19 -20 -21 -22 -23 -24 24 27 -27 -28 -29 -30 31 -32 32 34 -35 35 36 -38 -39 -40
leaf_value=0.1703076510151772 0.066223510700099797 0.29802412695505404 0.16878190413117411 0.96640192218448806 0.14841229274711906 -0.082492927220184364 -0.030062545831760476 -0.081412779987332706 0.020866460918740545 -0.11386393755990065 0.3147729075553552 0.89874717816710481 0.1920794667292994 0.76009499798802771 -0.32985517825802857 -0.20532131092622877 -0.22802733003870765 1.1437198589245479 -0.3701025236220587 0.4726117127928241 0.050027365430567398 -0.34600318128412422 -0.043871830420787725 0.49299722051620487 -0.29414937201982888 0.79332932798486011 0.73403207351421496 -0.30443371884406562 0.28983174466110512 0.1200384411844425 -0.15766571818281022 0.092322976836225104 -0.23103428115375724 0.637943749592222 -0.065694201645364464 -0.032211014592931388 0.73369028785011992 0.72147771358489998 0.011567762926432903
leaf_count=365 507 44 74 23 759 400 7917 3063 3921 118 281 24 141 34 58 44 134 27 21 29 491 22 680 25 39 38 29 63 116 272 268 42 156 29 109 21 22 20 123
internal_value=0 -0.538279 0.780795 7.15817 1.07201 0.836459 -0.790106 -0.887746 0.673197 0.847046 2.03028 2.41947 6.05288 4.60044 1.6794 3.19684 0.427041 7.11041 5.34298 1.27989 0.197881 2.3891 0.485659 1.14025 3.14783 6.06337 3.95872 0.272416 2.85789 0.255938 -1.86804 1.24354 -0.509737 3.39873 -1.80112 1.09264 7.19291 5.90552 1.85781
internal_count=20549 13680 2193 97 6869 6110 11487 10980 5745 5345 1424 1306 221 197 1085 536 234 100 302 73 549 163 2096 1416 433 215 177 218 155 983 312 671 370 301 308 152 43 62 148
shrinkage=0.05


Tree=26
num_leaves=40
num_cat=0
split_feature=7 2 6 0 0 0 2 2 7 1 6 7 0 7 6 2 7 7 7 1 0 1 7 0 7 7 7 7 0 0 0 1 0 1 0 7 7 0 7
split_gain=10701.5 4101.13 3725.2 4029.83 2769.01 2318.29 2310.17 2149.87 4791.57 5707.79 4360.94 3118.64 4929.33 2839.09 15776.3 2649.01 2899.99 3306.49 2231.15 3261.28 2058.29 3200.75 3455.77 2728.29 5307.88 4147.31 4583.6 2463.5 2900.26 2204.16 2033.46 1892.78 1849.63 1845.96 1845.61 1844.72 1753.2 1808.69 1721.84
threshold=42.174999237060554 9.5000000000000018 0.99500000476837169 19.500000000000004 21.500000000000004 1.0000000180025095e-35 3.5000000000000004 11.500000000000002 25.039999961853031 5.5000000000000009 0.22500000149011615 30.535000801086429 15.500000000000002 29.664999961853031 0.28499999642372137 10.500000000000002 20.82499980926514 27.615000724792484 6.4549999237060556 2.5000000000000004 8.5000000000000018 3.5000000000000004 34.635000228881843 15.500000000000002 38.504999160766609 34.635000228881843 36.225000381469734 31.969999313354496 19.500000000000004 11.500000000000002 9.5000000000000018 4.5000000000000009 5.5000000000000009 1.5000000000000002 1.5000000000000002 34.375000000000007 74.225002288818374 21.500000000000004 14.559999942779543
decision_type=2 2 2 2 2 2 2 2 2 2 2 2 2 2 2 2 2 2 2 2 2 2 2 2 2 2 2 2 2 2 2 2 2 2 2 2 2 2 2
left_child=4 6 -3 -4 5 33 -2 13 30 10 20 -11 35 14 15 18 -17 -18 19 -7 -10 23 -23 24 25 29 -27 28 -25 -22 38 -24 -15 -1 -8 -13 -36 -38 -9
right_child=1 2 3 -5 -6 7 34 8 9 11 -12 12 -14 32 -16 16 17 -19 -20 -21 21 22 31 27 -26 26 -28 -29 -30 -31 -32 -33 -34 -35 36 -37 37 -39 -40
leaf_value=-0.020481592475331017 0.027637013747650936 0.023068789305020557 0.16034281308183801 0.91808184022488803 0.14099167920464997 -0.019086063165089179 0.05132718254748922 -0.2936753196211962 -0.04429311152513421 0.96527134903051237 -0.27894004502079706 -0.21864965085325572 0.85049651126066861 -0.14938362457131574 1.4683393648266794 0.81952897472815089 -0.11745286860117099 0.62149328713615737 0.027373352940890203 0.7445336762401793 0.54757304981697441 -0.25427621896716135 0.013341414640026708 0.1087941429935969 -0.067283756413110879 1.4324685782194138 0.50541727224985766 -0.01898306204378605 0.79867790889739998 -0.042821219801902774 -0.23177962496759386 0.59808237791061403 0.0014959872703011335 0.23620748590264054 -0.063955706091249051 0.39668480101085846 -0.026032033051816297 0.17129684217458915 0.17195023741750493
leaf_count=97 1216 2096 74 23 759 29 472 26 109 27 66 29 30 218 20 22 41 24 1432 27 43 69 31 39 41 24 30 100 25 25 127 25 2977 252 6796 21 2882 121 84
internal_value=0 -0.511365 0.741755 6.80026 1.01841 0.794636 -0.7506 0.643026 1.99982 3.2621 2.11013 10.0125 6.87611 0.367984 1.45761 1.10321 6.46665 3.10778 0.789618 6.98175 3.01471 3.95533 -0.348707 5.6006 8.49794 11.806 18.3488 2.72093 7.5656 6.61033 -1.90951 5.48773 -0.175975 3.29728 -0.904905 0.795816 -0.997939 -0.361621 1.23787
internal_count=20549 13680 2193 97 6869 6110 11487 5761 971 734 627 107 80 4790 1595 1575 87 65 1488 56 561 452 125 327 163 122 54 164 64 68 237 56 3195 349 10271 50 9799 3003 110
shrinkage=0.05


Tree=27
num_leaves=40
num_cat=0
split_feature=7 2 4 1 1 0 1 2 0 0 0 6 2 2 1 7 2 7 0 0 7 1 1 2 7 7 1 2 7 0 0 0 7 1 1 1 7 1 0
split_gain=9658.13 3762.23 4857.23 3463.62 18346.4 5135.33 2654.57 3809.44 2499.03 2103.03 2037.98 2148.82 2112.11 1959.17 4072.56 4273.36 3763.4 2443.53 2282.94 3133.13 1869.22 2617.67 7624.25 2038.38 5434.09 1849.21 1844.07 3887.32 1700.98 1520.15 1504.81 2346.02 1748.42 1497.74 1453.1 1771.57 1535.31 3140.58 1417.67
threshold=42.174999237060554 10.500000000000002 1.0000000180025095e-35 5.5000000000000009 4.5000000000000009 20.500000000000004 4.5000000000000009 11.500000000000002 21.500000000000004 1.5000000000000002 21.500000000000004 0.99500000476837169 3.5000000000000004 9.5000000000000018 5.5000000000000009 40.694999694824226 2.5000000000000004 41.395000457763679 7.5000000000000009 19.500000000000004 38.504999160766609 5.5000000000000009 4.5000000000000009 1.5000000000000002 37.914999008178718 59.335000991821296 1.0000000180025095e-35 11.500000000000002 6.4549999237060556 1.5000000000000002 19.500000000000004 12.500000000000002 52.98500061035157 1.5000000000000002 1.5000000000000002 5.5000000000000009 29.664999961853031 3.5000000000000004 5.5000000000000009
decision_type=2 2 2 2 2 2 2 2 2 2 2 2 2 2 2 2 2 2 2 2 2 2 2 2 2 2 2 2 2 2 2 2 2 2 2 2 2 2 2
left_child=8 10 6 4 5 25 26 30 9 34 12 -12 -2 16 17 18 20 -15 -16 -20 23 22 -22 24 28 -4 27 -3 -11 33 31 -8 -33 -14 -1 36 37 -36 -31
right_child=1 2 3 -5 -6 -7 7 -9 -10 13 11 -13 29 14 15 -17 -18 -19 19 -21 21 -23 -24 -25 -26 -27 -28 -29 -30 38 -32 32 -34 -35 35 -37 -38 -39 -40
leaf_value=-0.009405770139637018 0.02766090314768728 -0.071863586005737209 -0.016598475721046523 -0.20680313494897662 1.7193226326595654 0.85555027220398194 -0.17010024762815901 0.61638120224601345 0.13394209429195608 0.32389677955609997 0.021603050747296935 0.52033063931898638 0.17112372012327839 0.06130333265363011 0.6021601915359498 0.93007560372352605 -0.0475015583542686 -0.25964042621274153 0.016902996400992076 0.63219696140289316 -0.10370447931988609 -0.34098262392095668 0.6838403958413336 0.12142775350834567 0.6778454316239203 0.48339284851469783 -0.094723180277855992 0.68450705814361579 -0.0037893176307218879 -0.12978109831948884 -0.33691878396840325 0.41031847077031292 -0.12731818258762359 -0.015233706001103398 0.8269612852371101 -0.040684466947008065 0.17745043964528329 0.18477758639388617 -0.044587732340443748
leaf_count=99 1119 53 116 31 22 24 45 38 759 41 1182 22 151 1365 30 23 1615 62 120 25 210 67 36 958 31 22 409 25 1162 515 21 62 20 377 33 54 134 45 9426
internal_value=0 -0.485797 1.50461 5.64248 7.28995 3.61018 0.18271 3.39635 0.967492 0.754904 -0.623968 0.61432 -0.752627 0.607026 1.53688 5.78685 0.240277 0.947181 4.10264 2.45976 1.00768 -1.27831 0.23092 1.3341 0.484437 1.26221 -1.04468 3.41126 0.147574 -0.892205 1.10319 2.39982 5.58375 0.761234 3.08246 4.29971 5.60218 9.12941 -0.980025
internal_count=20549 13680 888 215 184 162 673 186 6869 6110 12792 1204 11588 5745 1625 198 4120 1427 175 145 2505 313 246 2192 1234 138 487 78 1203 10469 148 127 82 528 365 266 212 78 9941
shrinkage=0.05


Tree=28
num_leaves=40
num_cat=0
split_feature=7 2 6 0 0 0 0 1 7 7 6 7 6 2 2 0 2 7 1 0 2 7 2 1 7 0 0 2 7 2 2 7 1 1 2 0 7 0 7
split_gain=8716.46 3496.31 3140.71 3482.33 2255.38 1897.98 1945.09 2266.12 2221.67 4258.68 3206.57 2376.73 4193.85 9918.51 5539.13 2069.58 1972.12 1954.74 3678.23 4667.84 1890.7 1779.34 2191.99 1868.69 1686.22 3045.22 2782.38 7444.94 3198.52 2269.33 2040.93 1606.31 2051.37 3003.8 3885 4040.93 3168.33 3465.37 2923.39
threshold=42.174999237060554 9.5000000000000018 0.99500000476837169 19.500000000000004 21.500000000000004 1.5000000000000002 5.5000000000000009 4.5000000000000009 22.894999504089359 31.414999961853031 0.14500000327825549 37.914999008178718 0.14500000327825549 1.5000000000000002 2.5000000000000004 6.5000000000000009 1.5000000000000002 40.024999618530281 5.5000000000000009 16.500000000000004 3.5000000000000004 40.454999923706062 10.500000000000002 5.5000000000000009 30.535000801086429 16.500000000000004 9.5000000000000018 10.500000000000002 25.554999351501468 2.5000000000000004 1.5000000000000002 57.854999542236335 4.5000000000000009 5.5000000000000009 10.500000000000002 9.5000000000000018 53.965000152587898 8.5000000000000018 45.694999694824226
decision_type=2 2 2 2 2 2 2 2 2 2 2 2 2 2 2 2 2 2 2 2 2 2 2 2 2 2 2 2 2 2 2 2 2 2 2 2 2 2 2
left_child=4 20 31 -4 5 -1 -7 -8 15 10 24 16 17 -14 -15 -9 -11 18 -13 -20 -2 -19 23 -23 26 -26 27 28 -10 30 -28 32 -3 34 35 -34 37 -35 -36
right_child=1 2 3 -5 -6 6 7 8 9 11 -12 12 13 14 -16 -17 -18 21 19 -21 -22 22 -24 -25 25 -27 29 -29 -30 -31 -32 -33 33 36 38 -37 -38 -39 -40
leaf_value=0.14641696703811621 0.02483475882825013 0.012294972724340941 0.14590379384698701 0.85029024248537821 0.1272449883855683 -0.077516660264227544 0.017172841700859517 0.32214466509493916 0.67874807239997959 -0.23301862652103106 0.88176223345100879 -0.04658500267111737 1.410267270888601 -0.36249111832252573 0.62344862880377938 -0.10352134341989064 0.033134943124806061 -0.36900616867674724 0.8032618872262538 -0.11730101108551026 -0.041099639349037563 0.18036111381746109 0.3987346743543943 -0.33683761062566192 0.16312774849288605 0.89006379985809336 0.018005631274955216 1.2232108757609415 -0.050394995032616387 -0.11573586300997946 0.52829019166529179 -0.041259539699291484 0.47649919679670627 -0.27407942650218808 0.14648965668419134 -0.21234239533543589 -0.28685738628818874 0.27073581218719484 0.65150845421380121
leaf_count=365 1216 983 74 23 759 400 3921 33 21 84 20 69 21 28 29 212 406 36 40 21 10271 31 30 40 34 25 43 21 53 91 36 680 33 39 46 60 63 116 76
internal_value=0 -0.461507 0.695525 6.25847 0.919118 0.717159 0.576675 0.735852 1.81632 2.38571 5.34675 1.16583 3.17647 9.62715 2.78255 -0.923735 -0.249828 1.29201 4.06966 9.72694 -0.682398 -1.34372 0.807867 -2.22037 4.5882 9.42303 3.51177 7.84636 3.13048 1.0895 5.01081 0.43808 1.04474 2.85826 5.51043 0.641705 0.242591 2.67307 9.22183
internal_count=20549 13680 2193 97 6869 6110 5745 5345 1424 1179 344 835 345 78 57 245 490 267 130 61 11487 137 101 71 324 59 265 95 74 170 79 2096 1416 433 215 93 218 155 122
shrinkage=0.05


Tree=29
num_leaves=40
num_cat=0
split_feature=7 2 6 0 0 0 2 2 7 1 6 7 0 7 6 2 7 7 1 0 7 1 1 6 7 7 2 6 2 0 4 7 7 7 7 7 1 1 2
split_gain=7866.61 3155.42 2834.49 3142.8 2035.48 1828.63 1991.81 1746.33 4339.29 4506.19 4476.5 2940.09 4220.65 2908.77 19466.1 2390.45 3006.8 2017.62 2958.93 1910.92 2820.03 1901.1 2038.84 2505.65 4024.24 2180.59 1935.48 2082.19 2935.5 2342.59 1910.35 2516.29 5465.18 1855.55 1770.38 4065.27 2321.31 1683.78 2843.8
threshold=42.174999237060554 9.5000000000000018 0.99500000476837169 19.500000000000004 21.500000000000004 1.0000000180025095e-35 7.5000000000000009 11.500000000000002 25.039999961853031 5.5000000000000009 0.22500000149011615 30.535000801086429 15.500000000000002 29.664999961853031 0.35500000417232519 10.500000000000002 20.82499980926514 6.4549999237060556 2.5000000000000004 9.5000000000000018 14.559999942779543 3.5000000000000004 5.5000000000000009 0.9350000023841859 37.914999008178718 30.535000801086429 2.5000000000000004 0.36500000953674322 1.5000000000000002 5.5000000000000009 1.0000000180025095e-35 40.024999618530281 38.704999923706062 28.035000801086429 35.354999542236335 37.914999008178718 4.5000000000000009 3.5000000000000004 1.5000000000000002
decision_type=2 2 2 2 2 2 2 2 2 2 2 2 2 2 2 2 2 2 2 2 2 2 2 2 2 2 2 2 2 2 2 2 2 2 2 2 2 2 2
left_child=4 5 -3 -4 7 -2 37 13 19 10 -10 -11 -13 14 15 17 -17 18 -1 20 -9 -15 23 25 -25 -23 27 28 29 -27 31 32 -24 -18 36 -36 -30 38 -7
right_child=1 2 3 -5 -6 6 -8 8 9 11 -12 12 -14 21 -16 16 33 -19 -20 -21 -22 22 30 24 -26 26 -28 -29 34 -31 -32 -33 -34 -35 35 -37 -38 -39 -40
leaf_value=-0.0078903808709113836 0.060424439189863746 0.020808809624455218 0.13860859994247959 0.80777572030606482 0.12088274121622611 0.20790950195355851 -0.070938041819721076 -0.35349751003086571 0.14641692177227081 0.89946372729760626 -0.2848249092475692 0.045009483822754458 0.77995316574970885 -0.036219886735021654 1.5881578912337622 0.79671659676925 -0.031276313900947574 0.030657059608172117 0.70120352407518238 -0.22291223738841187 0.1899316651389954 -0.25564062513411046 -0.0005481678625419193 0.023385514594890452 0.9343822311144323 0.47954959670702624 0.017273012040023992 0.61370488685369495 -0.22548289310473663 -0.048345952274928078 -0.21923752702162444 -0.26241336497752105 0.67155014846254801 0.50357351402441664 0.92315533322192023 0.14203171216779284 0.40622902295806196 0.0034267456113683844 -0.049440732970977633
leaf_count=31 507 2096 74 23 759 110 3063 32 591 27 67 56 30 1986 21 23 50 1531 28 127 94 50 274 27 22 24 457 25 26 169 116 68 34 24 31 36 33 3356 4451
internal_value=0 -0.438432 0.660749 5.94554 0.873162 -0.648278 -0.734014 0.681301 1.87277 3.05198 2.05013 8.88578 6.0277 0.441415 1.50495 1.12829 5.94772 0.834277 6.57258 -1.72081 1.03836 -0.0963351 0.799737 1.69455 8.64809 1.29417 1.69411 3.48577 2.79703 0.345982 -0.83712 0.257362 1.47289 2.84377 6.55142 10.0689 2.55695 -0.469093 -0.864682
internal_count=20549 13680 2193 97 6869 11487 10980 6110 1024 771 658 113 86 5086 1708 1687 97 1590 59 253 126 3378 1392 900 49 851 801 344 319 193 492 376 308 74 126 67 59 7917 4561
shrinkage=0.05


Tree=30
num_leaves=40
num_cat=0
split_feature=2 2 6 0 7 1 7 1 0 7 0 7 0 2 0 7 0 7 7 0 0 2 7 7 1 0 1 6 1 6 0 7 7 6 7 0 2 7 7
split_gain=7144.33 8790.83 3774.3 5130.08 2709.47 3054.98 3805.91 3428.81 3175.38 3005.89 2507.9 2764.17 6618.29 3608.09 5751.02 6349.08 4763.69 2741.91 2995.84 2494.26 2639.54 2558.89 2621.45 2414.42 2281.36 2184.08 2174.84 6051.56 10087.9 4185.96 3616.23 3451.81 3172.3 2486.19 2205.65 2472.86 2186.98 6306.12 5555.5
threshold=10.500000000000002 2.5000000000000004 0.91500002145767223 20.500000000000004 10.125000000000002 4.5000000000000009 38.085000991821296 1.0000000180025095e-35 1.5000000000000002 33.875000000000007 5.5000000000000009 34.635000228881843 9.5000000000000018 11.500000000000002 16.500000000000004 38.704999923706062 13.500000000000002 30.875000000000004 22.894999504089359 19.500000000000004 1.0000000180025095e-35 9.5000000000000018 49.784999847412116 64.055000305175795 5.5000000000000009 10.500000000000002 2.5000000000000004 0.36500000953674322 5.5000000000000009 0.55500000715255748 7.5000000000000009 54.454999923706062 37.534999847412116 0.024999999441206459 6.4549999237060556 13.500000000000002 1.5000000000000002 28.035000801086429 20.114999771118168
decision_type=2 2 2 2 2 2 2 2 2 2 2 2 2 2 2 2 2 2 2 2 2 2 2 2 2 2 2 2 2 2 2 2 2 2 2 2 2 2 2
left_child=1 26 4 -4 -2 6 7 9 -8 -6 -7 12 17 -13 16 -16 24 18 -12 20 -3 23 -23 -21 -15 -10 -1 31 29 -29 -31 33 -30 34 -28 -36 38 -38 -37
right_child=2 19 3 -5 5 10 8 -9 25 -11 11 13 -14 14 15 -17 -18 -19 -20 21 -22 22 -24 -25 -26 -27 27 28 32 30 -32 -33 -34 -35 35 36 37 -39 -40
leaf_value=0.015162301457240249 -0.288325141315107 0.056920901501359158 0.18337490622222694 0.96364329061829135 -0.22266878279659785 -0.16344298665170318 0.48265912234783176 0.1533979918591438 -0.20898324280558903 0.13675685346019095 0.31106506735086442 0.17220881136757624 -0.10739977919008761 0.7855548266569774 0.34771643966436389 1.5924969837779093 -0.3903131473632086 0.02179865155901228 1.1459807713826498 -0.045526461911610736 -0.04542901201805416 0.34145900963952669 0.028898267804479308 0.053538682814344145 0.1152119365605441 -0.014567077249053895 0.48428091750376762 1.1295332380703518 0.50248302325606342 -0.05443148729593858 0.70311747479438791 -0.2770144732905106 -0.21762015440143073 -0.11370941659593894 0.025122079824039474 0.57858363309254246 -0.094483142159879213 0.37348753584092231 0.0061192861979425944
leaf_count=1617 54 669 111 26 132 54 28 775 187 104 22 251 168 30 20 21 21 21 21 1420 10787 114 163 1085 22 635 36 35 20 23 50 71 65 153 771 48 100 257 362
internal_value=0 -0.229476 1.51507 6.6291 1.24203 1.39269 0.740445 2.05171 -0.819188 -1.28556 3.25725 3.84756 1.14859 5.56306 10.2283 19.7057 4.90541 9.80212 14.3763 -0.582784 -0.789041 0.266561 3.15067 -0.0523601 10.039 -1.17591 1.16476 1.86444 7.1857 13.5996 9.28875 1.29325 -0.963682 1.57418 1.94826 1.76716 3.03847 4.84807 1.46279
internal_count=20549 17846 2703 137 2566 2512 1861 1011 850 236 651 597 232 365 114 41 73 64 43 14238 11456 2782 277 2505 52 822 3608 1991 193 108 73 1798 85 1727 1574 1538 767 357 410
shrinkage=0.05


Tree=31
num_leaves=40
num_cat=0
split_feature=7 6 0 7 2 0 7 7 7 1 1 0 0 0 1 2 7 0 0 0 1 7 2 0 7 2 7 7 1 6 5 2 1 7 7 2 7 6 7
split_gain=6502.83 2667.24 5871.35 3321.12 1907.87 3241.82 2876.34 2019.32 1823.63 1821.2 2518.07 1796.36 1691.66 2616.5 5203.69 3947.04 4676.55 2247.19 1658.6 1725.64 1790.49 2060.29 2178.09 3120.69 3507.27 1915.17 2765.12 2740.1 5927.31 7234.38 3340.7 2527.98 1789.7 6325.92 3340.47 4694.02 1878.71 1620.15 1677.63
threshold=42.174999237060554 0.99500000476837169 20.500000000000004 52.159999847412116 11.500000000000002 19.500000000000004 45.145000457763679 48.504999160766609 45.145000457763679 5.5000000000000009 4.5000000000000009 21.500000000000004 1.0000000180025095e-35 12.500000000000002 4.5000000000000009 1.5000000000000002 49.014999389648445 9.5000000000000018 1.5000000000000002 5.5000000000000009 4.5000000000000009 16.404999732971195 11.500000000000002 7.5000000000000009 38.704999923706062 2.5000000000000004 27.224999427795414 34.125000000000007 5.5000000000000009 0.17500000447034839 1.0000000180025095e-35 1.5000000000000002 5.5000000000000009 23.445000648498539 23.445000648498539 1.5000000000000002 31.969999313354496 0.054999999701976783 35.104999542236335
decision_type=2 2 2 2 2 2 2 2 2 2 2 2 2 2 2 2 2 2 2 2 2 2 2 2 2 2 2 2 2 2 2 2 2 2 2 2 2 2 2
left_child=11 4 8 -4 12 6 -6 -8 -3 10 -10 18 -2 14 15 16 -14 -16 -1 -20 -21 -22 25 -24 37 27 -27 30 29 31 32 -29 33 -23 -34 -36 -35 38 -25
right_child=1 2 3 -5 5 -7 7 -9 9 -11 -12 -13 13 -15 17 -17 -18 -19 19 20 21 22 23 24 -26 26 -28 28 -30 -31 -32 -33 34 36 35 -37 -38 -39 -40
leaf_value=0.13403379410097044 0.058684352366417128 0.38827317849253168 1.1401549817621708 0.24990750876340001 -0.22393388172675827 0.69204472753664725 0.47765785705211555 0.027139349711143363 -0.037098209971867545 -0.4528955414181664 0.43029920476324418 0.11224086579887567 -0.10972013419324703 -0.010771582033576928 0.078471071709924456 -0.094187526292663304 0.94668681442737579 -0.050550831188512446 -0.076056110220961273 0.014172209940846697 -0.12045057493546125 -0.28096901063735669 0.77908535189926631 0.21725842125587544 0.63713210698436296 -0.32355784425704648 0.041497306508067128 -0.1988403743640943 -0.21002105352149081 0.99794896907276576 -0.37300517672584177 0.40246172156827209 0.88681198130051309 0.48548032910279604 -0.10938055853291256 0.64270125244344989 -0.011259258445352317 -0.32022349780256099 -0.24953232899956079
leaf_count=365 570 33 20 22 58 23 43 59 189 21 34 759 22 7562 815 3613 20 576 400 3921 118 52 24 118 34 58 491 44 134 27 21 29 30 92 41 42 24 22 23
internal_value=0 -0.39862 2.45905 13.4767 -0.466849 2.73982 1.14404 4.34128 0.788507 -0.155098 0.683284 0.793875 -0.511379 -0.58756 -1.14524 -1.77171 7.86662 0.500886 0.613635 0.482309 0.632238 1.59265 1.95421 4.81564 3.50404 1.37137 0.0586092 2.71597 0.147369 5.97341 4.7062 0.800661 5.61543 3.54566 8.6926 5.42382 7.65413 1.57697 2.8223
internal_count=20549 13680 319 42 13361 183 160 102 277 244 223 6869 13178 12608 5046 3655 42 1391 6110 5745 5345 1424 1306 221 197 1085 549 536 234 100 302 73 281 168 113 83 116 163 141
shrinkage=0.05


Tree=32
num_leaves=40
num_cat=0
split_feature=2 2 6 0 7 1 7 1 0 7 0 7 0 2 0 7 0 7 7 0 2 7 7 0 0 1 7 1 7 1 6 1 6 0 7 7 7 6 0
split_gain=6076.74 7408.64 3268.08 4385.7 2415.38 2591.86 3386.52 3089.75 2828.41 2718.03 2232.5 2566.98 5788.21 3072.76 5176.71 5428.74 4292.94 2542.15 2688.82 2110.13 2299.7 2327.18 2242.38 2136 2084.17 2012.89 1944.69 1934.09 2106.52 1874.84 5399.47 8666.42 3794.46 3189.33 3098.17 2820.26 2229.62 1975.22 2249.72
