tree
version=v2
num_class=1
num_tree_per_iteration=1
label_index=0
max_feature_idx=8
objective=regression
feature_names=Column_0 Column_1 Column_2 Column_3 Column_4 Column_5 Column_6 Column_7 Column_8
feature_infos=[0:23] [0:6] [1:12] [0:2] none [0:1] [0:1] [0:1] [-9.5299997329711914:95.800003051757812]
tree_sizes=711 713 724 725 732 721 729 723 713 725 727 734

Tree=0
num_leaves=8
num_cat=0
split_feature=0 0 2 7 2 8 2
split_gain=152.889 53.7935 26.6025 43.6446 44.7678 26.1891 19.5641
threshold=5.5000000000000009 1.0000000180025095e-35 4.5000000000000009 0.99500000476837169 3.5000000000000004 61.305000305175788 7.5000000000000009
decision_type=2 2 2 2 2 2 2
left_child=1 -1 3 5 -5 -2 -3
right_child=2 6 -4 4 -6 -7 -8
leaf_value=0.18551942435664007 0.1703180345047712 0.2425041727964794 0.1636491588356592 0.18344535013425681 0.31596147820579051 0.20801677881496056 0.20255646119900875
leaf_count=891 5074 510 9715 90 62 280 270
internal_value=0 0.279728 -0.0389257 0.0166063 0.545008 0.00160492 0.471493
internal_count=16892 1671 15221 5506 152 5354 780
shrinkage=1


Tree=1
num_leaves=8
num_cat=0
split_feature=0 1 0 1 8 8 2
split_gain=118.398 102.932 127.146 41.0455 31.4484 18.4793 39.1015
threshold=5.5000000000000009 4.5000000000000009 1.5000000000000002 4.5000000000000009 14.810000419616701 42.514999389648445 6.5000000000000009
decision_type=2 2 2 2 2 2 2
left_child=1 4 -3 -2 -1 -4 -7
right_child=3 2 5 -5 -6 6 -8
leaf_value=0.13397784554958342 -0.0080441779277750508 0.033325085315241747 0.12908625925288481 0.0057611421254309524 0.0096282200234663953 0.31271768504923037 0.13625510662794113
leaf_count=30 10884 268 68 4337 1232 33 40
internal_value=0 0.246161 0.682129 -0.0342546 0.104869 1.45081 1.80022
internal_count=16892 1671 409 15221 1262 141 73
shrinkage=0.12


Tree=2
num_leaves=8
num_cat=0
split_feature=1 2 8 8 2 8 2
split_gain=60.9202 19.3284 41.2435 32.0282 31.5023 17.6599 17.6373
threshold=4.5000000000000009 4.5000000000000009 29.005000114440922 58.215000152587898 3.5000000000000004 10.619999885559084 2.5000000000000004
decision_type=2 2 2 2 2 2 2
left_child=5 3 -3 6 -5 -1 -2
right_child=1 2 -4 4 -6 -7 -8
leaf_value=0.046342981827886473 0.0040551854573286968 0.073317779331910804 0.0020796069048324333 0.19729377501010892 0.049326247912793116 -0.0055989989223603678 0.029243993099499124
leaf_count=95 847 122 2872 25 121 12051 759
internal_value=0 0.0903377 0.0415203 0.173762 0.622193 -0.0432728 0.132996
internal_count=16892 4746 2994 1752 146 12146 1606
shrinkage=0.12


Tree=3
num_leaves=8
num_cat=0
split_feature=0 1 0 8 1 2 2
split_gain=91.8131 74.5406 98.2032 22.8965 22.5478 16.6122 21.1325
threshold=5.5000000000000009 4.5000000000000009 1.5000000000000002 14.810000419616701 4.5000000000000009 11.500000000000002 4.5000000000000009
decision_type=2 2 2 2 2 2 2
left_child=1 3 -3 -1 -2 6 -6
right_child=4 2 -4 -5 5 -7 -8
leaf_value=0.1152480957508087 -0.0064522386165674619 0.027965194026925669 0.15168201081296229 0.00914471360673378 0.012468298432354969 0.030182466355134854 -0.0053347001034587289
leaf_count=30 10884 268 141 1232 1586 318 2433
internal_value=0 0.217462 0.588464 0.0972248 -0.0294728 0.0314992 0.0140901
internal_count=16892 1671 409 1262 15221 4337 4019
shrinkage=0.12


Tree=4
num_leaves=8
num_cat=0
split_feature=1 7 1 2 2 8 8
split_gain=36.5336 13.5012 67.1882 90.4999 12.9619 31.1075 12.7302
threshold=4.5000000000000009 0.99500000476837169 1.0000000180025095e-35 4.5000000000000009 6.5000000000000009 29.005000114440922 10.619999885559084
decision_type=2 2 2 2 2 2 2
left_child=1 6 3 -3 -2 -6 -1
right_child=4 2 -4 -5 5 -7 -8
leaf_value=0.039096465110778807 0.014143412338758264 0.27286919737234711 -0.0089615306746343073 -0.010354738072915509 0.060417649843653685 -0.0019582336220006777 -0.0050082815355217657
leaf_count=95 2579 32 232 33 122 2045 11754
internal_value=0 -0.0335104 0.177077 1.07565 0.0699576 0.0129456 -0.0387889
internal_count=16892 12146 297 65 4746 2167 11849
shrinkage=0.12


Tree=5
num_leaves=8
num_cat=0
split_feature=0 1 0 2 8 1 0
split_gain=88.876 73.5649 96.3031 18.8912 45.6725 53.9412 55.0993
threshold=5.5000000000000009 4.5000000000000009 1.5000000000000002 4.5000000000000009 59.274999618530281 1.0000000180025095e-35 15.500000000000002
decision_type=2 2 2 2 2 2 2
left_child=1 -1 -3 4 -2 6 -6
right_child=3 2 -4 -5 5 -7 -8
leaf_value=0.012426741308917034 0.00014859046534017881 0.028485729079980114 0.15193276262283326 -0.0056741084826256293 0.26265361446142199 0.025267362799381184 0.012628367705778642
leaf_count=1226 5124 260 140 9764 30 326 22
internal_value=0 0.225052 0.597435 -0.0208776 0.0259844 0.361433 1.30728
internal_count=16892 1626 400 15266 5502 378 52
shrinkage=0.12


Tree=6
num_leaves=8
num_cat=0
split_feature=0 0 7 2 8 8 3
split_gain=68.8256 28.5182 15.61 14.6294 35.3688 23.3107 72.3505
threshold=5.5000000000000009 1.0000000180025095e-35 0.97500002384185802 4.5000000000000009 59.274999618530281 67.74499893188478 1.0000000180025095e-35
decision_type=2 2 2 2 2 2 2
left_child=1 2 -1 4 -2 6 -6
right_child=3 -3 -4 -5 5 -7 -8
leaf_value=0.0060218458896060638 0.00013075919704079908 0.040542237636171791 0.10623541948587997 -0.0049932153661541153 0.039130273788440521 -0.0080502567097947408 0.27117965877056122
leaf_count=834 5124 769 23 9764 246 111 21
internal_value=0 0.198045 0.0725947 -0.0183723 0.0228663 0.318061 0.478178
internal_count=16892 1626 857 15266 5502 378 267
shrinkage=0.12


Tree=7
num_leaves=8
num_cat=0
split_feature=0 1 0 8 7 1 2
split_gain=53.2985 57.7658 69.8237 14.2425 13.8485 12.8585 13.7321
threshold=5.5000000000000009 4.5000000000000009 1.5000000000000002 14.810000419616701 0.46500000357627874 4.5000000000000009 11.500000000000002
decision_type=2 2 2 2 2 2 2
left_child=1 3 4 -1 -3 -2 -7
right_child=5 2 -4 -5 -6 6 -8
leaf_value=0.089659008622169481 -0.0041368469635205286 0.015726675122976302 0.12883576415904929 0.0059457799742453068 0.11965844053030014 0.0016599634351288984 0.027268065501210147
leaf_count=30 10921 240 140 1196 20 4019 326
internal_value=0 0.17428 0.504262 0.0666186 0.197679 -0.0161676 0.0298442
internal_count=16892 1626 400 1226 260 15266 4345
shrinkage=0.12


Tree=8
num_leaves=8
num_cat=0
split_feature=0 1 0 2 2 2 2
split_gain=41.2744 44.7338 54.0715 12.49 11.6783 10.8251 11.26
threshold=5.5000000000000009 4.5000000000000009 1.5000000000000002 6.5000000000000009 4.5000000000000009 8.5000000000000018 4.5000000000000009
decision_type=2 2 2 2 2 2 2
left_child=1 -1 3 -3 -2 6 -4
right_child=4 2 5 -5 -6 -7 -8
leaf_value=0.0070349201837138289 0.002714126153951643 0.044115739497419905 0.098907536048638195 -0.008889786381470529 -0.0041987623120186904 0.059676996561197133 0.17971439616923982
leaf_count=1226 5502 146 57 114 9764 39 44
internal_value=0 0.153366 0.443751 0.173957 -0.0142275 0.944796 1.11759
internal_count=16892 1626 400 260 15266 140 101
shrinkage=0.12


Tree=9
num_leaves=8
num_cat=0
split_feature=0 7 7 8 0 2 8
split_gain=31.9629 17.3255 27.0597 14.5032 12.2159 9.04368 27.8682
threshold=5.5000000000000009 0.87500000000000011 0.98500001430511486 10.619999885559084 1.0000000180025095e-35 4.5000000000000009 60.745000839233406
decision_type=2 2 2 2 2 2 2
left_child=1 3 -3 -1 -5 6 -2
right_child=5 2 -4 4 -6 -7 -8
leaf_value=0.10234168369036453 0.00033750162714492901 0.15839871854551377 0.012023846886374734 0.0019452305247678477 0.023478503154304366 -0.003694911113910038 0.037951543152332304
leaf_count=26 5202 31 44 816 709 9764 300
internal_value=0 0.134962 0.604379 0.112263 0.099637 -0.0125202 0.0199036
internal_count=16892 1626 75 1551 1525 15266 5502
shrinkage=0.12


Tree=10
num_leaves=8
num_cat=0
split_feature=7 1 2 2 1 0 0
split_gain=18.2344 45.1893 105.235 128.206 15.4736 17.9409 17.6201
threshold=0.64499998092651378 1.0000000180025095e-35 4.5000000000000009 3.5000000000000004 4.5000000000000009 6.5000000000000009 1.5000000000000002
decision_type=2 2 2 2 2 2 2
left_child=4 2 3 -2 -1 6 -6
right_child=1 -3 -4 -5 5 -7 -8
leaf_value=-0.0035253753674519273 0.014958445072174071 0.0048608973885718972 -0.003131249966007648 0.35771743969483805 -0.00024524701911895 0.0018692145160030291 0.041965773077518267
leaf_count=11239 30 1007 101 33 244 3896 342
internal_value=0 0.119784 0.606564 1.62082 -0.00956617 0.040114 0.203249
internal_count=16892 1171 164 63 15721 4482 586
shrinkage=0.12


Tree=11
num_leaves=8
num_cat=0
split_feature=1 0 1 3 2 0 0
split_gain=13.6738 21.2556 17.2475 41.1867 170.618 14.8844 31.0502
threshold=4.5000000000000009 6.5000000000000009 1.0000000180025095e-35 1.0000000180025095e-35 4.5000000000000009 1.5000000000000002 5.5000000000000009
decision_type=2 2 2 2 2 2 2
left_child=2 5 3 -1 -5 -2 -7
right_child=1 -3 -4 4 -6 6 -8
leaf_value=0.0034932532748335027 0.0038773988845736481 0.0022633603718113923 -0.0044925701073274876 0.36133912347257136 -0.0029448852715668852 0.091579893857240663 0.017223060919392491
leaf_count=2336 258 4172 9653 24 81 120 248
internal_value=0 0.0446436 -0.0184478 0.0566497 0.669334 0.216471 0.345582
internal_count=16892 4798 12094 2441 105 626 368
shrinkage=0.12


end of trees

feature importances:
Column_0=22
Column_2=22
Column_1=16
Column_8=15
Column_7=7
Column_3=2

parameters:
[boosting: gbdt]
[objective: regression]
[metric: rmse]
[tree_learner: serial]
[device_type: cpu]
[data: ]
[valid: ]
[num_iterations: 100]
[learning_rate: 0.12]
[num_leaves: 8]
[num_threads: 0]
[max_depth: -1]
[min_data_in_leaf: 20]
[min_sum_hessian_in_leaf: 0.001]
[bagging_fraction: 0.8]
[bagging_freq: 5]
[bagging_seed: 3]
[feature_fraction: 0.9]
[feature_fraction_seed: 2]
[early_stopping_round: 0]
[max_delta_step: 0]
[lambda_l1: 0]
[lambda_l2: 0]
[min_gain_to_split: 0]
[drop_rate: 0.1]
[max_drop: 50]
[skip_drop: 0.5]
[xgboost_dart_mode: 0]
[uniform_drop: 0]
[drop_seed: 4]
[top_rate: 0.2]
[other_rate: 0.1]
[min_data_per_group: 100]
[max_cat_threshold: 32]
[cat_l2: 10]
[cat_smooth: 10]
[max_cat_to_onehot: 4]
[top_k: 20]
[monotone_constraints: ]
[feature_contri: ]
[forcedsplits_filename: ]
[refit_decay_rate: 0.9]
[verbosity: 0]
[max_bin: 255]
[min_data_in_bin: 3]
[bin_construct_sample_cnt: 200000]
[histogram_pool_size: -1]
[data_random_seed: 1]
[output_model: LightGBM_model.txt]
[snapshot_freq: -1]
[input_model: ]
[output_result: LightGBM_predict_result.txt]
[initscore_filename: ]
[valid_data_initscores: ]
[pre_partition: 0]
[enable_bundle: 1]
[max_conflict_rate: 0]
[is_enable_sparse: 1]
[sparse_threshold: 0.8]
[use_missing: 1]
[zero_as_missing: 0]
[two_round: 0]
[save_binary: 0]
[enable_load_from_binary_file: 1]
[header: 0]
[label_column: ]
[weight_column: ]
[group_column: ]
[ignore_column: ]
[categorical_feature: ]
[predict_raw_score: 0]
[predict_leaf_index: 0]
[predict_contrib: 0]
[num_iteration_predict: -1]
[pred_early_stop: 0]
[pred_early_stop_freq: 10]
[pred_early_stop_margin: 10]
[convert_model_language: ]
[convert_model: gbdt_prediction.cpp]
[num_class: 1]
[is_unbalance: 0]
[scale_pos_weight: 1]
[sigmoid: 1]
[boost_from_average: 1]
[reg_sqrt: 0]
[alpha: 0.9]
[fair_c: 1]
[poisson_max_delta_step: 0.7]
[tweedie_variance_power: 1.5]
[max_position: 20]
[label_gain: ]
[metric_freq: 1]
[is_provide_training_metric: 0]
[eval_at: ]
[num_machines: 1]
[local_listen_port: 12400]
[time_out: 120]
[machine_list_filename: ]
[machines: ]
[gpu_platform_id: -1]
[gpu_device_id: -1]
[gpu_use_dp: 0]

end of parameters

pandas_categorical:null
