tree
version=v2
num_class=1
num_tree_per_iteration=1
label_index=0
max_feature_idx=8
objective=regression
feature_names=Column_0 Column_1 Column_2 Column_3 Column_4 Column_5 Column_6 Column_7 Column_8
feature_infos=[0:23] [0:6] [1:12] [0:2] none [0:1] [0:1] [0:1] [-9.5600004196166992:95.800003051757812]
tree_sizes=703 706 719 713 711 714 718 714 709 734 727 715 729 713 729 711 731 727 703 729

Tree=0
num_leaves=8
num_cat=0
split_feature=0 8 8 2 2 0 2
split_gain=9559.92 2717.51 794.505 550.039 501.059 470.478 369.104
threshold=5.5000000000000009 37.274999618530281 20.095000267028812 3.5000000000000004 11.500000000000002 9.5000000000000018 2.5000000000000004
decision_type=2 2 2 2 2 2 2
left_child=2 5 -1 -3 -5 -2 -7
right_child=1 3 -4 4 -6 6 -8
leaf_value=2.9397841927479282 2.266998452958835 2.2754145060959017 2.5412740930239845 2.1965591417087311 2.3513648346334293 2.413145852014754 2.3164206836939583
leaf_count=76 973 1703 1383 9436 311 1183 1093
internal_value=0 -0.245953 2.43784 -0.474994 -0.566609 0.561226 0.810034
internal_count=16158 14699 1459 11450 9747 3249 2276
shrinkage=1


Tree=1
num_leaves=8
num_cat=0
split_feature=0 8 1 8 1 0 7
split_gain=7403.2 2104.44 744.115 998.397 575.836 1236.8 655.416
threshold=5.5000000000000009 37.274999618530281 4.5000000000000009 20.095000267028812 5.5000000000000009 20.500000000000004 0.44499999284744268
decision_type=2 2 2 2 2 2 2
left_child=2 4 3 -1 -2 6 -6
right_child=1 -3 -4 -5 5 -7 -8
leaf_value=0.78417503916105979 0.039773376466024038 -0.050159346697528286 0.098300273683739878 0.27713665892272743 0.04222095278417988 0.60216985123498101 0.70585104921589725
leaf_count=59 2828 11450 328 1072 314 84 23
internal_value=0 -0.216438 2.1453 2.52989 0.493878 1.585 0.729277
internal_count=16158 14699 1459 1131 3249 421 337
shrinkage=0.12


Tree=2
num_leaves=8
num_cat=0
split_feature=8 2 7 6 2 8 2
split_gain=2150.7 507.88 747.91 551.088 399.249 437.177 434.223
threshold=37.274999618530281 2.5000000000000004 0.67500001192092907 1.0000000180025095e-35 11.500000000000002 55.585000991821296 3.5000000000000004
decision_type=2 2 2 2 2 2 2
left_child=1 2 -1 -3 6 -6 -2
right_child=4 3 -4 -5 5 -7 -8
leaf_value=0.11207869079625848 0.026582620954909812 0.01585058159798855 0.57817835064495304 0.24487928005586188 0.070132655493624796 0.63601087433951242 -0.037211134986331662
leaf_count=1773 1805 1707 51 166 308 21 10327
internal_value=0 0.667004 1.04259 0.301241 -0.201523 0.885438 -0.230999
internal_count=16158 3697 1824 1873 12461 329 12132
shrinkage=0.12


Tree=3
num_leaves=8
num_cat=0
split_feature=0 8 1 8 0 1 0
split_gain=5710.3 1273.88 575.669 740.227 401.907 417.478 748.9
threshold=5.5000000000000009 40.635000228881843 4.5000000000000009 20.095000267028812 9.5000000000000018 5.5000000000000009 20.500000000000004
decision_type=2 2 2 2 2 2 2
left_child=2 4 3 -1 -2 -6 -7
right_child=1 -3 -4 -5 5 6 -8
leaf_value=0.68053897591970736 -0.026358665877154897 -0.045088348237447638 0.086163986550598606 0.24395109475270579 0.038966987473989717 0.078578178608259608 0.46487689925494946
leaf_count=59 1176 10506 328 1072 2620 302 95
internal_value=0 -0.189757 1.88445 2.22272 0.276233 0.469527 1.42515
internal_count=16158 14699 1459 1131 4193 3017 397
shrinkage=0.12


Tree=4
num_leaves=8
num_cat=0
split_feature=8 7 7 8 2 2 8
split_gain=1434.14 1106.67 576.135 1270.33 400.985 412.967 336.727
threshold=34.114999771118171 0.40500000119209295 0.48499999940395361 31.945000648498539 11.500000000000002 2.5000000000000004 55.585000991821296
decision_type=2 2 2 2 2 2 2
left_child=1 -1 -3 -4 5 -2 -6
right_child=4 2 3 -5 6 -7 -8
leaf_value=0.063382723393682103 0.041541867694740213 1.0297890612057277 1.0065418367660961 -0.020760007666853757 0.069634891041761918 -0.028063629541512106 0.56104687473603654
leaf_count=2701 1374 21 26 52 458 11505 21
internal_value=0 0.64855 3.93233 2.68062 -0.138568 -0.171981 0.759825
internal_count=16158 2800 99 78 13358 12879 479
shrinkage=0.12


Tree=5
num_leaves=8
num_cat=0
split_feature=0 8 1 8 5 1 0
split_gain=4613.51 912.331 606.59 765.868 564.988 444.149 411.152
threshold=5.5000000000000009 37.274999618530281 4.5000000000000009 20.095000267028812 1.0000000180025095e-35 1.5000000000000002 20.500000000000004
decision_type=2 2 2 2 2 2 2
left_child=2 6 3 5 -4 -1 -2
right_child=1 -3 4 -5 -6 -7 -8
leaf_value=0.28889837815211367 0.017939139986038206 -0.033358519652999248 -0.00037406157373118314 0.22203940483671508 0.48682144146699174 0.94776118418749633 0.12644768184500108
leaf_count=26 2625 11424 283 1105 39 34 622
internal_value=0 -0.145041 1.70348 2.03926 0.488617 5.51878 0.32271
internal_count=16158 14671 1487 1165 322 60 3247
shrinkage=0.12


Tree=6
num_leaves=8
num_cat=0
split_feature=0 2 2 8 0 5 2
split_gain=3572.7 723.756 619.285 430.265 385.912 310.229 372.396
threshold=5.5000000000000009 3.5000000000000004 11.500000000000002 20.095000267028812 21.500000000000004 1.0000000180025095e-35 3.5000000000000004
decision_type=2 2 2 2 2 2 2
left_child=3 -2 4 -1 -3 -5 -7
right_child=1 2 -4 5 -6 6 -8
leaf_value=0.45996652765274049 0.02900074253273157 -0.048435597333159636 0.060170690452351287 0.14323792763030102 0.030056332218057629 0.58231538002307603 0.20317136618224058
leaf_count=75 3897 8800 969 1228 1005 52 132
internal_value=0 -0.127636 -0.261216 1.49906 -0.336586 1.37509 2.58601
internal_count=16158 14671 10774 1487 9805 1412 184
shrinkage=0.12


Tree=7
num_leaves=8
num_cat=0
split_feature=0 8 7 1 1 8 0
split_gain=2766.7 589.596 777.823 535.615 527.915 426.833 344.574
threshold=5.5000000000000009 34.114999771118171 0.42499999701976782 4.5000000000000009 5.5000000000000009 20.095000267028812 21.500000000000004
decision_type=2 2 2 2 2 2 2
left_child=4 2 -2 -4 5 -1 -3
right_child=1 6 3 -5 -6 -7 -8
leaf_value=0.47421014233478409 0.027707081113238725 -0.03080397792824598 0.16001736626905552 0.78632363274693484 -0.091021749419448642 0.16366253726201468 0.037285859007624128
leaf_count=67 2352 11051 51 32 113 1307 1185
internal_value=0 -0.112319 0.337065 3.34571 1.31917 1.49005 -0.201748
internal_count=16158 14671 2435 83 1487 1374 12236
shrinkage=0.12


Tree=8
num_leaves=8
num_cat=0
split_feature=0 2 2 1 7 7 1
split_gain=2142.53 504.075 442.042 408.817 313.32 475.81 644.434
threshold=5.5000000000000009 3.5000000000000004 11.500000000000002 5.5000000000000009 0.19500000029802325 0.5249999761581422 2.5000000000000004
decision_type=2 2 2 2 2 2 2
left_child=3 -2 -3 4 -1 6 -6
right_child=1 2 -4 -5 5 -7 -8
leaf_value=0.13858947492739684 0.025123791164210249 -0.03287968725562361 0.052080605093724218 -0.080099138902351916 0.22500722825527189 0.17008396376093679 1.1352589334760395
leaf_count=1241 3897 9805 969 113 24 88 21
internal_value=0 -0.0988411 -0.210321 1.16087 1.31124 2.76992 5.41493
internal_count=16158 14671 10774 1487 1374 133 45
shrinkage=0.12


Tree=9
num_leaves=8
num_cat=0
split_feature=0 3 0 0 8 7 8
split_gain=1659.18 401.7 495.478 282.794 284.729 489.174 258.487
threshold=5.5000000000000009 1.0000000180025095e-35 21.500000000000004 7.5000000000000009 33.635000228881843 0.56499999761581432 20.095000267028812
decision_type=2 2 2 2 2 2 2
left_child=6 2 3 -2 5 -5 -1
right_child=1 -3 -4 4 -6 -7 -8
leaf_value=0.33967410207986831 -0.058375760775542199 -0.078652432542586817 0.067959040027566073 0.033089921007582283 -0.013016656432093274 0.53912683469908584 0.11105752090451232
leaf_count=75 1636 1146 1230 1566 9065 28 1412
internal_value=0 -0.0869802 -0.0388138 -0.0993523 -0.0399362 0.349824 1.02157
internal_count=16158 14671 13525 12295 10659 1594 1487
shrinkage=0.12


Tree=10
num_leaves=8
num_cat=0
split_feature=0 2 2 7 1 6 1
split_gain=953.728 410.517 324.302 274.851 262.081 237.323 318.075
threshold=5.5000000000000009 2.5000000000000004 11.500000000000002 0.91500002145767223 4.5000000000000009 1.0000000180025095e-35 4.5000000000000009
decision_type=2 2 2 2 2 2 2
left_child=4 -2 5 -4 -1 -3 -7
right_child=1 2 3 -5 -6 6 -8
leaf_value=0.11944644381957395 0.032410082016392415 -0.027726638845562469 0.035965808212572059 0.41763664535113743 -0.0024079799516634505 0.040067012196176505 0.52449987459182745
leaf_count=1106 2585 11079 916 28 330 89 25
internal_value=0 -0.0917484 -0.168813 0.394055 0.762031 -0.216285 1.21919
internal_count=16158 14722 12137 944 1436 11193 114
shrinkage=0.12


Tree=11
num_leaves=8
num_cat=0
split_feature=0 2 8 0 2 8 0
split_gain=738.567 318.3 400.929 473.894 275.373 260.885 211.745
threshold=5.5000000000000009 3.5000000000000004 13.47000026702881 21.500000000000004 11.500000000000002 29.195000648498539 21.500000000000004
decision_type=2 2 2 2 2 2 2
left_child=-1 2 3 -2 -3 -6 -7
right_child=1 4 -4 -5 5 6 -8
leaf_value=0.080470439894072973 0.12898751644764916 -0.026230021269745593 0.012293279839114638 0.76067966613918536 -0.062643148199371668 0.057659048742084634 0.27922720888386604
leaf_count=1436 118 9865 3775 20 253 622 69
internal_value=0 -0.0807386 0.163645 1.83781 -0.169209 0.346768 0.664865
internal_count=16158 14722 3913 138 10809 944 691
shrinkage=0.12


Tree=12
num_leaves=8
num_cat=0
split_feature=2 8 3 7 2 2 8
split_gain=342.572 582.875 250.123 195.053 238.478 152.421 205.842
threshold=2.5000000000000004 13.47000026702881 1.0000000180025095e-35 0.99500000476837169 9.5000000000000018 11.500000000000002 18.220000267028812
decision_type=2 2 2 2 2 2 2
left_child=1 -1 3 5 -5 -2 -7
right_child=2 -3 -4 4 -6 6 -8
leaf_value=0.27508638521297168 -0.010650432933923006 0.023972732959590133 -0.060623298068341012 0.030327433907106276 0.29640477540818128 -0.14808245486850979 0.053611700397088076
leaf_count=140 10798 2703 1251 183 66 79 938
internal_value=0 0.302821 -0.0795727 -0.035437 0.84045 -0.0538963 0.316202
internal_count=16158 2843 13315 12064 249 11815 1017
shrinkage=0.12


Tree=13
num_leaves=8
num_cat=0
split_feature=8 7 2 8 2 8 1
split_gain=276.415 842.567 272.107 269.275 238.887 309.724 1090.67
threshold=23.685000419616703 0.044999999925494201 2.5000000000000004 13.47000026702881 11.500000000000002 48.545000076293952 3.5000000000000004
decision_type=2 2 2 2 2 2 2
left_child=1 2 3 -1 -2 -6 -7
right_child=4 -3 -4 -5 5 6 -8
leaf_value=0.24207601695481162 -0.0086690875753961377 0.83542903161048887 -0.043554779744128448 0.046974443573365235 0.035416819452146447 -0.19717523373663426 0.77890621599029097
leaf_count=140 14439 20 301 374 818 32 34
internal_value=0 0.549478 0.392118 0.834291 -0.0413479 0.463275 2.54712
internal_count=16158 835 815 514 15323 884 66
shrinkage=0.12


Tree=14
num_leaves=8
num_cat=0
split_feature=0 0 6 8 3 1 2
split_gain=570.301 223.243 270.948 273.17 230.049 202.108 164.283
threshold=5.5000000000000009 21.500000000000004 1.0000000180025095e-35 13.47000026702881 1.0000000180025095e-35 5.5000000000000009 6.5000000000000009
decision_type=2 2 2 2 2 2 2
left_child=5 4 3 -3 -2 6 -1
right_child=1 2 -4 -5 -6 -7 -8
leaf_value=0.12310876959353562 -0.009098584067107323 0.42175504074096676 0.42657276024967428 0.021822497011282371 -0.073540765934504759 -0.078723906676183217 0.037959635875519086
leaf_count=721 12306 25 25 1513 853 119 596
internal_value=0 -0.0681926 0.289111 0.236028 -0.110632 0.592022 0.704792
internal_count=16158 14722 1563 1538 13159 1436 1317
shrinkage=0.12


Tree=15
num_leaves=8
num_cat=0
split_feature=2 8 2 6 1 8 7
split_gain=328.318 172.125 338.184 174.872 372.583 180.522 197.333
threshold=3.5000000000000004 10.920000076293947 1.5000000000000002 1.0000000180025095e-35 5.5000000000000009 33.635000228881843 0.33500000834465032
decision_type=2 2 2 2 2 2 2
left_child=1 2 -1 -3 5 6 -5
right_child=-2 3 -4 4 -6 -7 -8
leaf_value=0.35243020273390269 -0.0089433560977973375 0.019978248181060507 -0.11717592305996839 0.055882517017664446 0.59518180383877328 -0.11592582309021141 0.33827943969368934
leaf_count=63 11868 3944 34 124 22 53 50
internal_value=0 0.248265 1.56522 0.217799 1.03057 0.649755 1.14193
internal_count=16158 4290 97 4193 249 227 174
shrinkage=0.12


Tree=16
num_leaves=8
num_cat=0
split_feature=0 1 0 1 2 0 3
split_gain=659.318 312.939 248.099 595.019 240.297 210.924 205.336
threshold=5.5000000000000009 4.5000000000000009 11.500000000000002 4.5000000000000009 3.5000000000000004 6.5000000000000009 1.0000000180025095e-35
decision_type=2 2 2 2 2 2 2
left_child=1 4 3 -2 -1 -5 -4
right_child=2 -3 6 5 -6 -7 -8
leaf_value=0.20076476628202142 -0.053316368673306344 -0.020346519222198906 0.010898455385629856 0.14786888054295166 0.075215450871354547 0.019379313345478235 -0.043521097809789029
leaf_count=301 3634 354 8633 222 811 1074 1129
internal_value=0 0.649314 -0.0539752 -0.236835 0.909996 0.344909 0.0383725
internal_count=16158 1466 14692 4930 1112 1296 9762
shrinkage=0.12


Tree=17
num_leaves=8
num_cat=0
split_feature=0 1 0 1 8 1 0
split_gain=510.576 242.34 199.568 316.485 219.7 243.599 340.473
threshold=5.5000000000000009 4.5000000000000009 8.5000000000000018 4.5000000000000009 40.635000228881843 5.5000000000000009 20.500000000000004
decision_type=2 2 2 2 2 2 2
left_child=1 -1 3 -2 5 -4 -7
right_child=2 -3 4 -5 -6 6 -8
leaf_value=0.096095626642492021 -0.062788238076747757 -0.017904940603648202 0.014461790533459152 0.034467823806146505 -0.0092068364362005422 0.052337998968608884 0.30536236225515601
leaf_count=1112 1807 354 2876 657 8925 327 100
internal_value=0 0.571396 -0.0474981 -0.307133 0.00481944 0.225156 0.929952
internal_count=16158 1466 14692 2464 12228 3303 427
shrinkage=0.12


Tree=18
num_leaves=8
num_cat=0
split_feature=0 1 2 1 8 8 8
split_gain=395.39 187.668 194.188 297.058 394.728 353.241 367.684
threshold=5.5000000000000009 4.5000000000000009 2.5000000000000004 1.5000000000000002 20.095000267028812 27.23499965667725 33.844999313354499
decision_type=2 2 2 2 2 2 2
left_child=1 2 3 -1 -5 -6 -7
right_child=-2 -3 -4 4 5 6 -8
leaf_value=0.001422775434078397 -0.0050158035788928365 -0.015756342267080888 0.061152550287275433 0.77933226295879898 -0.15539821041481836 0.68878062320607047 0.14160601618978033
leaf_count=74 14692 354 913 21 28 28 48
internal_value=0 0.502829 0.704701 1.59979 2.53985 1.74133 2.85997
internal_count=16158 1466 1112 199 125 104 76
shrinkage=0.12


Tree=19
num_leaves=8
num_cat=0
split_feature=0 0 1 2 8 5 1
split_gain=306.19 162.037 395.27 160.042 212.429 209.653 194.19
threshold=5.5000000000000009 11.500000000000002 4.5000000000000009 2.5000000000000004 23.685000419616703 1.0000000180025095e-35 4.5000000000000009
decision_type=2 2 2 2 2 2 2
left_child=-1 2 -2 4 5 -3 -5
right_child=1 3 -4 6 -6 -7 -8
leaf_value=0.053098692241522499 -0.042438893055376202 0.10026603214055686 0.034750299854204053 0.0087268044200988059 0.020003654986148436 0.44795951211026735 -0.033355259034265249
leaf_count=1466 3634 231 1296 5871 1472 28 2160
internal_value=0 -0.0367826 -0.184561 0.0378486 0.313642 1.14879 -0.0215958
internal_count=16158 14692 4930 9762 1731 259 8031
shrinkage=0.12


end of trees

feature importances:
Column_8=33
Column_0=32
Column_2=28
Column_1=24
Column_7=12
Column_3=4
Column_6=4
Column_5=3

parameters:
[boosting: gbdt]
[objective: regression]
[metric: rmse]
[tree_learner: serial]
[device_type: cpu]
[data: ]
[valid: ]
[num_iterations: 100]
[learning_rate: 0.12]
[num_leaves: 8]
[num_threads: 0]
[max_depth: -1]
[min_data_in_leaf: 20]
[min_sum_hessian_in_leaf: 0.001]
[bagging_fraction: 0.8]
[bagging_freq: 5]
[bagging_seed: 3]
[feature_fraction: 0.9]
[feature_fraction_seed: 2]
[early_stopping_round: 0]
[max_delta_step: 0]
[lambda_l1: 0]
[lambda_l2: 0]
[min_gain_to_split: 0]
[drop_rate: 0.1]
[max_drop: 50]
[skip_drop: 0.5]
[xgboost_dart_mode: 0]
[uniform_drop: 0]
[drop_seed: 4]
[top_rate: 0.2]
[other_rate: 0.1]
[min_data_per_group: 100]
[max_cat_threshold: 32]
[cat_l2: 10]
[cat_smooth: 10]
[max_cat_to_onehot: 4]
[top_k: 20]
[monotone_constraints: ]
[feature_contri: ]
[forcedsplits_filename: ]
[refit_decay_rate: 0.9]
[verbosity: 0]
[max_bin: 255]
[min_data_in_bin: 3]
[bin_construct_sample_cnt: 200000]
[histogram_pool_size: -1]
[data_random_seed: 1]
[output_model: LightGBM_model.txt]
[snapshot_freq: -1]
[input_model: ]
[output_result: LightGBM_predict_result.txt]
[initscore_filename: ]
[valid_data_initscores: ]
[pre_partition: 0]
[enable_bundle: 1]
[max_conflict_rate: 0]
[is_enable_sparse: 1]
[sparse_threshold: 0.8]
[use_missing: 1]
[zero_as_missing: 0]
[two_round: 0]
[save_binary: 0]
[enable_load_from_binary_file: 1]
[header: 0]
[label_column: ]
[weight_column: ]
[group_column: ]
[ignore_column: ]
[categorical_feature: ]
[predict_raw_score: 0]
[predict_leaf_index: 0]
[predict_contrib: 0]
[num_iteration_predict: -1]
[pred_early_stop: 0]
[pred_early_stop_freq: 10]
[pred_early_stop_margin: 10]
[convert_model_language: ]
[convert_model: gbdt_prediction.cpp]
[num_class: 1]
[is_unbalance: 0]
[scale_pos_weight: 1]
[sigmoid: 1]
[boost_from_average: 1]
[reg_sqrt: 0]
[alpha: 0.9]
[fair_c: 1]
[poisson_max_delta_step: 0.7]
[tweedie_variance_power: 1.5]
[max_position: 20]
[label_gain: ]
[metric_freq: 1]
[is_provide_training_metric: 0]
[eval_at: ]
[num_machines: 1]
[local_listen_port: 12400]
[time_out: 120]
[machine_list_filename: ]
[machines: ]
[gpu_platform_id: -1]
[gpu_device_id: -1]
[gpu_use_dp: 0]

end of parameters

pandas_categorical:null
