tree
version=v2
num_class=1
num_tree_per_iteration=1
label_index=0
max_feature_idx=7
objective=regression
feature_names=Column_0 Column_1 Column_2 Column_3 Column_4 Column_5 Column_6 Column_7
feature_infos=[0:23] [0:6] [1:12] [0:2] [0:1] [0:1] [0:1] [-3.5199999809265137:95.75]
tree_sizes=3029 3111 3119 3113 3109 3131 3116 3132 3140 3136 3143 3137 3160 3141 3129 3153 3147 3137 3142 3129 3119 3143 3137 3144 3169 3135 3150 3154 3137 3122 3133 3163 3101 3142 3106 3141 3136 3140 3141 3148 3137 3147 3145 3126 3122 3147 3155 3125 3114 3178

Tree=0
num_leaves=40
num_cat=0
split_feature=2 1 2 0 0 0 0 7 1 6 0 7 3 0 2 1 2 7 1 2 2 7 0 7 7 7 7 2 7 2 7 7 2 0 0 2 7 6 0
split_gain=15970.3 9097.51 4759.25 4288.59 4182.94 15344.7 4176.02 3726.28 3427.5 2595.61 2434.12 2136.19 1900.39 1850.79 1645.01 1560.94 1490.73 1310 1215.61 1212.83 1685.63 1181.2 1020.42 1754.46 2646.27 996.401 1347.79 924.72 1124.99 840.46 817.517 750.927 713.874 687.712 1130.56 680.08 668.031 796.345 635.075
threshold=8.5000000000000018 4.5000000000000009 1.5000000000000002 5.5000000000000009 5.5000000000000009 1.5000000000000002 1.0000000180025095e-35 39.57500076293946 5.5000000000000009 0.36500000953674322 1.5000000000000002 25.050000190734867 1.0000000180025095e-35 5.5000000000000009 1.5000000000000002 4.5000000000000009 4.5000000000000009 44.364999771118171 5.5000000000000009 4.5000000000000009 2.5000000000000004 56.73500061035157 1.5000000000000002 35.145000457763679 29.625000000000004 58.424999237060554 28.48499965667725 4.5000000000000009 63.784999847412116 1.5000000000000002 60.335000991821296 66.255001068115249 9.5000000000000018 1.5000000000000002 6.5000000000000009 6.5000000000000009 38.305000305175788 0.99500000476837169 10.500000000000002
decision_type=2 2 2 2 2 2 2 2 2 2 2 2 2 2 2 2 2 2 2 2 2 2 2 2 2 2 2 2 2 2 2 2 2 2 2 2 2 2 2
left_child=1 4 -3 6 5 -1 -2 8 15 11 17 -4 19 16 -6 22 -11 -9 36 20 -13 -12 23 24 -8 26 -7 -16 35 -28 -27 33 -23 -22 -35 -29 -5 -38 -21
right_child=3 2 9 18 14 25 7 10 -10 13 21 12 -14 -15 27 -17 -18 -19 -20 38 31 32 -24 -25 -26 30 29 28 -30 -31 -32 -33 -34 34 -36 -37 37 -39 -40
leaf_value=5.1842674703733058 5.0999392926139455 5.149025797148119 5.1240854541323033 5.1547148235575397 5.1470373993041729 5.3739455995944461 5.8987532733788486 5.463071469285401 6.0604199658741953 5.9932903329331957 5.2425170257554887 5.2734575870586839 5.2258282297980658 5.4119472370049504 5.236822986324567 5.1078157867898941 5.4237532805314066 5.0507694143320361 5.1900161720206119 5.3451930783098103 5.2850994391459318 5.6158686800021025 5.3690581668376103 5.9662532795777317 5.1562532900681495 5.1287532852997781 5.3705390098034309 5.177312716865397 5.2164710858350656 5.6608788433126858 5.4678157906641962 5.1524071314536242 5.3062532869440435 5.6368503094772153 5.4204922389291923 5.0740911231376158 5.106034124477544 5.2377658903417945 5.2842429765621706
leaf_count=987 293 422 143 1170 982 65 20 22 24 27 91 279 447 281 3142 32 20 155 776 764 78 52 82 25 30 20 28 1161 3719 227 160 26 29 67 611 185 3194 119 970
internal_value=0 0.561299 1.82062 -1.35973 0.0735432 1.62956 0.717394 2.31314 5.60918 2.1823 0.301516 1.92203 2.08888 4.86826 -0.178258 4.17972 10.6765 -2.30185 -1.69743 2.39506 3.23718 2.98057 5.47716 8.14289 4.72289 6.14289 7.20164 -0.031901 -0.29628 8.23779 4.26067 3.99005 5.7582 4.17178 4.49528 -1.07966 -1.89746 -2.12686 1.87978
internal_count=20925 14811 4135 6114 10676 1487 855 562 213 3713 349 3385 3242 328 9189 189 47 177 5259 2795 1061 172 157 75 50 500 320 8207 5065 255 180 782 81 756 678 1346 4483 3313 1734
shrinkage=1


Tree=1
num_leaves=40
num_cat=0
split_feature=2 1 2 0 0 0 0 7 0 7 7 6 0 7 3 0 2 7 7 1 2 2 1 2 7 2 7 7 7 2 7 2 2 7 7 0 0 0 0
split_gain=14413.2 8210.51 4295.23 3870.45 3775.1 13848.6 3768.86 3362.97 3135.95 2381.99 2689.75 2342.53 2196.79 1927.91 1715.1 1670.33 1484.62 1406.28 1182.28 1110.53 1094.58 1521.28 1066.73 1052.15 1088.94 1012.15 3825.88 899.252 1216.38 834.559 1022.31 791.317 758.515 737.809 677.712 620.66 1020.33 573.155 1129.09
threshold=8.5000000000000018 4.5000000000000009 1.5000000000000002 5.5000000000000009 5.5000000000000009 1.5000000000000002 1.0000000180025095e-35 39.57500076293946 1.5000000000000002 27.130000114440922 35.145000457763679 0.36500000953674322 1.5000000000000002 25.050000190734867 1.0000000180025095e-35 5.5000000000000009 1.5000000000000002 50.23500061035157 44.364999771118171 4.5000000000000009 4.5000000000000009 2.5000000000000004 5.5000000000000009 9.5000000000000018 57.954999923706062 11.500000000000002 46.704999923706062 58.424999237060554 28.48499965667725 4.5000000000000009 65.145000457763686 9.5000000000000018 1.5000000000000002 60.335000991821296 66.255001068115249 1.5000000000000002 6.5000000000000009 10.500000000000002 1.5000000000000002
decision_type=2 2 2 2 2 2 2 2 2 2 2 2 2 2 2 2 2 2 2 2 2 2 2 2 2 2 2 2 2 2 2 2 2 2 2 2 2 2 2
left_child=1 4 -3 6 5 -1 -2 8 9 -8 -11 13 18 -4 20 17 -6 -13 -9 -5 21 -15 23 24 -14 31 -27 28 -7 -18 -31 -21 -30 -29 35 -23 -37 38 -22
right_child=3 2 11 19 16 27 7 12 -10 10 -12 15 22 14 -16 -17 29 -19 -20 25 37 34 -24 -25 -26 26 -28 33 32 30 -32 -33 -34 -35 -36 36 -38 -39 -40
leaf_value=-0.031199190650878828 -0.11131096000150609 -0.064678779230298591 -0.088372104557660924 -0.095474301921429666 -0.066567759837219284 0.14899502900930553 0.91190222854037639 0.23366461504589428 0.079036770624305142 0.08400844180065653 0.66565014149461477 0.2155823298475959 0.040074010789394376 0.053531423435416274 0.0082835352660825586 0.18509658765962542 0.018728548854134174 0.76369975990056993 -0.15802233900634513 -0.012181865482096108 0.0097518431900561545 0.064591182997593519 -0.18356066590005704 0.07657693833455273 0.48664841901424327 -0.027977060883912469 0.48697859922423964 -0.083937661945819864 0.1457587635942868 -0.048654454931646524 0.00051838535604217231 -0.0995805651819546 0.42158161048584575 0.23817171357572078 -0.061466508645277765 0.3987545000528222 0.19321434276388827 0.063777542065099349 0.15468950144315172
leaf_count=987 293 422 143 3710 982 65 23 22 109 46 35 22 20 279 447 281 3142 25 155 397 174 78 22 87 43 367 40 20 28 1503 3562 745 227 160 26 67 611 970 590
internal_value=0 0.533234 1.72959 -1.29175 0.069866 1.54808 0.681524 2.19748 5.32872 9.2569 6.7067 2.07318 0.28644 1.82593 1.98443 4.62484 -0.169345 10.1427 -2.18676 -1.61256 2.2753 3.07532 2.83154 3.78527 6.89758 -0.901384 0.452657 5.83575 6.84156 -0.030306 -0.281466 -1.38395 7.8259 4.04764 3.79055 3.96319 4.27052 1.78579 2.4336
internal_count=20925 14811 4135 6114 10676 1487 855 562 213 104 81 3713 349 3385 3242 328 9189 47 177 5259 2795 1061 172 150 63 1549 407 500 320 8207 5065 1142 255 180 782 756 678 1734 764
shrinkage=0.05


Tree=2
num_leaves=40
num_cat=0
split_feature=2 1 2 0 0 0 0 7 1 6 0 7 2 0 1 2 2 2 7 7 1 3 7 7 7 0 7 7 2 7 7 2 2 7 6 7 2 7 2
split_gain=13007.9 7409.98 3876.44 3493.08 3407.03 12498.3 3401.39 3035.08 3044.39 2114.14 1982.61 1739.94 1553.33 1507.48 1438.79 1421.91 1339.87 1219.63 1102.87 1067.01 1037.26 977.263 969.399 811.575 1097.79 795.474 1466.6 2209.53 753.19 923.141 718.04 684.56 613.772 605.813 723.901 598.07 573.212 566.024 538.419
threshold=8.5000000000000018 4.5000000000000009 1.5000000000000002 5.5000000000000009 5.5000000000000009 1.5000000000000002 1.0000000180025095e-35 39.57500076293946 5.5000000000000009 0.36500000953674322 1.5000000000000002 25.050000190734867 4.5000000000000009 5.5000000000000009 4.5000000000000009 4.5000000000000009 1.5000000000000002 2.5000000000000004 74.204998016357436 44.364999771118171 5.5000000000000009 1.0000000180025095e-35 56.73500061035157 58.424999237060554 28.48499965667725 1.5000000000000002 35.145000457763679 29.625000000000004 4.5000000000000009 63.784999847412116 70.005001068115249 1.5000000000000002 6.5000000000000009 38.305000305175788 0.99500000476837169 86.36999893188478 9.5000000000000018 6.9299998283386239 2.5000000000000004
decision_type=2 2 2 2 2 2 2 2 2 2 2 2 2 2 2 2 2 2 2 2 2 2 2 2 2 2 2 2 2 2 2 2 2 2 2 2 2 2 2
left_child=1 4 -3 6 5 38 -2 8 14 11 19 -4 17 15 25 -11 37 -13 -19 -9 33 -14 -12 24 -7 26 27 -8 -18 32 -25 -26 -30 -5 35 -35 -24 -6 -1
right_child=3 2 9 20 16 23 7 10 -10 13 22 12 21 -15 -16 -17 28 18 -20 -21 -22 -23 36 30 31 -27 -28 -29 29 -31 -32 -33 -34 34 -36 -37 -38 -39 -40
leaf_value=-0.10382687662328993 -0.10574541230886259 -0.061444844277266646 -0.083953495061845629 -0.054905597980205834 0.12097651645541192 0.14154528251061074 0.61645538777112963 0.22198139103976164 0.78357791863381865 0.718473146552289 0.022508125547524339 0.050854847427978314 0.08482493984640814 0.17584175422946755 -0.11981746507808566 0.16223821699619295 0.017792126888742425 0.18037272259189063 -0.18652729420434863 -0.15012121857173982 -0.023224241161699764 -0.0039013564606349936 0.35964432708345928 0.13631501700321255 0.13847082001822336 0.14040013030171394 0.67840481281280518 -0.062013076146443684 -0.035373482894887197 -0.00052788170872435959 0.37051457333010296 0.40050252615289539 -0.13343400167150274 -0.10315188784237471 0.024327718892267772 0.14738867183526358 0.082204028655742778 -0.071061697762040327 -0.011256442594844684
leaf_count=196 293 422 143 1170 40 65 20 22 24 27 91 279 1734 281 32 20 3142 830 21 155 776 378 52 137 28 82 25 30 1161 3719 43 227 185 3170 119 24 29 942 791
internal_value=0 0.506573 1.64311 -1.22716 0.0663728 1.47068 0.647448 2.08761 5.06229 1.96952 0.272118 1.73464 1.88521 4.3936 3.71508 9.63555 -0.160878 2.83152 3.42638 -2.07742 -1.53193 1.3789 2.68996 5.54396 6.49948 4.96072 7.31436 4.18749 -0.0287906 -0.267392 3.84525 7.43461 -0.977027 -1.7167 -1.93516 -2.02539 5.20628 -1.26479 -0.592784
internal_count=20925 14811 4135 6114 10676 1487 855 562 213 3713 349 3385 3242 328 189 47 9189 1130 851 177 5259 2112 172 500 320 157 75 50 8207 5065 180 255 1346 4483 3313 3194 81 982 987
shrinkage=0.05


Tree=3
num_leaves=40
num_cat=0
split_feature=2 1 2 0 0 0 0 7 1 6 0 7 3 0 0 1 2 7 1 1 2 7 2 2 2 7 7 7 2 0 7 7 2 7 7 2 7 0 0
split_gain=11739.6 6687.51 3498.49 3152.51 3074.84 11279.7 3069.76 2739.16 2747.56 1908.01 1789.3 1570.29 1411.41 1376.2 4174.9 1298.51 1209.23 962.972 959.016 939.095 902.53 3474.76 897.015 1243.98 866.406 917.51 732.446 990.753 721.534 717.915 1323.6 1994.1 679.754 839.145 652.247 617.815 573.747 560.146 920.846
threshold=8.5000000000000018 4.5000000000000009 1.5000000000000002 5.5000000000000009 5.5000000000000009 1.5000000000000002 1.0000000180025095e-35 39.57500076293946 5.5000000000000009 0.36500000953674322 1.5000000000000002 25.050000190734867 1.0000000180025095e-35 6.5000000000000009 1.5000000000000002 4.5000000000000009 1.5000000000000002 44.364999771118171 5.5000000000000009 4.5000000000000009 11.500000000000002 46.704999923706062 4.5000000000000009 2.5000000000000004 9.5000000000000018 57.954999923706062 58.424999237060554 28.48499965667725 9.5000000000000018 1.5000000000000002 35.145000457763679 29.625000000000004 4.5000000000000009 65.145000457763686 60.335000991821296 1.5000000000000002 66.255001068115249 1.5000000000000002 6.5000000000000009
decision_type=2 2 2 2 2 2 2 2 2 2 2 2 2 2 2 2 2 2 2 2 2 2 2 2 2 2 2 2 2 2 2 2 2 2 2 2 2 2 2
left_child=1 4 -3 6 5 -1 -2 8 15 11 17 -4 22 14 -11 29 -6 -9 24 -5 28 -22 23 -13 25 -12 27 -7 -21 30 31 -8 -18 -34 -28 -29 37 -25 -39
right_child=3 2 9 19 16 26 7 10 -10 13 18 12 -14 -15 -16 -17 32 -19 -20 20 21 -23 -24 36 -26 -27 34 35 -30 -31 -32 -33 33 -35 -36 -37 -38 38 -40
leaf_value=-0.028157268777836905 -0.10045814276148435 -0.058372594008301672 -0.079755824154334062 -0.086419115751602688 -0.060077401783029019 0.13446801112248349 0.58563259303569792 0.2108823099596934 0.74439899772405627 0.084607076024015751 0.034416386371012776 0.048312107551055146 0.0070525800738425338 0.16023631488709755 0.93596383382876724 -0.11382659054361284 0.016902520055132715 -0.14261515899050622 -0.18051236055114053 -0.0084083326217209362 -0.024368328749321461 0.46638853807002312 0.080583693663726086 0.052342989620489958 0.070730671115305233 0.44433377800985829 -0.086556524038314819 0.13154729242835725 -0.091864434869197389 0.1333801194662001 0.64448458570241929 -0.058912445704142259 -0.04403154928502407 0.00051886196813511083 0.21630032204790042 0.38047739522047508 -0.059650473182017986 0.36979813942713524 0.17453498344764773
leaf_count=987 293 422 143 3710 982 65 20 22 24 36 20 279 447 268 24 32 3142 155 22 397 367 40 1734 78 87 43 20 28 745 82 25 30 1503 3562 160 227 26 67 611
internal_value=0 0.481244 1.56095 -1.1658 0.0630541 1.39715 0.615076 1.98323 4.80917 1.87105 0.258512 1.6479 1.79095 4.17392 8.503 3.52932 -0.152834 -1.97355 2.55546 -1.45533 -0.801352 0.477266 2.05481 2.77904 3.45977 6.28403 5.26676 6.17451 -1.25704 4.71268 6.94864 3.97811 -0.0273511 -0.254023 3.65299 7.06288 3.42581 3.58466 3.87662
internal_count=20925 14811 4135 6114 10676 1487 855 562 213 3713 349 3385 3242 328 60 189 9189 177 172 5259 1549 407 2795 1061 150 63 500 320 1142 157 75 50 8207 5065 180 255 782 756 678
shrinkage=0.05


Tree=4
num_leaves=40
num_cat=0
split_feature=2 1 2 0 0 0 0 7 0 7 7 6 0 7 0 7 2 2 2 7 1 7 1 0 0 0 2 7 7 7 0 7 1 0 2 7 6 5 7
split_gain=10595 6035.48 3157.39 2845.14 2775.04 10180 2770.46 2472.09 2545.44 2013.62 2076.69 1721.98 1614.85 1417.19 1319.74 1359.52 1275.88 1091.33 997.771 941.664 885.591 869.082 865.512 855.211 1158.85 1155.94 781.932 828.052 661.033 894.155 660.038 635.218 596.389 569.433 557.578 549.467 658.113 547.933 541.971
threshold=8.5000000000000018 4.5000000000000009 1.5000000000000002 5.5000000000000009 5.5000000000000009 1.5000000000000002 1.0000000180025095e-35 39.57500076293946 1.5000000000000002 27.130000114440922 35.145000457763679 0.36500000953674322 1.5000000000000002 25.050000190734867 5.5000000000000009 50.23500061035157 4.5000000000000009 1.5000000000000002 2.5000000000000004 74.204998016357436 5.5000000000000009 44.364999771118171 5.5000000000000009 10.500000000000002 1.5000000000000002 5.5000000000000009 9.5000000000000018 57.954999923706062 58.424999237060554 28.48499965667725 11.500000000000002 70.005001068115249 4.5000000000000009 18.500000000000004 1.5000000000000002 38.305000305175788 0.99500000476837169 1.0000000180025095e-35 86.36999893188478
decision_type=2 2 2 2 2 2 2 2 2 2 2 2 2 2 2 2 2 2 2 2 2 2 2 2 2 2 2 2 2 2 2 2 2 2 2 2 2 2 2
left_child=1 4 -3 6 5 -1 -2 8 9 -8 -11 13 21 -4 15 -13 18 -6 -15 -20 35 -9 26 24 -18 -26 27 -14 29 -7 37 -30 -10 -32 -31 -5 38 -19 -37
right_child=3 2 11 20 17 28 7 12 32 10 -12 14 22 16 -16 -17 23 30 19 -21 -22 -23 -24 -25 25 -27 -28 -29 31 34 33 -33 -34 -35 -36 36 -38 -39 -40
leaf_value=-0.026749407454736331 -0.095435235829890386 -0.05545396604950395 -0.075768031773867317 -0.048208790655192152 -0.057073526932666353 0.12774460751276751 0.81826620620229973 0.2003381935710257 0.12671112200108969 0.067316540427829905 0.57839294169630329 0.15683230486783117 0.03269555867649615 0.045896500877795683 0.15724347317160448 0.69575917470455173 0.00093837112043667768 -0.02421089459112382 0.16322026333580894 -0.17580657274950118 -0.01981221725732165 -0.1354844126009172 -0.17148675972765143 0.037381486848313758 0.32349220043098609 0.11218117728194064 0.067194152426445622 0.42211709285891336 0.12089488423109924 0.12496991838727678 0.022317311877268368 0.3411738292422406 -0.14422015095198598 -0.010419845244613896 0.36145353300521554 -0.094160923048712861 0.027385199023019363 0.15366950942711399 0.14434019724527997
leaf_count=987 293 422 143 1170 982 65 23 22 82 46 35 22 20 279 281 25 206 2692 830 21 776 155 22 1316 74 516 87 43 137 28 3200 43 27 2271 227 3170 119 44 24
internal_value=0 0.457182 1.4829 -1.10751 0.0599014 1.32729 0.584322 1.88407 4.56871 8.10778 5.76304 1.7775 0.245587 1.56551 3.96523 8.86991 1.7014 -0.145192 2.55904 3.09708 -1.38257 -1.87487 2.42769 1.24253 2.06073 2.77369 3.28678 5.96982 5.00342 5.86578 -0.0259835 3.47034 1.19199 0.174564 6.70973 -1.5533 -1.76135 -0.427005 -1.84738
internal_count=20925 14811 4135 6114 10676 1487 855 562 213 104 81 3713 349 3385 328 47 3242 9189 1130 851 5259 177 172 2112 796 590 150 63 500 320 8207 180 109 5471 255 4483 3313 2736 3194
shrinkage=0.05


Tree=5
num_leaves=40
num_cat=0
split_feature=2 1 2 0 0 0 0 0 6 7 0 7 7 7 3 0 2 2 0 0 1 0 0 7 1 2 7 7 7 7 7 1 6 6 7 7 2 2 2
split_gain=9562.01 5447.02 2849.54 2588.58 2539.67 4875.08 4517.23 1750.28 1554.08 1387.17 3916.36 1817.3 1874.22 1279.01 1212.06 1191.06 1307.61 1113.48 922.114 849.225 863.048 774.025 2735.61 756.736 746.812 921.692 3056.86 744.023 781.902 630.578 1905.85 608.15 607.513 843.573 603.047 848.106 583.132 543.86 1090.69
threshold=8.5000000000000018 4.5000000000000009 1.5000000000000002 6.5000000000000009 6.5000000000000009 1.5000000000000002 5.5000000000000009 1.0000000180025095e-35 0.36500000953674322 39.57500076293946 1.5000000000000002 27.130000114440922 35.145000457763679 25.050000190734867 1.0000000180025095e-35 5.5000000000000009 4.5000000000000009 1.5000000000000002 10.500000000000002 1.5000000000000002 1.0000000180025095e-35 1.5000000000000002 6.5000000000000009 68.255001068115249 4.5000000000000009 11.500000000000002 46.704999923706062 50.014999389648445 44.364999771118171 64.905002593994155 61.07500076293946 5.5000000000000009 0.99500000476837169 0.9350000023841859 56.975000381469734 28.48499965667725 9.5000000000000018 4.5000000000000009 2.5000000000000004
decision_type=2 2 2 2 2 2 2 2 2 2 2 2 2 2 2 2 2 2 2 2 2 2 2 2 2 2 2 2 2 2 2 2 2 2 2 2 2 2 2
left_child=1 4 -3 7 5 -1 34 -2 13 10 11 -9 -13 -4 21 16 -10 -6 -19 20 -11 29 27 -21 -5 36 -27 28 -23 30 31 -15 33 -20 35 -7 -26 38 -24
right_child=3 2 8 24 17 6 -8 9 15 19 -12 12 -14 14 -16 -17 -18 18 32 23 -22 22 37 -25 25 26 -28 -29 -30 -31 -32 -33 -34 -35 -36 -37 -38 -39 -40
leaf_value=-0.025411931497989395 -0.090663462856930679 -0.052681270107556293 -0.071979633843773733 -0.080818858571080301 -0.060555288141533249 0.12135737515412844 0.026373784266797887 0.77735295010649641 0.648304135048831 0.22028310291469097 0.015622167137665149 0.063950714339380682 0.54947329214641027 -0.11817975784793044 0.00436930638265023 0.14938129369845596 0.11489317446947099 -0.033918548590994017 0.0067186208117687917 0.024079133125712568 -0.12846287796451789 0.29257146544181384 0.021832155015157617 0.29969061237794387 -0.011662947418377362 -0.018479841248528368 0.4538223988327541 0.1895533667612867 0.64299796812236309 -0.091609448622515868 0.43206595823168759 0.083599167091901919 0.10689543042382277 -0.14672541041541232 0.16898845979800592 0.32495968475006526 -0.088997020611007296 0.064713369927037218 0.14885928640068982
leaf_count=987 293 422 143 3501 930 65 512 23 27 20 231 46 35 66 447 281 20 1808 5700 321 157 78 230 27 374 348 38 162 20 94 30 86 148 91 195 240 700 1392 637
internal_value=0 0.434323 1.40876 -1.05213 0.0569063 1.07307 2.61531 0.297568 1.68862 1.01673 2.60664 7.70239 5.47489 1.48723 1.61633 3.76696 8.42641 -0.177196 -0.0530788 0.00221099 -1.78113 1.86085 2.03505 0.909256 -1.36582 -0.765008 0.560325 5.10678 7.28174 0.27104 1.35732 -0.0803073 0.137278 0.0861479 4.75325 5.63138 -1.24134 1.6815 2.30322
internal_count=20925 14811 4135 6114 10676 1999 1012 1153 3713 860 335 104 81 3385 3242 328 47 8677 7747 525 177 2795 2519 348 4961 1460 386 260 98 276 182 152 5939 5791 500 305 1074 2259 867
shrinkage=0.05


Tree=6
num_leaves=40
num_cat=0
split_feature=2 1 2 0 0 0 0 0 7 6 7 7 0 3 0 7 2 1 0 1 0 0 7 7 7 7 7 7 7 7 1 6 6 1 1 1 7 0 6
split_gain=8629.72 4915.93 2571.71 2374.63 2294.31 2292.05 4399.76 4076.8 2078.39 1402.56 1154.31 1138.05 1939.15 1093.88 1074.93 1297.44 1004.92 982.822 832.208 757.873 698.558 2468.88 671.481 705.667 623.379 622.166 572.998 2482.34 552.852 1230.36 548.855 548.28 761.325 536.653 774.314 538.837 733.39 503.273 1160.35
threshold=8.5000000000000018 4.5000000000000009 1.5000000000000002 5.5000000000000009 1.0000000180025095e-35 6.5000000000000009 1.5000000000000002 5.5000000000000009 23.125000000000004 0.36500000953674322 25.050000190734867 44.114999771118171 1.5000000000000002 1.0000000180025095e-35 5.5000000000000009 50.23500061035157 1.5000000000000002 1.0000000180025095e-35 10.500000000000002 5.5000000000000009 1.5000000000000002 6.5000000000000009 50.014999389648445 44.364999771118171 27.554999351501468 67.155002593994155 63.534999847412116 61.07500076293946 46.954999923706062 38.504999160766609 5.5000000000000009 0.99500000476837169 0.9350000023841859 5.5000000000000009 4.5000000000000009 3.5000000000000004 33.135000228881843 10.500000000000002 0.47499999403953558
decision_type=2 2 2 2 2 2 2 2 2 2 2 2 2 2 2 2 2 2 2 2 2 2 2 2 2 2 2 2 2 2 2 2 2 2 2 2 2 2 2
left_child=1 5 -3 4 -2 6 -1 28 -6 10 -4 17 -13 20 15 -11 -7 -10 -18 -5 26 22 23 -22 -19 -14 27 30 29 -8 -12 32 -20 34 35 36 -26 38 -21
right_child=3 2 9 19 8 16 7 -9 11 14 13 12 25 -15 -16 -17 18 24 31 37 21 -23 -24 -25 33 -27 -28 -29 -30 -31 -32 -33 -34 -35 -36 -37 -38 -39 -40
leaf_value=-0.024141339792585967 -0.086130291569355005 -0.050047204053797423 -0.068380653868605215 -0.070437680923708404 0.47776144929230213 -0.057527522484781927 0.2063298045355044 0.025055096159121604 0.37241638951003553 0.12021236473863775 -0.11227076974782078 -0.12419951818643078 0.087160238456421013 0.0041508419635045181 0.14191222971278736 0.64669197082519536 -0.03222262157669159 -0.15731752997352966 0.0063826897717489499 0.0050437000538431 0.27794289332933919 0.079871398237570557 0.180075696837387 0.61084807328879842 -0.13238480356004503 0.38095389689717973 -0.08122059149558053 0.564438930424777 0.17803003859237165 0.45964820039445081 0.079419206723917363 0.10155065968330648 -0.13938914271337646 0.34532116651535039 -0.16474176210661728 0.32975983103116357 0.18140555734435718 -0.04281122036251106 0.36001390768931463
leaf_count=987 293 422 143 4483 32 930 157 512 40 22 66 155 127 447 281 25 1808 21 5700 201 78 2259 162 20 27 21 102 22 274 69 86 148 91 25 24 30 60 549 26
internal_value=0 0.412606 1.33832 -0.999528 0.546096 0.054061 1.01941 2.48454 1.72889 1.60419 1.41287 1.25636 -0.011983 1.53552 3.57862 8.00509 -0.168336 2.94934 -0.0504249 -1.25081 1.76781 1.93329 4.85144 6.91765 1.98698 2.57694 0.257488 1.36067 4.51559 5.67341 -0.076292 0.130414 0.0818405 2.63638 1.87928 2.94064 1.68045 -0.338382 0.914022
internal_count=20925 14811 4135 6114 855 10676 1999 1012 562 3713 3385 530 303 3242 328 47 8677 227 7747 5259 2795 2519 260 98 187 148 276 174 500 226 152 5939 5791 166 141 117 87 776 227
shrinkage=0.05


Tree=7
num_leaves=40
num_cat=0
split_feature=2 1 2 0 0 0 0 0 7 6 7 2 7 0 0 2 2 1 2 7 0 0 0 0 1 7 7 7 7 7 2 7 6 6 7 6 7 2 7
split_gain=7788.32 4436.63 2320.97 2143.1 2070.62 2068.58 3970.78 3679.31 1875.75 1265.81 1041.77 1029.36 1027.09 1750.09 970.128 1248.99 906.94 886.997 816.808 822.356 751.068 691.874 889.09 910.658 683.981 574.451 562.599 510.869 505.145 740.488 531.393 530.997 494.823 687.096 493.523 595.929 492.093 485.923 1023.81
threshold=8.5000000000000018 4.5000000000000009 1.5000000000000002 5.5000000000000009 1.0000000180025095e-35 6.5000000000000009 1.5000000000000002 5.5000000000000009 23.125000000000004 0.36500000953674322 25.050000190734867 4.5000000000000009 44.114999771118171 1.5000000000000002 5.5000000000000009 4.5000000000000009 1.5000000000000002 1.0000000180025095e-35 2.5000000000000004 74.204998016357436 10.500000000000002 10.500000000000002 1.5000000000000002 5.5000000000000009 5.5000000000000009 56.73500061035157 27.554999351501468 40.489999771118171 56.975000381469734 28.48499965667725 1.5000000000000002 70.005001068115249 0.99500000476837169 0.9350000023841859 38.305000305175788 0.99500000476837169 86.36999893188478 2.5000000000000004 43.135000228881843
decision_type=2 2 2 2 2 2 2 2 2 2 2 2 2 2 2 2 2 2 2 2 2 2 2 2 2 2 2 2 2 2 2 2 2 2 2 2 2 2 2
left_child=1 5 -3 4 -2 6 37 28 -6 10 -4 18 17 -14 15 -11 -7 -10 27 -20 -18 22 -13 -24 34 -15 -19 -12 29 -8 -31 -30 33 -22 -5 36 -36 -1 -39
right_child=3 2 9 24 8 16 7 -9 12 14 11 21 13 25 -16 -17 20 26 19 -21 32 -23 23 -25 -26 -27 -28 -29 31 30 -32 -33 -34 -35 35 -37 -38 38 -40
leaf_value=-0.093412538731888858 -0.081823780837726276 -0.047544849328520176 -0.0649616183830308 -0.038999553278852739 0.45387337477877737 -0.0546511454824158 0.1049730315575233 0.023802338676614455 0.35379556730389594 0.60207863030610265 0.081996424119804331 -0.00030367612043052049 -0.11798954784389466 0.014094224349776311 0.13481661891332727 0.08076251357793808 -0.030611489780774687 -0.14945166054226103 0.14361282363713507 -0.17320967231478013 0.0060635559388942887 0.030071864043869148 0.28438256294340702 0.096825724346346634 -0.016073136116118776 0.21199505961051696 0.12522811484803636 -0.065003275660907522 0.10775301327046596 0.090499132658754089 0.32225806234791032 0.30676420899324641 0.096473126858472827 -0.13241968293582182 -0.082575397563845576 0.033088179071973853 0.14468601557115715 0.10575434939890374 -0.034562975350036572
leaf_count=196 293 422 143 1170 32 930 65 512 40 27 194 206 155 67 281 20 1808 21 830 21 5700 1316 74 516 776 81 166 85 152 28 212 43 148 91 3170 119 24 164 627
internal_value=0 0.391976 1.27141 -0.949552 0.518791 0.051358 0.968443 2.36032 1.64244 1.52398 1.34223 1.45874 1.19354 -0.011384 3.39969 7.60484 -0.159919 2.80187 2.22908 2.71589 -0.0479036 1.04658 1.78251 2.407 -1.18827 2.4481 1.88763 0.744231 4.28981 5.0935 5.90439 3.03275 0.123893 0.0777485 -1.33832 -1.53549 -1.61735 -0.458686 -0.109413
internal_count=20925 14811 4135 6114 855 10676 1999 1012 562 3713 3385 3242 530 303 328 47 8677 227 1130 851 7747 2112 796 590 5259 148 187 279 500 305 240 195 5939 5791 4483 3313 3194 987 791
shrinkage=0.05


Tree=8
num_leaves=40
num_cat=0
split_feature=2 1 2 0 0 0 0 0 6 2 0 7 0 7 7 7 3 0 7 2 0 0 0 1 7 0 1 1 2 7 0 0 2 0 7 0 7 7 1
split_gain=7028.96 4004.06 2094.67 1952.3 1866.89 3583.63 3320.58 1307.95 1142.4 1075.54 3474.98 1834.76 1243.96 1168.93 2549.7 940.193 938.338 875.541 1238.23 818.513 687.116 600.802 2149.88 1401.79 2314.2 600.526 779.561 594.696 823.328 2754.71 586.16 568.748 536.864 514.672 512.148 497.065 494.023 2263.5 492.577
threshold=8.5000000000000018 4.5000000000000009 1.5000000000000002 6.5000000000000009 6.5000000000000009 1.5000000000000002 5.5000000000000009 1.0000000180025095e-35 0.36500000953674322 10.500000000000002 1.5000000000000002 44.364999771118171 1.5000000000000002 27.130000114440922 35.145000457763679 25.050000190734867 1.0000000180025095e-35 5.5000000000000009 50.23500061035157 1.5000000000000002 11.500000000000002 1.5000000000000002 5.5000000000000009 5.5000000000000009 47.405000686645515 5.5000000000000009 5.5000000000000009 4.5000000000000009 11.500000000000002 46.704999923706062 10.500000000000002 21.500000000000004 9.5000000000000018 18.500000000000004 53.954999923706062 12.500000000000002 63.534999847412116 61.07500076293946 5.5000000000000009
decision_type=2 2 2 2 2 2 2 2 2 2 2 2 2 2 2 2 2 2 2 2 2 2 2 2 2 2 2 2 2 2 2 2 2 2 2 2 2 2 2
left_child=1 4 -3 7 5 -1 -7 -2 15 12 11 13 -9 -11 -15 -4 21 18 -10 -6 -21 36 23 24 -23 26 -14 35 32 -30 -24 -32 -29 -22 -34 -5 37 38 -17
right_child=3 2 8 27 19 6 -8 9 17 10 -12 -13 25 14 -16 16 -18 -19 -20 20 33 22 30 -25 -26 -27 -28 28 29 -31 31 -33 34 -35 -36 -37 -38 -39 -40
leaf_value=-0.021787559949975038 -0.077732589240773961 -0.045167603297821157 -0.061713538563751669 -0.095455766290755584 -0.051918585657752973 0.20376597824767231 0.022612222530733563 -0.12741749001465538 0.087652248144149791 0.71702631731396149 0.0019620696631344882 -0.082503606379032146 0.16291876607259415 0.049741281569004064 0.59438546718586061 -0.11012225017854663 0.0020264910254835819 0.12807578286984639 0.60197820138931279 -0.025362315690447702 0.020248195578693413 0.88293695017695439 0.11317561858171679 0.045454435211581157 0.25921764204214359 -0.021399918844960383 -0.17189251363277436 -0.0060642864614884485 -0.013424963861618233 0.43492785060876299 0.047836358253314615 0.12983530135154725 -0.045243007887981676 -0.010875076233671396 -0.13249121737331682 -0.056012778794512032 -0.077356029528321005 0.53525091490962295 0.071474284132899232
leaf_count=987 293 422 143 1233 930 500 512 148 22 23 275 24 133 44 42 66 447 281 25 2276 3200 20 782 37 58 151 20 374 348 38 1372 250 419 2271 281 2268 102 22 86
internal_value=0 0.372377 1.20784 -0.902074 0.0487901 0.920021 2.2423 0.270068 1.44778 0.891746 2.06882 6.26531 -0.170745 8.00815 6.31461 1.27512 1.3858 3.2297 7.2246 -0.151923 -0.0455085 1.60095 1.75442 5.97829 8.38291 0.986774 2.38305 -1.17449 -0.63835 0.614268 1.55236 1.2095 -1.08855 0.14658 -1.60534 -1.39808 0.200284 1.22463 -0.147537
internal_count=20925 14811 4135 6114 10676 1999 1012 1153 3713 860 408 133 452 109 86 3385 3242 328 47 8677 7747 2795 2519 115 78 304 153 4961 1460 386 2404 1622 1074 5471 700 3501 276 174 152
shrinkage=0.05


Tree=9
num_leaves=40
num_cat=0
split_feature=2 1 2 2 0 0 0 0 6 7 0 2 0 7 1 0 1 7 7 2 0 7 6 7 1 2 7 3 0 2 7 2 7 7 7 7 2 7 7
split_gain=6343.63 3613.66 1896.48 1901.05 1761.95 1684.87 3234.23 2996.82 1547.24 2029.18 1180.42 970.675 3136.17 1655.88 1153.7 1122.67 1012.27 952.512 891.719 738.708 620.715 604.646 672.591 580.019 536.713 743.053 2486.12 521.88 490.029 489.242 550.617 484.52 481.292 1061.35 469.72 1018.72 464.499 462.213 455.807
threshold=8.5000000000000018 4.5000000000000009 2.5000000000000004 4.5000000000000009 6.5000000000000009 6.5000000000000009 1.5000000000000002 5.5000000000000009 0.86500000953674328 44.635000228881843 1.0000000180025095e-35 10.500000000000002 1.5000000000000002 44.364999771118171 1.5000000000000002 1.5000000000000002 4.5000000000000009 35.145000457763679 67.844997406005874 1.5000000000000002 10.500000000000002 44.875000000000007 0.24499999731779101 68.255001068115249 4.5000000000000009 11.500000000000002 46.704999923706062 1.0000000180025095e-35 20.500000000000004 4.5000000000000009 58.965000152587898 9.5000000000000018 46.954999923706062 38.504999160766609 29.265000343322757 34.065000534057624 4.5000000000000009 53.954999923706062 73.314998626708999
decision_type=2 2 2 2 2 2 2 2 2 2 2 2 2 2 2 2 2 2 2 2 2 2 2 2 2 2 2 2 2 2 2 2 2 2 2 2 2 2 2
left_child=1 5 21 8 10 6 -1 32 17 -10 -2 15 13 14 -13 -12 -16 -4 -19 -7 -21 22 -3 -17 -6 31 28 -5 -27 -22 -31 -26 33 -8 -30 -36 -35 -33 -9
right_child=4 2 3 27 24 19 7 38 9 -11 11 12 -14 -15 16 23 -18 18 -20 20 29 -23 -24 -25 25 26 -28 -29 34 30 -32 37 -34 36 35 -37 -38 -39 -40
leaf_value=-0.020698179725440562 -0.073845961008462482 -0.01051935194078174 0.034194204891064291 0.059915371051409753 -0.066408810576424546 -0.049322658128315405 0.17576003382160407 0.011969914754504353 0.10280557218939067 0.77581496118080051 -0.12104661376341373 0.64435829857985183 0.0018639640482989224 -0.078378422558307653 0.13246183306612866 0.025309382661477753 0.49705426283180715 0.15875863006116231 -0.086859169946267065 -0.027812801400174808 0.023859476060821463 -0.11366213512075835 0.14101314340011184 0.26808558305104574 -0.0057610752857862949 -0.043852290502133622 0.41318145333544209 -0.0021288037479641926 -0.08196062218921725 -0.053267742372377136 0.0022308043764582342 -0.042980855763812054 0.14902557050469364 0.50276876788424418 0.4644967246055603 0.0067903806969913981 0.2275715246796608 -0.12586665853486792 0.25546934589743614
leaf_count=987 293 622 257 1849 3501 930 157 492 24 21 148 30 275 24 47 277 32 704 39 1808 2275 121 83 27 374 273 38 415 24 521 3143 419 274 46 20 31 23 281 20
internal_value=0 0.353759 1.14744 1.4858 -0.85697 0.0463506 0.87402 2.13019 2.60145 8.33753 0.256565 0.847158 1.96538 5.95205 7.60774 -0.162207 5.6029 2.34333 2.91732 -0.144327 -0.043233 -0.20804 0.146413 0.937435 -1.11577 -0.606432 0.583554 0.970849 -0.255074 0.112946 -0.113215 -1.03412 3.87155 4.95184 2.0089 3.72566 8.22073 -1.52507 0.429632
internal_count=20925 14811 4135 3309 6114 10676 1999 1012 1045 45 1153 860 408 133 109 452 79 1000 743 8677 7747 826 705 304 4961 1460 386 2264 348 5939 3664 1074 500 226 75 51 69 700 512
shrinkage=0.05


Tree=10
num_leaves=40
num_cat=0
split_feature=2 1 2 0 0 7 0 0 0 0 0 6 0 1 7 7 1 0 6 7 0 1 1 7 2 2 1 0 1 7 7 0 7 0 6 7 6 7 2
split_gain=5725.13 3261.33 1764.16 1618.97 1550.73 1568.92 1520.59 2918.89 2704.63 1023.56 2175.85 3364.28 1096.29 1584.32 1674.74 891.21 824.417 1934.41 867.432 1669.15 1231.36 1120.01 1010.24 870.585 801.852 666.684 634.126 568.273 554.254 514.775 510.943 460.72 446.345 445.814 1018.07 440.902 537.31 446.53 438.545
threshold=8.5000000000000018 4.5000000000000009 1.5000000000000002 5.5000000000000009 1.0000000180025095e-35 23.125000000000004 6.5000000000000009 1.5000000000000002 5.5000000000000009 10.500000000000002 1.5000000000000002 0.86500000953674328 5.5000000000000009 5.5000000000000009 47.405000686645515 27.554999351501468 1.0000000180025095e-35 1.5000000000000002 0.14500000327825549 56.295000076293952 1.5000000000000002 5.5000000000000009 5.5000000000000009 58.424999237060554 4.5000000000000009 1.5000000000000002 5.5000000000000009 11.500000000000002 5.5000000000000009 72.454998016357436 42.655000686645515 18.500000000000004 65.83499908447267 10.500000000000002 0.47499999403953558 38.305000305175788 0.99500000476837169 86.36999893188478 2.5000000000000004
decision_type=2 2 2 2 2 2 2 2 2 2 2 2 2 2 2 2 2 2 2 2 2 2 2 2 2 2 2 2 2 2 2 2 2 2 2 2 2 2 2
left_child=1 6 -3 4 -2 -6 7 38 -9 10 26 12 13 14 -12 -11 17 -7 20 -20 22 23 -18 -22 29 -8 -4 -27 35 -17 -15 -29 -26 34 -30 -5 37 -37 -1
right_child=3 2 9 28 5 16 25 8 -10 15 11 -13 -14 30 -16 24 18 -19 19 -21 21 -23 -24 -25 32 27 -28 31 33 -31 -32 -33 -34 -35 -36 36 -38 -39 -40
leaf_value=-0.086617629108380306 -0.070153666600432416 -0.042370438512185173 -0.071501133150487978 -0.03144769728884228 0.41171419415622951 0.4839765944901635 -0.046856526878251828 0.18389879480060189 0.020407530507100091 -0.12440809659163157 0.70577345115167134 0.66769382707003899 0.10125653795100603 -0.17050673280443465 0.23158999508867661 0.096540372936349164 -0.1353280407730599 -0.023349031309286755 0.49403392694614551 -0.039775514334905893 0.073301296809315686 -0.21480567638690654 0.16683635187871529 0.34129986541345714 -0.017841216816337078 -0.023049201279705122 0.059443744039409378 0.018904166542226451 0.008788035226874609 -0.16028557330369952 0.18261421881616116 -0.010542644842583991 0.04518516590609014 -0.036435165543886129 0.34128445891233594 -0.072665436763378097 0.037167499239454747 0.14381931399305661 -0.0030728104299431202
leaf_count=196 293 422 181 1170 32 34 930 500 512 75 27 29 869 21 60 798 171 42 27 32 125 26 33 40 385 2276 189 3200 201 20 20 2271 1039 549 26 3170 119 24 791
internal_value=0 0.336071 1.09007 -0.814122 0.462098 1.43451 0.044033 0.830319 2.02368 1.31028 1.98669 2.73641 2.42758 5.15983 7.57501 0.902731 1.02396 4.07225 0.51367 4.0902 -0.0205461 1.80416 -1.72897 2.76541 1.01616 -0.137111 -0.0922615 -0.0410714 -1.02161 1.80522 0.0349478 0.133617 0.562901 -0.241317 0.937427 -1.15667 -1.34304 -1.42078 -0.393265
internal_count=20925 14811 4135 6114 855 562 10676 1999 1012 3713 1396 1026 997 128 87 2317 530 76 454 59 395 191 204 165 2242 8677 370 7747 5259 818 41 5471 1424 776 227 4483 3313 3194 987
shrinkage=0.05


Tree=11
num_leaves=40
num_cat=0
split_feature=2 1 2 2 0 0 7 0 0 0 6 7 7 7 1 0 6 7 0 1 1 7 6 6 2 7 6 1 2 7 0 7 3 7 7 2 7 0 6
split_gain=5166.93 2943.35 1625.39 1642.98 1461.12 1399.53 1415.95 1372.34 2634.3 2440.93 1325.04 1830.65 831.32 760.698 744.036 1745.8 782.857 1506.4 1111.3 1010.81 911.746 785.703 611.614 692.859 579.189 551.663 574.828 500.214 475.624 748.572 459.905 439.642 439.474 434.366 957.864 419.21 411.366 402.348 918.808
threshold=8.5000000000000018 4.5000000000000009 2.5000000000000004 4.5000000000000009 5.5000000000000009 1.0000000180025095e-35 23.125000000000004 6.5000000000000009 1.5000000000000002 5.5000000000000009 0.86500000953674328 44.635000228881843 35.145000457763679 67.844997406005874 1.0000000180025095e-35 1.5000000000000002 0.14500000327825549 56.295000076293952 1.5000000000000002 5.5000000000000009 5.5000000000000009 58.424999237060554 0.99500000476837169 0.78499999642372142 1.5000000000000002 44.875000000000007 0.24499999731779101 5.5000000000000009 5.5000000000000009 53.424999237060554 11.500000000000002 49.245000839233406 1.5000000000000002 46.954999923706062 38.504999160766609 4.5000000000000009 73.314998626708999 10.500000000000002 0.47499999403953558
decision_type=2 2 2 2 2 2 2 2 2 2 2 2 2 2 2 2 2 2 2 2 2 2 2 2 2 2 2 2 2 2 2 2 2 2 2 2 2 2 2
left_child=1 7 25 10 5 -2 -7 8 -1 33 12 -12 -4 -14 15 -8 18 -18 20 21 -16 -20 23 24 -9 26 -3 -6 29 31 -26 -5 -30 34 -10 -36 -11 38 -29
right_child=4 2 3 28 27 6 14 22 9 36 11 -13 13 -15 16 -17 17 -19 19 -21 -22 -23 -24 -25 30 -27 -28 37 32 -31 -32 -33 -34 -35 35 -37 -38 -39 -40
leaf_value=-0.018680110952525333 -0.066645981996946366 -0.010529487036240445 0.029840971361338398 0.0039627571874543237 -0.054942048161793128 0.39112847261130812 0.45977777032291195 -0.044315797100748337 0.1577770940081519 0.010351043050290972 0.086399025935679677 0.72563825462545672 0.14607478987163633 -0.080782135518697604 -0.12856163863550152 -0.022181581670329686 0.46933223053261086 -0.037786734034307302 0.069636229801177979 -0.204065389587329 0.15849453499822908 0.3242348648421467 0.077777838392981469 -0.0836204927182609 -0.020641639672155421 -0.1095975333624635 0.12955794389168901 0.0083486328133154861 0.060997748416044842 -0.040807106571956575 0.006868624708565578 0.15380183822742785 -0.083939130107561752 0.13237935188804231 0.46843540749472123 0.20699802287246871 0.24167550459504128 -0.034613408820189616 0.32422022647582571
leaf_count=987 293 622 257 95 4483 32 34 875 157 492 24 21 704 39 171 42 27 32 125 26 33 40 210 297 2157 121 83 201 1663 351 5138 101 54 274 46 23 20 549 26
internal_value=0 0.319267 1.03557 1.34881 -0.773416 0.438993 1.36278 0.0418314 0.788803 1.92249 2.38598 7.69421 2.14711 2.68334 0.972759 3.86864 0.487987 3.88569 -0.0195189 1.71395 -1.64252 2.62714 -0.130255 -0.172067 -0.117526 -0.219306 0.119262 -0.970527 0.870086 0.0580312 -0.0253133 1.62352 1.12879 3.49408 4.52035 7.62579 0.387743 -0.229252 0.890555
internal_count=20925 14811 4135 3309 6114 855 562 10676 1999 1012 1045 45 1000 743 530 76 454 59 395 191 204 165 8677 8467 8170 826 705 5259 2264 547 7295 196 1717 500 226 69 512 776 227
shrinkage=0.05


Tree=12
num_leaves=40
num_cat=0
split_feature=2 1 2 0 0 0 0 0 0 0 1 2 0 7 0 7 7 7 2 1 6 6 2 0 7 1 2 7 2 7 7 1 2 7 0 2 0 0 7
split_gain=4663.15 2656.37 1485.04 1319.73 1238.53 2377.45 2202.94 915.122 1962.53 3037.58 2895.12 3950.52 878.262 823.842 2641.08 1314.54 1472.79 782.245 663.269 582.437 551.982 634.407 574.083 493.478 552.704 527.494 478.05 590.378 493.692 456.965 431.739 430.13 662.282 2245.86 1553.94 449.82 447.872 447.66 420.99
threshold=8.5000000000000018 4.5000000000000009 1.5000000000000002 6.5000000000000009 6.5000000000000009 1.5000000000000002 5.5000000000000009 10.500000000000002 1.5000000000000002 5.5000000000000009 5.5000000000000009 4.5000000000000009 1.0000000180025095e-35 39.57500076293946 1.5000000000000002 27.130000114440922 35.145000457763679 27.554999351501468 4.5000000000000009 5.5000000000000009 0.99500000476837169 0.92500001192092907 1.5000000000000002 1.5000000000000002 68.634998321533217 1.0000000180025095e-35 4.5000000000000009 65.145000457763686 6.5000000000000009 42.655000686645515 72.454998016357436 4.5000000000000009 11.500000000000002 44.635000228881843 12.500000000000002 9.5000000000000018 12.500000000000002 20.500000000000004 64.905002593994155
decision_type=2 2 2 2 2 2 2 2 2 2 2 2 2 2 2 2 2 2 2 2 2 2 2 2 2 2 2 2 2 2 2 2 2 2 2 2 2 2 2
left_child=1 4 -3 12 5 -1 -7 8 19 10 11 -10 -2 14 15 -14 -17 -9 30 -4 21 22 -6 25 -25 -15 -24 28 -28 -12 -19 36 35 37 -35 -33 -5 -34 -21
right_child=3 2 7 31 20 6 -8 17 9 -11 29 -13 13 23 -16 16 -18 18 -20 38 -22 -23 26 24 -26 -27 27 -29 -30 -31 -32 32 33 34 -36 -37 -38 -39 -40
leaf_value=-0.017746107144943669 -0.063313680398993127 -0.039691143963150509 -0.071554268102125576 -0.081698180600964537 -0.044119780297554256 0.16596866285055878 0.018417796892390471 -0.11881850830713908 0.95308250114321713 0.093526397359394581 -0.16408822877066476 0.26712221149049825 0.64100984023964935 0.1716958922147751 0.0039835665971685802 0.026716287077768991 0.45711429357528693 0.086969810198492981 0.024725300782318282 0.10608012649985983 0.0738889471725339 -0.11692966382498995 0.014407831707208977 0.015637034929572392 0.26926691020312521 -0.10095093171497821 -0.02856775891686299 -0.0010487360785253381 -0.11928951760168588 0.16985984791070224 -0.14823219016194344 -0.0010573848466921777 -0.043587707740051634 0.64953277062462733 0.068316341353499371 -0.06897878196729082 -0.044257813053143191 0.095448263593622157 -0.052862010968308296
leaf_count=987 293 422 181 1233 902 500 512 75 32 892 21 61 23 20 231 46 35 798 1424 127 210 132 2805 325 23 157 1048 3405 175 20 20 374 266 23 23 700 2268 74 62
internal_value=0 0.303304 0.983789 -0.734745 0.0397398 0.749363 1.82637 1.18582 1.82541 2.53743 6.97678 10.063 0.228973 0.738399 1.96366 6.1483 4.25381 0.800472 0.906745 -0.149005 -0.123743 -0.163464 -0.129017 -0.0434363 0.647999 -1.40287 -0.0375936 -0.235029 -0.830984 -0.0237346 1.62438 -0.958725 -0.502757 0.620693 7.17849 -0.906529 -1.14888 -0.266539 1.07881
internal_count=20925 14811 4135 6114 10676 1999 1012 3713 1396 1026 134 93 1153 860 335 104 81 2317 2242 370 8677 8467 8335 525 348 177 7433 4628 1223 41 818 4961 1460 386 46 1074 3501 340 189
shrinkage=0.05


Tree=13
num_leaves=40
num_cat=0
split_feature=2 1 2 2 0 6 7 0 7 0 0 0 7 2 6 0 1 7 1 7 6 6 2 2 7 1 2 7 0 6 7 7 7 2 2 7 7 6 7
split_gain=4208.5 2397.38 1395.6 1401.37 1218.01 1158.61 1642.81 1158.19 1196.94 1117.78 2145.65 1988.15 727.091 675.249 1395.11 1361.42 900.417 653.63 592.29 507.054 498.164 581.762 470.034 432.749 666.383 430.398 421.869 596.636 412.406 410.912 400.914 602.446 565.824 447.269 400.572 874.299 399.696 486.573 403.498
threshold=8.5000000000000018 4.5000000000000009 2.5000000000000004 4.5000000000000009 5.5000000000000009 0.86500000953674328 44.635000228881843 1.0000000180025095e-35 23.125000000000004 6.5000000000000009 1.5000000000000002 5.5000000000000009 35.145000457763679 10.500000000000002 0.14500000327825549 1.5000000000000002 1.0000000180025095e-35 66.255001068115249 5.5000000000000009 54.465000152587898 0.99500000476837169 0.78499999642372142 1.5000000000000002 5.5000000000000009 53.424999237060554 5.5000000000000009 9.5000000000000018 57.954999923706062 10.500000000000002 0.42499999701976782 58.424999237060554 28.48499965667725 60.335000991821296 1.5000000000000002 3.5000000000000004 38.504999160766609 38.305000305175788 0.99500000476837169 86.36999893188478
decision_type=2 2 2 2 2 2 2 2 2 2 2 2 2 2 2 2 2 2 2 2 2 2 2 2 2 2 2 2 2 2 2 2 2 2 2 2 2 2 2
left_child=1 9 19 5 7 12 -7 -2 -9 10 -1 30 -4 15 16 -10 -15 -14 26 29 21 22 -11 24 -5 36 27 -17 -24 -3 31 -12 -32 -33 35 -35 -6 38 -38
right_child=4 2 3 23 25 6 -8 8 13 20 11 -13 17 14 -16 18 -18 -19 -20 -21 -22 -23 28 -25 -26 -27 -28 -29 -30 -31 32 33 -34 34 -36 -37 37 -39 -40
leaf_value=-0.016858794833811825 -0.060148001286763786 -0.016377926980215712 0.025475961127923621 0.074259365780507111 -0.024727102090150884 0.074727663192121929 0.68028423729397014 0.35942863412201409 -0.11280771310667735 -0.039894018580232352 0.055365850810821238 0.017496908030079795 0.13563982928749632 0.29984622694113677 0.45408054131727954 0.0062920013070106506 0.017841087731383962 -0.051548455387353899 -0.15379486843943596 -0.22054593414068224 0.070194499865174301 -0.076504733330673647 -0.02252346335583431 0.051474904172593296 -0.040832351200664661 -0.0095186884438177369 0.053563200972442118 0.33684860331894356 0.005488651969275846 0.10053360854231178 -0.15276395007967949 0.037340168654918675 0.12931585656479003 0.2319277198985219 0.20525059641539298 0.61873460812937653 -0.063967071840986142 0.04054997792514433 0.14182234009106953
leaf_count=987 293 714 257 196 1170 24 21 32 148 875 65 512 693 34 26 20 169 50 20 28 210 297 1719 1717 351 776 70 43 5576 84 20 28 160 48 158 21 3170 119 24
internal_value=0 0.288139 0.9346 1.22486 -0.698008 2.18273 7.14641 0.408952 1.24933 0.0377528 0.711895 1.73505 1.95937 0.890729 2.1848 -0.0937997 1.30147 2.46086 1.99789 -0.228191 -0.117555 -0.155291 -0.105313 0.78273 0.00814188 -0.877975 2.76087 4.6382 -0.0222429 -0.081429 3.1534 3.82499 1.95947 4.51773 4.98287 6.99303 -0.996998 -1.17444 -1.24842
internal_count=20925 14811 4135 3309 6114 1045 45 855 562 10676 1999 1012 1000 530 229 301 203 743 153 826 8677 8467 8170 2264 547 5259 133 63 7295 798 500 320 180 255 227 69 4483 3313 3194
shrinkage=0.05


Tree=14
num_leaves=40
num_cat=0
split_feature=2 1 2 2 0 6 7 0 7 1 1 0 0 0 7 7 7 7 0 1 7 7 6 0 0 7 7 0 3 2 7 7 7 7 1 7 7 7 7
split_gain=3798.17 2163.63 1259.53 1264.74 1099.26 1045.64 1482.64 1045.27 1097.03 2164.05 1113.81 1008.79 1936.45 1794.31 656.199 590.658 558.213 732.761 553.104 688.383 571.878 483.848 470.353 455.939 436.368 427.209 541.939 425.416 408.097 395.787 923.985 579.038 419.643 1343.86 388.434 388.376 375.438 799.579 371.258
threshold=8.5000000000000018 4.5000000000000009 2.5000000000000004 4.5000000000000009 5.5000000000000009 0.86500000953674328 44.635000228881843 1.0000000180025095e-35 39.125000000000007 5.5000000000000009 4.5000000000000009 6.5000000000000009 1.5000000000000002 5.5000000000000009 35.145000457763679 67.844997406005874 34.664999008178718 26.639999389648441 1.5000000000000002 1.0000000180025095e-35 56.73500061035157 44.875000000000007 0.24499999731779101 12.500000000000002 1.5000000000000002 60.085000991821296 67.155002593994155 18.500000000000004 1.0000000180025095e-35 2.5000000000000004 43.135000228881843 40.274999618530281 72.674999237060561 74.884998321533217 5.5000000000000009 73.774997711181655 46.954999923706062 38.504999160766609 73.314998626708999
decision_type=2 2 2 2 2 2 2 2 2 2 2 2 2 2 2 2 2 2 2 2 2 2 2 2 2 2 2 2 2 2 2 2 2 2 2 2 2 2 2
left_child=1 11 21 5 7 14 -7 -2 9 10 16 12 29 36 -4 -16 17 -9 19 -10 -20 22 -3 -13 -18 -22 -27 -25 -5 -1 31 -31 -32 35 -6 -34 37 -14 -15
right_child=4 2 3 28 34 6 -8 8 18 -11 -12 23 13 38 15 -17 24 -19 20 -21 25 -23 -24 27 -26 26 -28 -29 -30 30 32 -33 33 -35 -36 -37 -38 -39 -40
leaf_value=-0.079622497090271541 -0.057140595361641247 -0.0099040382769306195 0.024202162059248654 0.047236712045338976 -0.047357413392184092 0.070991279464215046 0.64627003627164026 0.29202348411083223 0.20593575130809438 0.59703287631273272 -0.17588022919371726 -0.021073278981694765 0.13514515554449361 0.0080377547262280007 0.12738365072132596 -0.07251689527661373 0.44047208204865457 -0.00092503488743426023 -0.014899461637152004 -0.092705887451673019 0.34333586101420227 -0.1032102119947268 0.11681516531024533 0.015453073103285007 0.13895933056871099 -0.02588761773788267 0.29372338971921375 -0.012209709340840036 -0.0076285426228879447 0.059150499286073632 -0.044638612303098929 0.29622436817735437 0.43230272740125653 -0.11693640135876511 -0.0090427547210564039 0.13396939556114376 0.11043776968752382 0.33935684993647147 0.22779600113630294
leaf_count=196 293 622 257 1849 4483 24 21 30 22 24 32 3070 157 492 704 39 24 74 94 157 24 121 83 3062 24 36 21 2545 415 132 537 32 20 46 776 24 274 69 20
internal_value=0 0.273732 0.88787 1.16362 -0.663107 2.0736 6.78909 0.388504 1.18686 3.00954 1.84461 0.0358652 0.6763 1.6483 1.8614 2.33782 2.9735 1.67159 0.115905 -1.12003 1.38009 -0.216782 0.100294 -0.111678 5.79431 3.32748 1.83728 0.0579404 0.743594 -0.320317 -0.00509845 2.10818 -0.557853 1.4405 -0.834077 5.39151 2.99573 3.94986 0.332441
internal_count=20925 14811 4135 3309 6114 1045 45 855 562 208 184 10676 1999 1012 1000 743 152 104 354 179 175 826 705 8677 48 81 57 5607 2264 987 791 164 627 90 5259 44 500 226 512
shrinkage=0.05


Tree=15
num_leaves=40
num_cat=0
split_feature=2 1 2 0 0 0 0 0 0 0 1 2 7 6 0 1 0 7 1 1 2 6 6 2 7 2 7 7 7 4 2 2 6 1 0 6 7 6 3
split_gain=3427.85 1952.68 1168.02 999.434 910.435 1747.65 1619.36 809.925 1767.53 2720.79 2589.07 3496.76 678.855 1557.81 866.51 779.56 2272.74 667.655 606.838 539.36 501.959 449.298 535.981 469.021 435.448 433.437 537.263 405.905 395.603 389.022 382.35 1111.96 491.877 858.739 1165.93 682.662 381.982 429.31 420.958
threshold=8.5000000000000018 4.5000000000000009 1.5000000000000002 6.5000000000000009 6.5000000000000009 1.5000000000000002 5.5000000000000009 10.500000000000002 1.5000000000000002 5.5000000000000009 5.5000000000000009 4.5000000000000009 44.114999771118171 0.13499999791383746 1.5000000000000002 5.5000000000000009 1.5000000000000002 27.554999351501468 4.5000000000000009 5.5000000000000009 4.5000000000000009 0.99500000476837169 0.92500001192092907 1.5000000000000002 68.634998321533217 4.5000000000000009 84.715000152587905 42.655000686645515 57.954999923706062 1.0000000180025095e-35 10.500000000000002 9.5000000000000018 0.11499999836087228 4.5000000000000009 10.500000000000002 0.35500000417232519 65.83499908447267 0.45499999821186071 1.5000000000000002
decision_type=2 2 2 2 2 2 2 2 2 2 2 2 2 2 2 2 2 2 2 2 2 2 2 2 2 2 2 2 2 2 2 2 2 2 2 2 2 2 2
left_child=1 4 -3 12 5 -1 -7 8 19 10 11 -10 13 15 -14 18 -17 -9 -2 29 -19 22 23 -6 -16 -25 28 -12 -27 -4 31 -5 -32 -34 -35 -36 -22 38 -38
right_child=3 2 7 30 21 6 -8 17 9 -11 27 -13 14 -15 24 16 -18 20 -20 -21 36 -23 -24 25 -26 26 -28 -29 -30 -31 32 -33 33 34 35 -37 37 -39 -40
leaf_value=-0.015215062136028676 0.034181319581214238 -0.036651125655899057 -0.038904842563911163 -0.021086768219887128 -0.039561445223056033 0.14229738354235888 0.015790958781963127 -0.11374100669225058 0.89431044673547155 0.0834453546423298 -0.15946069444928851 0.24894641066183812 -0.082185501394056462 0.3900401266757399 0.018690426247126923 0.50703078241397936 -0.1084282151858012 0.069130450401974339 -0.12031911088806856 0.046606684740258281 -0.022557374892133445 0.066940310295848612 -0.10706098553103705 0.014127250495707075 0.24513149222602015 -0.053728347027893454 0.038952526197205357 0.15527735322713854 -0.010182976016481923 -0.22657629755489969 -0.036419707608918821 -0.087949062935794478 -0.020336469126944992 0.44083665076356671 0.29561337739229204 -0.050024962723255163 0.036158312048365726 0.18680281067887944 -0.11714758907860899
leaf_count=987 364 422 147 1223 902 500 512 75 32 892 21 61 321 32 276 30 30 818 77 189 385 210 132 2805 23 612 486 20 3530 34 2120 1265 257 26 20 50 947 45 47
internal_value=0 0.260045 0.843476 -0.629952 0.0340719 0.642485 1.56588 1.02265 1.62435 2.30007 6.50157 9.42014 0.208705 1.03628 -0.502741 0.604212 3.98603 0.660126 0.144101 -0.249402 0.758307 -0.106094 -0.14193 -0.110268 0.722179 -0.027633 -0.21563 -0.118599 -0.33234 -1.48316 -0.824867 -1.10165 -0.546409 0.546533 3.09849 0.974577 0.399684 0.714959 0.578189
internal_count=20925 14811 4135 6114 10676 1999 1012 3713 1396 1026 134 93 1153 533 620 501 60 2317 441 370 2242 8677 8467 8335 299 7433 4628 41 4142 181 4961 2488 2473 353 96 70 1424 1039 994
shrinkage=0.05


Tree=16
num_leaves=40
num_cat=0
split_feature=2 1 2 2 6 7 0 0 7 0 0 0 7 1 0 6 7 0 1 1 7 7 7 6 6 2 2 7 7 1 2 7 7 2 7 7 7 7 1
split_gain=3093.63 1762.29 1077.27 1085.66 921.447 1333.9 921.041 921.318 996.08 821.668 1577.25 1461.48 570.645 553.5 1524.96 627.587 1208.58 870.561 902.538 743.018 572.79 537.234 449.255 405.492 487.166 386.667 596.355 460.08 377.683 378.084 372.688 597.583 400.209 357.198 833.896 522.582 378.728 1212.83 354.793
threshold=8.5000000000000018 4.5000000000000009 2.5000000000000004 4.5000000000000009 0.86500000953674328 44.635000228881843 5.5000000000000009 1.0000000180025095e-35 23.125000000000004 6.5000000000000009 1.5000000000000002 5.5000000000000009 35.145000457763679 1.0000000180025095e-35 1.5000000000000002 0.14500000327825549 56.295000076293952 1.5000000000000002 5.5000000000000009 5.5000000000000009 58.424999237060554 74.204998016357436 54.465000152587898 0.99500000476837169 0.78499999642372142 2.5000000000000004 4.5000000000000009 85.225002288818374 38.895000457763679 2.5000000000000004 5.5000000000000009 53.424999237060554 49.245000839233406 2.5000000000000004 43.135000228881843 40.274999618530281 72.674999237060561 74.884998321533217 4.5000000000000009
decision_type=2 2 2 2 2 2 2 2 2 2 2 2 2 2 2 2 2 2 2 2 2 2 2 2 2 2 2 2 2 2 2 2 2 2 2 2 2 2 2
left_child=1 9 22 4 12 -6 7 -2 -9 10 33 -12 -4 14 -10 17 -17 19 20 -15 -19 -14 -3 24 25 -11 -27 -28 29 -26 31 32 -5 -1 35 -35 -36 -38 -8
right_child=6 2 3 30 5 -7 38 8 13 23 11 -13 21 15 -16 16 -18 18 -20 -21 -22 -23 -24 -25 28 26 27 -29 -30 -31 -32 -33 -34 34 36 -37 37 -39 -40
leaf_value=-0.074880615941115794 -0.053675770381729375 -0.004107808241912282 0.020789497915792626 -0.0063161223813107143 0.061659766454249622 0.60731985725107651 -0.046139209156873515 0.32658541174605493 0.41314312322065239 -0.026036684914658076 0.13518251493535935 0.015001411645425834 0.11447597812084671 -0.11804237937369542 -0.037302337116783574 0.41689215721907441 -0.037339630629867317 0.062860697245597841 -0.2013905841570634 0.14109480092019747 0.28024331945925951 -0.14207157105917023 -0.2078712229217802 0.063593294775956086 -0.055374852288514381 0.024147599312170188 -0.013972936021223712 0.040541646627827055 -0.10066335524326159 0.1881215901374817 0.044808474010134297 -0.041635824313010501 0.13664532646094218 0.056953726821776601 -0.041645931032116855 0.28217390365898609 0.25685744410888717 -0.11032882290689841 -0.017648941386801301
leaf_count=196 293 798 257 95 24 21 3710 32 34 1655 500 512 722 171 42 27 32 125 26 33 40 21 28 210 44 1953 4135 427 228 25 1717 351 101 132 537 32 44 46 1549
internal_value=0 0.247043 0.801303 1.05632 1.89942 6.32602 -0.598454 0.364144 1.11367 0.0323683 0.610361 1.48759 1.70022 0.786545 3.28425 0.368426 3.41058 -0.0859723 1.44829 -1.52246 2.31119 2.1445 -0.220301 -0.100789 -0.134834 -0.0890998 0.0205478 -0.177408 -1.39291 0.65697 0.667165 -0.0516646 1.34706 -0.289086 0.0103715 2.01798 -0.514745 1.38369 -0.754952
internal_count=20925 14811 4135 3309 1045 45 6114 855 562 10676 1999 1012 1000 530 76 454 59 395 191 204 165 743 826 8677 8467 8170 6515 4562 297 69 2264 547 196 987 791 164 627 90 5259
shrinkage=0.05


Tree=17
num_leaves=40
num_cat=0
split_feature=2 1 0 0 1 2 2 0 0 7 1 1 2 2 7 7 7 7 2 6 7 1 0 2 7 7 7 7 2 0 7 7 7 7 3 7 0 7 7
split_gain=2792 1644.42 1140.29 6307.07 2373.84 1447.21 3248.34 831.239 831.49 930.301 1837.68 942.04 664.427 595.761 748.675 501.621 618.747 501.226 499.915 479.836 421.136 668.423 403.658 402.842 656.411 547.931 1151.76 562.297 467.408 1003.9 859.812 1071.89 854.669 1654.88 399.987 387.82 367.342 682.961 364.837
threshold=8.5000000000000018 5.5000000000000009 5.5000000000000009 1.5000000000000002 4.5000000000000009 4.5000000000000009 2.5000000000000004 5.5000000000000009 1.0000000180025095e-35 39.125000000000007 5.5000000000000009 4.5000000000000009 1.5000000000000002 4.5000000000000009 68.465000152587905 34.664999008178718 26.639999389648441 70.18500137329103 6.5000000000000009 0.095000002533197417 34.364999771118171 3.5000000000000004 1.5000000000000002 2.5000000000000004 43.135000228881843 28.035000801086429 31.755000114440922 42.155000686645515 5.5000000000000009 1.0000000180025095e-35 63.534999847412116 57.215000152587898 72.674999237060561 74.884998321533217 1.5000000000000002 6.9299998283386239 1.5000000000000002 44.364999771118171 50.23500061035157
decision_type=2 2 2 2 2 2 2 2 2 2 2 2 2 2 2 2 2 2 2 2 2 2 2 2 2 2 2 2 2 2 2 2 2 2 2 2 2 2 2
left_child=1 2 3 23 -5 6 -6 8 -2 10 11 15 35 20 18 16 -10 36 38 34 -14 -22 -17 -1 25 -25 -27 -28 -26 -30 31 -31 -32 -34 -3 -4 37 -11 -15
right_child=7 19 12 4 5 -7 -8 -9 9 17 -12 -13 13 14 -16 22 -18 -19 -20 -21 21 -23 -24 24 28 26 27 -29 29 30 32 -33 33 -35 -36 -37 -38 -39 -40
leaf_value=-0.084181305376643492 -0.050991979402207066 0.046377994882027929 0.10728561838467916 0.12842338812947274 0.16832211642038256 0.23437524171637711 1.0377102200619199 -0.035860229366812955 0.26489272400736813 0.18296886136134466 0.54832907964785893 -0.16342318654060364 -0.0091225451299725407 -0.067010544939285585 0.0075346540998829804 0.41375417287151023 -0.0043022233489397417 0.24672106191515925 -0.070666933464010095 0.11358868929619158 0.011575562351424087 0.063459147078228723 0.12376201525330544 -0.099503885327201141 -0.085231642219114986 0.43902041089275612 0.013686019815504553 0.30093318179249762 -0.070776523587604376 -0.050884948194026947 -0.067006789939065947 0.35286796453098457 0.50297899598425089 -0.09161601424217225 -0.17853063590824605 -0.04242340160953631 0.041152847119207893 -0.10541587690232507 -0.0059298261762602868
leaf_count=231 293 1708 45 500 21 61 22 5259 30 24 24 32 992 292 3718 24 74 20 542 287 1871 929 24 38 265 23 115 20 258 25 113 48 22 25 20 1118 168 142 1502
internal_value=0 0.234691 0.102465 0.843404 3.47262 7.81948 12.2625 -0.568532 0.345937 1.05799 2.73646 1.66296 -0.0178054 0.0666272 -0.128052 2.70116 1.467 0.0717682 -0.571705 1.07437 0.377436 0.575796 5.37516 -0.498983 -0.211532 1.41927 2.23924 1.12482 -0.634334 -0.0566776 1.44798 4.29193 0.150421 3.7341 0.875498 -0.732614 -0.219409 -1.27443 -0.317432
internal_count=20925 14811 12796 1787 604 104 43 6114 855 562 208 184 11009 9846 6054 152 104 354 2336 2015 3792 2800 48 1183 952 196 158 135 756 491 233 73 160 47 1728 1163 334 166 1794
shrinkage=0.05


Tree=18
num_leaves=40
num_cat=0
split_feature=2 1 0 0 0 1 2 2 0 2 7 7 2 7 7 1 2 7 6 0 6 7 2 7 7 7 7 2 0 7 7 7 7 3 2 0 7 0 7
split_gain=2519.78 1484.09 1057.05 3206.18 2563.2 2142.39 1306.1 2931.62 759.397 648.364 564.556 2483.24 476.709 622.346 506.742 632.631 501.05 444.503 1384.23 702.775 433.052 380.201 363.565 592.411 494.508 1039.46 507.473 421.836 906.019 775.981 967.38 771.338 1493.53 360.989 353.319 887.169 496.156 528.41 656.299
threshold=8.5000000000000018 5.5000000000000009 6.5000000000000009 1.5000000000000002 5.5000000000000009 4.5000000000000009 4.5000000000000009 2.5000000000000004 6.5000000000000009 1.5000000000000002 18.715000152587894 21.494999885559086 4.5000000000000009 66.454998016357436 35.145000457763679 3.5000000000000004 6.5000000000000009 44.114999771118171 0.13499999791383746 1.5000000000000002 0.095000002533197417 68.634998321533217 2.5000000000000004 43.135000228881843 28.035000801086429 31.755000114440922 42.155000686645515 5.5000000000000009 1.0000000180025095e-35 63.534999847412116 57.215000152587898 72.674999237060561 74.884998321533217 1.5000000000000002 2.5000000000000004 1.5000000000000002 49.745000839233406 7.5000000000000009 35.635000228881843
decision_type=2 2 2 2 2 2 2 2 2 2 2 2 2 2 2 2 2 2 2 2 2 2 2 2 2 2 2 2 2 2 2 2 2 2 2 2 2 2 2
left_child=1 2 3 22 5 -5 7 -7 10 -4 -2 -12 14 16 -11 -16 -14 18 -13 -19 33 -21 -1 24 -24 -26 -27 -25 -29 30 -30 -31 -33 34 35 -3 37 38 -36
right_child=8 20 9 4 -6 6 -8 -9 -10 12 11 17 13 -15 15 -17 -18 19 -20 21 -22 -23 23 27 25 26 -28 28 29 31 -32 32 -34 -35 36 -37 -38 -39 -40
leaf_value=-0.0799722394240754 -0.19117030237308319 0.23467122410424054 -0.038307611256851386 0.12200221823677421 0.019403704391368251 0.15990601267133442 0.22265648174969876 0.98582472354173667 -0.035500419462539706 -0.013988103590300545 0.56778355220332744 0.01903279451882546 -0.019460881659920003 0.0043085065962070917 0.010736242546651715 0.063086277025663384 -0.090883712454114932 -0.073729087435567872 0.35945141939446335 0.016528236482670343 0.10790925474402589 0.22811768793541454 -0.094528698470247419 -0.080970057534264783 0.41706940816796351 0.013001716114256693 0.28588652791455388 -0.067237699264299497 -0.048340691059827808 -0.063656440825588939 0.33522458374500275 0.47783004133538765 -0.087035207748413099 -0.16960410172119739 0.078385577418587427 -0.031918899581715877 0.038403828698782595 0.064236481450965888 0.32494030063444712
leaf_count=231 34 35 1101 500 606 21 61 22 4961 985 20 447 1465 3955 1738 864 295 321 32 276 287 23 38 265 23 115 20 258 25 113 48 22 25 20 55 288 1058 219 53
internal_value=0 0.222956 0.0973419 0.696606 1.84112 3.29898 7.4285 11.6494 -0.540105 -0.0405067 0.190936 0.312909 0.0453819 -0.133966 0.331128 0.562384 -0.628646 0.111948 0.835495 -0.44705 1.02065 0.656087 -0.474033 -0.200956 1.34831 2.12728 1.06858 -0.602617 -0.0538436 1.37558 4.07733 0.1429 3.5474 0.831723 0.881182 -0.0606285 1.10082 2.17742 3.9876
internal_count=20925 14811 12796 2393 1210 604 104 43 6114 10403 1153 1119 9302 5715 3587 2602 1760 1099 479 620 2015 299 1183 952 196 158 135 756 491 233 73 160 47 1728 1708 323 1385 327 108
shrinkage=0.05


Tree=19
num_leaves=40
num_cat=0
split_feature=2 1 0 0 0 1 2 2 0 0 2 0 7 0 7 7 2 1 7 2 7 7 1 2 6 0 0 7 2 7 2 7 2 7 2 2 6 1 7
split_gain=2274.1 1339.39 953.986 2893.58 2313.28 1933.51 1178.76 2645.79 706.393 725.267 819.214 1660.61 1127.76 952.566 763.753 1576.67 585.148 495.878 432.457 430.229 562.063 457.335 570.949 444.917 393.299 345.897 416.591 338.833 734.686 727.57 815.44 359.642 335.304 476.248 334.359 1017.89 451.071 604.937 828.556
threshold=8.5000000000000018 5.5000000000000009 6.5000000000000009 1.5000000000000002 5.5000000000000009 4.5000000000000009 4.5000000000000009 2.5000000000000004 5.5000000000000009 1.0000000180025095e-35 10.500000000000002 1.5000000000000002 27.130000114440922 1.5000000000000002 34.065000534057624 44.364999771118171 1.5000000000000002 5.5000000000000009 37.954999923706062 4.5000000000000009 65.145000457763686 35.145000457763679 3.5000000000000004 6.5000000000000009 0.21499999612569812 21.500000000000004 10.500000000000002 46.954999923706062 2.5000000000000004 38.504999160766609 4.5000000000000009 70.005001068115249 9.5000000000000018 57.954999923706062 10.500000000000002 9.5000000000000018 0.11499999836087228 4.5000000000000009 50.23500061035157
decision_type=2 2 2 2 2 2 2 2 2 2 2 2 2 2 2 2 2 2 2 2 2 2 2 2 2 2 2 2 2 2 2 2 2 2 2 2 2 2 2
left_child=1 2 3 -1 5 27 7 -7 9 -2 13 12 -12 -11 -14 18 -4 32 -16 21 23 -18 -23 -21 25 26 -3 28 -5 -30 -31 -29 33 -15 35 -10 -36 -38 -39
right_child=8 24 16 4 -6 6 -8 -9 34 10 11 -13 14 17 15 -17 19 -19 -20 20 -22 22 -24 -25 -26 -27 -28 31 29 30 -32 -33 -34 -35 36 -37 37 38 -40
leaf_value=-0.022516588627454051 -0.04728276765056641 0.063418123944551305 -0.036392229135716242 0.05242396721454419 0.018433517843282017 0.15191070295515516 0.21152364885220762 0.93653348914601586 -0.013434826590652977 -0.096904820807882264 0.55670908870904345 -0.013985476110246964 -0.013335116932520997 -0.001969357430934906 0.30479000580721888 -0.066503859745959445 -0.013288699305086839 -0.15111035928130151 0.60701148152351392 -0.020930366275248857 0.0032827142303251539 0.0101994298393672 0.059931964348975776 -0.096758207708465327 0.10855511594796555 0.1093052820184014 0.011819705145354284 0.05380574257770207 0.13258522434035938 0.51585720892374709 0.13472403974636743 0.21129113466933719 0.04060540869832039 0.29336056485772133 -0.028320569903129519 -0.075551041033274188 -0.0082174381014385785 0.060226409177491329 0.40624198723923083
leaf_count=1183 293 670 1101 92 606 21 61 22 1295 148 23 128 37 20 29 24 985 20 20 1343 4146 1738 864 226 240 165 940 231 75 36 23 43 70 43 2246 1344 271 81 22
internal_value=0 0.211808 0.0924748 0.661776 1.74907 3.13404 7.05708 11.0669 -0.5131 0.329903 0.994918 2.29148 4.76601 -0.129344 3.43448 5.31042 -0.0384814 1.6203 8.56291 0.0431128 -0.127268 0.314572 0.534265 -0.637053 0.96962 0.807167 0.665847 2.31804 3.22446 4.71842 7.3456 1.57041 2.31842 3.9921 -0.650154 -0.901392 -0.397094 0.619719 2.68265
internal_count=20925 14811 12796 2393 1210 604 104 43 6114 855 562 261 133 301 110 73 10403 153 49 9302 5715 3587 2602 1569 2015 1775 1610 500 226 134 59 274 133 63 5259 2639 2620 374 103
shrinkage=0.05


Tree=20
num_leaves=40
num_cat=0
split_feature=2 1 2 2 0 0 1 0 0 7 6 7 7 1 7 0 0 7 7 7 0 2 7 7 7 7 7 7 7 0 1 2 7 2 0 7 0 7 6
split_gain=2052.38 1208.8 869.018 1551.02 1581.33 3391.3 3345.85 637.519 654.553 764.106 555.463 539.979 736.766 526.106 1087.61 490.002 987.897 755.225 1070.83 585.175 538.186 655.971 1145.82 873.06 464.54 438.031 715.965 413.994 656.736 893.48 525.515 406.852 405.661 815.773 804.793 658.632 405.334 365.54 356.006
threshold=8.5000000000000018 5.5000000000000009 2.5000000000000004 4.5000000000000009 5.5000000000000009 1.5000000000000002 4.5000000000000009 5.5000000000000009 1.0000000180025095e-35 20.545000076293949 0.69499999284744274 38.504999160766609 46.704999923706062 2.5000000000000004 29.925000190734867 1.0000000180025095e-35 5.5000000000000009 72.674999237060561 73.774997711181655 68.465000152587905 1.5000000000000002 5.5000000000000009 63.534999847412116 57.215000152587898 57.215000152587898 29.265000343322757 39.125000000000007 43.135000228881843 28.035000801086429 1.0000000180025095e-35 1.5000000000000002 6.5000000000000009 34.364999771118171 10.500000000000002 1.5000000000000002 67.155002593994155 1.5000000000000002 52.645000457763679 0.095000002533197417
decision_type=2 2 2 2 2 2 2 2 2 2 2 2 2 2 2 2 2 2 2 2 2 2 2 2 2 2 2 2 2 2 2 2 2 2 2 2 2 2 2
left_child=1 2 -1 4 5 10 11 8 -2 -10 27 -7 -13 14 -11 -5 17 20 -19 31 21 -17 23 -23 37 -15 -27 28 -4 -30 -31 -18 -16 35 -35 -34 -20 -22 -3
right_child=7 38 3 15 -6 6 -8 -9 9 13 -12 12 -14 25 32 16 19 18 36 -21 24 22 -24 -25 -26 26 -28 -29 29 30 -32 -33 33 34 -36 -37 -38 -39 -40
leaf_value=-0.021777602655340109 -0.044918629755949402 0.037491915620005416 -0.088676429539918902 -0.060796863537774803 0.025631779197878724 0.13439218848031267 0.88970680196176888 -0.030882309743838626 0.34317412575085959 0.44471361026167866 -0.19252323313401298 0.47957825899124151 0.099154849052429203 -0.19593498471326062 -0.11132300774256387 -0.12726260914522058 -0.013713965403697887 0.4997675982388583 -0.010017921131204914 0.0067498880536698766 0.093281117490222387 -0.044797835826873779 -0.059347785534584419 0.31958915938933696 0.039811976110269577 0.1485568366839852 -0.035445766541476985 -0.0355882733539548 0.023815200412252421 0.081619464267383923 0.3820703977762267 -0.063146576501568269 -0.040356609239882116 0.41554855116673056 0.049104288939771978 0.25584151589352155 0.26099523813887077 0.284325186979203 0.097626385388681708
leaf_count=2542 293 1728 38 340 2763 74 22 5259 21 20 26 35 20 28 30 85 1794 22 37 3718 62 25 113 48 197 71 207 93 71 22 43 542 102 31 29 23 22 42 287
internal_value=0 0.201218 0.087851 0.217604 0.794126 2.54583 6.39562 -0.487445 0.313408 0.945172 0.56181 4.45168 6.82485 0.715441 1.84073 -0.0447631 0.0146076 1.18318 4.04102 -0.111438 0.778488 -0.243785 0.807961 3.89598 1.69887 -0.148753 0.230954 0.99147 1.90182 2.92876 5.60759 -0.503667 1.18459 1.73773 4.76868 0.282877 1.82076 3.40867 0.921139
internal_count=20925 14811 12796 10254 3207 444 151 6114 855 562 293 129 55 541 235 7047 6707 653 81 6054 572 271 186 73 301 306 278 267 174 136 65 2336 215 185 60 125 59 104 2015
shrinkage=0.05


Tree=21
num_leaves=40
num_cat=0
split_feature=2 2 1 0 1 1 6 0 0 0 1 2 2 6 1 2 2 7 7 6 1 7 6 7 1 7 7 2 7 7 7 2 1 7 6 6 6 7 0
split_gain=1879.76 1543.09 1293.22 1175.5 2826.87 1273.76 1025.48 800.284 2723.98 2183.28 1455.05 985.713 2061.28 542.733 494.907 412.025 481.722 491.248 421.819 410.253 499.583 918.781 606.45 399.692 398.43 380.399 371.596 341.799 339.608 332.976 443.132 472.662 404.994 325.506 293.981 404.578 281.466 277.271 278.236
threshold=9.5000000000000018 10.500000000000002 5.5000000000000009 1.5000000000000002 5.5000000000000009 1.0000000180025095e-35 0.99500000476837169 6.5000000000000009 1.5000000000000002 5.5000000000000009 4.5000000000000009 4.5000000000000009 2.5000000000000004 0.78499999642372142 4.5000000000000009 1.5000000000000002 4.5000000000000009 84.715000152587905 33.604999542236335 0.11499999836087228 4.5000000000000009 50.23500061035157 0.24499999731779101 53.68499946594239 4.5000000000000009 13.900000095367433 73.545001983642592 3.5000000000000004 39.815000534057624 70.005001068115249 58.424999237060554 2.5000000000000004 3.5000000000000004 64.005001068115249 0.49500000476837164 0.20499999821186068 0.034999999217689044 54.204999923706062 5.5000000000000009
decision_type=2 2 2 2 2 2 2 2 2 2 2 2 2 2 2 2 2 2 2 2 2 2 2 2 2 2 2 2 2 2 2 2 2 2 2 2 2 2 2
left_child=2 -2 6 4 5 -3 7 8 34 10 29 12 -12 15 -7 -9 18 -18 27 23 -21 22 -22 25 -20 -5 -11 -17 -24 30 31 -10 -32 -34 35 36 -1 -8 -39
right_child=1 3 -4 19 -6 14 37 13 9 26 11 -13 -14 -15 -16 16 17 -19 24 20 21 -23 28 -25 -26 -27 -28 -29 -30 -31 32 -33 33 -35 -36 -37 -38 38 -40
leaf_value=-0.02254825334461005 -0.068469070697167692 0.28973308251454283 0.043176095435198132 -0.13302043304896691 0.49751908183097843 0.015900916312221278 0.049572314580370279 -0.033431841221506262 0.033593320305597911 0.0047915620038053398 0.14540405500502815 0.19165861871961046 0.8459615900402977 -0.065982131749744363 -0.18238021398966131 -0.023829556421537421 -0.012653776841862377 0.035024467444970835 0.016207279437962158 -0.0045361866313283162 0.28535907503217456 0.4026145170564237 -0.18914383338256316 -0.096701966404087014 0.068937187664443095 -0.0153572314852764 0.21860129819029855 0.11944880898703228 0.054371227154638851 0.23517781489569212 -0.018377762742829127 0.16658273979827956 0.30758858948946 0.022322986349463465 -0.12595583898680551 0.12826619872992689 -0.192144009411335 0.29515637481212614 0.11111223740584178
leaf_count=1142 1570 39 2247 71 37 163 175 1039 94 629 21 73 21 359 39 771 5872 595 2075 279 20 23 22 180 433 2112 21 44 41 46 122 231 20 20 70 44 25 25 115
internal_value=0 -0.564948 0.159012 -0.147579 1.812 0.56254 0.0465963 0.00577681 0.507949 1.52892 2.82785 6.05387 9.91366 -0.109981 -0.447622 -0.0698791 -0.00633371 -0.165342 0.303118 -0.345819 0.611417 2.4595 0.909696 -0.50178 0.506219 -0.383682 0.233985 -0.321886 -0.613316 2.13181 1.88889 2.56236 0.537796 3.29912 -0.526571 -0.411395 -0.523628 1.8306 2.87955
internal_count=20925 4596 16329 3026 278 241 14082 13767 2579 1298 648 115 42 11188 202 10829 9790 6467 3323 2748 385 106 83 2363 2508 2183 650 815 63 533 487 325 162 40 1281 1211 1167 315 140
shrinkage=0.05


Tree=22
num_leaves=40
num_cat=0
split_feature=2 2 1 0 1 1 6 0 0 0 1 2 2 6 1 2 2 7 7 6 7 0 7 1 7 1 7 7 1 7 7 7 6 7 7 7 7 1 1
split_gain=1696.49 1392.64 1167.13 1060.89 2551.25 1149.56 925.497 722.257 2458.39 1970.41 1313.19 889.606 1860.3 489.816 446.654 371.852 434.754 443.351 380.691 370.253 462.663 456.164 579.783 1137.88 360.722 359.583 343.31 335.366 315.522 331.533 575.85 497.761 344.193 321.909 442.727 715.644 554.787 689.947 451.186
threshold=9.5000000000000018 10.500000000000002 5.5000000000000009 1.5000000000000002 5.5000000000000009 1.0000000180025095e-35 0.99500000476837169 6.5000000000000009 1.5000000000000002 5.5000000000000009 4.5000000000000009 4.5000000000000009 2.5000000000000004 0.78499999642372142 4.5000000000000009 1.5000000000000002 4.5000000000000009 84.715000152587905 33.604999542236335 0.11499999836087228 33.385000228881843 12.500000000000002 46.465000152587898 4.5000000000000009 53.68499946594239 4.5000000000000009 13.900000095367433 73.545001983642592 1.0000000180025095e-35 28.48499965667725 31.755000114440922 20.545000076293949 0.034999999217689044 70.005001068115249 53.954999923706062 38.895000457763679 44.875000000000007 2.5000000000000004 3.5000000000000004
decision_type=2 2 2 2 2 2 2 2 2 2 2 2 2 2 2 2 2 2 2 2 2 2 2 2 2 2 2 2 2 2 2 2 2 2 2 2 2 2 2
left_child=2 -2 6 4 5 -3 7 8 -1 10 28 12 -12 15 -7 -9 18 -18 -17 24 -21 22 -22 -24 26 -20 -5 -11 -10 31 -31 -30 33 34 35 -32 -37 -38 -36
right_child=1 3 -4 19 -6 14 -8 13 9 27 11 -13 -14 -15 -16 16 17 -19 25 20 21 -23 23 -25 -26 -27 -28 -29 29 30 32 -33 -34 -35 38 36 37 -39 -40
leaf_value=-0.02501214468890945 -0.065045617596427227 0.2752464228715652 0.041017290762935255 -0.12636941248865827 0.47264313689760257 0.015105868739995854 0.086953565299747487 -0.031760247277599671 0.019700707602746712 0.0045519836979791587 0.13813384544281734 0.18207568743661659 0.80366352399190277 -0.062683026155526303 -0.17326120397983455 -0.015289568325384676 -0.012021087313261854 0.033273247079375914 0.015396916425394187 0.21759186784426371 -0.012865831750707749 -0.03453932052048353 0.0027116964914296804 0.41090966034079757 -0.091866871360689412 0.065490327434566994 -0.01458937038868581 0.20767123230866025 0.16351010530757218 0.397128396704793 0.031191481455512673 -0.13777397254417684 -0.020836557889063106 0.27494845653050826 0.0091883419736011607 0.47396815782785418 0.38826813684403899 0.037701643258333209 0.19542163714118627
leaf_count=1281 1570 39 2247 71 37 163 315 1039 97 629 21 73 21 359 39 815 5872 595 2075 30 78 208 38 31 180 433 2112 21 26 20 46 29 38 38 111 25 25 32 46
internal_value=0 -0.536701 0.151061 -0.1402 1.7214 0.534413 0.0442665 0.00548798 0.482552 1.45248 2.68646 5.75118 9.41797 -0.104482 -0.425241 -0.0663851 -0.00601701 -0.157075 0.287962 -0.328528 0.580846 0.262171 1.61057 3.7221 -0.476691 0.480908 -0.364498 0.222286 2.02522 2.38812 2.71944 0.0930246 2.43007 2.76499 2.40045 3.78081 5.5518 3.82918 1.27507
internal_count=20925 4596 16329 3026 278 241 14082 13767 2579 1298 648 115 42 11188 202 10829 9790 6467 3323 2748 385 355 147 69 2363 2508 2183 650 533 436 381 55 361 323 285 128 82 57 157
shrinkage=0.05


Tree=23
num_leaves=40
num_cat=0
split_feature=2 2 2 0 0 6 1 7 7 0 7 6 2 0 1 1 2 7 1 6 7 1 7 7 7 0 3 7 6 7 0 6 7 0 7 1 7 7 6
split_gain=1547.57 947.499 1552.37 1156.94 1187.97 1515 647.661 591.581 701.968 2114.9 576.249 523.19 504.156 957.453 2302.5 1037.48 891.498 478.689 484.658 465.334 435.007 403.105 382.884 704.217 378.486 372.985 359.83 353.504 346.497 524.939 468.481 334.153 417.553 411.688 523.254 1026.94 328.602 325.552 323.502
threshold=8.5000000000000018 2.5000000000000004 4.5000000000000009 6.5000000000000009 1.5000000000000002 0.86500000953674328 3.5000000000000004 46.954999923706062 38.504999160766609 5.5000000000000009 37.344999313354499 0.69499999284744274 10.500000000000002 1.5000000000000002 5.5000000000000009 1.0000000180025095e-35 9.5000000000000018 75.43500137329103 5.5000000000000009 0.98500001430511486 33.604999542236335 4.5000000000000009 28.035000801086429 31.755000114440922 6.9299998283386239 21.500000000000004 1.0000000180025095e-35 63.784999847412116 0.14500000327825549 74.604999542236342 16.500000000000004 0.11499999836087228 33.385000228881843 12.500000000000002 46.465000152587898 4.5000000000000009 20.545000076293949 53.68499946594239 0.99500000476837169
decision_type=2 2 2 2 2 2 2 2 2 2 2 2 2 2 2 2 2 2 2 2 2 2 2 2 2 2 2 2 2 2 2 2 2 2 2 2 2 2 2
left_child=1 19 3 4 11 7 27 8 10 -10 20 22 16 14 15 -14 38 18 36 24 -6 -17 -3 -24 -1 -20 -8 -4 -29 -30 -31 37 -33 34 -34 -36 -5 -15 -2
right_child=12 2 6 17 5 -7 26 -9 9 -11 -12 -13 13 31 -16 21 -18 -19 25 -21 -22 -23 23 -25 -26 -27 -28 28 29 30 -32 32 33 -35 35 -37 -38 -39 -40
leaf_value=0.10268668373746258 -0.011387862768224627 -0.084489504620432865 -0.029835254969868771 -0.10019658652468111 0.096755356502447598 0.54938762077363212 0.026888350003526101 -0.022373502686315654 0.55218095647600984 0.024478754562300607 -0.11334162813921769 -0.18079680049648653 0.26148410630531804 -0.017313663223421306 0.44901098472292766 0.014350577642672634 -0.061793337282965669 -0.14114228719618263 0.065119145722571312 0.11892279977271814 0.27229165089130403 -0.16459814539322487 0.31686140166388621 0.047966920749674881 -0.022197797507211656 0.21811793790923228 -0.016355053396124777 -0.0045824840130975755 0.013276618453700937 0.33928929865360263 0.063769360507527989 0.20671227236588796 -0.012222539084270978 -0.032812352994313614 0.0025761134922504428 0.39036418295675712 0.025599113391071567 -0.087273524128314517 0.15180760477819752
leaf_count=62 1487 44 1432 53 120 24 2820 49 39 37 24 26 39 2183 37 163 1570 41 347 62 50 39 27 248 2828 45 580 3085 173 27 36 30 78 208 38 31 2532 180 31
internal_value=0 0.174728 0.30092 0.837555 2.00778 3.32564 0.0569889 2.74918 3.32932 5.90547 2.32011 0.697554 -0.423274 -0.13319 1.63533 0.507693 -0.707534 0.570784 0.617522 -0.332219 2.96767 -0.403979 1.04912 1.48735 -0.390372 1.65366 0.390231 -0.181391 -0.00231015 1.16554 3.63699 -0.312101 0.551804 0.249062 1.53004 3.53599 0.460399 -0.452856 -0.161103
internal_count=20925 14811 11859 3706 688 343 8153 319 270 76 194 345 6114 3026 278 241 3088 3018 2977 2952 170 202 319 275 2890 392 3400 4753 3321 236 63 2748 385 355 147 69 2585 2363 1518
shrinkage=0.05


Tree=24
num_leaves=40
num_cat=0
split_feature=2 2 2 0 0 6 1 7 7 7 7 0 1 1 6 7 1 2 1 0 2 6 7 7 7 0 7 3 7 6 7 0 6 6 0 0 7 7 6
split_gain=1396.68 855.118 1401.01 1044.14 1072.14 1367.28 584.514 533.902 651.903 474.571 655.154 772.765 3210.66 520.906 472.179 436.544 430.748 424.528 1175.79 2479.4 603.907 419.964 376.808 345.553 635.556 343.8 341.584 324.747 319.037 312.713 473.758 422.804 311.519 306.879 303.869 315.653 667.329 298.688 291.961
threshold=8.5000000000000018 2.5000000000000004 4.5000000000000009 6.5000000000000009 1.5000000000000002 0.86500000953674328 3.5000000000000004 46.954999923706062 44.635000228881843 11.179999828338625 36.754999160766609 1.5000000000000002 5.5000000000000009 1.0000000180025095e-35 0.69499999284744274 72.674999237060561 5.5000000000000009 11.500000000000002 5.5000000000000009 11.500000000000002 9.5000000000000018 0.98500001430511486 45.655000686645515 28.035000801086429 31.755000114440922 18.500000000000004 6.9299998283386239 1.0000000180025095e-35 63.784999847412116 0.14500000327825549 74.604999542236342 16.500000000000004 0.014999999664723875 0.49500000476837164 1.5000000000000002 6.5000000000000009 70.005001068115249 20.545000076293949 0.99500000476837169
decision_type=2 2 2 2 2 2 2 2 2 2 2 2 2 2 2 2 2 2 2 2 2 2 2 2 2 2 2 2 2 2 2 2 2 2 2 2 2 2 2
left_child=1 21 3 4 14 7 28 8 -6 -2 11 12 13 -11 23 16 37 20 -19 -20 38 26 32 -3 -25 -18 -1 -8 -4 34 -31 -32 -22 -34 -30 36 -36 -5 -12
right_child=9 2 6 15 5 -7 27 -9 -10 10 17 -13 -14 -15 -16 -17 25 18 19 -21 22 -23 -24 24 -26 -27 -28 -29 29 30 31 -33 33 -35 35 -37 -38 -39 -40
leaf_value=0.097552345741179686 -0.16499218617432887 -0.080265023584731601 -0.02834349201970042 -0.095186759742363458 0.13500253175715768 0.52191826862593493 0.025543931826952422 -0.02125482653476754 0.41899451579559932 0.23350916665333968 -0.010818468918084407 -0.0020639972320410627 0.7074335831403733 -0.013912641409880076 -0.17175695692690521 -0.1111880143306085 0.048191947664093709 -0.014840331282425165 0.66005030778192342 0.012642184659838678 -0.031947025287102304 0.11297665804534429 -0.059654380691799763 0.30101833652566978 0.045568573718229616 0.15077664463556018 -0.021087907856671785 -0.015537300763073667 -0.061401969321127896 0.012612786577379256 0.32232483548146712 0.060580892778105216 0.15302165313623847 -0.0084650604250399702 -0.0099692077837257743 -0.0042007081925501703 0.19514814385819057 0.024753732142328365 0.14421722605343787
leaf_count=62 56 44 1432 53 248 24 2820 49 22 26 1487 1183 20 117 26 56 276 449 21 50 699 62 1851 27 248 116 2828 580 217 173 27 36 48 76 107 2698 63 2517 31
internal_value=0 0.165992 0.285874 0.795677 1.90739 3.15936 0.0541395 2.61173 3.16285 -0.40211 -0.375324 0.239977 2.28124 0.621463 0.662676 0.542245 0.59454 -0.551087 0.301148 4.08258 -0.656803 -0.315608 -0.942779 0.996667 1.41298 1.57097 -0.370854 0.370719 -0.172322 -0.00219461 1.10726 3.45514 -0.379812 1.08092 -0.0870672 -0.000738374 1.3209 0.445605 -0.153048
internal_count=20925 14811 11859 3706 688 343 8153 319 270 6114 6058 1346 163 143 345 3018 2962 4712 520 71 4192 2952 2674 319 275 392 2890 3400 4753 3321 236 63 823 124 3085 2868 170 2570 1518
shrinkage=0.05


Tree=25
num_leaves=40
num_cat=0
split_feature=2 1 0 0 0 6 7 7 0 1 1 7 2 7 7 2 7 7 2 1 0 2 2 7 6 3 0 0 1 2 7 7 7 6 0 6 6 2 6
split_gain=1260.5 786.931 573.615 1778.79 1441.28 1564.81 428.3 591.277 697.42 2897.62 470.117 414.46 694.577 463.035 428.424 599.939 1110.38 394.872 383.136 1061.15 2237.66 545.026 363.034 340.255 318.715 314.912 361.49 329.249 311.813 361.284 879.554 298.267 288.94 276.72 286.641 268.443 416.18 282.164 263.494
threshold=8.5000000000000018 5.5000000000000009 6.5000000000000009 1.5000000000000002 5.5000000000000009 0.86500000953674328 11.179999828338625 36.754999160766609 1.5000000000000002 5.5000000000000009 1.0000000180025095e-35 58.424999237060554 1.5000000000000002 73.08499908447267 28.48499965667725 3.5000000000000004 38.504999160766609 34.065000534057624 11.500000000000002 5.5000000000000009 11.500000000000002 9.5000000000000018 1.5000000000000002 45.924999237060554 0.21499999612569812 1.5000000000000002 21.500000000000004 10.500000000000002 4.5000000000000009 5.5000000000000009 62.815000534057624 31.755000114440922 65.83499908447267 0.014999999664723875 8.5000000000000018 0.99500000476837169 0.78499999642372142 3.5000000000000004 0.99500000476837169
decision_type=2 2 2 2 2 2 2 2 2 2 2 2 2 2 2 2 2 2 2 2 2 2 2 2 2 2 2 2 2 2 2 2 2 2 2 2 2 2 2
left_child=1 2 3 28 5 11 -2 8 9 10 -8 12 31 -13 -14 16 17 -16 21 -20 -21 38 -4 33 25 26 27 -3 -1 -30 -31 -5 -29 -23 -35 36 -24 -38 -9
right_child=6 24 22 4 -6 -7 7 18 -10 -11 -12 13 14 -15 15 -17 -18 -19 19 20 -22 23 35 -25 -26 -27 -28 32 29 30 -32 -33 -34 34 -36 -37 37 -39 -40
leaf_value=-0.0067746994312071337 -0.1567425765853841 0.051399948358876325 -0.028915502330543432 0.07097268996431548 0.013528590259471103 0.47469637354214989 0.22183371002857505 -0.010277547173616342 -0.0019607975466896417 0.67206190973520286 -0.013217009406568659 0.019465875495528886 0.034989653381646849 0.23130896884948016 0.29389181544383364 0.14320059035989371 0.58426719731092447 0.01120002894174485 -0.014098315394767675 0.62704778640043168 0.012010075658559799 -0.030556089353994648 0.0021353254633701777 -0.056957539248584294 0.091006717188283806 -0.16766682103276254 0.10375883797617079 -0.019457663365457806 -0.13159927846067862 0.25935348826460541 -0.10341348447582939 -0.1621620590272157 0.036785882529244744 0.176332201108788 0.004807920273273222 0.057473119922231836 0.040251737391039481 -0.081744652962567166 0.13700636455849294
leaf_count=987 56 670 1101 34 606 30 26 1487 1183 20 117 184 51 30 30 176 25 21 449 21 50 724 8793 1824 240 20 159 517 117 24 55 23 409 33 93 209 59 241 31
internal_value=0 0.157692 0.0662225 0.507672 1.36016 2.45337 -0.382005 -0.356558 0.227978 2.16718 0.59039 2.08539 2.74054 0.98327 3.343 3.87793 6.22596 3.54979 -0.523532 0.286091 3.87845 -0.623963 -0.035324 -0.89564 0.738558 0.592317 0.637281 0.494032 -0.364277 -1.51636 0.135884 -0.461985 0.107685 -0.373094 0.994619 0.0289447 0.00318994 -1.15504 -0.145395
internal_count=20925 14811 12796 2393 1210 604 6114 6058 1346 163 143 574 360 214 303 252 76 51 4712 520 71 4192 10403 2674 2015 1775 1755 1596 1183 196 79 57 926 850 126 9302 9093 300 1518
shrinkage=0.05


Tree=26
num_leaves=40
num_cat=0
split_feature=2 2 2 0 7 7 0 1 7 7 7 7 7 0 7 1 7 0 7 7 6 0 7 0 7 7 1 7 7 6 7 7 1 1 7 2 2 3 7
split_gain=1137.61 736.649 1257.11 889.018 1051.45 630.788 726.485 505.82 503.162 535.261 427.156 472.057 795.55 420.061 399.989 406.258 655.166 394.579 540.164 1999.62 360.397 348.447 335.355 312.306 308.897 300.866 295.514 1408.12 726.834 518.287 473.836 336.439 447.749 293.563 290.331 301.741 392.67 285.017 294.164
threshold=8.5000000000000018 2.5000000000000004 4.5000000000000009 6.5000000000000009 61.594999313354499 46.954999923706062 1.0000000180025095e-35 3.5000000000000004 28.035000801086429 29.625000000000004 45.135000228881843 43.135000228881843 40.274999618530281 1.5000000000000002 67.844997406005874 4.5000000000000009 37.545000076293952 6.5000000000000009 18.715000152587894 21.494999885559086 0.98500001430511486 1.0000000180025095e-35 51.014999389648445 21.500000000000004 6.9299998283386239 49.245000839233406 2.5000000000000004 28.48499965667725 68.255001068115249 0.39499999582767492 26.639999389648441 39.354999542236335 3.5000000000000004 2.5000000000000004 80.805000305175795 10.500000000000002 9.5000000000000018 1.0000000180025095e-35 68.465000152587905
decision_type=2 2 2 2 2 2 2 2 2 2 2 2 2 2 2 2 2 2 2 2 2 2 2 2 2 2 2 2 2 2 2 2 2 2 2 2 2 2 2
left_child=1 20 3 4 5 6 -3 25 13 -10 11 12 -11 -8 15 -5 23 18 -2 -20 24 -21 -7 -17 -1 -4 27 -23 29 -29 -28 32 -32 -16 35 36 -19 38 -9
right_child=17 2 7 14 -6 22 8 37 9 10 -12 -13 -14 -15 33 16 -18 34 19 21 -22 26 -24 -25 -26 -27 30 28 -30 -31 31 -33 -34 -35 -36 -37 -38 -39 -40
leaf_value=0.092982369997809011 -0.18813072539427703 0.00013113337352979875 -0.063125742095908363 0.017352220388789207 0.44571582693606615 -0.11698067313326257 -0.15613938644528391 0.0056806699436756543 0.40965835072100165 0.10989955149657792 0.34147254754602913 -0.061767448037862785 0.34711865581394663 0.095263807061645722 -0.20278027852376304 -0.028060090407269644 0.090845304963403151 -0.017255235944440627 0.5096329981833696 -0.04299937494631325 0.10441718456605752 0.4254323368892074 0.056058142068130638 0.11748776449398562 -0.019838695249604549 -0.0055604790540917139 -0.21675781416893006 -0.013384734796473631 0.31395330031712854 0.18344500590311855 -0.081723970942425006 -0.021025802915861244 0.13295589447345421 -0.017358312191995417 0.061384243813833006 -0.013731657497414788 -0.057839438276040184 -0.015117828716556059 0.038112161169948866
leaf_count=62 34 138 239 2103 20 56 24 1282 20 223 25 30 42 54 30 227 540 1131 20 280 62 24 56 44 2828 4514 25 279 21 38 33 307 92 74 97 2473 1260 580 1538
internal_value=0 0.149807 0.261076 0.74399 1.7698 1.55589 1.99203 0.0415644 2.64882 3.17433 2.86065 2.52431 2.94993 0.35818 0.51014 0.578916 1.18018 -0.362905 0.164051 0.28336 -0.297189 0.103027 -0.609225 -0.0885741 -0.348366 -0.169102 0.432262 1.10718 0.581632 0.2042 -0.102355 0.142599 1.52561 -1.41691 -0.485376 -0.519538 -0.772843 0.336063 0.46737
internal_count=20925 14811 11859 3706 688 668 556 8153 418 340 320 295 265 78 3018 2914 811 6114 1153 1119 2952 1099 112 271 2890 4753 819 362 338 317 457 432 125 104 4961 4864 2391 3400 2820
shrinkage=0.05


Tree=27
num_leaves=40
num_cat=0
split_feature=2 1 0 0 6 7 7 0 1 1 7 2 7 7 2 7 7 2 1 0 6 2 6 7 6 6 6 7 7 1 2 7 1 7 0 3 3 2 7
split_gain=1026.69 676.8 491.375 2815.22 1400.47 377.155 534.915 598.157 2586.84 417.507 361.983 606.889 418.907 382.426 518.263 997.045 346.385 336.344 955.339 2012.85 468.473 461.354 384.369 304.311 294.879 486.189 291.94 329.256 335.901 289.384 328.594 798.436 277.668 506.581 356.519 280.856 275.754 269.406 362.329
threshold=8.5000000000000018 5.5000000000000009 5.5000000000000009 1.5000000000000002 0.86500000953674328 13.900000095367433 36.754999160766609 1.5000000000000002 5.5000000000000009 1.0000000180025095e-35 58.424999237060554 1.5000000000000002 73.08499908447267 28.48499965667725 3.5000000000000004 38.504999160766609 34.065000534057624 11.500000000000002 5.5000000000000009 11.500000000000002 0.99500000476837169 9.5000000000000018 0.034999999217689044 45.924999237060554 0.99500000476837169 0.78499999642372142 0.034999999217689044 51.245000839233406 44.875000000000007 4.5000000000000009 5.5000000000000009 62.815000534057624 5.5000000000000009 63.014999389648445 5.5000000000000009 1.0000000180025095e-35 1.5000000000000002 5.5000000000000009 66.674999237060561
decision_type=2 2 2 2 2 2 2 2 2 2 2 2 2 2 2 2 2 2 2 2 2 2 2 2 2 2 2 2 2 2 2 2 2 2 2 2 2 2 2
left_child=1 2 3 29 10 -2 7 8 9 -7 11 -5 -12 -13 15 16 -15 20 -19 -20 21 22 32 -23 25 -4 36 28 -28 -1 -31 -32 -8 34 -34 -35 -3 -29 -39
right_child=5 26 24 4 -6 6 17 -9 -10 -11 12 13 -14 14 -16 -17 -18 18 19 -21 -22 23 -24 -25 -26 -27 27 37 -30 30 31 -33 33 35 -36 -37 -38 38 -40
leaf_value=-0.0066287055464410499 -0.12719732154789684 0.028225354145236432 -0.0003561983312645734 -0.021447161219099113 0.44805270165205002 0.2086711427340141 -0.010730201479405047 -0.00035075808320686995 0.63454486727714543 -0.012837287885511023 0.017870558408574891 0.031523813205022441 0.21936645214756331 0.27300123678520322 0.13453903586857699 0.54943918500840672 0.0082340512956891737 -0.012748744853985867 0.59542127379349308 0.012096152156591416 0.064266840986568818 -0.019297180237846927 -0.083795835284456138 -0.056104634808520543 0.053054299084393963 -0.060103990357972426 0.07212547140711166 0.25515660228761466 -0.093668912427547657 -0.12634039429438293 0.24627510588616133 -0.09935910292647103 -0.025456200425441451 -0.056448176724370573 0.18977676631026977 0.13808145327088625 -0.15852759099565447 -0.036258728395808827 0.17478654913182529
leaf_count=987 77 1692 10411 57 30 26 1113 1162 20 117 184 51 30 30 176 25 21 449 21 50 132 828 155 1745 246 352 141 37 39 117 24 55 26 96 74 23 20 33 53
internal_value=0 0.142317 0.0574893 0.543876 2.30046 -0.344759 -0.316709 0.244631 2.03857 0.548739 1.95234 2.56461 0.922353 3.12776 3.63316 5.81551 3.27959 -0.474557 0.284018 3.69258 -0.568655 -0.628932 -0.185509 -0.885197 -0.0214618 -0.0462046 0.681005 1.58578 0.724067 -0.352976 -1.46285 0.112874 -0.0120758 1.01721 2.67632 -0.377 0.520873 2.84682 1.87608
internal_count=20925 14811 12796 1787 604 6114 6037 1325 163 143 574 360 214 303 252 76 51 4712 520 71 4192 4060 1487 2573 11009 10763 2015 303 180 1183 196 79 1332 219 100 119 1712 123 86
shrinkage=0.05


Tree=28
num_leaves=40
num_cat=0
split_feature=2 2 2 0 7 7 0 7 7 7 2 7 0 0 7 7 7 1 0 7 7 7 7 1 0 7 7 0 1 1 1 7 1 7 7 6 2 1 7
split_gain=926.587 660.726 1124.61 761.55 952.62 566.733 619.735 461.899 433.251 484.141 409.044 381.485 427.068 495.813 677.989 618.236 376.062 372.79 372.288 371.183 661.348 408.182 919.986 981.739 355.924 342.842 452.523 555.079 2334.63 376.8 340.385 547.089 333.676 318.013 306.766 305.717 303.551 862.193 1831.21
threshold=8.5000000000000018 2.5000000000000004 4.5000000000000009 6.5000000000000009 61.594999313354499 46.954999923706062 1.0000000180025095e-35 68.465000152587905 28.035000801086429 29.625000000000004 6.5000000000000009 49.245000839233406 6.5000000000000009 1.5000000000000002 50.465000152587898 60.565000534057624 75.43500137329103 1.5000000000000002 1.5000000000000002 40.274999618530281 43.135000228881843 36.754999160766609 34.664999008178718 3.5000000000000004 1.0000000180025095e-35 11.179999828338625 36.754999160766609 1.5000000000000002 5.5000000000000009 1.0000000180025095e-35 4.5000000000000009 37.545000076293952 4.5000000000000009 37.745000839233406 51.014999389648445 0.98500001430511486 11.500000000000002 5.5000000000000009 43.135000228881843
decision_type=2 2 2 2 2 2 2 2 2 2 2 2 2 2 2 2 2 2 2 2 2 2 2 2 2 2 2 2 2 2 2 2 2 2 2 2 2 2 2
left_child=1 35 3 4 5 6 -3 10 18 -10 11 -4 13 15 -15 -13 30 33 -8 21 -21 22 23 -19 -17 -2 27 28 29 -27 -5 -32 -9 -11 -7 -1 -28 -38 -39
right_child=25 2 7 16 -6 34 8 32 9 17 -12 12 -14 14 -16 24 -18 19 -20 20 -22 -23 -24 -25 -26 26 36 -29 -30 -31 31 -33 -34 -35 -36 -37 37 38 -40
leaf_value=-0.016763475454254495 -0.13952329784099546 0.00095563869977342917 -0.048901604714921387 0.015595332808004484 0.42236160716041926 -0.11320380800004518 -0.14697181812177104 0.0036699043548996052 0.38619861803948879 -0.04804611729251014 -0.040904650768537665 -0.056753649258746791 -0.0063890137754573431 0.3754395940899849 0.071929994802112165 0.012537370020883128 -0.12635162894318744 0.29325806628912687 0.089704120662753239 0.4393993917107582 0.12535794686746637 0.027544183312700345 0.42014974093995988 -0.082622751201453959 0.19839434075228712 0.19823758579217471 -0.027011099262550728 -0.0015878134759350435 0.6028176414966584 -0.012195425385083909 -0.0050331064956984396 0.081507709293260386 0.033577586963559572 0.14325668025939239 0.052294843963214335 0.095449504088009562 -0.012111307255807592 0.016381826719232634 0.58088740527629856
leaf_count=2890 56 138 371 2146 20 56 24 3346 20 45 909 179 1701 20 230 57 41 32 54 30 38 65 30 38 47 26 4192 1183 20 117 271 560 1293 42 56 62 449 51 20
internal_value=0 0.135201 0.24058 0.697335 1.64676 1.44316 1.85656 0.032959 2.46318 2.95081 -0.240521 -0.0389809 0.116967 0.898047 1.92422 -0.00846213 0.480898 2.65248 0.337615 3.31202 5.27811 2.50175 3.76982 1.78417 1.93061 -0.327521 -0.304754 0.206616 1.93665 0.521302 0.522324 1.06571 0.240118 0.886139 -0.60909 -0.288134 -0.450829 0.269817 3.50795
internal_count=20925 14811 11859 3706 688 668 556 8153 418 340 3514 2605 2234 533 250 283 3018 320 78 233 68 165 100 70 104 6114 6058 1346 163 143 2977 831 4639 87 112 2952 4712 520 71
shrinkage=0.05


Tree=29
num_leaves=40
num_cat=0
split_feature=2 2 1 0 0 7 7 7 6 0 0 1 2 7 6 6 1 1 1 7 7 7 7 2 7 7 7 6 7 0 7 6 0 7 0 7 2 1 2
split_gain=863.06 775.286 733.865 630.787 1600.79 918.207 750.497 1430.17 570.866 469.573 3022.96 1155.02 664.91 1500.22 394.208 377.792 269.384 267.382 348.043 459.848 265.503 787.29 259.668 312.213 256.044 1963.59 252.569 246.485 382.967 314.968 501.334 945.528 241.605 229.45 333.645 228.933 331.535 303.367 579.329
threshold=9.5000000000000018 10.500000000000002 5.5000000000000009 1.5000000000000002 1.0000000180025095e-35 27.130000114440922 35.145000457763679 44.364999771118171 0.99500000476837169 5.5000000000000009 1.5000000000000002 4.5000000000000009 4.5000000000000009 36.555000305175788 0.74500000476837169 0.55500000715255748 2.5000000000000004 1.0000000180025095e-35 2.5000000000000004 70.005001068115249 53.954999923706062 39.125000000000007 86.36999893188478 7.5000000000000009 72.255001068115249 73.08499908447267 54.204999923706062 0.11499999836087228 33.385000228881843 12.500000000000002 46.465000152587898 0.89499998092651378 12.500000000000002 67.155002593994155 6.5000000000000009 64.005001068115249 7.5000000000000009 3.5000000000000004 3.5000000000000004
decision_type=2 2 2 2 2 2 2 2 2 2 2 2 2 2 2 2 2 2 2 2 2 2 2 2 2 2 2 2 2 2 2 2 2 2 2 2 2 2 2
left_child=2 -2 8 4 -3 -6 -7 16 9 10 24 15 13 -13 22 17 -8 -12 19 20 21 -19 -11 -24 -1 -26 -10 32 -29 30 -30 -32 -5 34 -28 37 -37 -20 -39
right_child=1 3 -4 27 5 6 7 -9 26 14 11 12 -14 -15 -16 -17 -18 18 35 -21 -22 -23 23 -25 25 -27 33 28 29 -31 31 -33 -34 -35 -36 36 -38 38 -40
leaf_value=-0.029652255770986624 -0.047650139846239885 -0.04748470812522132 0.031922868611660452 -0.03627064594485243 0.48001008448393451 -0.027324351939288057 0.53594374494119135 -0.068636042655756083 0.02766118156111666 -0.0037806501695183689 0.012096798757189199 0.12780343334783206 0.16302847402961287 0.72614105358719838 -0.051788520044090153 -0.13369090288877489 0.28239926375448704 0.066891871470837833 0.017744841794301938 0.373519649888788 0.057459189596621302 0.34929412934111387 0.0069234681727717799 0.1020420125384969 0.4531527300054829 -0.046014033353210172 0.35005674272775655 0.19703278044859571 -0.019831184492721102 -0.028599895637195845 0.33236473496807251 -0.039734683690532568 -0.0039235462228466265 0.043850021345230444 0.11424422620485226 -0.15690671824491942 0.095594265140019938 -0.0061120567624183266 0.25931228003822843
leaf_count=1147 1570 145 2247 1003 23 44 22 24 175 11024 95 22 73 20 418 20 20 62 77 21 79 41 269 127 24 110 20 30 78 208 38 31 1360 60 60 26 26 34 52
internal_value=0 -0.382805 0.107745 -0.0869654 1.3485 3.85405 2.65258 4.7853 0.0230619 -0.00739391 0.450121 2.21022 5.08445 8.25452 -0.0819458 1.59008 8.30417 1.75631 2.10049 3.03956 2.52831 3.58609 -0.0470335 0.748573 -0.440234 0.867779 1.35413 -0.232184 0.50979 0.219858 1.34031 3.30379 -0.353072 2.35526 3.46395 1.21383 -0.613125 1.79666 3.08754
internal_count=20925 4596 16329 3026 278 133 110 66 14082 13767 1929 648 115 42 11838 533 42 513 418 203 182 103 11420 396 1281 134 315 2748 385 355 147 69 2363 140 80 215 52 163 86
shrinkage=0.05


Tree=30
num_leaves=40
num_cat=0
split_feature=2 2 1 0 0 7 7 7 6 0 0 1 2 7 6 6 7 2 6 6 6 7 2 7 1 7 7 2 6 7 0 7 6 7 1 2 7 7 7
split_gain=778.912 699.695 662.313 569.286 1444.71 828.682 677.324 1290.73 515.206 423.79 2728.22 1042.4 600.082 1353.95 355.909 340.957 270.287 246.627 237.128 359.322 242.093 235.466 281.772 227.944 227.239 223.739 428.714 356.284 222.453 345.627 284.259 452.454 853.339 237.75 222.392 212.253 211.099 320.381 362.522
threshold=9.5000000000000018 10.500000000000002 5.5000000000000009 1.5000000000000002 1.0000000180025095e-35 27.130000114440922 35.145000457763679 44.364999771118171 0.99500000476837169 5.5000000000000009 1.5000000000000002 4.5000000000000009 4.5000000000000009 36.555000305175788 0.78499999642372142 0.55500000715255748 37.954999923706062 8.5000000000000018 0.49500000476837164 0.20499999821186068 0.034999999217689044 86.36999893188478 7.5000000000000009 54.204999923706062 3.5000000000000004 58.424999237060554 60.565000534057624 2.5000000000000004 0.11499999836087228 33.385000228881843 12.500000000000002 46.465000152587898 0.89499998092651378 53.68499946594239 2.5000000000000004 8.5000000000000018 36.754999160766609 28.48499965667725 19.644999504089359
decision_type=2 2 2 2 2 2 2 2 2 2 2 2 2 2 2 2 2 2 2 2 2 2 2 2 2 2 2 2 2 2 2 2 2 2 2 2 2 2 2
left_child=2 -2 8 4 -3 -6 -7 16 9 10 18 15 13 -13 21 17 -8 25 19 20 -1 35 -23 -10 -24 27 -27 36 33 -30 31 -31 -33 -5 -21 -11 37 38 -12
right_child=1 3 -4 28 5 6 7 -9 23 14 11 12 -14 -15 -16 -17 -18 -19 -20 34 -22 22 24 -25 -26 26 -28 -29 29 30 -32 32 -34 -35 -36 -37 -38 -39 -40
leaf_value=-0.017658066309926522 -0.045267631807942896 -0.045110471577479924 0.030326724762329522 -0.012216777466211949 0.45600960669310198 -0.025958138975230135 0.27351019423116341 -0.065204236221810194 0.026278122768870423 -0.0014651577094203731 0.13428683448582887 0.12141325758262114 0.15487704993519066 0.68983396736904989 -0.0518914433452363 -0.1270063528418541 0.52747930258512499 0.19522657646073238 -0.11038785053150996 0.23693522648377852 -0.17494545066356659 0.0065772980617767821 0.12670904639756905 0.11187464412335041 -0.053323321683066228 -0.19029649515170605 0.055956345367686539 0.13528654047658722 0.18718114455540977 -0.018839625873340246 -0.027169902170470991 0.31574650478892424 -0.037747953495671671 -0.072002671547234054 0.012116220119324598 -0.025309128128354189 -0.12276927658489772 0.2012154200077057 -0.15394575074315073
leaf_count=1142 1570 145 2247 2183 23 44 22 24 175 10039 20 22 73 20 374 20 20 45 70 22 25 269 106 140 21 20 152 206 30 78 208 38 31 180 22 1029 21 25 24
internal_value=0 -0.363665 0.102358 -0.0826171 1.28108 3.66135 2.51995 4.54603 0.0219088 -0.00702422 0.427615 2.09971 4.83023 7.8418 -0.0778485 1.51057 7.88896 1.6685 -0.418223 -0.314781 -0.420551 -0.0465303 0.711145 1.28642 1.9388 1.45349 0.546446 1.98056 -0.220574 0.4843 0.208865 1.27329 3.1386 -0.335419 2.49051 -0.073639 0.320727 1.16563 -0.458619
internal_count=20925 4596 16329 3026 278 133 110 66 14082 13767 1929 648 115 42 11838 533 42 513 1281 1211 1167 11464 396 315 127 468 172 296 2748 385 355 147 69 2363 44 11068 90 69 44
shrinkage=0.05


Tree=31
num_leaves=40
num_cat=0
split_feature=2 2 1 0 1 1 6 0 0 1 2 2 1 6 6 1 1 7 7 7 7 7 7 1 7 2 2 7 7 7 1 5 0 1 7 2 7 7 4
split_gain=702.968 631.475 597.738 513.78 1369.04 724.391 464.974 382.47 2462.22 940.767 541.574 1281.07 377.583 322.868 307.714 241.417 311.591 419.828 238.487 701.995 228.991 1768.39 214.863 315.808 213.956 222.263 538.255 344.619 223.394 222.473 235.675 238.943 505.48 353.243 211.655 279.441 452.206 338.947 332.642
threshold=9.5000000000000018 10.500000000000002 5.5000000000000009 1.5000000000000002 5.5000000000000009 1.0000000180025095e-35 0.99500000476837169 5.5000000000000009 1.5000000000000002 4.5000000000000009 4.5000000000000009 2.5000000000000004 4.5000000000000009 0.74500000476837169 0.55500000715255748 1.0000000180025095e-35 2.5000000000000004 70.005001068115249 53.954999923706062 39.125000000000007 72.255001068115249 73.08499908447267 59.68499946594239 1.5000000000000002 84.715000152587905 4.5000000000000009 2.5000000000000004 49.004999160766609 6.9299998283386239 20.545000076293949 4.5000000000000009 1.0000000180025095e-35 10.500000000000002 1.5000000000000002 65.604999542236342 2.5000000000000004 43.135000228881843 57.215000152587898 1.0000000180025095e-35
decision_type=2 2 2 2 2 2 2 2 2 2 2 2 2 2 2 2 2 2 2 2 2 2 2 2 2 2 2 2 2 2 2 2 2 2 2 2 2 2 2
left_child=2 -2 6 4 5 -3 7 8 20 14 11 -11 -7 24 15 -10 17 18 19 -17 34 -22 -20 -24 25 26 28 -27 -9 -28 31 -31 -33 -34 35 -1 -37 -38 -39
right_child=1 3 -4 -5 -6 12 -8 13 9 10 -12 -13 -14 -15 -16 16 -18 -19 22 -21 21 -23 23 -25 -26 27 29 -29 -30 30 -32 32 33 -35 -36 36 37 38 -40
