tree
version=v2
num_class=1
num_tree_per_iteration=1
label_index=0
max_feature_idx=8
objective=regression
feature_names=Column_0 Column_1 Column_2 Column_3 Column_4 Column_5 Column_6 Column_7 Column_8
feature_infos=[0:23] [0:6] [1:12] [0:2] none [0:1] [0:1] [0:1] [-3.869999885559082:95.75]
tree_sizes=705 719 711 714 713 716 721 721 713 723 728 721 717 715 716

Tree=0
num_leaves=8
num_cat=0
split_feature=2 2 0 0 8 0 2
split_gain=1663.66 1657.78 510.721 194.206 226.672 193.739 171.953
threshold=4.5000000000000009 2.5000000000000004 5.5000000000000009 3.5000000000000004 55.664999008178718 18.500000000000004 3.5000000000000004
decision_type=2 2 2 2 2 2 2
left_child=1 -1 -2 -3 6 -6 -5
right_child=2 3 -4 4 5 -7 -8
leaf_value=0.4791853942971272 0.54822726486633333 0.7648921611192665 0.45997313574735199 0.56629292738981118 0.74357287746176026 0.51154417748999081 0.63777655741785311
leaf_count=2234 1044 130 9880 1086 292 63 875
internal_value=0 0.493314 -0.219272 1.06211 0.995349 1.73063 0.862241
internal_count=15604 4680 10924 2446 2316 355 1961
shrinkage=1


Tree=1
num_leaves=8
num_cat=0
split_feature=2 2 0 8 0 8 2
split_gain=1288.34 1283.79 395.502 150.481 154.564 147.145 150.757
threshold=4.5000000000000009 2.5000000000000004 5.5000000000000009 24.889999389648441 3.5000000000000004 55.664999008178718 3.5000000000000004
decision_type=2 2 2 2 2 2 2
left_child=1 -1 -2 -3 -5 -6 -7
right_child=2 3 -4 4 5 6 -8
leaf_value=-0.013670555787526184 0.047086291484449101 -0.011474878432145758 -0.030577342380758241 0.25135343650155817 0.098358232877612889 0.37817427430834089 0.15146207129254061
leaf_count=2234 1044 134 9880 121 1836 49 306
internal_value=0 0.434116 -0.192959 0.934654 0.994368 0.933606 1.52296
internal_count=15604 4680 10924 2446 2312 2191 355
shrinkage=0.12


Tree=2
num_leaves=8
num_cat=0
split_feature=2 2 8 2 8 7 7
split_gain=997.692 994.166 120.294 143.67 274.646 87.4432 276.783
threshold=4.5000000000000009 2.5000000000000004 34.194999694824226 3.5000000000000004 31.595000267028812 0.92500001192092907 0.86500000953674328
decision_type=2 2 2 2 2 2 2
left_child=1 -1 3 -3 -5 6 -4
right_child=-2 2 5 4 -6 -7 -8
leaf_value=-0.012030088553603675 -0.02037646788373966 0.024175141959341329 0.11421998643557389 0.54787021605864805 0.027462164763361212 0.023266895365939566 0.51633882410824294
leaf_count=2234 10924 458 1754 23 40 146 25
internal_value=0 0.382022 0.822496 0.396221 1.8121 0.937867 0.998924
internal_count=15604 4680 2446 521 63 1925 1779
shrinkage=0.12


Tree=3
num_leaves=8
num_cat=0
split_feature=2 2 0 0 8 0 8
split_gain=772.613 769.882 306.277 119.075 128.911 148.886 136.108
threshold=4.5000000000000009 2.5000000000000004 5.5000000000000009 3.5000000000000004 55.664999008178718 18.500000000000004 56.444999694824226
decision_type=2 2 2 2 2 2 2
left_child=1 -1 -2 -3 -5 6 -6
right_child=2 3 -4 4 5 -7 -8
leaf_value=-0.010586477960980995 0.043881111881513703 0.19860920072518862 -0.024462885816932206 0.068536972281338301 0.47023313095454461 -0.02018484450876713 0.15983350650179715
leaf_count=2234 1044 130 9880 1961 22 63 270
internal_value=0 0.33618 -0.149427 0.723796 0.671522 1.22602 1.52683
internal_count=15604 4680 10924 2446 2316 355 292
shrinkage=0.12


Tree=4
num_leaves=8
num_cat=0
split_feature=2 2 8 8 2 1 8
split_gain=598.311 596.197 97.7464 60.6198 115.015 447.653 160.919
threshold=4.5000000000000009 2.5000000000000004 24.889999389648441 55.664999008178718 3.5000000000000004 3.5000000000000004 63.07500076293946
decision_type=2 2 2 2 2 2 2
left_child=1 -1 -3 -4 5 -5 -6
right_child=-2 2 3 4 6 -7 -8
leaf_value=-0.0093161005277983717 -0.015779536785943217 -0.023209647553514189 0.07378121535447861 0.69992603480815885 0.17807368474787677 -0.029290786062677699 0.006254425311422015
leaf_count=2234 10924 134 1946 22 174 27 143
internal_value=0 0.295838 0.636941 0.685067 1.05844 2.48427 0.838044
internal_count=15604 4680 2446 2312 366 49 317
shrinkage=0.12


Tree=5
num_leaves=8
num_cat=0
split_feature=2 2 8 0 0 0 1
split_gain=515.354 531.804 774.484 298.834 260.399 224.359 286.277
threshold=4.5000000000000009 3.5000000000000004 66.354999542236342 19.500000000000004 5.5000000000000009 16.500000000000004 5.5000000000000009
decision_type=2 2 2 2 2 2 2
left_child=1 2 -1 5 -2 -3 -7
right_child=4 3 -4 -5 -6 6 -8
leaf_value=0.0051621698476178876 0.043006950357783437 0.10060339770297649 0.75407868415117263 -0.019004655440633254 -0.019523582955667664 0.18190124603795868 0.58345056683011354
leaf_count=3434 1063 836 20 246 9802 173 30
internal_value=0 0.283481 0.0791557 0.832696 -0.111715 1.06735 2.01036
internal_count=15604 4739 3454 1285 10865 1039 203
shrinkage=0.12


Tree=6
num_leaves=8
num_cat=0
split_feature=2 2 0 8 0 0 0
split_gain=399.09 431.649 201.653 166.719 231.829 125.722 125.212
threshold=4.5000000000000009 2.5000000000000004 5.5000000000000009 41.23500061035157 19.500000000000004 5.5000000000000009 16.500000000000004
decision_type=2 2 2 2 2 2 2
left_child=1 5 -2 -3 6 -1 -5
right_child=2 3 -4 4 -6 -7 -8
leaf_value=0.073228230087124577 0.037846115077315695 0.03213643707222108 -0.01718075170647828 0.095178616312869085 -0.014726261083198629 -0.017801907091771648 0.1922235375440928
leaf_count=245 1063 1188 9802 807 230 2018 251
internal_value=0 0.249464 -0.098309 0.537992 0.787204 -0.0662223 0.985013
internal_count=15604 4739 10865 2476 1288 2263 1058
shrinkage=0.12


Tree=7
num_leaves=8
num_cat=0
split_feature=2 2 8 0 8 0 8
split_gain=309.056 334.371 599.243 198.225 195.441 168.506 181.843
threshold=4.5000000000000009 3.5000000000000004 66.354999542236342 1.0000000180025095e-35 31.595000267028812 19.500000000000004 58.194999694824226
decision_type=2 2 2 2 2 2 2
left_child=1 2 3 -1 -3 6 -6
right_child=-2 4 -4 -5 5 -7 -8
leaf_value=0.12750501409471032 -0.01038143152944843 0.45079519879817964 0.66184937945008271 -0.003594144932895981 0.12160658115499826 -0.016419976473354348 0.0003475745449895444
leaf_count=175 10865 20 20 3259 789 246 230
internal_value=0 0.219528 0.0575107 0.0257233 0.65502 0.605983 0.785309
internal_count=15604 4739 3454 3434 1285 1265 1019
shrinkage=0.12


Tree=8
num_leaves=8
num_cat=0
split_feature=2 2 0 1 7 0 2
split_gain=239.333 291.593 156.16 99.1775 217.919 189.386 391.137
threshold=4.5000000000000009 2.5000000000000004 5.5000000000000009 4.5000000000000009 0.2950000017881394 9.5000000000000018 3.5000000000000004
decision_type=2 2 2 2 2 2 2
left_child=1 -1 -2 -3 -5 -6 -7
right_child=2 3 -4 4 5 6 -8
leaf_value=-0.007953626062824723 0.034550353820214041 0.035913839939867763 -0.013873288560779551 0.065116130298000729 0.015527477732726506 0.044602748680114747 0.68255582963266681
leaf_count=2263 1063 1733 9802 659 28 25 31
internal_value=0 0.193185 -0.0761305 0.430329 0.735987 2.25288 3.31463
internal_count=15604 4739 10865 2476 743 84 56
shrinkage=0.12


Tree=9
num_leaves=8
num_cat=0
split_feature=0 2 2 8 0 8 7
split_gain=193.754 157.83 285.417 479.809 168.876 191.173 234.175
threshold=5.5000000000000009 4.5000000000000009 3.5000000000000004 66.354999542236342 19.500000000000004 58.424999237060554 0.78499999642372142
decision_type=2 2 2 2 2 2 2
left_child=-1 2 3 -2 5 6 -4
right_child=1 -3 4 -5 -6 -7 -8
leaf_value=0.041021899016570391 -0.0073350524276298932 -0.01220849492712377 0.14888700451142153 0.58232909023761747 -0.022021417335220953 -0.0098792966687173221 -0.046991880599734852
leaf_count=1539 3083 9802 599 20 246 212 103
internal_value=0 -0.0318779 0.128751 -0.0294537 0.55195 0.749897 1.00122
internal_count=15604 14065 4263 3103 1160 914 702
shrinkage=0.12


Tree=10
num_leaves=8
num_cat=0
split_feature=2 2 7 7 0 2 0
split_gain=200.802 239.389 86.2035 112.621 85.2234 72.9042 171.114
threshold=4.5000000000000009 2.5000000000000004 0.92500001192092907 0.86500000953674328 5.5000000000000009 3.5000000000000004 19.500000000000004
decision_type=2 2 2 2 2 2 2
left_child=1 -1 3 5 -2 -3 -7
right_child=4 2 -4 -5 -6 6 -8
leaf_value=-0.0056436729686145477 0.025058643176691681 0.030139851354261241 -0.040002779285549316 0.31308317676186559 -0.010611983200079429 0.096512848452803834 -0.020842139796550165
leaf_count=2244 1069 1125 148 24 9866 905 223
internal_value=0 0.188357 0.406176 0.454244 -0.0593737 0.43129 0.610936
internal_count=15604 4669 2425 2277 10935 2253 1128
shrinkage=0.12


Tree=11
num_leaves=8
num_cat=0
split_feature=2 2 8 0 0 1 1
split_gain=155.501 185.383 92.4883 128.351 297.899 271.491 191.666
threshold=4.5000000000000009 2.5000000000000004 41.23500061035157 19.500000000000004 15.500000000000002 1.0000000180025095e-35 1.5000000000000002
decision_type=2 2 2 2 2 2 2
left_child=1 -1 -3 4 -4 -6 -7
right_child=-2 2 3 -5 5 6 -8
leaf_value=-0.0049664333574274645 -0.0062698601276622717 0.018439538225204291 0.039021911500430169 -0.017042640041659719 0.44732390855965409 -0.14352583710104228 0.16804024852899943
leaf_count=2244 10935 1161 707 224 46 32 255
internal_value=0 0.165754 0.357435 0.544602 0.692491 1.47233 1.11084
internal_count=15604 4669 2425 1264 1040 333 287
shrinkage=0.12


Tree=12
num_leaves=8
num_cat=0
split_feature=2 2 8 8 8 8 8
split_gain=120.42 143.56 81.7048 345.574 73.4832 63.8974 123.649
threshold=4.5000000000000009 2.5000000000000004 73.534999847412124 69.055000305175795 65.715000152587905 67.295001983642592 65.905002593994155
decision_type=2 2 2 2 2 2 2
left_child=1 4 3 5 -1 6 -3
right_child=-2 2 -4 -5 -6 -7 -8
leaf_value=-0.0023111997019472741 -0.0055174762847819284 0.034678354251815674 -0.15273320786654948 0.45201520467626638 -0.23336026525497436 -0.1595640353858471 0.33433621171116829
leaf_count=2224 10935 2320 32 29 20 24 20
internal_value=0 0.145864 0.314543 0.335769 -0.0364205 0.293679 0.310329
internal_count=15604 4669 2425 2393 2244 2364 2340
shrinkage=0.12


Tree=13
num_leaves=8
num_cat=0
split_feature=2 2 8 8 1 8 8
split_gain=93.2531 111.173 69.194 113.594 236.382 219.261 451.222
threshold=4.5000000000000009 2.5000000000000004 41.23500061035157 49.104999542236335 1.0000000180025095e-35 57.954999923706062 63.604999542236335
decision_type=2 2 2 2 2 2 2
left_child=1 -1 -3 -4 5 -5 -7
right_child=-2 2 3 4 -6 6 -8
leaf_value=-0.0038460053766475005 -0.0048553784428309998 0.012065389514623994 0.092021238967695304 0.023112436329223669 -0.007985622622385221 0.81311674319207661 0.04135710582137108
leaf_count=2244 10935 1161 575 49 596 20 24
internal_value=0 0.12836 0.276798 0.438688 0.164828 1.64762 3.26797
internal_count=15604 4669 2425 1264 689 93 44
shrinkage=0.12


Tree=14
num_leaves=8
num_cat=0
split_feature=0 1 2 7 8 2 8
split_gain=151.642 62.7138 163.57 291.696 179.291 60.1192 194.017
threshold=1.0000000180025095e-35 4.5000000000000009 11.500000000000002 0.11499999836087228 42.284999847412116 3.5000000000000004 40.98500061035157
decision_type=2 2 2 2 2 2 2
left_child=5 -2 -3 -4 -5 6 -1
right_child=1 2 3 4 -6 -7 -8
leaf_value=0.069180137891518445 -0.0065925345129212677 0.0037603144039333402 0.040510088273457118 0.18185149708309689 0.62779744863510134 0.034966314217675959 0.46676333677768705
leaf_count=152 10573 3920 280 37 20 602 20
internal_value=0 -0.0136745 0.08881 0.757351 2.81936 0.440357 0.961756
internal_count=15604 14830 4257 337 57 774 172
shrinkage=0.12


end of trees

feature importances:
Column_2=36
Column_8=29
Column_0=26
Column_1=7
Column_7=7

parameters:
[boosting: gbdt]
[objective: regression]
[metric: rmse]
[tree_learner: serial]
[device_type: cpu]
[data: ]
[valid: ]
[num_iterations: 100]
[learning_rate: 0.12]
[num_leaves: 8]
[num_threads: 0]
[max_depth: -1]
[min_data_in_leaf: 20]
[min_sum_hessian_in_leaf: 0.001]
[bagging_fraction: 0.8]
[bagging_freq: 5]
[bagging_seed: 3]
[feature_fraction: 0.9]
[feature_fraction_seed: 2]
[early_stopping_round: 0]
[max_delta_step: 0]
[lambda_l1: 0]
[lambda_l2: 0]
[min_gain_to_split: 0]
[drop_rate: 0.1]
[max_drop: 50]
[skip_drop: 0.5]
[xgboost_dart_mode: 0]
[uniform_drop: 0]
[drop_seed: 4]
[top_rate: 0.2]
[other_rate: 0.1]
[min_data_per_group: 100]
[max_cat_threshold: 32]
[cat_l2: 10]
[cat_smooth: 10]
[max_cat_to_onehot: 4]
[top_k: 20]
[monotone_constraints: ]
[feature_contri: ]
[forcedsplits_filename: ]
[refit_decay_rate: 0.9]
[verbosity: 0]
[max_bin: 255]
[min_data_in_bin: 3]
[bin_construct_sample_cnt: 200000]
[histogram_pool_size: -1]
[data_random_seed: 1]
[output_model: LightGBM_model.txt]
[snapshot_freq: -1]
[input_model: ]
[output_result: LightGBM_predict_result.txt]
[initscore_filename: ]
[valid_data_initscores: ]
[pre_partition: 0]
[enable_bundle: 1]
[max_conflict_rate: 0]
[is_enable_sparse: 1]
[sparse_threshold: 0.8]
[use_missing: 1]
[zero_as_missing: 0]
[two_round: 0]
[save_binary: 0]
[enable_load_from_binary_file: 1]
[header: 0]
[label_column: ]
[weight_column: ]
[group_column: ]
[ignore_column: ]
[categorical_feature: ]
[predict_raw_score: 0]
[predict_leaf_index: 0]
[predict_contrib: 0]
[num_iteration_predict: -1]
[pred_early_stop: 0]
[pred_early_stop_freq: 10]
[pred_early_stop_margin: 10]
[convert_model_language: ]
[convert_model: gbdt_prediction.cpp]
[num_class: 1]
[is_unbalance: 0]
[scale_pos_weight: 1]
[sigmoid: 1]
[boost_from_average: 1]
[reg_sqrt: 0]
[alpha: 0.9]
[fair_c: 1]
[poisson_max_delta_step: 0.7]
[tweedie_variance_power: 1.5]
[max_position: 20]
[label_gain: ]
[metric_freq: 1]
[is_provide_training_metric: 0]
[eval_at: ]
[num_machines: 1]
[local_listen_port: 12400]
[time_out: 120]
[machine_list_filename: ]
[machines: ]
[gpu_platform_id: -1]
[gpu_device_id: -1]
[gpu_use_dp: 0]

end of parameters

pandas_categorical:null
