tree
version=v2
num_class=1
num_tree_per_iteration=1
label_index=0
max_feature_idx=7
objective=regression
feature_names=Column_0 Column_1 Column_2 Column_3 Column_4 Column_5 Column_6 Column_7
feature_infos=[0:23] [0:6] [1:12] [0:2] [0:1] [0:1] [0:1] [-3.869999885559082:95.75]
tree_sizes=2995 3059 3069 3076 3064 3067 3072 3069 3078 3069 3063 3075 3086 3077 3084 3074 3085 3079 3073 3112 3064 3091 3095 3095 3083 3116 3089 3106

Tree=0
num_leaves=40
num_cat=0
split_feature=2 2 0 7 0 0 0 1 4 1 7 0 6 1 7 7 0 7 1 1 6 2 0 2 7 7 1 7 7 7 7 1 0 6 6 1 2 7 1
split_gain=20056.9 20187.2 6574.3 2994.6 4084.83 1561.85 2495.78 2641.33 5288.28 2548.52 7991.63 2290.29 1932.29 2337.88 1918.01 1625.9 1490.13 1320.72 2240.68 1392.58 1237.53 1334.66 1223.16 1196.28 2227.72 1171.5 1143.42 1104.69 999.021 926.205 1435.29 1511.31 823.625 774.154 871.63 1127.66 639.168 631.383 712.346
threshold=4.5000000000000009 2.5000000000000004 5.5000000000000009 41.23500061035157 19.500000000000004 15.500000000000002 11.500000000000002 2.5000000000000004 1.0000000180025095e-35 1.5000000000000002 49.104999542236335 10.500000000000002 0.085000000894069686 3.5000000000000004 50.805000305175788 45.254999160766609 5.5000000000000009 56.940000534057624 4.5000000000000009 3.5000000000000004 0.89499998092651378 3.5000000000000004 17.500000000000004 3.5000000000000004 31.595000267028812 48.655000686645515 1.5000000000000002 42.805000305175788 27.144999504089359 46.065000534057624 49.385000228881843 2.5000000000000004 3.5000000000000004 0.79500001668930065 0.30500000715255743 3.5000000000000004 3.5000000000000004 69.625000000000014 4.5000000000000009
decision_type=2 2 2 2 2 2 2 2 2 2 2 2 2 2 2 2 2 2 2 2 2 2 2 2 2 2 2 2 2 2 2 2 2 2 2 2 2 2 2
left_child=1 16 -2 23 5 6 7 8 9 11 -11 14 37 -14 15 -5 -1 18 20 -19 21 -7 -21 28 -25 -20 -26 -9 -3 -23 -31 -32 -30 34 35 -28 -6 38 -8
right_child=2 3 -4 4 36 17 12 27 -10 10 -12 -13 13 -15 -16 -17 -18 19 25 22 -22 29 -24 24 26 -27 33 -29 32 30 31 -33 -34 -35 -36 -37 -38 -39 -40
leaf_value=2.1598055662373685 2.1455241254939614 2.0627279415778181 2.0284327578267956 2.7853037096914708 2.2676088943827444 2.0770416660316116 2.0746941478569911 2.5548784872352774 2.0400467823235084 3.6512128207848615 2.3318946152320654 2.0343946079925845 2.1229660348184485 2.7532655929020997 2.9847792391323122 2.2193946056332337 2.0404250814077902 2.7220261990713279 2.7693946099669882 2.5668305170953269 2.6068946185848265 2.1064913821452746 2.1336803230340005 2.684911856866151 2.1045185748195876 2.356061278161024 2.4350196106002877 2.2407487747689401 2.3900467819995699 2.702727954364434 2.6093946222976991 2.0553321073313455 2.1727398888463245 2.0974433886130459 2.6408232011803991 2.1756446067090525 2.0794804443361476 2.374950168435169 2.2461803218099763
leaf_count=292 1328 210 12320 22 56 85 217 31 46 22 24 20 28 31 26 30 2494 57 40 39 24 31 28 29 121 30 80 288 46 30 20 32 837 41 21 88 233 27 84
internal_value=0 1.54743 -0.664416 3.3144 4.26112 5.01079 4.26735 5.72263 8.67432 11.6561 17.7965 8.77389 2.35331 7.62187 11.2218 7.71541 -0.402193 6.61205 5.45093 9.34631 3.89542 3.07342 6.25531 2.28541 3.8138 10.3841 3.11784 3.96457 1.75403 5.32518 7.08549 3.90772 2.22027 4.42695 5.28145 4.52219 0.857749 1.40561 0.990076
internal_count=19508 5860 13648 3074 1601 1312 896 509 190 144 46 98 387 59 78 52 2786 416 292 124 222 198 67 1473 380 70 351 319 1093 113 82 52 883 230 189 168 289 328 301
shrinkage=1


Tree=1
num_leaves=40
num_cat=0
split_feature=2 2 0 7 0 0 7 1 0 1 1 4 1 7 0 0 7 7 2 1 1 0 6 2 2 7 1 7 7 7 7 7 0 6 6 1 2 1 7
split_gain=18101.4 18219 5933.31 2702.62 3686.56 1428.31 1939.74 2312.53 1628.68 2550.68 2383.8 4772.68 2300.04 7212.44 2066.98 1845.28 2356.76 1730.27 1992.49 1851.45 1522.93 1344.84 1331.95 1089.58 1079.65 2010.51 1031.94 996.985 901.617 780.637 2288.89 764.184 743.322 698.674 786.646 1017.72 576.849 512.296 437.607
threshold=4.5000000000000009 2.5000000000000004 5.5000000000000009 41.23500061035157 19.500000000000004 16.500000000000004 56.940000534057624 3.5000000000000004 11.500000000000002 4.5000000000000009 2.5000000000000004 1.0000000180025095e-35 1.5000000000000002 49.104999542236335 10.500000000000002 5.5000000000000009 50.495000839233406 63.07500076293946 3.5000000000000004 5.5000000000000009 5.5000000000000009 5.5000000000000009 0.80500000715255748 3.5000000000000004 3.5000000000000004 31.595000267028812 1.5000000000000002 42.805000305175788 27.144999504089359 50.225000381469734 48.094999313354499 69.424999237060561 3.5000000000000004 0.79500001668930065 0.30500000715255743 3.5000000000000004 3.5000000000000004 2.5000000000000004 46.065000534057624
decision_type=2 2 2 2 2 2 2 2 2 2 2 2 2 2 2 2 2 2 2 2 2 2 2 2 2 2 2 2 2 2 2 2 2 2 2 2 2 2 2
left_child=1 21 -2 24 5 8 20 -8 10 31 11 12 14 -14 15 -5 -17 18 -11 -20 22 -1 23 -7 28 -26 -27 -12 -3 30 37 -10 -30 34 35 -28 -6 -25 -29
right_child=2 3 -4 4 36 6 7 -9 9 17 27 -13 13 -15 -16 16 -18 -19 19 -21 -22 -23 -24 29 25 26 33 38 32 -31 -32 -33 -34 -35 -36 -37 -38 -39 -40
leaf_value=0.082420681115903283 0.068853314616997924 -0.0098030633763188414 -0.04238349064845931 0.11889171808958054 0.18483384102582934 0.01420960093641447 0.80536209711941287 0.28624536057313282 0.050427510379453193 0.1506777995753856 0.45773994730364892 -0.031350163111220235 1.4992575111714277 0.24590526974449556 -0.03671972770243883 0.44461938976065113 1.1151745527982713 0.042953511895168398 0.84125738497291302 0.31505276826210321 0.62193027555942537 -0.03099078030468121 0.59465730147436258 -0.0043184237820761548 0.58127165107891476 0.029898036536106395 0.34387402303516867 0.040421576284971394 0.30114983106436943 0.091966985086910424 0.81844875708222387 0.36892034918069844 0.094708284276360688 0.023176611287564767 0.53938740995668233 0.0974677702750672 0.0061118156837035656 0.3306700555831194 0.19126652448975567
leaf_count=292 1328 210 12320 20 56 72 41 45 323 42 31 46 22 24 20 38 20 42 35 32 25 2494 20 21 29 121 80 61 46 40 20 20 837 41 21 88 233 25 227
internal_value=0 1.47006 -0.631195 3.14868 4.04806 4.76025 6.64007 10.6746 4.18113 2.88764 5.4365 8.24061 11.0733 16.9067 8.3352 10.6607 13.5169 6.31235 8.41361 11.7987 5.08414 -0.382083 4.15555 3.28616 2.17113 3.62311 2.96194 3.76634 1.66633 5.32523 7.43789 1.37997 2.10926 4.20561 5.01738 4.29608 0.814861 3.55481 3.18633
internal_count=19508 5860 13648 3074 1601 1312 309 86 1003 494 509 190 144 46 98 78 58 151 109 67 223 2786 198 178 1473 380 351 319 1093 106 66 343 883 230 189 168 289 46 288
shrinkage=0.05


Tree=2
num_leaves=40
num_cat=0
split_feature=2 2 0 7 0 0 0 1 4 1 7 0 6 1 0 7 0 1 1 7 1 7 2 7 1 0 7 2 7 7 7 2 7 0 1 7 2 1 1
split_gain=16336.5 16442.6 5354.81 2439.12 3327.12 1324.43 2075.3 2151.38 4307.34 2075.78 6509.23 1865.45 1711.85 2017.64 1665.36 2126.97 1213.72 1136.03 1973.1 1850.89 2287.19 1596.35 974.381 1814.49 971.688 1653.43 909.124 907.785 1197.73 2488.19 899.779 858.366 813.709 670.848 560.923 872.831 520.606 497.257 760.347
threshold=4.5000000000000009 2.5000000000000004 5.5000000000000009 41.23500061035157 19.500000000000004 15.500000000000002 11.500000000000002 2.5000000000000004 1.0000000180025095e-35 1.5000000000000002 49.104999542236335 10.500000000000002 0.085000000894069686 3.5000000000000004 5.5000000000000009 50.495000839233406 5.5000000000000009 1.0000000180025095e-35 1.5000000000000002 66.575000762939467 4.5000000000000009 52.609998703002937 3.5000000000000004 31.595000267028812 5.5000000000000009 10.500000000000002 57.43499946594239 3.5000000000000004 51.784999847412116 46.065000534057624 42.805000305175788 3.5000000000000004 27.144999504089359 3.5000000000000004 1.5000000000000002 69.055000305175795 3.5000000000000004 1.5000000000000002 3.5000000000000004
decision_type=2 2 2 2 2 2 2 2 2 2 2 2 2 2 2 2 2 2 2 2 2 2 2 2 2 2 2 2 2 2 2 2 2 2 2 2 2 2 2
left_child=1 16 -2 22 5 6 7 8 9 11 -11 14 34 -14 -5 -16 -1 21 -19 20 27 -7 32 -24 37 -26 31 -20 29 -29 -9 -22 -3 -34 -8 -36 -6 -25 -39
right_child=2 3 -4 4 36 17 12 30 -10 10 -12 -13 13 -15 15 -17 -18 18 19 -21 26 -23 23 24 25 -27 -28 28 -30 -31 -32 -33 33 -35 35 -37 -38 38 -40
leaf_value=0.078299644507773936 0.065410646944340456 -0.0093129112979485878 -0.040264314831440134 0.11294713258743286 0.17559214891599759 0.29564574286341666 -0.051427053216667407 0.43485294632283189 -0.029782656033563878 1.4242947025393899 0.23360999816407763 -0.03488374261476565 0.044901751301118308 0.63044323403268088 0.42238842550861211 1.059415720049292 -0.029441240137336896 -0.052200136316377072 0.0060139976564000872 0.68952222363702187 0.30668358582517374 0.81651873135318365 0.55220805755976976 0.0284031375380587 0.020435292341492394 0.5996738425855126 0.23329134155665676 0.0099919000864028933 0.077800871118118897 0.65570040835520704 0.15135089587420225 0.67817672143379859 0.28609234723060029 0.089972872147280974 0.070119806678433511 0.41485917270183564 0.0058062242623818285 0.24832849781056054 0.040622847217631035
leaf_count=292 1328 210 12320 20 56 38 84 31 46 22 24 20 28 31 38 20 2494 43 61 29 23 24 29 121 22 28 31 25 57 37 288 48 46 837 224 20 233 103 77
internal_value=0 1.39656 -0.599635 2.99124 3.84566 4.52224 3.83764 5.16467 7.82858 10.5196 16.0614 7.91844 2.09226 7.05118 10.1277 12.8411 -0.362979 5.99678 5.3052 6.18306 5.40074 9.94548 2.06258 3.44195 2.81385 6.89618 9.18397 3.25691 4.86477 7.90668 3.57803 11.1567 1.58302 2.00379 1.20025 1.96754 0.774118 2.13572 3.18953
internal_count=19508 5860 13648 3074 1601 1312 896 509 190 144 46 98 387 59 78 58 2786 416 354 311 282 62 1473 380 351 50 102 180 119 62 319 71 1093 883 328 244 289 301 180
shrinkage=0.05


Tree=3
num_leaves=40
num_cat=0
split_feature=2 2 0 7 0 0 0 1 4 0 7 0 6 1 0 1 1 7 1 7 2 7 1 0 7 0 2 7 7 7 7 0 2 7 7 2 4 1 1
split_gain=14743.7 14839.5 4832.71 2201.3 3002.72 1195.3 1872.96 1941.62 3887.37 1910.2 3858.07 3113.39 1544.94 1820.92 1129.68 1025.27 1780.72 1670.43 2064.19 1440.7 879.379 1637.58 876.949 1492.22 846.837 1290.23 819.276 1080.95 2245.59 812.051 734.372 605.44 542.711 4400.59 540.89 469.847 459.537 716.752 958.286
threshold=4.5000000000000009 2.5000000000000004 5.5000000000000009 41.23500061035157 19.500000000000004 15.500000000000002 11.500000000000002 2.5000000000000004 1.0000000180025095e-35 10.500000000000002 45.254999160766609 7.5000000000000009 0.085000000894069686 3.5000000000000004 1.0000000180025095e-35 1.0000000180025095e-35 1.5000000000000002 66.575000762939467 4.5000000000000009 52.609998703002937 3.5000000000000004 31.595000267028812 5.5000000000000009 10.500000000000002 48.655000686645515 17.500000000000004 3.5000000000000004 51.784999847412116 46.065000534057624 42.805000305175788 27.144999504089359 3.5000000000000004 3.5000000000000004 54.944999694824226 51.545000076293952 3.5000000000000004 1.0000000180025095e-35 1.5000000000000002 3.5000000000000004
decision_type=2 2 2 2 2 2 2 2 2 2 2 2 2 2 2 2 2 2 2 2 2 2 2 2 2 2 2 2 2 2 2 2 2 2 2 2 2 2 2
left_child=1 14 -2 20 5 6 7 8 9 10 -5 -12 32 -14 -1 19 -17 18 26 -7 30 -22 36 -24 -20 -26 -18 28 -28 -9 -3 -32 33 -8 -13 -6 37 -23 -39
right_child=2 3 -4 4 35 15 12 29 -10 -11 11 34 13 -15 -16 16 17 -19 24 -21 21 22 23 -25 25 -27 27 -29 -30 -31 31 -33 -34 -35 -36 -37 -38 38 -40
leaf_value=0.11963803951556867 0.062140115352729001 -0.0088472657384616998 -0.038251097532255307 1.0922953175701973 0.16681253952639444 0.28086346355174963 -0.0060647389275974104 0.41311029772604668 -0.028293525913487313 0.15199763095907626 0.1116658087365511 0.89389802879569213 0.042656664576913632 0.59892105806258422 -0.024647391219900002 -0.04959012845227885 0.0057132999427983028 0.65504613318319982 0.61560266078449788 0.77569281154622638 0.52459767029203219 0.034027683591268149 0.019413527304475958 0.56969016620091029 0.55609123187760512 0.099671298917382967 0.0094923037290573133 0.073910831908384961 0.62291538747581277 0.14378334613413446 0.2717877245467642 0.085474226501822625 0.011325752499316812 0.79860413606677749 0.53913555017539438 0.005515911621980913 0.015790046425988375 0.33021784249301023 0.025338880717754364
leaf_count=143 1328 210 12320 29 56 38 89 31 46 31 41 22 28 31 2643 43 61 29 40 24 29 83 22 28 30 32 25 57 37 288 46 837 218 21 21 233 103 76 39
internal_value=0 1.32673 -0.569653 2.84168 3.65338 4.29613 3.64575 4.90644 7.43715 9.99367 11.9013 8.46807 1.98764 6.69862 -0.34483 5.69694 5.03994 5.87391 5.1307 9.44821 1.95945 3.26985 2.67315 6.55137 8.72477 6.41039 3.09407 4.62153 7.51135 3.39912 1.50387 1.90361 1.14024 2.95108 14.4128 0.735412 2.02893 2.92011 4.53648
internal_count=19508 5860 13648 3074 1601 1312 896 509 190 144 113 84 387 59 2786 416 354 311 282 62 1473 380 351 50 102 62 180 119 62 319 1093 883 328 110 43 289 301 198 115
shrinkage=0.05


Tree=4
num_leaves=40
num_cat=0
split_feature=2 2 0 7 0 0 1 7 1 0 1 1 4 1 7 7 2 1 0 0 0 5 2 0 7 7 7 7 0 1 7 7 1 0 1 1 2 7 7
split_gain=13306.2 13392.6 4361.52 1986.68 2709.96 1105.73 1657.52 2734.72 2091.14 1226.38 1993.12 1752.31 3508.36 1911.14 5745.89 1553.82 1713.01 1703.43 1537.06 1950.76 1021.07 818.946 1136.01 889.615 758.774 732.876 730.757 657.03 584.083 677.804 610.252 709.931 1674.85 1401.64 557.898 522.802 492.897 851.677 1988.43
threshold=4.5000000000000009 2.5000000000000004 5.5000000000000009 41.23500061035157 19.500000000000004 16.500000000000004 1.0000000180025095e-35 66.575000762939467 5.5000000000000009 11.500000000000002 4.5000000000000009 2.5000000000000004 1.0000000180025095e-35 1.5000000000000002 49.104999542236335 63.07500076293946 3.5000000000000004 5.5000000000000009 9.5000000000000018 5.5000000000000009 5.5000000000000009 1.0000000180025095e-35 3.5000000000000004 3.5000000000000004 52.354999542236335 42.805000305175788 30.105000495910648 60.614999771118171 17.500000000000004 1.5000000000000002 39.135000228881843 35.23500061035157 5.5000000000000009 21.500000000000004 1.5000000000000002 3.5000000000000004 3.5000000000000004 49.954999923706062 48.094999313354499
decision_type=2 2 2 2 2 2 2 2 2 2 2 2 2 2 2 2 2 2 2 2 2 2 2 2 2 2 2 2 2 2 2 2 2 2 2 2 2 2 2
left_child=1 20 -2 21 5 9 24 8 36 11 27 12 13 18 -15 16 -12 -18 19 -5 -1 23 35 -3 -7 -13 -25 -11 -28 -30 31 -31 33 -33 -29 -23 -8 38 -38
right_child=2 3 -4 4 -6 6 7 -9 -10 10 15 25 -14 14 -16 -17 17 -19 -20 -21 -22 22 -24 26 -26 -27 28 34 29 30 -32 32 -34 -35 -36 -37 37 -39 -40
leaf_value=0.072084019225958279 0.059033107322203106 0.24072751846299112 -0.036338544372807854 0.094361767172813416 0.034932094157567074 0.38555813683913304 0.016509256625602788 0.75915777812833374 0.53975544563598099 0.023005502514591044 0.12304507831022854 0.3924547914055086 -0.026878847274929285 1.3242345306006345 0.2055422921665013 0.015447879511685598 0.77139895762716026 0.26666738111525773 0.09003874576754041 0.69433019767914506 -0.026736809269531831 0.22770589090883733 0.55310937428758267 0.0018793986124150893 0.79519919931888583 0.13659417894151477 0.064384490727454197 0.035366688748555523 0.051757231984681233 0.12882320935457525 0.053234124432007472 0.6952847264281341 0.026133990339164078 0.21580659691934234 0.33480304064495225 -0.021832150893826639 0.12927450242897739 0.059882643754993171 0.72645243018865591
leaf_count=292 1328 83 12320 20 289 26 68 23 36 280 42 31 46 22 24 42 35 32 36 42 2494 65 21 289 20 288 645 28 123 71 54 35 29 27 35 31 46 70 20
internal_value=0 1.26039 -0.541171 2.6996 3.47071 4.08132 5.7353 4.76669 3.76844 3.57177 2.44935 4.66112 7.06529 9.49398 14.8114 5.47669 7.46793 10.6067 6.99806 10.0158 -0.327588 1.86148 4.39989 1.64245 11.2733 3.22917 1.43563 1.11661 1.84624 2.90896 3.97599 4.94643 6.79552 9.72959 4.0344 2.94252 2.52844 3.62757 6.20475
internal_count=19508 5860 13648 3074 1601 1312 309 263 240 1003 494 509 190 144 46 151 109 67 98 62 2786 1473 117 1356 46 319 1273 343 984 339 216 162 91 62 63 96 204 136 66
shrinkage=0.05


Tree=5
num_leaves=40
num_cat=0
split_feature=2 2 0 7 0 7 7 1 0 1 0 6 1 7 0 7 7 0 1 7 7 0 2 0 7 2 1 0 7 0 7 7 1 7 7 7 7 0 7
split_gain=12008.8 12086.8 3936.28 1792.98 2445.74 1107.17 1324.69 1855.38 951.36 846.458 1916.2 2538.35 3902.25 3094.14 3441.69 1692.31 3646.52 1649.94 2894.11 1302.97 1391.6 1003.6 979.756 771.108 1524.86 764.87 1501.82 2100.05 1056.3 721.177 670.565 611.511 572.496 1102.78 1899.34 535.959 667.747 1919.79 562.305
threshold=4.5000000000000009 2.5000000000000004 5.5000000000000009 41.23500061035157 19.500000000000004 76.770000457763686 69.055000305175795 3.5000000000000004 1.0000000180025095e-35 4.5000000000000009 10.500000000000002 0.13499999791383746 2.5000000000000004 45.254999160766609 7.5000000000000009 57.954999923706062 55.43499946594239 16.500000000000004 1.0000000180025095e-35 47.085000991821296 46.065000534057624 10.500000000000002 3.5000000000000004 7.5000000000000009 48.655000686645515 3.5000000000000004 5.5000000000000009 10.500000000000002 31.064999580383304 16.500000000000004 59.454999923706062 27.144999504089359 2.5000000000000004 49.664999008178718 46.065000534057624 47.565000534057624 52.354999542236335 12.500000000000002 51.014999389648445
decision_type=2 2 2 2 2 2 2 2 2 2 2 2 2 2 2 2 2 2 2 2 2 2 2 2 2 2 2 2 2 2 2 2 2 2 2 2 2 2 2
left_child=1 8 -2 25 5 6 9 -8 -1 10 11 12 13 -5 -15 16 19 35 -19 20 21 -11 -23 -14 -25 31 28 -28 -27 -21 32 -3 -20 34 -34 -12 37 -37 -39
right_child=2 3 -4 4 -6 -7 7 -9 -10 15 17 -13 23 14 -16 -17 -18 18 30 29 -22 22 -24 24 -26 26 27 -29 -30 -31 -32 -33 33 -35 -36 36 -38 38 -40
leaf_value=0.11005193723456844 0.056081450757492025 -0.0095132019406273249 -0.034521616379936025 1.0015906965424275 0.033185487111650126 -0.12300635038150683 0.81046363555249712 0.17295520946383477 -0.022356733868220652 0.085984103067925102 -0.031450989859220679 -0.023446243477322288 0.019620936463276548 0.084577879966014916 0.73262776345014569 0.086838011415499572 0.81496532331361926 0.58998350161885804 -0.019105315098568099 0.061856283284290582 0.7353085133291426 0.25259542183743583 0.67036778979489342 0.59281712776940798 0.074380383056563304 0.46159076124429704 0.050455372532208768 0.68274821073844516 0.086571090498556935 0.39519042162224655 0.40201628878712659 0.085414363991464931 0.032708751467558056 -0.040302102443049936 0.6495364882051945 0.56399783417582516 0.030709743466494341 -0.05953817591071129 0.25517173500900919
leaf_count=143 1328 210 12320 29 289 27 21 25 2643 38 133 59 60 42 40 106 33 43 64 86 21 36 23 23 37 20 24 29 307 20 20 883 26 34 24 26 154 40 22
internal_value=0 1.19737 -0.514112 2.56462 3.29717 3.87726 4.01042 9.27983 -0.311209 3.81478 3.28271 5.38512 6.88031 11.1538 8.014 5.09878 6.48545 2.24227 4.47923 5.03966 7.32555 5.72769 8.30912 2.92735 5.46229 1.7684 2.99051 7.92854 2.19016 2.49499 2.60555 1.34352 1.87112 3.58786 6.57572 0.983601 1.86988 4.06732 1.04266
internal_count=19508 5860 13648 3074 1601 1312 1285 46 2786 1239 876 290 231 111 82 363 257 586 211 224 118 97 59 120 60 1473 380 53 327 106 168 1093 148 84 50 375 242 88 62
shrinkage=0.05


Tree=6
num_leaves=40
num_cat=0
split_feature=2 2 0 7 0 7 7 1 0 1 0 6 1 7 0 6 0 0 1 7 2 5 2 0 0 7 7 7 1 1 7 7 0 1 7 7 1 0 7
split_gain=10837.9 10908.4 3552.49 1618.16 2207.28 999.221 1195.53 1674.48 858.964 763.928 1729.37 2290.86 3521.78 2792.46 3106.13 1611.39 1683.63 1489.07 2611.94 1049.67 740.933 735.446 1007.64 810.998 695.925 1376.19 613.635 605.185 521.823 516.677 995.261 1714.15 513.721 591.398 549.722 656.559 1540.05 1265.04 494.662
threshold=4.5000000000000009 2.5000000000000004 5.5000000000000009 41.23500061035157 19.500000000000004 76.770000457763686 69.055000305175795 3.5000000000000004 5.5000000000000009 4.5000000000000009 10.500000000000002 0.13499999791383746 2.5000000000000004 45.254999160766609 7.5000000000000009 0.35500000417232519 15.500000000000002 16.500000000000004 1.0000000180025095e-35 57.43499946594239 3.5000000000000004 1.0000000180025095e-35 3.5000000000000004 3.5000000000000004 7.5000000000000009 48.655000686645515 30.105000495910648 59.454999923706062 5.5000000000000009 2.5000000000000004 49.664999008178718 46.065000534057624 17.500000000000004 1.5000000000000002 39.135000228881843 35.23500061035157 5.5000000000000009 21.500000000000004 48.354999542236335
decision_type=2 2 2 2 2 2 2 2 2 2 2 2 2 2 2 2 2 2 2 2 2 2 2 2 2 2 2 2 2 2 2 2 2 2 2 2 2 2 2
left_child=1 8 -2 21 5 6 9 -8 -1 10 11 12 13 -5 -15 16 28 -12 -19 20 -18 23 -23 -3 -14 -26 -25 29 -11 -20 31 -31 -28 -34 35 -35 37 -37 -22
right_child=2 3 -4 4 -6 -7 7 -9 -10 15 17 -13 24 14 -16 -17 19 18 27 -21 38 22 -24 26 25 -27 32 -29 -30 30 -32 -33 33 34 -36 36 -38 -39 -40
leaf_value=0.066355453600009828 0.053277381763131508 0.2250559310776642 -0.032795536472619354 0.95151116642458688 0.031526213293978915 -0.11685603316183445 0.76994045646417719 0.16430744122713806 -0.024282133683663852 0.20328551576518589 0.046721034692476196 -0.022273931046158581 0.018639890147993964 0.080348987451621473 0.69599638178944589 0.55968909160130564 0.25374865450642331 0.56048433863839442 -0.018150048686948139 0.15679632621920772 0.44567993101866349 0.13564720525561522 0.51800603078944352 -0.00030822053448551672 0.56317627365174505 0.070661357442873551 0.056369631985823315 0.38191545933485033 0.050503988959173733 0.031073312633312668 -0.038286996545160518 0.61705967138210938 0.044878432881541371 0.11432459047982391 0.044071143727611617 0.65623818618910656 0.016437026806946458 0.20072412054847788 0.77731093557720843
leaf_count=292 1328 83 12320 29 289 27 21 25 2494 117 375 59 60 42 40 36 22 43 64 36 23 96 21 289 23 37 645 20 107 26 34 24 123 71 54 35 29 27 22
internal_value=0 1.1375 -0.488407 2.43639 3.13231 3.68339 3.8099 8.81584 -0.295649 3.62404 3.11858 5.11587 6.5363 10.5961 7.6133 4.84384 4.14477 2.13015 4.25527 7.49099 9.83103 1.67998 4.08551 1.47243 2.78099 5.18917 1.27495 2.47527 2.6061 1.77756 3.40847 6.24694 1.65122 2.64788 3.64458 4.56563 6.34386 9.15738 12.1562
internal_count=19508 5860 13648 3074 1601 1312 1285 46 2786 1239 876 290 231 111 82 363 327 586 211 103 67 1473 117 1356 120 60 1273 168 224 148 84 50 984 339 216 162 91 62 45
shrinkage=0.05


Tree=7
num_leaves=40
num_cat=0
split_feature=2 2 0 7 0 7 0 7 0 6 1 1 4 1 7 7 0 1 7 6 1 0 2 0 7 2 7 1 0 7 7 7 0 1 7 4 1 1 0
split_gain=9781.25 9844.8 3206.12 1460.39 1992.07 901.797 1088.39 1614.05 1209.57 1261.9 1454.6 1225.82 2576.79 1798.69 5062.25 1603.27 1701.45 1018.51 1117.85 975.19 916.62 1171.07 865.729 801.215 738.546 665.362 1420.95 698.877 1189.85 633.386 599.864 1099.45 539.651 492.022 491.988 475.06 627.833 846.406 473.871
threshold=4.5000000000000009 2.5000000000000004 5.5000000000000009 41.23500061035157 19.500000000000004 76.770000457763686 15.500000000000002 56.940000534057624 11.500000000000002 0.085000000894069686 2.5000000000000004 2.5000000000000004 1.0000000180025095e-35 1.5000000000000002 49.104999542236335 55.664999008178718 9.5000000000000018 4.5000000000000009 48.655000686645515 0.89499998092651378 3.5000000000000004 17.500000000000004 3.5000000000000004 1.0000000180025095e-35 69.055000305175795 3.5000000000000004 31.595000267028812 5.5000000000000009 10.500000000000002 42.805000305175788 46.065000534057624 52.82500076293946 3.5000000000000004 1.0000000180025095e-35 27.144999504089359 1.0000000180025095e-35 1.5000000000000002 3.5000000000000004 6.5000000000000009
decision_type=2 2 2 2 2 2 2 2 2 2 2 2 2 2 2 2 2 2 2 2 2 2 2 2 2 2 2 2 2 2 2 2 2 2 2 2 2 2 2
left_child=1 23 -2 25 5 6 8 17 11 24 -11 12 13 15 -15 16 33 19 -19 22 -9 -22 -8 -1 -10 32 -27 35 -29 -13 -24 -32 -3 -5 -34 36 -28 38 -38
right_child=2 3 -4 4 -6 -7 7 20 9 10 -12 29 -14 14 -16 -17 -18 18 -20 -21 21 -23 30 -25 -26 26 27 28 -30 -31 31 -33 34 -35 -36 -37 37 -39 -40
leaf_value=0.10123156847862097 0.050613510093640492 0.20449270752609752 -0.031155759005674296 0.20401255605476246 0.029949900248832359 -0.11101323338570419 -0.021791963029433703 0.5648365234580035 0.02178286409731639 -0.0057308323060472812 0.49966094916420323 0.35487338020916909 -0.025105054741320406 1.2105275598439305 0.16049222629517318 0.68307058170437818 -0.14897534921765329 0.52701372459530826 0.12325737396876019 0.4362392303844293 0.46450009440784074 0.0083259386320908863 0.0020700432360172272 -0.020280277413730816 0.32867214651334858 0.47316574942449052 0.020747655217187952 0.0069383056326345963 0.49831093092049872 0.11697261577546321 0.37457646603806549 -0.032968549883883931 -0.020080963615805678 0.51252969503402712 0.068106546664439147 -0.0068468576351415761 0.13941650822244842 0.011830676012696365 0.39643172204811528
leaf_count=143 1328 61 12320 28 289 27 85 52 295 24 35 31 46 22 24 20 26 40 30 24 34 24 31 2643 21 29 83 22 28 287 59 23 195 24 837 103 29 39 47
internal_value=0 1.08063 -0.463986 2.31457 2.9757 3.49922 3.6194 4.98338 2.99843 1.63619 5.88156 4.00401 6.01365 8.09507 13.2537 5.6737 3.62557 3.75353 7.07951 2.7048 8.24806 5.51477 1.97511 -0.280866 0.843548 1.59598 2.73583 2.18 5.64214 2.80328 3.78866 5.2053 1.1997 6.9281 1.02886 1.60489 2.51099 4.02379 5.9672
internal_count=19508 5860 13648 3074 1601 1312 1285 402 883 375 59 508 190 144 46 98 78 292 70 222 110 58 198 2786 316 1473 380 351 50 318 113 82 1093 52 1032 301 198 115 76
shrinkage=0.05


Tree=8
num_leaves=40
num_cat=0
split_feature=2 2 0 7 0 7 7 1 0 7 1 7 1 0 7 1 6 0 0 7 1 5 1 0 7 7 1 1 6 2 7 7 7 0 1 7 7 0 1
split_gain=8827.58 8884.93 2893.52 1318 1797.84 813.872 985.569 1463.13 723.097 705.839 763.828 1762.11 6937.13 1527.46 1912.72 1937.47 1453.29 1487.5 1415.21 686.425 693.831 669.622 922.391 691.295 629.582 730.769 2904.21 906.706 2040.81 1365.74 2181.54 2054.87 513.743 484.773 468.099 460.503 616.549 436.686 1073.47
threshold=4.5000000000000009 2.5000000000000004 5.5000000000000009 41.23500061035157 19.500000000000004 76.770000457763686 69.055000305175795 3.5000000000000004 1.0000000180025095e-35 67.295001983642592 4.5000000000000009 57.954999923706062 1.0000000180025095e-35 8.5000000000000018 44.895000457763679 2.5000000000000004 0.35500000417232519 15.500000000000002 7.5000000000000009 57.43499946594239 5.5000000000000009 1.0000000180025095e-35 1.5000000000000002 3.5000000000000004 52.82500076293946 51.545000076293952 2.5000000000000004 2.5000000000000004 0.89499998092651378 3.5000000000000004 46.065000534057624 48.354999542236335 30.105000495910648 10.500000000000002 5.5000000000000009 37.274999618530281 34.194999694824226 18.500000000000004 2.5000000000000004
decision_type=2 2 2 2 2 2 2 2 2 2 2 2 2 2 2 2 2 2 2 2 2 2 2 2 2 2 2 2 2 2 2 2 2 2 2 2 2 2 2
left_child=1 8 -2 21 5 6 9 -8 -1 10 11 13 -13 14 15 -5 17 34 -16 20 -19 23 -23 -3 25 27 -27 28 33 -29 -31 -32 -25 -15 -12 36 -34 -38 -39
right_child=2 3 -4 4 -6 -7 7 -9 -10 -11 16 12 -14 24 18 -17 -18 19 -20 -21 -22 22 -24 32 -26 26 -28 29 -30 30 31 -33 35 -35 -36 -37 37 38 -40
leaf_value=0.096169991212916542 0.048082835929670248 0.20571954154173833 -0.029597969830713489 0.76829261882551791 0.028452405321917736 -0.1054625709299688 0.70685471127341903 0.14073185336589814 -0.019266261142332177 -0.11091963315139647 0.19378638565054407 1.026596350333205 0.12044027134315255 0.1550461820761363 0.039044463922804661 0.16765045866370201 0.53643581113645011 0.30824365819755356 0.43859297756491045 0.16730948030017317 0.63298944214294695 0.44087127606783599 0.11183292661490066 -0.0018199189491956706 -0.028932508289561433 0.72624593064898546 -0.057748304107398896 -0.018024283598680964 0.48555705518949605 -0.045961991238736497 0.80503177750110633 0.23498269215572712 0.046824526231923777 -0.061879372422757387 0.047401730941895114 0.037646532577595544 0.11506743714156929 0.060567769636400051 0.41473255505704359
leaf_count=143 1328 83 12320 29 289 27 21 25 2643 23 115 27 97 30 94 25 35 38 29 32 29 28 89 289 118 21 27 61 21 34 25 43 238 182 104 462 198 40 46
internal_value=0 1.0266 -0.440787 2.19884 2.82691 3.32426 3.43843 7.98358 -0.266823 3.26968 3.37349 2.8666 6.35497 2.28127 4.84306 9.80435 4.61271 3.93956 2.66494 7.15633 8.97611 1.51618 3.81154 1.31813 1.47444 2.02008 5.70498 1.57343 0.307814 3.38256 5.62105 8.89119 1.13582 -0.623647 2.48541 1.4801 2.12368 3.11857 5.00009
internal_count=19508 5860 13648 3074 1601 1312 1285 46 2786 1239 1216 863 124 739 177 54 353 318 123 99 67 1473 117 1356 562 444 48 396 233 163 102 68 1273 212 219 984 522 284 86
shrinkage=0.05


Tree=9
num_leaves=40
num_cat=0
split_feature=2 2 0 7 0 0 0 6 6 1 1 7 7 0 6 1 0 7 2 7 7 0 7 7 7 0 1 1 5 2 0 0 7 7 1 7 7 0 7
split_gain=7966.89 8018.65 2611.41 1189.5 1622.55 806.386 1106.07 1161.22 1103.95 1687.89 1410.87 4873.6 1455.07 1444.03 833.122 896.307 1175.96 1421.35 1531.55 1023.52 2108.1 799.056 1335.8 938.719 786.67 674.263 611.276 1033.92 604.334 911.388 623.894 587.042 562.963 653.445 554.171 692.052 547.081 539.789 463.653
threshold=4.5000000000000009 2.5000000000000004 5.5000000000000009 41.23500061035157 19.500000000000004 15.500000000000002 11.500000000000002 0.70499998331069957 0.38499999046325689 2.5000000000000004 1.5000000000000002 49.104999542236335 55.664999008178718 8.5000000000000018 0.9350000023841859 1.0000000180025095e-35 18.500000000000004 66.575000762939467 3.5000000000000004 49.385000228881843 47.085000991821296 7.5000000000000009 48.655000686645515 46.065000534057624 52.609998703002937 5.5000000000000009 4.5000000000000009 2.5000000000000004 1.0000000180025095e-35 3.5000000000000004 3.5000000000000004 6.5000000000000009 55.895000457763679 60.905000686645515 1.5000000000000002 69.055000305175795 47.085000991821296 3.5000000000000004 30.105000495910648
decision_type=2 2 2 2 2 2 2 2 2 2 2 2 2 2 2 2 2 2 2 2 2 2 2 2 2 2 2 2 2 2 2 2 2 2 2 2 2 2 2
left_child=1 25 -2 28 5 6 8 34 9 10 12 -12 13 31 15 24 17 18 -17 20 -20 37 23 -23 -7 -1 27 -21 30 -30 -3 -5 -24 -34 -8 -36 -18 -11 -32
right_child=2 3 -4 4 -6 14 7 -9 -10 21 11 -13 -14 -15 -16 16 36 -19 19 26 -22 22 32 -25 -26 -27 -28 -29 29 -31 38 -33 33 -35 35 -37 -38 -39 -40
leaf_value=0.059213027847956304 0.04567869568849544 0.19543356701439943 -0.028118073799973959 0.1595347611854474 0.027029785611843982 0.25977372273337096 -0.061349563717201197 0.38374002421343767 -0.0063136961095143053 0.18704834929422332 1.0966152585071067 0.11433132083288261 0.61859704054892062 -0.089033960261558354 -0.070535621419548986 0.034143254947848617 0.19566483492481299 0.5886808892445905 0.23963291631901967 0.37548956212898099 0.88656386017799393 0.24014124597765898 0.0083559810247441583 0.64485402133153835 0.64313554090002312 -0.021090698889557516 0.37134796236012435 -0.039624086767435077 0.1157799252968592 0.47941797042176842 -0.0017289234106155002 0.5171092301607132 0.43304532881487501 0.055789059709059077 0.057469255029250259 0.36326509788632394 -0.082823244068357685 -0.044264003401001298 0.070304533397935992
leaf_count=292 1328 83 12320 24 289 32 93 27 69 38 23 28 20 37 24 80 29 28 34 24 20 38 66 23 23 2494 37 40 96 21 289 22 22 24 247 20 45 75 984
internal_value=0 0.975267 -0.418748 2.0889 2.68557 3.15805 2.62386 1.34965 3.59266 4.17586 6.84498 11.1464 4.71513 2.87012 4.30862 4.65878 4.04791 5.03878 4.23633 6.07038 9.58474 2.73863 4.08953 7.85476 8.40177 -0.253482 4.19142 2.32087 1.44038 3.62097 1.25223 6.61097 2.03883 4.72432 0.875261 1.60751 0.52628 0.670449 1.07903
internal_count=19508 5860 13648 3074 1601 1312 896 387 509 440 154 51 103 83 416 392 337 263 235 155 54 286 173 61 55 2786 101 64 1473 117 1356 46 112 46 360 267 74 113 1273
shrinkage=0.05


Tree=10
num_leaves=40
num_cat=0
split_feature=2 2 0 7 0 7 0 7 0 6 1 6 1 1 7 7 0 7 7 1 0 7 7 1 7 6 2 0 2 7 1 0 2 7 7 7 7 7 0
split_gain=7190.12 7236.83 2356.79 1073.52 1464.35 780.652 900.865 1310.68 921.236 1030.83 1301.2 1003.16 1507.62 1273.31 4398.42 1313.2 1327.31 836.531 1475.1 757.13 735.94 1184.56 847.194 724.713 1035.59 865.893 689.247 608.523 570.218 1304.81 635.751 1076.67 567.069 3835.26 547.878 1148.71 537.933 553.292 487.16
threshold=4.5000000000000009 2.5000000000000004 5.5000000000000009 41.23500061035157 19.500000000000004 76.770000457763686 15.500000000000002 56.940000534057624 11.500000000000002 0.085000000894069686 2.5000000000000004 0.38499999046325689 2.5000000000000004 1.5000000000000002 49.104999542236335 55.664999008178718 9.5000000000000018 61.135000228881843 68.344997406005874 2.5000000000000004 7.5000000000000009 48.655000686645515 46.065000534057624 4.5000000000000009 48.655000686645515 0.89499998092651378 3.5000000000000004 5.5000000000000009 3.5000000000000004 31.595000267028812 5.5000000000000009 10.500000000000002 3.5000000000000004 54.944999694824226 48.094999313354499 52.82500076293946 55.895000457763679 60.905000686645515 3.5000000000000004
decision_type=2 2 2 2 2 2 2 2 2 2 2 2 2 2 2 2 2 2 2 2 2 2 2 2 2 2 2 2 2 2 2 2 2 2 2 2 2 2 2
left_child=1 27 -2 28 5 6 8 23 11 32 -11 12 13 15 -15 16 -5 19 -19 -9 38 22 -22 25 -25 26 -8 -1 -3 -30 -31 -32 33 -10 -28 -36 -23 -38 -14
right_child=2 3 -4 4 -6 -7 7 17 9 10 -12 -13 20 14 -16 -17 -18 18 -20 -21 21 36 -24 24 -26 -27 34 -29 29 30 31 -33 -34 -35 35 -37 37 -39 -40
leaf_value=0.056252375171098816 0.043394757061074658 0.050074813121713337 -0.026712168358363115 0.28285824593018599 0.025678297617250351 -0.11606605428236504 -0.023940560037598892 0.74102259820157834 -0.019663217083519598 -0.02379952156916261 0.45420113486903058 -0.0059980106148598859 0.17769592949166269 1.0417845047038534 0.10861477926373482 0.58766721740365024 -0.13651427701115609 0.096294262098229458 0.61064446628093716 0.32620343145999042 0.22813418743837821 0.0079381800955161449 0.6126113324061685 0.46906008917838338 0.080441861450672156 0.40163002635041878 0.026658675667237154 -0.020036166317241137 0.44351278749005552 0.067120534299170462 -0.0021037470888007771 0.46531487859985127 -0.016856460313954689 0.73154244273900992 0.39670304597719858 -0.036067041625147282 0.41139306805350567 0.060658708749257995 -0.042050803504263365
leaf_count=292 1328 1093 12320 54 289 27 85 22 89 24 35 69 38 23 28 20 29 46 20 22 38 66 23 40 30 24 44 2494 29 301 22 28 206 21 46 23 22 23 75
internal_value=0 0.926504 -0.39781 1.98445 2.55129 3.00015 3.11196 4.35289 2.54701 1.35818 5.1952 3.42459 3.98171 6.50273 10.5891 4.47937 2.72661 7.2948 5.04316 10.6723 2.61947 3.92196 7.46202 3.24463 6.05019 2.36 1.67241 -0.240808 1.36836 2.42356 1.89093 5.19301 0.641768 2.47498 3.29058 5.04893 1.97653 4.64258 0.636927
internal_count=19508 5860 13648 3074 1601 1312 1285 402 883 375 59 508 439 154 51 103 83 110 66 44 285 172 61 292 70 222 198 2786 1473 380 351 50 316 110 113 69 111 45 113
shrinkage=0.05


Tree=11
num_leaves=40
num_cat=0
split_feature=2 2 0 7 6 6 1 0 7 7 7 0 0 0 7 2 7 7 7 0 2 7 7 1 7 7 6 0 7 0 0 0 1 0 7 3 7 5 1
split_gain=6489.08 6531.24 2127.01 973.695 939.436 2057.25 1034.93 1179.06 2268.16 1056.97 2866.7 1045.35 947.643 975.961 1021.42 1240.64 1540.09 829.314 3746.01 757.554 1130.05 1989.55 2051.19 5251.39 1266.61 1196.79 886.241 810.108 1439.61 1017.33 1535.07 1282.26 946.595 1635.97 602.715 632.808 587.257 568.285 1356.62
threshold=4.5000000000000009 2.5000000000000004 5.5000000000000009 34.194999694824226 0.92500001192092907 0.86500000953674328 1.5000000000000002 9.5000000000000018 44.364999771118171 69.055000305175795 73.534999847412124 6.5000000000000009 3.5000000000000004 6.5000000000000009 36.864999771118171 3.5000000000000004 36.444999694824226 57.954999923706062 67.524997711181655 18.500000000000004 3.5000000000000004 57.190000534057624 55.43499946594239 3.5000000000000004 58.424999237060554 52.354999542236335 0.16499999910593036 15.500000000000002 48.094999313354499 12.500000000000002 10.500000000000002 11.500000000000002 3.5000000000000004 8.5000000000000018 39.135000228881843 1.0000000180025095e-35 42.024999618530281 1.0000000180025095e-35 1.5000000000000002
decision_type=2 2 2 2 2 2 2 2 2 2 2 2 2 2 2 2 2 2 2 2 2 2 2 2 2 2 2 2 2 2 2 2 2 2 2 2 2 2 2
left_child=1 -1 -2 37 5 6 7 8 -5 12 -11 -10 36 -14 15 16 -15 -9 -19 20 24 22 25 -24 -16 26 27 29 -29 30 32 -32 33 -22 -21 -36 -8 -3 -39
right_child=2 3 -4 4 -6 -7 9 17 11 10 -12 -13 13 14 19 -17 -18 18 -20 34 21 -23 23 -25 -26 -27 -28 28 -30 -31 31 -33 -34 -35 35 -37 -38 38 -40
leaf_value=-0.011438361495686545 0.041225023573286924 0.022089645131890729 -0.025376559494958296 0.026756675935588604 -0.00056543684055133416 0.54376009659442515 0.4872375634533388 -0.013427854315724541 0.21676052075624469 0.72456796879951779 -0.025308369576931 0.66958514709885308 -0.019579474367201328 0.092602859969354342 0.040835776720078862 0.56185199927400664 0.55928284549577678 0.54742560340639423 -0.19478939175057938 0.23454053293447941 0.63536340548441972 0.030139369241515897 0.024999996026357017 1.1570728189125656 0.41045554122887556 -0.006204499518335389 -0.0049780379980802541 0.19148277470376343 0.66576001085340986 0.0054376646166756047 0.83347145795822153 0.26728629648685454 0.077387890237474097 0.062897328225274884 0.065037059713415654 -0.11168141885427758 0.19227807389365303 0.4791876991589864 0.040209362717966241
leaf_count=2786 1328 571 12320 86 181 28 27 376 25 26 25 26 120 90 318 27 22 34 34 40 26 153 21 20 25 57 32 32 32 42 20 20 72 24 243 64 45 24 66
internal_value=0 0.880179 -0.37792 1.88523 2.17979 2.35748 2.24927 1.10396 3.66851 2.65926 7.13963 8.95225 2.51391 2.3438 2.58166 5.1523 3.68544 0.312647 3.52636 2.29373 2.7805 3.66755 4.84571 11.5446 1.35552 4.07637 4.87446 5.46837 8.57243 4.49455 5.63161 11.0076 3.869 7.21159 1.03966 0.563935 6.05776 0.80991 3.14541
internal_count=19508 5860 13648 3074 2413 2232 2204 581 137 1623 51 51 1572 1500 1380 139 112 444 68 1241 894 551 398 41 343 357 300 268 64 204 162 40 122 50 347 307 72 661 90
shrinkage=0.05


Tree=12
num_leaves=40
num_cat=0
split_feature=2 2 0 7 0 0 7 7 1 7 7 7 6 1 7 1 6 0 6 1 7 0 0 0 1 1 7 7 0 5 6 0 6 7 2 1 6 7 0
split_gain=5856.4 5894.44 1919.62 901.295 1219.17 649.177 1246.44 1913.42 2000.31 1231.54 1509.3 790.882 700.038 640.21 600.103 764.875 1948.22 1943 1447.69 1879.77 1670.96 4086.96 1302.91 869.613 621.101 596.578 685.924 1207.09 567.625 495.661 821.195 529.169 471.078 469.462 434.012 1578.93 2293.98 1975.5 689.482
threshold=4.5000000000000009 2.5000000000000004 5.5000000000000009 41.23500061035157 19.500000000000004 16.500000000000004 56.940000534057624 60.905000686645515 4.5000000000000009 49.954999923706062 48.094999313354499 70.215000152587905 0.21499999612569812 2.5000000000000004 66.354999542236342 4.5000000000000009 0.35500000417232519 9.5000000000000018 0.13499999791383746 2.5000000000000004 45.254999160766609 7.5000000000000009 15.500000000000002 7.5000000000000009 1.5000000000000002 2.5000000000000004 51.545000076293952 54.944999694824226 1.0000000180025095e-35 1.0000000180025095e-35 0.16499999910593036 3.5000000000000004 0.085000000894069686 42.805000305175788 11.500000000000002 4.5000000000000009 0.11499999836087228 42.284999847412116 16.500000000000004
decision_type=2 2 2 2 2 2 2 2 2 2 2 2 2 2 2 2 2 2 2 2 2 2 2 2 2 2 2 2 2 2 2 2 2 2 2 2 2 2 2
left_child=1 28 -2 29 5 11 9 -8 -9 10 12 14 13 -7 15 17 22 18 19 20 -5 -22 33 -21 -19 26 -26 -28 -1 31 -31 -3 -27 -17 -4 -36 -37 38 -38
right_child=2 3 34 4 -6 6 7 8 -10 -11 -12 -13 -14 -15 -16 16 -18 24 -20 23 21 -23 -24 -25 25 32 27 -29 -30 30 -32 -33 -34 -35 35 36 37 -39 -40
leaf_value=0.086160138509255815 0.039163768028907753 0.17512716798712108 -0.027388912318812238 0.79027755632996566 0.022551405542146633 -0.067914986787807372 0.68329361399014799 0.45680628477205193 -0.1443148708343506 -0.02479879732255812 0.51981442101073994 -0.098591632123400538 0.39593569664728073 0.19688343438506128 0.3230937787608521 0.30349958211183553 0.56091601447232309 -0.061560207723893902 -0.036310741528868672 -0.0024110857024788861 0.0018010709525608437 0.83453147288249885 0.46784452773906571 0.3032770160389574 0.023545562814582477 -0.020933603686280552 0.59582816295325758 0.097599358375995399 -0.01611608504752882 0.40788252792106228 0.089258343794966472 0.044827307349937673 0.21349998542666437 0.073222859568623677 -0.032985624314373373 0.033666983473370653 -0.0081458806991577155 0.77185411214828492 0.38935411572456363
leaf_count=143 1328 83 10978 24 289 42 30 31 25 77 33 41 21 50 37 25 31 143 50 60 41 23 27 38 44 150 20 31 2643 26 91 1273 25 193 936 342 24 20 20
internal_value=0 0.83617 -0.359024 1.79097 2.31035 2.71991 3.98723 7.22138 3.76897 2.73998 4.44661 2.32948 2.7091 1.51994 2.5128 2.35484 3.74925 1.76184 4.05077 5.3349 8.68971 6.02127 2.80419 2.32242 0.453874 1.34634 3.36382 5.85966 -0.217329 1.22645 3.20127 1.05606 0.251138 1.99261 -0.482155 0.0546681 1.70161 7.19646 3.45072
internal_count=19508 5860 13648 3074 1601 1312 309 86 56 223 146 1003 113 92 962 925 276 649 236 186 88 64 245 98 413 270 95 51 2786 1473 117 1356 175 218 12320 1342 406 64 44
shrinkage=0.05


Tree=13
num_leaves=40
num_cat=0
split_feature=2 2 0 7 6 6 1 7 7 7 7 7 7 0 7 2 7 7 0 2 0 0 2 7 7 7 0 7 7 0 1 7 7 7 3 0 7 1 0
split_gain=5285.4 5319.74 1732.46 848.154 839.804 1828.57 915.79 1003.48 4123.36 3854.82 996.826 2561.01 891.908 791.332 1401.66 774.966 1374.56 679.758 671.294 682.227 593.321 627.822 981.904 1837.36 1888.9 1124.75 1017.53 1061.59 1365.77 1017.48 1046.49 638.548 655.011 549.083 568.563 545.349 1084.5 884.25 512.281
threshold=4.5000000000000009 2.5000000000000004 5.5000000000000009 34.194999694824226 0.92500001192092907 0.86500000953674328 1.5000000000000002 68.134998321533217 57.954999923706062 61.414999008178718 69.055000305175795 73.534999847412124 36.864999771118171 9.5000000000000018 44.364999771118171 3.5000000000000004 36.444999694824226 48.354999542236335 3.5000000000000004 3.5000000000000004 6.5000000000000009 18.500000000000004 3.5000000000000004 57.190000534057624 55.664999008178718 58.424999237060554 15.500000000000002 48.094999313354499 51.784999847412116 12.500000000000002 5.5000000000000009 40.085000991821296 52.354999542236335 39.135000228881843 1.0000000180025095e-35 10.500000000000002 49.385000228881843 3.5000000000000004 1.0000000180025095e-35
decision_type=2 2 2 2 2 2 2 2 2 2 2 2 2 2 2 2 2 2 2 2 2 2 2 2 2 2 2 2 2 2 2 2 2 2 2 2 2 2 2
left_child=1 38 -2 -3 5 6 7 8 13 -10 12 -12 15 14 -5 16 -8 -16 19 -14 -20 22 25 24 26 -22 29 -28 -29 30 31 -24 35 -23 -35 36 37 -33 -1
right_child=2 3 -4 4 -6 -7 10 -9 9 -11 11 -13 18 -15 17 -17 -18 -19 20 -21 21 33 23 -25 -26 -27 27 28 -30 -31 -32 32 -34 34 -36 -37 -38 -39 -40
leaf_value=0.081852131021710545 0.037205584711361546 0.034890640294954249 -0.022902344967807076 0.014919175385215947 -0.0047659386011118391 0.50873514047956891 0.080975365254915124 -0.223926319507882 1.0400885728746654 0.10878105841577053 0.68638609051704413 -0.022381653010845187 0.50100920349359512 -0.013387819037009824 0.57827771484851842 0.41313567196200718 0.51006790114485701 0.17551861483265052 -0.022040010831665763 0.15121517753147562 0.033763663866703618 0.2205721409060061 0.040412186882619203 0.019648018934660491 0.61206908270170723 0.3820707347989083 0.14214619205970513 0.72438305403505066 0.19793695922602306 -0.018666995518973894 -0.032526034030776758 0.56368447176871761 0.0467648419784382 0.05854306916089215 -0.10896487910649739 0.50023393427070817 -0.049242802858352669 0.18899453835911117 -0.015310282226633585
leaf_count=143 1328 661 12320 86 181 28 99 32 20 25 26 25 20 376 20 41 23 22 102 46 318 40 29 153 29 25 38 28 22 70 39 31 22 243 64 38 20 32 2643
internal_value=0 0.794361 -0.341072 1.70142 1.97634 2.14434 2.04232 0.964952 1.28224 10.4539 2.42799 6.77902 2.28683 0.463341 2.61094 4.50143 3.2374 7.34617 2.03064 5.14427 1.87762 2.06818 2.5113 3.33817 4.47038 1.18301 3.85965 6.82702 9.85494 2.93037 4.02638 5.08684 5.95453 0.926519 0.472457 6.86712 5.43065 7.46732 -0.206462
internal_count=19508 5860 13648 3074 2413 2232 2204 581 549 45 1623 51 1572 504 128 163 122 42 1409 66 1343 1241 894 551 398 343 369 88 50 281 211 172 143 347 307 121 83 63 2786
shrinkage=0.05


Tree=14
num_leaves=40
num_cat=0
split_feature=2 2 0 0 7 0 7 5 7 7 7 1 1 0 7 7 7 1 1 6 0 1 7 7 0 1 7 0 0 7 1 7 2 0 2 1 6 7 0
split_gain=4770.07 4801.06 1563.55 776.195 801.877 916.683 840.596 558.519 996.623 535.532 1866.79 1514.32 778.504 1195.22 1339.6 1317.72 1547.36 2247.11 1408.47 1113.67 604.847 1505.51 2126 1639.95 526.146 520.812 481.344 500.162 1148.88 843.711 762.458 560.563 556.115 477.673 391.696 1424.98 2070.32 1782.89 622.257
threshold=4.5000000000000009 2.5000000000000004 5.5000000000000009 21.500000000000004 41.23500061035157 20.500000000000004 35.23500061035157 1.0000000180025095e-35 31.064999580383304 70.024997711181655 66.575000762939467 2.5000000000000004 4.5000000000000009 9.5000000000000018 42.284999847412116 44.364999771118171 48.864999771118171 2.5000000000000004 1.0000000180025095e-35 0.67500001192092907 15.500000000000002 1.0000000180025095e-35 52.609998703002937 45.504999160766609 3.5000000000000004 1.5000000000000002 63.354999542236335 15.500000000000002 18.500000000000004 55.43499946594239 5.5000000000000009 46.835000991821296 3.5000000000000004 5.5000000000000009 11.500000000000002 4.5000000000000009 0.11499999836087228 42.284999847412116 16.500000000000004
decision_type=2 2 2 2 2 2 2 2 2 2 2 2 2 2 2 2 2 2 2 2 2 2 2 2 2 2 2 2 2 2 2 2 2 2 2 2 2 2 2
left_child=1 33 -2 4 5 7 -7 24 -9 10 12 -12 13 14 -6 -16 17 -17 -18 26 25 22 23 -22 -3 -15 27 30 29 31 32 -29 -14 -1 -4 -36 -37 38 -38
right_child=2 3 34 -5 9 6 -8 8 -10 -11 11 -13 19 20 15 16 18 -19 -20 -21 21 -23 -24 -25 -26 -27 -28 28 -30 -31 -32 -33 -34 -35 35 36 37 -39 -40
leaf_value=0.050699476456295134 0.035345302540135674 0.16093668882028167 -0.024874348409635424 0.0059291550134970448 0.57548391543328759 0.077874542173089048 0.41412496611969002 0.46835866095054723 0.083705589674851477 -0.02569682306968249 0.113652602750808 0.69736592503637074 0.061065714247524744 -0.076259000685646158 -0.14306786502852584 0.65929400771856317 0.45601315172389151 0.11478162212297321 -0.0093170367224120546 0.52398139621530271 0.46125535390206746 0.05052315330449645 0.72854972992624556 -0.12325758361922844 0.030093650466368877 0.051835515076860718 -0.038898267092243317 0.42265351520230371 0.088095690725279646 0.63342914659044025 0.022062686390415268 0.064236957132816325 0.29358835273629263 -0.016891121212766473 -0.03019122705022749 0.033128753914470559 -0.0065934700891375547 0.73440651655197142 0.37103152275085449
leaf_count=292 1328 83 10978 311 20 41 34 21 85 65 20 25 40 122 33 36 20 40 87 21 21 305 21 28 1034 227 31 24 61 23 103 20 72 2494 936 342 24 20 20
internal_value=0 0.754643 -0.324019 1.61635 1.78493 1.21261 4.60616 1.0045 3.19821 2.29202 2.4223 8.75876 2.21186 1.72565 3.68 2.95503 4.00388 7.45417 1.55321 3.39354 1.0886 1.97036 6.15277 2.54496 0.796322 0.14115 2.99565 3.33671 4.90174 7.76039 2.40497 5.19474 4.21089 -0.196139 -0.435145 0.074837 1.63944 6.85954 3.30109
internal_count=19508 5860 13648 3074 2763 1298 75 1223 106 1465 1400 45 1355 960 236 216 183 76 107 395 724 375 70 49 1117 349 374 343 128 67 215 44 112 2786 12320 1342 406 64 44
shrinkage=0.05


Tree=15
num_leaves=40
num_cat=0
split_feature=2 2 0 7 6 6 1 7 7 7 7 7 7 2 7 0 7 0 2 7 0 0 2 7 7 1 7 7 1 0 7 0 7 1 7 1 7 3 2
split_gain=4304.99 4332.96 1411.1 727.248 756.265 1610.24 830.055 923.291 2272.87 885.541 3616.72 3474.51 835.766 698.411 1239.05 640.29 1104.24 582.714 600.078 561.272 529.008 537.919 838.267 1705.12 1701.7 4534.15 1085.57 2196.13 1582.09 1568.41 999.285 746.139 610.467 830.092 520.418 485.854 485.374 508.638 451.359
threshold=4.5000000000000009 2.5000000000000004 5.5000000000000009 34.194999694824226 0.92500001192092907 0.86500000953674328 1.5000000000000002 69.055000305175795 73.534999847412124 68.134998321533217 57.954999923706062 61.414999008178718 36.864999771118171 3.5000000000000004 36.444999694824226 9.5000000000000018 44.364999771118171 3.5000000000000004 3.5000000000000004 48.354999542236335 6.5000000000000009 18.500000000000004 3.5000000000000004 57.190000534057624 55.43499946594239 3.5000000000000004 50.225000381469734 48.094999313354499 2.5000000000000004 11.500000000000002 58.424999237060554 11.500000000000002 39.135000228881843 3.5000000000000004 44.094999313354499 4.5000000000000009 39.135000228881843 1.0000000180025095e-35 3.5000000000000004
decision_type=2 2 2 2 2 2 2 2 2 2 2 2 2 2 2 2 2 2 2 2 2 2 2 2 2 2 2 2 2 2 2 2 2 2 2 2 2 2 2
left_child=1 -1 -2 38 5 6 9 12 -9 10 15 -12 13 14 -8 16 -5 18 -14 -18 -19 22 30 24 26 -26 27 31 -28 -29 -22 32 -24 -34 -35 -33 -23 -38 -3
right_child=2 3 -4 4 -6 -7 7 8 -10 -11 11 -13 17 -15 -16 -17 19 20 -20 -21 21 36 23 -25 25 -27 28 29 -30 -31 -32 35 33 34 -36 -37 37 -39 -40
leaf_value=-0.0093166182262920602 0.033578038216198251 0.014438438960496569 -0.020669366074967888 0.011921381888651224 -0.0087909129052037033 0.47426240869930814 0.074641718835842738 0.647728761113607 -0.019977731108665468 -0.21427569404477254 0.97700317859649655 0.092828903257846831 0.46554977152496574 0.38997771647281765 0.4820341134200925 -0.014921051884572234 0.51639912843704228 -0.024730819293030188 0.13749070379721082 0.15042100400579247 0.028938839735032015 0.20471203018445522 0.015229388851333748 0.010570548718271691 -0.0010878625503253369 1.0508376400172712 0.42448098653846461 0.22573591836474161 -0.03586510507897897 0.79935424379431286 0.35724435186386111 -0.044981325937891913 0.48626073837481648 0.34976570911705496 0.0010260148864725362 0.20174724061507732 0.05256950210572945 -0.1058652661915403 0.13786569835837273
leaf_count=2786 1328 576 12320 86 181 28 99 26 25 32 20 25 20 41 23 376 20 102 46 22 318 40 22 153 21 20 23 22 99 26 25 53 37 20 23 32 243 64 85
internal_value=0 0.716911 -0.307818 1.53553 1.7901 1.94953 1.85379 2.22097 6.40843 0.828094 1.12615 9.7159 2.08512 4.22888 3.0289 0.359213 2.29101 1.83711 4.73805 6.49393 1.69455 1.87448 2.28466 3.04866 4.13936 10.2409 3.43862 4.69506 1.01843 10.7289 1.05736 3.14626 4.96973 6.25264 3.26461 0.958094 0.817723 0.390815 0.606207
internal_count=19508 5860 13648 3074 2413 2232 2204 1623 51 581 549 45 1572 163 122 504 128 1409 66 42 1343 1241 894 551 398 41 357 235 122 48 343 187 102 80 43 85 347 307 661
shrinkage=0.05


Tree=16
num_leaves=40
num_cat=0
split_feature=2 2 0 0 7 0 7 5 7 7 7 1 1 0 7 7 7 1 1 6 0 1 7 7 0 1 0 7 7 4 7 0 1 2 7 7 7 0 7
split_gain=3885.25 3910.5 1273.52 670.635 661.328 832.262 746.16 498.056 912.739 497.009 1723.99 1304.85 684.788 1004.81 1202.04 1164.1 1332.01 1928.53 1255.57 1002.05 561.315 1333.97 1826.38 1462.01 456.187 447.126 431.1 427.536 1186.4 600.971 512.012 689.836 1380.37 1095.32 417.516 448.543 356.59 1154.85 681.823
threshold=4.5000000000000009 2.5000000000000004 5.5000000000000009 21.500000000000004 41.23500061035157 20.500000000000004 35.23500061035157 1.0000000180025095e-35 31.064999580383304 70.024997711181655 66.575000762939467 2.5000000000000004 4.5000000000000009 9.5000000000000018 42.284999847412116 44.364999771118171 48.864999771118171 2.5000000000000004 1.0000000180025095e-35 0.70499998331069957 15.500000000000002 1.0000000180025095e-35 52.609998703002937 45.504999160766609 3.5000000000000004 1.5000000000000002 5.5000000000000009 58.674999237060554 55.43499946594239 1.0000000180025095e-35 48.864999771118171 10.500000000000002 5.5000000000000009 3.5000000000000004 73.305000305175795 79.645000457763686 52.354999542236335 11.500000000000002 47.085000991821296
decision_type=2 2 2 2 2 2 2 2 2 2 2 2 2 2 2 2 2 2 2 2 2 2 2 2 2 2 2 2 2 2 2 2 2 2 2 2 2 2 2
left_child=1 26 -2 4 5 7 -7 24 -9 10 12 -12 13 14 -6 -16 17 -17 -18 27 25 22 23 -22 -3 -15 -1 28 29 30 31 -14 33 -33 -11 -36 37 38 -27
right_child=2 3 -4 -5 9 6 -8 8 -10 34 11 -13 19 20 15 16 18 -19 -20 -21 21 -23 -24 -25 -26 36 -28 -29 -30 -31 -32 32 -34 -35 35 -37 -38 -39 -40
leaf_value=0.048630334982929166 0.031899137584582335 0.14782215277832675 -0.019635898128950169 0.003327758926778457 0.53759633194655176 0.072845007624568012 0.38964511352755571 0.44363107766423915 0.075521583504536582 -0.19165061892569066 0.11351507365703584 0.65535587382316596 0.064751729592680926 -0.074877411438549146 -0.14092070324854419 0.60726681732469145 0.42525103643536566 0.10282721728086473 -0.014096210309272184 0.50021442927885806 0.43544447492985494 0.045250296451639936 0.67740062728435513 -0.11644717130277837 0.025988100104239312 0.11925088096232642 -0.015580732277994072 0.036847482316465265 0.39555420423758791 -0.084445170144880982 0.052006799524023352 -0.031035472789118369 0.63938115801323547 0.3927683329333862 0.23625593475997447 -0.098610660135746001 -0.02314468173503454 -0.0081179563282057637 0.52716905057430263
leaf_count=292 1328 83 12320 311 20 41 34 21 85 25 20 25 50 122 33 36 20 40 87 20 21 305 21 28 1034 21 2494 83 47 31 81 31 22 30 20 20 106 80 20
internal_value=0 0.681066 -0.292427 1.45875 1.61546 1.0957 4.32922 0.897408 2.96898 2.07597 2.20147 8.29075 1.99924 1.54324 3.33516 2.64842 3.63425 6.83545 1.3605 3.10751 0.959127 1.80856 5.74549 2.40156 0.700822 0.0464087 -0.177016 2.73968 3.30895 2.4261 3.02219 4.22931 5.99695 3.54785 -0.627188 1.37645 0.876201 2.04929 6.36471
internal_count=19508 5860 13648 3074 2763 1298 75 1223 106 1465 1400 45 1355 960 236 216 183 76 107 395 724 375 70 49 1117 349 2786 375 292 245 214 133 83 61 65 40 227 121 41
shrinkage=0.05


Tree=17
num_leaves=40
num_cat=0
split_feature=2 2 0 7 6 6 1 7 7 7 7 7 7 6 7 0 7 7 0 7 7 2 0 0 1 0 0 1 7 7 1 1 0 0 7 7 3 2 7
split_gain=3506.44 3529.22 1149.35 624.345 684.642 1419.17 756.848 866.072 2074.85 794.141 3171.99 3132.82 781.186 695.321 1022.28 516.662 864.342 516.48 560.984 583.881 502.313 565.249 1360.56 1075.72 915.015 2011.16 872.961 721.693 816.895 758.235 677.549 588.287 597.652 500.188 475.798 463.05 442.63 408.124 1298.8
threshold=4.5000000000000009 2.5000000000000004 5.5000000000000009 34.194999694824226 0.92500001192092907 0.86500000953674328 1.5000000000000002 69.055000305175795 73.534999847412124 68.134998321533217 57.954999923706062 61.414999008178718 36.864999771118171 0.30500000715255743 36.444999694824226 9.5000000000000018 44.364999771118171 37.954999923706062 18.500000000000004 39.364999771118171 63.354999542236335 3.5000000000000004 15.500000000000002 12.500000000000002 2.5000000000000004 10.500000000000002 10.500000000000002 5.5000000000000009 55.664999008178718 48.094999313354499 4.5000000000000009 5.5000000000000009 6.5000000000000009 7.5000000000000009 49.954999923706062 48.354999542236335 1.0000000180025095e-35 3.5000000000000004 31.595000267028812
decision_type=2 2 2 2 2 2 2 2 2 2 2 2 2 2 2 2 2 2 2 2 2 2 2 2 2 2 2 2 2 2 2 2 2 2 2 2 2 2 2
left_child=1 -1 -2 37 5 6 9 12 -9 10 15 -12 13 14 33 16 -5 -14 20 -20 21 24 23 26 25 -19 31 28 29 -24 34 32 -23 -8 -28 -18 -21 -3 -39
right_child=2 3 -4 4 -6 -7 7 8 -10 -11 11 -13 17 -15 -16 -17 35 18 19 36 -22 22 27 -25 -26 -27 30 -29 -30 -31 -32 -33 -34 -35 -36 -37 -38 38 -40
leaf_value=-0.0084082452528184051 0.030304179168923435 0.011144767852157303 -0.018654102546090331 0.0093708842800561947 -0.012441079734274038 0.44239464976957871 0.25920975819743913 0.61721156497414298 -0.020745643675327302 -0.20692236795439387 0.91796202838420882 0.078388581395149232 -0.037858290144477981 0.39990819022059443 0.45615218464623802 -0.016132259241458859 0.46021584227681162 0.63989711877490796 0.29491882279515264 0.047037419915261634 -0.023128286468337724 0.038652488403022295 0.14592189434351344 -0.026810051479821542 0.028836485699424687 0.051339079724981432 0.004692040654745969 0.52889229655265813 0.0040357961186340881 0.47157019392038002 0.47013594119837787 -0.035719536830271993 0.211845357052869 0.015999379696754312 0.32063141986011318 0.12779966660521247 -0.10194140425957149 0.4001095589410899 -0.012137142748438887
leaf_count=2786 1328 576 12320 86 181 28 29 26 25 32 20 25 83 34 22 376 20 21 20 239 67 80 33 111 283 47 22 26 28 39 33 56 132 78 26 22 63 29 56
internal_value=0 0.647012 -0.277806 1.38582 1.62169 1.77338 1.6835 2.03411 6.08975 0.70408 0.98634 9.03065 1.90254 3.97512 2.91479 0.268098 2.00341 1.66277 1.81425 0.665715 2.1826 2.37174 2.97285 2.17538 1.36818 4.66199 3.0378 5.88426 4.66393 6.44629 5.9146 2.16832 2.92979 1.63832 3.51652 5.72186 0.319181 0.524747 2.57023
internal_count=19508 5860 13648 3074 2413 2232 2204 1623 51 581 549 45 1572 163 129 504 128 1409 1326 322 1004 937 586 460 351 68 349 126 100 72 81 268 212 107 48 42 302 661 85
shrinkage=0.05


Tree=18
num_leaves=40
num_cat=0
split_feature=2 2 0 0 0 0 2 7 7 7 6 1 7 6 1 7 0 0 7 7 7 7 0 0 1 7 7 7 7 7 7 0 1 7 7 7 1 0 0
split_gain=3164.56 3185.12 1065.26 573.082 664.894 635.14 562.577 7968.4 2618.98 1446.18 1028.67 1541.32 903.423 773.087 1877.04 742.388 599.373 1465.81 1049.47 967.618 1812.2 889.56 784.501 1061.64 2360.75 931.087 1041.18 827.894 1950.09 775.657 721.438 718.991 674.105 637.273 2346.62 817.426 463.513 454.114 414.124
threshold=4.5000000000000009 2.5000000000000004 3.5000000000000004 3.5000000000000004 6.5000000000000009 21.500000000000004 3.5000000000000004 60.155000686645515 32.164999008178718 67.295001983642592 0.37500000000000006 4.5000000000000009 47.565000534057624 0.82499998807907116 3.5000000000000004 73.305000305175795 11.500000000000002 15.500000000000002 55.895000457763679 63.07500076293946 56.940000534057624 52.354999542236335 10.500000000000002 8.5000000000000018 3.5000000000000004 46.065000534057624 49.104999542236335 45.784999847412116 39.135000228881843 55.664999008178718 60.905000686645515 16.500000000000004 2.5000000000000004 49.385000228881843 48.094999313354499 39.135000228881843 3.5000000000000004 12.500000000000002 17.500000000000004
decision_type=2 2 2 2 2 2 2 2 2 2 2 2 2 2 2 2 2 2 2 2 2 2 2 2 2 2 2 2 2 2 2 2 2 2 2 2 2 2 2
left_child=1 -1 -2 -3 -5 6 7 13 -8 10 16 -12 -13 38 -15 -11 18 36 21 20 29 22 23 24 27 -25 -27 28 -10 31 -20 -19 -22 34 35 -33 -18 -38 -6
right_child=2 3 -4 4 5 -7 8 -9 9 15 11 12 -14 14 -16 -17 17 19 30 -21 32 -23 -24 25 -26 26 -28 -29 -30 -31 -32 33 -34 -35 -36 -37 37 -39 -40
leaf_value=-0.0079878346482392098 0.047806509339853247 0.15919617633514394 -0.016394532461093944 -0.01074010199127234 0.004677570848081459 0.0017042086560015606 0.66902540339156991 1.0171426452341534 0.24595970744672033 -0.21421791663224049 -0.065096569513468636 0.48602798017470739 0.026543486714363098 0.57571496706117287 -0.0074892483651638033 0.068879443034529683 -0.072412139173308063 0.38994317914048837 0.58615606075525284 -0.11544628808724469 0.67703780049369455 -0.092048228532075893 0.39636681368057103 -0.13147876402553246 -0.02983805257620083 0.44962956100702289 -0.054450175804751255 0.1760480707883835 0.91238238130296989 -0.14941564391959797 0.20997419494848987 0.35440688693523409 0.3076788129533331 0.0079345222667803715 0.62015474220881106 0.035070223077361726 0.28303752647978919 0.015082384692505002 0.075650520242935601
leaf_count=2786 680 156 12968 292 758 311 20 21 23 55 159 23 20 22 37 40 116 30 25 29 21 34 36 49 45 20 21 20 21 22 26 25 30 73 26 101 21 64 282
internal_value=0 0.614662 -0.263915 1.31653 1.21669 1.37587 1.55613 1.04692 2.03337 1.84023 2.16926 0.13457 5.44629 0.678211 4.19953 -1.90038 2.63738 2.01169 3.72843 3.22784 3.71737 2.9399 3.63159 2.85448 4.95328 0.312595 3.82885 8.85565 11.2805 2.70878 7.88754 3.2003 9.19536 2.58716 3.75346 1.96861 -0.148333 1.62566 0.478443
internal_count=19508 5860 13648 3074 2918 2626 2315 1120 1195 1175 1080 202 43 1099 59 95 878 558 320 357 328 269 235 199 109 90 41 64 44 277 51 255 51 225 152 126 201 85 1040
shrinkage=0.05


Tree=19
num_leaves=40
num_cat=0
split_feature=2 2 0 7 1 7 7 7 7 0 7 2 0 0 0 5 0 2 1 6 7 0 7 3 7 7 7 7 0 7 4 7 0 0 0 1 1 4 4
split_gain=2856.02 2874.57 965.267 544.236 592.606 842.393 1910.38 681.549 2628.05 598.421 611.736 888.841 488.717 455.226 402.137 375.401 1174.21 353.505 1286.04 1868.46 1609.06 561.587 347.977 461.646 488.273 1749.99 830.867 630.054 1203.92 567.311 1481.62 1382.42 749.105 2077.67 567.033 532.866 509.516 2115.36 1340.62
threshold=4.5000000000000009 2.5000000000000004 5.5000000000000009 34.194999694824226 1.5000000000000002 69.055000305175795 73.534999847412124 68.134998321533217 60.155000686645515 3.5000000000000004 35.514999389648445 3.5000000000000004 6.5000000000000009 16.500000000000004 1.0000000180025095e-35 1.0000000180025095e-35 10.500000000000002 11.500000000000002 4.5000000000000009 0.11499999836087228 42.284999847412116 16.500000000000004 60.905000686645515 1.0000000180025095e-35 46.065000534057624 46.594999313354499 44.895000457763679 43.854999542236335 18.500000000000004 49.385000228881843 1.0000000180025095e-35 47.565000534057624 16.500000000000004 11.500000000000002 9.5000000000000018 3.5000000000000004 2.5000000000000004 1.0000000180025095e-35 1.0000000180025095e-35
decision_type=2 2 2 2 2 2 2 2 2 2 2 2 2 2 2 2 2 2 2 2 2 2 2 2 2 2 2 2 2 2 2 2 2 2 2 2 2 2 2
left_child=1 14 -2 15 7 9 -7 8 -5 -6 11 13 -12 -11 -1 -3 -17 -4 -19 -20 21 -21 23 24 26 -26 27 -14 -29 30 31 35 33 -33 -31 -27 38 -38 -36
right_child=2 3 17 4 5 6 -8 -9 -10 10 12 -13 22 -15 -16 16 -18 18 19 20 -22 -23 -24 -25 25 29 -28 28 -30 34 -32 32 -34 -35 36 -37 37 -39 -40
leaf_value=0.074078669425074045 0.02796499637102481 0.0073787301595913228 -0.019862937475514774 0.020679069354837095 0.21620609899357079 0.58899823622061653 -0.023152333438396455 -0.19205811112187804 0.48588283788412812 -0.0006649520751592276 -0.025304192174521706 0.47286653194738471 0.063926494872567838 0.28654359673911872 -0.012007056390341601 0.33340045608378749 -0.033649524371579011 -0.024913969647107473 0.035240008812724502 -0.0024961001550157865 0.70145389173179873 0.35624764204025272 -0.0018647249817611681 -0.01377463592733774 0.53695001587271685 -0.15390286743640902 -0.11999168499439423 0.41707937435971365 -0.046025383018929028 -0.064950520116283356 -0.2048721220344305 0.56390814632177355 0.56274133868077225 -0.12611564360558988 0.36067170288700323 0.19235551512241367 0.021260996271747275 0.49696426173815367 -0.08487890166044236
leaf_count=143 1328 571 10978 592 80 26 25 32 32 37 126 23 508 22 2643 37 53 936 342 24 20 20 126 108 25 20 56 36 23 59 20 24 34 20 52 25 231 26 25
internal_value=0 0.583929 -0.25072 1.2507 1.47092 1.77373 5.77849 0.65989 0.890713 1.65401 1.52264 4.18422 1.38129 2.1286 -0.151769 0.446767 2.34498 -0.338033 0.146449 1.63282 6.59191 3.21138 1.549 1.7037 1.88423 2.56096 1.27484 1.63778 4.73094 2.17953 3.88505 5.18301 7.72941 5.00522 1.55894 0.769258 2.06379 1.38773 4.32025
internal_count=19508 5860 13648 3074 2413 1757 51 656 624 1706 1626 82 1544 59 2786 661 90 12320 1342 406 64 44 1418 1292 1184 561 623 567 59 536 143 123 78 44 393 45 334 257 77
shrinkage=0.05


Tree=20
num_leaves=40
num_cat=0
split_feature=2 2 0 0 6 6 2 7 7 7 1 0 6 7 6 7 0 7 7 7 0 0 0 7 7 0 7 7 7 0 7 0 0 0 7 0 0 1 7
split_gain=2577.56 2594.3 895.385 497.698 487.98 1327.07 510.964 7135.28 1460.1 1861.77 844.869 2079.42 2734.58 958.715 953.453 821.053 1070.83 897.849 1500.67 957.623 845.099 811.702 777.559 769.774 886.125 753.62 678.501 617.437 588.094 847.328 578.163 781.284 546.012 428.213 379.477 526.982 375.678 441.45 804.5
threshold=4.5000000000000009 2.5000000000000004 3.5000000000000004 21.500000000000004 0.92500001192092907 0.86500000953674328 3.5000000000000004 60.155000686645515 61.135000228881843 60.155000686645515 4.5000000000000009 9.5000000000000018 0.30500000715255743 44.645000457763679 0.10500000044703485 52.82500076293946 17.500000000000004 44.364999771118171 42.284999847412116 46.354999542236335 8.5000000000000018 3.5000000000000004 16.500000000000004 47.565000534057624 48.655000686645515 6.5000000000000009 55.43499946594239 37.494998931884773 35.23500061035157 8.5000000000000018 51.545000076293952 17.500000000000004 19.500000000000004 17.500000000000004 49.385000228881843 12.500000000000002 19.500000000000004 4.5000000000000009 35.23500061035157
decision_type=2 2 2 2 2 2 2 2 2 2 2 2 2 2 2 2 2 2 2 2 2 2 2 2 2 2 2 2 2 2 2 2 2 2 2 2 2 2 2
left_child=1 -1 -2 4 5 6 7 21 9 10 14 -12 13 22 15 17 -17 18 25 20 -19 27 -13 -21 -25 -8 33 -3 -27 -30 31 34 -31 -15 -26 -36 -23 -38 -39
right_child=2 3 -4 -5 -6 -7 8 -9 -10 -11 11 12 -14 26 -16 16 -18 19 -20 23 -22 36 -24 24 30 28 -28 -29 29 32 -32 -33 -34 -35 35 -37 37 38 -40
leaf_value=-0.0072090212397453862 0.044017933586968441 0.093531520262360571 -0.014841821448553416 -0.00055860676346017335 -0.015396880853899517 0.41392873121159418 -0.012748985113182537 0.95960882887953813 -0.030359211319259234 0.55883066426233752 0.0052639837286113638 0.64135013044811784 0.81441727763130567 -0.035077277437916825 -0.078046034720171714 -0.10197940727618214 0.22108966631548746 0.6062817073791571 -0.17606025572728229 -0.066286349054929375 0.20893816119059921 0.0098712548599261471 0.21059056705033241 0.40960547985575557 0.3226318818472681 0.3682439134401434 0.31585881143783862 0.40655648287223739 0.35285237195591135 -0.04765839274129216 0.2817282361998445 -0.18088873827829957 0.25360009584664589 0.1885732552330745 0.21390648572533222 -0.12005558244972712 0.034658592009004584 -0.002793375064026226 0.40803035474740545
leaf_count=2786 680 50 12968 311 172 28 71 21 210 23 113 20 21 49 89 96 35 23 54 37 32 1043 22 35 21 34 38 23 30 53 42 25 21 38 27 21 98 22 26
internal_value=0 0.554732 -0.238184 1.18816 1.32316 1.43144 1.35664 0.910659 1.80366 2.27681 2.08131 3.4955 5.53323 4.18079 1.5107 1.9268 -0.313265 2.48468 1.17819 3.79118 7.502 0.60645 8.31428 2.80996 3.70481 2.39238 2.79194 3.84312 3.75443 2.57409 2.54999 1.17178 0.756678 1.25218 2.90712 1.35596 0.407731 1.91012 4.39472
internal_count=19508 5860 13648 3074 2763 2591 2563 1283 1280 1070 1047 301 188 167 746 657 131 526 263 263 55 1262 42 208 171 209 125 73 138 104 136 94 74 87 69 48 1189 146 48
shrinkage=0.05


Tree=21
num_leaves=40
num_cat=0
split_feature=2 2 0 7 6 6 7 1 1 7 7 7 7 0 7 0 0 7 0 0 1 6 7 7 0 2 7 7 6 0 7 7 0 1 7 7 7 0 0
split_gain=2326.24 2341.36 810.643 462.559 512.63 1135.17 626.239 703.102 522.387 806.527 1690.08 703.782 5582.66 613.753 468.994 455.565 412.27 880.923 362.929 359.655 353.636 1296.01 342.496 1062.54 389.518 586.73 1359.72 1541.75 882.528 782.517 878.09 920.444 680.313 784.366 604.683 537.465 525.249 501.509 587.634
threshold=4.5000000000000009 2.5000000000000004 5.5000000000000009 34.194999694824226 0.92500001192092907 0.86500000953674328 35.514999389648445 4.5000000000000009 1.5000000000000002 69.055000305175795 73.534999847412124 57.43499946594239 61.135000228881843 3.5000000000000004 42.024999618530281 6.5000000000000009 8.5000000000000018 44.364999771118171 1.0000000180025095e-35 15.500000000000002 1.5000000000000002 0.064999999478459372 36.23500061035157 36.864999771118171 18.500000000000004 3.5000000000000004 57.190000534057624 55.664999008178718 0.10500000044703485 15.500000000000002 49.385000228881843 46.065000534057624 12.500000000000002 5.5000000000000009 58.424999237060554 39.135000228881843 52.354999542236335 10.500000000000002 8.5000000000000018
decision_type=2 2 2 2 2 2 2 2 2 2 2 2 2 2 2 2 2 2 2 2 2 2 2 2 2 2 2 2 2 2 2 2 2 2 2 2 2 2 2
left_child=1 18 -2 20 5 6 7 -5 11 13 -11 16 -13 14 -10 -15 17 -8 -1 -14 21 -3 -17 -24 25 34 27 28 29 32 31 -31 33 35 -25 -27 37 38 -37
right_child=2 3 -4 4 -6 -7 8 -9 9 10 -12 12 19 15 -16 22 -18 -19 -20 -21 -22 -23 23 24 -26 26 -28 -29 -30 30 -32 -33 -34 -35 -36 36 -38 -39 -40
leaf_value=0.07073518592160899 0.025801885047512331 0.028957994126129705 -0.015314496087829595 0.11485360550349984 -0.01433925900700919 0.3895110160511519 -0.032428892325753203 0.40503983475543842 0.3890432142317295 0.55529765011026311 -0.020476753890514374 0.85726056538877027 0.010193947511059898 -0.033508575818425902 0.11894199020953643 -0.077994357009191773 -0.026219889401875182 0.29785684740001506 -0.011046252735988056 -0.24110993643601739 -0.0028215923356220097 0.4388889535753564 0.34035163353625181 0.015942184320129688 0.023480954320473271 -0.027040494531393053 -0.0088273662270284183 0.51758849482084146 -0.085963525642187177 0.22930401804094969 0.12307856799782933 0.69209188010011413 -0.029780006722400068 -0.043680997441212344 0.27132833218574526 0.36700733892227477 0.020334222061293469 0.45024439654446075 0.097146339645219404
leaf_count=143 1328 156 12320 92 181 28 52 27 25 26 25 21 35 111 45 37 373 33 2643 24 483 22 37 318 347 20 153 29 39 22 37 21 57 36 25 38 21 35 43
internal_value=0 0.526996 -0.226274 1.12876 1.33178 1.46304 1.38266 3.61388 1.25531 1.55049 5.46111 0.406527 3.14316 1.41718 4.30813 1.27526 -0.0714867 1.91599 -0.136971 -1.84063 0.3876 1.59247 1.43948 1.52631 1.36887 1.71791 2.35709 3.33107 2.77931 3.31096 6.03313 9.10633 2.43987 3.33635 0.691127 4.3017 5.00863 5.84175 4.47496
internal_count=19508 5860 13648 3074 2413 2232 2204 119 2085 1547 51 538 80 1496 70 1426 458 85 2786 59 661 178 1315 1278 1241 894 551 398 369 330 80 43 250 193 343 157 137 116 81
shrinkage=0.05


Tree=22
num_leaves=40
num_cat=0
split_feature=2 2 0 0 7 6 6 7 1 1 7 7 7 7 0 0 7 1 5 7 7 3 7 7 0 7 7 7 1 1 7 0 7 7 7 0 1 1 7
split_gain=2099.44 2113.08 752.62 430.464 419.998 477.326 1111.29 553.563 657.829 448.825 695.284 1525.3 625.391 4999.7 521.953 449.95 423.267 370.637 1157.84 358.109 550.849 395.208 479.703 652.678 1186.77 339.211 866.324 626.772 559.081 1770.6 1292.67 506.704 461.966 356.301 906.295 537.056 1752.03 593.616 681.065
threshold=4.5000000000000009 2.5000000000000004 3.5000000000000004 22.500000000000004 34.194999694824226 0.92500001192092907 0.86500000953674328 35.514999389648445 4.5000000000000009 1.5000000000000002 69.055000305175795 73.534999847412124 57.43499946594239 61.135000228881843 3.5000000000000004 6.5000000000000009 42.024999618530281 1.5000000000000002 1.0000000180025095e-35 52.82500076293946 50.805000305175788 1.0000000180025095e-35 46.835000991821296 44.364999771118171 12.500000000000002 50.225000381469734 47.565000534057624 51.274999618530281 4.5000000000000009 3.5000000000000004 48.354999542236335 15.500000000000002 47.085000991821296 36.23500061035157 36.864999771118171 8.5000000000000018 3.5000000000000004 4.5000000000000009 38.145000457763679
decision_type=2 2 2 2 2 2 2 2 2 2 2 2 2 2 2 2 2 2 2 2 2 2 2 2 2 2 2 2 2 2 2 2 2 2 2 2 2 2 2
left_child=1 -1 -2 4 17 6 7 8 -6 12 14 -12 19 -14 16 -16 -11 18 -3 20 21 22 23 -9 -25 26 32 -27 29 30 -28 -32 33 -17 -35 36 -36 -37 -39
right_child=2 3 -4 -5 5 -7 -8 9 -10 10 11 -13 13 -15 15 25 -18 -19 -20 -21 -22 -23 -24 24 -26 27 28 -29 -30 -31 31 -33 -34 34 35 37 -38 38 -40
leaf_value=-0.0065061401412671877 0.040526944233981128 0.031855937472795602 -0.013436731832178929 -0.027857851178246226 0.11213382370351406 -0.01193051083206103 0.39293420745266811 -0.018898289767606186 0.39802032461246623 0.36959106510877615 0.52753276698864426 -0.019452917933464053 0.81439754821005339 -0.085995116704625313 -0.031833146932023069 -0.080897907145095593 0.11299488854180609 -0.0022881241391102475 0.41445438926634587 -0.16330762089139994 0.22299395785988152 0.21317754641175268 -0.13809287406790716 0.46084440009934569 -0.064647046781399028 -0.13666217115190293 0.47076718437930815 0.058989720389444313 0.049107548785773489 0.69516905691474684 0.19908350670621511 -0.12839017209631426 -0.14503268189728261 0.33450711622834206 0.48990503082672759 -0.00011814343986142591 -0.012920986988195561 -0.10484741230805715 0.15321728809375984
leaf_count=2786 680 141 12968 154 89 174 27 250 26 25 26 25 21 58 111 33 45 450 23 31 29 20 65 21 22 45 23 453 37 20 21 27 24 35 30 249 41 30 173
internal_value=0 0.500646 -0.214961 1.07232 1.15826 1.35395 1.48393 1.40216 3.53538 1.27889 1.56024 5.18805 0.477267 3.067 1.43013 1.29227 4.09273 0.423273 1.71026 0.0101702 0.259718 -0.0625165 -0.304196 0.241019 3.83977 1.46481 1.89283 0.826207 4.25972 5.59236 3.25123 0.297591 1.40021 1.57486 1.76369 1.434 3.99081 1.03238 2.30159
internal_count=19508 5860 13648 3074 2920 2306 2132 2105 115 1990 1473 51 517 79 1422 1352 70 614 164 438 407 378 358 293 43 1241 743 498 128 91 71 48 615 591 558 523 71 452 203
shrinkage=0.05


Tree=23
num_leaves=40
num_cat=0
split_feature=2 2 0 0 0 0 7 6 6 4 7 7 7 2 0 7 1 7 7 0 7 7 7 7 1 1 6 0 1 0 0 0 1 2 1 6 0 0 7
split_gain=1894.74 1907.05 680.766 398.385 410.823 473.25 457.271 411.237 1135.77 596.58 619.297 374.533 1177.1 414.701 756.37 987.141 1009.13 511.173 1157.73 747.729 505.023 500.721 400.281 1040.34 881.77 738.241 669.988 468.857 448.754 387.032 997.222 338.401 341.175 319.039 1160.66 1686.29 1558.66 489.443 312.129
threshold=4.5000000000000009 2.5000000000000004 5.5000000000000009 21.500000000000004 15.500000000000002 3.5000000000000004 29.384999275207523 0.92500001192092907 0.81499999761581432 1.0000000180025095e-35 43.854999542236335 70.024997711181655 66.354999542236342 3.5000000000000004 6.5000000000000009 35.23500061035157 2.5000000000000004 56.444999694824226 55.174999237060554 9.5000000000000018 57.674999237060554 52.354999542236335 44.364999771118171 46.594999313354499 2.5000000000000004 2.5000000000000004 0.10500000044703485 10.500000000000002 4.5000000000000009 12.500000000000002 10.500000000000002 5.5000000000000009 5.5000000000000009 11.500000000000002 4.5000000000000009 0.11499999836087228 12.500000000000002 16.500000000000004 56.940000534057624
decision_type=2 2 2 2 2 2 2 2 2 2 2 2 2 2 2 2 2 2 2 2 2 2 2 2 2 2 2 2 2 2 2 2 2 2 2 2 2 2 2
left_child=1 31 -2 4 5 -3 -6 8 9 38 -11 12 13 20 -15 16 -16 18 21 -19 -7 22 24 25 -17 -24 29 28 -26 30 -25 -1 -33 -4 -35 -36 -37 -38 -8
right_child=2 3 33 -5 6 11 7 -9 -10 10 -12 -13 -14 14 15 17 -18 19 -20 -21 -22 -23 23 26 27 -27 -28 -29 -30 -31 -32 32 -34 34 35 36 37 -39 -40
leaf_value=0.044746600275170315 0.023802026147191156 0.12643353898460283 -0.016690139700522032 -0.0027161277037778711 -0.05738183684923031 0.0014041136085201325 0.093823675735030268 -0.03388473883581658 0.47388781275600195 0.082889881766807866 -0.14962089676409959 -0.12888270923319986 0.34909184952576955 -0.043472874013556019 0.51946471863985066 -0.074507310330947082 0.082414406271917484 0.21877809393405917 0.43330986733021942 -0.086641321593139434 0.25582914849743249 -0.068867544594563943 0.55264552533626554 0.0680483358562924 0.19307338162775964 0.16559859282736267 -0.13414530869453187 0.29971012114547196 -0.083073492953553804 -0.016800528860517912 0.42149051558868644 -0.019590531568713869 0.033780080970676467 -0.021488620412464327 0.035657660894052333 0.66838121598675138 -0.021952212398702448 0.31551710310436432 0.1791507778913343
leaf_count=292 1328 156 10978 311 54 787 552 60 20 71 48 34 30 148 25 91 28 25 23 101 20 57 22 64 31 28 31 32 28 35 29 2146 348 936 342 21 22 21 133
internal_value=0 0.475613 -0.204213 1.0187 1.13948 0.863037 1.67734 1.8499 2.03395 1.84878 -0.21792 0.707352 0.775664 0.65966 1.17083 1.63539 5.7714 1.2682 1.7468 -0.520845 0.154191 1.39157 1.79522 2.7394 0.710964 6.71798 1.48828 2.91207 1.24041 2.49848 3.56523 -0.123617 -0.242869 -0.277539 0.18272 1.59477 6.30591 2.85717 2.20782
internal_count=19508 5860 13648 3074 2763 1825 938 884 824 804 119 1669 1635 1605 798 650 53 597 471 126 807 448 391 209 182 50 159 91 59 128 93 2786 2494 12320 1342 406 64 43 685
shrinkage=0.05


Tree=24
num_leaves=40
num_cat=0
split_feature=2 2 0 0 7 7 7 1 1 6 0 0 7 7 7 0 0 1 6 0 7 7 0 4 7 7 0 7 1 2 0 7 7 7 0 1 1 5 7
split_gain=1710 1721.11 632.64 362.032 361.165 401.705 1682.32 3882.49 707.119 1365.01 1033.11 1986.33 707.021 650.963 4450.47 590.554 575.862 767.237 1053.63 1247.93 1253.98 1095.56 631.551 534.845 468.957 401.628 393.358 473.221 331.231 318.881 1416.97 1337.31 1538.28 1003.1 761.587 319.097 314.906 1042.32 310.649
threshold=4.5000000000000009 2.5000000000000004 3.5000000000000004 22.500000000000004 34.194999694824226 70.024997711181655 66.575000762939467 3.5000000000000004 4.5000000000000009 0.2950000017881394 9.5000000000000018 14.500000000000002 73.305000305175795 61.135000228881843 60.155000686645515 10.500000000000002 8.5000000000000018 3.5000000000000004 0.13499999791383746 6.5000000000000009 39.135000228881843 44.645000457763679 16.500000000000004 1.0000000180025095e-35 63.354999542236335 79.645000457763686 3.5000000000000004 42.805000305175788 3.5000000000000004 3.5000000000000004 18.500000000000004 48.655000686645515 55.43499946594239 58.944999694824226 17.500000000000004 5.5000000000000009 1.5000000000000002 1.0000000180025095e-35 11.040000438690187
decision_type=2 2 2 2 2 2 2 2 2 2 2 2 2 2 2 2 2 2 2 2 2 2 2 2 2 2 2 2 2 2 2 2 2 2 2 2 2 2 2
left_child=1 38 -2 4 36 6 8 -8 13 15 -11 -12 -7 14 16 -10 17 18 19 26 -21 -22 -18 24 29 -14 27 -6 -15 34 31 -31 -33 -34 -17 -36 37 -3 -1
right_child=2 3 -4 -5 5 12 7 -9 9 10 11 -13 25 28 -16 23 22 -19 -20 20 21 -23 -24 -25 -26 -27 -28 -29 -30 30 -32 32 33 -35 35 -37 -38 -39 -40
leaf_value=0.081110465240598936 0.037310493940158805 0.026655235025265539 -0.012165188890327985 -0.026329152268666001 0.33509241741633528 -0.26315468251705171 0.76711805970049829 -0.15950395792722705 0.0001865497769580947 0.027156810462474826 0.72129703467642825 0.13897210077848285 0.23020088851451873 -0.20704915821552278 0.75302914746783001 -0.012019355104463857 -0.013593847485713836 -0.052309558337265763 -0.058195094487695193 0.10806874498311017 0.74810432506644209 0.27436870657480678 0.061284262472266704 -0.099272216856479648 -0.10074420514560881 -0.086669837981462494 0.012546603489471109 0.026460323579933331 0.039253663555497219 0.58870299433668449 0.016107023688299315 -0.098346909927204254 0.63724976688623425 0.15779524079213542 0.32977530845601 0.10648408380802721 -0.0033660956198970481 0.38966568915740307 -0.0090765732751932563
leaf_count=99 680 141 12968 154 27 26 26 20 180 26 27 32 20 39 22 82 635 71 57 36 23 26 506 28 21 20 76 23 21 30 70 28 20 24 32 32 450 23 2687
internal_value=0 0.451833 -0.194002 0.967767 1.04658 1.22805 1.2997 7.28478 1.17421 2.06672 5.79487 8.1092 -1.20345 0.813096 0.942122 1.48739 0.732253 1.87664 2.65097 3.68152 6.64246 9.93469 0.392248 2.21506 2.56201 1.43531 1.68407 3.86243 -2.41686 2.86426 3.78685 6.1646 3.82732 7.51458 1.77736 4.36259 0.365015 1.5513 -0.117436
internal_count=19508 5860 13648 3074 2920 2306 2240 46 2194 632 85 59 66 1562 1502 547 1480 339 268 211 85 49 1141 367 339 40 126 50 60 318 172 102 72 44 146 64 614 164 2786
shrinkage=0.05


Tree=25
num_leaves=40
num_cat=0
split_feature=2 2 0 0 0 0 7 6 6 4 7 3 0 2 7 7 7 1 7 1 6 0 4 7 1 7 1 7 7 1 0 2 1 6 7 0 7 7 1
split_gain=1543.28 1553.3 571.677 334.006 346.353 417.289 391.536 367.793 1035.91 522.369 558.175 315.703 338.435 571.371 2405.65 899.452 757.039 875.136 413.01 528.592 2534.23 1507.91 987.468 817.054 1448.91 661.448 533.023 358.96 996.968 1271.51 303.973 287.932 1047.49 1521.88 1413.86 495.212 271.288 1143.94 1429.68
threshold=4.5000000000000009 2.5000000000000004 5.5000000000000009 21.500000000000004 15.500000000000002 3.5000000000000004 29.384999275207523 0.92500001192092907 0.81499999761581432 1.0000000180025095e-35 43.854999542236335 1.0000000180025095e-35 6.5000000000000009 3.5000000000000004 58.194999694824226 67.764999389648452 35.23500061035157 2.5000000000000004 64.784999847412124 4.5000000000000009 0.35500000417232519 9.5000000000000018 1.0000000180025095e-35 44.364999771118171 2.5000000000000004 47.085000991821296 2.5000000000000004 52.354999542236335 47.565000534057624 1.5000000000000002 1.0000000180025095e-35 11.500000000000002 4.5000000000000009 0.11499999836087228 42.284999847412116 16.500000000000004 56.940000534057624 61.135000228881843 2.5000000000000004
decision_type=2 2 2 2 2 2 2 2 2 2 2 2 2 2 2 2 2 2 2 2 2 2 2 2 2 2 2 2 2 2 2 2 2 2 2 2 2 2 2
left_child=1 30 -2 4 5 -3 -6 8 9 36 -11 12 -7 14 -14 16 17 -15 19 21 25 22 23 26 -25 -21 -18 28 -23 -30 -1 -4 -33 -34 35 -35 -8 -38 -39
right_child=2 3 31 -5 6 11 7 -9 -10 10 -12 -13 13 15 -16 -17 18 -19 -20 20 -22 27 -24 24 -26 -27 -28 -29 29 -31 -32 32 33 34 -36 -37 37 38 -40
leaf_value=0.065424893869386699 0.021953486724958633 0.11700998450564022 -0.015247373519633982 -0.0031563552789737465 -0.054511223788614629 -0.012846851831123439 0.085388654701671562 -0.035342868934385478 0.44833027966320516 0.076378804175052009 -0.14436005856841802 -0.077402697328943768 -0.0026377056098665841 0.4895900017172099 0.55416640661656857 -0.17025116050944611 -0.050873215070792614 0.071227441847324366 0.29498314949728194 0.23428235748096515 0.63200520737015686 -0.088829626510082527 -0.047918536169454462 0.62057325428929833 0.12494450430075328 -0.016206013924593844 0.27800697196613661 -0.12156717104006963 -0.12718759741148222 0.34383167641139345 -0.0094198389570121291 -0.019805928797293933 0.034483036904307138 -0.011429527153571447 0.64871304124593743 0.32544731378555297 0.37708263665784236 -0.2490793389769701 0.19059734051115812
leaf_count=143 1328 156 10978 311 54 292 552 60 20 71 48 64 645 25 20 34 28 25 21 38 23 103 40 29 30 86 22 83 23 38 2643 936 342 24 20 20 43 26 64
internal_value=0 0.429241 -0.184302 0.919379 1.02997 0.776141 1.52382 1.6835 1.85756 1.68072 -0.253174 0.62995 0.716799 0.933349 0.282166 1.60162 1.87886 5.60817 1.54824 1.37996 2.99934 0.778822 3.29126 4.85076 7.37117 1.21113 1.87668 -0.73678 0.120834 3.32468 -0.111564 -0.251497 0.185749 1.5272 6.00278 2.83393 2.01668 3.29875 1.27159
internal_count=19508 5860 13648 3074 2763 1825 938 884 824 804 119 1669 1605 1313 665 648 614 50 564 543 147 396 149 109 59 124 50 247 164 61 2786 12320 1342 406 64 44 685 133 90
shrinkage=0.05


Tree=26
num_leaves=40
num_cat=0
split_feature=2 2 0 0 7 7 1 0 7 7 1 7 1 6 7 7 7 7 0 6 1 7 7 7 0 0 7 0 0 2 1 4 7 7 1 0 6 7 7
split_gain=1392.81 1401.86 531.805 304.512 308.207 397.079 316.974 333.377 308.81 1603.72 3532.84 639.374 458.414 632.088 578.19 2983.06 445.697 367.454 357.146 581.72 863.555 982.109 1842.52 1070.09 684.845 473.021 418.716 311.065 294.987 494.75 722.072 329.101 559.337 287.112 487.072 578.461 471.481 776.991 348.139
threshold=4.5000000000000009 2.5000000000000004 3.5000000000000004 22.500000000000004 34.194999694824226 35.514999389648445 4.5000000000000009 9.5000000000000018 70.024997711181655 66.575000762939467 3.5000000000000004 73.305000305175795 4.5000000000000009 0.73500001430511486 60.905000686645515 59.454999923706062 52.82500076293946 79.645000457763686 8.5000000000000018 0.13499999791383746 3.5000000000000004 40.085000991821296 45.254999160766609 48.354999542236335 6.5000000000000009 15.500000000000002 51.784999847412116 9.5000000000000018 11.500000000000002 3.5000000000000004 5.5000000000000009 1.0000000180025095e-35 44.094999313354499 39.135000228881843 1.5000000000000002 19.500000000000004 0.89499998092651378 51.545000076293952 46.065000534057624
decision_type=2 2 2 2 2 2 2 2 2 2 2 2 2 2 2 2 2 2 2 2 2 2 2 2 2 2 2 2 2 2 2 2 2 2 2 2 2 2 2
left_child=1 -1 -2 4 -3 6 7 -6 9 12 -11 -10 14 27 15 16 18 -13 19 20 21 -7 24 -24 -23 26 -20 -14 29 -29 -31 -30 -33 34 -27 -36 37 38 -35
right_child=2 3 -4 -5 5 8 -8 -9 11 10 -12 17 13 -15 -16 -17 -18 -19 25 -21 -22 22 23 -25 -26 33 -28 28 31 30 -32 32 -34 36 35 -37 -38 -39 -40
leaf_value=-0.005299291647943934 0.034347295800552645 0.015803723489859596 -0.011014453839897917 -0.024854876989401975 0.20353940104134383 0.037007926971140047 0.27843029067153113 0.010723332198811513 -0.24879235969139982 0.73037269135507255 -0.15353921338915827 0.22124763809144499 0.0094294377431577564 0.29713421094259534 -0.11094513990318598 0.5166215356439352 -0.041328359837761994 -0.081842273771762855 -0.025219491417601037 -0.050621146569817754 -0.054762143524838429 0.33545751627534631 -0.138273177213139 0.29914103039893608 0.72643971854732159 0.023965798038989308 0.20919470220804215 0.021759548836520742 0.095027467105474939 0.49316886893727568 0.088067405772480109 0.10761503853968211 -0.22515866665736489 -0.046646161614309838 0.091861994885678949 0.42763507981663174 0.20246325994196993 0.28654531398415567 0.062820981667221831
leaf_count=2786 680 614 12968 154 40 71 32 51 26 26 20 20 147 33 67 32 197 20 401 59 51 24 27 29 21 52 20 28 297 22 22 28 23 184 29 23 39 25 120
internal_value=0 0.407779 -0.175087 0.87341 0.94569 1.11333 2.8615 1.90955 1.01483 1.08124 6.92126 -1.1153 0.951527 1.68819 0.651052 0.788009 0.565398 1.39405 0.798775 1.77986 2.51862 3.59017 5.59365 1.7649 10.3583 0.488959 -0.281669 1.44058 1.87877 3.72124 5.81236 1.49757 -0.849188 1.17632 2.64343 4.80754 0.761702 0.371991 -0.0687089
internal_count=19508 5860 13648 3074 2920 2306 123 91 2183 2117 46 66 2071 600 1471 1404 1372 40 1175 282 223 172 101 56 45 893 421 567 420 72 44 348 51 472 104 52 368 329 304
shrinkage=0.05


Tree=27
num_leaves=40
num_cat=0
split_feature=2 2 0 0 0 3 7 7 7 7 2 7 1 0 1 0 6 7 7 6 7 7 0 7 7 1 6 7 7 7 0 0 7 7 7 0 1 0 2
split_gain=1257.01 1265.18 480.051 302.236 354.397 380.515 715.308 2680.31 716.99 4122.43 742.988 1957.87 946.393 760.615 709.46 2694.48 2257.64 1386.84 1469.34 833.857 768.883 1189.96 3247.55 1336.15 929.711 603.615 602.09 1616.15 367.159 481.783 346.84 473.489 1377.13 533.274 331.977 282.86 308.412 263.736 259.859
threshold=4.5000000000000009 2.5000000000000004 5.5000000000000009 3.5000000000000004 6.5000000000000009 1.0000000180025095e-35 66.575000762939467 70.024997711181655 60.905000686645515 60.155000686645515 3.5000000000000004 32.164999008178718 1.5000000000000002 18.500000000000004 4.5000000000000009 9.5000000000000018 0.30500000715255743 48.655000686645515 55.895000457763679 0.15500000119209292 52.354999542236335 47.565000534057624 8.5000000000000018 49.385000228881843 51.274999618530281 1.0000000180025095e-35 0.87500000000000011 38.885000228881843 38.704999923706062 41.530000686645515 8.5000000000000018 18.500000000000004 52.065000534057624 47.565000534057624 43.594999313354499 5.5000000000000009 5.5000000000000009 15.500000000000002 11.500000000000002
decision_type=2 2 2 2 2 2 2 2 2 2 2 2 2 2 2 2 2 2 2 2 2 2 2 2 2 2 2 2 2 2 2 2 2 2 2 2 2 2 2
left_child=1 35 -2 -3 -5 6 8 -8 9 10 26 -12 30 14 19 -16 17 -17 -19 20 21 22 -14 -23 -25 -7 -6 -28 -15 -30 34 33 -33 -32 -13 -1 -37 -22 -4
right_child=2 3 38 4 5 25 7 -9 -10 -11 11 12 13 28 15 16 -18 18 -20 -21 37 23 -24 24 -26 -27 27 -29 29 -31 31 32 -34 -35 -36 36 -38 -39 -40
leaf_value=0.041526637843822781 0.020245166801488454 0.10929347196928202 -0.013934279355380158 -0.01439307039118793 0.011146378237365733 -0.25824294326206049 0.53007536346421524 -0.067105009052015482 -0.077555506715308073 0.74771136029490404 0.55430858731269839 -0.015224189610908863 0.45718861433366942 -0.16478376273925488 -0.051850239896485885 0.49994500135221798 0.76747232996500458 -0.1343456069182139 0.40390471379671783 -0.060049302240212758 -0.066893967412985297 0.6033357726088886 -0.1331818720495159 -0.045240040620168051 0.40475323118946771 0.0094322200893995692 -0.031591685285622423 0.53801736831665037 0.26720100577920675 0.0035954229605312535 -0.012413457581816717 -0.056836737287304706 0.41938704095780849 -0.2076017961632145 0.25974057146481105 -0.017566208563613094 0.033177199281067001 0.14305085065286785 0.009373793184712818
leaf_count=292 1328 156 10978 292 1199 24 34 42 115 21 21 23 36 26 62 31 26 32 21 75 52 29 66 24 22 172 33 20 20 130 86 63 20 59 21 2146 348 21 1342
internal_value=0 0.38739 -0.166333 0.829739 0.757239 0.87345 0.981559 4.00109 0.884072 1.00915 0.877117 1.53602 1.3238 1.96 2.59264 4.23498 7.20646 4.68601 1.57847 1.72346 2.60079 3.72704 1.50368 6.75081 3.39948 -0.466887 0.368727 3.6671 0.173528 0.774857 -0.250341 -0.746407 1.15832 -1.8367 2.32018 -0.100687 -0.209715 -0.129978 -0.227907
internal_count=19508 5860 13648 3074 2918 2626 2430 76 2354 2239 2218 966 945 673 497 172 110 84 53 325 250 177 102 75 46 196 1252 53 176 150 272 228 83 145 44 2786 2494 73 12320
shrinkage=0.05


end of trees

feature importances:
Column_7=416
Column_0=275
Column_1=181
Column_2=114
Column_6=70
Column_4=17
Column_5=11
Column_3=8

parameters:
[boosting: gbdt]
[objective: regression]
[metric: rmse]
[tree_learner: serial]
[device_type: cpu]
[data: ]
[valid: ]
[num_iterations: 100]
[learning_rate: 0.05]
[num_leaves: 40]
[num_threads: 0]
[max_depth: -1]
[min_data_in_leaf: 20]
[min_sum_hessian_in_leaf: 0.001]
[bagging_fraction: 1]
[bagging_freq: 0]
[bagging_seed: 3]
[feature_fraction: 1]
[feature_fraction_seed: 2]
[early_stopping_round: 0]
[max_delta_step: 0]
[lambda_l1: 0]
[lambda_l2: 0]
[min_gain_to_split: 0]
[drop_rate: 0.1]
[max_drop: 50]
[skip_drop: 0.5]
[xgboost_dart_mode: 0]
[uniform_drop: 0]
[drop_seed: 4]
[top_rate: 0.2]
[other_rate: 0.1]
[min_data_per_group: 100]
[max_cat_threshold: 32]
[cat_l2: 10]
[cat_smooth: 10]
[max_cat_to_onehot: 4]
[top_k: 20]
[monotone_constraints: ]
[feature_contri: ]
[forcedsplits_filename: ]
[refit_decay_rate: 0.9]
[verbosity: 1]
[max_bin: 255]
[min_data_in_bin: 3]
[bin_construct_sample_cnt: 200000]
[histogram_pool_size: -1]
[data_random_seed: 1]
[output_model: LightGBM_model.txt]
[snapshot_freq: -1]
[input_model: ]
[output_result: LightGBM_predict_result.txt]
[initscore_filename: ]
[valid_data_initscores: ]
[pre_partition: 0]
[enable_bundle: 1]
[max_conflict_rate: 0]
[is_enable_sparse: 1]
[sparse_threshold: 0.8]
[use_missing: 1]
[zero_as_missing: 0]
[two_round: 0]
[save_binary: 0]
[enable_load_from_binary_file: 1]
[header: 0]
[label_column: ]
[weight_column: ]
[group_column: ]
[ignore_column: ]
[categorical_feature: ]
[predict_raw_score: 0]
[predict_leaf_index: 0]
[predict_contrib: 0]
[num_iteration_predict: -1]
[pred_early_stop: 0]
[pred_early_stop_freq: 10]
[pred_early_stop_margin: 10]
[convert_model_language: ]
[convert_model: gbdt_prediction.cpp]
[num_class: 1]
[is_unbalance: 0]
[scale_pos_weight: 1]
[sigmoid: 1]
[boost_from_average: 1]
[reg_sqrt: 0]
[alpha: 0.9]
[fair_c: 1]
[poisson_max_delta_step: 0.7]
[tweedie_variance_power: 1.5]
[max_position: 20]
[label_gain: ]
[metric_freq: 1]
[is_provide_training_metric: 0]
[eval_at: ]
[num_machines: 1]
[local_listen_port: 12400]
[time_out: 120]
[machine_list_filename: ]
[machines: ]
[gpu_platform_id: -1]
[gpu_device_id: -1]
[gpu_use_dp: 0]

end of parameters

pandas_categorical:null
