tree
version=v2
num_class=1
num_tree_per_iteration=1
label_index=0
max_feature_idx=8
objective=regression
feature_names=Column_0 Column_1 Column_2 Column_3 Column_4 Column_5 Column_6 Column_7 Column_8
feature_infos=[0:23] [0:6] [1:12] [0:2] none [0:1] [0:1] [0:1] [-3.8499999046325684:95.489997863769531]
tree_sizes=695 703 706 712 713 716 715 715 716 713 721 705 711 716 708 705 705 706 705

Tree=0
num_leaves=8
num_cat=0
split_feature=2 8 8 8 2 2 0
split_gain=6712.35 1965.83 1010.03 741.341 797.348 381.8 348.39
threshold=3.5000000000000004 61.885000228881843 64.764999389648452 37.405000686645515 1.5000000000000002 4.5000000000000009 10.500000000000002
decision_type=2 2 2 2 2 2 2
left_child=1 3 -3 4 -1 -2 -5
right_child=5 2 -4 6 -6 -7 -8
leaf_value=1.1442291900544428 0.98911611291968549 2.5504110344398563 1.344411026572043 1.0579012044260621 0.99868102854126872 0.91818918746822087 1.2031025987449411
leaf_count=924 1214 20 20 306 1311 10955 1070
internal_value=0 1.18446 8.15635 1.10723 0.751709 -0.361532 1.68469
internal_count=15820 3651 40 3611 2235 12169 1376
shrinkage=1


Tree=1
num_leaves=8
num_cat=0
split_feature=2 8 8 2 8 7 0
split_gain=5198.05 1522.34 782.163 685.161 956.822 867.101 592.08
threshold=3.5000000000000004 61.885000228881843 64.764999389648452 2.5000000000000004 41.905000686645515 0.47499999403953558 10.500000000000002
decision_type=2 2 2 2 2 2 2
left_child=1 3 -3 6 -5 -6 -1
right_child=-2 2 -4 4 5 -7 -8
leaf_value=0.07048708691417313 -0.038177823117704644 1.391950668811798 0.33067069101333618 -0.019316882725167277 0.16797564022705472 0.93344059047491657 0.19665182123306488
leaf_count=808 12169 20 20 901 290 23 1589
internal_value=0 1.04232 7.17759 0.974363 0.362284 1.86853 1.28436
internal_count=15820 3651 40 3611 1214 313 2397
shrinkage=0.12


Tree=2
num_leaves=8
num_cat=0
split_feature=2 8 8 2 8 7 8
split_gain=4025.37 1178.9 605.707 530.589 740.963 671.483 369.702
threshold=3.5000000000000004 61.885000228881843 64.764999389648452 2.5000000000000004 41.905000686645515 0.47499999403953558 18.479999542236332
decision_type=2 2 2 2 2 2 2
left_child=1 3 -3 6 -5 -6 -1
right_child=-2 2 -4 4 5 -7 -8
leaf_value=-0.0079945881108357663 -0.033596486182945681 1.2249166288375852 0.2909901752471924 -0.016998857962800713 0.14781855807633235 0.82142770142496924 0.15109244553926582
leaf_count=233 12169 20 20 901 290 23 2164
internal_value=0 0.917246 6.31628 0.857439 0.31881 1.64431 1.13024
internal_count=15820 3651 40 3611 1214 313 2397
shrinkage=0.12


Tree=3
num_leaves=8
num_cat=0
split_feature=2 8 8 8 2 0 7
split_gain=3117.24 912.939 469.06 448.153 462.062 305.084 301.808
threshold=3.5000000000000004 61.885000228881843 64.764999389648452 37.405000686645515 1.5000000000000002 5.5000000000000009 0.10500000044703485
decision_type=2 2 2 2 2 2 2
left_child=1 3 -3 4 6 -2 -1
right_child=5 2 -4 -5 -6 -7 -8
leaf_value=0.14598975536032394 0.028941277016040889 1.0779266045093536 0.25607137405872349 0.14442345181545024 0.011568623347126919 -0.035735480424130418 -0.076740571333437549
leaf_count=826 1161 20 20 1376 1311 11008 98
internal_value=0 0.807176 5.55832 0.754547 0.478126 -0.246374 1.01972
internal_count=15820 3651 40 3611 2235 12169 924
shrinkage=0.12


Tree=4
num_leaves=8
num_cat=0
split_feature=2 2 8 2 8 1 8
split_gain=2519.25 372.889 422.594 641.318 2057.43 659.199 321.766
threshold=4.5000000000000009 2.5000000000000004 41.905000686645515 3.5000000000000004 60.555000305175788 1.0000000180025095e-35 63.085000991821296
decision_type=2 2 2 2 2 2 2
left_child=1 6 -3 4 5 -4 -1
right_child=-2 2 3 -5 -6 -7 -8
leaf_value=0.1092278926372528 -0.032252896556240522 -0.012198513476765928 0.63738501886526744 0.035982882281035411 1.4112912799715995 0.090725096384684234 -0.33234903693199153
leaf_count=2400 10955 1204 36 911 20 270 24
internal_value=0 0.595977 0.32009 0.730584 1.93424 1.29198 0.873799
internal_count=15820 4865 2441 1237 326 306 2424
shrinkage=0.12


Tree=5
num_leaves=8
num_cat=0
split_feature=2 0 0 2 0 1 8
split_gain=1738.24 363.779 503.104 495.082 388.672 547.859 310.265
threshold=4.5000000000000009 10.500000000000002 3.5000000000000004 2.5000000000000004 13.500000000000002 4.5000000000000009 27.414999961853031
decision_type=2 2 2 2 2 2 2
left_child=1 2 6 4 5 -3 -1
right_child=-2 3 -4 -5 -6 -7 -8
leaf_value=0.42415353447198867 -0.028867478971721747 0.31266691379323852 -0.016405294707964962 0.033361339164910575 0.09338333959649936 -0.0015987380655533676 0.09818990542347493
leaf_count=54 10948 299 1399 1603 1218 109 190
internal_value=0 0.477459 0.0943871 0.672376 1.06116 1.90591 1.41941
internal_count=15820 4872 1643 3229 1626 408 244
shrinkage=0.12


Tree=6
num_leaves=8
num_cat=0
split_feature=2 0 0 2 8 8 0
split_gain=1346.09 281.71 389.603 383.392 325.957 427.15 390.072
threshold=4.5000000000000009 10.500000000000002 3.5000000000000004 2.5000000000000004 17.239999771118168 22.095000267028812 13.500000000000002
decision_type=2 2 2 2 2 2 2
left_child=1 2 -1 4 -3 -6 -7
right_child=-2 3 -4 -5 5 6 -8
leaf_value=0.1498898685711329 -0.025403381221086211 -0.11814031331666879 -0.014436659811223038 0.029357977693276485 0.35473884493112562 0.21398178783156566 0.07056067341270017
leaf_count=244 10948 84 1399 1603 108 367 1067
internal_value=0 0.420164 0.0830607 0.591691 0.933823 1.03832 0.893884
internal_count=15820 4872 1643 3229 1626 1542 1434
shrinkage=0.12


Tree=7
num_leaves=8
num_cat=0
split_feature=2 8 0 2 8 1 8
split_gain=1050.15 326.238 247.495 272.079 417.886 827.91 260.481
threshold=3.5000000000000004 61.885000228881843 10.500000000000002 2.5000000000000004 42.405000686645515 1.0000000180025095e-35 17.239999771118168
decision_type=2 2 2 2 2 2 2
left_child=1 2 -1 6 -5 -6 -4
right_child=-2 -3 3 4 5 -7 -8
leaf_value=0.0071300341763701194 -0.018741159099944369 0.3832189504490342 -0.10396347388625145 -0.040692823307608865 0.89048572397232051 0.081274014370782036 0.11313795253027523
leaf_count=1234 12169 43 84 554 20 203 1513
internal_value=0 0.455323 0.42269 0.611518 0.126175 1.28208 0.847656
internal_count=15820 3651 3608 2374 777 223 1597
shrinkage=0.12


Tree=8
num_leaves=8
num_cat=0
split_feature=2 2 7 0 0 7 0
split_gain=846.429 198.29 283.689 263.782 248.74 229.837 386.887
threshold=4.5000000000000009 1.5000000000000002 0.31499999761581426 1.5000000000000002 16.500000000000004 0.054999999701976783 16.500000000000004
decision_type=2 2 2 2 2 2 2
left_child=1 2 3 -1 -5 -3 -7
right_child=-2 5 -4 4 -6 6 -8
leaf_value=0.35287304238269201 -0.020106034633405111 0.010655097956223509 -0.071303993039406266 0.044240539218046826 0.16416423446992984 0.024468925740424686 0.21522293521717648
leaf_count=57 10948 2893 156 683 392 462 229
internal_value=0 0.333496 0.670025 0.844246 0.73309 0.212556 0.730713
internal_count=15820 4872 1288 1132 1075 3584 691
shrinkage=0.12


Tree=9
num_leaves=8
num_cat=0
split_feature=2 0 0 0 0 8 8
split_gain=655.475 169.227 154.464 265.572 233.97 219.08 338.89
threshold=4.5000000000000009 5.5000000000000009 10.500000000000002 3.5000000000000004 13.500000000000002 27.414999961853031 22.095000267028812
decision_type=2 2 2 2 2 2 2
left_child=2 -2 3 5 -4 6 -1
right_child=1 -3 4 -5 -6 -7 -8
leaf_value=0.044392184519342008 0.027543673488680875 -0.022613761782863492 0.10788938983377146 -0.014885309482255605 0.032290487393411844 0.060166958692826719 0.64603937566280367
leaf_count=28 1074 9874 776 1399 2453 190 26
internal_value=0 -0.147444 0.293476 0.0438587 0.420488 1.00655 2.78395
internal_count=15820 10948 4872 1643 3229 244 54
shrinkage=0.12


Tree=10
num_leaves=8
num_cat=0
split_feature=2 0 0 1 7 1 0
split_gain=677.615 193.678 678.279 393.922 349.272 311.845 304.293
threshold=4.5000000000000009 10.500000000000002 13.500000000000002 5.5000000000000009 0.024999999441206459 1.0000000180025095e-35 3.5000000000000004
decision_type=2 2 2 2 2 2 2
left_child=1 6 3 4 5 -3 -1
right_child=-2 2 -4 -5 -6 -7 -8
leaf_value=0.12384479662186876 -0.016132688774270959 0.42453889364186598 0.023579066578889401 -0.070956653673201794 0.029927912384823518 0.18718110541915586 -0.018025336601855593
leaf_count=258 10921 98 2460 100 162 427 1394
internal_value=0 0.313181 0.455005 1.26306 1.53299 1.92907 0.0344261
internal_count=15820 4899 3247 787 687 525 1652
shrinkage=0.12


Tree=11
num_leaves=8
num_cat=0
split_feature=2 0 0 8 8 0 1
split_gain=524.745 149.984 525.259 453.978 712.383 756.679 431.356
threshold=4.5000000000000009 10.500000000000002 13.500000000000002 48.375000000000007 54.48500061035157 12.500000000000002 3.5000000000000004
decision_type=2 2 2 2 2 2 2
left_child=1 -1 3 -3 5 -5 -6
right_child=-2 2 -4 4 6 -7 -8
leaf_value=0.0036354016702279412 -0.014196764766138426 0.078753064092576805 0.020749576613193422 0.80352705274757585 0.31310506318165704 0.041746097611529483 -0.13706963927196017
leaf_count=1652 10921 579 2460 57 65 28 58
internal_value=0 0.275599 0.400405 1.1115 2.37867 4.6049 0.84023
internal_count=15820 4899 3247 787 208 85 123
shrinkage=0.12


Tree=12
num_leaves=8
num_cat=0
split_feature=2 8 2 7 8 8 8
split_gain=406.362 116.386 332.147 360.533 502.513 1569.1 247.604
threshold=4.5000000000000009 42.405000686645515 1.5000000000000002 0.32500000298023229 39.07500076293946 39.73500061035157 44.725000381469734
decision_type=2 2 2 2 2 2 2
left_child=1 2 3 4 -1 -6 -3
right_child=-2 6 -4 -5 5 -7 -8
leaf_value=0.063808695220105016 -0.012493153365472005 0.1614385257543258 -0.011757074301095148 -0.13564757101503866 1.2166881705367047 0.081903864934637735 0.034691101877081194
leaf_count=920 10921 265 2139 112 23 74 1366
internal_value=0 0.242527 0.133639 0.572455 0.759986 2.9248 0.460705
internal_count=15820 4899 3268 1129 1017 97 1631
shrinkage=0.12


Tree=13
num_leaves=8
num_cat=0
split_feature=2 8 2 7 7 2 1
split_gain=314.687 111.368 167.673 203.666 241.022 612.22 157.826
threshold=4.5000000000000009 48.375000000000007 2.5000000000000004 0.58499997854232799 0.2950000017881394 1.5000000000000002 5.5000000000000009
decision_type=2 2 2 2 2 2 2
left_child=1 2 3 4 6 -6 -1
right_child=-2 -3 -4 -5 5 -7 -8
leaf_value=0.0547830453501498 -0.01099397693140124 0.061631257397244399 -0.01165427062405172 -0.083887283114095518 -0.062826699008544276 0.57420891361577164 -0.041925907950652271
leaf_count=1649 10921 987 1711 180 45 42 285
internal_value=0 0.213424 0.137691 0.320226 0.411009 2.03923 0.337764
internal_count=15820 4899 3912 2201 2021 87 1934
shrinkage=0.12


Tree=14
num_leaves=8
num_cat=0
split_feature=2 0 0 0 8 8 2
split_gain=243.694 123.525 213.739 394.519 335.687 565.84 574.054
threshold=4.5000000000000009 3.5000000000000004 10.500000000000002 13.500000000000002 48.375000000000007 52.129999160766609 3.5000000000000004
decision_type=2 2 2 2 2 2 2
left_child=1 -1 -3 4 -4 -6 -7
right_child=-2 2 3 -5 5 6 -8
leaf_value=0.10335426887800526 -0.0096746964522764229 -0.021258255148288451 0.06189761930603746 0.011259614871748121 0.60098585370928048 0.40601353077705088 -0.056792533866669
leaf_count=258 10921 1394 579 2460 48 65 95
internal_value=0 0.187813 0.150374 0.290987 0.90726 1.99691 1.09352
internal_count=15820 4899 4641 3247 787 208 160
shrinkage=0.12


Tree=15
num_leaves=8
num_cat=0
split_feature=2 1 8 8 8 1 1
split_gain=345.936 462.071 777.572 811.794 575.163 537.645 451.648
threshold=1.5000000000000002 2.5000000000000004 43.48500061035157 35.895000457763679 40.444999694824226 5.5000000000000009 4.5000000000000009
decision_type=2 2 2 2 2 2 2
left_child=1 -1 3 -3 5 6 -5
right_child=-2 2 -4 4 -6 -7 -8
leaf_value=-0.018482659417758143 -0.0027644916061011432 0.093371274469589649 -0.16610496400175867 0.43157798294751148 0.06605170583023745 -0.0021830841473170692 0.95169695182280112
leaf_count=572 14528 440 111 53 51 21 44
internal_value=0 0.516929 1.04996 1.49363 3.35656 4.56938 5.56257
internal_count=15820 1292 720 609 169 118 97
shrinkage=0.12


Tree=16
num_leaves=8
num_cat=0
split_feature=2 1 8 8 0 0 0
split_gain=267.893 357.827 602.151 628.653 698.627 540.413 337.078
threshold=1.5000000000000002 2.5000000000000004 43.48500061035157 35.895000457763679 18.500000000000004 12.500000000000002 6.5000000000000009
decision_type=2 2 2 2 2 2 2
left_child=1 -1 3 -3 5 6 -5
right_child=-2 2 -4 4 -6 -7 -8
leaf_value=-0.016264740648529639 -0.0024327515538587227 0.082166719180616465 -0.14617236517571114 0.65525747051239003 -0.056781234334815633 0.80479449757039545 0.11559544672966003
leaf_count=572 14528 440 111 25 44 50 50
internal_value=0 0.454898 0.923967 1.31439 2.95378 4.16006 2.46236
internal_count=15820 1292 720 609 169 125 75
shrinkage=0.12


Tree=17
num_leaves=8
num_cat=0
split_feature=2 8 8 1 2 1 0
split_gain=211.713 218.222 330.615 380.575 515.342 958.77 270.608
threshold=4.5000000000000009 18.479999542236332 23.695000648498539 4.5000000000000009 1.5000000000000002 2.5000000000000004 11.500000000000002
decision_type=2 2 2 2 2 2 2
left_child=1 -1 3 4 5 -3 -6
right_child=-2 2 -4 -5 6 -7 -8
leaf_value=-0.078225512052966739 -0.0072512730248048612 0.18065998851169238 0.021084561097178441 -0.044313921538683083 -0.10685581554066051 1.0333628834218815 0.28755797502139341
leaf_count=289 10986 55 4269 91 55 29 46
internal_value=0 0.190706 0.244283 1.30501 2.12858 3.95871 0.606485
internal_count=15820 4834 4545 276 185 84 101
shrinkage=0.12


Tree=18
num_leaves=8
num_cat=0
split_feature=2 1 8 8 0 0 8
split_gain=174.232 262.975 480.873 869.68 586.096 1120.18 280.497
threshold=1.5000000000000002 2.5000000000000004 40.914999008178718 35.895000457763679 18.500000000000004 10.500000000000002 18.479999542236332
decision_type=2 2 2 2 2 2 2
left_child=1 -1 3 6 5 -5 -3
right_child=-2 2 -4 4 -6 -7 -8
leaf_value=-0.01678845489163186 -0.0020332289914501062 -0.1138477665398802 -0.093503460595562207 0.13762840509414673 0.0022716483824393326 0.99042785685113133 0.11642643737165551
leaf_count=572 14528 98 157 42 34 47 342
internal_value=0 0.366263 0.768385 1.19995 3.55066 4.89986 0.542817
internal_count=15820 1292 720 563 123 89 440
shrinkage=0.12


end of trees

feature importances:
Column_8=43
Column_2=35
Column_0=32
Column_1=14
Column_7=9

parameters:
[boosting: gbdt]
[objective: regression]
[metric: rmse]
[tree_learner: serial]
[device_type: cpu]
[data: ]
[valid: ]
[num_iterations: 100]
[learning_rate: 0.12]
[num_leaves: 8]
[num_threads: 0]
[max_depth: -1]
[min_data_in_leaf: 20]
[min_sum_hessian_in_leaf: 0.001]
[bagging_fraction: 0.8]
[bagging_freq: 5]
[bagging_seed: 3]
[feature_fraction: 0.9]
[feature_fraction_seed: 2]
[early_stopping_round: 0]
[max_delta_step: 0]
[lambda_l1: 0]
[lambda_l2: 0]
[min_gain_to_split: 0]
[drop_rate: 0.1]
[max_drop: 50]
[skip_drop: 0.5]
[xgboost_dart_mode: 0]
[uniform_drop: 0]
[drop_seed: 4]
[top_rate: 0.2]
[other_rate: 0.1]
[min_data_per_group: 100]
[max_cat_threshold: 32]
[cat_l2: 10]
[cat_smooth: 10]
[max_cat_to_onehot: 4]
[top_k: 20]
[monotone_constraints: ]
[feature_contri: ]
[forcedsplits_filename: ]
[refit_decay_rate: 0.9]
[verbosity: 0]
[max_bin: 255]
[min_data_in_bin: 3]
[bin_construct_sample_cnt: 200000]
[histogram_pool_size: -1]
[data_random_seed: 1]
[output_model: LightGBM_model.txt]
[snapshot_freq: -1]
[input_model: ]
[output_result: LightGBM_predict_result.txt]
[initscore_filename: ]
[valid_data_initscores: ]
[pre_partition: 0]
[enable_bundle: 1]
[max_conflict_rate: 0]
[is_enable_sparse: 1]
[sparse_threshold: 0.8]
[use_missing: 1]
[zero_as_missing: 0]
[two_round: 0]
[save_binary: 0]
[enable_load_from_binary_file: 1]
[header: 0]
[label_column: ]
[weight_column: ]
[group_column: ]
[ignore_column: ]
[categorical_feature: ]
[predict_raw_score: 0]
[predict_leaf_index: 0]
[predict_contrib: 0]
[num_iteration_predict: -1]
[pred_early_stop: 0]
[pred_early_stop_freq: 10]
[pred_early_stop_margin: 10]
[convert_model_language: ]
[convert_model: gbdt_prediction.cpp]
[num_class: 1]
[is_unbalance: 0]
[scale_pos_weight: 1]
[sigmoid: 1]
[boost_from_average: 1]
[reg_sqrt: 0]
[alpha: 0.9]
[fair_c: 1]
[poisson_max_delta_step: 0.7]
[tweedie_variance_power: 1.5]
[max_position: 20]
[label_gain: ]
[metric_freq: 1]
[is_provide_training_metric: 0]
[eval_at: ]
[num_machines: 1]
[local_listen_port: 12400]
[time_out: 120]
[machine_list_filename: ]
[machines: ]
[gpu_platform_id: -1]
[gpu_device_id: -1]
[gpu_use_dp: 0]

end of parameters

pandas_categorical:null
