tree
version=v2
num_class=1
num_tree_per_iteration=1
label_index=0
max_feature_idx=7
objective=regression
feature_names=Column_0 Column_1 Column_2 Column_3 Column_4 Column_5 Column_6 Column_7
feature_infos=[0:23] [0:6] [1:12] [0:2] [0:1] [0:1] [0:1] [-9.5399999618530273:95.80999755859375]
tree_sizes=3058 3163 3142 3136 3160 3156 3145 3134 3151 3149 3136 3168 3142 3120 3164 3154 3171 3132 3190 3142 3146 3148 3160 3129 3166 3153 3165 3152 3131 3152 3173 3147 3121 3152 3162 3141 3130 3173 3166 3162 3164 3213 3141 3156 3156 3129 3135 3178

Tree=0
num_leaves=40
num_cat=0
split_feature=0 0 5 3 1 7 1 2 0 7 1 7 7 1 2 1 6 2 2 0 1 7 2 7 7 7 7 1 5 7 1 7 2 7 6 7 0 7 7
split_gain=12058.3 1286.36 754.807 644.323 626.522 686.794 585.081 825.65 529.476 651.552 586.538 470.7 377.812 545.21 1552.01 491.418 366.87 317.063 484.803 1077.36 505.073 340.195 304.046 280.108 584.075 271.187 269.388 261.802 261.487 256.735 306.489 234.62 232.688 258.369 229.671 212.178 198.088 195.503 189.339
threshold=5.5000000000000009 12.500000000000002 1.0000000180025095e-35 1.0000000180025095e-35 4.5000000000000009 64.43500137329103 4.5000000000000009 11.500000000000002 22.500000000000004 64.165000915527358 1.0000000180025095e-35 44.23500061035157 30.365000724792484 4.5000000000000009 11.500000000000002 5.5000000000000009 0.99500000476837169 8.5000000000000018 6.5000000000000009 20.500000000000004 4.5000000000000009 65.375000000000014 1.5000000000000002 73.384998321533217 74.814998626708999 66.575000762939467 30.964999198913578 3.5000000000000004 1.0000000180025095e-35 46.055000305175788 4.5000000000000009 16.695000648498539 2.5000000000000004 32.254999160766609 0.32500000298023229 57.640001296997077 8.5000000000000018 67.125000000000014 70.915000915527358
decision_type=2 2 2 2 2 2 2 2 2 2 2 2 2 2 2 2 2 2 2 2 2 2 2 2 2 2 2 2 2 2 2 2 2 2 2 2 2 2 2
left_child=2 6 4 8 16 34 28 -8 12 -10 -11 26 13 -3 22 -16 23 18 27 -20 21 -21 -15 -1 -25 -12 36 -14 31 30 -29 -2 -30 -34 -6 -19 -9 -5 -27
right_child=1 3 -4 37 5 -7 7 11 9 10 25 -13 17 14 15 -17 -18 35 19 20 -22 -23 -24 24 -26 38 -28 29 32 -31 -32 -33 33 -35 -36 -37 -38 -39 -40
leaf_value=1.9597078055128345 1.8712358876404365 1.8466052033269253 2.2124244114331963 1.7827065130738864 1.871289065090648 2.0140373151053508 1.82637984737412 1.8969832354697485 1.8604026119969603 2.1939244121612247 2.0612147347726335 2.1351095968430815 1.8247588495064941 1.9184588949332049 2.271352983606826 1.993027859808155 2.1263133003812169 1.8339992029374232 1.8502376466245003 1.8249244123698407 1.8529547148537679 2.0455765860172548 1.7978191489845072 2.2344071705640491 1.9453789572554328 1.8234538237926965 1.8366891179541704 1.8277222461655303 1.8024244125188524 1.8328524278708436 1.8924756224043893 1.8010683966163181 1.8633859508199169 2.1024244116247828 1.9863827450326219 1.8045686812293573 2.0732577451567984 1.8221880935563615 1.956064763249648
leaf_count=1385 122 708 28 514 447 124 1941 34 711 25 31 27 2567 116 35 29 36 1551 1277 20 66 138 95 29 44 51 68 277 40 1028 537 5070 26 20 48 1012 30 804 57
internal_value=0 -0.253178 2.24999 -0.0462493 2.18164 1.33568 -0.579895 -0.133454 0.0377536 0.781974 2.57871 2.05735 -0.031112 0.555736 1.7507 6.06422 2.53214 -0.0991956 0.0281942 0.519067 2.5419 3.5124 0.442334 2.45427 4.36345 1.77668 1.27919 -0.138918 -0.757524 0.148745 0.568294 -0.786171 0.971928 2.5058 0.808479 -0.392943 2.75172 -0.704696 1.02834
internal_count=21168 19027 2141 11649 2113 619 7378 2100 10331 875 164 159 9456 983 275 64 1494 8473 5910 1501 224 158 211 1458 73 139 132 4409 5278 1842 814 5192 86 46 495 2563 64 1318 108
shrinkage=1


Tree=1
num_leaves=40
num_cat=0
split_feature=0 0 5 3 1 7 1 2 0 7 1 7 7 1 2 1 6 2 2 0 1 7 2 7 7 7 7 1 5 7 1 7 2 6 0 7 0 7 7
split_gain=10882.6 1160.94 681.213 581.501 565.436 620.763 528.036 745.15 477.852 588.025 529.351 424.806 340.975 492.052 1400.69 443.505 331.101 286.149 437.535 972.314 455.828 307.026 274.402 252.798 527.127 244.746 243.122 236.277 235.992 231.703 276.606 211.745 210.001 241.791 199.207 191.49 178.775 176.441 176.313
threshold=5.5000000000000009 12.500000000000002 1.0000000180025095e-35 1.0000000180025095e-35 4.5000000000000009 62.93499946594239 4.5000000000000009 11.500000000000002 22.500000000000004 64.165000915527358 1.0000000180025095e-35 44.23500061035157 30.365000724792484 4.5000000000000009 11.500000000000002 5.5000000000000009 0.99500000476837169 8.5000000000000018 6.5000000000000009 20.500000000000004 4.5000000000000009 65.375000000000014 1.5000000000000002 73.384998321533217 74.814998626708999 66.575000762939467 30.964999198913578 3.5000000000000004 1.0000000180025095e-35 46.055000305175788 4.5000000000000009 16.695000648498539 2.5000000000000004 0.24499999731779101 1.0000000180025095e-35 57.640001296997077 8.5000000000000018 67.125000000000014 10.285000324249269
decision_type=2 2 2 2 2 2 2 2 2 2 2 2 2 2 2 2 2 2 2 2 2 2 2 2 2 2 2 2 2 2 2 2 2 2 2 2 2 2 2
left_child=2 6 4 8 16 34 28 -8 12 -10 -11 26 13 38 22 -16 23 18 27 -20 21 -21 -15 -1 -25 -12 36 -14 31 30 -29 -2 -30 -34 -6 -19 -9 -5 -3
right_child=1 3 -4 37 5 -7 7 11 9 10 25 -13 17 14 15 -17 -18 35 19 20 -22 -23 -24 24 -26 -27 -28 29 32 -31 -32 -33 33 -35 -36 -37 -38 -39 -40
leaf_value=0.11179800261040672 0.027749682278906715 0.1273125949714865 0.35187877690685648 -0.056353223865945982 0.072714724358153571 0.15606195039514986 -0.014863558169233621 0.052209660980631324 0.017458069412517149 0.33430378350615503 0.208229589131811 0.27842970998198896 -0.016403505877153762 0.072611538224436098 0.40786091795989449 0.14345205797219715 0.27007322253452409 -0.007625168884265507 0.0078013519261297811 -0.016246222406625748 0.010382566352685293 0.19337334453087787 -0.041996220091455864 0.37276240803044419 0.098185597313568004 0.048846371423591071 -0.0050697494955623855 -0.013588276903551839 -0.037621221430599691 -0.0087146070970635474 0.047927428831934266 -0.038909436537786821 0.013962240457534792 0.24410084571157184 0.0077644029451506349 -0.035584164949745055 0.2196704497933388 -0.018845724240316088 -0.00071261299335781273
leaf_count=1385 122 28 28 514 211 140 1941 34 711 25 31 27 2567 116 35 29 36 1551 1277 20 66 138 95 29 44 108 68 277 40 1028 537 5070 25 21 268 1012 30 804 680
internal_value=0 -0.240519 2.13749 -0.0439368 2.07256 1.2689 -0.5509 -0.126782 0.0358659 0.742876 2.44977 1.95448 -0.0295564 0.527949 1.66317 5.76101 2.40553 -0.0942358 0.0267845 0.493114 2.41481 3.33678 0.420218 2.33156 4.14528 1.68785 1.21523 -0.131973 -0.719648 0.141308 0.539879 -0.746862 0.923331 2.38051 0.727502 -0.373295 2.61414 -0.669462 0.0870106
internal_count=21168 19027 2141 11649 2113 619 7378 2100 10331 875 164 159 9456 983 275 64 1494 8473 5910 1501 224 158 211 1458 73 139 132 4409 5278 1842 814 5192 86 46 479 2563 64 1318 708
shrinkage=0.05


Tree=2
num_leaves=40
num_cat=0
split_feature=0 0 5 3 1 7 1 2 0 7 1 6 7 1 2 1 6 2 2 0 1 7 7 7 2 7 7 2 7 1 5 7 1 6 7 7 2 7 7
split_gain=9821.57 1047.75 614.795 524.805 510.306 567.191 476.552 672.497 431.262 530.693 477.739 412.762 307.73 444.077 1264.12 400.263 298.818 258.25 394.875 877.513 411.385 285.715 607.119 254.019 247.648 228.15 492.118 411.815 220.883 213.24 212.983 209.112 249.637 200.415 193.3 191.099 189.526 223.11 172.907
threshold=5.5000000000000009 12.500000000000002 1.0000000180025095e-35 1.0000000180025095e-35 4.5000000000000009 67.805000305175795 4.5000000000000009 11.500000000000002 22.500000000000004 64.165000915527358 1.0000000180025095e-35 0.23499999940395358 30.365000724792484 4.5000000000000009 11.500000000000002 5.5000000000000009 0.99500000476837169 8.5000000000000018 6.5000000000000009 20.500000000000004 4.5000000000000009 72.055000305175795 74.08499908447267 71.384998321533217 1.5000000000000002 73.384998321533217 76.165000915527358 7.5000000000000009 66.575000762939467 3.5000000000000004 1.0000000180025095e-35 46.055000305175788 4.5000000000000009 0.50499999523162853 26.295000076293949 16.695000648498539 2.5000000000000004 32.254999160766609 56.885000228881843
decision_type=2 2 2 2 2 2 2 2 2 2 2 2 2 2 2 2 2 2 2 2 2 2 2 2 2 2 2 2 2 2 2 2 2 2 2 2 2 2 2
left_child=2 6 4 8 16 33 30 -8 12 -10 -11 34 13 -3 24 -16 25 18 29 -20 21 -21 -23 -7 -15 -1 27 -27 -12 -14 35 32 -31 -6 -9 -2 -32 -38 -19
right_child=1 3 -4 -5 5 23 7 11 9 10 28 -13 17 14 15 -17 -18 38 19 20 -22 22 -24 -25 -26 26 -28 -29 -30 31 36 -33 -34 -35 -36 -37 37 -39 -40
leaf_value=0.10620810244783814 0.026362195513287529 0.0041330046683423598 0.33428483376545565 -0.031799425268390295 0.031824273349223088 0.25638865004194544 -0.014120379408139167 0.14891849832439966 0.016585165155336323 0.31758858275413515 0.19781811424801429 0.30521775305271154 -0.015583329704377175 0.068980962268863646 0.38746786883899142 0.1362794510249434 0.25656956028607159 -0.0068691004576551824 0.0074112843596664552 0.081144731404150239 0.0098634396538589946 0.45233820989018397 0.1452988774880119 0.089222309806130162 -0.039896408962576013 0.15312578181425732 0.027451401762664321 0.45261615717952908 0.046404053117321049 -0.012908865452243103 -0.035740158669650558 -0.0082788752507896753 0.045531056434249081 0.15102053563551684 0.02215186116726775 -0.036963964202817848 0.016496108543987458 0.23862581297755245 -0.033258124671841124
leaf_count=1385 122 708 28 1318 490 47 1941 44 711 25 31 20 2567 116 35 29 36 1508 1277 68 66 21 69 44 95 24 27 22 108 277 40 1028 537 38 95 5070 26 20 1055
internal_value=0 -0.228493 2.03061 -0.0417399 1.96893 1.20545 -0.523355 -0.120442 0.0340726 0.705732 2.32728 1.85675 -0.0280786 0.501552 1.58001 5.47296 2.28525 -0.089524 0.0254453 0.468458 2.29407 3.16995 4.33883 3.51122 0.399207 2.21498 3.93802 5.92721 1.60345 -0.125374 -0.683665 0.134243 0.512885 0.808056 1.24559 -0.709519 0.877165 2.26148 -0.354631
internal_count=21168 19027 2141 11649 2113 619 7378 2100 10331 875 164 159 9456 983 275 64 1494 8473 5910 1501 224 158 90 91 211 1458 73 46 139 4409 5278 1842 814 528 139 5192 86 46 2563
shrinkage=0.05


Tree=3
num_leaves=40
num_cat=0
split_feature=0 0 5 3 1 7 1 2 0 7 1 7 7 1 2 1 6 2 0 2 1 7 7 7 2 7 7 7 7 2 5 6 7 2 6 7 7 2 7
split_gain=8863.96 945.594 554.852 473.637 460.551 518.557 430.089 606.929 389.214 478.95 431.159 375.798 277.726 400.779 1140.87 361.237 269.684 233.07 361.485 745.068 371.275 307.022 578.641 264.905 223.502 210.31 205.905 445.719 199.347 195.262 192.217 189.452 173.238 171.047 208.859 170.878 170.041 208.581 376.513
threshold=5.5000000000000009 12.500000000000002 1.0000000180025095e-35 1.0000000180025095e-35 4.5000000000000009 64.43500137329103 4.5000000000000009 11.500000000000002 22.500000000000004 64.165000915527358 1.0000000180025095e-35 44.23500061035157 30.365000724792484 4.5000000000000009 11.500000000000002 5.5000000000000009 0.99500000476837169 8.5000000000000018 20.500000000000004 6.5000000000000009 4.5000000000000009 43.754999160766609 40.854999542236335 65.375000000000014 1.5000000000000002 30.964999198913578 73.384998321533217 74.814998626708999 66.575000762939467 3.5000000000000004 1.0000000180025095e-35 0.32500000298023229 12.914999961853029 2.5000000000000004 0.24499999731779101 70.915000915527358 30.365000724792484 1.5000000000000002 24.280000686645511
decision_type=2 2 2 2 2 2 2 2 2 2 2 2 2 2 2 2 2 2 2 2 2 2 2 2 2 2 2 2 2 2 2 2 2 2 2 2 2 2 2
left_child=2 6 4 8 16 31 30 36 12 -10 -11 25 13 -3 24 -16 26 18 -14 21 23 22 -20 -21 -15 -9 -1 -28 -12 -24 32 -6 -2 -32 -35 -30 37 38 -8
right_child=1 3 -4 -5 5 -7 7 11 9 10 28 -13 17 14 15 -17 -18 -19 19 20 -22 -23 29 -25 -26 -27 27 -29 35 -31 33 -33 -34 34 -36 -37 -38 -39 -40
leaf_value=0.10089769821250912 0.041232611694814347 0.003926353062382021 0.31757060383845653 -0.030209453485352134 0.02421747991144324 0.14869445546740487 0.010130203894849095 0.11848521751817316 0.015755906676986214 0.30170915383100511 0.18792720167867599 0.25815866219776645 -0.0043517815706470148 0.065531913248886325 0.36809449212891715 0.12946547680887685 0.24374108703600036 -0.016844957587579895 0.010088636142908471 -0.019491144679486753 0.0093702649979880356 -0.023011071859211817 0.11529190774734428 0.17521928643834764 -0.03790158924303557 -0.0077970843871726708 0.3392389175000376 0.086753304709087722 -0.022405800800405298 0.30277966417017438 -0.033953151702880859 0.12874917855175835 -0.034815331932122329 0.0097737687081098576 0.22366667730467663 0.10357459197964586 -0.018880334579379276 -0.0085364622672398898 0.2317968667546908
leaf_count=1385 76 708 28 1318 447 124 53 64 711 25 31 27 4916 116 35 29 36 2563 282 20 66 426 41 138 95 68 29 44 51 21 40 48 5116 25 21 57 1708 150 30
internal_value=0 -0.217069 1.92908 -0.0396529 1.87048 1.14518 -0.497188 -0.11442 0.032369 0.670445 2.21092 1.76392 -0.0266746 0.476474 1.50101 5.19931 2.17099 -0.0850478 0.0241731 0.574175 2.17936 0.107211 0.809903 3.01145 0.379247 1.06861 2.10423 3.74112 1.52328 3.57592 -0.649482 0.687078 -0.674043 0.833307 2.14841 0.881677 -0.268287 0.533076 1.80501
internal_count=21168 19027 2141 11649 2113 619 7378 2100 10331 875 164 159 9456 983 275 64 1494 8473 5910 994 224 770 344 158 211 132 1458 73 139 62 5278 495 5192 86 46 108 1941 233 83
shrinkage=0.05


Tree=4
num_leaves=40
num_cat=0
split_feature=0 0 5 3 1 7 1 2 6 0 7 1 7 1 2 7 1 2 1 4 6 2 2 0 1 7 7 3 7 7 1 7 1 7 0 5 7 7 7
split_gain=7999.73 853.399 500.754 427.457 415.647 470.557 388.155 547.753 364.566 351.265 432.253 389.121 250.648 375.979 489.036 824.614 915.774 412.309 379.386 289.998 243.389 210.346 337.411 706.355 335.076 246.538 547.925 195.284 442.08 268.877 192.849 182.94 224.735 179.911 179.861 173.476 166.798 161.911 159.153
threshold=5.5000000000000009 12.500000000000002 1.0000000180025095e-35 1.0000000180025095e-35 4.5000000000000009 62.93499946594239 4.5000000000000009 11.500000000000002 0.23499999940395358 22.500000000000004 64.165000915527358 1.0000000180025095e-35 30.365000724792484 2.5000000000000004 11.500000000000002 19.69999980926514 4.5000000000000009 1.5000000000000002 5.5000000000000009 1.0000000180025095e-35 0.99500000476837169 8.5000000000000018 6.5000000000000009 20.500000000000004 4.5000000000000009 72.055000305175795 74.08499908447267 1.0000000180025095e-35 73.875000000000014 75.075000762939467 3.5000000000000004 46.055000305175788 4.5000000000000009 66.575000762939467 1.0000000180025095e-35 1.0000000180025095e-35 26.295000076293949 71.615001678466811 16.695000648498539
decision_type=2 2 2 2 2 2 2 2 2 2 2 2 2 2 2 2 2 2 2 2 2 2 2 2 2 2 2 2 2 2 2 2 2 2 2 2 2 2 2
left_child=2 6 4 9 20 34 35 -8 36 12 -11 -12 13 -3 17 -16 -17 19 -18 -15 27 22 30 -24 25 -25 -27 28 -1 -30 -14 32 -32 -13 -6 38 -9 -5 -2
right_child=1 3 -4 37 5 -7 7 8 -10 10 11 33 21 14 15 16 18 -19 -20 -21 -22 -23 23 24 -26 26 -28 -29 29 -31 31 -33 -34 -35 -36 -37 -38 -39 -40
leaf_value=0.099012915564102466 0.024416147325126855 -0.015416820551914252 0.30169206389359071 -0.045040264700321443 0.065357804335714295 0.13503306352666447 -0.012743642001131157 0.13554831081154672 0.28338213159237058 0.014968110932202279 0.28662370288372041 0.17853083975853459 -0.0146805807879905 0.05651796131036603 -0.035628489450448088 0.030029676019242314 0.50133810788393018 -0.019143417202645827 0.21560304619017101 0.25643714185804128 0.23155402734668717 -0.016002710592372318 0.0072583088008052413 0.071189924439086644 0.0089017544506174145 0.42096033887494183 0.1292729768200197 0.023498178924186319 0.38252469812604517 0.14285449540615083 -0.012349803982443758 -0.0074994104526618123 0.043098755865193059 0.041879657907756392 0.0036417777358151195 0.039582064713156506 0.017791696975105686 -0.0099051738057595491 -0.033374997736551823
leaf_count=1332 122 391 28 705 211 140 1941 44 20 711 25 31 2567 195 45 33 26 252 21 20 36 2563 1277 68 66 21 69 79 22 25 277 1028 537 108 268 86 95 613 5070
internal_value=0 -0.206215 1.83263 -0.0376703 1.77696 1.08792 -0.472328 -0.108699 1.67572 0.0307505 0.636923 2.10037 -0.0253409 0.452651 0.955262 2.71202 4.63836 0.485037 7.47339 1.5023 2.06244 -0.0807954 0.0229644 0.432476 2.0704 2.86088 3.94667 1.99902 2.08662 5.10081 -0.11645 0.130442 0.484598 1.44712 0.616555 -0.617008 1.10134 -0.57398 -0.640341
internal_count=21168 19027 2141 11649 2113 619 7378 2100 159 10331 875 164 9456 983 592 125 80 467 47 215 1494 8473 5910 1501 224 158 90 1458 1379 47 4409 1842 814 139 479 5278 139 1318 5192
shrinkage=0.05


Tree=5
num_leaves=40
num_cat=0
split_feature=0 0 5 3 1 7 1 2 7 0 7 1 7 7 1 2 7 1 2 1 4 6 2 2 0 1 7 7 3 7 7 1 0 2 7 7 1 0 5
split_gain=7219.75 770.193 451.931 385.78 375.122 434.626 350.31 494.347 333.531 317.017 390.108 351.182 229.252 226.21 339.321 441.355 744.214 826.486 372.109 342.396 261.723 219.659 189.837 304.514 637.486 302.406 228.562 176.682 176.244 398.977 242.661 174.046 173.522 168.606 252.188 165.104 202.823 163.582 156.562
threshold=5.5000000000000009 12.500000000000002 1.0000000180025095e-35 1.0000000180025095e-35 4.5000000000000009 67.805000305175795 4.5000000000000009 11.500000000000002 44.725000381469734 22.500000000000004 64.165000915527358 1.0000000180025095e-35 71.384998321533217 30.365000724792484 2.5000000000000004 11.500000000000002 19.69999980926514 4.5000000000000009 1.5000000000000002 5.5000000000000009 1.0000000180025095e-35 0.99500000476837169 8.5000000000000018 6.5000000000000009 20.500000000000004 4.5000000000000009 65.375000000000014 30.964999198913578 1.0000000180025095e-35 73.875000000000014 75.075000762939467 3.5000000000000004 1.0000000180025095e-35 8.5000000000000018 66.575000762939467 46.055000305175788 4.5000000000000009 8.5000000000000018 1.0000000180025095e-35
decision_type=2 2 2 2 2 2 2 2 2 2 2 2 2 2 2 2 2 2 2 2 2 2 2 2 2 2 2 2 2 2 2 2 2 2 2 2 2 2 2
left_child=2 6 4 9 21 32 38 -8 27 13 -11 -12 -7 14 -3 18 -17 -18 20 -19 -16 28 23 31 -25 26 -26 37 29 -1 -31 -15 -6 34 -13 36 -33 -9 -2
right_child=1 3 -4 -5 5 12 7 8 -10 10 11 33 -14 22 15 16 17 19 -20 -21 -22 -23 -24 24 25 -27 -28 -29 -30 30 -32 35 -34 -35 -36 -37 -38 -39 -40
leaf_value=0.094062271181706555 -0.03041618967354183 -0.014645978774103669 0.28660747046981538 -0.027264031865075797 0.066288668625849353 0.22938284620325616 -0.012106461116313812 0.032328321609426947 0.24338348949184785 0.014219707184577291 0.27229251623153689 0.2294678156765608 0.070574821125377316 -0.013946552839482811 0.053692065739096739 -0.03384706646203995 0.028528191160523533 0.47627119089548409 -0.018186247425656471 0.20482289677574519 0.24361529506742957 0.21997632500198155 -0.015202573630442806 0.0068953941827793091 -0.022076085638254882 0.0084566680770931831 0.15878545702367589 -0.0079233923683995795 0.022323271028603181 0.36339846944267101 0.13571177095174788 -0.011732313506278321 0.0086124314713600155 -0.061798156443096344 0.053110696691209859 -0.0071244410119573904 0.040943818276503528 0.19251535921409263 0.037602962185303838
leaf_count=1332 5192 391 28 1318 235 47 1941 34 26 711 25 26 44 2567 195 45 33 26 252 21 20 36 2563 1277 20 66 138 69 79 22 25 277 293 21 92 1028 537 30 86
internal_value=0 -0.195905 1.741 -0.0357868 1.68811 1.03352 -0.448712 -0.103264 1.59193 0.029213 0.605077 1.99535 3.05193 -0.0240739 0.430018 0.907499 2.57642 4.40644 0.460785 7.09972 1.42719 1.95932 -0.0767556 0.0218162 0.410852 1.96688 2.71783 0.951565 1.89907 1.98228 4.84577 -0.110627 0.685655 1.37476 1.83938 0.12392 0.460368 2.14832 -0.586158
internal_count=21168 19027 2141 11649 2113 619 7378 2100 159 10331 875 164 91 9456 983 592 125 80 467 47 215 1494 8473 5910 1501 224 158 133 1458 1379 47 4409 528 139 118 1842 814 64 5278
shrinkage=0.05


Tree=6
num_leaves=40
num_cat=0
split_feature=0 0 5 3 1 7 1 2 6 0 7 1 7 7 1 2 7 2 6 2 2 0 1 7 7 1 7 6 7 1 6 7 3 7 2 7 2 7 0
split_gain=6515.83 695.099 407.867 348.166 338.547 392.25 316.155 446.149 322.874 286.108 352.072 316.942 206.9 205.448 333.287 838.491 505.977 228.477 198.242 168.237 268.972 575.331 272.921 212.733 494.502 167.32 307.02 166.411 163.27 199.8 236.524 161.437 159.06 360.077 229.187 153.462 188.244 339.803 151.553
threshold=5.5000000000000009 12.500000000000002 1.0000000180025095e-35 1.0000000180025095e-35 4.5000000000000009 67.805000305175795 4.5000000000000009 11.500000000000002 0.23499999940395358 22.500000000000004 64.165000915527358 1.0000000180025095e-35 71.384998321533217 29.134999275207523 4.5000000000000009 11.500000000000002 23.214999198913578 1.5000000000000002 0.99500000476837169 8.5000000000000018 6.5000000000000009 20.500000000000004 4.5000000000000009 72.055000305175795 74.08499908447267 5.5000000000000009 66.575000762939467 0.50499999523162853 57.640001296997077 4.5000000000000009 0.99500000476837169 10.285000324249269 1.0000000180025095e-35 73.875000000000014 7.5000000000000009 30.365000724792484 1.5000000000000002 24.280000686645511 7.5000000000000009
decision_type=2 2 2 2 2 2 2 2 2 2 2 2 2 2 2 2 2 2 2 2 2 2 2 2 2 2 2 2 2 2 2 2 2 2 2 2 2 2 2
left_child=2 6 4 9 18 27 38 35 -9 13 -11 -12 -7 14 31 17 -17 -16 32 20 -15 -22 23 -23 -25 26 -13 -6 29 -21 -31 -3 33 -1 -35 36 37 -8 -2
right_child=1 3 -4 -5 5 12 7 8 -10 10 11 25 -14 19 15 16 -18 -19 -20 28 21 22 -24 24 -26 -27 -28 -29 -30 30 -32 -33 -34 34 -36 -37 -38 -39 -40
leaf_value=0.089359156164276365 -0.041152334934817666 0.12085676640272142 0.27227708774485759 -0.02590083041665044 0.024751631374261819 0.21791370517792222 0.010866200417842505 0.048590017345955049 0.26345369148999453 0.013508721157049161 0.25867788815498355 0.26628121880903127 0.067046077481725003 -0.0049023704467804508 0.079102494062363415 0.072382757493427818 0.39705455090318409 -0.037590317409715537 0.20897750966250897 -0.015604962497415029 0.0065506232542130935 0.062350886183626511 0.0080338331560293845 0.39197305845362801 0.11487004934013754 -0.037091281240986242 0.053273347908117136 0.13336624118842577 -0.029739539702183643 0.015734602264764551 0.19142726302146912 -0.002100059729765119 0.021207106207744988 0.11738747669302899 0.33826126350710789 -0.016693811847084582 -0.0068671345810095473 0.22144954005877177 -0.022449092323176715
leaf_count=1332 1522 28 28 1318 490 47 53 139 20 711 25 21 44 4536 87 21 28 81 36 1115 1277 68 66 21 69 31 87 38 1012 454 20 573 79 23 24 1708 150 30 3756
internal_value=0 -0.186109 1.65395 -0.0339974 1.6037 0.981848 -0.426276 -0.0981011 1.51234 0.0277524 0.574823 1.89559 2.89933 -0.0228702 0.45612 1.5184 5.15819 0.456798 1.86135 -0.0682295 0.0233744 0.390309 1.86853 2.58194 3.59055 1.30602 1.89383 0.651372 -0.280845 -0.0808997 0.462956 0.0725676 1.80411 1.88317 4.60348 -0.230023 0.531273 1.73961 -0.55685
internal_count=21168 19027 2141 11649 2113 619 7378 2100 159 10331 875 164 91 9456 818 217 49 168 1494 8638 6037 1501 224 158 90 139 108 528 2601 1589 474 601 1458 1379 47 1941 233 83 5278
shrinkage=0.05


Tree=7
num_leaves=40
num_cat=0
split_feature=0 0 5 3 1 7 1 2 7 0 7 1 7 1 2 7 1 2 1 4 6 7 2 0 2 7 7 7 1 2 7 7 7 2 7 0 7 0 3
split_gain=5880.53 627.326 368.1 314.22 305.539 362.529 285.33 402.649 291.922 258.212 317.745 286.04 186.238 291.231 359.277 645.28 686.461 316.993 298.19 232.735 178.914 166.51 154.599 264.125 477.878 265.972 523.737 247.938 293.11 175.727 160.917 213.06 502.985 154.092 210.719 152.837 147.492 146.85 143.552
threshold=5.5000000000000009 12.500000000000002 1.0000000180025095e-35 1.0000000180025095e-35 4.5000000000000009 62.93499946594239 4.5000000000000009 11.500000000000002 44.725000381469734 22.500000000000004 64.165000915527358 1.0000000180025095e-35 30.365000724792484 2.5000000000000004 11.500000000000002 19.69999980926514 4.5000000000000009 1.5000000000000002 5.5000000000000009 1.0000000180025095e-35 0.99500000476837169 26.295000076293949 8.5000000000000018 20.500000000000004 6.5000000000000009 43.754999160766609 40.854999542236335 64.674999237060561 5.5000000000000009 3.5000000000000004 67.33499908447267 72.055000305175795 74.08499908447267 8.5000000000000018 66.575000762939467 13.500000000000002 67.125000000000014 1.0000000180025095e-35 1.0000000180025095e-35
decision_type=2 2 2 2 2 2 2 2 2 2 2 2 2 2 2 2 2 2 2 2 2 2 2 2 2 2 2 2 2 2 2 2 2 2 2 2 2 2 2
left_child=2 6 4 9 20 37 -2 -8 21 12 -11 -12 13 -3 17 -16 -17 19 -18 -15 38 -9 23 -14 25 26 -25 -26 30 -28 -29 -32 -33 34 -13 -24 -5 -6 -1
right_child=1 3 -4 36 5 -7 7 8 -10 10 11 33 22 14 15 16 18 -19 -20 -21 -22 -23 35 24 27 -27 29 28 -30 -31 31 32 -34 -35 -36 -37 -38 -39 -40
leaf_value=0.089450580286884587 -0.026450361377076473 -0.013972779486299781 0.2586632350060557 -0.045524864983002039 0.057151830440025198 0.11741599384163107 -0.01092607918426218 0.12144842704927379 0.22506600962235379 0.012833286056874003 0.24574400210380554 0.20993105425284458 -0.0037816904976272895 0.049418515853392776 -0.034549556954039468 0.027329555187713017 0.4380356210355576 -0.016569604810386423 0.18471597067656972 0.22851545035839083 0.19852863583299851 0.0025447736755850612 0.021997772273955062 0.009552805852277059 -0.070642478099431513 -0.020627593371947188 0.10981314049624816 0.26758942405227576 -0.021073838424038246 0.28767512313844196 0.025947733389006723 0.36213330723669218 0.095669435990321183 -0.06275510092576346 0.04872460814152399 -0.017904723365030257 -0.011232152381050055 0.0013862050513723005 0.02014675098883955
leaf_count=1379 5278 391 28 514 211 140 1941 44 26 711 25 26 4916 195 45 33 26 252 21 20 36 89 268 282 22 426 41 20 37 21 45 23 77 21 92 2295 804 268 79
internal_value=0 -0.176804 1.57125 -0.0322976 1.52352 0.932755 -0.404962 -0.0931961 1.43672 0.0263648 0.546082 1.80081 -0.0217267 0.390298 0.832652 2.33842 4.04246 0.429609 6.497 1.32157 1.76829 0.837626 -0.0695279 0.0194262 0.489562 0.115586 0.769617 1.77511 2.12231 3.40113 2.69273 2.32597 3.13912 1.24072 1.68489 -0.274646 -0.492116 0.51902 1.71391
internal_count=21168 19027 2141 11649 2113 619 7378 2100 159 10331 875 164 9456 983 592 125 80 467 47 215 1494 133 8473 5910 994 770 344 224 202 62 165 145 100 139 118 2563 1318 479 1458
shrinkage=0.05


Tree=8
num_leaves=40
num_cat=0
split_feature=0 0 5 3 1 7 1 2 6 0 7 7 7 1 7 2 1 2 6 7 1 5 2 7 7 7 2 7 2 2 0 1 7 7 1 6 1 7 7
split_gain=5307.18 566.162 332.21 283.584 275.749 327.182 257.51 363.391 286.379 233.037 286.765 268.684 170.539 276.388 354.476 745.346 895.428 273.565 161.469 156.366 269.732 141.017 154.454 192.54 144.771 138.499 169.89 306.672 138.236 230.522 462.65 224.514 183.278 146.145 176.552 214 145.401 138.214 331.061
threshold=5.5000000000000009 12.500000000000002 1.0000000180025095e-35 1.0000000180025095e-35 4.5000000000000009 62.93499946594239 4.5000000000000009 11.500000000000002 0.23499999940395358 22.500000000000004 64.165000915527358 65.895000457763686 29.134999275207523 2.5000000000000004 21.110000610351566 11.500000000000002 4.5000000000000009 1.5000000000000002 0.99500000476837169 73.384998321533217 2.5000000000000004 1.0000000180025095e-35 2.5000000000000004 32.254999160766609 12.914999961853029 30.365000724792484 1.5000000000000002 24.280000686645511 8.5000000000000018 6.5000000000000009 20.500000000000004 4.5000000000000009 65.375000000000014 57.640001296997077 4.5000000000000009 0.99500000476837169 3.5000000000000004 72.93500137329103 76.165000915527358
decision_type=2 2 2 2 2 2 2 2 2 2 2 2 2 2 2 2 2 2 2 2 2 2 2 2 2 2 2 2 2 2 2 2 2 2 2 2 2 2 2
left_child=2 6 4 9 18 -6 21 25 -9 12 -11 -12 13 -3 -15 17 -17 -16 37 -13 -21 24 -23 -24 -2 26 27 -8 29 36 -31 32 -32 34 -30 -36 -14 -1 -39
right_child=1 3 -4 -5 5 -7 7 8 -10 10 11 19 28 14 15 16 -18 -19 -20 20 -22 22 23 -25 -26 -27 -28 -29 33 30 31 -33 -34 -35 35 -37 -38 38 -40
leaf_value=0.077652593329548839 0.042322012046842203 -0.014376171278845835 0.24573006853461266 -0.023375499513062434 0.024653470991004359 0.11154519222676754 0.010869194426626531 0.042790607826636851 0.24514704130589965 0.01219162002321118 0.25726387470960621 0.02368780393946044 -0.012180894969358876 -0.010866401363164187 0.09412771524853758 0.02426688113034918 0.4221496889668126 -0.010730401659384371 0.18860220743550196 0.2403118908405304 0.0073013621827830444 -0.033482740521430972 0.011140783303059065 0.21749233577400445 -0.027197310487660373 -0.015312818866179476 -0.0059774740338325505 0.21092335700988774 -0.014142914524661052 0.0064121768549493079 -0.024785599615424873 0.0068669515238566833 0.13717113281127766 -0.027586016530104781 0.015234189541058591 0.18235211905092003 0.005958102370794284 0.21486396881667053 0.001083741585413615
leaf_count=1376 76 332 28 1318 479 140 53 139 20 711 20 94 2632 180 121 26 31 128 36 27 23 40 26 20 5116 1708 150 30 1115 1277 20 66 138 1012 454 20 1904 55 27
internal_value=0 -0.167964 1.49269 -0.0306827 1.44734 0.886118 -0.384714 -0.0885363 1.36488 0.0250465 0.518778 1.71077 -0.0206403 0.415763 0.896197 1.55121 4.81319 0.804495 1.67987 1.23375 2.66254 -0.502557 0.767488 2.01718 -0.523594 -0.207596 0.515635 1.66356 -0.0619668 0.0210687 0.360766 1.68635 2.33341 -0.254695 -0.0655253 0.445712 -0.0913399 1.62821 2.88946
internal_count=21168 19027 2141 11649 2113 619 7378 2100 159 10331 875 164 9456 818 486 306 57 249 1494 144 50 5278 86 46 5192 1941 233 83 8638 6037 1501 224 158 2601 1589 474 4536 1458 82
shrinkage=0.05


Tree=9
num_leaves=40
num_cat=0
split_feature=0 0 5 3 1 7 1 2 6 0 7 2 2 7 1 7 7 1 2 7 7 7 2 7 6 7 0 1 1 7 2 6 7 0 0 7 0 7 6
split_gain=4789.73 510.961 299.82 255.934 248.863 302.394 232.403 327.96 258.457 210.316 258.981 304.129 403.359 629.6 314.548 186.728 157.346 278.458 454.371 274.688 358.169 240.117 193.608 153.551 150.67 147.897 425.27 222.963 159.429 296.506 214.778 145.726 139.452 137.019 307.278 135.986 159.608 135.586 198.716
threshold=5.5000000000000009 12.500000000000002 1.0000000180025095e-35 1.0000000180025095e-35 4.5000000000000009 67.805000305175795 4.5000000000000009 11.500000000000002 0.23499999940395358 22.500000000000004 63.704999923706062 8.5000000000000018 6.5000000000000009 66.805000305175795 1.5000000000000002 71.384998321533217 33.495000839233406 4.5000000000000009 11.500000000000002 29.404999732971195 23.214999198913578 32.835000991821296 2.5000000000000004 10.285000324249269 0.50499999523162853 71.825000762939467 20.500000000000004 4.5000000000000009 4.5000000000000009 45.250000000000007 11.500000000000002 0.99500000476837169 73.875000000000014 7.5000000000000009 9.5000000000000018 30.964999198913578 8.5000000000000018 33.274999618530281 0.044999999925494201
decision_type=2 2 2 2 2 2 2 2 2 2 2 2 2 2 2 2 2 2 2 2 2 2 2 2 2 2 2 2 2 2 2 2 2 2 2 2 2 2 2
left_child=2 6 4 9 31 24 33 -8 35 16 -11 12 -12 -14 -15 -7 17 23 21 20 -20 22 -19 -3 -6 28 -27 32 -18 -30 -31 -1 -28 -2 -35 36 -9 38 -36
right_child=1 3 -4 -5 5 15 7 8 -10 10 11 -13 13 14 -16 -17 25 18 19 -21 -22 -23 -24 -25 -26 26 27 -29 29 30 -32 -33 -34 34 37 -37 -38 -39 -40
leaf_value=0.077340128983080958 -0.036527019066542737 0.11563893011438527 0.23344357854553632 -0.02220672377821889 0.020144264365888523 0.19556995909264749 -0.0098607886097039354 0.021469322592020036 0.23288968252018094 0.011089575467777363 -0.017544254389676182 -0.068570921104401356 0.3874506530041496 0.24899695243524467 0.028197513713880823 0.052245713533325633 -0.013029999775385534 0.029790692024006707 0.063440626859664923 0.060004204590977342 0.33267392794291184 0.14824494412168862 -0.062113615381531422 -0.0030866311091623136 0.12349429903061766 0.0010566211236554674 0.20527712467944986 -0.01852282823994756 0.031929777797340651 -0.015208696618203375 0.1393713850689971 0.17917209369544354 0.085639140170107611 -0.0012239536493719022 -0.010866010745169878 -0.0043758705111318517 0.1811416947122278 -0.035231781056407348 0.14206074728913928
leaf_count=1458 1522 28 28 1318 490 47 1941 34 20 701 44 29 24 23 54 44 4197 202 21 54 30 32 80 995 38 2011 33 40 640 977 23 36 93 1502 278 76 29 1953 23
internal_value=0 -0.159565 1.41805 -0.0291485 1.37498 0.841812 -0.365479 -0.0841095 1.29664 0.0237942 0.492839 1.58482 2.17606 3.27691 1.88301 2.52541 -0.0196083 0.284492 0.97113 2.77194 4.43626 0.368947 0.074371 0.00325889 0.551647 -0.0743266 0.148117 1.68647 -0.15729 0.107094 -0.233067 1.59588 2.33946 -0.477429 -0.374864 0.813022 1.89939 -0.60835 0.0163885
internal_count=21168 19027 2141 11649 2113 619 7378 2100 159 10331 875 174 145 101 77 91 9456 1442 419 105 51 314 282 1023 528 8014 2177 166 5837 1640 1000 1494 126 5278 3756 139 63 2254 301
shrinkage=0.05


Tree=10
num_leaves=40
num_cat=0
split_feature=0 0 2 6 1 7 3 1 7 1 2 7 0 7 7 7 3 7 1 0 0 7 7 1 2 7 7 7 2 2 2 0 7 1 7 7 7 0 7
split_gain=4322.73 461.143 279.998 279.973 257.103 300.998 230.981 212.302 247.064 209.743 295.984 253.153 189.81 236.555 268.816 213.402 174.511 362.451 164.559 158.575 157.779 148.739 142.005 251.308 410.07 247.906 323.247 216.706 174.731 144.142 210.271 396.342 202.106 233.065 157.082 175.601 437.526 150.069 138.58
threshold=5.5000000000000009 12.500000000000002 2.5000000000000004 0.32500000298023229 1.5000000000000002 46.055000305175788 1.0000000180025095e-35 4.5000000000000009 22.474999427795414 4.5000000000000009 11.500000000000002 44.725000381469734 22.500000000000004 64.43500137329103 66.805000305175795 70.915000915527358 1.0000000180025095e-35 73.875000000000014 2.5000000000000004 1.5000000000000002 1.5000000000000002 26.295000076293949 33.495000839233406 4.5000000000000009 11.500000000000002 29.404999732971195 23.214999198913578 32.835000991821296 2.5000000000000004 8.5000000000000018 6.5000000000000009 20.500000000000004 64.674999237060561 5.5000000000000009 67.33499908447267 72.055000305175795 74.08499908447267 13.500000000000002 10.285000324249269
decision_type=2 2 2 2 2 2 2 2 2 2 2 2 2 2 2 2 2 2 2 2 2 2 2 2 2 2 2 2 2 2 2 2 2 2 2 2 2 2 2
left_child=2 9 7 16 5 -5 12 8 -1 -2 -11 21 22 -14 -15 -16 17 -4 -17 -19 -10 -12 23 38 27 26 -26 28 -25 30 -24 -32 -33 34 -34 -36 -37 -31 -3
right_child=1 6 3 4 -6 -7 -8 -9 20 10 11 -13 13 14 15 18 -18 19 -20 -21 -22 -23 29 24 25 -27 -28 -29 -30 37 31 32 33 -35 35 36 -38 -39 -40
leaf_value=0.13724202460784843 -0.022677880231652434 0.10985698298152005 0.068930198137147541 0.37644517615082718 0.094267679538045615 0.13282945085084066 -0.021096389054438051 -0.021198000281497285 -0.012856940931894562 -0.0093677473062095656 0.10889698097651655 0.20428313979735743 0.011158766465095086 0.20809492527041584 -0.029414427652955058 0.1717820724233603 0.0084256398629535129 0.24556648952150067 0.021287618489826427 0.080523176728324458 0.075359442176178418 -0.003482583652805077 -0.0049912298898168381 0.028301156618364964 0.060268602200916836 0.057003993644482567 0.31604023118813834 0.14083269147668034 -0.059007934710680277 0.022192716497108054 0.0061175416466563402 -0.065688476711511609 0.25068976268172266 -0.019517965896709549 0.019187630961338679 0.32948413510685381 0.080963454114926336 -0.018095299921732217 -0.002932300123259725
leaf_count=69 5278 28 1402 21 105 32 1318 135 110 1941 44 26 716 32 54 39 108 43 34 22 94 89 4105 202 21 54 30 32 80 259 1277 22 20 37 45 23 77 2149 995
internal_value=0 -0.151587 1.34715 1.52262 2.79165 4.58713 -0.0276911 0.601838 1.1091 -0.347205 -0.079904 1.23181 0.0226045 0.468197 1.57156 0.918882 1.39531 1.48563 2.03378 3.79411 0.555836 0.673912 -0.0186279 0.270267 0.922573 2.63335 4.21445 0.3505 0.0706524 -0.0706103 0.0172863 0.337566 1.56449 1.87796 2.38661 2.02424 2.76246 -0.27524 0.00309593
internal_count=21168 19027 2141 1733 158 53 11649 408 273 7378 2100 159 10331 875 159 127 1575 1467 73 65 204 133 9456 1442 419 105 51 314 282 8014 5606 1501 224 202 165 145 100 2408 1023
shrinkage=0.05


Tree=11
num_leaves=40
num_cat=0
split_feature=0 0 5 1 0 7 3 1 2 6 0 7 7 7 1 1 7 7 7 1 2 7 7 2 2 5 7 7 7 2 7 7 0 0 7 2 2 6 3
split_gain=3901.27 416.181 263.87 211.306 292.76 220.518 208.46 189.293 267.126 229.124 171.303 213.491 242.606 192.596 148.514 139.113 272.531 313.912 135.384 131.569 270.2 323.575 291.731 158.065 127.526 215.854 154.721 143.949 124.995 153.326 278.836 123.707 121.36 263.36 121.162 158.238 142.628 120.718 119.037
threshold=5.5000000000000009 12.500000000000002 1.0000000180025095e-35 4.5000000000000009 1.0000000180025095e-35 67.805000305175795 1.0000000180025095e-35 4.5000000000000009 11.500000000000002 0.23499999940395358 22.500000000000004 64.43500137329103 66.805000305175795 70.915000915527358 2.5000000000000004 2.5000000000000004 36.875000000000007 36.645000457763679 71.615001678466811 4.5000000000000009 11.500000000000002 29.404999732971195 23.214999198913578 2.5000000000000004 2.5000000000000004 1.0000000180025095e-35 27.979999542236332 23.214999198913578 30.365000724792484 1.5000000000000002 17.925000190734867 6.3650000095367441 7.5000000000000009 9.5000000000000018 25.345000267028812 2.5000000000000004 4.5000000000000009 0.99500000476837169 1.0000000180025095e-35
decision_type=2 2 2 2 2 2 2 2 2 2 2 2 2 2 2 2 2 2 2 2 2 2 2 2 2 2 2 2 2 2 2 2 2 2 2 2 2 2 2
left_child=2 7 3 37 5 -5 10 31 28 -10 15 34 -13 -14 -15 -3 17 19 -8 24 23 22 -22 -21 25 26 27 -17 29 30 -9 -2 -33 -34 -12 -36 -37 38 -1
right_child=1 6 -4 4 -6 -7 18 8 9 -11 11 12 13 14 -16 16 -18 -19 -20 20 21 -23 -24 -25 -26 -27 -28 -29 -30 -31 -32 32 33 -35 35 36 -38 -39 -40
leaf_value=0.073332809111031835 0.072145012287156918 -0.0077628725485306962 0.21647484186105431 0.052936686198128038 0.0051210934673450144 0.16415474937212737 -0.034984367969611012 -0.03871284035905715 0.035743474914766045 0.21674460556358099 0.066270495232048809 0.19769017272628844 -0.027943706698715688 0.16319296516669102 0.020223237311138828 -0.0039701637217345147 -0.0015727000393761293 0.21278073137456721 -0.0028561325193812758 0.042549649711883242 0.057255172445660543 0.040880339211400822 0.30023822724819182 -0.01966818955668714 -0.019058900003364868 0.15756829869130562 -0.02526070928416 0.09769020123283069 -0.013585750434102723 -0.0047171725829442341 0.15073992194464575 -0.034169220495089164 -0.0010334352623043324 -0.028138209161781409 -0.044534120844137715 0.055371171516240859 -0.0022583257906971183 0.16259645438856551 0.010223515614678588
leaf_count=1379 35 4136 28 235 329 55 705 31 139 20 86 32 54 39 34 65 4142 22 613 282 21 85 30 160 279 29 130 75 1708 150 52 1503 1489 2251 137 158 335 36 79
internal_value=0 -0.144008 1.27979 1.23938 0.748093 1.4806 -0.0263066 -0.329844 -0.0759088 1.17022 0.0214743 0.444787 1.49299 0.872938 1.93209 -0.0176965 0.0892494 0.513658 -0.400831 0.442444 0.779807 2.0124 4.00373 0.400547 0.105082 0.558816 0.280356 1.00981 -0.177987 0.509082 1.59961 -0.43088 -0.443388 -0.346941 0.212017 0.0600296 0.324223 1.44293 1.39827
internal_count=21168 19027 2141 2113 619 290 11649 7378 2100 159 10331 875 159 127 73 9456 5320 1178 1318 1156 578 136 51 442 578 299 270 140 1941 233 83 5278 5243 3740 716 630 493 1494 1458
shrinkage=0.05


Tree=12
num_leaves=40
num_cat=0
split_feature=0 0 2 6 1 7 3 1 7 1 2 7 0 7 2 2 7 1 3 7 7 0 7 0 1 7 7 6 7 7 1 2 7 7 2 7 5 2 2
split_gain=3520.89 375.604 252.279 242.603 225.64 268.916 188.135 177.968 223.351 170.837 241.081 221.797 154.601 192.826 262.976 354.031 535.82 254.763 151.118 320.655 149.585 142.452 138.541 134.063 125.549 245.959 283.305 125.41 367.344 123.291 118.741 243.855 292.026 263.287 142.654 119.299 122.405 163.533 120.326
threshold=5.5000000000000009 12.500000000000002 2.5000000000000004 0.32500000298023229 1.5000000000000002 45.250000000000007 1.0000000180025095e-35 4.5000000000000009 22.474999427795414 4.5000000000000009 11.500000000000002 44.725000381469734 22.500000000000004 63.704999923706062 8.5000000000000018 6.5000000000000009 66.805000305175795 1.5000000000000002 1.0000000180025095e-35 73.875000000000014 74.814998626708999 1.5000000000000002 30.964999198913578 8.5000000000000018 2.5000000000000004 36.875000000000007 36.645000457763679 0.014999999664723875 33.495000839233406 67.125000000000014 4.5000000000000009 11.500000000000002 29.404999732971195 23.214999198913578 2.5000000000000004 27.57499980926514 1.0000000180025095e-35 2.5000000000000004 1.5000000000000002
decision_type=2 2 2 2 2 2 2 2 2 2 2 2 2 2 2 2 2 2 2 2 2 2 2 2 2 2 2 2 2 2 2 2 2 2 2 2 2 2 2
left_child=2 9 7 18 5 -5 12 8 -1 -2 27 22 24 -14 15 -15 -17 -18 19 -4 -21 -10 23 -12 -3 26 30 -11 -29 -8 35 34 33 -33 -32 38 -37 -38 -26
right_child=1 6 3 4 -6 -7 29 -9 21 10 11 -13 13 14 -16 16 17 -19 -20 20 -22 -23 -24 -25 25 -27 -28 28 -30 -31 31 32 -34 -35 -36 36 37 -39 -40
leaf_value=0.12640210366065519 -0.020466785811772907 -0.0073747294532527834 0.062361687296648087 0.3569564875215292 0.085731611500183755 0.12460545266160009 -0.038165469125551015 -0.021542440387937761 -0.016287204519930213 -0.013705166565216136 0.01448594312019208 0.18914909614966469 0.0094333576520083864 -0.022640683366493747 -0.069208513174591396 0.3535767622292042 0.22235704401265022 0.023645561405767998 0.0061119286619402751 0.27845884211685346 0.11983023839337487 0.067535145818553077 -0.019671996612695683 0.15950141400098802 0.090304032255853747 -0.0014940652938965279 0.20214168806137012 0.22352020896616437 0.0061804132209024362 -0.0068121843874009687 0.040422167021332056 0.054392412872541519 0.038836321445072403 0.28522631486256916 -0.018684779815375804 -0.024614642299110853 0.15092509193718434 -0.019748077436815947 0.009194423322979775
leaf_count=69 5278 4136 1402 20 105 33 514 135 110 1658 34 26 701 44 29 24 23 54 108 23 42 94 69 30 67 4142 22 21 262 804 282 21 85 30 160 310 25 32 144
internal_value=0 -0.136807 1.2158 1.38236 2.56366 4.2457 -0.0249912 0.508344 0.972781 -0.313352 -0.0721133 1.11171 0.0204005 0.422548 1.36479 1.91458 2.94592 1.66002 1.26386 1.3479 3.51921 0.446736 0.589503 1.64924 -0.0168117 0.0847869 0.487975 -0.169088 0.446162 -0.38079 0.420322 0.740817 1.91178 3.80354 0.38052 0.0998276 -0.244651 1.10217 0.698992
internal_count=21168 19027 2141 1733 158 53 11649 408 273 7378 2100 159 10331 875 174 145 101 77 1575 1467 65 204 133 64 9456 5320 1178 1941 283 1318 1156 578 136 51 442 578 367 57 211
shrinkage=0.05


Tree=13
num_leaves=40
num_cat=0
split_feature=0 0 5 2 2 1 0 7 7 1 7 7 2 7 7 7 0 7 6 0 2 7 7 6 0 2 7 6 2 2 7 7 7 2 7 6 2 7 2
split_gain=3177.61 344.622 232.149 201.555 390.116 356.507 458.036 316.238 374.538 346.55 287.819 455.691 331.859 400.758 590.164 250.845 206.806 192.413 772.37 314.844 183.689 180.443 278.905 212.85 197.542 234.5 193.412 176.933 184.676 334.666 482.939 282.194 209.338 199.339 195.105 230.641 174.699 160.196 159.633
threshold=5.5000000000000009 16.500000000000004 1.0000000180025095e-35 8.5000000000000018 6.5000000000000009 3.5000000000000004 20.500000000000004 26.714999198913578 21.110000610351566 3.5000000000000004 63.704999923706062 66.325000762939467 7.5000000000000009 71.825000762939467 76.965000152587905 12.914999961853029 18.500000000000004 33.07500076293946 0.33500000834465032 11.500000000000002 2.5000000000000004 44.23500061035157 40.014999389648445 0.19500000029802325 20.500000000000004 2.5000000000000004 43.254999160766609 0.99500000476837169 8.5000000000000018 7.5000000000000009 68.454998016357436 75.365001678466811 70.524997711181655 9.5000000000000018 54.23500061035157 0.76499998569488536 1.5000000000000002 10.285000324249269 9.5000000000000018
decision_type=2 2 2 2 2 2 2 2 2 2 2 2 2 2 2 2 2 2 2 2 2 2 2 2 2 2 2 2 2 2 2 2 2 2 2 2 2 2 2
left_child=2 17 20 4 15 6 -6 8 -5 -10 -8 -12 -13 -14 -15 36 -17 18 -2 -20 37 22 -18 24 -24 -26 -27 28 29 34 -31 32 -32 -30 35 -22 -3 -1 -9
right_child=1 3 -4 7 5 -7 10 38 9 -11 11 12 13 14 -16 16 21 -19 19 -21 27 -23 23 -25 25 26 -28 -29 33 30 31 -33 -34 -35 -36 -37 -38 -39 -40
leaf_value=0.15036092859227213 -0.0024005424089087717 0.17523930546115429 0.20077696565837999 -0.020054097317399516 0.019409561653931939 -0.00019557324908606882 -0.062991126207634807 -0.039778375404510111 0.04099956249992829 0.27963998018410702 0.29202128110393399 0.035867247155734472 0.017546000491295542 0.29485869342919258 0.029729164997115733 0.015808550410868583 -0.007281567005048545 -0.01460819034065265 0.33209972511167113 0.082433426835840318 0.089879493447357073 -0.021844530804018169 0.0095297063945939675 -0.04266926606698912 -0.0035303105628400142 0.1926617130401059 0.028474562529784937 0.16555577623090004 -0.014493803845071202 0.050156070399615504 0.16500536613440253 0.049369570612907414 0.33280598783592991 0.054319134935602011 0.036674758565281407 -0.079611898603893463 -0.010994117241352797 0.0170805304451415 -0.0075247806262136469
leaf_count=24 1729 34 28 62 453 557 26 524 32 29 31 140 42 61 32 1131 1107 9839 23 28 454 1442 76 49 33 71 24 41 141 90 34 21 41 415 459 21 20 372 1432
internal_value=0 -0.129967 1.15501 0.0385797 0.141607 0.607966 1.04213 -0.225504 1.32979 3.08903 1.93439 2.2058 1.79608 2.91476 4.07263 -0.0153672 -0.0447582 -0.237429 0.0651224 3.90056 1.11711 -0.190444 0.0708624 1.01813 1.46766 2.22592 3.02366 1.2587 1.2085 1.44238 2.66732 4.2275 5.13473 0.737367 1.19844 1.64772 2.12528 0.503163 -0.323306
internal_count=21168 19027 2141 7408 5329 1342 785 2079 123 61 332 306 275 135 93 3987 3933 11619 1780 51 2113 2802 1360 253 204 128 95 1717 1676 1120 186 96 75 556 934 475 54 396 1956
shrinkage=0.05


Tree=14
num_leaves=40
num_cat=0
split_feature=0 0 1 5 0 7 3 7 2 0 7 1 1 6 7 2 7 1 2 1 7 2 7 7 1 7 0 0 0 2 7 7 7 2 2 7 7 7 7
split_gain=2867.79 320.082 218.667 314.852 284.355 182.492 169.774 159.83 139.106 132.056 168.263 198.135 126.994 124.499 590.16 158.302 266.638 114.519 212.519 308.21 268.75 236.191 231.922 138.996 112.944 109.032 188.204 107.817 118.811 105.782 158.97 105.64 105.296 139.227 122.599 104.833 102.612 90.881 102.749
threshold=5.5000000000000009 12.500000000000002 4.5000000000000009 1.0000000180025095e-35 1.0000000180025095e-35 67.805000305175795 1.0000000180025095e-35 26.714999198913578 1.5000000000000002 22.500000000000004 64.43500137329103 1.0000000180025095e-35 5.5000000000000009 0.27500000596046453 33.495000839233406 11.500000000000002 41.784999847412116 2.5000000000000004 11.500000000000002 4.5000000000000009 29.404999732971195 8.5000000000000018 23.214999198913578 40.219999313354499 5.5000000000000009 75.365001678466811 20.500000000000004 13.500000000000002 14.500000000000002 7.5000000000000009 61.295000076293952 67.125000000000014 25.345000267028812 2.5000000000000004 4.5000000000000009 73.194999694824233 70.094997406005874 68.055000305175795 38.424999237060554
decision_type=2 2 2 2 2 2 2 2 2 2 2 2 2 2 2 2 2 2 2 2 2 2 2 2 2 2 2 2 2 2 2 2 2 2 2 2 2 2 2
left_child=2 7 3 -1 5 12 9 8 -2 17 32 -12 -4 -9 -15 -16 -17 25 21 -20 22 -19 -21 -22 31 27 -27 -3 -29 37 -31 -13 -11 -34 -35 -8 -7 38 -6
right_child=1 6 4 -5 29 36 35 13 -10 10 11 24 -14 14 15 16 -18 18 19 20 23 -23 -24 -25 -26 26 -28 28 -30 30 -32 -33 33 34 -36 -37 -38 -39 -40
leaf_value=0.062432228139470115 0.034820946886849946 0.01598472105033362 0.0095825675843108429 0.25739169269800188 -0.047917282853435467 0.2381958654522896 -0.029276965989338447 -0.019283328012694702 -0.0091817626128128434 0.061291599862797322 0.19547698026895524 0.16368443268266591 0.082347327195168518 0.20588836979997507 -0.013328658184036613 -0.03304563495128051 0.21337872842947642 0.0073544705013734515 -0.0069715558851393758 0.050282625995931175 0.017338010253414752 -0.018580732812652701 0.26693128277858097 0.1076061781667746 -0.04519915632132826 0.0034574704443288938 0.10543489965299767 -0.042466772874960534 -0.010428597025121705 -0.00063768501393496996 0.12978853827173062 0.040451091202536982 -0.042278338272641179 0.051007622453278001 -0.0024224560774724633 -0.00041535657064303735 0.096223949428115574 -0.12373614430427551 0.024119916944670482
leaf_count=1494 287 335 117 21 99 20 799 5861 480 86 25 22 123 34 672 23 21 3720 211 21 124 1149 30 65 29 788 48 325 2640 80 33 83 137 158 335 519 35 20 99
internal_value=0 -0.123469 1.09726 1.30269 0.600095 1.31401 -0.0202472 -0.286443 0.145668 0.0228727 0.394543 1.32511 0.93749 -0.336576 0.0470467 -0.146256 1.69132 -0.0115194 0.0855134 0.742226 1.51735 0.0246842 3.55446 0.967652 0.842944 -0.13633 0.186253 -0.21805 -0.278807 -0.0361725 0.749028 1.32543 0.187895 0.0462079 0.294024 -0.358238 2.957 -0.44318 -0.237974
internal_count=21168 19027 2141 1515 626 295 11649 7378 767 10331 875 159 240 6611 750 716 44 9456 5320 451 240 4869 51 189 134 4136 836 3300 2965 331 113 105 716 630 493 1318 55 218 198
shrinkage=0.05


Tree=15
num_leaves=40
num_cat=0
split_feature=0 0 2 6 1 6 1 2 7 7 7 0 6 7 6 7 3 7 0 2 7 7 7 7 2 2 0 7 7 2 7 3 7 0 6 0 5 0 7
split_gain=2588.18 289.41 204.112 209.312 201.316 480.475 183.381 430.975 185.328 204.646 388.47 361.064 179.238 456.579 197.89 283.313 179.012 200.555 358.679 180.065 394.624 288.837 173.053 212.086 394.388 225.293 168.412 226.507 151.109 277.457 148.907 139.52 285.298 140.567 138.826 134.327 126.17 140.674 127.549
threshold=5.5000000000000009 16.500000000000004 2.5000000000000004 0.28499999642372137 5.5000000000000009 0.5249999761581422 4.5000000000000009 11.500000000000002 44.725000381469734 31.164999961853031 17.925000190734867 11.500000000000002 0.2650000005960465 33.495000839233406 0.57499998807907116 44.725000381469734 1.0000000180025095e-35 72.055000305175795 20.500000000000004 7.5000000000000009 76.454998016357436 73.634998321533217 25.345000267028812 21.110000610351566 11.500000000000002 1.5000000000000002 7.5000000000000009 12.914999961853029 12.914999961853029 1.5000000000000002 10.285000324249269 1.0000000180025095e-35 73.875000000000014 1.5000000000000002 0.99500000476837169 18.500000000000004 1.0000000180025095e-35 9.5000000000000018 83.854999542236342
decision_type=2 2 2 2 2 2 2 2 2 2 2 2 2 2 2 2 2 2 2 2 2 2 2 2 2 2 2 2 2 2 2 2 2 2 2 2 2 2 2
left_child=2 6 30 31 5 -5 26 12 9 10 -9 -12 -8 -14 15 -15 17 22 -19 -20 21 -21 23 28 25 -25 -2 -28 29 -3 -1 32 -4 -34 -7 -24 37 -29 -39
right_child=1 16 3 4 -6 34 7 8 -10 -11 11 -13 13 14 -16 -17 -18 18 19 20 -22 -23 35 24 -26 -27 27 36 -30 -31 -32 -33 33 -35 -36 -37 -38 38 -40
leaf_value=0.14112776449571054 -0.029779464455563748 0.16592136928263834 0.053318139875523522 0.32531408673083345 -0.026882872595028445 0.051092724382877354 -0.010483714374171166 -0.069670603827883801 0.160350409867242 0.0028302659266046248 0.083216929366422263 0.33615164586475921 0.2478491824300198 0.16851799342521401 -0.012426231913268568 -0.00084391304388128485 -0.017817254491895439 0.0098410498780183864 0.046152386161750256 0.10306635266886309 -0.0025725136841497115 0.33655497277224505 0.011348291127823779 0.095021497909175731 0.21521934574518942 -0.027968185180670596 0.088764097553212198 0.00046788932348215928 -0.024842985026064635 -0.026215469979104546 0.01275095362313247 -0.00081093668661735689 0.21307118911036227 0.05768152858045969 0.16839946837801684 -0.0069168038199590902 0.032378418801893148 -0.019636433075403845 0.0078507991748508719
leaf_count=24 1522 34 1398 27 22 75 2687 24 40 128 43 21 22 43 235 58 1000 833 137 26 31 27 1412 76 38 73 56 1454 173 42 384 108 43 22 38 3506 155 4667 464
internal_value=0 -0.117295 1.0424 1.19221 2.27447 2.71637 -0.215773 -0.0163477 1.22982 0.863675 2.0376 3.32422 -0.121116 0.543567 0.254593 1.42521 0.0371609 0.0985694 0.497295 1.62985 2.78261 4.44027 0.0200755 0.623887 1.42869 0.695296 -0.294915 -0.227577 0.0194731 1.19481 0.406051 1.08061 1.16158 3.20956 1.81082 -0.0334548 -0.244218 -0.265209 -0.343015
internal_count=21168 19027 2141 1733 162 140 11619 3301 256 216 88 64 3045 358 336 101 7408 6408 1054 221 84 53 5354 436 187 149 8318 6796 249 76 408 1571 1463 65 113 4918 6740 6585 5131
shrinkage=0.05


Tree=16
num_leaves=40
num_cat=0
split_feature=0 0 1 5 0 7 7 3 2 1 0 7 7 7 7 7 6 7 6 1 2 1 7 7 2 2 7 6 7 6 7 7 7 7 2 2 1 4 0
split_gain=2335.83 269.039 193.614 281.322 254.876 158.363 140.59 140.328 124.756 116.288 116.228 143.604 192.073 141.875 139.159 152.555 107.188 366.304 156.333 120.93 226.725 99.6384 190.055 260.921 110.185 351.265 186.853 168.24 188.563 124.758 97.6278 97.3657 97.2012 249.437 300.642 177.025 148.931 209.561 328.289
threshold=5.5000000000000009 12.500000000000002 4.5000000000000009 1.0000000180025095e-35 1.0000000180025095e-35 67.805000305175795 26.714999198913578 1.0000000180025095e-35 1.5000000000000002 5.5000000000000009 22.500000000000004 64.43500137329103 66.805000305175795 70.915000915527358 75.365001678466811 73.194999694824233 0.11499999836087228 33.07500076293946 0.31499999761581426 4.5000000000000009 11.500000000000002 2.5000000000000004 36.875000000000007 36.645000457763679 2.5000000000000004 3.5000000000000004 38.23500061035157 0.11499999836087228 40.465000152587898 0.89499998092651378 70.094997406005874 67.125000000000014 21.110000610351566 27.57499980926514 11.500000000000002 1.5000000000000002 4.5000000000000009 1.0000000180025095e-35 14.500000000000002
decision_type=2 2 2 2 2 2 2 2 2 2 2 2 2 2 2 2 2 2 2 2 2 2 2 2 2 2 2 2 2 2 2 2 2 2 2 2 2 2 2
left_child=2 6 3 -1 5 9 8 10 -2 -4 21 -12 -13 -14 15 -15 -8 18 -18 -19 -21 -3 23 32 29 26 -26 28 -28 -24 -7 -9 -23 34 35 -34 -35 38 -38
right_child=1 7 4 -5 -6 30 16 31 -10 -11 11 12 13 14 -16 -17 17 19 -20 20 -22 22 24 -25 25 -27 27 -29 -30 -31 -32 -33 33 36 -36 -37 37 -39 -40
leaf_value=0.056624702875373994 0.033299685236494923 -0.0063139262593871915 0.006695150934223436 0.24091104747993605 -0.0039963101430759516 0.22456802144646645 -0.017983716888627765 -0.033200672396426073 -0.0083716485936505113 0.076325239198721528 0.0090092551956270622 0.17101789922453464 -0.027491451758477427 0.04342220340456282 -0.00094853394454525375 0.23400702912892615 0.036706037887118084 -0.018914682840169141 0.21780610815263712 0.0074438573413864702 0.17512246432968162 -0.015253866873681547 -0.030421949414487344 0.19232998476787047 -0.038470422640442849 -0.0029481953702163201 -0.058713730372902423 0.13918780725329155 0.066194940736873986 0.063873921471991044 0.086087381243705755 -0.0053381015773658735 0.095962881774045106 -0.011541940106906262 0.20661820393055677 -0.0040457210757515651 0.17763579254123299 -0.039669032927195078 0.030465558938632616
leaf_count=1494 287 4136 117 21 331 20 5672 514 480 123 716 32 54 21 31 21 22 628 26 241 22 180 456 22 50 3312 36 62 188 38 35 804 89 367 35 88 44 80 273
internal_value=0 -0.111431 0.990279 1.18358 0.522459 1.19836 -0.260847 -0.0167965 0.144423 0.847611 0.0224061 0.371092 1.23077 0.679066 1.58811 2.77429 -0.307865 0.00508487 2.69604 -0.139882 0.429404 -0.00985916 0.0806503 0.435068 -0.0201475 0.039872 1.01411 1.32592 0.922407 -0.463368 2.72888 -0.324082 0.370143 0.494671 1.45437 0.924822 0.228368 0.652874 1.01786
internal_count=21168 19027 2141 1515 626 295 7378 11649 767 240 10331 875 159 127 73 42 6611 939 48 891 263 9456 5320 1178 4142 3648 336 286 224 494 55 1318 1156 976 212 177 764 397 317
shrinkage=0.05


Tree=17
num_leaves=40
num_cat=0
split_feature=0 0 2 6 7 2 2 1 0 7 7 2 7 7 7 1 7 0 7 2 1 7 7 7 0 7 7 6 0 2 7 2 7 2 2 2 7 7 7
split_gain=2108.09 243.245 183.105 195.699 288.385 175.223 334.188 307.392 380.382 246.328 422.22 329.195 385.522 506.508 238.29 318.463 203.919 174.546 170.405 160.872 348.285 155.388 231.778 347.237 267.063 152.369 253.282 188.811 176.422 204.627 171.245 151.21 146.254 142.065 139.014 284.594 412.826 255.99 224.779
threshold=5.5000000000000009 16.500000000000004 2.5000000000000004 0.50499999523162853 39.385000228881843 8.5000000000000018 6.5000000000000009 3.5000000000000004 20.500000000000004 63.704999923706062 66.805000305175795 7.5000000000000009 71.825000762939467 76.965000152587905 26.714999198913578 4.5000000000000009 12.914999961853029 18.500000000000004 6.3650000095367441 11.500000000000002 4.5000000000000009 44.725000381469734 29.404999732971195 18.880000114440922 9.5000000000000018 44.23500061035157 40.014999389648445 0.19500000029802325 20.500000000000004 2.5000000000000004 43.254999160766609 8.5000000000000018 78.454998016357436 1.5000000000000002 8.5000000000000018 7.5000000000000009 68.454998016357436 75.365001678466811 54.23500061035157
decision_type=2 2 2 2 2 2 2 2 2 2 2 2 2 2 2 2 2 2 2 2 2 2 2 2 2 2 2 2 2 2 2 2 2 2 2 2 2 2 2
left_child=2 18 -1 34 -5 6 16 8 -8 -10 -11 32 -13 -14 15 -7 33 -18 -2 31 -21 22 23 -22 -25 26 -19 28 -28 -30 -31 -20 -12 -3 35 38 -37 -38 -4
right_child=1 5 3 4 -6 14 7 -9 9 10 11 12 13 -15 -16 -17 17 25 19 20 21 -23 -24 24 -26 -27 27 -29 29 30 -32 -33 -34 -35 -36 36 37 -39 -40
leaf_value=0.016902571601474171 0.076432260047448311 0.15802929340039984 0.073149270096993332 0.27860410132191399 0.079347259788482921 0.0092702295789802141 0.018532937113812428 -0.00023628254604978984 -0.058766025161513913 0.24298622644609874 -0.0082016015872359276 -0.0029885000473744163 0.27234620586854452 0.026725552324205638 -0.014769181877254187 0.19265214543265757 0.01458019534443776 -0.0070006237865039489 -0.0086781614916415731 -0.011318757951203276 -0.0573184397816658 0.15055512253107739 0.0065414661336009733 0.075537183403968811 0.30904399727781617 -0.020014385269352866 0.0092761499022966931 -0.039683284017504483 -0.0018150126674410069 0.18173769203500012 0.02724587396563341 -0.022983014168171351 0.11610074648934027 -0.00991167325526476 0.028553144903207029 0.038078635965270557 0.23255570601369882 0.034759542133126944 0.022949723578855261
leaf_count=408 57 34 448 22 104 91 453 557 26 45 100 37 61 32 1956 32 1131 1107 8415 529 20 40 142 25 24 1442 76 49 33 71 24 2367 31 20 533 87 74 21 444
internal_value=0 -0.105859 0.940765 1.08266 2.28276 0.0357434 0.131805 0.563443 0.966589 1.77971 2.03079 1.54304 2.67042 3.75663 -0.210486 1.13959 -0.0134817 -0.0399814 -0.196141 -0.204644 0.233912 1.204 0.861422 2.36496 3.79816 -0.173823 0.066297 0.969003 1.39239 2.10897 2.85416 -0.236371 0.424269 1.91658 0.988566 1.19576 2.33538 3.77665 0.963241
internal_count=21168 19027 2141 1733 126 7408 5329 1342 785 332 306 261 130 93 2079 123 3987 3933 11619 11562 780 251 211 69 49 2802 1360 253 204 128 95 10782 131 54 1607 1074 182 95 892
shrinkage=0.05


Tree=18
num_leaves=40
num_cat=0
split_feature=0 0 1 5 0 2 2 1 7 0 7 7 3 3 6 2 0 0 7 7 7 0 7 1 5 1 2 7 1 7 7 2 2 7 1 0 7 6 0
split_gain=1902.55 228.163 173.676 244.099 229.934 150.44 232.2 131.12 173.573 173.961 278.571 403.16 128.588 126.149 105.852 208.703 103.558 235.305 138.59 115.496 260.152 99.793 121.743 173.445 97.0125 95.7167 91.2944 133.43 89.8144 163.357 236.933 99.8582 309.568 167.248 172.626 178.163 149.015 112.395 96.9843
threshold=5.5000000000000009 12.500000000000002 4.5000000000000009 1.0000000180025095e-35 1.0000000180025095e-35 8.5000000000000018 2.5000000000000004 4.5000000000000009 30.654999732971195 8.5000000000000018 22.474999427795414 26.714999198913578 1.0000000180025095e-35 1.0000000180025095e-35 0.014999999664723875 11.500000000000002 7.5000000000000009 10.500000000000002 12.914999961853029 62.094999313354499 62.93499946594239 22.500000000000004 64.43500137329103 1.0000000180025095e-35 1.0000000180025095e-35 5.5000000000000009 7.5000000000000009 61.295000076293952 2.5000000000000004 36.875000000000007 36.645000457763679 2.5000000000000004 3.5000000000000004 38.23500061035157 4.5000000000000009 20.500000000000004 58.414999008178718 0.87500000000000011 13.500000000000002
decision_type=2 2 2 2 2 2 2 2 2 2 2 2 2 2 2 2 2 2 2 2 2 2 2 2 2 2 2 2 2 2 2 2 2 2 2 2 2 2 2
left_child=2 7 3 -1 5 6 -4 16 9 -9 -11 -12 21 -8 -10 -16 -2 18 -18 -20 -21 28 -23 -24 -19 -25 -6 -28 38 30 -30 37 33 -33 35 36 -35 -31 -3
right_child=1 12 4 -5 26 -7 13 8 14 10 11 -13 -14 -15 15 -17 17 24 19 20 -22 22 23 25 -26 -27 27 -29 29 31 -32 32 -34 34 -36 -37 -38 -39 -40
leaf_value=0.051460923652674719 -0.027114959128700322 0.016346552974783105 -0.010099876632815913 0.22312299054825591 -0.024980732130416489 -0.0039037106407340616 0.13101574701046753 0.00010436964139603732 -0.012759859492602266 -0.007601556041392319 0.2635449597665242 0.033773940340394069 -0.01537834693125148 0.0223005407873322 0.0069442781175763808 0.15505820345133545 0.10025321674166304 -0.029044124275996702 -0.011363905730260726 0.18609793540977299 0.0077052790681364659 0.0085713864065766563 0.17783970445394517 0.056589318265517552 0.05293700388959937 -0.046028470170908962 -0.0044980143662542108 0.11499251867785598 0.017342965859062358 -0.028744727662344885 0.18298291069540112 -0.036447223488241434 -0.0024476309686534757 -0.0098502472916152332 0.11217162511658581 0.14551164107076053 0.13690592933446169 0.059699347242712975 -0.0084610253232953441
leaf_count=1494 1522 441 57 21 218 80 124 171 1490 57 35 42 1318 34 279 26 33 1461 1442 21 762 716 25 105 37 29 80 33 1156 455 22 50 3312 128 109 29 20 39 3695
internal_value=0 -0.100566 0.893727 1.07681 0.450648 1.09262 1.52823 -0.238164 -0.0268199 0.670632 1.52377 2.76431 -0.013417 2.15243 -0.145328 0.391408 -0.322253 -0.233087 -0.0292198 -0.0593912 0.249795 0.0241098 0.347204 1.13875 -0.540384 0.68762 -0.121504 0.607949 -0.00578728 0.0801445 0.408728 -0.0133059 0.0438318 0.958421 1.25341 0.643743 0.199633 -0.435246 -0.116318
internal_count=21168 19027 2141 1515 626 295 215 7378 2100 305 134 77 11649 158 1795 305 5278 3756 2258 2225 783 10331 875 159 1498 134 331 113 9456 5320 1178 4142 3648 336 286 177 148 494 4136
shrinkage=0.05


Tree=19
num_leaves=40
num_cat=0
split_feature=0 0 2 6 6 7 2 2 7 7 7 7 2 7 7 1 7 0 7 7 3 2 0 6 7 7 2 1 7 0 7 0 0 2 1 7 7 2 2
split_gain=1717.05 205.917 158.267 173.431 255.911 136.088 119.875 250.959 370.312 229.645 202.923 194.749 187.531 156.095 136.87 118.336 156.65 157 251.411 363.852 116.05 112.371 102.325 154.109 98.722 98.9828 102.752 97.3863 112.543 102.708 100.918 93.7241 152.305 92.6189 404.874 299.135 1090.11 198.234 281.069
threshold=5.5000000000000009 12.500000000000002 2.5000000000000004 0.50499999523162853 0.66500002145767223 10.285000324249269 8.5000000000000018 7.5000000000000009 68.454998016357436 75.365001678466811 54.23500061035157 70.524997711181655 9.5000000000000018 63.465000152587898 26.295000076293949 4.5000000000000009 30.654999732971195 8.5000000000000018 22.474999427795414 26.714999198913578 1.0000000180025095e-35 4.5000000000000009 6.5000000000000009 0.17500000447034839 56.645000457763679 48.885000228881843 10.500000000000002 4.5000000000000009 36.43499946594239 1.5000000000000002 22.474999427795414 6.5000000000000009 10.500000000000002 11.500000000000002 4.5000000000000009 17.925000190734867 27.979999542236332 8.5000000000000018 6.5000000000000009
decision_type=2 2 2 2 2 2 2 2 2 2 2 2 2 2 2 2 2 2 2 2 2 2 2 2 2 2 2 2 2 2 2 2 2 2 2 2 2 2 2
left_child=2 15 5 6 -5 -1 7 10 -9 11 14 -10 -8 -12 -4 31 17 -17 -19 -20 33 -6 23 -18 25 26 -14 28 29 30 -7 -2 -33 37 -35 -36 -37 38 -3
right_child=1 20 3 4 21 27 12 8 9 -11 13 -13 24 -15 -16 16 22 18 19 -21 -22 -23 -24 -25 -26 -27 -28 -29 -30 -31 -32 32 -34 34 35 36 -38 -39 -40
leaf_value=0.1299419344092409 -0.031819767792518876 -0.001518861787963057 -0.010909194316715004 0.26487227199333058 0.15358548768225216 0.094466776698827748 -0.025189083476081821 0.033218983757769931 0.12943179278689274 0.030069686933642342 -0.013528332338860286 0.29219437450170521 0.10143363519770202 0.046085421575651486 0.076858784892039386 9.9150139337394688e-05 0.0083045136735395153 -0.0072214793936725254 0.25036770497049604 0.032085242299806506 -0.0146094291890676 0.040190391083927579 -0.011660504383528024 0.12924284920096399 0.11420758304207823 -0.042264660251768012 0.029166845003450948 -0.028815585031868918 -0.024003929824188905 0.085455260730602528 -0.023998168599791828 -0.0061902942525180644 -0.025668263378850271 -0.0066871003827817287 -0.11760568361729384 0.4279245234671093 0.051101525946762497 -0.01332976975243829 0.022106168769418486
leaf_count=24 739 5661 50 21 31 25 137 87 34 21 199 40 61 245 398 171 216 57 35 42 1318 74 1549 30 43 38 254 126 81 88 64 3041 1498 566 20 21 223 2221 1619
internal_value=0 -0.0955377 0.849041 0.980963 2.11072 0.288695 0.892382 1.08479 2.15494 3.51998 0.866438 4.34823 0.504683 0.387333 1.34127 -0.226256 -0.0254789 0.6371 1.44759 2.62609 -0.0127461 1.47338 -0.138062 0.461062 0.853571 0.679307 0.863227 0.144311 0.496243 0.943034 0.18557 -0.306141 -0.252372 0.0229043 0.343254 1.3659 1.67066 -0.00508117 0.0747022
internal_count=21168 19027 2141 1733 126 408 1607 1074 182 95 892 74 533 444 448 7378 2100 305 134 77 11649 105 1795 246 396 353 315 384 258 177 89 5278 4539 10331 830 264 244 9501 7280
shrinkage=0.05


Tree=20
num_leaves=40
num_cat=0
split_feature=0 0 2 2 1 0 7 7 2 7 7 7 7 1 7 0 7 1 5 0 2 1 7 7 7 0 2 2 2 7 7 6 0 2 1 7 2 2 0
split_gain=1549.64 193.798 152.818 291.032 272.125 337.807 221.672 377.895 270.759 304.054 456.462 198.208 264.053 246.872 181.798 158.438 149.766 149.457 214.14 207.441 134.054 279.947 139.672 199.527 291.07 229.083 132.033 194.821 132.007 130.151 227.388 167.216 156.186 179.643 160.654 217.422 128.799 128.178 127.393
threshold=5.5000000000000009 16.500000000000004 8.5000000000000018 6.5000000000000009 3.5000000000000004 20.500000000000004 63.704999923706062 66.325000762939467 7.5000000000000009 71.825000762939467 76.965000152587905 26.714999198913578 20.460000038146976 3.5000000000000004 12.914999961853029 18.500000000000004 6.3650000095367441 4.5000000000000009 1.0000000180025095e-35 1.0000000180025095e-35 11.500000000000002 4.5000000000000009 44.725000381469734 29.404999732971195 18.880000114440922 9.5000000000000018 8.5000000000000018 2.5000000000000004 9.5000000000000018 44.23500061035157 40.014999389648445 0.19500000029802325 20.500000000000004 2.5000000000000004 4.5000000000000009 42.024999618530281 1.5000000000000002 8.5000000000000018 21.500000000000004
decision_type=2 2 2 2 2 2 2 2 2 2 2 2 2 2 2 2 2 2 2 2 2 2 2 2 2 2 2 2 2 2 2 2 2 2 2 2 2 2 2
left_child=17 16 3 14 5 -5 -7 -8 -9 -10 38 12 -4 -14 36 -16 -2 18 -1 26 37 -22 23 24 -23 -26 27 -19 -13 30 -17 32 -32 -34 35 -35 -3 -18 -11
right_child=1 2 11 4 -6 6 7 8 9 10 -12 28 13 -15 15 29 20 19 -20 -21 21 22 -24 -25 25 -27 -28 -29 -30 -31 31 -33 33 34 -36 -37 -38 -39 -40
leaf_value=0.046592577181879924 0.072281073827884706 0.14983142991276349 -0.022008100103159421 0.017293583723422445 -0.00032182835791547598 -0.056475800691315761 0.26108897626399996 0.028221002229090249 0.015803944638797217 0.16191585863178426 0.02495031151920557 -0.035060108735986799 0.030985189672333727 0.2309465463819175 0.014032733771323361 -0.006816614761695353 -0.0075226074237231474 -0.0085718854738954919 0.20737563201359344 -0.0073941474268353598 -0.0095823992740905126 -0.052692736387252803 0.14020131569355729 0.0044045103744818487 0.067730630874633796 0.28399688911934695 -0.0045707671716809272 0.09925857912277497 -0.0057299092808067173 -0.018604022201025361 0.008867971422640902 -0.037216992626840972 -0.0011452711723519094 0.26443568192648165 0.012211823037692479 0.092015308568753854 -0.010075719747692348 -0.020693065704167776 0.31239050497802406
leaf_count=1494 57 34 61 453 557 26 31 140 42 22 32 524 33 29 1131 1107 8415 57 21 331 529 20 40 142 25 24 80 158 1432 1442 76 49 33 33 21 41 20 2367 39
internal_value=0 -0.0907608 0.0356321 0.125342 0.528146 0.907462 1.67373 1.91191 1.5388 2.54927 3.5578 -0.194317 1.03699 2.49031 -0.0102394 -0.0352605 -0.171346 0.806589 0.976425 0.395563 -0.179318 0.221019 1.09074 0.76595 2.16097 3.47314 1.00533 1.41342 -0.271746 -0.162777 0.0591471 0.914466 1.3129 1.98713 2.68536 3.37811 1.81213 -0.208279 5.16242
internal_count=21168 19027 7408 5329 1342 785 332 306 275 135 93 2079 123 62 3987 3933 11619 2141 1515 626 11562 780 251 211 69 49 295 215 1956 2802 1360 253 204 128 95 74 54 10782 61
shrinkage=0.05


Tree=21
num_leaves=40
num_cat=0
split_feature=0 0 2 6 7 2 2 1 0 7 7 2 7 7 7 1 7 0 7 7 1 1 2 6 7 6 7 7 7 7 0 0 7 7 7 7 6 0 2
split_gain=1398.55 174.902 138.668 153.879 240.35 137.918 262.656 245.593 304.871 200.059 351.308 270.983 317.445 411.957 179.838 342.348 164.073 142.99 135.164 133.441 126.305 123.829 295.198 151.466 377.439 195.893 289.617 126.054 180.073 262.69 206.747 123.903 123.526 121.916 117.462 205.218 150.912 140.958 162.128
threshold=5.5000000000000009 16.500000000000004 2.5000000000000004 0.50499999523162853 39.385000228881843 8.5000000000000018 6.5000000000000009 3.5000000000000004 20.500000000000004 63.704999923706062 66.805000305175795 7.5000000000000009 71.825000762939467 76.965000152587905 28.404999732971195 4.5000000000000009 12.914999961853029 18.500000000000004 6.3650000095367441 78.454998016357436 1.5000000000000002 4.5000000000000009 11.500000000000002 0.28499999642372137 33.495000839233406 0.57499998807907116 44.725000381469734 44.725000381469734 29.404999732971195 18.880000114440922 9.5000000000000018 7.5000000000000009 10.285000324249269 73.875000000000014 44.23500061035157 40.014999389648445 0.19500000029802325 20.500000000000004 2.5000000000000004
decision_type=2 2 2 2 2 2 2 2 2 2 2 2 2 2 2 2 2 2 2 2 2 2 2 2 2 2 2 2 2 2 2 2 2 2 2 2 2 2 2
left_child=2 18 32 -4 -5 6 16 8 -8 -10 20 19 -13 33 15 -7 -3 -18 -2 -12 -11 31 23 -23 -25 26 -26 28 29 -24 -31 -20 -1 -14 35 -19 37 -37 -39
right_child=1 5 3 4 -6 14 7 -9 9 10 11 12 13 -15 -16 -17 17 34 21 -21 -22 22 27 24 25 -27 -28 -29 -30 30 -32 -33 -34 -35 -36 36 -38 38 -40
leaf_value=0.12213481931636733 0.068667020156097255 0.086076234632896056 0.040315242216699368 0.24784116724675354 0.065934353801780018 0.00028201282288120913 0.016428904403946783 -0.00030573643142059849 -0.053652011459836592 0.13028788424673535 -0.01027895398810506 -0.0041586458683013916 0.33298187578717869 0.023702795756980779 -0.013330802728772984 0.17551228061721133 0.0133310966626811 -0.0064757839481067838 -0.024763100219026696 0.10845354603182884 0.29819586711625257 -0.0086393824545579808 -0.05005809783935547 0.22686897407878531 0.18293913423612312 -0.011224721143656273 0.0013435904695479959 0.13319124940782787 0.0041842844255242338 0.064344099402427676 0.26979704794163506 -0.0088949250739581206 0.0052097818258819949 0.18828498624466561 -0.017673820874753218 0.0084245716270647548 -0.03535614206161046 -0.0010880089816496228 0.12755453452075782
leaf_count=24 57 54 1607 22 104 113 453 557 26 21 100 37 24 32 1929 37 1131 1107 1503 31 24 2683 20 22 37 235 54 40 142 25 24 6777 384 37 1442 76 49 33 95
internal_value=0 -0.0862228 0.766259 0.889743 1.95392 0.0338505 0.119075 0.501739 0.862089 1.59004 1.81632 1.37141 2.39427 3.37991 -0.184601 0.87011 -0.00972743 -0.0334975 -0.162779 0.356361 4.39678 -0.170352 -0.0059748 -0.0922788 0.528426 0.257883 1.50358 1.03621 0.727653 2.05292 3.29948 -0.235507 0.241755 4.9043 -0.154638 0.0561897 0.868743 1.24726 1.88778
internal_count=21168 19027 2141 1733 126 7408 5329 1342 785 332 306 261 130 93 2079 150 3987 3933 11619 131 45 11562 3282 3031 348 326 91 251 211 69 49 8280 408 61 2802 1360 253 204 128
shrinkage=0.05


Tree=22
num_leaves=40
num_cat=0
split_feature=0 0 1 0 5 2 2 3 3 7 2 6 7 2 7 0 7 7 7 7 7 0 0 7 0 1 7 0 1 7 7 1 2 7 7 1 7 0 2
split_gain=1262.19 160.344 133.652 187.084 186.43 120.424 170.423 114.717 105.955 95.6892 114.417 85.3464 442.525 104.019 209.107 81.494 94.2955 156.664 104.72 127.957 130.629 80.3399 101.178 117.65 182.966 142.728 167.118 139.864 116.054 113.17 95.9461 112.646 93.3562 131.273 83.641 170.502 84.4411 191.755 312.858
threshold=5.5000000000000009 12.500000000000002 4.5000000000000009 1.0000000180025095e-35 1.0000000180025095e-35 8.5000000000000018 2.5000000000000004 1.0000000180025095e-35 1.0000000180025095e-35 26.714999198913578 1.5000000000000002 0.27500000596046453 33.495000839233406 11.500000000000002 41.784999847412116 22.500000000000004 64.43500137329103 66.805000305175795 70.915000915527358 75.365001678466811 73.194999694824233 13.500000000000002 16.500000000000004 72.055000305175795 20.500000000000004 4.5000000000000009 73.875000000000014 18.500000000000004 1.0000000180025095e-35 31.164999961853031 27.979999542236332 2.5000000000000004 7.5000000000000009 76.965000152587905 44.23500061035157 4.5000000000000009 40.854999542236335 20.500000000000004 4.5000000000000009
decision_type=2 2 2 2 2 2 2 2 2 2 2 2 2 2 2 2 2 2 2 2 2 2 2 2 2 2 2 2 2 2 2 2 2 2 2 2 2 2 2
left_child=2 9 4 5 -1 6 -4 -8 15 10 -2 -11 -13 -14 -15 21 -17 -18 -19 20 -20 -3 29 27 -25 26 -26 -24 -28 30 -23 -32 33 -30 35 36 -29 -38 -39
right_child=1 8 3 -5 -6 -7 7 -9 -10 11 -12 12 13 14 -16 16 17 18 19 -21 -22 22 23 24 25 -27 28 34 32 -31 31 -33 -34 -35 -36 -37 37 38 -40
leaf_value=0.042348119282379366 0.03182888298525835 0.013533472075931783 -0.008711478453979158 -0.0088416837310570425 0.19236817047709512 -0.0064540633477736271 0.11445049523420991 0.010778122526757859 -0.013793251742305 -0.013834835303191118 -0.0080784098881122191 0.1803271038567319 -0.0091672492183057508 -0.033965937372135081 0.18426009047599068 0.008124266230948687 0.14956475738435984 -0.027012217237993526 0.033519604837610607 -0.012225308533637756 0.20987793253291223 -0.002478297504688233 0.011443870952172466 0.0085564532704620055 0.20072609151580503 -0.017445083550716702 0.1588346796191257 -0.015547795701070791 0.15884732576933774 -0.012036684592927368 -5.9562034550167269e-05 0.10826400528894738 -0.0531657935484596 -0.0086183330416679388 -0.015832984774205527 0.026622408835293262 -0.02861942418747478 0.15442396243121112 -0.041383233151453383
leaf_count=1494 287 971 57 331 21 80 124 34 1318 5861 480 34 672 23 21 716 32 54 21 31 21 142 1497 833 28 38 23 951 22 2712 42 56 23 25 1464 454 90 51 34
internal_value=0 -0.0819117 0.727946 0.33926 0.888552 0.918335 1.30807 1.84283 -0.00885384 -0.197261 0.137086 -0.236052 0.0815727 -0.0858141 1.40375 0.0252107 0.317183 1.01381 0.515544 1.29654 2.43398 -0.00180661 -0.032988 0.0467738 0.35876 1.34176 1.87271 -0.021381 1.22786 -0.182487 0.475697 1.23679 0.587534 1.3954 -0.144455 0.0151071 -0.193483 0.444896 1.52202
internal_count=21168 19027 2141 626 1515 295 215 158 11649 7378 767 6611 750 716 44 10331 875 159 127 73 42 9456 8485 5533 992 159 121 4541 93 2952 240 98 70 47 3044 1580 1126 175 85
shrinkage=0.05


Tree=23
num_leaves=40
num_cat=0
split_feature=0 0 2 1 6 7 7 7 6 7 7 2 2 7 7 7 7 1 7 0 3 7 7 2 2 1 7 0 7 7 0 6 7 7 0 7 7 0 0
split_gain=1139.13 144.711 121.512 139.489 522.46 184.048 327.137 134.493 154.923 199.241 195.577 138.501 202.478 230.403 326.852 122.11 115.488 115.5 142.39 118.054 95.6242 94.7314 171.593 198.261 124.701 92.8166 123.259 132.723 212.814 324.734 92.7373 134.326 85.05 97.9964 90.183 194.956 94.3852 83.1303 199.043
threshold=5.5000000000000009 12.500000000000002 2.5000000000000004 1.0000000180025095e-35 0.17500000447034839 55.57500076293946 47.295000076293952 63.914999008178718 0.99500000476837169 44.23500061035157 38.23500061035157 8.5000000000000018 7.5000000000000009 68.454998016357436 75.365001678466811 70.524997711181655 37.254999160766609 5.5000000000000009 12.914999961853029 1.5000000000000002 1.0000000180025095e-35 39.594999313354499 42.024999618530281 4.5000000000000009 4.5000000000000009 4.5000000000000009 30.654999732971195 8.5000000000000018 22.474999427795414 26.714999198913578 6.5000000000000009 0.17500000447034839 69.865001678466811 72.545001983642592 1.5000000000000002 67.805000305175795 67.33499908447267 7.5000000000000009 9.5000000000000018
decision_type=2 2 2 2 2 2 2 2 2 2 2 2 2 2 2 2 2 2 2 2 2 2 2 2 2 2 2 2 2 2 2 2 2 2 2 2 2 2 2
left_child=2 25 16 4 5 6 -4 8 9 10 -5 12 32 -14 15 -15 17 18 -1 -20 -3 -12 24 -24 -23 37 27 -27 -29 -30 31 -28 34 -34 35 -9 -36 -2 -39
right_child=1 20 3 7 -6 -7 -8 11 -10 -11 21 -13 13 14 -16 -17 -18 -19 19 -21 -22 22 23 -25 -26 26 30 28 29 -31 -32 -33 33 -35 36 -37 -38 38 -40
leaf_value=0.15203505721688271 -0.022764934813567048 0.0011975082279279069 0.044296640571620728 0.026293546316195123 0.32080914907157426 -0.0017510194670070302 0.23042757459916174 0.045750073573606859 0.14160821522985187 0.0025741823464632036 0.1653871722720765 -0.0063909030355074822 0.030141255777815113 0.14320537260334407 -0.0082972920360043639 0.2808145101133146 -0.036047330973487272 -0.045831503036121532 -0.0092742285980232844 0.061907051541866404 -0.013103588485640895 -0.068170629628002646 0.26018426716327669 0.050789507671904113 0.086687420881711524 -0.00028999734953132989 0.0092763583951940131 -0.0070688229315636454 0.23286198313747133 0.026646959382508485 -0.010001510774760025 0.12218577881654105 -0.052207345021888618 0.047860238381794526 0.099688692832434631 0.24248489918187263 -0.025528957256499459 0.0051872201903801311 -0.01830877769243025
leaf_count=25 1522 10331 90 347 20 88 32 34 28 575 37 68 46 28 20 38 102 48 116 117 1318 26 20 26 26 171 216 57 35 42 1549 30 40 63 27 20 34 1502 2254
internal_value=0 -0.0778161 0.691549 0.807142 1.53239 1.06727 1.86236 0.69616 0.510489 0.448988 0.923188 1.1781 1.43183 2.40928 3.37552 4.4487 0.200561 0.507731 0.772728 0.529383 -0.00841115 1.94444 1.42972 2.83661 0.185168 -0.187398 -0.00958328 0.578153 1.32335 2.40762 -0.109449 0.460916 0.839974 0.179981 1.4311 2.3723 0.597905 -0.258147 -0.178258
internal_count=21168 19027 2141 1733 230 210 122 1503 1085 1057 482 418 350 132 86 66 408 306 258 233 11649 135 98 46 52 7378 2100 305 134 77 1795 246 218 103 115 54 61 5278 3756
shrinkage=0.05


Tree=24
num_leaves=40
num_cat=0
split_feature=0 0 2 2 1 0 7 7 1 7 1 7 7 2 1 0 5 2 2 2 3 2 1 2 7 2 2 1 5 6 7 6 7 7 7 0 1 7 7
split_gain=1028.06 133.894 121.071 239.028 202.46 244.18 362.484 357.895 245.672 160.988 304.376 139.501 119.041 117.106 116.22 166.268 165.367 112.246 106.938 141.239 106.484 104.772 217.641 112.354 120.61 773.706 941.11 115.777 170.548 119.846 290.542 253.677 110.7 154.595 229.662 180.743 94.5702 98.8005 222.114
threshold=5.5000000000000009 16.500000000000004 8.5000000000000018 7.5000000000000009 3.5000000000000004 21.500000000000004 72.055000305175795 76.715000152587905 2.5000000000000004 28.404999732971195 4.5000000000000009 12.914999961853029 6.3650000095367441 1.5000000000000002 4.5000000000000009 1.0000000180025095e-35 1.0000000180025095e-35 9.5000000000000018 8.5000000000000018 2.5000000000000004 1.0000000180025095e-35 11.500000000000002 4.5000000000000009 8.5000000000000018 61.590000152587898 3.5000000000000004 2.5000000000000004 4.5000000000000009 1.0000000180025095e-35 0.28499999642372137 33.495000839233406 0.43500000238418585 44.725000381469734 29.404999732971195 18.880000114440922 9.5000000000000018 5.5000000000000009 38.424999237060554 48.655000686645515
decision_type=2 2 2 2 2 2 2 2 2 2 2 2 2 2 2 2 2 2 2 2 2 2 2 2 2 2 2 2 2 2 2 2 2 2 2 2 2 2 2
left_child=14 12 3 11 5 8 -7 -8 -5 10 -4 13 -2 -3 16 18 -1 -11 19 -16 -21 23 -23 24 27 26 -26 28 -14 -29 -31 -32 33 34 -24 -36 37 -33 -39
right_child=1 2 9 4 -6 6 7 -9 -10 17 -12 -13 21 -15 15 -17 -18 -19 -20 20 -22 22 32 -25 25 -27 -28 29 -30 30 31 36 -34 -35 35 -37 -38 38 -40
leaf_value=0.038378386318573217 0.065034431539345211 0.13791707053725774 0.00046228499819351508 0.005726748529856128 0.00028651664342827464 0.028942556359938216 0.31437065113674512 0.0574368821538013 0.11531817641946725 -0.032306778600140841 0.16568922974370623 0.00061105833879178352 -0.018352195951555777 -0.014559155888855459 -0.0070866565171040993 -0.0096007846818471562 0.17966981572764262 -0.0051912578138327264 -0.0073299614968709657 0.10621926885608944 0.0063365846653194993 -0.0078975285426317408 -0.047204515412449841 -0.018304623495260144 -0.020267305637781438 -0.0018394040592149949 0.40515335623461468 -0.0048527391700956381 0.034027627447014396 0.20860187865116378 0.16340360105037691 -0.048250739276409153 0.12490211088210344 0.0043468970192176567 0.059766827344894413 0.25186509199750923 -0.042487057770506063 0.2031430262327194 -0.027083858542821627
leaf_count=1494 57 34 113 216 271 56 33 23 67 524 37 4609 3334 20 57 331 21 1405 80 124 34 529 20 2367 26 3528 26 1140 163 22 25 22 40 142 25 24 87 20 22
internal_value=0 -0.0739253 0.0311329 0.110983 0.671382 1.12807 2.37787 4.17689 0.633448 -0.173542 0.824365 0.030943 -0.140908 1.62889 0.656972 0.294519 0.806738 -0.25114 0.840427 1.20769 1.69451 -0.148015 0.205908 -0.173619 -0.119479 0.0196515 3.84886 -0.222496 -0.318214 0.0276732 0.745804 0.317524 0.972764 0.683612 1.91155 3.07712 -0.170977 0.751719 1.65096
internal_count=21168 19027 7408 5329 666 395 112 56 283 2079 150 4663 11619 54 2141 626 1515 1929 295 215 158 11562 780 10782 8415 3580 52 4835 3497 1338 198 176 251 211 69 49 151 64 42
shrinkage=0.05


Tree=25
num_leaves=40
num_cat=0
split_feature=0 0 7 7 7 1 7 2 1 6 7 7 7 6 7 7 2 2 7 7 7 7 7 7 2 2 2 1 6 7 7 0 2 7 2 2 7 6 7
split_gain=927.826 120.84 110.588 291.638 135.191 199.198 107.435 106.615 123.765 467.595 166.103 295.241 118.984 139.997 177.952 176.597 123.412 183.058 208.307 296.252 109.853 103.302 96.4618 157.114 511.64 237.531 94.5566 196.421 107.574 126.191 207.27 163.121 101.399 108.851 698.27 849.352 104.979 164.397 459.468
threshold=5.5000000000000009 16.500000000000004 72.055000305175795 72.305000305175795 45.250000000000007 4.5000000000000009 6.3650000095367441 2.5000000000000004 1.0000000180025095e-35 0.17500000447034839 55.57500076293946 47.295000076293952 63.914999008178718 0.99500000476837169 44.23500061035157 38.23500061035157 8.5000000000000018 7.5000000000000009 68.454998016357436 75.365001678466811 70.524997711181655 24.280000686645511 10.285000324249269 27.57499980926514 11.500000000000002 1.5000000000000002 11.500000000000002 4.5000000000000009 0.46500000357627874 29.404999732971195 18.880000114440922 9.5000000000000018 8.5000000000000018 61.590000152587898 3.5000000000000004 2.5000000000000004 45.795000076293952 0.28499999642372137 30.964999198913578
decision_type=2 2 2 2 2 2 2 2 2 2 2 2 2 2 2 2 2 2 2 2 2 2 2 2 2 2 2 2 2 2 2 2 2 2 2 2 2 2 2
left_child=7 6 4 -4 5 -3 -2 21 9 10 11 -9 13 14 15 -10 17 -14 -19 20 -20 -1 -7 24 25 -24 32 -28 29 30 -29 -32 33 36 35 -35 37 -8 -39
right_child=1 2 3 -5 -6 22 26 8 12 -11 -12 -13 16 -15 -16 -17 -18 18 19 -21 -22 -23 23 -25 -26 -27 27 28 -30 -31 31 -33 -34 34 -36 -37 -38 38 -40
leaf_value=0.046507743879304675 0.06178271045679587 -0.0020152178050921068 0.15848322906805312 0.010324465699742583 -0.0088269663745666176 -0.069366843700408937 -0.0097848915344158419 0.040162890520360733 0.023268067622047337 0.30179009004496038 -0.0035823898559266872 0.21698727214243263 0.037895674729258366 0.13301138642377086 0.00095447084437245912 0.090667164531294947 -0.0075786216677550013 0.026620568335056306 0.13437752908627904 -0.010140550630167127 0.26489777741463566 -0.0083173496132357087 0.10933664861321449 0.020676628834890673 0.28934998341525592 -0.044783729016780856 -0.0075026515735725262 -0.044844290539622307 0.13858269990554878 0.009430914586288976 0.056778483629226689 0.23927184759328762 -0.017389391520130242 -0.019253941052235091 -0.0017474337740718913 0.38489568617481451 -0.020118417013477857 0.24570649076591838 0.011486661427950462
leaf_count=123 57 2048 34 1438 3081 25 2575 90 347 20 88 32 218 28 575 135 68 46 28 20 38 285 50 658 24 50 529 20 28 154 25 24 2367 26 3528 26 1804 22 434
internal_value=0 -0.070229 0.0295763 0.274932 -0.0312667 0.125506 -0.133863 0.624123 0.732399 1.41555 0.975524 1.73086 0.627858 0.453221 0.394757 0.842908 1.08116 1.32067 2.25006 3.16881 4.19051 0.164216 0.546297 0.608114 1.64065 0.645529 -0.140614 0.195612 0.924126 0.692149 1.81597 2.92326 -0.164938 -0.113505 0.0186689 3.65642 -0.211371 -0.0976928 0.455735
internal_count=21168 19027 7408 1472 5936 2855 11619 2141 1733 230 210 122 1503 1085 1057 482 418 350 132 86 66 408 807 782 124 100 11562 780 251 223 69 49 10782 8415 3580 52 4835 3031 456
shrinkage=0.05


Tree=26
num_leaves=40
num_cat=0
split_feature=0 0 1 0 5 1 3 7 7 2 2 2 0 2 7 2 5 1 1 0 3 7 2 7 0 2 7 1 2 2 7 7 1 2 7 4 7 7 2
split_gain=837.363 111.117 102.731 149.031 146.351 95.0928 87.4709 84.1191 75.264 104.988 74.9278 80.4616 82.5079 76.975 607.113 104.381 150.877 472.26 113.849 128.986 71.2759 209.418 192.236 100.095 69.3378 85.2503 122.47 119.275 116.594 359.082 291.479 199.64 158.776 146.426 143.079 88.7241 85.593 160.195 78.7748
threshold=5.5000000000000009 12.500000000000002 4.5000000000000009 1.0000000180025095e-35 1.0000000180025095e-35 5.5000000000000009 1.0000000180025095e-35 68.83499908447267 26.714999198913578 1.5000000000000002 8.5000000000000018 5.5000000000000009 10.500000000000002 3.5000000000000004 60.454999923706062 2.5000000000000004 1.0000000180025095e-35 2.5000000000000004 4.5000000000000009 10.500000000000002 1.0000000180025095e-35 73.875000000000014 7.5000000000000009 51.784999847412116 22.500000000000004 2.5000000000000004 25.845000267028812 5.5000000000000009 8.5000000000000018 6.5000000000000009 66.805000305175795 46.555000305175788 1.5000000000000002 11.500000000000002 30.059999465942386 1.0000000180025095e-35 34.174999237060554 40.014999389648445 5.5000000000000009
decision_type=2 2 2 2 2 2 2 2 2 2 2 2 2 2 2 2 2 2 2 2 2 2 2 2 2 2 2 2 2 2 2 2 2 2 2 2 2 2 2
left_child=2 8 4 5 20 7 24 -4 9 -2 11 13 -13 14 15 -10 18 -18 -17 -20 21 -1 -23 -22 -3 26 -26 28 29 31 -31 34 -32 -30 -27 36 -36 -38 -33
right_child=1 6 3 -5 -6 -7 -8 -9 10 -11 -12 12 -14 -15 -16 16 17 -19 19 -21 23 22 -24 -25 25 27 -28 -29 33 30 32 38 -34 -35 35 -37 37 -39 -40
leaf_value=0.033888008267281909 0.030612431409466973 6.5031464947930269e-06 -0.0070619927016926601 -0.010423935898030992 0.16776336552131743 0.066549866882796668 -0.0124252832835266 0.095339929188291234 -0.01914941063839809 -0.0076149899615362907 -0.018467527763108994 0.0072676817007408679 -0.015072826012813798 -0.020823021864834822 0.26946705078473315 -0.012544138558829824 0.27571373216807843 -0.059992132632231167 0.006277755647897721 0.10995448801252578 0.083180712021532516 0.03793603674225185 0.24022229151257002 -0.043652644416627785 0.048956384088982036 -0.055203775032645175 -0.039952292516283745 -0.025520091264064765 -0.021734145483557392 0.25259417701851239 0.17480054964189945 -0.056141609151529361 0.010667312145233155 0.065770023716065815 0.20194276476278905 -0.0010485327379270034 -0.011261005284121405 0.15258583496723857 0.025072487924868866
leaf_count=1366 287 9456 122 331 21 149 1318 24 838 480 1828 1463 576 1325 20 384 20 22 90 45 21 23 24 60 54 21 137 107 161 33 23 79 41 68 20 22 26 35 48
internal_value=0 -0.0667176 0.592917 0.252147 0.733723 0.768985 -0.00589997 0.195424 -0.162741 0.133783 -0.197144 -0.131329 0.0191336 -0.243134 -0.0812885 -0.159496 0.174348 1.99736 0.0268208 0.816733 0.696874 0.74917 2.82462 -0.215398 0.025051 0.294368 -0.296316 0.45931 0.639136 1.00379 2.63781 0.372312 1.39305 0.0849925 1.27488 1.7599 2.2436 1.65499 -0.50893
internal_count=21168 19027 2141 626 1515 295 11649 146 7378 767 6611 4783 2039 2744 1419 1399 561 42 519 135 1494 1413 47 81 10331 875 191 684 577 348 97 251 64 229 124 103 81 61 127
shrinkage=0.05


Tree=27
num_leaves=40
num_cat=0
split_feature=0 7 6 2 2 0 3 1 2 7 7 0 2 7 2 2 1 6 7 1 0 1 1 7 7 7 7 0 7 2 2 1 7 7 0 0 7 2 6
split_gain=755.72 104.07 227.804 147.366 296.983 235.031 216.868 226.262 208.144 253.442 514.608 293.251 169.919 557.753 846.345 225.604 375.72 265.388 279.973 365.715 227.394 281.163 168.169 227.986 907.571 163.909 139.907 110.343 129.308 151.436 206.215 181.572 516.568 748.648 191.405 239.043 176.192 148.219 139.315
threshold=5.5000000000000009 33.495000839233406 0.64499998092651378 8.5000000000000018 5.5000000000000009 20.500000000000004 1.0000000180025095e-35 5.5000000000000009 6.5000000000000009 62.385000228881843 66.805000305175795 22.500000000000004 3.5000000000000004 61.590000152587898 2.5000000000000004 2.5000000000000004 4.5000000000000009 0.17500000447034839 41.315000534057624 5.5000000000000009 20.500000000000004 3.5000000000000004 1.0000000180025095e-35 74.814998626708999 72.055000305175795 58.975000381469734 46.555000305175788 7.5000000000000009 32.835000991821296 1.5000000000000002 11.500000000000002 4.5000000000000009 17.925000190734867 26.295000076293949 18.500000000000004 12.500000000000002 12.914999961853029 1.5000000000000002 0.034999999217689044
decision_type=2 2 2 2 2 2 2 2 2 2 2 2 2 2 2 2 2 2 2 2 2 2 2 2 2 2 2 2 2 2 2 2 2 2 2 2 2 2 2
left_child=-1 2 27 4 12 -6 7 8 -7 -10 11 -11 13 15 -15 -3 20 18 -18 26 -17 -22 -12 24 -24 -5 -20 -2 29 36 -31 -32 -33 -34 35 -35 -29 -30 -38
right_child=1 3 -4 25 5 6 -8 -9 9 10 22 -13 -14 14 -16 16 17 -19 19 -21 21 -23 23 -25 -26 -27 -28 28 37 30 31 32 33 34 -36 -37 38 -39 -40
leaf_value=0.028163552163529833 -0.016680690407477047 -0.015598565158079451 0.13793394544627519 -0.0048587695381914148 0.0023401127459529119 0.018236011343255434 -0.00078903768529615763 -0.018286673670324185 -0.063558712291220829 0.14029397228016302 0.16186711842282897 0.38832871074026287 -0.016754528125308765 -0.032423737155539652 0.31783978356158032 -0.013855675029238533 0.0055005596396291538 0.19085098738116879 0.10143074416197265 0.25054636365384797 0.024806635279574583 0.21963510679250417 -0.017936469764182613 -0.012463626189109608 0.31262659267945725 -0.024559704377773526 -0.052003303154682129 0.09259771397452296 -0.040264212653825161 -0.016758093132868936 0.0014967609602791162 -0.11702553317431481 0.32909610624114677 -0.030159013313443769 -0.046018676862523367 0.17308018498886857 0.0099349208597416111 0.070213037822626861 0.11512452508464005
leaf_count=2141 540 1667 32 2709 4329 146 328 96 24 26 42 22 3371 35 34 768 168 35 39 32 117 22 56 78 33 1730 24 81 38 1044 335 31 30 23 37 39 682 151 33
internal_value=0 -0.0633817 0.104383 -0.0959847 -0.0362093 0.141245 0.621671 1.02145 1.33332 1.83658 2.1268 5.07953 -0.181839 -0.00618031 2.8034 -0.0736806 0.255971 1.23014 0.885878 2.25794 -0.0640972 1.11286 1.44866 0.998811 2.09264 -0.250735 0.859594 0.0766614 0.164438 0.100043 -0.083108 0.448496 1.32486 2.20568 0.879551 1.9537 0.454149 0.960014 0.295797
internal_count=21168 19027 3096 15931 11492 5180 851 523 427 281 257 48 6312 2941 69 2872 1205 298 263 95 907 139 209 167 89 4439 63 3064 2524 2335 1539 495 160 129 99 62 796 189 715
shrinkage=0.05


Tree=28
num_leaves=40
num_cat=0
split_feature=0 2 1 6 7 7 7 7 2 2 2 7 7 7 2 0 1 7 7 7 7 0 7 2 7 7 2 0 7 7 0 7 2 2 0 1 7 7 2
split_gain=682.037 95.6675 109.916 418.353 149.674 266.455 103.362 128.259 161.743 110.874 159.144 181.297 281.731 103.396 117.321 118.725 106.259 511.992 188.467 98.7552 96.9499 94.6659 82.1331 78.7972 77.967 86.8786 93.9788 78.5407 175.855 87.1084 75.2709 91.6226 122.845 188.657 186.736 287.121 172.391 423.52 203.119
threshold=5.5000000000000009 2.5000000000000004 1.0000000180025095e-35 0.17500000447034839 55.57500076293946 47.295000076293952 63.914999008178718 54.23500061035157 9.5000000000000018 8.5000000000000018 7.5000000000000009 68.454998016357436 75.365001678466811 26.295000076293949 8.5000000000000018 1.5000000000000002 5.5000000000000009 39.174999237060554 31.73499965667725 10.285000324249269 70.524997711181655 12.500000000000002 57.905000686645515 11.500000000000002 69.865001678466811 74.08499908447267 6.5000000000000009 1.5000000000000002 67.805000305175795 67.33499908447267 13.500000000000002 33.905000686645515 8.5000000000000018 6.5000000000000009 20.500000000000004 3.5000000000000004 64.165000915527358 66.325000762939467 7.5000000000000009
decision_type=2 2 2 2 2 2 2 2 2 2 2 2 2 2 2 2 2 2 2 2 2 2 2 2 2 2 2 2 2 2 2 2 2 2 2 2 2 2 2
left_child=1 19 3 4 5 -3 7 13 -9 10 24 -12 20 -4 16 23 18 -18 -15 -1 -13 -2 -10 -16 27 26 -26 28 -8 -29 -23 -32 33 -33 -35 36 -36 -38 -39
right_child=21 2 6 -5 -6 -7 9 8 22 -11 11 12 -14 14 15 -17 17 -19 -20 -21 -22 30 -24 -25 25 -27 -28 29 -30 -31 31 32 -34 34 35 -37 37 38 -40
leaf_value=0.10336915844430526 -0.0074421888298685018 0.035052167011631857 -0.017977904551422477 0.28258382081985473 -0.0064388182014226917 0.20303533294936643 0.036210752481950777 -0.021870203127295734 0.13487780712268971 -0.010339221752741759 0.022640313633272183 0.124838191483702 -0.018779966011643411 0.15915513024665418 -0.04964228337523581 0.04352870126479659 -0.027862719496091211 0.26676120871099934 0.031315023630627041 -0.0011771759418479633 0.24745354679854295 0.012552384430889622 0.0062993291927420578 0.033095376141542614 -0.12494729161262513 0.058071411744032686 0.0067391921366964066 0.089667981255937501 0.22305953074246646 -0.030625902861356736 0.0094028651188394936 -0.0053901985641445277 -0.012840465838790581 0.0031339067189844697 -0.041057842863356758 -0.0040472965092077607 0.28079733351866404 0.019586990622005293 0.1055437938703431
leaf_count=24 7378 90 97 20 88 32 34 281 27 68 46 28 20 32 87 145 30 29 291 384 38 1052 23 43 20 41 42 27 20 34 1638 4520 2511 1352 33 244 24 140 135
internal_value=0 0.535107 0.637674 1.28147 0.865258 1.58227 0.539156 0.376386 -0.142534 0.961657 1.18867 2.05524 2.91235 0.604187 0.746475 0.248428 1.10502 2.33905 0.879606 0.0994522 3.9087 -0.0602126 1.51463 -0.445504 0.663958 0.0320443 -0.714806 1.22993 2.10828 0.452379 -0.00407724 -0.0294043 -0.0691635 0.00391012 0.265812 0.742614 1.34788 1.58727 1.23568
internal_count=21168 2141 1733 230 210 122 1503 1085 331 418 350 132 86 754 657 275 382 59 323 408 66 19027 50 130 218 103 62 115 54 61 11649 10597 8959 6448 1928 576 332 299 275
shrinkage=0.05


Tree=29
num_leaves=40
num_cat=0
split_feature=0 7 1 2 1 2 2 2 7 2 0 3 1 7 7 6 7 7 2 1 7 7 1 7 1 6 0 7 2 7 1 7 0 7 7 7 7 0 1
split_gain=615.539 94.2046 106.227 101.806 393.489 213.939 201.13 210.931 493.026 764.453 192.467 194.872 195.388 188.955 760.888 201.55 179.103 281.074 536.606 174.114 165.552 221.596 330.983 151.23 148.385 127.505 123.807 384.091 117.041 114.651 107.533 245.989 124.691 105.353 105.083 142.415 184.134 403.951 98.6726
threshold=5.5000000000000009 6.3650000095367441 1.0000000180025095e-35 11.500000000000002 4.5000000000000009 8.5000000000000018 5.5000000000000009 3.5000000000000004 61.590000152587898 2.5000000000000004 20.500000000000004 1.0000000180025095e-35 5.5000000000000009 17.925000190734867 23.785000801086429 0.70499998331069957 64.165000915527358 66.805000305175795 6.5000000000000009 5.5000000000000009 72.055000305175795 73.875000000000014 1.0000000180025095e-35 12.914999961853029 3.5000000000000004 0.014999999664723875 10.500000000000002 28.404999732971195 2.5000000000000004 49.909999847412116 4.5000000000000009 33.07500076293946 11.500000000000002 48.354999542236335 46.32500076293946 41.315000534057624 43.48500061035157 20.500000000000004 1.0000000180025095e-35
decision_type=2 2 2 2 2 2 2 2 2 2 2 2 2 2 2 2 2 2 2 2 2 2 2 2 2 2 2 2 2 2 2 2 2 2 2 2 2 2 2
left_child=-1 2 -2 5 -5 6 7 8 19 -10 -8 12 16 -6 -15 26 -12 18 -18 25 -19 -22 -23 -21 -24 -3 -16 -28 -27 -25 31 32 -30 -29 35 38 37 -37 -9
right_child=1 3 -4 4 13 -7 10 34 9 -11 11 -13 -14 14 15 -17 17 20 -20 23 21 22 24 29 -26 28 27 33 30 -31 -32 -33 -34 -35 -36 36 -38 -39 -40
leaf_value=0.025417605454636335 0.13422662099966637 -0.0092503946990931275 0.011578002517873592 -0.0082332918507454136 -0.072401397007292714 -0.014413211088020204 0.0023489783456376173 0.037504743370744921 -0.030691945467676437 0.30219470711753654 0.0032412644047290088 -0.0018531135056258704 -0.017145494922685127 0.34547096602618699 -0.021686103166658671 0.18932390680367298 -0.0035919533421595894 0.0082172396981600431 0.30336983127253397 0.15082856511527842 0.19677864917226739 0.20640613570295532 -0.025064737956438751 0.012084038652263266 0.10943895717119348 -0.0019176811608226216 0.25480892926099757 0.02190771817031624 0.22413552034468878 0.093006262837096731 0.12037709748701138 0.0068985779584993514 0.051832591214527692 0.14174494981765748 -0.020100035222773462 0.018306668077905972 -0.0016503804791418296 0.22281387884056933 -0.030700399058301062
leaf_count=2141 26 3469 55 899 29 3907 4329 63 35 34 100 328 96 22 79 22 24 103 35 22 37 29 70 637 29 538 21 221 21 47 34 242 21 20 2677 90 248 33 335
internal_value=0 -0.057202 1.01893 -0.0618028 0.20683 -0.0818059 -0.0230391 -0.117282 0.0118578 2.66678 0.132444 0.567197 0.946159 1.01353 1.19895 0.85286 1.23597 1.59412 3.57008 -0.0245544 1.15912 1.7801 1.15703 0.435894 0.286707 -0.0997166 0.663595 0.994465 0.245932 0.35289 0.726894 0.525689 2.75968 0.637054 -0.308407 0.0174078 0.463136 1.46349 -0.398082
internal_count=21168 19027 81 18946 1313 17633 13726 8546 5100 69 5180 851 523 414 385 363 427 327 59 5031 268 165 128 706 99 4325 341 262 856 684 318 284 42 241 3446 769 371 123 398
shrinkage=0.05


Tree=30
num_leaves=40
num_cat=0
split_feature=0 1 0 5 2 2 3 7 2 2 7 1 0 1 7 0 7 0 2 2 0 3 1 2 7 2 2 7 7 2 6 7 1 7 4 7 1 5 1
split_gain=555.524 93.6154 135.632 127.86 86.4185 113.603 97.2617 85.4939 183.982 186.932 171.434 641.508 660.028 163.012 192.873 170.256 175.114 175.066 104.637 200.781 173.702 175.872 176.337 162.675 448.651 689.919 164.335 161.641 253.669 484.287 164.154 160.875 149.344 389.081 555.83 173.112 267.772 137.952 311.542
threshold=5.5000000000000009 4.5000000000000009 1.0000000180025095e-35 1.0000000180025095e-35 8.5000000000000018 2.5000000000000004 1.0000000180025095e-35 26.714999198913578 1.5000000000000002 11.500000000000002 17.925000190734867 4.5000000000000009 9.5000000000000018 1.5000000000000002 6.3650000095367441 21.500000000000004 23.785000801086429 8.5000000000000018 8.5000000000000018 5.5000000000000009 20.500000000000004 1.0000000180025095e-35 5.5000000000000009 3.5000000000000004 61.590000152587898 2.5000000000000004 2.5000000000000004 64.165000915527358 66.805000305175795 6.5000000000000009 0.16499999910593036 58.975000381469734 4.5000000000000009 38.23500061035157 1.0000000180025095e-35 41.315000534057624 5.5000000000000009 1.0000000180025095e-35 2.5000000000000004
decision_type=2 2 2 2 2 2 2 2 2 2 2 2 2 2 2 2 2 2 2 2 2 2 2 2 2 2 2 2 2 2 2 2 2 2 2 2 2 2 2
left_child=1 3 4 -1 5 -3 -7 8 13 -10 -11 -12 -13 14 -2 16 -15 -18 19 23 -21 22 27 24 26 -26 -9 -22 29 -29 -30 -20 37 -34 35 -35 -37 -28 -39
right_child=7 2 -4 -5 -6 6 -8 18 9 10 11 12 -14 15 -16 -17 17 -19 31 20 21 -23 -24 -25 25 -27 32 28 30 -31 -32 -33 33 34 -36 36 -38 38 -40
leaf_value=0.029145322264894632 0.12365440560711756 -0.011469121172762754 -0.01408983209371578 0.15338461441653117 -0.011830067685805261 0.091414268815048771 -0.0040452386526500473 -0.0099620674963356286 -0.021367477597543337 -0.026195583129689722 0.0051572285586043258 0.0340236479585821 0.42591388873046354 0.01201188004255962 -0.018674475410536153 0.14003718665335327 -0.029734906554222108 0.13091439889756509 -0.0032037078875837145 0.0022315292499230587 0.0030792004382237791 -0.001760457188072728 -0.016288220044225456 -0.014530407400330819 -0.029157348275184632 0.28708497650976134 -0.003018457742467224 -0.0034123559792836513 0.066760378577784316 0.28820134018148696 -0.075795403851026844 -0.022145578901719497 -0.0047909154645006721 -0.0076217790400343287 0.34252341831102973 0.043068758288367849 0.22353713788813159 0.16275646487250925 -0.039990268476928277
leaf_count=1494 27 57 331 21 80 124 34 2450 594 96 143 22 21 201 201 48 22 74 3184 4329 100 328 96 3429 35 34 1060 24 246 35 22 1730 232 56 20 61 31 40 36
internal_value=0 0.482935 0.157634 0.617349 0.650691 0.980846 1.41745 -0.0543419 0.179129 -0.109061 0.561377 1.12153 4.50824 0.619713 -0.0363948 1.05331 0.770901 1.88198 -0.0735875 -0.0255268 0.125822 0.538837 0.898851 -0.130282 0.00529402 2.53344 -0.0384697 1.17417 1.51442 3.39158 1.10116 -0.197446 0.217969 0.74345 1.90244 1.23379 2.07758 0.0329409 1.33437
internal_count=21168 2141 626 1515 295 215 158 19027 1449 876 282 186 43 573 228 345 297 96 17578 12664 5180 851 523 7484 4055 69 3986 427 327 59 268 4914 1536 400 168 148 92 1136 76
shrinkage=0.05


Tree=31
num_leaves=40
num_cat=0
split_feature=0 1 0 5 1 0 0 7 7 6 1 7 7 1 7 2 2 7 7 0 2 7 7 2 0 2 1 1 1 2 6 7 6 7 7 7 7 0 0
split_gain=501.36 84.4879 122.408 115.394 82.5735 80.3797 113.552 99.0783 295.704 97.3288 243.51 117.562 113.766 79.2905 85.8267 181.998 151.286 102.742 185.966 105.645 83.1239 78.9108 75.8851 153.629 179.846 172.995 193.364 176.304 75.5633 172.704 111.454 247.075 147.894 217.747 100.428 110.931 118.343 243.507 95.5247
threshold=5.5000000000000009 4.5000000000000009 1.0000000180025095e-35 1.0000000180025095e-35 5.5000000000000009 16.500000000000004 18.500000000000004 72.055000305175795 72.305000305175795 0.94499999284744274 3.5000000000000004 59.23500061035157 44.23500061035157 4.5000000000000009 27.195000648498539 11.500000000000002 1.5000000000000002 31.994999885559086 33.495000839233406 20.500000000000004 2.5000000000000004 6.3650000095367441 38.954999923706062 4.5000000000000009 20.500000000000004 2.5000000000000004 2.5000000000000004 1.5000000000000002 4.5000000000000009 11.500000000000002 0.28499999642372137 33.495000839233406 0.57499998807907116 44.725000381469734 44.725000381469734 31.164999961853031 18.880000114440922 11.500000000000002 6.5000000000000009
decision_type=2 2 2 2 2 2 2 2 2 2 2 2 2 2 2 2 2 2 2 2 2 2 2 2 2 2 2 2 2 2 2 2 2 2 2 2 2 2 2
left_child=1 3 4 -1 -3 21 -7 9 -9 12 -11 -12 13 22 15 16 -15 19 20 -16 -19 -2 -8 24 -24 -26 27 -27 38 30 -30 -32 33 -33 35 36 -31 -38 -23
right_child=5 2 -4 -5 -6 6 7 8 -10 10 11 -13 -14 14 17 -17 -18 18 -20 -21 -22 28 23 -25 25 26 -28 -29 29 34 31 32 -34 -35 -36 -37 37 -39 -40
