tree
version=v2
num_class=1
num_tree_per_iteration=1
label_index=0
max_feature_idx=8
objective=regression
feature_names=Column_0 Column_1 Column_2 Column_3 Column_4 Column_5 Column_6 Column_7 Column_8
feature_infos=[0:23] [0:6] [1:12] [0:2] none [0:1] [0:1] [0:1] [-9.6000003814697266:96.099998474121094]
tree_sizes=698 709 717 715 706 720 711 729 715 714 721 726 713 709 735 705 723 733 716 715

Tree=0
num_leaves=8
num_cat=0
split_feature=0 8 2 0 8 8 7
split_gain=8417.75 2380.37 1244.47 638.576 452.025 420.175 1581.84
threshold=5.5000000000000009 44.094999313354499 2.5000000000000004 18.500000000000004 14.930000305175783 32.454999923706062 0.50499999523162853
decision_type=2 2 2 2 2 2 2
left_child=2 3 4 5 -1 6 -2
right_child=1 -3 -4 -5 -6 -7 -8
leaf_value=3.1369104021229197 2.1279967112852831 2.017899180002094 2.3012944682375083 2.1854519695245358 2.5435005779118303 2.0591301965148503 3.2029103982784202
leaf_count=20 1379 9612 1229 1492 244 2184 20
internal_value=0 -0.210874 2.28137 0.34317 4.25124 0.114269 0.542136
internal_count=16180 14687 1493 5075 264 3583 1399
shrinkage=1


Tree=1
num_leaves=8
num_cat=0
split_feature=0 8 2 1 2 1 0
split_gain=6518.7 1846.13 963.72 628.377 627.26 517.69 475.753
threshold=5.5000000000000009 38.094999313354499 2.5000000000000004 4.5000000000000009 11.500000000000002 2.5000000000000004 22.500000000000004
decision_type=2 2 2 2 2 2 2
left_child=2 -2 3 5 6 -1 -3
right_child=1 4 -4 -5 -6 -7 -8
leaf_value=0.3770753746562534 0.053808279690503322 -0.056375913464874111 0.19622871227047131 0.12499460280858551 0.12812111457719882 0.76559261578779958 0.059978761232100927
leaf_count=108 3499 10366 1229 65 290 91 532
internal_value=0 -0.185569 2.00761 3.74109 -0.38384 4.62283 -0.422466
internal_count=16180 14687 1493 264 11188 199 10898
shrinkage=0.12


Tree=2
num_leaves=8
num_cat=0
split_feature=8 2 8 2 1 6 7
split_gain=2134.14 576.993 1003.44 594.168 411.883 360.481 378.173
threshold=43.359998703002937 2.5000000000000004 10.63000011444092 11.500000000000002 4.5000000000000009 1.0000000180025095e-35 0.98500001430511486
decision_type=2 2 2 2 2 2 2
left_child=1 2 4 5 -1 6 -3
right_child=-2 3 -4 -5 -6 -7 -8
leaf_value=0.6964075644863279 -0.029483259001252343 -0.024447423383868835 0.092138265570585812 0.10998370353655475 0.15844679228961467 0.19801304875314232 0.28118124764971431
leaf_count=57 10684 2057 2244 926 32 120 60
internal_value=0 0.521156 0.898428 0.242884 4.19153 -0.0359705 -0.131544
internal_count=16180 5496 2333 3163 89 2237 2117
shrinkage=0.12


Tree=3
num_leaves=8
num_cat=0
split_feature=0 2 2 2 8 1 0
split_gain=5032.92 1203.69 913.656 655.567 549.275 479.25 420.909
threshold=5.5000000000000009 2.5000000000000004 11.500000000000002 2.5000000000000004 13.035000324249269 4.5000000000000009 17.500000000000004
decision_type=2 2 2 2 2 2 2
left_child=3 4 -3 5 -2 -1 -6
right_child=1 2 -4 -5 6 -7 -8
leaf_value=0.4754454666076593 0.31702957235683094 -0.045365090981611518 0.076005930682043837 0.17462028183521924 0.0081902248495255014 0.10014313869292919 0.11355352111261315
leaf_count=199 110 11137 971 1229 1654 65 815
internal_value=0 -0.164807 -0.296931 1.76229 0.455493 3.19201 0.358083
internal_count=16180 14687 12108 1493 2579 264 2469
shrinkage=0.12


Tree=4
num_leaves=8
num_cat=0
split_feature=8 2 8 2 7 8 8
split_gain=1362.8 403.692 584.894 319.357 624.286 841.363 648.204
threshold=37.284999847412116 11.500000000000002 55.905000686645515 2.5000000000000004 0.6850000023841859 33.614999771118171 10.63000011444092
decision_type=2 2 2 2 2 2 2
left_child=3 -2 -3 4 6 -6 -1
right_child=1 2 -4 -5 5 -7 -8
leaf_value=0.4037504351674841 -0.021269172749873704 0.071541792944165086 0.74009201359748833 0.031155467240804792 1.1170108957886695 0.16765074168763508 0.071251401174677542
leaf_count=89 12124 326 20 1916 20 41 1644
internal_value=0 -0.146848 0.918219 0.543528 0.846734 3.99097 0.73606
internal_count=16180 12470 346 3710 1794 61 1733
shrinkage=0.12


Tree=5
num_leaves=8
num_cat=0
split_feature=0 0 1 2 2 2 1
split_gain=2501.42 819.933 683.542 514.588 539.779 484.382 855.626
threshold=5.5000000000000009 21.500000000000004 4.5000000000000009 2.5000000000000004 11.500000000000002 2.5000000000000004 2.5000000000000004
decision_type=2 2 2 2 2 2 2
left_child=2 3 5 -2 -5 6 -1
right_child=1 -3 -4 4 -6 -7 -8
leaf_value=0.14670958725181785 0.024357678955652766 0.064805108648814752 -0.0088537913787214064 -0.046017321201317615 0.053578290047365071 0.15527528693887696 0.65784210708810054
leaf_count=111 2289 1554 316 10032 850 946 82
internal_value=0 -0.14694 1.22749 -0.227994 -0.318649 1.58852 3.03229
internal_count=16180 14725 1455 13171 10882 1139 193
shrinkage=0.12


Tree=6
num_leaves=8
num_cat=0
split_feature=0 0 8 2 7 8 8
split_gain=1937.1 669.457 499.529 367.751 375.376 475.469 377.825
threshold=5.5000000000000009 19.500000000000004 38.094999313354499 2.5000000000000004 0.6850000023841859 37.104999542236335 41.774999618530281
decision_type=2 2 2 2 2 2 2
left_child=-1 3 -3 4 -2 -6 -7
right_child=1 2 -4 -5 5 6 -8
leaf_value=0.12962336134726241 0.0045388524246158871 0.11084174512649461 0.0040975298547461531 -0.038777785355474444 0.63659332716465 -0.1514921488660447 0.33498819251855216
leaf_count=1455 1884 868 2315 9536 30 47 45
internal_value=0 -0.129307 0.276721 -0.241279 0.147904 1.84782 0.720502
internal_count=16180 14725 3183 11542 2006 122 92
shrinkage=0.12


Tree=7
num_leaves=8
num_cat=0
split_feature=0 0 1 3 0 1 2
split_gain=1500.09 532.465 529.335 380.357 410.401 545.166 375.106
threshold=5.5000000000000009 21.500000000000004 4.5000000000000009 1.0000000180025095e-35 11.500000000000002 4.5000000000000009 2.5000000000000004
decision_type=2 2 2 2 2 2 2
left_child=2 3 6 4 5 -2 -1
right_child=1 -3 -4 -5 -6 -7 -8
leaf_value=0.3046549341839212 -0.066653854824157491 0.052778081097082742 -0.023346136403800562 -0.10022706196791883 0.0015909139996225731 0.024710377070732304 0.12108745328026645
leaf_count=193 3649 1554 316 828 7427 1267 946
internal_value=0 -0.11379 0.950571 -0.179108 -0.135094 -0.359221 1.26827
internal_count=16180 14725 1455 13171 12343 4916 1139
shrinkage=0.12


Tree=8
num_leaves=8
num_cat=0
split_feature=0 2 1 2 0 1 7
split_gain=1161.67 496.832 409.917 405.028 354.324 308.942 306.806
threshold=5.5000000000000009 2.5000000000000004 4.5000000000000009 11.500000000000002 21.500000000000004 5.5000000000000009 0.2650000005960465
decision_type=2 2 2 2 2 2 2
left_child=2 4 6 -3 -2 -6 -1
right_child=1 3 -4 -5 5 -7 -8
leaf_value=0.1141870042733524 0.020273071665849005 -0.028551168050372482 -0.020544596962347814 0.052861534885711069 0.1147805118560791 0.4911593719323476 0.33040311447559639
leaf_count=1035 2289 11199 316 955 246 36 104
internal_value=0 -0.100135 0.836503 -0.184618 0.299244 1.35691 1.11608
internal_count=16180 14725 1455 12154 2571 282 1139
shrinkage=0.12


Tree=9
num_leaves=8
num_cat=0
split_feature=0 2 8 0 8 8 2
split_gain=961.801 499.406 462.542 305.26 251.553 294.661 210.373
threshold=1.0000000180025095e-35 6.5000000000000009 44.094999313354499 19.500000000000004 36.284999847412116 32.764999389648445 2.5000000000000004
decision_type=2 2 2 2 2 2 2
left_child=1 6 3 -2 5 -3 -1
right_child=2 4 -4 -5 -6 -7 -8
leaf_value=0.34459275099978998 0.0050633766551871689 0.031752229666008672 -0.023352339057950929 0.074059581690140666 -0.025600231945943488 0.59537098581140691 0.1608837409060577
leaf_count=130 4195 34 10047 1184 278 22 290
internal_value=0 1.0888 -0.0679013 0.168754 0.176169 2.10978 1.81455
internal_count=16180 754 15426 5379 334 56 420
shrinkage=0.12


Tree=10
num_leaves=8
num_cat=0
split_feature=0 1 6 2 0 1 2
split_gain=1787.05 455.693 423.3 396.289 374.575 349.591 461.176
threshold=1.0000000180025095e-35 1.0000000180025095e-35 1.0000000180025095e-35 11.500000000000002 7.5000000000000009 5.5000000000000009 6.5000000000000009
decision_type=2 2 2 2 2 2 2
left_child=1 -1 3 -2 -4 6 -3
right_child=2 5 4 -5 -6 -7 -8
leaf_value=-0.06986152126737262 -0.016656094322515837 0.35073910474198539 0.56936969669965598 0.062551499110313102 0.091992939266968859 0.013170101602490131 0.13128052055117595
leaf_count=92 14164 309 26 972 264 104 249
internal_value=0 1.5032 -0.0734837 -0.096413 1.12327 1.79301 2.10674
internal_count=16180 754 15426 15136 290 662 558
shrinkage=0.12


Tree=11
num_leaves=8
num_cat=0
split_feature=0 8 2 1 6 2 8
split_gain=1383.89 535.354 787.088 352.888 336.047 358.847 408.611
threshold=1.0000000180025095e-35 6.4649999141693124 1.5000000000000002 1.0000000180025095e-35 1.0000000180025095e-35 11.500000000000002 51.164999008178718
decision_type=2 2 2 2 2 2 2
left_child=3 2 -2 -1 5 -3 -7
right_child=1 4 -4 -5 -6 6 -8
leaf_value=-0.061478143745790359 0.61328850799418511 -0.016613931765987629 -0.18168343746456606 0.18934213610979364 0.11861717043868426 0.041754769148543022 0.40835157930850979
leaf_count=92 47 14106 29 662 290 908 46
internal_value=0 -0.0646657 2.58287 1.32282 -0.077774 -0.098306 0.495261
internal_count=16180 15426 76 754 15350 15060 954
shrinkage=0.12


Tree=12
num_leaves=8
num_cat=0
split_feature=8 1 8 2 8 2 8
split_gain=415.198 259.395 362.581 509.629 265.962 235.536 528.551
threshold=39.284999847412116 5.5000000000000009 6.4649999141693124 1.5000000000000002 21.394999504089359 11.500000000000002 51.164999008178718
decision_type=2 2 2 2 2 2 2
left_child=1 2 3 -1 -3 -2 -7
right_child=5 4 -4 -5 -6 6 -8
leaf_value=0.52709087880452465 -0.014152457492001641 -0.084345198597373633 0.015558024511445345 -0.18882913657597131 0.14413853762277329 0.018669428070777743 0.46145445544272662
leaf_count=45 11578 87 3730 21 468 203 48
internal_value=0 0.264123 0.170761 2.49415 0.902685 -0.0971605 0.861212
internal_count=16180 4351 3796 66 555 11829 251
shrinkage=0.12


Tree=13
num_leaves=8
num_cat=0
split_feature=8 7 8 2 8 1 8
split_gain=327.88 272.277 732.965 223.934 398.253 1173.13 212.342
threshold=37.104999542236335 0.42499999701976782 33.219999313354499 11.500000000000002 51.164999008178718 3.5000000000000004 6.4649999141693124
decision_type=2 2 2 2 2 2 2
left_child=1 6 -3 -2 -5 -6 -1
right_child=3 2 -4 4 5 -7 -8
leaf_value=0.21660799920558929 -0.011917743284490386 0.54995518724873382 0.038124384329255134 0.034549159144313592 -0.26659618147781916 0.92927246166600119 0.018764560728335013
leaf_count=80 12200 53 168 309 21 27 3322
internal_value=0 0.265013 1.34059 -0.0764706 0.704191 3.384 0.195141
internal_count=16180 3623 221 12557 357 48 3402
shrinkage=0.12


Tree=14
num_leaves=8
num_cat=0
split_feature=0 8 7 0 3 0 1
split_gain=1076.12 383.829 520.248 307.606 208.762 283.872 412.285
threshold=5.5000000000000009 35.795000076293952 1.0000000180025095e-35 21.500000000000004 1.0000000180025095e-35 11.500000000000002 4.5000000000000009
decision_type=2 2 2 2 2 2 2
left_child=1 2 -1 4 5 6 -2
right_child=3 -3 -4 -5 -6 -7 -8
leaf_value=0.16133600475935883 -0.054789077396396262 0.061331968033932288 0.68972784679511501 0.040593121017237159 -0.073601033707483443 0.0031885789769854375 0.023548893096273105
leaf_count=359 3637 1060 29 1565 839 7373 1318
internal_value=0 0.822592 1.67358 -0.080858 -0.130675 -0.0978268 -0.28293
internal_count=16180 1448 388 14732 13167 12328 4955
shrinkage=0.12


Tree=15
num_leaves=8
num_cat=0
split_feature=8 2 1 1 8 2 2
split_gain=431.623 429.076 295.9 491.027 292.731 205.506 197.02
threshold=19.115000724792484 11.500000000000002 4.5000000000000009 2.5000000000000004 6.4649999141693124 2.5000000000000004 3.5000000000000004
decision_type=2 2 2 2 2 2 2
left_child=1 2 3 4 -1 -5 -2
right_child=6 -3 -4 5 -6 -7 -8
leaf_value=0.4355768850814043 0.021684522575457041 -0.11846353938414173 0.012389982051119722 0.34268607211463586 0.035682907984911937 0.72421317353330805 -0.0093140961660072037
leaf_count=33 3941 91 116 68 131 29 11771
internal_value=0 0.961723 1.43215 2.02278 0.967911 3.80626 -0.0128233
internal_count=16180 468 377 261 164 97 15712
shrinkage=0.12


Tree=16
num_leaves=8
num_cat=0
split_feature=0 8 0 1 8 1 0
split_gain=529.797 416.101 374.622 326.147 307.629 280.369 461.606
threshold=5.5000000000000009 16.770000457763675 12.500000000000002 4.5000000000000009 43.359998703002937 5.5000000000000009 20.500000000000004
decision_type=2 2 2 2 2 2 2
left_child=1 -1 -2 -3 5 -4 -7
right_child=2 3 4 -5 -6 6 -8
leaf_value=0.43821227541496582 -0.029304769425689676 0.089350832871385691 0.027794506641689698 -0.050659809459428315 -0.005010183505223342 0.055245655616982414 0.34705754131898964
leaf_count=43 5701 1117 2449 305 6181 275 109
internal_value=0 0.587012 -0.0435745 0.494337 0.0833173 0.356191 1.15065
internal_count=16180 1465 14715 1422 9014 2833 384
shrinkage=0.12


Tree=17
num_leaves=8
num_cat=0
split_feature=0 8 0 1 3 5 1
split_gain=410.274 322.228 290.108 274.624 265.991 185.576 182.433
threshold=5.5000000000000009 16.770000457763675 12.500000000000002 5.5000000000000009 1.0000000180025095e-35 1.0000000180025095e-35 4.5000000000000009
decision_type=2 2 2 2 2 2 2
left_child=1 -1 6 5 -4 -3 -2
right_child=2 3 4 -5 -6 -7 -8
leaf_value=0.38562680973563079 -0.03867326327649584 0.049633565308038127 0.01630736683082696 -0.13456444077832358 -0.047789861390536474 0.18331414743830168 0.0099742573307617412
leaf_count=43 4191 1145 7958 105 1056 172 1510
internal_value=0 0.516571 -0.0383456 0.435016 0.0733192 0.559102 -0.214902
internal_count=16180 1465 14715 1422 9014 1317 5701
shrinkage=0.12


Tree=18
num_leaves=8
num_cat=0
split_feature=0 1 8 0 1 8 8
split_gain=317.717 261.693 336.385 239.819 235.891 591.287 305.493
threshold=5.5000000000000009 4.5000000000000009 16.770000457763675 19.500000000000004 5.5000000000000009 36.284999847412116 31.904999732971195
decision_type=2 2 2 2 2 2 2
left_child=1 2 -1 -2 -5 6 -6
right_child=3 -3 -4 4 5 -7 -8
leaf_value=0.4777918491065502 -0.012142829377959826 -0.041772296184076449 0.070604664469296197 0.011986725525584344 0.21046768015749018 0.028202407413837081 0.64365085251443077
leaf_count=30 11504 318 1117 2771 71 334 35
internal_value=0 0.454582 0.677123 -0.0337441 0.207894 0.888079 2.94583
internal_count=16180 1465 1147 14715 3211 440 106
shrinkage=0.12


Tree=19
num_leaves=8
num_cat=0
split_feature=0 8 1 2 2 0 1
split_gain=260.278 254.684 329.63 301.761 564.193 275.127 241.264
threshold=1.0000000180025095e-35 19.935000419616703 4.5000000000000009 11.500000000000002 3.5000000000000004 20.500000000000004 5.5000000000000009
decision_type=2 2 2 2 2 2 2
left_child=6 2 3 4 -2 -4 -1
right_child=1 -3 5 -5 -6 -7 -8
leaf_value=0.096603347976859086 0.15299393196938171 -0.0051058829653626379 -0.13905158423242114 -0.080306316529927035 0.81396091586351393 0.29674250991940493 -0.10096758473122004
leaf_count=655 265 14917 126 69 20 25 103
internal_value=0 -0.0189042 0.67953 1.20719 1.66148 -0.557502 0.581305
internal_count=16180 15422 505 354 285 151 758
shrinkage=0.12


end of trees

feature importances:
Column_8=37
Column_0=32
Column_2=31
Column_1=26
Column_7=7
Column_3=3
Column_6=3
Column_5=1

parameters:
[boosting: gbdt]
[objective: regression]
[metric: rmse]
[tree_learner: serial]
[device_type: cpu]
[data: ]
[valid: ]
[num_iterations: 100]
[learning_rate: 0.12]
[num_leaves: 8]
[num_threads: 0]
[max_depth: -1]
[min_data_in_leaf: 20]
[min_sum_hessian_in_leaf: 0.001]
[bagging_fraction: 0.8]
[bagging_freq: 5]
[bagging_seed: 3]
[feature_fraction: 0.9]
[feature_fraction_seed: 2]
[early_stopping_round: 0]
[max_delta_step: 0]
[lambda_l1: 0]
[lambda_l2: 0]
[min_gain_to_split: 0]
[drop_rate: 0.1]
[max_drop: 50]
[skip_drop: 0.5]
[xgboost_dart_mode: 0]
[uniform_drop: 0]
[drop_seed: 4]
[top_rate: 0.2]
[other_rate: 0.1]
[min_data_per_group: 100]
[max_cat_threshold: 32]
[cat_l2: 10]
[cat_smooth: 10]
[max_cat_to_onehot: 4]
[top_k: 20]
[monotone_constraints: ]
[feature_contri: ]
[forcedsplits_filename: ]
[refit_decay_rate: 0.9]
[verbosity: 0]
[max_bin: 255]
[min_data_in_bin: 3]
[bin_construct_sample_cnt: 200000]
[histogram_pool_size: -1]
[data_random_seed: 1]
[output_model: LightGBM_model.txt]
[snapshot_freq: -1]
[input_model: ]
[output_result: LightGBM_predict_result.txt]
[initscore_filename: ]
[valid_data_initscores: ]
[pre_partition: 0]
[enable_bundle: 1]
[max_conflict_rate: 0]
[is_enable_sparse: 1]
[sparse_threshold: 0.8]
[use_missing: 1]
[zero_as_missing: 0]
[two_round: 0]
[save_binary: 0]
[enable_load_from_binary_file: 1]
[header: 0]
[label_column: ]
[weight_column: ]
[group_column: ]
[ignore_column: ]
[categorical_feature: ]
[predict_raw_score: 0]
[predict_leaf_index: 0]
[predict_contrib: 0]
[num_iteration_predict: -1]
[pred_early_stop: 0]
[pred_early_stop_freq: 10]
[pred_early_stop_margin: 10]
[convert_model_language: ]
[convert_model: gbdt_prediction.cpp]
[num_class: 1]
[is_unbalance: 0]
[scale_pos_weight: 1]
[sigmoid: 1]
[boost_from_average: 1]
[reg_sqrt: 0]
[alpha: 0.9]
[fair_c: 1]
[poisson_max_delta_step: 0.7]
[tweedie_variance_power: 1.5]
[max_position: 20]
[label_gain: ]
[metric_freq: 1]
[is_provide_training_metric: 0]
[eval_at: ]
[num_machines: 1]
[local_listen_port: 12400]
[time_out: 120]
[machine_list_filename: ]
[machines: ]
[gpu_platform_id: -1]
[gpu_device_id: -1]
[gpu_use_dp: 0]

end of parameters

pandas_categorical:null
