tree
version=v2
num_class=1
num_tree_per_iteration=1
label_index=0
max_feature_idx=8
objective=regression
feature_names=Column_0 Column_1 Column_2 Column_3 Column_4 Column_5 Column_6 Column_7 Column_8
feature_infos=[0:23] [0:6] [1:12] [0:2] none [0:1] [0:1] [0:1] [-10.140000343322754:95.459999084472656]
tree_sizes=704 713 703 713 707 713 710 714 733 707 725 719 718 722 719 723 711 712 719 713

Tree=0
num_leaves=8
num_cat=0
split_feature=0 0 8 8 7 0 2
split_gain=15713.9 8050.39 4070.31 1721.69 1819.68 1405.34 1109.89
threshold=2.5000000000000004 1.0000000180025095e-35 39.745000839233406 58.045000076293952 0.20499999821186068 6.5000000000000009 11.500000000000002
decision_type=2 2 2 2 2 2 2
left_child=1 -1 -2 4 -3 -4 -7
right_child=2 3 5 -5 -6 6 -8
leaf_value=2.9216950557814467 2.8619827172936416 3.5348501706935491 2.9300060232343283 3.2149336255810814 4.3105942070437031 2.7093363860686166 2.9874604420662525
leaf_count=822 4371 391 458 228 49 9944 211
internal_value=0 3.08574 -0.319406 5.66421 6.81987 -0.653887 -0.731166
internal_count=16474 1490 14984 668 440 10613 10155
shrinkage=1


Tree=1
num_leaves=8
num_cat=0
split_feature=0 0 8 1 8 7 0
split_gain=12190.3 6359.77 3161.65 1878.76 1421.67 1463.28 1088.29
threshold=1.5000000000000002 1.0000000180025095e-35 39.745000839233406 5.5000000000000009 58.045000076293952 0.20499999821186068 6.5000000000000009
decision_type=2 2 2 2 2 2 2
left_child=1 -1 3 -2 5 -3 -4
right_child=2 4 6 -5 -6 -7 -8
leaf_value=0.1045790753834439 0.020967759389858419 0.65487801685656954 0.11189272756334476 0.2503514446801498 0.36262902230808608 1.3577286985516548 -0.077211162241470163
leaf_count=822 3785 383 458 595 228 48 10155
internal_value=0 2.72695 -0.280414 0.434403 5.04133 6.10961 -0.57542
internal_count=16474 1481 14993 4380 659 431 10613
shrinkage=0.12


Tree=2
num_leaves=8
num_cat=0
split_feature=8 1 2 2 1 8 8
split_gain=3493.63 1288.68 989.163 842.079 1008.24 1156.74 744.014
threshold=42.82500076293946 5.5000000000000009 10.500000000000002 11.500000000000002 3.5000000000000004 48.305000305175788 31.704999923706058
decision_type=2 2 2 2 2 2 2
left_child=1 -1 6 -2 -5 -6 -3
right_child=3 2 -4 4 5 -7 -8
leaf_value=0.051593997569601154 -0.045476024303065993 0.31236732167183257 0.44098678508630168 -0.11137757071426936 0.11770521689545024 1.0349098436534403 0.032899800925641445
leaf_count=4961 10574 218 208 63 44 36 370
internal_value=0 0.619466 1.80061 -0.346369 2.06404 4.42039 1.1376
internal_count=16474 5757 796 10717 143 80 588
shrinkage=0.12


Tree=3
num_leaves=8
num_cat=0
split_feature=0 0 8 1 1 8 7
split_gain=9388.83 4923.61 1890.21 1758.31 1140.87 1390.11 1228.98
threshold=1.5000000000000002 1.0000000180025095e-35 49.585000991821296 4.5000000000000009 4.5000000000000009 68.985000610351577 0.21499999612569812
decision_type=2 2 2 2 2 2 2
left_child=1 -1 3 -2 5 6 -3
right_child=2 4 -4 -5 -6 -7 -8
leaf_value=0.091397393197365048 -0.020416843818741849 0.64590024280888692 -0.067787144924353657 0.11629985202392851 0.29753214642839526 0.10014960289001465 1.3257022418809492
leaf_count=822 4834 350 8277 1882 206 60 43
internal_value=0 2.39421 -0.245055 0.149123 4.43059 5.31787 6.00234
internal_count=16474 1481 14993 6716 659 453 393
shrinkage=0.12


Tree=4
num_leaves=8
num_cat=0
split_feature=8 1 2 2 1 8 8
split_gain=2245.82 857.689 766.906 624.641 775.919 945.572 587.494
threshold=42.82500076293946 5.5000000000000009 10.500000000000002 11.500000000000002 3.5000000000000004 47.315000534057624 34.835000991821296
decision_type=2 2 2 2 2 2 2
left_child=1 -1 6 -2 -5 -6 -3
right_child=3 2 -4 4 5 -7 -8
leaf_value=0.041076018473141331 -0.036664924256648732 0.21163145439965383 0.37330068507733249 -0.0991637529077984 0.019129316920565593 0.84657286937846687 -0.029983534564382779
leaf_count=4961 10574 329 208 63 37 43 259
internal_value=0 0.496911 1.46051 -0.277466 1.79855 3.86567 0.876715
internal_count=16474 5757 796 10717 143 80 588
shrinkage=0.12


Tree=5
num_leaves=8
num_cat=0
split_feature=0 8 0 0 8 1 2
split_gain=6596.52 1289.03 1079.82 3017.1 1200.09 766.49 704.251
threshold=6.5000000000000009 39.745000839233406 1.0000000180025095e-35 1.5000000000000002 18.595000267028812 4.5000000000000009 11.500000000000002
decision_type=2 2 2 2 2 2 2
left_child=2 -2 -1 4 -4 -6 -3
right_child=1 6 3 -5 5 -7 -8
leaf_value=0.079220579683562331 0.025308194801274355 -0.059521913867711086 1.1833877925872802 0.091816869910026702 0.49586265722563216 0.20842137877320505 0.16048643775980606
leaf_count=819 4021 9993 30 774 429 194 214
internal_value=0 -0.268657 1.57542 2.10072 3.68377 3.38629 -0.457577
internal_count=16474 14228 2246 1427 653 623 10207
shrinkage=0.12


Tree=6
num_leaves=8
num_cat=0
split_feature=0 8 0 0 8 2 7
split_gain=5108.34 1039.52 836.214 2336.44 944.216 791.23 731.884
threshold=6.5000000000000009 49.585000991821296 1.0000000180025095e-35 1.5000000000000002 17.724999427795414 11.500000000000002 0.20499999821186068
decision_type=2 2 2 2 2 2 2
left_child=2 -2 -1 4 -4 -3 -6
right_child=1 5 3 -5 6 -7 -8
leaf_value=0.069714107666260156 0.00804712118715664 -0.060216328789369729 1.1122261106729507 0.080798846247006742 0.31433256025100625 0.42846945170313117 0.72597125557683673
leaf_count=819 6294 7886 25 774 558 48 70
internal_value=0 -0.236418 1.38637 1.84863 3.24172 -0.477165 3.0018
internal_count=16474 14228 2246 1427 653 7934 628
shrinkage=0.12


Tree=7
num_leaves=8
num_cat=0
split_feature=0 8 7 0 0 1 7
split_gain=3955.9 850.213 1845.07 647.564 1809.34 815.471 1148.81
threshold=6.5000000000000009 32.284999847412116 0.59499999880790722 1.0000000180025095e-35 1.5000000000000002 4.5000000000000009 0.16499999910593036
decision_type=2 2 2 2 2 2 2
left_child=3 2 -2 -1 5 6 -5
right_child=1 -3 -4 4 -6 -7 -8
leaf_value=0.061348418645806362 0.034818656485060731 -0.037097070582707718 1.1929891422986985 0.36428086896774486 0.071102983704371042 0.14123127222061158 0.97420541002750405
leaf_count=819 2058 12150 20 402 774 201 50
internal_value=0 -0.208048 0.383047 1.22001 1.62679 2.85271 3.59792
internal_count=16474 14228 2078 2246 1427 653 452
shrinkage=0.12


Tree=8
num_leaves=8
num_cat=0
split_feature=0 0 1 2 0 2 3
split_gain=3063.45 747.039 719.502 1145.9 600.952 582.577 561.087
threshold=6.5000000000000009 21.500000000000004 4.5000000000000009 11.500000000000002 11.500000000000002 3.5000000000000004 1.0000000180025095e-35
decision_type=2 2 2 2 2 2 2
left_child=-1 2 5 4 -4 -2 -3
right_child=1 6 3 -5 -6 -7 -8
leaf_value=0.12883291246873707 0.00042198414759089548 0.08755696320393741 0.069929633577307554 0.26700067053166415 -0.040418727624630696 -0.068033655360900253 -0.091575647915563274
leaf_count=2246 2448 1341 1057 241 2169 6662 310
internal_value=0 -0.183082 -0.266103 0.12161 -0.0355254 -0.413655 0.449351
internal_count=16474 14228 12577 3467 3226 9110 1651
shrinkage=0.12


Tree=9
num_leaves=8
num_cat=0
split_feature=0 0 8 7 8 7 8
split_gain=2507.37 1542.53 764.483 721.851 678.198 1541.76 563.938
threshold=1.5000000000000002 1.0000000180025095e-35 42.354999542236335 0.16499999910593036 32.284999847412116 0.62500000000000011 17.724999427795414
decision_type=2 2 2 2 2 2 2
left_child=1 -1 3 6 5 -2 -3
right_child=4 2 -4 -5 -6 -7 -8
leaf_value=0.03852665413048241 0.03531199866386929 0.92600918691158296 0.18152288175349873 1.1215534799439566 -0.026650768742281044 1.0936030556559562 0.32310112507002692
leaf_count=819 2240 25 397 21 12742 20 210
internal_value=0 1.23512 2.38156 3.72897 -0.132545 0.372312 3.227
internal_count=16474 1472 653 256 15002 2260 235
shrinkage=0.12


Tree=10
num_leaves=8
num_cat=0
split_feature=0 0 1 1 2 2 1
split_gain=2231.68 1479.77 932.051 760.016 558.025 777.723 1345.97
threshold=2.5000000000000004 1.0000000180025095e-35 1.0000000180025095e-35 4.5000000000000009 3.5000000000000004 11.500000000000002 4.5000000000000009
decision_type=2 2 2 2 2 2 2
left_child=1 2 -1 -3 -2 -6 -7
right_child=4 3 -4 -5 5 6 -8
leaf_value=0.35102076704605767 0.02432225852505715 0.36399868880630876 -0.017055822001366346 0.087034563022000452 -0.03829834148774857 -0.013713051034702788 0.29026737359577209
leaf_count=115 4029 445 715 210 9912 758 290
internal_value=0 1.16964 0.282856 2.29334 -0.115549 -0.232535 0.586697
internal_count=16474 1485 830 655 14989 10960 1048
shrinkage=0.12


Tree=11
num_leaves=8
num_cat=0
split_feature=0 0 8 8 1 8 1
split_gain=1728.21 1145.94 1207.85 759.784 721.78 536.377 596.583
threshold=2.5000000000000004 1.0000000180025095e-35 18.595000267028812 70.454998016357436 1.0000000180025095e-35 32.284999847412116 4.5000000000000009
decision_type=2 2 2 2 2 2 2
left_child=1 4 -3 -4 -1 6 -2
right_child=5 2 3 -5 -6 -7 -8
leaf_value=0.3088982758625694 0.0027749697750402706 0.99928061756594422 0.24772323834703308 -0.22316590335634021 -0.015009122858957186 -0.021697148401528903 0.14002279153172401
leaf_count=115 1593 29 572 54 715 12757 639
internal_value=0 1.02928 2.01814 1.72586 0.248913 -0.101683 0.350564
internal_count=16474 1485 655 626 830 14989 2232
shrinkage=0.12


Tree=12
num_leaves=8
num_cat=0
split_feature=8 7 2 1 8 3 8
split_gain=752.814 524.689 454.401 941.396 407.158 301.889 392.994
threshold=44.495000839233406 0.99500000476837169 11.500000000000002 3.5000000000000004 48.065000534057624 1.0000000180025095e-35 87.99499893188478
decision_type=2 2 2 2 2 2 2
left_child=1 -1 5 -4 -5 -2 -7
right_child=2 -3 3 4 -6 6 -8
leaf_value=0.027947727223068115 -0.015035239397381831 0.27159602829584706 -0.14001632808042425 0.14288516823688277 0.78257840564376435 -0.088324132001561903 0.43539863654545369
leaf_count=6068 8960 130 56 23 38 1178 21
internal_value=0 0.275484 -0.165787 1.79369 4.51152 -0.188354 -0.659594
internal_count=16474 6198 10276 117 61 10159 1199
shrinkage=0.12


Tree=13
num_leaves=8
num_cat=0
split_feature=7 2 8 7 3 8 2
split_gain=596.157 838.63 603.361 1129.11 317.66 307.033 268.815
threshold=0.99500000476837169 11.500000000000002 32.284999847412116 0.56499999761581432 1.0000000180025095e-35 87.99499893188478 9.5000000000000018
decision_type=2 2 2 2 2 2 2
left_child=2 6 3 -1 -4 -6 -2
right_child=1 -3 4 -5 5 -7 -8
leaf_value=0.041611774850229759 0.032922087679306662 0.74445062860365829 -0.0078031335483249352 0.79471579115966273 -0.079660212149838955 0.38315080046653749 0.26582402599841048
leaf_count=2499 270 31 12318 29 1209 21 97
internal_value=0 1.20921 -0.0297273 0.418759 -0.113413 -0.597988 0.787327
internal_count=16474 398 16076 2528 13548 1230 367
shrinkage=0.12


Tree=14
num_leaves=8
num_cat=0
split_feature=0 7 0 8 8 0 1
split_gain=1326.5 962.807 871.409 944.57 526.394 424.536 480.219
threshold=2.5000000000000004 0.99500000476837169 1.0000000180025095e-35 18.595000267028812 70.454998016357436 21.500000000000004 4.5000000000000009
decision_type=2 2 2 2 2 2 2
left_child=1 2 -1 -4 -5 6 -2
right_child=5 -3 3 4 -6 -7 -8
leaf_value=0.011607362968895269 -0.031771846681305858 0.76994699408931111 0.86790350931471794 0.20163007353903145 -0.19074246926440133 0.046666175636112986 0.019323403748649135
leaf_count=813 9691 31 29 558 54 1653 3645
internal_value=0 0.901705 0.784133 1.65599 1.39174 -0.0891365 -0.148387
internal_count=16474 1485 1454 641 612 14989 13336
shrinkage=0.12


Tree=15
num_leaves=8
num_cat=0
split_feature=8 3 2 1 8 2 7
split_gain=339.326 316.945 267.586 414.117 309.121 242.183 224.099
threshold=49.585000991821296 1.0000000180025095e-35 10.500000000000002 3.5000000000000004 54.514999389648445 7.5000000000000009 0.99500000476837169
decision_type=2 2 2 2 2 2 2
left_child=1 6 5 -4 -5 -2 -1
right_child=2 -3 3 4 -6 -7 -8
leaf_value=0.019605186112394552 -0.0025916549744304761 -0.18407312350140675 -0.020822145853484613 0.49150102815207308 0.10645721086900527 -0.043767863634871271 0.15198059513455345
leaf_count=7187 5344 108 178 51 73 3344 189
internal_value=0 0.166741 -0.121503 0.803852 2.20685 -0.153669 0.191643
internal_count=16474 7484 8990 302 124 8688 7376
shrinkage=0.12


Tree=16
num_leaves=8
num_cat=0
split_feature=0 0 8 0 1 1 2
split_gain=1359.92 622.936 706.835 677.933 485.944 693.767 713.614
threshold=7.5000000000000009 1.0000000180025095e-35 21.634999275207523 1.5000000000000002 4.5000000000000009 3.5000000000000004 9.5000000000000018
decision_type=2 2 2 2 2 2 2
left_child=1 -1 -3 4 5 -4 -7
right_child=-2 2 3 -5 -6 6 -8
leaf_value=-0.017536580921391012 -0.015602028760942055 0.32382910581132801 0.17791835761244873 0.040410735124068495 0.034068834421726368 0.35841811699037618 1.1114348286390305
leaf_count=814 13374 194 320 1479 195 74 24
internal_value=0 0.605081 0.872576 0.703243 1.58748 2.1956 4.52359
internal_count=16474 3100 2286 2092 613 418 98
shrinkage=0.12


Tree=17
num_leaves=8
num_cat=0
split_feature=0 0 8 0 8 8 8
split_gain=1053.13 482.402 547.373 524.991 444.756 1176.36 461.221
threshold=7.5000000000000009 1.0000000180025095e-35 21.634999275207523 1.5000000000000002 58.045000076293952 56.23500061035157 62.585000991821296
decision_type=2 2 2 2 2 2 2
left_child=1 -1 -3 4 5 -4 -6
right_child=-2 2 3 -5 6 -7 -8
leaf_value=-0.015432189995007065 -0.013729785858979804 0.28496961375640839 0.18760190541285016 0.035561446449124304 -0.2404755770601332 1.0083026144239637 0.14243923008441925
leaf_count=814 13374 194 367 1479 64 27 155
internal_value=0 0.532471 0.767867 0.618854 1.39698 2.03202 0.254477
internal_count=16474 3100 2286 2092 613 394 219
shrinkage=0.12


Tree=18
num_leaves=8
num_cat=0
split_feature=0 0 2 1 8 0 8
split_gain=815.54 379.777 378.001 437.386 941.539 373.572 423.885
threshold=7.5000000000000009 21.500000000000004 9.5000000000000018 5.5000000000000009 40.655000686645515 1.0000000180025095e-35 21.634999275207523
decision_type=2 2 2 2 2 2 2
left_child=5 -2 -3 -4 -5 -1 -7
right_child=1 2 3 4 -6 6 -8
leaf_value=-0.013580328932201319 -0.019636813797435676 0.011995088599784218 0.098505337345491203 0.94065635734370778 -0.12228627511433193 0.25077325782364179 0.065350974762570069
leaf_count=814 11736 1288 301 28 21 194 2092
internal_value=0 -0.100685 0.350377 1.27192 4.04258 0.468575 0.675723
internal_count=16474 13374 1638 350 49 3100 2286
shrinkage=0.12


Tree=19
num_leaves=8
num_cat=0
split_feature=0 0 1 2 0 8 8
split_gain=656.105 474.789 344.765 407.001 350.277 526.016 540.41
threshold=6.5000000000000009 1.0000000180025095e-35 5.5000000000000009 10.500000000000002 2.5000000000000004 32.965000152587898 35.93499946594239
decision_type=2 2 2 2 2 2 2
left_child=1 -1 4 -4 5 -3 -7
right_child=-2 2 3 -5 -6 6 -8
leaf_value=-0.011950689856676929 -0.0088082395946812754 0.42288030597956283 -0.13854900977037249 0.44095077878236766 0.066660235562877687 -0.30395915266629808 0.17456276702366286
leaf_count=814 14239 115 137 20 695 37 417
internal_value=0 0.509382 0.858222 -0.539395 1.03182 1.61361 1.1297
internal_count=16474 2235 1421 157 1264 569 454
shrinkage=0.12


end of trees

feature importances:
Column_0=41
Column_8=41
Column_1=22
Column_2=19
Column_7=13
Column_3=4

parameters:
[boosting: gbdt]
[objective: regression]
[metric: rmse]
[tree_learner: serial]
[device_type: cpu]
[data: ]
[valid: ]
[num_iterations: 100]
[learning_rate: 0.12]
[num_leaves: 8]
[num_threads: 0]
[max_depth: -1]
[min_data_in_leaf: 20]
[min_sum_hessian_in_leaf: 0.001]
[bagging_fraction: 0.8]
[bagging_freq: 5]
[bagging_seed: 3]
[feature_fraction: 0.9]
[feature_fraction_seed: 2]
[early_stopping_round: 0]
[max_delta_step: 0]
[lambda_l1: 0]
[lambda_l2: 0]
[min_gain_to_split: 0]
[drop_rate: 0.1]
[max_drop: 50]
[skip_drop: 0.5]
[xgboost_dart_mode: 0]
[uniform_drop: 0]
[drop_seed: 4]
[top_rate: 0.2]
[other_rate: 0.1]
[min_data_per_group: 100]
[max_cat_threshold: 32]
[cat_l2: 10]
[cat_smooth: 10]
[max_cat_to_onehot: 4]
[top_k: 20]
[monotone_constraints: ]
[feature_contri: ]
[forcedsplits_filename: ]
[refit_decay_rate: 0.9]
[verbosity: 0]
[max_bin: 255]
[min_data_in_bin: 3]
[bin_construct_sample_cnt: 200000]
[histogram_pool_size: -1]
[data_random_seed: 1]
[output_model: LightGBM_model.txt]
[snapshot_freq: -1]
[input_model: ]
[output_result: LightGBM_predict_result.txt]
[initscore_filename: ]
[valid_data_initscores: ]
[pre_partition: 0]
[enable_bundle: 1]
[max_conflict_rate: 0]
[is_enable_sparse: 1]
[sparse_threshold: 0.8]
[use_missing: 1]
[zero_as_missing: 0]
[two_round: 0]
[save_binary: 0]
[enable_load_from_binary_file: 1]
[header: 0]
[label_column: ]
[weight_column: ]
[group_column: ]
[ignore_column: ]
[categorical_feature: ]
[predict_raw_score: 0]
[predict_leaf_index: 0]
[predict_contrib: 0]
[num_iteration_predict: -1]
[pred_early_stop: 0]
[pred_early_stop_freq: 10]
[pred_early_stop_margin: 10]
[convert_model_language: ]
[convert_model: gbdt_prediction.cpp]
[num_class: 1]
[is_unbalance: 0]
[scale_pos_weight: 1]
[sigmoid: 1]
[boost_from_average: 1]
[reg_sqrt: 0]
[alpha: 0.9]
[fair_c: 1]
[poisson_max_delta_step: 0.7]
[tweedie_variance_power: 1.5]
[max_position: 20]
[label_gain: ]
[metric_freq: 1]
[is_provide_training_metric: 0]
[eval_at: ]
[num_machines: 1]
[local_listen_port: 12400]
[time_out: 120]
[machine_list_filename: ]
[machines: ]
[gpu_platform_id: -1]
[gpu_device_id: -1]
[gpu_use_dp: 0]

end of parameters

pandas_categorical:null
