tree
version=v2
num_class=1
num_tree_per_iteration=1
label_index=0
max_feature_idx=8
objective=regression
feature_names=Column_0 Column_1 Column_2 Column_3 Column_4 Column_5 Column_6 Column_7 Column_8
feature_infos=[0:23] [0:6] [1:12] [0:2] none [0:1] [0:1] [0:1] [-3.8499999046325684:95.769996643066406]
tree_sizes=691 698 704 708 707 707 710 709 717 705 718 710 713 720 714 702 713 718 702

Tree=0
num_leaves=8
num_cat=0
split_feature=2 8 8 2 0 0 8
split_gain=6795.11 2465.27 2216.26 1153.56 925.669 721.273 461.241
threshold=3.5000000000000004 61.655000686645515 65.034999847412124 2.5000000000000004 10.500000000000002 12.500000000000002 41.145000457763679
decision_type=2 2 2 2 2 2 2
left_child=1 3 -3 4 -1 -6 -5
right_child=-2 2 -4 6 5 -7 -8
leaf_value=1.0033675346468465 0.88439037104722762 2.8981797055028387 1.1709622453648443 0.91899750704078464 1.3412354107987352 1.1255475028780748 1.080580754826032
leaf_count=793 12167 20 23 873 269 1313 359
internal_value=0 1.19663 8.72369 1.1069 1.51421 1.95621 0.321711
internal_count=15817 3650 43 3607 2375 1582 1232
shrinkage=1


Tree=1
num_leaves=8
num_cat=0
split_feature=2 8 8 2 0 0 1
split_gain=5262.13 1909.11 1716.27 893.32 716.838 558.554 513
threshold=3.5000000000000004 61.655000686645515 65.034999847412124 2.5000000000000004 10.500000000000002 12.500000000000002 4.5000000000000009
decision_type=2 2 2 2 2 2 2
left_child=1 3 -3 4 -1 6 -6
right_child=-2 2 -4 -5 5 -7 -8
leaf_value=0.066783786527835967 -0.037916109029363168 1.7342184856384992 0.21426715073378189 0.033972727589357599 0.46905174016952517 0.17430215253234363 0.10242837100834042
leaf_count=793 12167 20 23 1232 192 1313 77
internal_value=0 1.05304 7.67684 0.974073 1.3325 1.72147 3.03423
internal_count=15817 3650 43 3607 2375 1582 269
shrinkage=0.12


Tree=2
num_leaves=8
num_cat=0
split_feature=2 8 8 2 7 8 7
split_gain=4075 1478.41 1329.08 691.787 380.251 357.185 321.595
threshold=3.5000000000000004 61.655000686645515 65.034999847412124 2.5000000000000004 0.58499997854232799 41.145000457763679 0.7749999761581422
decision_type=2 2 2 2 2 2 2
left_child=1 3 -3 4 -1 -5 -7
right_child=-2 2 -4 5 -6 6 -8
leaf_value=0.15527255005014354 -0.033366179493583295 1.5261122406721115 0.18855508990909742 -0.011538556173597414 -0.017630918535590172 0.10306774101426115 0.59825357294082637
leaf_count=2175 12167 20 23 873 200 339 20
internal_value=0 0.926672 6.75562 0.857184 1.1726 0.249133 1.08879
internal_count=15817 3650 43 3607 2375 1232 359
shrinkage=0.12


Tree=3
num_leaves=8
num_cat=0
split_feature=2 8 8 0 2 7 0
split_gain=3155.68 1144.88 1029.24 585.98 523.067 435.185 533.961
threshold=3.5000000000000004 61.655000686645515 65.034999847412124 10.500000000000002 2.5000000000000004 0.58499997854232799 12.500000000000002
decision_type=2 2 2 2 2 2 2
left_child=1 3 -3 -1 5 6 -5
right_child=-2 2 -4 4 -6 -7 -8
leaf_value=0.022696298113779018 -0.02936223590286793 1.3429787263870239 0.16592847658240276 0.34653789920232642 0.046524030542270507 -0.027898181441583132 0.15224343723139247
leaf_count=1216 12167 20 23 246 809 152 1184
internal_value=0 0.815472 5.94495 0.754322 1.04176 1.37623 1.54723
internal_count=15817 3650 43 3607 2391 1582 1430
shrinkage=0.12


Tree=4
num_leaves=8
num_cat=0
split_feature=2 2 8 2 1 8 7
split_gain=2544.45 555.676 464.986 480.234 1491.97 757.739 423.921
threshold=4.5000000000000009 1.5000000000000002 53.48500061035157 3.5000000000000004 3.5000000000000004 61.655000686645515 0.37500000000000006
decision_type=2 2 2 2 2 2 2
left_child=1 6 -3 4 5 -4 -1
right_child=-2 2 3 -5 -6 -7 -8
leaf_value=0.1637864309720074 -0.032029979453788861 0.029530740849925304 0.40794268214311752 0.076926753178120907 -0.090649503937789366 1.1530147766244823 -0.055959314414313142
leaf_count=1152 10963 3021 61 379 70 29 142
internal_value=0 0.602733 0.398745 1.25436 2.70711 5.40018 1.16393
internal_count=15817 4854 3560 539 160 90 1294
shrinkage=0.12


Tree=5
num_leaves=8
num_cat=0
split_feature=2 8 8 1 0 0 1
split_gain=1815.67 614.529 418.855 373.679 330.212 549.435 372.181
threshold=3.5000000000000004 61.655000686645515 65.034999847412124 5.5000000000000009 10.500000000000002 3.5000000000000004 2.5000000000000004
decision_type=2 2 2 2 2 2 2
left_child=1 3 -3 4 5 6 -1
right_child=-2 2 -4 -5 -6 -7 -8
leaf_value=0.044900424420015843 -0.024659131083176786 0.90402705601283484 0.17018260478973388 -0.02786657046756804 0.11060767810839538 -0.010062275713147217 0.4032443695046446
leaf_count=82 12178 21 24 518 2026 883 85
internal_value=0 0.599519 4.27203 0.553536 0.685858 0.230735 1.89409
internal_count=15817 3639 45 3594 3076 1050 167
shrinkage=0.12


Tree=6
num_leaves=8
num_cat=0
split_feature=2 8 8 2 8 7 0
split_gain=1406.06 475.891 324.361 283.144 647.128 470.407 339.725
threshold=3.5000000000000004 61.655000686645515 65.034999847412124 1.5000000000000002 42.93499946594239 0.57499998807907116 1.5000000000000002
decision_type=2 2 2 2 2 2 2
left_child=1 3 -3 6 -5 -6 -1
right_child=-2 2 -4 4 5 -7 -8
leaf_value=0.35921821958582167 -0.021700037432570509 0.79554375920976905 0.14976069450378418 -0.00047130542783030513 0.11779101898375245 0.54109100439199587 0.089022032009850205
leaf_count=71 12178 21 24 1805 485 41 1192
internal_value=0 0.527576 3.75938 0.487111 0.280504 1.25655 0.868427
internal_count=15817 3639 45 3594 2331 526 1263
shrinkage=0.12


Tree=7
num_leaves=8
num_cat=0
split_feature=2 8 1 0 0 0 8
split_gain=1088.85 368.53 287.497 258.24 375.593 338.02 567.359
threshold=3.5000000000000004 61.655000686645515 5.5000000000000009 10.500000000000002 3.5000000000000004 13.500000000000002 48.694999694824226
decision_type=2 2 2 2 2 2 2
left_child=1 2 3 4 -1 6 -5
right_child=-2 -3 -4 5 -6 -7 -8
leaf_value=0.18210087202266304 -0.019096033477415141 0.3969909858703613 -0.031266987505135159 0.12569674250017218 -0.014142961501906439 0.062042560095019017 0.50048460917686355
leaf_count=167 12178 45 518 441 883 1518 67
internal_value=0 0.464267 0.428658 0.544722 0.142243 0.753313 1.4594
internal_count=15817 3639 3594 3076 1050 2026 508
shrinkage=0.12


Tree=8
num_leaves=8
num_cat=0
split_feature=2 0 0 2 1 0 7
split_gain=876.407 240.82 303.634 221.433 292.813 214.369 201.016
threshold=4.5000000000000009 9.5000000000000018 3.5000000000000004 1.5000000000000002 2.5000000000000004 13.500000000000002 0.11499999836087228
decision_type=2 2 2 2 2 2 2
left_child=1 2 3 4 -1 6 -3
right_child=-2 5 -4 -5 -6 -7 -8
leaf_value=0.0091586302639916541 -0.020493574367069046 0.13113757731848291 -0.027260013890024078 0.047456435129449172 0.50001862423760546 0.03838633399701824 0.00012837662663258296
leaf_count=30 10949 810 1156 185 42 2432 213
internal_value=0 0.339199 -0.00859633 0.974545 2.46245 0.481438 0.8655
internal_count=15817 4868 1413 257 72 3455 1023
shrinkage=0.12


Tree=9
num_leaves=8
num_cat=0
split_feature=2 2 0 0 8 8 8
split_gain=678.69 224.455 290.958 453.03 612.824 362.218 336.135
threshold=4.5000000000000009 1.5000000000000002 21.500000000000004 19.500000000000004 28.005000114440922 22.979999542236332 43.454999923706062
decision_type=2 2 2 2 2 2 2
left_child=1 2 3 6 5 -5 -1
right_child=-2 -3 -4 4 -6 -7 -8
leaf_value=0.096203357395166014 -0.018034346201548521 0.020567718159807808 -0.10006130079091606 0.36496457277582239 0.11875280973212472 1.0442361668050288 -0.11544973474450228
leaf_count=889 10949 3605 118 26 87 20 123
internal_value=0 0.298496 0.661273 0.815355 2.55046 5.5025 0.587323
internal_count=15817 4868 1263 1145 133 46 1012
shrinkage=0.12


Tree=10
num_leaves=8
num_cat=0
split_feature=2 0 0 0 7 1 2
split_gain=663.354 218.034 277.412 266.718 273.725 325.524 388.963
threshold=4.5000000000000009 10.500000000000002 3.5000000000000004 13.500000000000002 0.11499999836087228 4.5000000000000009 3.5000000000000004
decision_type=2 2 2 2 2 2 2
left_child=1 2 -1 4 5 6 -3
right_child=-2 3 -4 -5 -6 -7 -8
leaf_value=0.12026871865251805 -0.014809544053042318 0.2755180339160852 -0.017905645459304963 0.036983515541276588 -0.016429996620430501 0.011455977855317564 0.021464626219565585
leaf_count=246 10917 328 1400 2470 172 166 118
internal_value=0 0.319466 0.0228747 0.469493 0.977662 1.29091 1.73585
internal_count=15817 4900 1646 3254 784 612 446
shrinkage=0.12


Tree=11
num_leaves=8
num_cat=0
split_feature=2 0 1 8 8 0 2
split_gain=513.701 181.023 521.925 635.529 532.801 384.946 314.149
threshold=4.5000000000000009 19.500000000000004 4.5000000000000009 28.425000190734867 27.015000343322757 21.500000000000004 2.5000000000000004
decision_type=2 2 2 2 2 2 2
left_child=1 -1 3 4 -3 6 -5
right_child=-2 2 -4 5 -6 -7 -8
leaf_value=0.021902362962137423 -0.013032398333946536 0.24330125762522217 -0.064397836587909194 0.3065033080150153 0.82724676264656904 -0.027609964893101812 0.059859196424137714
leaf_count=3879 10917 135 270 131 27 286 172
internal_value=0 0.28113 0.655772 1.08447 2.83855 0.602027 1.38745
internal_count=15817 4900 1021 751 162 589 303
shrinkage=0.12


Tree=12
num_leaves=8
num_cat=0
split_feature=2 8 1 8 8 8 1
split_gain=406.814 572.411 192.913 207.499 219.502 256.997 743.606
threshold=2.5000000000000004 63.07500076293946 5.5000000000000009 56.645000457763679 44.715000152587898 39.32500076293946 1.5000000000000002
decision_type=2 2 2 2 2 2 2
left_child=1 2 3 4 5 -1 -7
right_child=-2 -3 -4 -5 -6 6 -8
leaf_value=0.056108464737720201 -0.0069100704010080548 -0.54930716265802793 -0.030984317208531984 0.31266938901506364 -0.049306575091707605 -0.13181817496950562 0.32154939148257572
leaf_count=1528 13391 23 344 48 233 74 176
internal_value=0 0.387465 0.434987 0.5508 0.501755 0.621353 1.56127
internal_count=15817 2426 2403 2059 2011 1778 250
shrinkage=0.12


Tree=13
num_leaves=8
num_cat=0
split_feature=2 7 8 7 2 1 8
split_gain=338.835 167.585 180.922 245.196 201.362 268.272 583.701
threshold=4.5000000000000009 0.99500000476837169 51.875000000000007 0.10500000044703485 1.5000000000000002 2.5000000000000004 21.300000190734867
decision_type=2 2 2 2 2 2 2
left_child=1 2 4 -4 5 -1 -7
right_child=-2 -3 3 -5 -6 6 -8
leaf_value=0.00050466518459122106 -0.010639303164942051 -0.10708378031964484 0.062402328065223986 0.28856966878359136 0.0041142482286771649 -0.12393351392118168 0.16634568320291024
leaf_count=554 10917 130 600 78 2869 122 547
internal_value=0 0.227863 0.258393 0.736846 0.179119 0.51888 0.945082
internal_count=15817 4900 4770 678 4092 1223 669
shrinkage=0.12


Tree=14
num_leaves=8
num_cat=0
split_feature=2 0 0 8 8 0 1
split_gain=262.394 146.471 219.244 447.613 578.072 334.348 295.534
threshold=4.5000000000000009 10.500000000000002 13.500000000000002 48.694999694824226 52.895000457763679 11.500000000000002 1.0000000180025095e-35
decision_type=2 2 2 2 2 2 2
left_child=1 -1 3 -3 5 -5 -6
right_child=-2 2 -4 4 6 -7 -8
leaf_value=-0.0051087230552589909 -0.0093625863884529859 0.039974865650687252 0.021269477215640157 0.1928257594122128 0.53541030389922006 0.78356310302341303 0.049172572053614118
leaf_count=1646 10917 578 2470 22 21 37 126
internal_value=0 0.20052 0.323485 0.784214 2.04989 4.69407 0.988626
internal_count=15817 4900 3254 784 206 59 147
shrinkage=0.12


Tree=15
num_leaves=8
num_cat=0
split_feature=2 8 2 2 1 2 8
split_gain=250.575 240.904 230.991 264.532 688.452 1085.79 818.792
threshold=4.5000000000000009 53.48500061035157 1.5000000000000002 3.5000000000000004 3.5000000000000004 2.5000000000000004 59.424999237060554
decision_type=2 2 2 2 2 2 2
left_child=1 -1 -3 4 5 6 -4
right_child=-2 2 3 -5 -6 -7 -8
leaf_value=0.014529556588251294 -0.008402554346621717 -0.19720904539028802 0.61582511927400307 0.063776135624552421 -0.039392168486296238 1.0421660052191828 -0.30188172749110631
leaf_count=4285 10955 36 28 387 67 31 28
internal_value=0 0.202762 0.809361 0.972576 2.08108 3.93655 1.3081
internal_count=15817 4862 577 541 154 87 56
shrinkage=0.12


Tree=16
num_leaves=8
num_cat=0
split_feature=2 0 8 0 2 8 8
split_gain=194.045 195.163 220.912 318.525 355.06 274.706 167.491
threshold=4.5000000000000009 10.500000000000002 50.274999618530281 12.500000000000002 3.5000000000000004 55.114999771118171 45.805000305175788
decision_type=2 2 2 2 2 2 2
left_child=1 -1 6 4 -4 -6 -3
right_child=-2 2 3 -5 5 -7 -8
leaf_value=-0.012101853281163276 -0.0073942494627440257 0.034000419309702559 0.57342007926106453 0.064061308157134011 0.47870826627526963 -0.046910710692405697 -0.061028420036972154
leaf_count=1652 10955 2253 40 548 21 45 303
internal_value=0 0.17843 0.322159 0.840778 2.42757 1.00276 0.189461
internal_count=15817 4862 3210 654 106 66 2556
shrinkage=0.12


Tree=17
num_leaves=8
num_cat=0
split_feature=2 8 8 1 0 1 8
split_gain=150.269 168.268 307.073 1013.09 262.857 172.573 291.382
threshold=4.5000000000000009 18.529999732971195 21.300000190734867 1.0000000180025095e-35 22.500000000000004 1.5000000000000002 69.08499908447267
decision_type=2 2 2 2 2 2 2
left_child=1 4 3 -3 -1 -4 -7
right_child=-2 2 5 -5 -6 6 -8
leaf_value=-0.10400374741369002 -0.0065069391935288446 0.90840697720646857 -0.018108917075916435 0.05493019618524992 0.34751717913150787 0.029430027881410779 0.33047844479692745
leaf_count=259 10955 24 1296 121 20 3095 47
internal_value=0 0.157019 0.202919 1.63496 -0.596972 0.156131 0.282777
internal_count=15817 4862 4583 145 279 4438 3142
shrinkage=0.12


Tree=18
num_leaves=8
num_cat=0
split_feature=2 8 2 2 1 8 0
split_gain=116.368 141.861 249.989 1399.98 806.971 537.333 624.013
threshold=4.5000000000000009 57.055000305175788 3.5000000000000004 2.5000000000000004 3.5000000000000004 63.07500076293946 14.500000000000002
decision_type=2 2 2 2 2 2 2
left_child=1 -1 3 5 -5 6 -3
right_child=-2 2 -4 4 -6 -7 -8
leaf_value=0.010587197556856113 -0.0057261038246572641 0.61852814061301087 0.025530007902505623 1.2850876782157203 0.23189311766624449 -0.57014367310897163 -0.28622672345327294
leaf_count=4479 10955 21 274 22 20 23 23
internal_value=0 0.138176 0.722315 2.00324 6.52972 -0.834257 1.21323
internal_count=15817 4862 383 109 42 67 44
shrinkage=0.12


end of trees

feature importances:
Column_8=42
Column_2=37
Column_0=29
Column_1=16
Column_7=9

parameters:
[boosting: gbdt]
[objective: regression]
[metric: rmse]
[tree_learner: serial]
[device_type: cpu]
[data: ]
[valid: ]
[num_iterations: 100]
[learning_rate: 0.12]
[num_leaves: 8]
[num_threads: 0]
[max_depth: -1]
[min_data_in_leaf: 20]
[min_sum_hessian_in_leaf: 0.001]
[bagging_fraction: 0.8]
[bagging_freq: 5]
[bagging_seed: 3]
[feature_fraction: 0.9]
[feature_fraction_seed: 2]
[early_stopping_round: 0]
[max_delta_step: 0]
[lambda_l1: 0]
[lambda_l2: 0]
[min_gain_to_split: 0]
[drop_rate: 0.1]
[max_drop: 50]
[skip_drop: 0.5]
[xgboost_dart_mode: 0]
[uniform_drop: 0]
[drop_seed: 4]
[top_rate: 0.2]
[other_rate: 0.1]
[min_data_per_group: 100]
[max_cat_threshold: 32]
[cat_l2: 10]
[cat_smooth: 10]
[max_cat_to_onehot: 4]
[top_k: 20]
[monotone_constraints: ]
[feature_contri: ]
[forcedsplits_filename: ]
[refit_decay_rate: 0.9]
[verbosity: 0]
[max_bin: 255]
[min_data_in_bin: 3]
[bin_construct_sample_cnt: 200000]
[histogram_pool_size: -1]
[data_random_seed: 1]
[output_model: LightGBM_model.txt]
[snapshot_freq: -1]
[input_model: ]
[output_result: LightGBM_predict_result.txt]
[initscore_filename: ]
[valid_data_initscores: ]
[pre_partition: 0]
[enable_bundle: 1]
[max_conflict_rate: 0]
[is_enable_sparse: 1]
[sparse_threshold: 0.8]
[use_missing: 1]
[zero_as_missing: 0]
[two_round: 0]
[save_binary: 0]
[enable_load_from_binary_file: 1]
[header: 0]
[label_column: ]
[weight_column: ]
[group_column: ]
[ignore_column: ]
[categorical_feature: ]
[predict_raw_score: 0]
[predict_leaf_index: 0]
[predict_contrib: 0]
[num_iteration_predict: -1]
[pred_early_stop: 0]
[pred_early_stop_freq: 10]
[pred_early_stop_margin: 10]
[convert_model_language: ]
[convert_model: gbdt_prediction.cpp]
[num_class: 1]
[is_unbalance: 0]
[scale_pos_weight: 1]
[sigmoid: 1]
[boost_from_average: 1]
[reg_sqrt: 0]
[alpha: 0.9]
[fair_c: 1]
[poisson_max_delta_step: 0.7]
[tweedie_variance_power: 1.5]
[max_position: 20]
[label_gain: ]
[metric_freq: 1]
[is_provide_training_metric: 0]
[eval_at: ]
[num_machines: 1]
[local_listen_port: 12400]
[time_out: 120]
[machine_list_filename: ]
[machines: ]
[gpu_platform_id: -1]
[gpu_device_id: -1]
[gpu_use_dp: 0]

end of parameters

pandas_categorical:null
