tree
version=v2
num_class=1
num_tree_per_iteration=1
label_index=0
max_feature_idx=8
objective=regression
feature_names=Column_0 Column_1 Column_2 Column_3 Column_4 Column_5 Column_6 Column_7 Column_8
feature_infos=[0:23] [0:6] [1:12] [0:2] none [0:1] [0:1] [0:1] [-7.869999885559082:95.720001220703125]
tree_sizes=694 714 720 706 722 727 717 725 719 720 725 734 720 723 722 722 717 714 716 710

Tree=0
num_leaves=8
num_cat=0
split_feature=0 2 2 8 2 0 8
split_gain=2168 1127.11 563.381 276.057 500.716 467.795 240.836
threshold=5.5000000000000009 3.5000000000000004 3.5000000000000004 72.74499893188478 7.5000000000000009 1.0000000180025095e-35 51.174999237060554
decision_type=2 2 2 2 2 2 2
left_child=2 -2 6 -4 -5 -6 -1
right_child=1 -3 3 4 5 -7 -8
leaf_value=1.0619356963827102 0.91346217415834063 0.83953899519363395 0.93174407887788169 0.90044816755765889 0.93767496124803662 1.6233500184235399 1.4847184393067687
leaf_count=649 4031 11285 1638 74 23 38 20
internal_value=0 -0.14018 0.874388 0.579344 1.95381 4.075 1.65632
internal_count=17758 15316 2442 1773 135 61 669
shrinkage=1


Tree=1
num_leaves=8
num_cat=0
split_feature=0 2 2 1 0 1 8
split_gain=1678.9 872.837 436.282 299.33 218.848 228.802 248.909
threshold=5.5000000000000009 3.5000000000000004 3.5000000000000004 4.5000000000000009 1.5000000000000002 5.5000000000000009 32.245000839233406
decision_type=2 2 2 2 2 2 2
left_child=2 -2 4 -3 5 -1 -7
right_child=1 3 -4 -5 -6 6 -8
leaf_value=0.088421969639483802 0.033128275951863635 -0.044324097815598242 0.061178762360575227 -0.0011213398016540678 0.26848593464646581 0.56347681430253105 0.089939724158856177
leaf_count=371 4031 8046 1773 3239 234 33 31
internal_value=0 -0.123359 0.769462 -0.266034 1.45756 1.03807 2.78423
internal_count=17758 15316 2442 11285 669 435 64
shrinkage=0.12


Tree=2
num_leaves=8
num_cat=0
split_feature=2 1 2 7 1 7 8
split_gain=979.399 222.356 281.296 267.322 121.295 88.3035 65.138
threshold=3.5000000000000004 4.5000000000000009 11.500000000000002 0.11499999836087228 4.5000000000000009 0.35500000417232519 34.125000000000007
decision_type=2 2 2 2 2 2 2
left_child=4 6 -3 -4 -1 -5 -2
right_child=1 2 3 5 -6 -7 -8
leaf_value=0.035036175071423377 0.0089508084239092022 -0.0032199089982372707 0.06708942052354018 0.56168175245169549 0.078204621351442863 0.23392296749970007 -0.029673988604164085
leaf_count=3407 678 3353 326 20 1293 29 8652
internal_value=0 -0.141407 0.0650308 0.886412 0.390934 3.06418 -0.223893
internal_count=17758 13058 3728 375 4700 49 9330
shrinkage=0.12


Tree=3
num_leaves=8
num_cat=0
split_feature=0 2 2 8 2 0 8
split_gain=1294.36 506.891 288.364 216.212 388.802 362.322 192
threshold=5.5000000000000009 3.5000000000000004 3.5000000000000004 72.74499893188478 7.5000000000000009 1.0000000180025095e-35 49.924999237060554
decision_type=2 2 2 2 2 2 2
left_child=2 -2 6 -4 -5 -6 -1
right_child=1 -3 3 4 5 -7 -8
leaf_value=0.13554590215131362 0.023536224024459495 -0.026037780644622165 0.043721118559003312 0.016822913796515078 0.050102868812239687 0.65354778208230668 0.47449289388656612
leaf_count=644 4031 11285 1638 74 23 38 25
internal_value=0 -0.108254 0.67568 0.464595 1.68099 3.55016 1.2351
internal_count=17758 15316 2442 1773 135 61 669
shrinkage=0.12


Tree=4
num_leaves=8
num_cat=0
split_feature=2 1 2 7 1 8 8
split_gain=587.341 183.941 244.459 218.354 92.56 81.2619 64.8222
threshold=3.5000000000000004 5.5000000000000009 11.500000000000002 0.13499999791383746 4.5000000000000009 51.98500061035157 33.655000686645515
decision_type=2 2 2 2 2 2 2
left_child=4 6 5 -4 -1 -3 -2
right_child=1 2 3 -5 -6 -7 -8
leaf_value=0.025954460742289381 0.014640454530135377 0.053675511142853911 0.10330807860521291 0.49296934811398385 0.063664456095952726 -0.0072995419817826063 -0.021440465624540082
leaf_count=3407 770 418 151 24 1293 1274 10421
internal_value=0 -0.109505 0.181073 1.30623 0.302739 0.0647003 -0.157983
internal_count=17758 13058 1867 175 4700 1692 11191
shrinkage=0.12


Tree=5
num_leaves=8
num_cat=0
split_feature=0 2 2 1 2 8 0
split_gain=1085.29 273.386 254.059 180.807 191.207 267.503 179.961
threshold=5.5000000000000009 3.5000000000000004 3.5000000000000004 4.5000000000000009 11.500000000000002 44.614999771118171 1.0000000180025095e-35
decision_type=2 2 2 2 2 2 2
left_child=2 -2 6 -3 -5 -6 -1
right_child=1 3 -4 4 5 -7 -8
leaf_value=0.049975295897762652 0.015745693708787034 -0.030336035129809737 0.050516678200372318 -0.0066131829422622877 0.049039364410060883 0.37609593109205003 0.17840572427181486
leaf_count=236 4095 7891 1797 2932 296 41 470
internal_value=0 -0.0897833 0.620666 -0.170875 0.0268832 0.740247 1.12895
internal_count=17758 15255 2503 11160 3269 337 706
shrinkage=0.12


Tree=6
num_leaves=8
num_cat=0
split_feature=0 2 0 2 2 8 8
split_gain=840.448 212.911 201.309 205.289 255.502 384.679 272.949
threshold=5.5000000000000009 4.5000000000000009 1.0000000180025095e-35 3.5000000000000004 1.5000000000000002 28.445000648498539 34.854999542236335
decision_type=2 2 2 2 2 2 2
left_child=2 -2 -1 4 -4 -6 -7
right_child=1 -3 3 -5 5 6 -8
leaf_value=0.01795733188387829 0.0094744699680360776 -0.020083688971035615 0.040537923927917038 0.06328335941302736 0.035220070621546577 0.49490445156640644 0.20620671018576009
leaf_count=847 5472 9783 172 1186 102 79 117
internal_value=0 -0.0790093 0.546186 0.749007 1.30831 1.86846 2.68808
internal_count=17758 15255 2503 1656 470 298 196
shrinkage=0.12


Tree=7
num_leaves=8
num_cat=0
split_feature=0 2 2 1 2 7 0
split_gain=650.843 172.451 159.166 139.877 149.837 242.691 114.934
threshold=5.5000000000000009 3.5000000000000004 3.5000000000000004 4.5000000000000009 11.500000000000002 0.53499999642372142 1.5000000000000002
decision_type=2 2 2 2 2 2 2
left_child=2 -2 6 -3 -5 -6 -1
right_child=1 3 -4 4 5 -7 -8
leaf_value=0.071645929777241754 0.012719273000082253 -0.024718985908416088 0.038710034186570895 -0.0039091832746750337 0.053019286515843714 0.45684535386769665 0.17428264410313912
leaf_count=470 4095 7891 1797 2932 314 23 236
internal_value=0 -0.0695282 0.480644 -0.133934 0.0400066 0.671501 0.882959
internal_count=17758 15255 2503 11160 3269 337 706
shrinkage=0.12


Tree=8
num_leaves=8
num_cat=0
split_feature=0 0 0 1 2 1 2
split_gain=504.013 147.269 153.39 177.751 182.798 136.571 161.945
threshold=5.5000000000000009 1.0000000180025095e-35 3.5000000000000004 5.5000000000000009 1.5000000000000002 1.0000000180025095e-35 8.5000000000000018
decision_type=2 2 2 2 2 2 2
left_child=1 -1 3 4 -3 -6 -7
right_child=-2 2 -4 -5 5 6 -8
leaf_value=0.010056012895798317 -0.0073421776363133441 -0.09343364019393921 0.034022458419388862 0.2368403045521226 0.22763584271073339 0.12309891683624145 -0.020110339719824993
leaf_count=847 15255 75 805 129 108 376 163
internal_value=0 0.422967 0.596441 0.892448 0.699265 0.870581 0.664923
internal_count=17758 2503 1656 851 722 647 539
shrinkage=0.12


Tree=9
num_leaves=8
num_cat=0
split_feature=0 8 2 6 0 2 8
split_gain=390.308 140.848 128.276 116.771 120.664 118.271 202.158
threshold=5.5000000000000009 36.424999237060554 3.5000000000000004 1.0000000180025095e-35 1.5000000000000002 2.5000000000000004 45.954999923706062
decision_type=2 2 2 2 2 2 2
left_child=2 -2 3 4 5 6 -1
right_child=1 -3 -4 -5 -6 -7 -8
leaf_value=-0.027981222602995959 0.0157303024951117 -0.012452355742130753 0.027637769643571817 0.37382610715180631 0.15076948696706752 0.12642564960100031 0.36716392667591574
leaf_count=275 3243 12012 1797 20 229 162 20
internal_value=0 -0.0538426 0.372211 0.733382 0.663941 0.367057 -0.00993101
internal_count=17758 15255 2503 706 686 457 295
shrinkage=0.12


Tree=10
num_leaves=8
num_cat=0
split_feature=0 1 2 0 0 1 7
split_gain=229.983 157.518 120.87 119.557 101.172 233.618 206.32
threshold=5.5000000000000009 4.5000000000000009 2.5000000000000004 1.0000000180025095e-35 3.5000000000000004 4.5000000000000009 0.46500000357627874
decision_type=2 2 2 2 2 2 2
left_child=3 2 -2 -1 5 -5 -7
right_child=1 -3 -4 4 -6 6 -8
leaf_value=-0.0037686776576673284 0.012903259990301107 0.012777535190853223 -0.020099718912352908 0.037708965956848403 0.021154178397667363 0.20507598363380045 -0.17855460535396231
leaf_count=850 1945 4359 8957 577 803 245 22
internal_value=0 -0.0541899 -0.118431 0.273184 0.43038 0.672132 1.44555
internal_count=17758 15261 10902 2497 1647 844 267
shrinkage=0.12


Tree=11
num_leaves=8
num_cat=0
split_feature=0 1 8 2 2 0 8
split_gain=178.099 121.982 148.331 202.039 93.602 92.5849 124.378
threshold=5.5000000000000009 4.5000000000000009 44.854999542236335 11.500000000000002 2.5000000000000004 1.0000000180025095e-35 73.204998016357436
decision_type=2 2 2 2 2 2 2
left_child=5 4 -3 -4 -2 -1 -7
right_child=1 2 3 -5 -6 6 -8
leaf_value=-0.0033164363375481438 0.011354868399913022 0.040645521265166983 -0.0091248557527223301 0.27701309899489079 -0.017687754282195267 0.038926032057930993 0.21218223790007254
leaf_count=850 1945 1577 2746 36 8957 1585 62
internal_value=0 -0.0476871 0.0937019 -0.0451845 -0.104219 0.240402 0.378734
internal_count=17758 15261 4359 2782 10902 2497 1647
shrinkage=0.12


Tree=12
num_leaves=8
num_cat=0
split_feature=8 1 7 8 2 8 2
split_gain=127.047 136.51 66.4583 56.4958 74.0812 58.4988 66.7653
threshold=42.674999237060554 4.5000000000000009 0.99500000476837169 16.945000648498539 2.5000000000000004 20.585000038146976 3.5000000000000004
decision_type=2 2 2 2 2 2 2
left_child=1 -1 -2 -3 -5 -6 -7
right_child=2 3 -4 4 5 6 -8
leaf_value=0.0020660590862040433 -0.0095156233142625959 -0.034183605029139405 0.047152181020846555 0.017208599074291002 0.24416792437434195 0.10915359463331835 0.040819101336297313
leaf_count=4327 11421 129 306 646 27 318 584
internal_value=0 0.11163 -0.0669746 0.351373 0.403484 0.584336 0.54092
internal_count=17758 6031 11727 1704 1575 929 902
shrinkage=0.12


Tree=13
num_leaves=8
num_cat=0
split_feature=2 1 2 7 8 2 2
split_gain=100.514 84.2873 170.38 355.376 77.5969 224.524 58.1967
threshold=3.5000000000000004 5.5000000000000009 11.500000000000002 0.13499999791383746 10.835000038146974 1.5000000000000002 1.5000000000000002
decision_type=2 2 2 2 2 2 2
left_child=4 -2 -3 -4 5 -1 -6
right_child=1 2 3 -5 6 -7 -8
leaf_value=0.0056947476703387038 -0.010130908683978071 0.0058077033046736179 0.056994466222062397 0.53064626170529261 -0.0067384061016823081 0.38746106063165969 0.021473242201533734
leaf_count=78 11093 1697 147 27 1598 31 3087
internal_value=0 -0.0513093 0.145026 1.08743 0.118161 0.952254 0.0987548
internal_count=17758 12964 1871 174 4794 109 4685
shrinkage=0.12


Tree=14
num_leaves=8
num_cat=0
split_feature=0 1 0 8 2 2 2
split_gain=134.987 95.3634 88.6511 147.63 280.267 109.231 147.062
threshold=5.5000000000000009 1.0000000180025095e-35 1.0000000180025095e-35 73.204998016357436 7.5000000000000009 3.5000000000000004 1.5000000000000002
decision_type=2 2 2 2 2 2 2
left_child=1 -1 -3 5 -5 6 -4
right_child=-2 2 3 4 -6 -7 -8
leaf_value=0.081774218599705351 -0.0048190206767969581 -0.018394555518166027 -0.019706655973973482 0.0035014324328478644 0.54587825456391215 0.0035840678866274271 0.13517779456717627
leaf_count=367 15261 729 138 34 23 961 245
internal_value=0 0.21065 0.12953 0.276693 1.85296 0.209842 0.661424
internal_count=17758 2497 2130 1401 57 1344 383
shrinkage=0.12


Tree=15
num_leaves=8
num_cat=0
split_feature=2 1 8 8 8 8 7
split_gain=100.195 63.1167 94.2911 54.7939 62.6959 48.669 248.897
threshold=3.5000000000000004 5.5000000000000009 51.98500061035157 6.8550000190734872 19.064999580383304 57.43499946594239 0.75499999523162853
decision_type=2 2 2 2 2 2 2
left_child=3 -2 -3 -1 -5 -6 -7
right_child=1 2 -4 4 5 6 -8
leaf_value=0.13388837390054356 -0.0089558858866030811 0.053600765546814338 -0.0039051770015506981 -0.038212359233087377 0.014811797957024664 0.022145625585462986 0.47859393721818921
leaf_count=55 11121 610 1256 316 4257 123 20
internal_value=0 -0.0460761 0.124114 0.123381 0.111808 0.142708 0.716538
internal_count=17758 12987 1866 4771 4716 4400 143
shrinkage=0.12


Tree=16
num_leaves=8
num_cat=0
split_feature=0 1 0 8 1 8 8
split_gain=141.745 146.635 165.251 255.886 145.791 184.647 320.853
threshold=3.5000000000000004 5.5000000000000009 1.0000000180025095e-35 49.68499946594239 1.0000000180025095e-35 72.075000762939467 73.465000152587905
decision_type=2 2 2 2 2 2 2
left_child=1 4 -3 -4 -1 -6 -7
right_child=-2 2 3 -5 5 6 -8
leaf_value=0.1020045481237673 -0.0035109420014455368 0.016775741523303904 0.3828805691655725 0.043544590026140209 -0.014013527421807708 0.52830917025804514 0.034299606766838291
leaf_count=248 16089 119 64 64 1071 25 78
internal_value=0 0.276909 0.988108 1.77677 0.153374 0.0062082 1.28504
internal_count=17758 1669 247 128 1422 1174 103
shrinkage=0.12


Tree=17
num_leaves=8
num_cat=0
split_feature=0 6 8 8 2 1 2
split_gain=111.08 71.927 69.2285 136.992 400.121 69.0275 86.2925
threshold=5.5000000000000009 1.0000000180025095e-35 75.884998321533217 72.74499893188478 7.5000000000000009 1.0000000180025095e-35 11.500000000000002
decision_type=2 2 2 2 2 2 2
left_child=1 2 3 5 -5 6 -1
right_child=-2 -3 -4 4 -6 -7 -8
leaf_value=0.049529511983607222 -0.0038586019724826657 0.2114743814925695 -0.1313616388610431 -0.025275344029068947 0.48076532041033104 0.0094503105391336023 0.26587660135893987
leaf_count=314 15296 29 42 60 36 1952 29
internal_value=0 0.196711 0.17805 0.200407 1.37075 0.151451 0.565177
internal_count=17758 2462 2433 2391 96 2295 343
shrinkage=0.12


Tree=18
num_leaves=8
num_cat=0
split_feature=0 1 0 8 2 1 8
split_gain=88.8891 116.9 127.704 197.215 101.813 97.5118 139.683
threshold=3.5000000000000004 5.5000000000000009 1.0000000180025095e-35 49.68499946594239 2.5000000000000004 1.0000000180025095e-35 72.74499893188478
decision_type=2 2 2 2 2 2 2
left_child=1 5 -3 4 -4 -1 -7
right_child=-2 2 3 -5 -6 6 -8
leaf_value=0.081449452266097067 -0.0027793051120926704 0.013027961716181089 0.13258605958327002 0.036760848909616471 0.44802555590141113 -0.013290617105540754 0.14228852321207522
leaf_count=248 16089 119 23 64 41 1084 90
internal_value=0 0.219293 0.854303 1.54761 2.78887 0.108992 -0.0113647
internal_count=17758 1669 247 128 64 1422 1174
shrinkage=0.12


Tree=19
num_leaves=8
num_cat=0
split_feature=2 0 8 0 1 1 8
split_gain=78.3693 74.9795 171.806 80.0415 147.499 67.9928 98.0846
threshold=3.5000000000000004 5.5000000000000009 52.264999389648445 1.5000000000000002 5.5000000000000009 5.5000000000000009 32.774999618530281
decision_type=2 2 2 2 2 2 2
left_child=1 2 3 5 -5 -1 -7
right_child=-2 -3 -4 4 -6 6 -8
leaf_value=-0.01113629645377886 -0.0048712429058148359 0.0069692736460402966 0.3878569417340415 0.13314127275172402 -0.14030866557901556 0.24191841468214989 -0.086395206794142712
leaf_count=366 12987 4089 21 204 33 38 20
internal_value=0 0.109275 0.416236 0.326774 0.792216 0.0666099 1.07256
internal_count=17758 4771 682 661 237 424 58
shrinkage=0.12


end of trees

feature importances:
Column_2=42
Column_8=33
Column_0=31
Column_1=24
Column_7=8
Column_6=2

parameters:
[boosting: gbdt]
[objective: regression]
[metric: rmse]
[tree_learner: serial]
[device_type: cpu]
[data: ]
[valid: ]
[num_iterations: 100]
[learning_rate: 0.12]
[num_leaves: 8]
[num_threads: 0]
[max_depth: -1]
[min_data_in_leaf: 20]
[min_sum_hessian_in_leaf: 0.001]
[bagging_fraction: 0.8]
[bagging_freq: 5]
[bagging_seed: 3]
[feature_fraction: 0.9]
[feature_fraction_seed: 2]
[early_stopping_round: 0]
[max_delta_step: 0]
[lambda_l1: 0]
[lambda_l2: 0]
[min_gain_to_split: 0]
[drop_rate: 0.1]
[max_drop: 50]
[skip_drop: 0.5]
[xgboost_dart_mode: 0]
[uniform_drop: 0]
[drop_seed: 4]
[top_rate: 0.2]
[other_rate: 0.1]
[min_data_per_group: 100]
[max_cat_threshold: 32]
[cat_l2: 10]
[cat_smooth: 10]
[max_cat_to_onehot: 4]
[top_k: 20]
[monotone_constraints: ]
[feature_contri: ]
[forcedsplits_filename: ]
[refit_decay_rate: 0.9]
[verbosity: 0]
[max_bin: 255]
[min_data_in_bin: 3]
[bin_construct_sample_cnt: 200000]
[histogram_pool_size: -1]
[data_random_seed: 1]
[output_model: LightGBM_model.txt]
[snapshot_freq: -1]
[input_model: ]
[output_result: LightGBM_predict_result.txt]
[initscore_filename: ]
[valid_data_initscores: ]
[pre_partition: 0]
[enable_bundle: 1]
[max_conflict_rate: 0]
[is_enable_sparse: 1]
[sparse_threshold: 0.8]
[use_missing: 1]
[zero_as_missing: 0]
[two_round: 0]
[save_binary: 0]
[enable_load_from_binary_file: 1]
[header: 0]
[label_column: ]
[weight_column: ]
[group_column: ]
[ignore_column: ]
[categorical_feature: ]
[predict_raw_score: 0]
[predict_leaf_index: 0]
[predict_contrib: 0]
[num_iteration_predict: -1]
[pred_early_stop: 0]
[pred_early_stop_freq: 10]
[pred_early_stop_margin: 10]
[convert_model_language: ]
[convert_model: gbdt_prediction.cpp]
[num_class: 1]
[is_unbalance: 0]
[scale_pos_weight: 1]
[sigmoid: 1]
[boost_from_average: 1]
[reg_sqrt: 0]
[alpha: 0.9]
[fair_c: 1]
[poisson_max_delta_step: 0.7]
[tweedie_variance_power: 1.5]
[max_position: 20]
[label_gain: ]
[metric_freq: 1]
[is_provide_training_metric: 0]
[eval_at: ]
[num_machines: 1]
[local_listen_port: 12400]
[time_out: 120]
[machine_list_filename: ]
[machines: ]
[gpu_platform_id: -1]
[gpu_device_id: -1]
[gpu_use_dp: 0]

end of parameters

pandas_categorical:null
