tree
version=v2
num_class=1
num_tree_per_iteration=1
label_index=0
max_feature_idx=8
objective=regression
feature_names=Column_0 Column_1 Column_2 Column_3 Column_4 Column_5 Column_6 Column_7 Column_8
feature_infos=[0:23] [0:6] [1:12] [0:2] none [0:1] [0:1] [0:1] [-3.8900001049041748:95.720001220703125]
tree_sizes=714 730 716 723 715 729 736 729 721 716 735 716 725 715 728 729 722 723 726 735

Tree=0
num_leaves=8
num_cat=0
split_feature=0 6 8 0 0 2 0
split_gain=176.052 288.555 137.401 116.122 228.361 59.6549 48.6463
threshold=8.5000000000000018 1.0000000180025095e-35 80.005001068115249 5.5000000000000009 6.5000000000000009 8.5000000000000018 18.500000000000004
decision_type=2 2 2 2 2 2 2
left_child=1 3 6 -1 5 -5 -2
right_child=2 -3 -4 4 -6 -7 -8
leaf_value=0.85650675757189376 0.85925086330131761 1.2265222629088697 0.89575682948261304 0.98242401666490753 0.87503270669405264 0.9077503322529803 0.84169232914388648
leaf_count=1290 6383 36 1215 475 1468 228 3528
internal_value=0 0.208875 -0.0483545 0.179579 0.320775 0.789444 -0.087264
internal_count=14623 3497 11126 3461 2171 703 9911
shrinkage=1


Tree=1
num_leaves=8
num_cat=0
split_feature=8 0 6 0 0 0 8
split_gain=139.063 141.238 120.625 145.449 74.1199 101.347 107.008
threshold=10.88000011444092 18.500000000000004 1.0000000180025095e-35 8.5000000000000018 15.500000000000002 9.5000000000000018 81.115001678466811
decision_type=2 2 2 2 2 2 2
left_child=-1 2 4 -4 5 -2 -7
right_child=1 -3 3 -5 -6 6 -8
leaf_value=0.12844706480822912 0.013877592714391297 -0.02007003736153978 0.31948399225870766 0.051062081933811003 0.025255681719731825 -0.019701089113476171 0.036129568228612671
leaf_count=123 4137 3660 36 151 2179 3768 569
internal_value=0 0.00259955 0.0599474 0.856141 0.0459712 0.00367361 -0.103136
internal_count=14623 14500 10840 187 10653 8474 4337
shrinkage=0.12


Tree=2
num_leaves=8
num_cat=0
split_feature=8 6 8 7 8 8 1
split_gain=107.69 88.6478 72.6872 56.2863 79.2224 62.5746 72.0287
threshold=10.88000011444092 1.0000000180025095e-35 78.505001068115249 0.82499998807907116 33.23500061035157 30.875000000000004 3.5000000000000004
decision_type=2 2 2 2 2 2 2
left_child=-1 2 -2 4 5 -3 -7
right_child=1 3 -4 -5 -6 6 -8
leaf_value=0.11303341453508814 -0.0038681297551374882 0.022263923339221788 0.023999156713363355 0.26109250285795754 -0.052783052810092469 0.27445254875266034 0.035450713455677026
leaf_count=123 12760 69 1507 21 67 46 30
internal_value=0 0.0022876 -0.00770461 0.614128 0.459437 0.874974 1.50091
internal_count=14623 14500 14267 233 212 145 76
shrinkage=0.12


Tree=3
num_leaves=8
num_cat=0
split_feature=0 6 0 0 8 2 1
split_gain=112.686 157.734 89.1828 176.241 73.249 47.8601 71.6112
threshold=8.5000000000000018 1.0000000180025095e-35 5.5000000000000009 6.5000000000000009 80.005001068115249 2.5000000000000004 3.5000000000000004
decision_type=2 2 2 2 2 2 2
left_child=1 2 -1 5 -2 6 -4
right_child=4 -3 3 -5 -6 -7 -8
leaf_value=-0.0077227538144865699 -0.0082386642033235175 0.26975410123666127 0.23642893146345159 0.0084550370639367711 0.022979308423436717 0.067964570925419993 0.041357287323855338
leaf_count=1290 9911 36 64 1468 1215 592 47
internal_value=0 0.165549 0.143889 0.267627 -0.0402462 0.679354 1.28193
internal_count=14623 3497 3461 2171 11126 703 111
shrinkage=0.12


Tree=4
num_leaves=8
num_cat=0
split_feature=8 6 8 1 2 7 8
split_gain=81.1056 60.3164 53.2947 52.3602 58.8858 46.5557 36.5358
threshold=10.88000011444092 1.0000000180025095e-35 86.235000610351577 4.5000000000000009 1.5000000000000002 0.51499998569488536 86.930000305175795
decision_type=2 2 2 2 2 2 2
left_child=3 2 -2 -1 -5 -3 -4
right_child=1 5 6 4 -6 -7 -8
leaf_value=0.03640986846073678 -0.0020518414619545076 0.026608474148684235 0.13758711234308205 0.34699712710721153 0.076825880534373794 0.14511823372609581 0.028941470188303633
leaf_count=76 13903 166 52 21 26 67 312
internal_value=0 0.00103301 -0.00720923 0.816502 1.64617 0.50572 0.370519
internal_count=14623 14500 14267 123 47 233 364
shrinkage=0.12


Tree=5
num_leaves=8
num_cat=0
split_feature=0 8 8 1 0 0 0
split_gain=104.364 77.5596 54.5683 68.0451 52.9746 87.7072 95.8238
threshold=18.500000000000004 86.235000610351577 17.939999580383304 4.5000000000000009 15.500000000000002 9.5000000000000018 5.5000000000000009
decision_type=2 2 2 2 2 2 2
left_child=1 4 3 -2 5 6 -1
right_child=2 -3 -4 -5 -6 -7 -8
leaf_value=-0.014420652385084887 -0.0033936956769130265 0.063118793534182288 -0.019714276179783295 0.20846054929144242 0.021537903675156532 -0.012137437614936571 0.024252932055558011
leaf_count=1342 61 332 3592 34 2051 4259 2952
internal_value=0 0.0500476 -0.144501 0.603565 0.0351464 0.000534698 0.101386
internal_count=14623 10936 3687 95 10604 8553 4294
shrinkage=0.12


Tree=6
num_leaves=8
num_cat=0
split_feature=0 8 8 2 0 0 0
split_gain=80.8196 60.0622 42.2577 42.6646 41.0235 67.9205 74.2059
threshold=18.500000000000004 86.235000610351577 17.939999580383304 5.5000000000000009 15.500000000000002 9.5000000000000018 5.5000000000000009
decision_type=2 2 2 2 2 2 2
left_child=1 4 -2 -4 5 6 -1
right_child=2 -3 3 -5 -6 -7 -8
leaf_value=-0.012690176123922521 0.063736484407594329 0.055544537982667785 -0.033964874799074563 -0.0070551443671030001 0.018953356555159472 -0.010680947341208559 0.021342577751862202
leaf_count=1342 95 332 1374 2218 2051 4259 2952
internal_value=0 0.0440419 -0.127161 -0.144571 0.0309288 0.000470516 0.0892196
internal_count=14623 10936 3687 3592 10604 8553 4294
shrinkage=0.12


Tree=7
num_leaves=8
num_cat=0
split_feature=0 8 0 0 0 0 8
split_gain=62.5867 49.3023 47.9245 77.3505 75.7886 159.842 89.3547
threshold=18.500000000000004 81.115001678466811 15.500000000000002 8.5000000000000018 5.5000000000000009 6.5000000000000009 37.694999694824226
decision_type=2 2 2 2 2 2 2
left_child=1 2 3 4 -1 6 -6
right_child=-2 -3 -4 -5 5 -7 -8
leaf_value=-0.011051449478340291 -0.013428191301102945 0.031017517387643617 0.019567700106890931 -0.012086013335928427 0.1333328022342582 0.0026634980624459354 0.042707314926289743
leaf_count=1339 3687 934 1860 4584 229 1494 496
internal_value=0 0.0387569 0.0182389 -0.0148457 0.0957875 0.209161 0.594437
internal_count=14623 10936 10002 8142 3558 2219 725
shrinkage=0.12


Tree=8
num_leaves=8
num_cat=0
split_feature=1 0 0 0 0 2 2
split_gain=55.2428 51.6206 31.5227 24.2434 145.467 65.9573 26.1762
threshold=2.5000000000000004 18.500000000000004 16.500000000000004 6.5000000000000009 5.5000000000000009 1.5000000000000002 11.500000000000002
decision_type=2 2 2 2 2 2 2
left_child=1 2 3 4 -1 -6 -7
right_child=-2 -3 -4 -5 5 6 -8
leaf_value=-0.022514837975901966 0.0064688506717501633 -0.027224941545066796 0.02278385359829212 -0.011026487402634545 0.27427267313003539 0.05079760867544985 0.17305162725704054
leaf_count=614 8356 1576 633 3139 23 254 28
internal_value=0 -0.0702945 -0.0176895 -0.0500656 0.0927838 0.657276 0.524469
internal_count=14623 6267 4691 4058 919 305 282
shrinkage=0.12


Tree=9
num_leaves=8
num_cat=0
split_feature=8 0 0 8 2 2 8
split_gain=45.7504 40.836 148.399 62.4213 65.6902 53.7512 48.3087
threshold=86.235000610351577 6.5000000000000009 5.5000000000000009 37.694999694824226 8.5000000000000018 1.5000000000000002 69.24499893188478
decision_type=2 2 2 2 2 2 2
left_child=1 2 -1 5 6 -4 -5
right_child=-2 -3 3 4 -6 -7 -8
leaf_value=-0.0090374321940225929 0.042081750338835704 -0.0036450237865783418 0.22612057835511537 0.046165353589587739 -0.03066343143001779 0.081013524434605577 0.17958586863676707
leaf_count=1342 364 12192 46 297 154 183 45
internal_value=0 -0.00834037 0.12163 0.486176 0.286799 0.918014 0.531006
internal_count=14623 14259 2067 725 496 229 342
shrinkage=0.12


Tree=10
num_leaves=8
num_cat=0
split_feature=1 0 0 1 0 0 1
split_gain=43.3309 25.5265 25.1373 40.6105 32.7204 26.455 75.4878
threshold=2.5000000000000004 21.500000000000004 17.500000000000004 3.5000000000000004 22.500000000000004 12.500000000000002 4.5000000000000009
decision_type=2 2 2 2 2 2 2
left_child=1 -1 5 -4 -5 -2 -7
right_child=2 -3 3 4 -6 6 -8
leaf_value=-0.0043393392991035997 0.0044972971566697665 -0.029794420186962399 0.022787791741067084 -0.019977516059605578 0.021825056841614048 0.043343811595489168 -0.0019836152290637569
leaf_count=5699 3691 630 621 1537 327 1089 1029
internal_value=0 -0.0572765 0.0525906 -0.0315809 -0.105368 0.0885979 0.177684
internal_count=14623 6329 8294 2485 1864 5809 2118
shrinkage=0.12


Tree=11
num_leaves=8
num_cat=0
split_feature=8 0 0 2 1 8 1
split_gain=46.8285 33.0127 130.165 64.7553 68.4114 31.389 53.9256
threshold=76.524997711181655 6.5000000000000009 5.5000000000000009 1.5000000000000002 3.5000000000000004 69.24499893188478 5.5000000000000009
decision_type=2 2 2 2 2 2 2
left_child=1 2 -1 4 -4 6 -5
right_child=-2 -3 3 5 -6 -7 -8
leaf_value=-0.010507848505964749 0.017962631771111882 -0.0047838209163497099 0.27619263281424844 0.049776454901027868 0.0036578957842929023 0.13289121328031314 -0.050857475837071738
leaf_count=1315 1927 10665 36 518 21 51 90
internal_value=0 -0.0176125 0.0992385 0.442321 1.46488 0.353876 0.290667
internal_count=14623 12696 2031 716 57 659 608
shrinkage=0.12


Tree=12
num_leaves=8
num_cat=0
split_feature=8 8 7 8 2 1 8
split_gain=36.264 31.4555 60.7748 73.4294 26.1576 29.8019 44.0688
threshold=76.524997711181655 35.344999313354499 0.51499998569488536 32.475000381469734 5.5000000000000009 5.5000000000000009 42.875000000000007
decision_type=2 2 2 2 2 2 2
left_child=1 2 -1 -4 -3 -6 -7
right_child=-2 4 3 -5 5 6 -8
leaf_value=0.0059976890148663855 0.015807115864762616 -0.01296842543516312 0.2621751619207448 0.035560542714427892 -0.0035661166185562291 0.093393732351916184 0.010368229280708425
leaf_count=2677 1927 3724 29 71 5343 105 747
internal_value=0 -0.015499 0.0785731 0.84399 -0.0418362 -0.00202092 0.171669
internal_count=14623 12696 2777 100 9919 6195 852
shrinkage=0.12


Tree=13
num_leaves=8
num_cat=0
split_feature=1 8 8 2 1 1 2
split_gain=33.1538 51.6421 37.5573 88.8804 93.9377 33.9024 71.5555
threshold=2.5000000000000004 80.344997406005874 13.139999866485597 2.5000000000000004 4.5000000000000009 5.5000000000000009 6.5000000000000009
decision_type=2 2 2 2 2 2 2
left_child=-1 2 3 4 -2 6 -3
right_child=1 5 -4 -5 -6 -7 -8
leaf_value=-0.0061289391888573802 0.014988497465848922 0.14492518450543282 0.0015493933542899887 -0.031342891972798569 0.30838422222570938 -0.0064998608919162324 0.030485633608044644
leaf_count=6329 30 100 7518 65 33 179 369
internal_value=0 0.0450282 0.0220566 0.559183 1.4056 0.316078 0.457387
internal_count=14623 8294 7646 128 63 648 469
shrinkage=0.12


Tree=14
num_leaves=8
num_cat=0
split_feature=0 8 2 2 8 1 1
split_gain=25.6961 50.6277 71.7339 38.1303 27.2769 26.2336 55.4658
threshold=18.500000000000004 13.139999866485597 1.5000000000000002 5.5000000000000009 74.735000610351577 5.5000000000000009 2.5000000000000004
decision_type=2 2 2 2 2 2 2
left_child=4 2 -2 -3 -1 6 -6
right_child=1 3 -4 -5 5 -7 -8
leaf_value=0.00056271376865302204 0.27916379600763319 -0.025162431470195146 -0.038385271936655044 5.1761772585093815e-05 0.0013133349524630934 -0.019498439634307509 0.045960116234475303
leaf_count=9097 21 1421 20 2202 859 252 751
internal_value=0 -0.0694758 1.03552 -0.0819805 0.0272604 0.137534 0.184494
internal_count=14623 3664 41 3623 10959 1862 1610
shrinkage=0.12


Tree=15
num_leaves=8
num_cat=0
split_feature=8 2 1 1 1 8 8
split_gain=21.6561 44.8069 65.7339 32.8569 19.0211 16.3999 22.5145
threshold=23.865000724792484 1.5000000000000002 5.5000000000000009 1.0000000180025095e-35 4.5000000000000009 54.344999313354499 61.344999313354499
decision_type=2 2 2 2 2 2 2
left_child=1 2 3 -1 -5 -2 -7
right_child=5 -3 -4 4 -6 6 -8
leaf_value=-0.043895501792430874 -0.0086111793207561058 -0.006647589627842781 0.17255361431174807 0.076695716855200852 -0.013646862814823786 0.012506330581887286 -0.0037961817894800109
leaf_count=69 6548 472 54 132 45 1548 5755
internal_value=0 0.136671 0.438856 0.219544 0.447727 -0.0354206 -0.00283813
internal_count=14623 772 300 246 177 13851 7303
shrinkage=0.12


Tree=16
num_leaves=8
num_cat=0
split_feature=1 8 8 1 2 0 0
split_gain=20.3665 32.1469 32.4491 37.6587 31.8334 33.0199 26.7726
threshold=2.5000000000000004 23.219999313354496 87.68500137329103 4.5000000000000009 1.5000000000000002 20.500000000000004 22.500000000000004
decision_type=2 2 2 2 2 2 2
left_child=-1 4 6 -4 5 -2 -3
right_child=1 2 3 -5 -6 -7 -8
leaf_value=-0.0078941329039319899 0.050575636549486366 -0.0033316936685003763 0.10806592661214161 -0.019970285686579617 0.0095739003865893801 0.19507161638566425 0.028515935424260071
leaf_count=6348 122 7293 83 55 293 28 401
internal_value=0 0.00951192 -0.00531159 0.475308 0.271584 0.646235 -0.013932
internal_count=14623 8275 7832 138 443 150 7694
shrinkage=0.12


Tree=17
num_leaves=8
num_cat=0
split_feature=1 8 8 1 2 0 0
split_gain=15.7718 24.8946 25.1286 29.1629 24.6517 25.5706 20.7327
threshold=2.5000000000000004 23.219999313354496 87.68500137329103 4.5000000000000009 1.5000000000000002 20.500000000000004 22.500000000000004
decision_type=2 2 2 2 2 2 2
left_child=-1 4 6 -4 5 -2 -3
right_child=1 2 3 -5 -6 -7 -8
leaf_value=-0.0069468367936103724 0.044506560518849089 -0.0029318902333175471 0.095098012585237798 -0.017573851542039352 0.0084250319108316093 0.17166301789028304 0.025094022678020883
leaf_count=6348 122 7293 83 55 293 28 401
internal_value=0 0.00837049 -0.0046742 0.418271 0.238994 0.568687 -0.0122602
internal_count=14623 8275 7832 138 443 150 7694
shrinkage=0.12


Tree=18
num_leaves=8
num_cat=0
split_feature=0 0 0 8 1 8 8
split_gain=16.5408 34.0097 22.7751 26.4623 37.5003 21.3366 20.4082
threshold=9.5000000000000018 12.500000000000002 13.500000000000002 54.344999313354499 4.5000000000000009 26.175000190734867 73.014999389648452
decision_type=2 2 2 2 2 2 2
left_child=-1 -2 3 5 -5 -3 -6
right_child=1 2 -4 4 6 -7 -8
leaf_value=0.0040924997365691194 -0.017859147371705918 0.10993430316448212 -0.0031732382673822657 0.06110733994292003 0.032204765468835828 -0.015145064403515051 -0.065968291537175247
leaf_count=4307 2236 21 7331 303 60 303 62
internal_value=0 -0.0396783 -0.00947356 0.156625 0.320741 -0.0586506 -0.147387
internal_count=14623 10316 8080 749 425 324 122
shrinkage=0.12


Tree=19
num_leaves=8
num_cat=0
split_feature=0 0 0 1 8 1 3
split_gain=12.8092 26.3371 20.4677 47.2669 77.6819 38.6627 34.5452
threshold=9.5000000000000018 12.500000000000002 18.500000000000004 5.5000000000000009 23.865000724792484 4.5000000000000009 1.0000000180025095e-35
decision_type=2 2 2 2 2 2 2
left_child=-1 -2 5 -4 -5 6 -3
right_child=1 2 3 4 -6 -7 -8
leaf_value=0.0036013995139942434 -0.01571604992128069 0.0095715274680973836 -0.013296675146889364 0.22380403200785318 0.014846759199382302 -0.013258127882465349 0.090941867733543569
leaf_count=4307 2236 3095 3114 27 501 1266 77
internal_value=0 -0.0349169 -0.00833674 -0.0638956 0.212767 0.037257 0.0962232
internal_count=14623 10316 8080 3642 528 4438 3172
shrinkage=0.12


end of trees

feature importances:
Column_0=47
Column_8=41
Column_1=26
Column_2=17
Column_6=5
Column_7=3
Column_3=1

parameters:
[boosting: gbdt]
[objective: regression]
[metric: rmse]
[tree_learner: serial]
[device_type: cpu]
[data: ]
[valid: ]
[num_iterations: 100]
[learning_rate: 0.12]
[num_leaves: 8]
[num_threads: 0]
[max_depth: -1]
[min_data_in_leaf: 20]
[min_sum_hessian_in_leaf: 0.001]
[bagging_fraction: 0.8]
[bagging_freq: 5]
[bagging_seed: 3]
[feature_fraction: 0.9]
[feature_fraction_seed: 2]
[early_stopping_round: 0]
[max_delta_step: 0]
[lambda_l1: 0]
[lambda_l2: 0]
[min_gain_to_split: 0]
[drop_rate: 0.1]
[max_drop: 50]
[skip_drop: 0.5]
[xgboost_dart_mode: 0]
[uniform_drop: 0]
[drop_seed: 4]
[top_rate: 0.2]
[other_rate: 0.1]
[min_data_per_group: 100]
[max_cat_threshold: 32]
[cat_l2: 10]
[cat_smooth: 10]
[max_cat_to_onehot: 4]
[top_k: 20]
[monotone_constraints: ]
[feature_contri: ]
[forcedsplits_filename: ]
[refit_decay_rate: 0.9]
[verbosity: 0]
[max_bin: 255]
[min_data_in_bin: 3]
[bin_construct_sample_cnt: 200000]
[histogram_pool_size: -1]
[data_random_seed: 1]
[output_model: LightGBM_model.txt]
[snapshot_freq: -1]
[input_model: ]
[output_result: LightGBM_predict_result.txt]
[initscore_filename: ]
[valid_data_initscores: ]
[pre_partition: 0]
[enable_bundle: 1]
[max_conflict_rate: 0]
[is_enable_sparse: 1]
[sparse_threshold: 0.8]
[use_missing: 1]
[zero_as_missing: 0]
[two_round: 0]
[save_binary: 0]
[enable_load_from_binary_file: 1]
[header: 0]
[label_column: ]
[weight_column: ]
[group_column: ]
[ignore_column: ]
[categorical_feature: ]
[predict_raw_score: 0]
[predict_leaf_index: 0]
[predict_contrib: 0]
[num_iteration_predict: -1]
[pred_early_stop: 0]
[pred_early_stop_freq: 10]
[pred_early_stop_margin: 10]
[convert_model_language: ]
[convert_model: gbdt_prediction.cpp]
[num_class: 1]
[is_unbalance: 0]
[scale_pos_weight: 1]
[sigmoid: 1]
[boost_from_average: 1]
[reg_sqrt: 0]
[alpha: 0.9]
[fair_c: 1]
[poisson_max_delta_step: 0.7]
[tweedie_variance_power: 1.5]
[max_position: 20]
[label_gain: ]
[metric_freq: 1]
[is_provide_training_metric: 0]
[eval_at: ]
[num_machines: 1]
[local_listen_port: 12400]
[time_out: 120]
[machine_list_filename: ]
[machines: ]
[gpu_platform_id: -1]
[gpu_device_id: -1]
[gpu_use_dp: 0]

end of parameters

pandas_categorical:null
