tree
version=v2
num_class=1
num_tree_per_iteration=1
label_index=0
max_feature_idx=8
objective=regression
feature_names=Column_0 Column_1 Column_2 Column_3 Column_4 Column_5 Column_6 Column_7 Column_8
feature_infos=[0:23] [0:6] [1:12] [0:2] none [0:1] [0:1] [0:1] [-3.8900001049041748:95.720001220703125]
tree_sizes=705 702 703 708 709 727 716 706 718 716 726 722 713 727 728 710 714 727 711 711

Tree=0
num_leaves=8
num_cat=0
split_feature=2 8 8 0 2 0 0
split_gain=981.658 692.076 367.909 286.057 237.224 200.56 286.004
threshold=8.5000000000000018 28.914999961853031 6.7850000858306894 1.0000000180025095e-35 6.5000000000000009 15.500000000000002 9.5000000000000018
decision_type=2 2 2 2 2 2 2
left_child=2 -2 -1 4 -4 6 -5
right_child=1 -3 3 5 -6 -7 -8
leaf_value=1.8087498064152299 1.5600962342845586 1.3892799224877934 1.5031161369334318 1.481311634131055 1.6799412266660951 1.483395372338308 1.4257834049681553
leaf_count=46 372 4173 376 2282 154 4302 3221
internal_value=0 -0.370242 0.187027 0.174468 0.890046 0.135788 0.00933344
internal_count=14926 4545 10381 10335 530 9805 5503
shrinkage=1


Tree=1
num_leaves=8
num_cat=0
split_feature=1 2 8 2 8 2 0
split_gain=1923.31 1080.19 4007.02 1918.55 1044.94 928.672 636.138
threshold=4.5000000000000009 4.5000000000000009 54.094999313354499 3.5000000000000004 28.914999961853031 3.5000000000000004 10.500000000000002
decision_type=2 2 2 2 2 2 2
left_child=-1 2 5 -4 6 -2 -3
right_child=1 4 3 -5 -6 -7 -8
leaf_value=-0.02581757841774671 0.022536773449844782 0.1205303849712495 1.4016850469461302 0.4712618177384138 0.015544881479089613 0.29960500767064652 0.68389955235852129
leaf_count=10571 918 62 41 144 2921 215 54
internal_value=0 0.574521 1.33052 5.64553 0.246433 0.625948 3.1899
internal_count=14926 4355 1318 185 3037 1133 116
shrinkage=0.12


Tree=2
num_leaves=8
num_cat=0
split_feature=1 2 8 2 8 2 8
split_gain=1489.41 836.495 3103.04 1485.73 809.2 719.163 599.377
threshold=4.5000000000000009 4.5000000000000009 54.094999313354499 3.5000000000000004 28.914999961853031 3.5000000000000004 58.024999618530281
decision_type=2 2 2 2 2 2 2
left_child=-1 2 5 6 -3 -2 -4
right_child=1 4 3 -5 -6 -7 -8
leaf_value=-0.022719469835692577 0.019832362252123214 0.33685383870683866 0.78572338789701457 0.41471040055776631 0.013679495270388536 0.26365240751865299 1.7036302034854889
leaf_count=10571 918 116 21 144 2921 215 20
internal_value=0 0.505578 1.17086 4.96807 0.216861 0.550834 10.279
internal_count=14926 4355 1318 185 3037 1133 41
shrinkage=0.12


Tree=3
num_leaves=8
num_cat=0
split_feature=1 2 8 2 8 3 2
split_gain=1153.4 647.782 2402.99 1150.55 626.645 557.126 556.92
threshold=4.5000000000000009 4.5000000000000009 54.094999313354499 3.5000000000000004 28.914999961853031 1.0000000180025095e-35 3.5000000000000004
decision_type=2 2 2 2 2 2 2
left_child=-1 2 6 -4 -3 -5 -2
right_child=1 4 3 5 -6 -7 -8
leaf_value=-0.019993131149120762 0.017452477238147086 0.2964313881381832 1.0854649047444507 0.47313173418285465 0.012037955935545793 -0.15002297701835632 0.23201411694704099
leaf_count=10571 918 116 41 119 2921 25 215
internal_value=0 0.444909 1.03035 4.3719 0.190838 3.04121 0.484734
internal_count=14926 4355 1318 185 3037 144 1133
shrinkage=0.12


Tree=4
num_leaves=8
num_cat=0
split_feature=1 2 2 2 8 2 8
split_gain=893.193 540.831 676.437 948.561 1887.53 1717.58 3193.05
threshold=4.5000000000000009 7.5000000000000009 2.5000000000000004 4.5000000000000009 41.82500076293946 3.5000000000000004 54.094999313354499
decision_type=2 2 2 2 2 2 2
left_child=-1 2 -2 4 -4 6 -6
right_child=1 -3 3 -5 5 -7 -8
leaf_value=-0.017593954980300083 -0.028642099842673442 -0.0042930356312122653 0.032945939242338934 0.053980899705804497 0.41275952944950178 0.29115915069835524 2.1529775164344094
leaf_count=10571 610 1763 357 1274 49 280 22
internal_value=0 0.39152 0.682153 0.965559 1.89356 3.54025 7.93318
internal_count=14926 4355 2592 1982 708 351 71
shrinkage=0.12


Tree=5
num_leaves=8
num_cat=0
split_feature=1 2 2 0 0 8 2
split_gain=554.555 318.721 279.373 770.399 430.833 297.267 232.41
threshold=4.5000000000000009 8.5000000000000018 6.5000000000000009 20.500000000000004 1.5000000000000002 23.07499980926514 7.5000000000000009
decision_type=2 2 2 2 2 2 2
left_child=1 2 5 4 -4 -1 -2
right_child=6 -3 3 -5 -6 -7 -8
leaf_value=0.09570921856374405 0.056644580305306447 -0.048614938870723497 0.23980991339220584 0.19901366367368054 -0.013217278389065602 -0.024824457129182839 -0.00021945651066073604
leaf_count=313 2615 3181 103 341 1637 5023 1713
internal_value=0 -0.14032 -0.0267503 0.284028 0.0146731 -0.147951 0.284484
internal_count=14926 10598 7417 2081 1740 5336 4328
shrinkage=0.12


Tree=6
num_leaves=8
num_cat=0
split_feature=2 0 8 8 8 2 8
split_gain=400.454 320.921 273.361 261.18 213.689 778.779 651.968
threshold=8.5000000000000018 1.0000000180025095e-35 68.694999694824233 6.7850000858306894 60.609998703002937 3.5000000000000004 65.024997711181655
decision_type=2 2 2 2 2 2 2
left_child=1 2 -1 -3 -5 6 -6
right_child=-2 3 -4 4 5 -7 -8
leaf_value=0.057998252098690972 -0.031771494598490602 0.34316013157367703 0.26959381689808581 -0.011866676893274541 0.9675813451020614 0.018818200266835002 0.030775241553783417
leaf_count=438 4491 33 110 5156 23 4655 20
internal_value=0 0.0923709 0.837265 0.0510842 0.0416785 0.19595 4.43215
internal_count=14926 10435 548 9887 9854 4698 43
shrinkage=0.12


Tree=7
num_leaves=8
num_cat=0
split_feature=1 2 2 8 2 0 8
split_gain=430.283 230.584 835.854 750.733 2513.88 443.784 611.087
threshold=4.5000000000000009 2.5000000000000004 4.5000000000000009 54.094999313354499 3.5000000000000004 10.500000000000002 66.344997406005874
decision_type=2 2 2 2 2 2 2
left_child=-1 -2 3 -3 -5 -6 -7
right_child=1 2 -4 4 5 6 -8
leaf_value=-0.014613187752044027 -0.036692502316606194 0.090449976582458472 0.014305237244062626 1.6447355997562407 -0.26151441752910615 0.47673966204011159 -0.11212033112843831
leaf_count=10598 632 528 3002 20 24 86 36
internal_value=0 0.252414 0.347862 1.33693 3.19185 1.75154 2.52481
internal_count=14926 4328 3696 694 166 146 122
shrinkage=0.12


Tree=8
num_leaves=8
num_cat=0
split_feature=1 3 2 2 7 7 0
split_gain=333.211 191.973 238.404 880.817 212.639 673.753 211.234
threshold=4.5000000000000009 1.0000000180025095e-35 2.5000000000000004 4.5000000000000009 0.54500001668930065 0.20499999821186068 6.5000000000000009
decision_type=2 2 2 2 2 2 2
left_child=-1 2 -2 4 5 -4 -5
right_child=1 -3 3 6 -6 -7 -8
leaf_value=-0.012859604166074392 -0.032289401100406165 -0.048471707773479547 0.1633284205905825 0.10395420194010843 -0.06806436583399772 0.72140654509717761 0.0040384973036753855
leaf_count=10598 632 440 556 352 48 33 2267
internal_value=0 0.222125 0.292974 0.402071 1.4567 1.62163 0.145562
internal_count=14926 4328 3888 3256 637 589 2619
shrinkage=0.12


Tree=9
num_leaves=8
num_cat=0
split_feature=2 0 2 8 8 2 8
split_gain=287.023 245.967 223.092 208.516 189.035 529.288 460.15
threshold=8.5000000000000018 1.0000000180025095e-35 6.5000000000000009 6.7850000858306894 60.609998703002937 3.5000000000000004 65.024997711181655
decision_type=2 2 2 2 2 2 2
left_child=1 2 -1 -3 -5 6 -6
right_child=-2 3 -4 4 5 -7 -8
leaf_value=0.042227558403248246 -0.026599065458766603 0.30648519423874943 0.21618429726843411 -0.011527975358710536 0.80688474655151365 0.017877958047786923 0.01986382645368576
leaf_count=404 4491 33 144 5156 23 4655 20
internal_value=0 0.080693 0.732823 0.0445478 0.0361438 0.181243 3.67357
internal_count=14926 10435 548 9887 9854 4698 43
shrinkage=0.12


Tree=10
num_leaves=8
num_cat=0
split_feature=1 3 2 2 0 2 2
split_gain=242.638 214.073 239.282 931.232 193.994 156.383 155.917
threshold=4.5000000000000009 1.0000000180025095e-35 2.5000000000000004 4.5000000000000009 6.5000000000000009 4.5000000000000009 1.5000000000000002
decision_type=2 2 2 2 2 2 2
left_child=-1 2 6 -4 -5 -3 -2
right_child=1 5 3 4 -6 -7 -8
leaf_value=-0.011303424644824044 0.021786893494427202 -0.23575820678472517 0.17257695484017832 0.098003205869111917 -5.4099985494019172e-05 -0.027970019213687209 -0.09832199103761427
leaf_count=10579 320 60 654 333 2278 399 303
internal_value=0 0.186435 0.262683 0.371049 0.103766 -0.459432 -0.30524
internal_count=14926 4347 3888 3265 2611 459 623
shrinkage=0.12


Tree=11
num_leaves=8
num_cat=0
split_feature=2 8 1 2 0 0 8
split_gain=218.886 213.658 398.565 178.248 510.65 216.171 199.355
threshold=8.5000000000000018 32.545000076293952 4.5000000000000009 6.5000000000000009 20.500000000000004 5.5000000000000009 64.354999542236342
decision_type=2 2 2 2 2 2 2
left_child=3 2 -2 -1 5 -5 -6
right_child=1 -3 -4 4 6 -7 -8
leaf_value=-0.0015545436069497823 -0.021257637159691915 -0.034025773233676102 0.18884274977830148 0.13856220278327025 -0.058920788847166915 0.0015981303002085723 0.17898843085116681
leaf_count=7537 432 3856 186 179 58 2274 404
internal_value=0 -0.196062 0.349804 0.0682597 0.278247 0.0966055 1.24268
internal_count=14926 4474 618 10452 2915 2453 462
shrinkage=0.12


Tree=12
num_leaves=8
num_cat=0
split_feature=1 3 2 2 8 2 8
split_gain=174.323 172.639 181.387 730.882 1557.11 639.929 2366.86
threshold=4.5000000000000009 1.0000000180025095e-35 2.5000000000000004 4.5000000000000009 41.82500076293946 3.5000000000000004 54.625000000000007
decision_type=2 2 2 2 2 2 2
left_child=-1 2 -2 4 -4 6 -6
right_child=1 -3 3 -5 5 -7 -8
leaf_value=-0.0094714238532031918 -0.032046823078709652 -0.050527966517248966 -0.021575069498142294 0.010196140916673492 0.23134842802496516 0.25412974943442546 1.7716176284551619
leaf_count=10579 623 459 348 2611 51 235 20
internal_value=0 0.158937 0.22741 0.32176 1.26712 2.91263 5.54356
internal_count=14926 4347 3888 3265 654 306 71
shrinkage=0.12


Tree=13
num_leaves=8
num_cat=0
split_feature=2 8 1 8 2 3 2
split_gain=162.223 166.068 361.557 408.597 149.951 150.668 120.529
threshold=8.5000000000000018 29.994999885559086 5.5000000000000009 25.535000801086429 6.5000000000000009 1.0000000180025095e-35 4.5000000000000009
decision_type=2 2 2 2 2 2 2
left_child=4 2 -2 -4 5 6 -1
right_child=1 -3 3 -5 -6 -7 -8
leaf_value=0.015140722759051019 0.010748824680723796 -0.027572378008492042 0.69764542862176893 0.011566690206527709 0.030277456885034387 -0.062009522988047412 -0.017476316623682236
leaf_count=4385 369 4055 25 25 2915 554 2598
internal_value=0 -0.167839 0.431516 2.95505 0.0597127 -0.0147767 0.0250473
internal_count=14926 4474 419 50 10452 7537 6983
shrinkage=0.12


Tree=14
num_leaves=8
num_cat=0
split_feature=8 1 8 0 2 2 0
split_gain=142.713 130.601 132.85 267.239 198.691 344.073 186.658
threshold=6.7850000858306894 4.5000000000000009 64.125000000000014 20.500000000000004 8.5000000000000018 6.5000000000000009 18.500000000000004
decision_type=2 2 2 2 2 2 2
left_child=-1 2 6 -4 5 -5 -2
right_child=1 -3 3 4 -6 -7 -8
leaf_value=0.18078570092878035 -0.0069184339743171832 0.015895294873629198 -0.0033809579791906474 -0.033018873378412042 -0.072381407558248276 0.20066314430847709 -0.052144653828938799
leaf_count=62 4868 4328 3364 134 89 281 1800
internal_value=0 -0.0137907 -0.0738682 0.0735659 0.752643 1.04341 -0.159392
internal_count=14926 14864 10536 3868 504 415 6668
shrinkage=0.12


Tree=15
num_leaves=8
num_cat=0
split_feature=2 8 8 2 8 1 1
split_gain=144.871 190.604 186.298 998.972 906.102 1168.19 1188.8
threshold=8.5000000000000018 10.940000057220461 59.864999771118171 4.5000000000000009 65.475002288818374 4.5000000000000009 5.5000000000000009
decision_type=2 2 2 2 2 2 2
left_child=1 -1 -3 4 5 -4 -7
right_child=-2 2 3 -5 -6 6 -8
leaf_value=0.18683497297209362 -0.016816137035555661 -0.0083382715042171728 0.17584736732393502 0.011457721247787395 0.021093618529183521 1.4421114205036845 0.32613184849421184
leaf_count=86 4512 5272 80 4795 126 28 27
internal_value=0 0.0743858 0.0620406 0.199186 2.10441 3.90447 7.45222
internal_count=14926 10414 10328 5056 261 135 55
shrinkage=0.12


Tree=16
num_leaves=8
num_cat=0
split_feature=0 0 8 2 8 8 1
split_gain=204.621 292.734 163.245 944.768 835.837 685.124 360.125
threshold=8.5000000000000018 13.500000000000002 59.864999771118171 4.5000000000000009 65.024997711181655 62.905000686645515 2.5000000000000004
decision_type=2 2 2 2 2 2 2
left_child=-1 -2 -3 4 5 6 -4
right_child=1 2 3 -5 -6 -7 -8
leaf_value=0.027839028230656034 -0.033150128902186209 -0.0088552853112783027 -0.046510410360668018 0.012090522355339984 0.044904893851012324 1.0208174067158853 0.58932810680619596
leaf_count=3212 3910 4235 23 3397 89 31 29
internal_value=0 -0.0529174 0.0589783 0.216527 2.50304 4.78575 2.56743
internal_count=14926 11714 7804 3569 172 83 52
shrinkage=0.12


Tree=17
num_leaves=8
num_cat=0
split_feature=0 0 8 2 0 1 2
split_gain=162.424 315.719 128.652 790.487 126.626 164.924 125.756
threshold=9.5000000000000018 13.500000000000002 62.905000686645515 3.5000000000000004 18.500000000000004 4.5000000000000009 4.5000000000000009
decision_type=2 2 2 2 2 2 2
left_child=-1 -2 4 -4 -3 -6 -5
right_child=1 2 3 6 5 -7 -8
leaf_value=0.021592830427576995 -0.038899149648275733 0.015225584305181171 0.74155632084066214 0.15357766712198451 -0.044406064307990191 0.023231834674284593 0.015494631524641173
leaf_count=3995 3127 2090 22 98 1785 732 3077
internal_value=0 -0.0556776 0.0519009 0.206031 -0.0550569 -0.206129 0.164639
internal_count=14926 10931 7804 3197 4607 2517 3175
shrinkage=0.12


Tree=18
num_leaves=8
num_cat=0
split_feature=0 8 8 8 2 8 8
split_gain=132.606 104.833 82.6432 99.2608 77.1633 302.314 143.719
threshold=1.0000000180025095e-35 6.7850000858306894 66.125000000000014 23.07499980926514 4.5000000000000009 44.215000152587898 50.034999847412116
decision_type=2 2 2 2 2 2 2
left_child=2 -2 3 -1 5 -5 -7
right_child=1 -3 -4 4 -6 6 -8
leaf_value=0.20834945797920226 0.15383011441076955 -0.0025521250128852061 0.12221055937123435 -0.011269218885168738 -0.017808429717116957 0.52578318962684034 0.11856120586395263
leaf_count=41 62 14089 173 147 364 26 24
internal_value=0 -0.015558 0.409266 0.23421 0.124435 0.628564 2.75264
internal_count=14926 14151 775 602 561 197 50
shrinkage=0.12


Tree=19
num_leaves=8
num_cat=0
split_feature=0 0 8 2 8 8 1
split_gain=112.843 244.595 100.646 618.875 682.128 504.93 173.65
threshold=9.5000000000000018 13.500000000000002 59.864999771118171 4.5000000000000009 65.024997711181655 61.635000228881843 4.5000000000000009
decision_type=2 2 2 2 2 2 2
left_child=-1 -2 -3 4 5 -4 -7
right_child=1 2 3 -5 -6 6 -8
leaf_value=0.017945544111590193 -0.033979007565537164 -0.0067689945743525885 0.17574035186033982 0.009341981751070606 0.011879878111099928 0.50762585824728013 0.98639263182878489
leaf_count=3995 3127 4235 39 3397 89 20 24
internal_value=0 -0.0468448 0.0478442 0.171551 2.02215 4.08432 6.40643
internal_count=14926 10931 7804 3569 172 83 44
shrinkage=0.12


end of trees

feature importances:
Column_2=49
Column_8=44
Column_0=23
Column_1=17
Column_3=5
Column_7=2

parameters:
[boosting: gbdt]
[objective: regression]
[metric: rmse]
[tree_learner: serial]
[device_type: cpu]
[data: ]
[valid: ]
[num_iterations: 100]
[learning_rate: 0.12]
[num_leaves: 8]
[num_threads: 0]
[max_depth: -1]
[min_data_in_leaf: 20]
[min_sum_hessian_in_leaf: 0.001]
[bagging_fraction: 0.8]
[bagging_freq: 5]
[bagging_seed: 3]
[feature_fraction: 0.9]
[feature_fraction_seed: 2]
[early_stopping_round: 0]
[max_delta_step: 0]
[lambda_l1: 0]
[lambda_l2: 0]
[min_gain_to_split: 0]
[drop_rate: 0.1]
[max_drop: 50]
[skip_drop: 0.5]
[xgboost_dart_mode: 0]
[uniform_drop: 0]
[drop_seed: 4]
[top_rate: 0.2]
[other_rate: 0.1]
[min_data_per_group: 100]
[max_cat_threshold: 32]
[cat_l2: 10]
[cat_smooth: 10]
[max_cat_to_onehot: 4]
[top_k: 20]
[monotone_constraints: ]
[feature_contri: ]
[forcedsplits_filename: ]
[refit_decay_rate: 0.9]
[verbosity: 0]
[max_bin: 255]
[min_data_in_bin: 3]
[bin_construct_sample_cnt: 200000]
[histogram_pool_size: -1]
[data_random_seed: 1]
[output_model: LightGBM_model.txt]
[snapshot_freq: -1]
[input_model: ]
[output_result: LightGBM_predict_result.txt]
[initscore_filename: ]
[valid_data_initscores: ]
[pre_partition: 0]
[enable_bundle: 1]
[max_conflict_rate: 0]
[is_enable_sparse: 1]
[sparse_threshold: 0.8]
[use_missing: 1]
[zero_as_missing: 0]
[two_round: 0]
[save_binary: 0]
[enable_load_from_binary_file: 1]
[header: 0]
[label_column: ]
[weight_column: ]
[group_column: ]
[ignore_column: ]
[categorical_feature: ]
[predict_raw_score: 0]
[predict_leaf_index: 0]
[predict_contrib: 0]
[num_iteration_predict: -1]
[pred_early_stop: 0]
[pred_early_stop_freq: 10]
[pred_early_stop_margin: 10]
[convert_model_language: ]
[convert_model: gbdt_prediction.cpp]
[num_class: 1]
[is_unbalance: 0]
[scale_pos_weight: 1]
[sigmoid: 1]
[boost_from_average: 1]
[reg_sqrt: 0]
[alpha: 0.9]
[fair_c: 1]
[poisson_max_delta_step: 0.7]
[tweedie_variance_power: 1.5]
[max_position: 20]
[label_gain: ]
[metric_freq: 1]
[is_provide_training_metric: 0]
[eval_at: ]
[num_machines: 1]
[local_listen_port: 12400]
[time_out: 120]
[machine_list_filename: ]
[machines: ]
[gpu_platform_id: -1]
[gpu_device_id: -1]
[gpu_use_dp: 0]

end of parameters

pandas_categorical:null
