tree
version=v2
num_class=1
num_tree_per_iteration=1
label_index=0
max_feature_idx=8
objective=regression
feature_names=Column_0 Column_1 Column_2 Column_3 Column_4 Column_5 Column_6 Column_7 Column_8
feature_infos=[0:23] [0:6] [1:12] [0:2] none [0:1] [0:1] [0:1] [-10.029999732971191:95.80999755859375]
tree_sizes=696 705 712 708 713 714 714 715 714 716 720 722 719 714 719 712 712 712 721 721

Tree=0
num_leaves=8
num_cat=0
split_feature=0 8 2 2 2 7 8
split_gain=14691.5 10015.3 3551.68 1368.5 2520.96 891.693 885.216
threshold=5.5000000000000009 44.43499946594239 11.500000000000002 9.5000000000000018 2.5000000000000004 0.98500001430511486 49.924999237060554
decision_type=2 2 2 2 2 2 2
left_child=-1 3 -3 4 -2 -5 -4
right_child=1 2 6 5 -6 -7 -8
leaf_value=3.4172347939151981 3.2016575658786328 2.9438947638869992 3.325271578287798 3.2418030752839653 3.0013815826177681 3.9506561954003754 4.0438476843860123
leaf_count=1514 2187 9427 52 1491 1544 26 47
internal_value=0 -0.273551 -0.884669 0.835729 0.510112 1.63657 5.07375
internal_count=16288 14774 9526 5248 3731 1517 99
shrinkage=1


Tree=1
num_leaves=8
num_cat=0
split_feature=0 8 2 1 0 0 2
split_gain=11467.2 7161.77 2492.39 2249.5 2067.75 2386.76 1105
threshold=6.5000000000000009 44.43499946594239 11.500000000000002 4.5000000000000009 5.5000000000000009 1.5000000000000002 9.5000000000000018
decision_type=2 2 2 2 2 2 2
left_child=3 6 -3 4 5 -1 -2
right_child=1 2 -4 -5 -6 -7 -8
leaf_value=0.23403240285021193 0.042714089630861721 -0.10756774540142026 0.50399276578088403 0.05685489010490194 0.14391002883254295 0.5897919611309792 0.1684401981213714
leaf_count=517 3482 8969 97 632 603 572 1416
internal_value=0 -0.315481 -0.841871 2.08357 2.68486 3.50747 0.658843
internal_count=16288 13964 9066 2324 1692 1089 4898
shrinkage=0.12


Tree=2
num_leaves=8
num_cat=0
split_feature=8 2 1 8 2 2 2
split_gain=7202.52 2053.83 1082.59 840.186 650.885 2016.62 646.774
threshold=44.43499946594239 11.500000000000002 3.5000000000000004 49.924999237060554 2.5000000000000004 4.5000000000000009 9.5000000000000018
decision_type=2 2 2 2 2 2 2
left_child=4 6 -3 -4 -1 -6 -2
right_child=1 2 3 -5 5 -7 -8
leaf_value=0.15650721299615131 -0.074453872028841503 0.050922901572193945 0.35553433758871894 1.2771042108535766 -0.017577416145072227 0.16559140190662155 0.013802078114060453
leaf_count=2427 8912 48 28 29 1704 1759 1381
internal_value=0 -0.476884 3.92344 6.87003 0.90714 0.628846 -0.521772
internal_count=16288 10398 105 57 5890 3463 10293
shrinkage=0.12


Tree=3
num_leaves=8
num_cat=0
split_feature=0 8 1 0 0 2 1
split_gain=8823.16 4235.63 1741.16 1609.43 1841.16 1496.2 737.462
threshold=6.5000000000000009 44.43499946594239 4.5000000000000009 5.5000000000000009 1.5000000000000002 11.500000000000002 3.5000000000000004
decision_type=2 2 2 2 2 2 2
left_child=2 -2 3 4 -1 -3 -7
right_child=1 5 -4 -5 -6 6 -8
leaf_value=0.20543390542672266 0.056376911289670512 -0.087185817230092014 0.049035255797678909 0.12518760430130793 0.51789639556897682 0.023505857641046696 0.68812466443709597
leaf_count=517 4898 8969 632 603 572 44 53
internal_value=0 -0.279487 1.82489 2.35389 3.07963 -0.684301 3.22207
internal_count=16288 13964 2324 1692 1089 9066 97
shrinkage=0.12


Tree=4
num_leaves=8
num_cat=0
split_feature=8 2 1 8 8 2 7
split_gain=4470.93 1259.36 671.703 653.564 560.138 482.665 538.128
threshold=44.204999923706062 11.500000000000002 3.5000000000000004 49.924999237060554 36.085000991821296 9.5000000000000018 0.99500000476837169
decision_type=2 2 2 2 2 2 2
left_child=4 5 -3 -4 -1 -2 -7
right_child=1 2 3 -5 -6 6 -8
leaf_value=0.11685187010918396 -0.059190685932283785 0.038029315993189809 0.23376376467091697 1.0465657698697057 0.040914207860425052 0.0023070087772331486 0.40708558621455215
leaf_count=3493 8949 48 28 29 2333 1359 49
internal_value=0 -0.372693 3.07311 5.39412 0.720358 -0.407627 0.136615
internal_count=16288 10462 105 57 5826 10357 1408
shrinkage=0.12


Tree=5
num_leaves=8
num_cat=0
split_feature=0 8 1 0 0 2 2
split_gain=6804.02 2784.56 1905.64 1887.74 1173.6 1067.66 975.132
threshold=5.5000000000000009 40.23500061035157 4.5000000000000009 1.5000000000000002 1.0000000180025095e-35 9.5000000000000018 11.500000000000002
decision_type=2 2 2 2 2 2 2
left_child=2 -2 3 -1 -4 -3 -5
right_child=1 5 4 6 -6 -7 -8
leaf_value=0.16362685476887154 0.055611327384293543 -0.075824504439959459 0.2261857430083411 0.44419378353131783 -0.17794012145084492 0.026947353908980853 1.1169643282890318
leaf_count=507 4342 8727 210 518 204 1747 33
internal_value=0 -0.209896 2.04433 2.75607 0.225427 -0.489023 4.03739
internal_count=16288 14816 1472 1058 414 10474 551
shrinkage=0.12


Tree=6
num_leaves=8
num_cat=0
split_feature=0 8 7 2 2 7 7
split_gain=5312.11 1945.78 902.634 1595.07 748.419 754.805 956.817
threshold=6.5000000000000009 38.704999923706062 0.99500000476837169 9.5000000000000018 11.500000000000002 0.36500000953674322 0.45499999821186071
decision_type=2 2 2 2 2 2 2
left_child=4 -2 -3 -4 5 -1 -7
right_child=1 2 3 -5 -6 6 -8
leaf_value=0.12757851190243999 0.047414701652388043 -0.060201003027922882 -0.004598626067652504 0.72473566199171136 0.44212754087646799 1.155199273109436 0.28345978214717515
leaf_count=1960 3607 10145 169 58 135 20 194
internal_value=0 -0.237533 -0.457547 1.51459 1.39973 1.25785 3.04109
internal_count=16288 13979 10372 227 2309 2174 214
shrinkage=0.12


Tree=7
num_leaves=8
num_cat=0
split_feature=0 8 1 0 2 0 2
split_gain=4331.83 1799.85 1471.69 1462.76 925.634 908.107 840.214
threshold=5.5000000000000009 50.454999923706062 4.5000000000000009 1.5000000000000002 2.5000000000000004 1.0000000180025095e-35 11.500000000000002
decision_type=2 2 2 2 2 2 2
left_child=2 -2 3 4 -1 -4 -3
right_child=1 6 5 -5 -6 -7 -8
leaf_value=0.47039776225748298 0.025921588364330179 -0.060959740371986058 0.17911456749907562 0.40616553337193223 0.047887353931302917 -0.17637370250680867 0.46485295431180435
leaf_count=91 6705 8067 210 551 416 204 44
internal_value=0 -0.167333 1.63133 2.25681 1.03102 0.032887 -0.484228
internal_count=16288 14816 1472 1058 507 414 8111
shrinkage=0.12


Tree=8
num_leaves=8
num_cat=0
split_feature=0 2 2 7 1 0 1
split_gain=3354.57 1565.62 2205.59 1488.49 1139.68 1132.76 1064.21
threshold=5.5000000000000009 2.5000000000000004 10.500000000000002 0.99500000476837169 4.5000000000000009 1.5000000000000002 3.5000000000000004
decision_type=2 2 2 2 2 2 2
left_child=4 -2 -3 -4 5 -1 -5
right_child=1 2 3 6 -6 -7 -8
leaf_value=0.10887584985184247 0.06724083340094128 -0.057554042895889709 0.063768168007604084 0.20786073950584977 0.0034728575897389562 0.35742566871772874 1.2308341021007962
leaf_count=507 2582 10317 1858 32 414 551 27
internal_value=0 -0.147253 -0.296591 0.688425 1.43557 1.98599 5.63334
internal_count=16288 14816 12234 1917 1472 1058 59
shrinkage=0.12


Tree=9
num_leaves=8
num_cat=0
split_feature=0 2 2 7 2 7 8
split_gain=2752.05 1170.24 1695.25 1270.96 561.525 573.596 811.067
threshold=6.5000000000000009 2.5000000000000004 9.5000000000000018 0.99500000476837169 11.500000000000002 0.36500000953674322 34.98500061035157
decision_type=2 2 2 2 2 2 2
left_child=4 -2 -3 -4 5 -1 -7
right_child=1 2 3 -5 -6 6 -8
leaf_value=0.085808956597722613 0.055069070869065422 -0.062386809504753032 0.032265155137096123 0.55750692044987404 0.35839713708559667 1.0009434763874325 0.21565706233875198
leaf_count=1960 2437 8756 2718 68 135 21 193
internal_value=0 -0.170761 -0.303711 0.375709 1.00769 0.884802 2.43932
internal_count=16288 13979 11542 2786 2309 2174 214
shrinkage=0.12


Tree=10
num_leaves=8
num_cat=0
split_feature=0 2 2 1 0 0 2
split_gain=1945.46 974.776 1516.91 813.458 796.261 561.252 526.266
threshold=5.5000000000000009 2.5000000000000004 9.5000000000000018 4.5000000000000009 1.5000000000000002 1.0000000180025095e-35 1.5000000000000002
decision_type=2 2 2 2 2 2 2
left_child=3 -2 -3 4 -1 -5 -6
right_child=1 2 -4 5 6 -7 -8
leaf_value=0.071794963463379741 0.050685695562912685 -0.054488222250915479 0.044504442086370929 0.12115678009680574 0.6306636111844669 -0.15468158729053569 0.24047340284563773
leaf_count=509 2564 9277 2934 216 55 209 524
internal_value=0 -0.138157 -0.255856 1.05243 1.51071 -0.120757 2.31282
internal_count=16288 14775 12211 1513 1088 425 579
shrinkage=0.12


Tree=11
num_leaves=8
num_cat=0
split_feature=0 8 1 0 2 0 2
split_gain=1506.57 891.268 629.942 616.625 452.999 434.634 410.938
threshold=5.5000000000000009 32.065000534057624 4.5000000000000009 1.5000000000000002 9.5000000000000018 1.0000000180025095e-35 2.5000000000000004
decision_type=2 2 2 2 2 2 2
left_child=2 -2 3 6 -3 -4 -1
right_child=1 4 5 -5 -6 -7 -8
leaf_value=0.28973289878444464 0.05840704551406424 -0.037436603626051862 0.10661796429091029 0.24423353391221767 0.020414879740937961 -0.13611980423259964 0.011863871804202895
leaf_count=94 2071 10300 216 579 2404 209 415
internal_value=0 -0.121578 0.92614 1.32942 -0.220744 -0.106266 0.526496
internal_count=16288 14775 1513 1088 12704 425 509
shrinkage=0.12


Tree=12
num_leaves=8
num_cat=0
split_feature=2 2 8 8 1 1 8
split_gain=1031.19 862.297 626.303 529.642 497.233 917.536 456.22
threshold=2.5000000000000004 9.5000000000000018 18.82499980926514 12.960000038146974 4.5000000000000009 1.0000000180025095e-35 31.755000114440922
decision_type=2 2 2 2 2 2 2
left_child=2 -2 4 -3 5 -1 -5
right_child=1 3 -4 6 -6 -7 -8
leaf_value=-0.073175885911498748 -0.033451264681984338 -0.32474656914409833 0.044385584937904878 0.14509745102896038 -0.0066902444691493588 0.50097004318490945 0.023687645077537664
leaf_count=56 10237 57 2552 537 87 141 2621
internal_value=0 -0.136875 0.526648 0.31491 1.93535 2.81468 0.369439
internal_count=16288 13452 2836 3215 284 197 3158
shrinkage=0.12


Tree=13
num_leaves=8
num_cat=0
split_feature=2 2 8 7 1 1 8
split_gain=798.55 667.763 490.939 454.34 410.495 718.219 391.79
threshold=2.5000000000000004 9.5000000000000018 17.82499980926514 0.99500000476837169 1.0000000180025095e-35 4.5000000000000009 12.960000038146974
decision_type=2 2 2 2 2 2 2
left_child=2 -2 4 6 -1 -6 -3
right_child=1 3 -4 -5 5 -7 -8
leaf_value=-0.081751731984755577 -0.029437110528837143 -0.28577699388328354 0.040467802751228403 0.31209418917574533 0.48897732157292573 0.0077190741855804228 0.031732967220820842
leaf_count=51 10237 57 2597 82 115 73 3076
internal_value=0 -0.12045 0.46345 0.27712 1.83496 2.51755 0.216303
internal_count=16288 13452 2836 3215 239 188 3133
shrinkage=0.12


Tree=14
num_leaves=8
num_cat=0
split_feature=0 0 1 8 2 7 8
split_gain=1180.86 574.871 511.628 489.244 419.412 397.87 1008.56
threshold=6.5000000000000009 7.5000000000000009 4.5000000000000009 36.085000991821296 2.5000000000000004 0.81499999761581432 34.475000381469734
decision_type=2 2 2 2 2 2 2
left_child=2 -2 4 5 -1 -3 -7
right_child=1 3 -4 -5 -6 6 -8
leaf_value=0.23936792152225228 -0.11349796273210777 0.031655310149370751 -0.015266317535402639 -0.0206180799580277 0.083377229153004218 0.96757891644131044 -0.19506055052791321
leaf_count=301 808 2519 636 10566 1415 22 21
internal_value=0 -0.127145 0.638886 -0.0767573 0.922827 0.315282 3.33149
internal_count=16288 13936 2352 13128 1716 2562 43
shrinkage=0.12


Tree=15
num_leaves=8
num_cat=0
split_feature=2 8 1 1 8 1 7
split_gain=839.859 943.63 957.805 1238.55 863.062 490.646 471.199
threshold=11.500000000000002 18.82499980926514 4.5000000000000009 2.5000000000000004 21.295000076293949 3.5000000000000004 0.034999999217689044
decision_type=2 2 2 2 2 2 2
left_child=1 2 3 -1 -2 -5 -6
right_child=4 -3 -4 5 6 -7 -8
leaf_value=0.091588032553935869 -0.16854740266114063 -0.013290982897118048 -0.092882052019491179 0.92205556169469305 0.18308345912652566 0.39405415209856898 -0.054935786030583182
leaf_count=145 146 14865 123 47 765 55 142
internal_value=0 -0.0714939 1.50598 2.64136 0.851931 5.31124 1.21516
internal_count=16288 15235 370 247 1053 102 907
shrinkage=0.12


Tree=16
num_leaves=8
num_cat=0
split_feature=0 2 8 8 1 1 1
split_gain=1844.54 607.81 835.053 600.483 612.507 785.958 508.323
threshold=5.5000000000000009 11.500000000000002 23.365000724792484 17.82499980926514 4.5000000000000009 2.5000000000000004 5.5000000000000009
decision_type=2 2 2 2 2 2 2
left_child=6 3 -3 4 5 -2 -1
right_child=1 2 -4 -5 -6 -7 -8
leaf_value=0.15276331215765232 0.061725821765986351 -0.18194613138437268 0.12626186877911685 -0.024091322781915375 -0.090374854031362029 0.56925349892694732 -0.052260748588327154
leaf_count=1303 99 150 811 13550 95 79 201
internal_value=0 -0.117714 0.651287 -0.171177 1.2972 2.39147 1.04469
internal_count=16288 14784 961 13823 273 178 1504
shrinkage=0.12


Tree=17
num_leaves=8
num_cat=0
split_feature=0 2 8 8 0 1 1
split_gain=1428.41 470.688 650.48 479.226 585.62 393.645 355.956
threshold=5.5000000000000009 11.500000000000002 21.875000000000004 19.664999961853031 21.500000000000004 5.5000000000000009 3.5000000000000004
decision_type=2 2 2 2 2 2 2
left_child=5 3 -3 4 -2 -1 -6
right_child=1 2 -4 -5 6 -7 -8
leaf_value=0.13443171334593734 0.057809907082921955 -0.17973178869440354 0.10799824682955282 -0.021729945459199786 0.78424552412969717 -0.045989454426427386 0.13068088190896168
leaf_count=1303 311 131 830 13463 28 201 21
internal_value=0 -0.103589 0.573133 -0.150636 0.988011 0.91933 4.20122
internal_count=16288 14784 961 13823 360 1504 49
shrinkage=0.12


Tree=18
num_leaves=8
num_cat=0
split_feature=0 7 3 1 2 1 2
split_gain=1106.16 489.207 358.475 307.075 306.106 691.144 269.378
threshold=5.5000000000000009 0.99500000476837169 1.0000000180025095e-35 5.5000000000000009 10.500000000000002 3.5000000000000004 11.500000000000002
decision_type=2 2 2 2 2 2 2
left_child=2 6 3 -1 -3 -6 -2
right_child=1 4 -4 -5 5 -7 -8
leaf_value=0.13315574047577081 -0.018338994182267011 0.082332419014833069 -0.14532559032181658 -0.030750157645364339 -0.018274855798688427 0.81756853171757293 0.048189349550765759
leaf_count=1231 13555 235 83 190 29 28 937
internal_value=0 -0.091158 0.80901 0.927001 1.19036 3.26929 -0.116979
internal_count=16288 14784 1504 1421 292 57 14492
shrinkage=0.12


Tree=19
num_leaves=8
num_cat=0
split_feature=0 0 1 2 2 2 8
split_gain=866.909 302.944 473.35 353.111 285.941 250.926 397.371
threshold=6.5000000000000009 7.5000000000000009 4.5000000000000009 9.5000000000000018 2.5000000000000004 9.5000000000000018 10.574999809265138
decision_type=2 2 2 2 2 2 2
left_child=4 2 -2 -4 -1 6 -3
right_child=1 5 3 -5 -6 -7 -8
leaf_value=0.15916605313656043 -0.1364264621619807 0.27325519233942031 0.0064526556440571824 0.43924175620079037 0.047832934932244803 0.025833787940223257 -0.017767089132215648
leaf_count=402 610 68 179 32 1913 2582 10502
internal_value=0 -0.100978 -0.69031 0.600741 0.559716 -0.0641891 -0.132457
internal_count=16288 13973 821 211 2315 13152 10570
shrinkage=0.12


end of trees

feature importances:
Column_2=41
Column_0=31
Column_8=28
Column_1=27
Column_7=12
Column_3=1

parameters:
[boosting: gbdt]
[objective: regression]
[metric: rmse]
[tree_learner: serial]
[device_type: cpu]
[data: ]
[valid: ]
[num_iterations: 100]
[learning_rate: 0.12]
[num_leaves: 8]
[num_threads: 0]
[max_depth: -1]
[min_data_in_leaf: 20]
[min_sum_hessian_in_leaf: 0.001]
[bagging_fraction: 0.8]
[bagging_freq: 5]
[bagging_seed: 3]
[feature_fraction: 0.9]
[feature_fraction_seed: 2]
[early_stopping_round: 0]
[max_delta_step: 0]
[lambda_l1: 0]
[lambda_l2: 0]
[min_gain_to_split: 0]
[drop_rate: 0.1]
[max_drop: 50]
[skip_drop: 0.5]
[xgboost_dart_mode: 0]
[uniform_drop: 0]
[drop_seed: 4]
[top_rate: 0.2]
[other_rate: 0.1]
[min_data_per_group: 100]
[max_cat_threshold: 32]
[cat_l2: 10]
[cat_smooth: 10]
[max_cat_to_onehot: 4]
[top_k: 20]
[monotone_constraints: ]
[feature_contri: ]
[forcedsplits_filename: ]
[refit_decay_rate: 0.9]
[verbosity: 0]
[max_bin: 255]
[min_data_in_bin: 3]
[bin_construct_sample_cnt: 200000]
[histogram_pool_size: -1]
[data_random_seed: 1]
[output_model: LightGBM_model.txt]
[snapshot_freq: -1]
[input_model: ]
[output_result: LightGBM_predict_result.txt]
[initscore_filename: ]
[valid_data_initscores: ]
[pre_partition: 0]
[enable_bundle: 1]
[max_conflict_rate: 0]
[is_enable_sparse: 1]
[sparse_threshold: 0.8]
[use_missing: 1]
[zero_as_missing: 0]
[two_round: 0]
[save_binary: 0]
[enable_load_from_binary_file: 1]
[header: 0]
[label_column: ]
[weight_column: ]
[group_column: ]
[ignore_column: ]
[categorical_feature: ]
[predict_raw_score: 0]
[predict_leaf_index: 0]
[predict_contrib: 0]
[num_iteration_predict: -1]
[pred_early_stop: 0]
[pred_early_stop_freq: 10]
[pred_early_stop_margin: 10]
[convert_model_language: ]
[convert_model: gbdt_prediction.cpp]
[num_class: 1]
[is_unbalance: 0]
[scale_pos_weight: 1]
[sigmoid: 1]
[boost_from_average: 1]
[reg_sqrt: 0]
[alpha: 0.9]
[fair_c: 1]
[poisson_max_delta_step: 0.7]
[tweedie_variance_power: 1.5]
[max_position: 20]
[label_gain: ]
[metric_freq: 1]
[is_provide_training_metric: 0]
[eval_at: ]
[num_machines: 1]
[local_listen_port: 12400]
[time_out: 120]
[machine_list_filename: ]
[machines: ]
[gpu_platform_id: -1]
[gpu_device_id: -1]
[gpu_use_dp: 0]

end of parameters

pandas_categorical:null
