tree
version=v2
num_class=1
num_tree_per_iteration=1
label_index=0
max_feature_idx=8
objective=regression
feature_names=Column_0 Column_1 Column_2 Column_3 Column_4 Column_5 Column_6 Column_7 Column_8
feature_infos=[0:23] [0:6] [1:12] [0:2] none [0:1] [0:1] [0:1] [-10.109999656677246:95.050003051757812]
tree_sizes=705 725 710 727 707 719 722 725 726 727 721 732 713 709 722 710 713 713 724 718

Tree=0
num_leaves=8
num_cat=0
split_feature=0 8 2 0 0 2 7
split_gain=12905.8 4035.66 1187.7 966.443 770.761 765.421 721.355
threshold=1.0000000180025095e-35 43.274999618530281 11.500000000000002 21.500000000000004 19.500000000000004 4.5000000000000009 0.99500000476837169
decision_type=2 2 2 2 2 2 2
left_child=5 4 3 -3 -2 -1 -6
right_child=1 2 -4 -5 6 -7 -8
leaf_value=3.0299371716153733 2.402626237932477 2.2834278344928567 2.6247705080597949 2.4121353731402029 2.4969497548959083 2.7721496283356641 3.2232705007284235
leaf_count=261 4346 9153 160 925 1272 455 20
internal_value=0 -0.183868 -0.558015 -0.600931 0.495542 4.15639 1.17367
internal_count=16592 15876 10238 10078 5638 716 1292
shrinkage=1


Tree=1
num_leaves=8
num_cat=0
split_feature=0 8 1 1 1 0 8
split_gain=9994.29 3157.94 2169.46 1587.47 1777.73 1077.07 905.763
threshold=1.0000000180025095e-35 47.645000457763679 4.5000000000000009 5.5000000000000009 1.0000000180025095e-35 8.5000000000000018 61.854999542236335
decision_type=2 2 2 2 2 2 2
left_child=3 2 5 4 -1 -2 -6
right_child=1 -3 -4 -5 6 -7 -8
leaf_value=0.019051308043301102 -0.095736255362785225 -0.065284762032420396 0.15179702629960035 0.00052330402766957002 0.70049429665546703 0.033762888646658572 0.35732440908000151
leaf_count=90 1247 9153 1896 102 365 3580 159
internal_value=0 -0.161804 0.358589 3.65762 4.26452 0.00256894 4.9697
internal_count=16592 15876 6723 716 614 4827 524
shrinkage=0.12


Tree=2
num_leaves=8
num_cat=0
split_feature=8 1 2 1 8 2 2
split_gain=2977.62 1021.61 751.17 568.807 545.45 472.523 532.195
threshold=43.274999618530281 4.5000000000000009 11.500000000000002 3.5000000000000004 29.345000267028812 2.5000000000000004 11.500000000000002
decision_type=2 2 2 2 2 2 2
left_child=1 -1 -2 -4 5 -3 -7
right_child=2 4 3 -5 -6 6 -8
leaf_value=0.037591765990886039 -0.041570574274233413 0.35077841436376372 -0.043084386042186187 0.40772688703160531 0.10198097747337299 -0.06401075856875528 0.30510240024753982
leaf_count=4279 10500 294 70 95 1129 113 112
internal_value=0 0.570917 -0.313153 1.80395 1.23991 2.08842 0.997713
internal_count=16592 5927 10665 165 1648 519 225
shrinkage=0.12


Tree=3
num_leaves=8
num_cat=0
split_feature=0 8 1 1 2 1 0
split_gain=7720.63 1977.22 1244.55 1368.39 1048.51 1001.02 904.727
threshold=1.0000000180025095e-35 39.760000228881843 5.5000000000000009 1.0000000180025095e-35 11.500000000000002 4.5000000000000009 21.500000000000004
decision_type=2 2 2 2 2 2 2
left_child=2 5 3 -1 6 -2 -3
right_child=1 4 -4 -5 -6 -7 -8
leaf_value=0.017955843289693196 0.014008651157049282 -0.06123098397693566 -0.0024303051303414735 0.52446088514368949 0.1909597674762844 0.13799584427174164 0.057453148817314816
leaf_count=90 3371 9920 102 524 266 1299 1020
internal_value=0 -0.142529 3.21445 3.75181 -0.370348 0.404139 -0.418045
internal_count=16592 15876 716 614 11206 4670 10940
shrinkage=0.12


Tree=4
num_leaves=8
num_cat=0
split_feature=8 1 2 1 7 8 8
split_gain=1837.73 624.154 448.3 442.021 421.767 391.143 383.116
threshold=43.274999618530281 4.5000000000000009 11.500000000000002 4.5000000000000009 0.7749999761581422 29.345000267028812 21.884999275207523
decision_type=2 2 2 2 2 2 2
left_child=1 -1 -2 4 -4 6 -3
right_child=2 5 3 -5 -6 -7 -8
leaf_value=0.029651755302392259 -0.03260953182561057 0.09119740267740134 -0.071099323636673872 0.46038609006825615 0.5357645317912102 0.076929184911101123 0.29804568806739656
leaf_count=4279 10500 239 94 51 20 1129 280
internal_value=0 0.448487 -0.246045 1.38948 0.294733 0.97139 1.68993
internal_count=16592 5927 10665 165 114 1648 519
shrinkage=0.12


Tree=5
num_leaves=8
num_cat=0
split_feature=0 2 2 1 1 0 8
split_gain=6075.47 1420.5 1358.87 870.814 903.827 809.79 648.788
threshold=1.0000000180025095e-35 11.500000000000002 3.5000000000000004 1.0000000180025095e-35 4.5000000000000009 21.500000000000004 64.134998321533217
decision_type=2 2 2 2 2 2 2
left_child=3 2 -2 -1 6 -4 -5
right_child=1 -3 5 4 -6 -7 -8
leaf_value=-0.002102118037873879 0.02840028831119857 0.11009233567109582 -0.062894159577626368 0.56766451870902956 0.1809235634857958 0.049102991168755432 0.2210176602531882
leaf_count=96 4301 1151 9374 327 209 1032 102
internal_value=0 -0.15241 -0.236138 2.79043 3.21295 -0.431558 4.04371
internal_count=16592 15858 14707 734 638 10406 429
shrinkage=0.12


Tree=6
num_leaves=8
num_cat=0
split_feature=0 0 2 2 8 8 8
split_gain=4704.84 1167.02 999.268 986.131 476.209 379.21 327.423
threshold=1.0000000180025095e-35 21.500000000000004 11.500000000000002 2.5000000000000004 14.485000133514406 14.485000133514406 65.344997406005874
decision_type=2 2 2 2 2 2 2
left_child=6 2 3 4 -2 -4 -1
right_child=1 -3 5 -5 -6 -7 -8
leaf_value=0.33579842458987247 0.2447790227641522 0.080948162356535541 -0.21069237735764734 -0.051842887138585918 0.018633695442712591 0.10523992324603482 0.13848807261270635
leaf_count=581 142 1604 58 10684 2406 964 153
internal_value=0 -0.134121 -0.225122 -0.298706 0.260306 0.727586 2.45558
internal_count=16592 15858 14254 13232 2548 1022 734
shrinkage=0.12


Tree=7
num_leaves=8
num_cat=0
split_feature=0 0 1 0 0 8 8
split_gain=3643.43 903.741 775.227 1212.26 1173.48 751.397 810.593
threshold=1.0000000180025095e-35 21.500000000000004 4.5000000000000009 9.5000000000000018 7.5000000000000009 26.025000572204593 12.47499990463257
decision_type=2 2 2 2 2 2 2
left_child=-1 2 4 5 -2 6 -4
right_child=1 -3 3 -5 -6 -7 -8
leaf_value=0.25930933708758969 -0.12813576454852765 0.071234384264676195 -0.11426785102257361 -0.021995293286899913 -0.022295869199926825 0.084484166040065437 0.51358119858474272
leaf_count=734 1839 1604 39 2826 8393 1034 123
internal_value=0 -0.118026 -0.198108 0.17386 -0.344321 1.01777 3.02027
internal_count=16592 15858 14254 4022 10232 1196 162
shrinkage=0.12


Tree=8
num_leaves=8
num_cat=0
split_feature=0 2 2 1 1 2 0
split_gain=2821.47 854.958 857.816 673.249 708.408 462.977 381.623
threshold=1.0000000180025095e-35 11.500000000000002 3.5000000000000004 1.0000000180025095e-35 5.5000000000000009 6.5000000000000009 12.500000000000002
decision_type=2 2 2 2 2 2 2
left_child=3 2 -2 -1 5 -5 -4
right_child=1 -3 6 4 -6 -7 -8
leaf_value=-0.068083398770540954 0.024820555653767361 0.087135198775267833 -0.065539122858882595 0.43338343379880845 -0.017091596781769216 0.2099799334366802 -0.019073441205571227
leaf_count=96 4301 1151 4438 283 102 253 5968
internal_value=0 -0.103863 -0.16882 1.9016 2.27311 2.73278 -0.324086
internal_count=16592 15858 14707 734 638 536 10406
shrinkage=0.12


Tree=9
num_leaves=8
num_cat=0
split_feature=0 0 2 2 8 8 8
split_gain=2184.95 668.796 584.249 607.259 381.782 290.111 285.461
threshold=1.0000000180025095e-35 21.500000000000004 11.500000000000002 2.5000000000000004 14.485000133514406 41.795000076293952 14.485000133514406
decision_type=2 2 2 2 2 2 2
left_child=-1 2 3 4 -2 -3 -4
right_child=1 5 6 -5 -6 -7 -8
leaf_value=0.20080915076957573 0.21785635646380169 0.12645143304199266 -0.19037262769608662 -0.038540787600397149 0.015369607908395758 0.021772247402947774 0.083739168739093164
leaf_count=734 142 624 58 10684 2406 980 964
internal_value=0 -0.0913994 -0.160289 -0.216555 0.222118 0.520794 0.568191
internal_count=16592 15858 14254 13232 2548 1604 1022
shrinkage=0.12


Tree=10
num_leaves=8
num_cat=0
split_feature=0 2 2 1 1 7 7
split_gain=1140.5 649.162 627.344 608.045 569.34 482.633 476.354
threshold=1.5000000000000002 11.500000000000002 2.5000000000000004 5.5000000000000009 1.0000000180025095e-35 0.87500000000000011 0.99500000476837169
decision_type=2 2 2 2 2 2 2
left_child=3 2 -2 4 -1 -6 -3
right_child=1 6 -4 -5 5 -7 -8
leaf_value=-0.088930875083262265 0.040246185295547528 0.071748336974296847 -0.022651850186429713 -0.10471193286365475 0.21630970556833423 0.77803514490956849 0.56458873134748688
leaf_count=88 2825 1079 11912 116 520 23 29
internal_value=0 -0.0327884 -0.0882888 1.23163 1.61846 2.00086 0.705397
internal_count=16592 15845 14737 747 631 543 1108
shrinkage=0.12


Tree=11
num_leaves=8
num_cat=0
split_feature=0 8 1 1 1 0 8
split_gain=883.205 602.894 470.87 440.897 401.986 808.335 561.112
threshold=1.5000000000000002 29.345000267028812 5.5000000000000009 1.0000000180025095e-35 4.5000000000000009 12.500000000000002 50.444999694824226
decision_type=2 2 2 2 2 2 2
left_child=2 -2 3 -1 5 -3 -6
right_child=1 4 -4 -5 6 -7 -8
leaf_value=-0.078259170075709164 0.062107922660695446 -0.065652680259095181 -0.092146505108424301 0.21129051543237093 0.074556463801559128 0.0035849164162829461 -0.016950689095210275
leaf_count=88 1791 4096 116 543 1630 5963 2365
internal_value=0 -0.0288538 1.08383 1.42425 -0.0984879 -0.205071 0.169876
internal_count=16592 15845 747 631 14054 10059 3995
shrinkage=0.12


Tree=12
num_leaves=8
num_cat=0
split_feature=8 7 2 1 1 8 2
split_gain=469.765 317.853 359.423 351.62 299.214 331.086 372.693
threshold=36.895000457763679 0.99500000476837169 9.5000000000000018 3.5000000000000004 4.5000000000000009 12.47499990463257 2.5000000000000004
decision_type=2 2 2 2 2 2 2
left_child=4 -2 -3 -4 5 6 -1
right_child=1 2 3 -5 -6 -7 -8
leaf_value=0.35684675926813875 -0.012265175893689436 0.026508754849820942 0.036773556790700768 0.50105404430085954 0.090969600869654096 0.0090271769365535912 -0.075162965086373407
leaf_count=83 12258 231 41 55 1111 2769 44
internal_value=0 -0.076253 0.896769 2.52306 0.316893 0.147639 1.72645
internal_count=16592 12585 327 96 4007 2896 127
shrinkage=0.12


Tree=13
num_leaves=8
num_cat=0
split_feature=2 8 2 1 1 8 1
split_gain=390.225 501.985 342.897 443.253 332.661 300.171 290.281
threshold=11.500000000000002 14.485000133514406 1.5000000000000002 2.5000000000000004 4.5000000000000009 18.375000000000004 2.5000000000000004
decision_type=2 2 2 2 2 2 2
left_child=1 2 3 -1 6 -2 -4
right_child=5 -3 4 -5 -6 -7 -8
leaf_value=0.086180685164046381 -0.13489592222477259 -0.0056492561356237562 -0.13441825358569623 0.54370666694641112 -0.22053928248425747 0.087807169510890237 0.45196300898828812
leaf_count=62 95 15222 20 60 47 1055 31
internal_value=0 -0.0254016 1.47435 2.59328 0.0813896 0.578416 1.85008
internal_count=16592 15442 220 122 98 1150 51
shrinkage=0.12


Tree=14
num_leaves=8
num_cat=0
split_feature=0 1 0 0 8 8 1
split_gain=680.253 416.454 866.297 858.838 572.302 915.952 528.314
threshold=1.0000000180025095e-35 4.5000000000000009 9.5000000000000018 7.5000000000000009 25.185000419616703 12.47499990463257 5.5000000000000009
decision_type=2 2 2 2 2 2 2
left_child=-1 3 4 -2 5 -3 -7
right_child=1 2 -4 -5 -6 6 -8
leaf_value=0.11427540172773623 -0.091490326124386914 -0.17566112270480708 -0.0040164896386695823 -0.0013655099392306626 0.08377535800139109 0.30581815301112725 0.84274213518415175
leaf_count=739 1811 38 3304 9561 1026 71 42
internal_value=0 -0.0292418 0.22896 -0.130983 0.965638 2.78329 4.21152
internal_count=16592 15853 4481 11372 1177 151 113
shrinkage=0.12


Tree=15
num_leaves=8
num_cat=0
split_feature=8 7 8 1 8 2 2
split_gain=285.682 533.018 233.258 162.571 228.509 392.455 218.231
threshold=30.554999351501468 0.22500000149011615 28.095000267028812 5.5000000000000009 12.47499990463257 2.5000000000000004 2.5000000000000004
decision_type=2 2 2 2 2 2 2
left_child=1 3 -3 4 5 -1 -5
right_child=-2 2 -4 6 -6 -7 -8
leaf_value=0.28986144576674311 -0.0068761411401909228 0.73272382346066556 0.16648743724822998 0.23271019852360872 0.0065089478454549345 -0.10222703285515308 0.0089085639676740082
leaf_count=107 14412 22 20 127 1724 56 124
internal_value=0 0.331118 3.85906 0.261813 0.161243 1.29297 1.01789
internal_count=16592 2180 42 2138 1887 163 251
shrinkage=0.12


Tree=16
num_leaves=8
num_cat=0
split_feature=0 0 1 1 8 8 8
split_gain=693.267 558.377 333.811 495.276 480.156 441.835 971.575
threshold=1.5000000000000002 21.500000000000004 4.5000000000000009 1.0000000180025095e-35 64.134998321533217 52.805000305175788 56.335000991821296
decision_type=2 2 2 2 2 2 2
left_child=2 -2 3 -1 5 -5 -7
right_child=1 -3 -4 4 -6 6 -8
leaf_value=-0.093816281824276357 -0.013396070578706686 0.061570524495464032 -0.012826826216919081 0.21422476228873946 -0.006238356355358572 1.2397719839641026 0.28029335431686858
leaf_count=87 14282 1590 210 245 102 21 55
internal_value=0 -0.0490516 0.954218 1.39115 1.83806 2.43864 4.5451
internal_count=16592 15872 720 510 423 321 76
shrinkage=0.12


Tree=17
num_leaves=8
num_cat=0
split_feature=0 0 1 1 8 8 8
split_gain=536.866 471.594 279.434 326.549 281.535 410.296 562.065
threshold=1.5000000000000002 19.500000000000004 5.5000000000000009 1.0000000180025095e-35 64.134998321533217 54.315000534057624 57.114999771118171
decision_type=2 2 2 2 2 2 2
left_child=2 -2 3 -1 5 -5 -7
right_child=1 -3 -4 4 -6 6 -8
leaf_value=-0.082558326155974943 -0.01572666632100695 0.035387579235758714 -0.074340863002313143 0.15215585718225491 0.013938321699388325 0.95567588979783258 0.26814172500105043
leaf_count=87 12597 3275 111 304 128 23 67
internal_value=0 -0.0431654 0.839712 1.10568 1.40462 1.82321 3.69871
internal_count=16592 15872 720 609 522 394 90
shrinkage=0.12


Tree=18
num_leaves=8
num_cat=0
split_feature=0 0 1 0 0 7 1
split_gain=415.749 365.202 235.339 549.98 407.875 371.553 339.475
threshold=1.5000000000000002 19.500000000000004 4.5000000000000009 9.5000000000000018 7.5000000000000009 0.57499998807907116 5.5000000000000009
decision_type=2 2 2 2 2 2 2
left_child=-1 2 4 5 -2 -4 -7
right_child=1 -3 3 -5 -6 6 -8
leaf_value=0.088673587569074397 -0.074906912012621313 0.031141070362224282 0.060428196056877298 -0.021236038908763404 -0.011329873957053125 0.54693858957290653 0.066477163195610048
leaf_count=720 1817 3275 1099 2341 7255 45 40
internal_value=0 -0.0379855 -0.115329 0.103944 -0.200529 0.65936 2.67366
internal_count=16592 15872 12597 3525 9072 1184 85
shrinkage=0.12


Tree=19
num_leaves=8
num_cat=0
split_feature=0 0 1 1 8 8 8
split_gain=321.956 309.354 225.677 304.438 313.591 458.444 271.132
threshold=1.5000000000000002 21.500000000000004 4.5000000000000009 1.0000000180025095e-35 61.094999313354499 54.315000534057624 57.344999313354499
decision_type=2 2 2 2 2 2 2
left_child=2 -2 3 -1 5 -5 -7
right_child=1 -3 -4 4 -6 6 -8
leaf_value=-0.083292158492680249 -0.0096010858424051184 0.046198622280099196 -0.026664317520601409 0.16194572005851335 -4.1014892010649377e-05 0.90106094527244573 0.33435089903493082
leaf_count=87 14282 1590 210 251 121 20 31
internal_value=0 -0.0334273 0.650273 1.00953 1.35992 1.90492 4.63825
internal_count=16592 15872 720 510 423 302 51
shrinkage=0.12


end of trees

feature importances:
Column_8=38
Column_1=36
Column_0=35
Column_2=24
Column_7=7

parameters:
[boosting: gbdt]
[objective: regression]
[metric: rmse]
[tree_learner: serial]
[device_type: cpu]
[data: ]
[valid: ]
[num_iterations: 100]
[learning_rate: 0.12]
[num_leaves: 8]
[num_threads: 0]
[max_depth: -1]
[min_data_in_leaf: 20]
[min_sum_hessian_in_leaf: 0.001]
[bagging_fraction: 0.8]
[bagging_freq: 5]
[bagging_seed: 3]
[feature_fraction: 0.9]
[feature_fraction_seed: 2]
[early_stopping_round: 0]
[max_delta_step: 0]
[lambda_l1: 0]
[lambda_l2: 0]
[min_gain_to_split: 0]
[drop_rate: 0.1]
[max_drop: 50]
[skip_drop: 0.5]
[xgboost_dart_mode: 0]
[uniform_drop: 0]
[drop_seed: 4]
[top_rate: 0.2]
[other_rate: 0.1]
[min_data_per_group: 100]
[max_cat_threshold: 32]
[cat_l2: 10]
[cat_smooth: 10]
[max_cat_to_onehot: 4]
[top_k: 20]
[monotone_constraints: ]
[feature_contri: ]
[forcedsplits_filename: ]
[refit_decay_rate: 0.9]
[verbosity: 0]
[max_bin: 255]
[min_data_in_bin: 3]
[bin_construct_sample_cnt: 200000]
[histogram_pool_size: -1]
[data_random_seed: 1]
[output_model: LightGBM_model.txt]
[snapshot_freq: -1]
[input_model: ]
[output_result: LightGBM_predict_result.txt]
[initscore_filename: ]
[valid_data_initscores: ]
[pre_partition: 0]
[enable_bundle: 1]
[max_conflict_rate: 0]
[is_enable_sparse: 1]
[sparse_threshold: 0.8]
[use_missing: 1]
[zero_as_missing: 0]
[two_round: 0]
[save_binary: 0]
[enable_load_from_binary_file: 1]
[header: 0]
[label_column: ]
[weight_column: ]
[group_column: ]
[ignore_column: ]
[categorical_feature: ]
[predict_raw_score: 0]
[predict_leaf_index: 0]
[predict_contrib: 0]
[num_iteration_predict: -1]
[pred_early_stop: 0]
[pred_early_stop_freq: 10]
[pred_early_stop_margin: 10]
[convert_model_language: ]
[convert_model: gbdt_prediction.cpp]
[num_class: 1]
[is_unbalance: 0]
[scale_pos_weight: 1]
[sigmoid: 1]
[boost_from_average: 1]
[reg_sqrt: 0]
[alpha: 0.9]
[fair_c: 1]
[poisson_max_delta_step: 0.7]
[tweedie_variance_power: 1.5]
[max_position: 20]
[label_gain: ]
[metric_freq: 1]
[is_provide_training_metric: 0]
[eval_at: ]
[num_machines: 1]
[local_listen_port: 12400]
[time_out: 120]
[machine_list_filename: ]
[machines: ]
[gpu_platform_id: -1]
[gpu_device_id: -1]
[gpu_use_dp: 0]

end of parameters

pandas_categorical:null
