tree
version=v2
num_class=1
num_tree_per_iteration=1
label_index=0
max_feature_idx=8
objective=regression
feature_names=Column_0 Column_1 Column_2 Column_3 Column_4 Column_5 Column_6 Column_7 Column_8
feature_infos=[0:23] [0:6] [1:12] [0:2] none [0:1] [0:1] [0:1] [-10.149999618530273:95.94000244140625]
tree_sizes=702 716 709 715 699 721 728 724 723 723 725 723 715 716 730 715 728 718 723 712

Tree=0
num_leaves=8
num_cat=0
split_feature=8 0 0 0 2 0 0
split_gain=11688.8 7041.62 4150.93 3478.89 1934.98 1761.05 1938.13
threshold=47.965000152587898 4.5000000000000009 6.5000000000000009 1.0000000180025095e-35 11.500000000000002 1.0000000180025095e-35 4.5000000000000009
decision_type=2 2 2 2 2 2 2
left_child=1 3 5 -1 -4 -2 -7
right_child=2 -3 4 -5 -6 6 -8
leaf_value=3.3112513210741357 3.0252035937254789 3.1661328380646561 2.9677025690571077 3.8376668129695704 3.6104917069188662 3.565317530606134 3.1523781218448894
leaf_count=381 392 6306 8156 344 68 309 348
internal_value=0 0.989388 -0.720284 3.94084 -0.959235 1.15306 2.15388
internal_count=16304 7031 9273 725 8224 1049 657
shrinkage=1


Tree=1
num_leaves=8
num_cat=0
split_feature=8 0 0 0 1 0 0
split_gain=9063.69 5392.84 3250.77 2734.95 2577.73 1356.01 1491.5
threshold=48.225000381469734 4.5000000000000009 6.5000000000000009 1.0000000180025095e-35 4.5000000000000009 1.0000000180025095e-35 4.5000000000000009
decision_type=2 2 2 2 2 2 2
left_child=1 3 5 -1 -3 -2 -7
right_child=2 4 -4 -5 -6 6 -8
leaf_value=0.192524521774733 -0.054807387511859568 0.020540927868126679 -0.10222730028067201 0.65712554866178874 0.19049548434583763 0.4211521240631998 0.057540716736213013
leaf_count=386 387 4582 8165 346 1786 307 345
internal_value=0 0.863877 -0.639895 3.43443 0.568393 1.02611 1.90625
internal_count=16304 7100 9204 732 6368 1039 652
shrinkage=0.12


Tree=2
num_leaves=8
num_cat=0
split_feature=8 2 1 1 8 8 1
split_gain=7081.43 1351.65 1452.32 969.731 859.123 856.893 1494.44
threshold=44.565000534057624 11.500000000000002 3.5000000000000004 4.5000000000000009 16.805000305175785 23.105000495910648 5.5000000000000009
decision_type=2 2 2 2 2 2 2
left_child=3 -2 -3 -1 -5 6 -6
right_child=1 2 -4 4 5 -7 -8
leaf_value=0.073301142084603907 -0.064888934291403841 -0.073776163935661318 0.76468779353772176 -0.14364134427663441 0.21421733969942144 0.17250177675178369 1.0012318977888892
leaf_count=4442 10017 60 59 111 109 1455 51
internal_value=0 -0.500939 2.84944 0.858006 1.4941 1.67906 3.87565
internal_count=16304 10136 119 6168 1726 1615 160
shrinkage=0.12


Tree=3
num_leaves=8
num_cat=0
split_feature=0 8 0 0 1 2 2
split_gain=7043.8 3867.32 1799.83 3164.71 1653.86 975.066 904.946
threshold=6.5000000000000009 48.774999618530281 1.0000000180025095e-35 4.5000000000000009 4.5000000000000009 3.5000000000000004 9.5000000000000018
decision_type=2 2 2 2 2 2 2
left_child=2 4 -1 5 -2 -4 -6
right_child=1 -3 3 -5 6 -7 -8
leaf_value=0.059077776541685223 0.0031835482597977346 -0.083859858765787013 0.70497208164145908 0.11118795916246242 0.080675091475577498 0.38360801916018772 0.26402423628937827
leaf_count=773 4378 8046 193 699 1177 460 578
internal_value=0 -0.24287 1.70944 2.40532 0.355316 3.98825 1.1755
internal_count=16304 14179 2125 1352 6133 653 1755
shrinkage=0.12


Tree=4
num_leaves=8
num_cat=0
split_feature=8 2 1 8 7 7 7
split_gain=4494.33 1010.94 1108 695.353 3242.9 694.659 584.845
threshold=44.565000534057624 11.500000000000002 3.5000000000000004 32.305000305175788 0.42499999701976782 0.64499998092651378 0.2950000017881394
decision_type=2 2 2 2 2 2 2
left_child=3 -2 -3 4 -1 -6 -4
right_child=1 2 6 -5 5 -7 -8
leaf_value=0.11127152295968372 -0.05205504729518208 -0.063325805485248562 0.29757099354267119 0.048467978113472705 0.72189799238895547 1.6411848460435867 1.0533032616253557
leaf_count=2474 10017 60 30 3645 29 20 29
internal_value=0 -0.39937 2.49814 0.683245 1.08682 9.14264 5.57527
internal_count=16304 10136 119 6168 2523 49 59
shrinkage=0.12


Tree=5
num_leaves=8
num_cat=0
split_feature=0 2 0 2 8 8 1
split_gain=5610.55 2957.85 2720.12 1780.69 709.675 693.852 751.822
threshold=4.5000000000000009 2.5000000000000004 1.0000000180025095e-35 9.5000000000000018 42.364999771118171 36.545000076293952 5.5000000000000009
decision_type=2 2 2 2 2 2 2
left_child=2 5 4 -3 -1 6 -2
right_child=1 3 -4 -5 -6 -7 -8
leaf_value=0.21482874163198937 0.11285979148990682 -0.071649425737755165 0.40719381963868545 0.033720606189063161 -0.021808694652716318 0.014798056966796211 0.36476107845034622
leaf_count=307 1471 9152 662 3089 450 980 193
internal_value=0 -0.168321 1.91274 -0.375495 0.617993 0.79084 1.18397
internal_count=16304 14885 1419 12241 757 2644 1664
shrinkage=0.12


Tree=6
num_leaves=8
num_cat=0
split_feature=0 2 0 2 7 0 2
split_gain=4344.81 2290.56 2106.46 1378.97 1606.11 644.771 585.595
threshold=4.5000000000000009 2.5000000000000004 1.0000000180025095e-35 9.5000000000000018 0.99500000476837169 6.5000000000000009 3.5000000000000004
decision_type=2 2 2 2 2 2 2
left_child=2 -2 -1 5 -5 -3 -7
right_child=1 3 -4 4 -6 6 -8
leaf_value=0.065260089723494202 0.08351271381773584 0.074616985201835628 0.35833055792607116 0.014513732245018531 0.52354064879210105 0.0031508186505437687 -0.083614777337655169
leaf_count=757 2644 465 662 2997 92 1321 7366
internal_value=0 -0.148122 1.68321 -0.330436 0.247284 -0.525429 -0.586839
internal_count=16304 14885 1419 12241 3089 9152 8687
shrinkage=0.12


Tree=7
num_leaves=8
num_cat=0
split_feature=0 8 0 2 1 2 1
split_gain=3364.62 1865.03 1631.24 892.726 643.223 613.322 635.417
threshold=4.5000000000000009 38.965000152587898 1.0000000180025095e-35 11.500000000000002 5.5000000000000009 2.5000000000000004 1.5000000000000002
decision_type=2 2 2 2 2 2 2
left_child=2 5 -1 -3 -5 6 -2
right_child=1 3 -4 4 -6 -7 -8
leaf_value=0.057428875899181026 0.0013355515288014717 -0.047144230444116093 0.31533089647559148 0.099188133749850957 0.62888477045756108 0.0095700584420124243 0.14960162664252993
leaf_count=757 609 10541 662 215 39 2166 1315
internal_value=0 -0.130348 1.48122 -0.348229 1.50433 0.444719 0.855594
internal_count=16304 14885 1419 10795 254 4090 1924
shrinkage=0.12


Tree=8
num_leaves=8
num_cat=0
split_feature=0 2 0 2 7 0 0
split_gain=2605.56 1422.9 1263.23 964.545 1215.45 535.31 457.527
threshold=4.5000000000000009 2.5000000000000004 1.0000000180025095e-35 9.5000000000000018 0.99500000476837169 7.5000000000000009 21.500000000000004
decision_type=2 2 2 2 2 2 2
left_child=2 -2 -1 5 6 -3 -5
right_child=1 3 -4 4 -6 -7 -8
leaf_value=0.050537412198878022 0.066066269668871636 0.032990256316165638 0.27749118423061248 -0.0031542253509720332 0.45659787237239274 -0.060656488381569777 0.14356606647458378
leaf_count=757 2644 985 662 2651 92 8167 346
internal_value=0 -0.114706 1.30348 -0.258399 0.224773 -0.42148 0.11487
internal_count=16304 14885 1419 12241 3089 9152 2997
shrinkage=0.12


Tree=9
num_leaves=8
num_cat=0
split_feature=0 8 0 2 8 8 0
split_gain=2017.75 1223.13 978.248 629.678 549.572 496.033 475.879
threshold=4.5000000000000009 38.965000152587898 1.0000000180025095e-35 11.500000000000002 42.364999771118171 38.114999771118171 6.5000000000000009
decision_type=2 2 2 2 2 2 2
left_child=2 -2 4 6 -1 -4 -3
right_child=1 3 5 -5 -6 -7 -8
leaf_value=0.16826212412856689 0.043771618124187527 0.083094510831652341 0.38607846224462833 0.15341739964986761 -0.039978820010026291 0.16814649648705102 -0.043163367408802826
leaf_count=307 4090 449 231 254 450 431 10092
internal_value=0 -0.100941 1.14706 -0.277387 0.370608 2.03494 -0.314878
internal_count=16304 14885 1419 10795 757 662 10541
shrinkage=0.12


Tree=10
num_leaves=8
num_cat=0
split_feature=0 2 2 7 0 2 1
split_gain=1203.53 706.853 1229.29 948.022 565.104 473.778 361.033
threshold=6.5000000000000009 3.5000000000000004 9.5000000000000018 0.99500000476837169 22.500000000000004 11.500000000000002 4.5000000000000009
decision_type=2 2 2 2 2 2 2
left_child=-1 -2 -3 4 6 -6 -4
right_child=1 2 3 -5 5 -7 -8
leaf_value=0.081439721079293051 0.028317237995378091 -0.058321909522025588 -0.020063486192114437 0.43032037192157335 0.39731449227122695 -0.0098238308533378262 0.075498826212288886
leaf_count=2107 3828 7379 1927 84 102 69 808
internal_value=0 -0.131262 -0.266838 0.274069 0.178335 1.94192 0.0680704
internal_count=16304 14197 10369 2990 2906 171 2735
shrinkage=0.12


Tree=11
num_leaves=8
num_cat=0
split_feature=8 0 2 0 8 1 8
split_gain=1095.45 883.626 830.346 876.734 458.606 406.958 1168.49
threshold=32.305000305175788 7.5000000000000009 9.5000000000000018 21.500000000000004 49.754999160766609 4.5000000000000009 16.805000305175785
decision_type=2 2 2 2 2 2 2
left_child=5 4 -3 -4 -2 -1 -7
right_child=1 2 3 -5 -6 6 -8
leaf_value=0.041165180298149688 0.11550948418161404 -0.045844919828774165 0.0075991033715924515 0.23677855097496991 0.0068664100409347043 -0.19894216496448375 0.22305405876558759
leaf_count=1817 954 9175 2067 272 1353 114 552
internal_value=0 -0.133269 -0.246451 0.285418 0.431608 0.588145 1.25684
internal_count=16304 13821 11514 2339 2307 2483 666
shrinkage=0.12


Tree=12
num_leaves=8
num_cat=0
split_feature=8 7 2 7 1 8 7
split_gain=848.313 2091.51 733.757 789.398 655.197 477.29 369.491
threshold=32.305000305175788 0.69499999284744274 10.500000000000002 0.99500000476837169 4.5000000000000009 49.024999618530281 0.35500000417232519
decision_type=2 2 2 2 2 2 2
left_child=1 6 -2 4 -4 -5 -1
right_child=2 -3 3 5 -6 -7 -8
leaf_value=0.046767314680564546 -0.024162368241235133 1.2843007746934891 -0.0073147838005475632 0.20366661884567955 0.16289002758841362 0.83743913594101149 0.45102243640206074
leaf_count=2430 12197 20 1087 44 465 28 33
internal_value=0 0.517567 -0.117277 0.514174 0.364007 3.75111 0.434864
internal_count=16304 2483 13821 1624 1552 72 2463
shrinkage=0.12


Tree=13
num_leaves=8
num_cat=0
split_feature=2 2 7 8 2 8 2
split_gain=689.171 709.714 793.884 439.455 481.251 415.071 342.893
threshold=3.5000000000000004 9.5000000000000018 0.99500000476837169 62.004999160766609 2.5000000000000004 10.430000305175783 4.5000000000000009
decision_type=2 2 2 2 2 2 2
left_child=3 6 -3 5 -5 -1 -2
right_child=1 2 -4 4 -6 -7 -8
leaf_value=0.27106510817753865 -0.088154577784315499 0.019195686994972837 0.37100989228526227 0.052905619062226392 0.7793467092514037 0.02841295079218591 -0.024667554183257039
leaf_count=104 1485 3326 95 29 24 4243 6998
internal_value=0 -0.143119 0.241379 0.320048 3.18217 0.285152 -0.298178
internal_count=16304 11904 3421 4400 53 4347 8483
shrinkage=0.12


Tree=14
num_leaves=8
num_cat=0
split_feature=0 8 7 0 1 2 2
split_gain=757.109 517.354 1302.03 626.058 581.415 556.915 346.721
threshold=7.5000000000000009 31.435000419616703 0.35500000417232519 13.500000000000002 4.5000000000000009 10.500000000000002 2.5000000000000004
decision_type=2 2 2 2 2 2 2
left_child=-1 2 6 4 -3 -5 -2
right_child=1 3 -4 5 -6 -7 -8
leaf_value=0.053173043497290663 0.079757595682340227 -0.086627702423217545 0.76194508582353593 -0.013959255637941193 0.0098553813760325903 0.086680705435574046 -0.031361999158239499
leaf_count=2944 950 3124 36 6379 1263 904 704
internal_value=0 -0.117105 0.400004 -0.191991 -0.490422 -0.0122279 0.27051
internal_count=16304 13360 1690 11670 4387 7283 1654
shrinkage=0.12


Tree=15
num_leaves=8
num_cat=0
split_feature=2 8 1 2 8 8 8
split_gain=656.021 422.085 367.362 591.065 405.634 745.423 399.207
threshold=3.5000000000000004 10.430000305175783 4.5000000000000009 10.500000000000002 14.825000286102297 22.525000572204593 35.944999694824226
decision_type=2 2 2 2 2 2 2
left_child=1 -1 -2 -4 -5 -6 -7
right_child=2 -3 3 4 5 6 -8
leaf_value=0.27774797287091468 -0.029502645503763556 0.031967227812110866 -0.0073254300896589712 -0.38540214170109144 0.74395168368305475 -0.026605570959572743 0.18123630824341222
leaf_count=103 8553 4347 2659 22 28 202 390
internal_value=0 0.313801 -0.13649 0.146878 1.00804 1.15778 0.919311
internal_count=16304 4450 11854 3301 642 620 592
shrinkage=0.12


Tree=16
num_leaves=8
num_cat=0
split_feature=0 1 8 0 8 8 0
split_gain=716.949 433.663 770.161 729.886 594.12 521.734 479.966
threshold=6.5000000000000009 4.5000000000000009 49.305000305175788 13.500000000000002 16.805000305175785 18.755000114440922 17.500000000000004
decision_type=2 2 2 2 2 2 2
left_child=-1 3 4 5 -3 -2 -5
right_child=1 2 -4 6 -6 -7 -8
leaf_value=0.064063398068043301 0.17378130982736595 -0.22190649059008466 -0.024522910115945394 0.044011466435242189 0.098022984169347557 -0.06945595797359036 -0.025245910221521273
leaf_count=2097 131 88 2210 2431 1666 4143 3538
internal_value=0 -0.0925224 0.188326 -0.20121 0.683098 -0.516672 0.0246717
internal_count=16304 14207 3964 10243 1754 4274 5969
shrinkage=0.12


Tree=17
num_leaves=8
num_cat=0
split_feature=0 0 8 8 8 8 1
split_gain=561.689 440.247 356.695 630.274 301.354 286.391 606.775
threshold=7.5000000000000009 21.500000000000004 17.864999771118168 16.805000305175785 20.48499965667725 31.175000190734867 5.5000000000000009
decision_type=2 2 2 2 2 2 2
left_child=2 5 3 -1 -4 6 -2
right_child=1 -3 4 -5 -6 -7 -8
leaf_value=0.12145809323216478 0.0027137870194785521 0.047395289439428598 -0.23331105739905916 0.82614195747808983 0.0431066291355073 -0.026415499606420933 0.25095840059544727
leaf_count=108 1188 1600 58 22 2733 10434 161
internal_value=0 -0.0972369 0.386771 2.00594 0.311353 -0.164072 0.26951
internal_count=16304 13383 2921 130 2791 11783 1349
shrinkage=0.12


Tree=18
num_leaves=8
num_cat=0
split_feature=0 0 2 8 8 8 1
split_gain=452.189 396.927 323.196 319.508 312.417 537.523 309.682
threshold=6.5000000000000009 1.0000000180025095e-35 3.5000000000000004 75.415000915527358 62.004999160766609 65.365001678466811 4.5000000000000009
decision_type=2 2 2 2 2 2 2
left_child=1 -1 4 -3 -2 -6 -4
right_child=2 3 6 -5 5 -7 -8
leaf_value=-0.018483506894048724 0.016573974913495267 0.082787605104275463 -0.032859390463923763 0.5545734243307795 0.74799144309499987 0.0053301094969113666 0.01329440215973768
leaf_count=758 3805 1318 7428 21 23 36 2915
internal_value=0 0.424216 -0.0732425 0.751557 0.173524 2.45702 -0.165431
internal_count=16304 2097 14207 1339 3864 59 10343
shrinkage=0.12


Tree=19
num_leaves=8
num_cat=0
split_feature=0 0 8 8 8 8 8
split_gain=353.565 340.066 275.295 486.538 235.942 222.746 313.773
threshold=7.5000000000000009 21.500000000000004 17.864999771118168 16.805000305175785 20.48499965667725 23.105000495910648 27.015000343322757
decision_type=2 2 2 2 2 2 2
left_child=2 -2 3 -1 -4 -6 -7
right_child=1 -3 4 -5 5 6 -8
leaf_value=0.10276573234134249 -0.016282483346279297 0.042676694556651636 -0.21060595689148737 0.72190439636057069 0.24374819293723141 -0.1458210519732947 0.038127700316437835
leaf_count=108 11783 1600 58 22 71 141 2521
internal_value=0 -0.076947 0.30706 1.72953 0.240804 0.28316 0.236536
internal_count=16304 13383 2921 130 2791 2733 2662
shrinkage=0.12


end of trees

feature importances:
Column_0=42
Column_8=41
Column_2=29
Column_1=17
Column_7=11

parameters:
[boosting: gbdt]
[objective: regression]
[metric: rmse]
[tree_learner: serial]
[device_type: cpu]
[data: ]
[valid: ]
[num_iterations: 100]
[learning_rate: 0.12]
[num_leaves: 8]
[num_threads: 0]
[max_depth: -1]
[min_data_in_leaf: 20]
[min_sum_hessian_in_leaf: 0.001]
[bagging_fraction: 0.8]
[bagging_freq: 5]
[bagging_seed: 3]
[feature_fraction: 0.9]
[feature_fraction_seed: 2]
[early_stopping_round: 0]
[max_delta_step: 0]
[lambda_l1: 0]
[lambda_l2: 0]
[min_gain_to_split: 0]
[drop_rate: 0.1]
[max_drop: 50]
[skip_drop: 0.5]
[xgboost_dart_mode: 0]
[uniform_drop: 0]
[drop_seed: 4]
[top_rate: 0.2]
[other_rate: 0.1]
[min_data_per_group: 100]
[max_cat_threshold: 32]
[cat_l2: 10]
[cat_smooth: 10]
[max_cat_to_onehot: 4]
[top_k: 20]
[monotone_constraints: ]
[feature_contri: ]
[forcedsplits_filename: ]
[refit_decay_rate: 0.9]
[verbosity: 0]
[max_bin: 255]
[min_data_in_bin: 3]
[bin_construct_sample_cnt: 200000]
[histogram_pool_size: -1]
[data_random_seed: 1]
[output_model: LightGBM_model.txt]
[snapshot_freq: -1]
[input_model: ]
[output_result: LightGBM_predict_result.txt]
[initscore_filename: ]
[valid_data_initscores: ]
[pre_partition: 0]
[enable_bundle: 1]
[max_conflict_rate: 0]
[is_enable_sparse: 1]
[sparse_threshold: 0.8]
[use_missing: 1]
[zero_as_missing: 0]
[two_round: 0]
[save_binary: 0]
[enable_load_from_binary_file: 1]
[header: 0]
[label_column: ]
[weight_column: ]
[group_column: ]
[ignore_column: ]
[categorical_feature: ]
[predict_raw_score: 0]
[predict_leaf_index: 0]
[predict_contrib: 0]
[num_iteration_predict: -1]
[pred_early_stop: 0]
[pred_early_stop_freq: 10]
[pred_early_stop_margin: 10]
[convert_model_language: ]
[convert_model: gbdt_prediction.cpp]
[num_class: 1]
[is_unbalance: 0]
[scale_pos_weight: 1]
[sigmoid: 1]
[boost_from_average: 1]
[reg_sqrt: 0]
[alpha: 0.9]
[fair_c: 1]
[poisson_max_delta_step: 0.7]
[tweedie_variance_power: 1.5]
[max_position: 20]
[label_gain: ]
[metric_freq: 1]
[is_provide_training_metric: 0]
[eval_at: ]
[num_machines: 1]
[local_listen_port: 12400]
[time_out: 120]
[machine_list_filename: ]
[machines: ]
[gpu_platform_id: -1]
[gpu_device_id: -1]
[gpu_use_dp: 0]

end of parameters

pandas_categorical:null
