tree
version=v2
num_class=1
num_tree_per_iteration=1
label_index=0
max_feature_idx=8
objective=regression
feature_names=Column_0 Column_1 Column_2 Column_3 Column_4 Column_5 Column_6 Column_7 Column_8
feature_infos=[0:23] [0:6] [1:12] [0:2] none [0:1] [0:1] [0:1] [-10.159999847412109:95.800003051757812]
tree_sizes=698 717 717 718 715 720 724 715 724 723 723 719 726 715 721 717

Tree=0
num_leaves=8
num_cat=0
split_feature=0 2 7 0 8 2 8
split_gain=9682.46 3631.99 916.202 734.98 611.641 536.09 477.939
threshold=1.0000000180025095e-35 11.500000000000002 0.99500000476837169 21.500000000000004 62.424999237060554 9.5000000000000018 14.530000209808351
decision_type=2 2 2 2 2 2 2
left_child=4 3 6 -2 -1 -5 -3
right_child=1 2 -4 5 -6 -7 -8
leaf_value=2.5723285312389748 1.9940128822024317 1.8947347666673817 3.021198470837295 2.0540244930938454 2.305484182451444 2.2573806254854265 2.2410189741782838
leaf_count=469 10766 61 21 1010 168 229 971
internal_value=0 -0.172839 1.6079 -0.329034 3.81985 0.400337 1.47484
internal_count=13695 13058 1053 12005 637 1239 1032
shrinkage=1


Tree=1
num_leaves=8
num_cat=0
split_feature=0 2 1 1 7 8 0
split_gain=7498.1 2812.61 1332.13 1404.52 722.479 701.581 569.169
threshold=1.0000000180025095e-35 11.500000000000002 1.0000000180025095e-35 5.5000000000000009 0.7749999761581422 64.125000000000014 21.500000000000004
decision_type=2 2 2 2 2 2 2
left_child=2 6 -1 5 -3 -4 -2
right_child=1 4 3 -5 -6 -7 -8
leaf_value=-0.048089122016255446 -0.043609982915987354 0.15191576173025018 0.63673039143058385 0.027325719142782274 0.72240947387435217 0.2964453399181366 0.042275554249130785
leaf_count=82 10766 1020 352 87 33 116 1239
internal_value=0 -0.152098 3.36147 3.91733 1.41495 4.60322 -0.28955
internal_count=13695 13058 637 555 1053 468 12005
shrinkage=0.12


Tree=2
num_leaves=8
num_cat=0
split_feature=2 7 8 2 7 8 8
split_gain=2389.08 570.36 438.404 412.15 409.236 370.437 295.543
threshold=11.500000000000002 0.99500000476837169 22.554999351501468 9.5000000000000018 0.99500000476837169 14.530000209808351 41.414999008178718
decision_type=2 2 2 2 2 2 2
left_child=2 5 -1 -4 6 -2 -5
right_child=1 -3 3 4 -6 -7 -8
leaf_value=0.095352166579050171 -0.11941276191748104 0.77550095298073507 -0.028924250328325515 0.089534756642075913 0.29259751048352983 0.17608917591019804 -0.0090601650305623845
leaf_count=510 65 22 9801 603 81 1015 1598
internal_value=0 1.42188 -0.113585 -0.151918 0.230834 1.3192 0.149596
internal_count=13695 1102 12593 12083 2282 1080 2201
shrinkage=0.12


Tree=3
num_leaves=8
num_cat=0
split_feature=0 2 1 1 1 8 0
split_gain=5798.97 1762.12 1033.94 1085.11 778.7 534.373 465.946
threshold=1.0000000180025095e-35 10.500000000000002 1.0000000180025095e-35 5.5000000000000009 4.5000000000000009 62.424999237060554 8.5000000000000018
decision_type=2 2 2 2 2 2 2
left_child=2 -2 -1 5 6 -4 -3
right_child=1 4 3 -5 -6 -7 -8
leaf_value=-0.043142480414088177 -0.035731982689733814 -0.090779137355144895 0.56438442296841562 0.024196872176795167 0.19834336785154641 0.27672274421900511 0.07176329774635011
leaf_count=82 10914 321 340 87 607 128 1216
internal_value=0 -0.134949 2.95498 3.44469 0.693869 4.04756 0.315138
internal_count=13695 13058 637 555 2144 468 1537
shrinkage=0.12


Tree=4
num_leaves=8
num_cat=0
split_feature=2 8 8 8 1 2 8
split_gain=1564.23 473.34 341.674 289.288 274.175 398.866 406.295
threshold=11.500000000000002 54.895000457763679 22.554999351501468 14.530000209808351 4.5000000000000009 10.500000000000002 38.98500061035157
decision_type=2 2 2 2 2 2 2
left_child=2 3 -1 -2 -4 -6 -7
right_child=1 -3 4 -5 5 6 -8
leaf_value=0.085140428571140056 -0.11810535770797959 0.71648537778854371 -0.026315579997675319 0.14301628700663557 0.00095886077439584028 0.34926396667957305 0.051039605277577088
leaf_count=510 65 20 8738 1017 3040 96 209
internal_value=0 1.15018 -0.0922552 1.06108 -0.126096 0.117368 1.20756
internal_count=13695 1102 12593 1082 12083 3345 305
shrinkage=0.12


Tree=5
num_leaves=8
num_cat=0
split_feature=0 2 1 1 0 8 8
split_gain=4979.45 852.58 582.957 738.547 495.147 389.864 340.302
threshold=1.0000000180025095e-35 11.500000000000002 5.5000000000000009 1.0000000180025095e-35 21.500000000000004 61.905000686645515 40.895000457763679
decision_type=2 2 2 2 2 2 2
left_child=2 4 3 -1 -2 -5 -3
right_child=1 6 -4 5 -6 -7 -8
leaf_value=0.056452991813421248 -0.035073460828836618 0.053912921113956715 0.045974384736073647 0.49402739664782647 0.044528058559982757 0.24667167863845826 0.23111656515542126
leaf_count=92 10737 853 95 345 1257 125 191
internal_value=0 -0.147314 2.67421 3.06149 -0.222759 3.56868 0.719436
internal_count=13695 13038 657 562 11994 470 1044
shrinkage=0.12


Tree=6
num_leaves=8
num_cat=0
split_feature=0 2 0 7 2 8 0
split_gain=3856.09 660.238 454.762 383.265 345.001 230.838 194.482
threshold=1.0000000180025095e-35 11.500000000000002 12.500000000000002 0.99500000476837169 11.500000000000002 19.515000343322757 21.500000000000004
decision_type=2 2 2 2 2 2 2
left_child=4 2 5 -3 -1 -2 -4
right_child=1 3 6 -5 -6 -7 -8
leaf_value=0.25716995360827682 0.075214773985876962 0.065555241098545505 -0.012992742890520039 0.5834407397678919 0.5821471655368804 -0.056009438221036878 0.039184694729727604
leaf_count=606 201 1023 5663 21 51 4873 1257
internal_value=0 -0.129636 -0.196028 0.633104 2.3533 -0.423426 -0.0292904
internal_count=13695 13038 11994 1044 657 5074 6920
shrinkage=0.12


Tree=7
num_leaves=8
num_cat=0
split_feature=0 2 1 0 1 1 2
split_gain=2986.15 559.61 487.62 517.882 452.401 595.251 572.055
threshold=1.0000000180025095e-35 9.5000000000000018 4.5000000000000009 19.500000000000004 5.5000000000000009 1.5000000000000002 8.5000000000000018
decision_type=2 2 2 2 2 2 2
left_child=4 -2 3 -3 5 6 -1
right_child=1 2 -4 -5 -6 -7 -8
leaf_value=-0.033044560260772703 -0.027927103227850168 -0.028991850241717118 0.10406580221394544 0.11031416062579262 0.0063130912843503452 0.37596189003091907 0.41772581100463868
leaf_count=125 9818 1822 911 487 95 377 60
internal_value=0 -0.11408 0.247681 0.0032476 2.07091 2.41208 0.942927
internal_count=13695 13038 3220 2309 657 562 185
shrinkage=0.12


Tree=8
num_leaves=8
num_cat=0
split_feature=0 2 1 1 0 1 0
split_gain=2312.48 445.722 350.339 475.569 337.897 900.801 602.948
threshold=1.0000000180025095e-35 11.500000000000002 5.5000000000000009 1.0000000180025095e-35 12.500000000000002 4.5000000000000009 7.5000000000000009
decision_type=2 2 2 2 2 2 2
left_child=2 4 3 -1 5 -2 -7
right_child=1 -3 -4 -5 -6 6 -8
leaf_value=0.005213095960409744 -0.074266786132200641 0.063156942616420228 0.0055555179307335296 0.30355432380894398 -0.0013458243782142165 0.13675587447003915 -0.02241465457568043
leaf_count=92 3613 1044 95 470 6920 549 912
internal_value=0 -0.10039 1.8224 2.12263 -0.15494 -0.350954 0.31164
internal_count=13695 13038 657 562 11994 5074 1461
shrinkage=0.12


Tree=9
num_leaves=8
num_cat=0
split_feature=0 2 7 0 2 8 0
split_gain=1790.78 380.125 398.105 318.086 245.185 241.84 223.288
threshold=1.0000000180025095e-35 9.5000000000000018 0.99500000476837169 19.500000000000004 11.500000000000002 10.555000305175783 12.500000000000002
decision_type=2 2 2 2 2 2 2
left_child=4 5 3 -3 -1 -2 -7
right_child=1 2 -4 -5 -6 6 -8
leaf_value=0.17117889173836032 0.18288357608292888 -0.0020186716920501764 0.26849991579956195 0.091569226984024407 0.44514026939868923 -0.045192038254137486 -0.008432951141628113
leaf_count=606 82 2462 94 664 51 4140 5596
internal_value=0 -0.0883433 0.209811 0.148838 1.60371 -0.186129 -0.200532
internal_count=13695 13038 3220 3126 657 9818 9736
shrinkage=0.12


Tree=10
num_leaves=8
num_cat=0
split_feature=0 1 1 1 0 0 2
split_gain=1093.2 340.872 330.441 294.06 639.496 615.153 402.188
threshold=1.0000000180025095e-35 1.0000000180025095e-35 4.5000000000000009 4.5000000000000009 9.5000000000000018 11.500000000000002 10.500000000000002
decision_type=2 2 2 2 2 2 2
left_child=1 -1 -3 5 6 -2 -5
right_child=3 2 -4 4 -6 -7 -8
leaf_value=-0.0659315933370858 -0.059920488844386527 0.24898142373374618 0.047456457290423686 0.07019092722830228 -0.0098536465637780596 0.0036709007016508316 0.28166676544523855
leaf_count=89 3482 382 169 814 2699 5906 154
internal_value=0 1.26645 1.55976 -0.0721599 0.167978 -0.165959 0.86529
internal_count=13695 640 551 13055 3667 9388 968
shrinkage=0.12


Tree=11
num_leaves=8
num_cat=0
split_feature=0 1 1 2 2 0 8
split_gain=846.577 289.946 369.277 408.907 271.347 451.692 266.777
threshold=1.0000000180025095e-35 1.5000000000000002 4.5000000000000009 2.5000000000000004 9.5000000000000018 20.500000000000004 30.304999351501468
decision_type=2 2 2 2 2 2 2
left_child=1 -1 3 -3 -2 6 -6
right_child=4 2 -4 -5 5 -7 -8
leaf_value=0.0020757210591009685 -0.017562046778672988 0.57322289670214921 0.041761681839559202 0.19973964327087207 0.094750966105867376 0.12555261594491096 -0.01234839725893238
leaf_count=175 9814 51 169 245 391 515 2335
internal_value=0 1.11447 1.52739 2.20075 -0.0635007 0.187375 0.0251104
internal_count=13695 640 465 296 13055 3241 2726
shrinkage=0.12


Tree=12
num_leaves=8
num_cat=0
split_feature=2 7 7 8 3 1 7
split_gain=234.763 295.339 231.113 160.396 135.663 167.237 168.651
threshold=11.500000000000002 0.7749999761581422 0.42499999701976782 14.530000209808351 1.0000000180025095e-35 4.5000000000000009 0.17500000447034839
decision_type=2 2 2 2 2 2 2
left_child=4 2 3 -2 5 -1 -7
right_child=1 -3 -4 -5 -6 6 -8
leaf_value=-0.010561481610633819 -0.14183562299138622 0.43118695624943437 -0.26019392483149256 0.065527148592273821 -0.048190953916402032 0.01142905501530221 0.096104658645978239
leaf_count=8506 57 29 35 932 985 2765 386
internal_value=0 0.44622 0.357095 0.446467 -0.0452238 -0.0151113 0.181682
internal_count=13695 1053 1024 989 12642 11657 3151
shrinkage=0.12


Tree=13
num_leaves=8
num_cat=0
split_feature=2 7 7 8 6 8 8
split_gain=181.8 228.711 178.974 124.211 107.082 277.02 106.824
threshold=11.500000000000002 0.7749999761581422 0.42499999701976782 14.530000209808351 1.0000000180025095e-35 32.635000228881843 18.595000267028812
decision_type=2 2 2 2 2 2 2
left_child=4 2 3 -2 -1 -6 -5
right_child=1 -3 -4 6 5 -7 -8
leaf_value=-0.0062656669763394525 -0.12481534508498091 0.3794445199802004 -0.22897065399374281 0.25206650637663325 0.19650685978800059 -0.070716922155184908 0.049173740426710445
leaf_count=12416 57 29 35 39 125 101 893
internal_value=0 0.392673 0.314244 0.392891 -0.039797 0.642365 0.480532
internal_count=13695 1053 1024 989 12642 226 932
shrinkage=0.12


Tree=14
num_leaves=8
num_cat=0
split_feature=0 1 1 2 2 0 8
split_gain=660.915 221.745 295.144 316.657 242.979 213.998 213.181
threshold=1.0000000180025095e-35 1.5000000000000002 4.5000000000000009 2.5000000000000004 8.5000000000000018 21.500000000000004 30.304999351501468
decision_type=2 2 2 2 2 2 2
left_child=1 4 3 -3 -1 6 -2
right_child=5 2 -4 -5 -6 -7 -8
leaf_value=-0.09376840764617532 0.032756973207975111 0.50597829033346731 0.035178319273968417 0.17731311321623472 0.20935340970754623 0.039032068902623833 -0.017598432542773025
leaf_count=119 1371 51 169 245 56 1333 10351
internal_value=0 0.98642 1.34752 1.94951 0.0269214 -0.0543992 -0.0975741
internal_count=13695 640 465 296 175 13055 11722
shrinkage=0.12


Tree=15
num_leaves=8
num_cat=0
split_feature=2 7 8 1 8 8 2
split_gain=129.627 241.675 242.287 285.648 154.291 129.19 112.904
threshold=9.5000000000000018 0.99500000476837169 42.405000686645515 3.5000000000000004 6.7500000000000009 88.245002746582045 7.5000000000000009
decision_type=2 2 2 2 2 2 2
left_child=4 -2 -3 -4 -1 6 -6
right_child=1 2 3 -5 5 -7 -8
leaf_value=0.20275740320865923 0.017864348598954052 -0.17425349682569502 0.075773418301885775 0.513290217093059 0.00032786962736546345 0.090544909793551606 -0.03050410306236254
leaf_count=52 3290 20 44 42 7859 202 2186
internal_value=0 0.196753 1.68295 2.41204 -0.0285398 -0.037259 -0.0531817
internal_count=13695 3396 106 86 10299 10247 10045
shrinkage=0.12


end of trees

feature importances:
Column_0=26
Column_2=25
Column_8=24
Column_1=23
Column_7=12
Column_3=1
Column_6=1

parameters:
[boosting: gbdt]
[objective: regression]
[metric: rmse]
[tree_learner: serial]
[device_type: cpu]
[data: ]
[valid: ]
[num_iterations: 100]
[learning_rate: 0.12]
[num_leaves: 8]
[num_threads: 0]
[max_depth: -1]
[min_data_in_leaf: 20]
[min_sum_hessian_in_leaf: 0.001]
[bagging_fraction: 0.8]
[bagging_freq: 5]
[bagging_seed: 3]
[feature_fraction: 0.9]
[feature_fraction_seed: 2]
[early_stopping_round: 0]
[max_delta_step: 0]
[lambda_l1: 0]
[lambda_l2: 0]
[min_gain_to_split: 0]
[drop_rate: 0.1]
[max_drop: 50]
[skip_drop: 0.5]
[xgboost_dart_mode: 0]
[uniform_drop: 0]
[drop_seed: 4]
[top_rate: 0.2]
[other_rate: 0.1]
[min_data_per_group: 100]
[max_cat_threshold: 32]
[cat_l2: 10]
[cat_smooth: 10]
[max_cat_to_onehot: 4]
[top_k: 20]
[monotone_constraints: ]
[feature_contri: ]
[forcedsplits_filename: ]
[refit_decay_rate: 0.9]
[verbosity: 0]
[max_bin: 255]
[min_data_in_bin: 3]
[bin_construct_sample_cnt: 200000]
[histogram_pool_size: -1]
[data_random_seed: 1]
[output_model: LightGBM_model.txt]
[snapshot_freq: -1]
[input_model: ]
[output_result: LightGBM_predict_result.txt]
[initscore_filename: ]
[valid_data_initscores: ]
[pre_partition: 0]
[enable_bundle: 1]
[max_conflict_rate: 0]
[is_enable_sparse: 1]
[sparse_threshold: 0.8]
[use_missing: 1]
[zero_as_missing: 0]
[two_round: 0]
[save_binary: 0]
[enable_load_from_binary_file: 1]
[header: 0]
[label_column: ]
[weight_column: ]
[group_column: ]
[ignore_column: ]
[categorical_feature: ]
[predict_raw_score: 0]
[predict_leaf_index: 0]
[predict_contrib: 0]
[num_iteration_predict: -1]
[pred_early_stop: 0]
[pred_early_stop_freq: 10]
[pred_early_stop_margin: 10]
[convert_model_language: ]
[convert_model: gbdt_prediction.cpp]
[num_class: 1]
[is_unbalance: 0]
[scale_pos_weight: 1]
[sigmoid: 1]
[boost_from_average: 1]
[reg_sqrt: 0]
[alpha: 0.9]
[fair_c: 1]
[poisson_max_delta_step: 0.7]
[tweedie_variance_power: 1.5]
[max_position: 20]
[label_gain: ]
[metric_freq: 1]
[is_provide_training_metric: 0]
[eval_at: ]
[num_machines: 1]
[local_listen_port: 12400]
[time_out: 120]
[machine_list_filename: ]
[machines: ]
[gpu_platform_id: -1]
[gpu_device_id: -1]
[gpu_use_dp: 0]

end of parameters

pandas_categorical:null
